4.085720777511596680e-01,-2.889714837074279785e-01,2.068419754505157471e-02,3.112809658050537109e-01,-1.591518819332122803e-01,2.868696451187133789e-01,2.116291970014572144e-01,-1.364322751760482788e-01,8.321060240268707275e-02
1.905221492052078247e-01,3.780147731304168701e-01,4.242014884948730469e-02,2.213104814291000366e-01,2.912366688251495361e-01,-3.534894585609436035e-01,-3.146794140338897705e-01,-1.413646340370178223e-01,4.080437421798706055e-01
3.878736197948455811e-01,1.902398020029067993e-01,-1.254477351903915405e-01,2.199787795543670654e-01,4.495219886302947998e-01,-4.655507802963256836e-01,-2.663981020450592041e-01,2.283066958189010620e-01,-4.090712070465087891e-01
2.937016487121582031e-01,1.415386497974395752e-01,3.167237639427185059e-01,-4.211993217468261719e-01,-2.105771005153656006e-01,-1.043976917862892151e-01,1.752129942178726196e-02,-3.796141743659973145e-01,1.876356266438961029e-02
2.071346938610076904e-01,2.338636219501495361e-01,1.427614223212003708e-02,2.525162696838378906e-01,2.574605941772460938e-01,6.259000301361083984e-02,-2.042420022189617157e-02,-1.936603635549545288e-01,-2.314801365137100220e-01
-1.340084820985794067e-01,-3.085612654685974121e-01,-3.825407624244689941e-01,4.124815165996551514e-01,-1.333110332489013672e-01,-1.454247236251831055e-01,1.119774803519248962e-01,3.254678472876548767e-02,-2.422519624233245850e-01
-3.858295967802405357e-03,-2.155642211437225342e-02,-3.898052275180816650e-01,3.199886083602905273e-01,2.236240953207015991e-01,-4.196336865425109863e-01,2.664314508438110352e-01,3.468184769153594971e-01,-2.433173358440399170e-01
3.782791197299957275e-01,-2.345502376556396484e-01,-6.805321574211120605e-02,4.480084180831909180e-01,2.059177458286285400e-01,7.143384963274002075e-02,-1.254510879516601562e-01,-2.454176545143127441e-01,9.537333250045776367e-02
-1.602560579776763916e-01,-4.069468677043914795e-01,-2.992649376392364502e-01,-4.252783954143524170e-01,3.743728697299957275e-01,-3.246395885944366455e-01,1.976047009229660034e-01,2.863971292972564697e-01,-2.347560524940490723e-01
-3.322611749172210693e-02,3.345434665679931641e-01,-1.444120407104492188e-01,1.481843646615743637e-02,1.767071783542633057e-01,4.780544340610504150e-01,-4.481585919857025146e-01,-3.932345509529113770e-01,-3.084077537059783936e-01
4.569847881793975830e-01,1.232642605900764465e-01,-4.466727972030639648e-01,-2.726404555141925812e-02,1.428516358137130737e-01,2.424792796373367310e-01,2.704643011093139648e-01,2.268017530441284180e-01,-3.557655215263366699e-01
-2.341648340225219727e-01,-9.344650432467460632e-03,-9.550210833549499512e-02,-2.798435688018798828e-01,4.810462519526481628e-02,1.857666075229644775e-01,1.237394958734512329e-01,-4.667036533355712891e-01,3.285301327705383301e-01
2.149680703878402710e-01,2.924312055110931396e-01,-2.925154566764831543e-01,-2.933684885501861572e-01,-1.105651482939720154e-01,4.086809158325195312e-01,4.202577769756317139e-01,3.439414799213409424e-01,2.423651963472366333e-01
-1.249724254012107849e-02,8.726620674133300781e-02,4.332905709743499756e-01,3.638845086097717285e-01,1.438727825880050659e-01,-4.085707664489746094e-01,1.992980837821960449e-01,8.840184658765792847e-02,8.449442684650421143e-02
8.086985349655151367e-02,3.728509843349456787e-01,-4.651468098163604736e-01,2.463873941451311111e-03,-8.451192080974578857e-02,8.848105370998382568e-02,-2.643300592899322510e-01,-3.367440998554229736e-01,3.622257411479949951e-01
7.358647882938385010e-02,6.945256143808364868e-02,2.082530856132507324e-01,1.496213078498840332e-01,2.864912450313568115e-01,-2.413085401058197021e-01,6.367538589984178543e-03,1.648069918155670166e-01,-3.723945021629333496e-01
1.534750312566757202e-01,-1.290580183267593384e-01,-4.055830836296081543e-02,2.898659408092498779e-01,3.894178867340087891e-01,2.963671982288360596e-01,-8.981914818286895752e-02,-3.532233834266662598e-01,-4.476695954799652100e-01
1.914413869380950928e-01,-1.416642665863037109e-01,-2.275720536708831787e-01,-3.790997862815856934e-01,2.359144240617752075e-01,-2.535450160503387451e-01,2.729194164276123047e-01,3.814484179019927979e-01,-2.123437374830245972e-01
1.923356950283050537e-02,2.722891867160797119e-01,-3.577136099338531494e-01,1.030728220939636230e-01,-7.758623361587524414e-02,-3.547793626785278320e-01,3.411899507045745850e-01,-2.491665631532669067e-01,-3.274683654308319092e-01
3.096188902854919434e-01,-3.310554623603820801e-01,3.203471899032592773e-01,-2.803364098072052002e-01,-4.054427444934844971e-01,-2.117820084095001221e-01,-1.422956287860870361e-01,-4.344341754913330078e-01,-1.046338900923728943e-01
1.347215622663497925e-01,-1.934202313423156738e-01,4.159123599529266357e-01,-1.094887852668762207e-01,-1.860461235046386719e-01,3.524658083915710449e-01,2.746489346027374268e-01,-1.570726186037063599e-01,-1.239412054419517517e-01
-2.945911884307861328e-01,4.258970543742179871e-02,2.779047787189483643e-01,3.792417049407958984e-01,3.759441971778869629e-01,-3.254577890038490295e-02,3.904781341552734375e-01,2.594752013683319092e-01,2.490430772304534912e-01
-1.778425872325897217e-01,-2.463206946849822998e-01,3.271531686186790466e-02,3.742363452911376953e-01,3.512579202651977539e-01,-2.602534592151641846e-01,7.010085973888635635e-03,-4.075605571269989014e-01,-3.450174629688262939e-01
3.897282481193542480e-01,-3.640740513801574707e-01,2.195232212543487549e-01,3.445355594158172607e-02,-3.377384841442108154e-01,2.379106432199478149e-01,-4.148332476615905762e-01,7.005096971988677979e-02,1.397327631711959839e-01
4.363793730735778809e-01,1.380612552165985107e-01,2.393115609884262085e-01,-4.590885341167449951e-01,-1.582151278853416443e-02,-3.152230754494667053e-02,-7.077694684267044067e-02,7.711134850978851318e-02,1.929266750812530518e-01
1.873931884765625000e-01,-3.172833621501922607e-01,-9.498706459999084473e-02,1.568730771541595459e-01,-3.105686604976654053e-01,2.126509845256805420e-01,2.920136749744415283e-01,3.675979003310203552e-02,8.140481263399124146e-02
-1.717179268598556519e-01,5.415782332420349121e-02,2.242491245269775391e-01,4.587877690792083740e-01,-1.144195124506950378e-01,-4.726942628622055054e-03,-4.177584350109100342e-01,4.357935488224029541e-01,-2.810743153095245361e-01
-6.547840777784585953e-03,3.807792365550994873e-01,-3.379312157630920410e-02,2.045610845088958740e-01,-2.763586938381195068e-01,2.913212478160858154e-01,-2.880067825317382812e-01,4.812646657228469849e-03,-3.316799178719520569e-02
-2.083668112754821777e-01,-5.215777456760406494e-02,2.259554266929626465e-01,-4.292515516281127930e-01,-8.543788641691207886e-02,-1.468731462955474854e-01,4.186784327030181885e-01,-3.247661590576171875e-01,4.230586290359497070e-01
-3.085581362247467041e-01,-7.577210664749145508e-03,-4.460418522357940674e-01,3.319126069545745850e-01,-3.156265318393707275e-01,-4.091380536556243896e-01,1.042161881923675537e-01,4.576202332973480225e-01,-2.188991308212280273e-01
-1.232213452458381653e-01,1.003507971763610840e-01,4.129170179367065430e-01,-4.299916923046112061e-01,1.171270683407783508e-01,-4.110636413097381592e-01,3.376489579677581787e-01,-4.057830274105072021e-01,3.710338175296783447e-01
3.426505625247955322e-01,-3.989314138889312744e-01,-4.091979265213012695e-01,1.552861779928207397e-01,8.307217806577682495e-02,-1.252764761447906494e-01,-1.594710052013397217e-01,-4.398007988929748535e-01,-4.495764374732971191e-01
1.676753312349319458e-01,1.189907640218734741e-02,-1.653169691562652588e-01,-2.033784519881010056e-03,1.846179813146591187e-01,4.339788854122161865e-01,2.089789062738418579e-01,2.490786314010620117e-01,4.217525422573089600e-01
1.779383122920989990e-01,4.924163594841957092e-02,2.846030890941619873e-01,4.085357785224914551e-01,8.113506436347961426e-02,-3.474912345409393311e-01,-3.805587291717529297e-01,2.363329529762268066e-01,2.832236886024475098e-01
-7.890989631414413452e-02,-4.727825820446014404e-01,-4.557261765003204346e-01,1.414007991552352905e-01,3.472800552845001221e-01,6.487759947776794434e-02,-2.968854606151580811e-01,2.715776860713958740e-01,-2.405262365937232971e-02
1.136760488152503967e-01,3.314783871173858643e-01,-2.717220783233642578e-01,-2.297924272716045380e-02,-3.549284934997558594e-01,3.506578803062438965e-01,4.452106058597564697e-01,-3.229965567588806152e-01,-1.437594443559646606e-01
1.822762489318847656e-01,1.455146968364715576e-01,1.656374037265777588e-01,4.315742850303649902e-01,3.717880547046661377e-01,-3.364539444446563721e-01,4.191186428070068359e-01,-2.712237536907196045e-01,-4.102595746517181396e-01
1.238818243145942688e-01,1.056755632162094116e-01,5.919871851801872253e-02,2.999494671821594238e-01,-2.704359889030456543e-01,-2.924414277076721191e-01,-2.995411455631256104e-01,-4.845893085002899170e-01,-2.767323255538940430e-01
-4.075502455234527588e-01,1.001514866948127747e-01,2.192021533846855164e-02,-1.543916482478380203e-02,3.650256991386413574e-01,6.542160362005233765e-02,3.252051472663879395e-01,2.065573632717132568e-02,-2.109095007181167603e-01
-1.048857793211936951e-01,-3.914644122123718262e-01,-4.163431227207183838e-01,2.951949238777160645e-01,2.242772653698921204e-02,3.596388697624206543e-01,3.294773101806640625e-01,-2.553970813751220703e-01,-3.513479828834533691e-01
2.631724476814270020e-01,3.566966056823730469e-01,-1.911102980375289917e-01,-3.752770125865936279e-01,-3.644952774047851562e-01,8.329206146299839020e-03,3.280704841017723083e-02,3.829413950443267822e-01,9.673508256673812866e-02
-2.598022222518920898e-01,4.205228090286254883e-01,-2.348867952823638916e-01,-1.240432187914848328e-01,2.223001420497894287e-01,1.267728162929415703e-03,-3.668651282787322998e-01,3.833874315023422241e-02,-4.405769109725952148e-01
1.954640895128250122e-01,1.235825344920158386e-01,3.071272075176239014e-01,-3.512201905250549316e-01,3.369247019290924072e-01,2.560891807079315186e-01,3.441135883331298828e-01,4.349618852138519287e-01,2.000587284564971924e-01
-8.220182498916983604e-04,7.432977855205535889e-02,5.400016531348228455e-02,3.778310418128967285e-01,-3.420354425907135010e-01,-3.359080851078033447e-01,-1.632788777351379395e-01,3.553833067417144775e-01,-2.907251119613647461e-01
1.628648340702056885e-01,3.149161934852600098e-01,-3.667259216308593750e-01,-6.398359982995316386e-05,2.016400992870330811e-01,1.953653544187545776e-01,1.492692828178405762e-01,4.361090064048767090e-01,-2.949430048465728760e-01
-9.980417042970657349e-02,-4.023477137088775635e-01,9.711967408657073975e-02,3.204114437103271484e-01,-3.891281783580780029e-01,-5.189374461770057678e-02,-7.885961979627609253e-02,3.462468385696411133e-01,2.673321664333343506e-01
-1.416949331760406494e-01,-1.051119267940521240e-01,-4.500111639499664307e-01,-3.885681033134460449e-01,-4.766681790351867676e-01,4.166184961795806885e-01,-1.071632057428359985e-01,1.969667077064514160e-01,-2.390274107456207275e-01
3.460224866867065430e-01,1.505775451660156250e-01,1.061675846576690674e-01,-2.775993943214416504e-01,2.871766686439514160e-01,-2.781652510166168213e-01,3.680087625980377197e-01,8.919981867074966431e-02,5.420829355716705322e-02
-2.498935759067535400e-01,1.211526468396186829e-01,-3.424944281578063965e-01,3.410309851169586182e-01,-1.797259598970413208e-01,1.174635998904705048e-02,3.362727463245391846e-01,-3.969817757606506348e-01,1.766734868288040161e-01
-3.687125444412231445e-01,-1.226145029067993164e-01,-2.857999205589294434e-01,7.690263539552688599e-02,-2.982985973358154297e-01,-2.638200521469116211e-01,1.169266924262046814e-01,3.885450661182403564e-01,4.309743046760559082e-01
3.007477819919586182e-01,2.350552827119827271e-01,1.427267640829086304e-01,-2.900394201278686523e-01,4.146430790424346924e-01,-3.287501037120819092e-01,-3.507550060749053955e-01,2.297685854136943817e-02,2.396913915872573853e-01
-1.017724499106407166e-01,1.730939745903015137e-01,1.357935965061187744e-01,2.572342455387115479e-01,-9.770999848842620850e-02,4.608305990695953369e-01,-8.338487893342971802e-02,-1.460940688848495483e-01,-7.467295229434967041e-02
-3.078392148017883301e-01,1.296841204166412354e-01,-7.115099579095840454e-02,-3.818656504154205322e-01,-6.007549166679382324e-02,3.770805001258850098e-01,8.215226233005523682e-02,2.357506304979324341e-01,-2.691276967525482178e-01
-3.273656964302062988e-01,-3.463346660137176514e-01,1.818104833364486694e-01,-4.358265697956085205e-01,4.434952139854431152e-01,1.923158019781112671e-01,-6.436247378587722778e-02,6.034735962748527527e-02,-8.546485751867294312e-02
-1.814625263214111328e-01,1.526159048080444336e-01,-3.123679459095001221e-01,7.141999155282974243e-02,-5.040906369686126709e-02,3.597145900130271912e-03,4.047080874443054199e-02,3.910270333290100098e-01,2.675594687461853027e-01
4.539639055728912354e-01,3.898236900568008423e-02,-2.358077317476272583e-01,-1.511810272932052612e-01,3.079910576343536377e-01,4.478875100612640381e-01,-2.310586348176002502e-02,-3.049018383026123047e-01,1.568194776773452759e-01
2.757530212402343750e-01,-1.565245985984802246e-01,4.290829896926879883e-01,-4.670834541320800781e-01,-4.319586753845214844e-01,-4.336578398942947388e-02,-1.427138745784759521e-01,2.644625306129455566e-01,-1.209611222147941589e-01
-1.828901916742324829e-01,4.197806715965270996e-01,8.222115784883499146e-02,2.615404129028320312e-01,-1.798025369644165039e-01,-4.000467658042907715e-01,2.025942653417587280e-01,4.414209723472595215e-01,3.059264719486236572e-01
-2.015312910079956055e-01,-3.503200411796569824e-01,-3.220828771591186523e-01,-1.528308093547821045e-01,-3.214869797229766846e-01,-2.351128906011581421e-01,-1.141003519296646118e-01,-7.112667709589004517e-02,2.013421952724456787e-01
4.048688411712646484e-01,2.378262430429458618e-01,3.495419323444366455e-01,-3.848913908004760742e-01,-2.901877462863922119e-01,-3.326658308506011963e-01,2.326908111572265625e-01,-2.132500708103179932e-01,3.993919491767883301e-01
-2.072205990552902222e-01,-1.880306601524353027e-01,2.481065392494201660e-01,-7.550048828125000000e-02,1.067990586161613464e-01,1.175480633974075317e-01,1.578887104988098145e-01,-3.904245793819427490e-02,-8.204121887683868408e-02
1.919685155153274536e-01,3.899899721145629883e-01,1.521676927804946899e-01,-2.432535290718078613e-01,-1.364809572696685791e-01,3.842442035675048828e-01,3.654479980468750000e-01,-4.446769654750823975e-01,2.770586013793945312e-01
-3.087965026497840881e-02,3.957135677337646484e-01,-1.696556434035301208e-02,-2.736425101757049561e-01,-1.663207858800888062e-01,-2.902375161647796631e-01,1.939834654331207275e-01,3.738445341587066650e-01,-3.371573686599731445e-01
2.596894502639770508e-01,-4.273187518119812012e-01,1.624896749854087830e-02,-2.141293324530124664e-02,1.395477354526519775e-01,-1.504588290117681026e-03,-4.186723530292510986e-01,-1.220720261335372925e-01,-2.680713236331939697e-01
2.835693657398223877e-01,4.549186304211616516e-02,-2.261108905076980591e-01,-1.576058119535446167e-01,-2.223623692989349365e-01,4.012945592403411865e-01,-1.752286776900291443e-02,-3.947735130786895752e-01,-2.535753250122070312e-01
-4.404727742075920105e-02,-3.442623466253280640e-02,-3.779609501361846924e-01,1.202813312411308289e-01,-2.374215126037597656e-01,3.558004498481750488e-01,-7.610475271940231323e-02,-1.491873264312744141e-01,1.843154728412628174e-01
3.779639005661010742e-01,-1.782965064048767090e-01,-1.493288427591323853e-01,7.818883657455444336e-02,-2.938910424709320068e-01,-5.137062817811965942e-02,3.977212011814117432e-01,3.236830532550811768e-01,1.717202179133892059e-02
-7.164304703474044800e-02,-3.907297551631927490e-02,-6.503771990537643433e-02,-4.785054922103881836e-02,2.313561439514160156e-01,1.186728179454803467e-01,4.481631517410278320e-01,-8.335810899734497070e-02,-2.673867940902709961e-01
-3.659990727901458740e-01,-7.486680895090103149e-02,4.008558094501495361e-01,5.298785865306854248e-02,-2.440532743930816650e-01,-4.293756186962127686e-01,1.218738872557878494e-02,4.481420218944549561e-01,3.443190753459930420e-01
3.047891855239868164e-01,-2.307800501585006714e-01,-3.223202526569366455e-01,3.241916894912719727e-01,3.302551209926605225e-01,-1.382260769605636597e-01,-6.988407671451568604e-02,2.004630118608474731e-01,-1.353958994150161743e-01
2.484191507101058960e-01,8.785549551248550415e-02,7.780417054891586304e-02,-2.381321340799331665e-01,3.641267716884613037e-01,9.668911807239055634e-03,-9.031084924936294556e-02,-3.425611555576324463e-01,-4.065529406070709229e-01
9.128604084253311157e-02,2.070281356573104858e-01,-3.851657509803771973e-01,1.097206547856330872e-01,-3.040264248847961426e-01,-1.316360682249069214e-01,-2.169713079929351807e-01,-4.076668322086334229e-01,-2.824677526950836182e-01
2.327678054571151733e-01,-1.922015249729156494e-01,3.108133673667907715e-01,2.162538766860961914e-01,-1.005163788795471191e-01,2.677693068981170654e-01,-1.698863878846168518e-02,3.884291350841522217e-01,2.904597520828247070e-01
-1.325731128454208374e-01,-3.754332959651947021e-01,-4.745265245437622070e-01,-3.524007499217987061e-01,-2.236845195293426514e-01,-1.059142220765352249e-02,-3.665728271007537842e-01,3.130468130111694336e-01,1.196330562233924866e-01
-9.439969807863235474e-02,-3.448878228664398193e-01,2.680746018886566162e-01,3.116869628429412842e-01,-1.174428611993789673e-01,4.913140088319778442e-02,3.714689612388610840e-02,3.064539730548858643e-01,-5.134123377501964569e-03
2.456871569156646729e-01,4.600285589694976807e-01,-2.835692465305328369e-01,-2.285171300172805786e-01,4.429004490375518799e-01,1.780532114207744598e-02,-1.327726095914840698e-01,2.157372385263442993e-01,2.031859457492828369e-01
-1.254458725452423096e-01,-2.736577093601226807e-01,-1.755812019109725952e-01,-4.335661232471466064e-01,2.195364832878112793e-01,-1.478435397148132324e-01,2.758073806762695312e-01,1.301732752472162247e-02,1.156609505414962769e-01
2.090723514556884766e-01,-1.287306547164916992e-01,-2.668178975582122803e-01,-2.179903388023376465e-01,3.627717494964599609e-01,1.033766418695449829e-01,-3.632273972034454346e-01,-4.518941417336463928e-02,7.544156163930892944e-02
-1.642136126756668091e-01,-4.757696986198425293e-01,1.781011670827865601e-01,2.034265547990798950e-01,1.738067567348480225e-01,3.171367645263671875e-01,1.561511121690273285e-02,-9.318567067384719849e-02,-4.412505030632019043e-01
-4.840278252959251404e-02,-5.389386042952537537e-02,-3.063439428806304932e-01,2.928353548049926758e-01,-1.746392697095870972e-01,-1.868602037429809570e-01,2.151612341403961182e-01,1.271772831678390503e-01,1.227326169610023499e-01
2.389694452285766602e-01,-1.153727918863296509e-01,7.621239125728607178e-02,-6.100758910179138184e-02,9.680323302745819092e-02,2.506183087825775146e-01,4.519629478454589844e-01,-2.911449968814849854e-01,-1.220874711871147156e-01
-4.472846388816833496e-01,-5.230052769184112549e-02,-3.682765662670135498e-01,-1.969280242919921875e-01,-3.829723298549652100e-01,-1.235842183232307434e-01,2.433115430176258087e-02,4.391579031944274902e-01,-2.767161428928375244e-01
-2.080133557319641113e-01,2.791706919670104980e-01,-1.906895488500595093e-01,-1.114031951874494553e-02,1.016811355948448181e-01,-2.958467006683349609e-01,-2.564198374748229980e-01,1.418005023151636124e-02,-4.361847788095474243e-02
4.094821512699127197e-01,-3.334895670413970947e-01,5.255309864878654480e-02,1.213258355855941772e-01,4.670931100845336914e-01,-1.375667601823806763e-01,-4.138247668743133545e-01,4.604299068450927734e-01,1.079427525401115417e-01
3.933951854705810547e-01,-2.248027026653289795e-01,4.608166515827178955e-01,-1.764396280050277710e-01,-2.951287606265395880e-04,-3.234941065311431885e-01,-3.097997009754180908e-01,-2.285068929195404053e-01,1.908903121948242188e-01
8.252492547035217285e-02,3.791203722357749939e-03,-1.094988733530044556e-01,3.473434746265411377e-01,2.537579834461212158e-02,1.975831538438796997e-01,4.435134232044219971e-01,-1.021030619740486145e-01,1.707293391227722168e-01
-9.055432677268981934e-02,-3.867011368274688721e-01,-6.410876661539077759e-02,-1.662800163030624390e-01,-1.610926389694213867e-01,-5.431454256176948547e-02,1.700318455696105957e-01,-2.501429319381713867e-01,8.989075571298599243e-02
-8.174607157707214355e-02,-1.129202693700790405e-01,-1.217981949448585510e-01,2.521716952323913574e-01,-1.317908987402915955e-02,-2.436579912900924683e-01,-2.733686268329620361e-01,7.530393544584512711e-03,-1.511518508195877075e-01
7.549624145030975342e-02,-2.609083056449890137e-01,-4.393464326858520508e-01,-2.668478786945343018e-01,3.535292670130729675e-02,3.092655539512634277e-01,-1.202574446797370911e-01,-7.362268865108489990e-02,-1.664472818374633789e-01
-3.746009767055511475e-01,-1.969229876995086670e-01,-3.566518127918243408e-01,-1.246563792228698730e-01,1.656527630984783173e-02,-6.930712610483169556e-02,3.958926796913146973e-01,4.545281529426574707e-01,-4.138011485338211060e-02
-1.245022267103195190e-01,4.560659229755401611e-01,-3.853343129158020020e-01,2.841098606586456299e-01,-3.049358725547790527e-01,1.381436437368392944e-01,-3.092015683650970459e-01,-2.302065342664718628e-01,3.881894350051879883e-01
2.474207878112792969e-01,3.531903624534606934e-01,-6.374196708202362061e-02,-2.420705109834671021e-01,4.432874321937561035e-01,-4.176642894744873047e-01,2.862403690814971924e-01,2.362277358770370483e-01,-3.656739294528961182e-01
4.028995037078857422e-01,-2.194879353046417236e-01,2.851548045873641968e-02,2.968923747539520264e-01,-4.090980589389801025e-01,-2.392945289611816406e-01,8.313852548599243164e-02,-2.061255127191543579e-01,4.302567839622497559e-01
4.357012808322906494e-01,1.762429475784301758e-01,-4.043163731694221497e-02,2.519917488098144531e-01,-4.749960303306579590e-01,2.071979045867919922e-01,1.989317834377288818e-01,-5.319559574127197266e-02,5.939076095819473267e-02
-3.577880263328552246e-01,-1.204157806932926178e-02,3.377592265605926514e-01,-2.353669516742229462e-02,-3.024613261222839355e-01,2.765365242958068848e-01,-3.626928627490997314e-01,4.408411383628845215e-01,1.716842204332351685e-01
-3.212602436542510986e-01,6.003862991929054260e-02,-4.107148945331573486e-01,3.732928931713104248e-01,-3.042444288730621338e-01,-2.814449965953826904e-01,-4.998264610767364502e-01,2.274046391248703003e-01,1.352643072605133057e-01
-4.442575573921203613e-01,-1.258289217948913574e-01,5.784362927079200745e-02,3.178786635398864746e-01,2.024115025997161865e-01,3.284138441085815430e-01,3.262040317058563232e-01,3.048199117183685303e-01,2.954969704151153564e-01
1.934057287871837616e-02,-4.222264289855957031e-01,1.008692979812622070e-01,1.242590770125389099e-01,3.462969660758972168e-01,4.503569304943084717e-01,-7.380504906177520752e-02,1.230620592832565308e-01,1.409832239151000977e-01
-2.761814892292022705e-01,-3.334169685840606689e-01,3.959432542324066162e-01,-2.067862823605537415e-02,-1.158388704061508179e-01,1.387519240379333496e-01,2.153063565492630005e-01,1.556503772735595703e-01,-5.387647822499275208e-02
-1.820333003997802734e-01,-2.548943459987640381e-01,3.871089816093444824e-01,-2.818298935890197754e-01,3.606903553009033203e-01,1.678742654621601105e-02,3.664664626121520996e-01,-3.219742178916931152e-01,-1.547555774450302124e-01
-2.739612162113189697e-01,2.114468254148960114e-02,-5.102546140551567078e-02,1.267730742692947388e-01,-3.795588910579681396e-01,-4.075047373771667480e-02,-4.455771148204803467e-01,9.603496640920639038e-03,-4.015412628650665283e-01
3.986615836620330811e-01,-5.212617665529251099e-02,4.583348035812377930e-01,3.081375062465667725e-01,1.171104330569505692e-02,3.505211472511291504e-01,3.815033435821533203e-01,-3.935333490371704102e-01,-7.915496826171875000e-02
-1.858454644680023193e-01,3.012949824333190918e-01,3.324987739324569702e-02,1.918641924858093262e-01,8.352731168270111084e-02,-7.710746675729751587e-02,-2.981004118919372559e-01,-3.351127803325653076e-01,-4.143933951854705811e-01
-1.619522273540496826e-02,3.277823328971862793e-01,3.057158738374710083e-02,-3.025868237018585205e-01,-4.585364460945129395e-01,1.686780005693435669e-01,3.236454129219055176e-01,1.043430250138044357e-02,-4.710522890090942383e-01
-1.820548623800277710e-01,-1.336783170700073242e-01,-2.319939881563186646e-01,-2.647245489060878754e-02,2.353078722953796387e-01,-4.707753956317901611e-01,2.993569374084472656e-01,3.584080040454864502e-01,1.326791942119598389e-01
8.535617962479591370e-03,2.752235829830169678e-01,1.626759022474288940e-01,-2.030607312917709351e-01,-2.408859729766845703e-01,2.662039697170257568e-01,3.641411364078521729e-01,-4.957243427634239197e-02,4.229255020618438721e-01
9.129006415605545044e-02,1.468903869390487671e-01,1.280134916305541992e-01,3.090063035488128662e-01,4.535527825355529785e-01,3.097575306892395020e-01,2.901809215545654297e-01,2.677363753318786621e-01,1.713201999664306641e-01
-1.090404540300369263e-01,-3.869651854038238525e-01,-4.153829216957092285e-01,-3.362576663494110107e-01,4.511892795562744141e-01,-3.892671167850494385e-01,3.563120067119598389e-01,-1.999101936817169189e-01,3.769610822200775146e-01
-2.316421121358871460e-01,-2.826006114482879639e-01,1.592927239835262299e-02,9.331670589745044708e-03,1.369545161724090576e-01,-1.009233966469764709e-01,-4.097152948379516602e-01,2.364689297974109650e-02,4.496424496173858643e-01
-3.656908869743347168e-01,3.771267235279083252e-01,3.879907429218292236e-01,-4.672028422355651855e-01,1.799283325672149658e-01,-3.435440659523010254e-01,-9.496324509382247925e-02,-4.211184382438659668e-01,2.613447308540344238e-01
4.344711005687713623e-01,1.764701902866363525e-01,-2.481868565082550049e-01,-2.838926911354064941e-01,5.230247974395751953e-02,-3.674746751785278320e-01,2.009357511997222900e-01,2.131423950195312500e-01,1.269019097089767456e-01
4.498167037963867188e-01,-2.748652398586273193e-01,-4.750112593173980713e-01,-4.659739136695861816e-01,8.112989366054534912e-02,1.817219853401184082e-01,-1.299387812614440918e-01,4.613295793533325195e-01,-3.567214012145996094e-01
-1.504990011453628540e-01,1.404619663953781128e-01,3.016333468258380890e-02,-2.795165777206420898e-01,-3.112106025218963623e-01,1.718733161687850952e-01,1.523400284349918365e-02,2.418994307518005371e-01,3.042455315589904785e-01
-2.778545618057250977e-01,-4.282391667366027832e-01,-2.589314877986907959e-01,-1.458965092897415161e-01,2.904666662216186523e-01,1.681247204542160034e-01,3.930495679378509521e-01,4.374094903469085693e-01,-2.452411353588104248e-01
1.599353854544460773e-03,-3.792836964130401611e-01,3.073850572109222412e-01,-1.924135386943817139e-01,-4.525645077228546143e-01,2.193886637687683105e-01,4.082354009151458740e-01,3.361847698688507080e-01,4.246567189693450928e-01
4.785982072353363037e-01,-3.545647263526916504e-01,-2.086546719074249268e-01,-3.252367675304412842e-01,1.393425464630126953e-01,-1.633826196193695068e-01,-1.426012814044952393e-02,-2.262345552444458008e-01,4.968135058879852295e-01
-3.738177120685577393e-01,2.072274088859558105e-01,3.464661836624145508e-01,2.045117020606994629e-01,2.057770788669586182e-01,-2.850487530231475830e-01,-1.041859686374664307e-01,1.848996430635452271e-01,-2.912095785140991211e-01
1.381867676973342896e-01,2.848011553287506104e-01,-2.289381064474582672e-02,2.842055261135101318e-01,6.439228076487779617e-03,3.550679981708526611e-01,4.065850973129272461e-01,-2.685309946537017822e-01,3.837294876575469971e-01
3.523276150226593018e-01,-3.427617847919464111e-01,3.739908933639526367e-01,-2.636733232066035271e-03,-2.524726986885070801e-01,2.737131714820861816e-01,-1.090892683714628220e-02,2.435652539134025574e-02,5.132431397214531898e-04
4.552127122879028320e-01,-3.315723240375518799e-01,-6.872230768203735352e-02,2.844528295099735260e-02,1.100771576166152954e-01,2.703427374362945557e-01,5.310162901878356934e-02,2.774116098880767822e-01,-2.598326504230499268e-01
3.338595628738403320e-01,-6.967622041702270508e-02,1.444307863712310791e-01,3.749030232429504395e-01,3.926674649119377136e-02,1.678152233362197876e-01,-7.030750811100006104e-02,1.186110079288482666e-02,1.390715986490249634e-01
2.502628266811370850e-01,-4.035649895668029785e-01,-1.115788370370864868e-01,3.685770034790039062e-01,-2.797437310218811035e-01,2.628133893013000488e-01,-3.100651502609252930e-01,3.251278102397918701e-01,-3.479650318622589111e-01
-4.415922164916992188e-01,-4.096315503120422363e-01,-4.344949126243591309e-01,2.626221776008605957e-01,1.591964960098266602e-01,-4.467756748199462891e-01,1.749862283468246460e-01,3.901311457157135010e-01,3.742889463901519775e-01
-4.609656035900115967e-01,2.391488999128341675e-01,-3.121693730354309082e-01,-3.829531371593475342e-01,-3.847415149211883545e-01,1.768495142459869385e-01,9.888182580471038818e-02,4.352310672402381897e-02,-4.788523912429809570e-01
-1.810199320316314697e-01,3.172607421875000000e-01,4.198876395821571350e-02,2.047568708658218384e-01,-4.424874186515808105e-01,-2.084799110889434814e-01,-9.730987250804901123e-02,-1.339242458343505859e-01,-3.373569846153259277e-01
3.238804265856742859e-02,2.206850647926330566e-01,-2.051375210285186768e-01,1.122689172625541687e-01,3.433315455913543701e-01,-3.617426455020904541e-01,4.290664792060852051e-01,-2.077973075211048126e-02,3.644908219575881958e-02
1.944388449192047119e-01,-2.083939909934997559e-01,-1.556642502546310425e-01,-4.377355799078941345e-02,-3.613524511456489563e-02,3.122207820415496826e-01,-3.727506399154663086e-01,-4.660151004791259766e-01,2.444764822721481323e-01
1.379123181104660034e-01,4.093760251998901367e-01,-4.223728179931640625e-01,3.562318682670593262e-01,4.047121107578277588e-01,4.598879516124725342e-01,8.082964271306991577e-02,-1.979229226708412170e-02,-1.556744799017906189e-02
1.952381283044815063e-01,3.831100463867187500e-01,-2.186520844697952271e-01,1.343988180160522461e-01,-2.428609579801559448e-01,-4.166077077388763428e-01,2.304120361804962158e-01,1.773748695850372314e-01,-3.147197067737579346e-01
-2.476753890514373779e-01,-4.117498099803924561e-01,-4.183060824871063232e-01,-3.227660655975341797e-01,4.214675128459930420e-01,-1.909029930830001831e-01,-3.613289892673492432e-01,1.920088678598403931e-01,2.738113105297088623e-01
-4.217374920845031738e-01,-2.897402644157409668e-01,3.464564085006713867e-01,-4.414167255163192749e-02,-9.438021481037139893e-02,-1.410246938467025757e-01,3.872872889041900635e-01,-3.391942083835601807e-01,-2.464320361614227295e-01
-1.021183505654335022e-01,3.358900547027587891e-01,4.358489513397216797e-01,2.319979369640350342e-01,-1.777997761964797974e-01,6.371454894542694092e-02,-8.029538206756114960e-03,-4.280254244804382324e-01,-1.449997723102569580e-01
-2.058341950178146362e-01,-2.914083600044250488e-01,-3.934688493609428406e-02,2.797674536705017090e-01,2.247183769941329956e-01,-3.263264298439025879e-01,1.839568018913269043e-01,-3.569673597812652588e-01,1.092616841197013855e-01
-4.048013389110565186e-01,-4.292375445365905762e-01,-3.096602559089660645e-01,-2.282586842775344849e-01,2.060990929603576660e-01,2.078208774328231812e-01,-1.079423353075981140e-01,1.143380254507064819e-01,-2.432327568531036377e-01
-9.705734997987747192e-02,-4.455695152282714844e-01,-1.131451725959777832e-01,2.849386930465698242e-01,2.891054935753345490e-02,-2.985405921936035156e-01,2.824526727199554443e-01,1.900824010372161865e-01,-1.356508880853652954e-01
1.142267361283302307e-01,-2.135572880506515503e-01,2.083387784659862518e-02,3.592272102832794189e-01,-1.869570016860961914e-01,4.565365910530090332e-01,1.501881331205368042e-01,-4.110756814479827881e-01,-3.731695711612701416e-01
3.707544505596160889e-02,3.589240610599517822e-01,2.794196605682373047e-01,-2.158135771751403809e-01,2.130917459726333618e-01,5.152328684926033020e-02,7.130394876003265381e-02,-4.622744396328926086e-02,4.181829988956451416e-01
4.634133577346801758e-01,3.138601034879684448e-02,-3.909851014614105225e-01,-3.571171462535858154e-01,-4.306198358535766602e-01,-2.603411376476287842e-01,-3.373100459575653076e-01,-3.417509198188781738e-01,8.861237019300460815e-02
-1.779737621545791626e-01,2.297589480876922607e-01,-1.291033476591110229e-01,-5.431422591209411621e-02,4.437962770462036133e-01,-3.767678141593933105e-01,3.848254978656768799e-01,8.999139070510864258e-02,-7.201404869556427002e-02
-1.376384347677230835e-01,4.204780329018831253e-03,3.360009193420410156e-01,-4.519740641117095947e-01,-2.968029677867889404e-01,-3.736597299575805664e-01,-4.241655468940734863e-01,1.844011433422565460e-02,3.748686313629150391e-01
1.996054500341415405e-01,-4.318132698535919189e-01,7.463644444942474365e-02,-3.842312097549438477e-01,-3.630921542644500732e-01,-6.007345393300056458e-02,-2.585424780845642090e-01,1.009696573019027710e-01,-3.063765466213226318e-01
-3.297846615314483643e-01,-2.562748789787292480e-01,-2.184953540563583374e-01,2.195093780755996704e-01,-1.167444959282875061e-01,-6.947012990713119507e-02,-4.595441222190856934e-01,3.177559077739715576e-01,4.496150836348533630e-02
4.150280356407165527e-01,-3.909389376640319824e-01,4.165272414684295654e-01,1.297361552715301514e-01,-2.157550752162933350e-01,1.757808476686477661e-01,-1.405893266201019287e-01,1.374429613351821899e-01,-3.352201879024505615e-01
4.157184958457946777e-01,2.842205166816711426e-01,4.194665551185607910e-01,1.468487977981567383e-01,1.126065291464328766e-02,-2.773618102073669434e-01,-1.787959337234497070e-01,-3.717562556266784668e-01,-2.134715616703033447e-01
2.693157494068145752e-01,-3.497249633073806763e-02,4.276705384254455566e-01,8.610780537128448486e-02,-1.443073451519012451e-01,-1.371047049760818481e-01,3.123372495174407959e-01,3.711243569850921631e-01,-5.918464064598083496e-02
-2.095530182123184204e-01,2.006055600941181183e-02,4.515905380249023438e-01,-4.032477140426635742e-01,4.410908520221710205e-01,-1.681720763444900513e-01,-2.415466606616973877e-01,5.518544092774391174e-02,1.267741918563842773e-01
1.148942932486534119e-01,-1.034307926893234253e-01,-1.478460282087326050e-01,3.402441367506980896e-02,-1.896828860044479370e-01,-2.369314432144165039e-01,-4.085260629653930664e-01,2.923555076122283936e-01,1.680927164852619171e-02
3.774135410785675049e-01,-5.227843299508094788e-03,-2.129020839929580688e-01,4.952471554279327393e-01,1.720633953809738159e-01,4.470887184143066406e-01,-3.206048905849456787e-01,-2.585465610027313232e-01,4.347417950630187988e-01
-2.293211780488491058e-02,2.663256824016571045e-01,-2.406391650438308716e-01,-1.979259699583053589e-01,-2.999361753463745117e-01,3.989247679710388184e-01,-1.185648236423730850e-02,3.768042922019958496e-01,3.831483423709869385e-01
-3.622992932796478271e-01,3.477095663547515869e-01,5.749583989381790161e-02,-1.102836132049560547e-01,-2.837765514850616455e-01,1.894083470106124878e-01,-1.015549749135971069e-01,-3.093230724334716797e-01,2.226726859807968140e-01
3.614300489425659180e-01,-1.310851424932479858e-01,-2.552557289600372314e-01,-2.297351956367492676e-01,-1.900821924209594727e-01,-5.463758856058120728e-02,1.246051713824272156e-01,2.719649858772754669e-02,-2.977023422718048096e-01
3.956942558288574219e-01,-2.208684198558330536e-02,-7.982242852449417114e-02,3.379286229610443115e-01,5.772883817553520203e-02,-3.951169252395629883e-01,1.781579256057739258e-01,-4.720675051212310791e-01,-6.302329152822494507e-02
-3.417488336563110352e-01,3.391792178153991699e-01,-4.059654772281646729e-01,-2.808335721492767334e-01,-4.758320152759552002e-01,2.268067300319671631e-01,-3.509334921836853027e-01,-4.028618633747100830e-01,3.965830504894256592e-01
8.729721605777740479e-02,2.281123250722885132e-01,2.857736647129058838e-01,4.344648122787475586e-01,4.003817737102508545e-01,1.845872029662132263e-02,4.419815167784690857e-02,-4.320835173130035400e-01,-1.356653273105621338e-01
-1.304725110530853271e-01,2.773424685001373291e-01,3.840209841728210449e-01,-3.962318971753120422e-02,4.574698805809020996e-01,2.089198827743530273e-01,2.139203548431396484e-01,-2.599847316741943359e-01,1.024088449776172638e-02
-7.325559854507446289e-02,-1.622253507375717163e-01,3.504641652107238770e-01,-2.229068279266357422e-01,-4.741401374340057373e-01,-4.248168170452117920e-01,4.351300895214080811e-01,-4.862343370914459229e-01,4.075032174587249756e-01
2.327674329280853271e-01,1.227194368839263916e-01,2.267045825719833374e-01,2.429212480783462524e-01,-1.518364846706390381e-01,-4.053806662559509277e-01,-1.854464411735534668e-01,-3.177801668643951416e-01,-2.319346740841865540e-02
-1.341388076543807983e-01,1.099850758910179138e-01,-1.342356353998184204e-01,-1.842172294855117798e-01,7.304869592189788818e-02,2.235043346881866455e-01,-2.338486760854721069e-01,3.776843845844268799e-01,-1.977149993181228638e-01
-4.567258954048156738e-01,-2.430458664894104004e-01,4.168836176395416260e-01,8.998331427574157715e-02,-3.911253511905670166e-01,4.155811369419097900e-01,-3.373126685619354248e-01,1.007803156971931458e-01,-4.410239160060882568e-01
7.883442193269729614e-02,-1.019464507699012756e-01,-1.033285260200500488e-01,3.113960921764373779e-01,-2.393400073051452637e-01,2.315161824226379395e-01,-2.879324257373809814e-01,2.743084430694580078e-01,-1.459227129817008972e-02
1.785179525613784790e-01,3.447202444076538086e-01,8.026397973299026489e-02,-2.471625432372093201e-02,2.475738674402236938e-01,3.230886161327362061e-02,1.674878001213073730e-01,2.171409279108047485e-01,3.335046172142028809e-01
3.330151438713073730e-01,-1.481249183416366577e-01,1.424704329110682011e-03,1.335140913724899292e-01,-2.123787701129913330e-01,-1.717271357774734497e-01,-1.180309727787971497e-01,-1.492100805044174194e-01,6.382087618112564087e-02
-1.093361899256706238e-01,3.535019978880882263e-02,-1.763953641057014465e-02,-4.647371172904968262e-01,6.750606000423431396e-02,-5.324793979525566101e-02,4.492227733135223389e-01,3.677001595497131348e-01,7.414359599351882935e-02
-1.854562908411026001e-01,1.769832372665405273e-01,-1.800306886434555054e-01,-3.596174120903015137e-01,-2.750999331474304199e-01,2.784143090248107910e-01,-3.494630157947540283e-01,3.777323365211486816e-01,3.242536187171936035e-01
-1.140026561915874481e-02,1.920803822576999664e-02,-3.139958158135414124e-02,3.408483564853668213e-01,2.273284494876861572e-01,-4.123309552669525146e-01,-3.307709991931915283e-01,1.827682852745056152e-01,-9.233114123344421387e-02
8.978125452995300293e-02,-1.322294622659683228e-01,1.746422648429870605e-01,-8.722487092018127441e-02,-4.350897669792175293e-02,3.435049653053283691e-01,-8.761294186115264893e-02,2.789379358291625977e-01,6.607574224472045898e-02
9.754017740488052368e-02,1.029485464096069336e-01,4.063303768634796143e-02,5.079773068428039551e-02,-3.347000479698181152e-01,2.804788649082183838e-01,2.846825122833251953e-01,-3.194177746772766113e-01,-1.250443607568740845e-01
1.723498255014419556e-01,7.171268016099929810e-02,-9.521746635437011719e-02,-8.003794401884078979e-02,5.240546539425849915e-03,-1.426542997360229492e-01,-2.777340710163116455e-01,1.122376993298530579e-01,-4.164181053638458252e-01
3.975708484649658203e-01,2.441646009683609009e-01,-2.435674667358398438e-01,2.016048580408096313e-01,-2.287971675395965576e-01,-2.927272617816925049e-01,3.573940098285675049e-01,-3.699360042810440063e-02,1.526450961828231812e-01
2.143232524394989014e-01,-3.841729462146759033e-01,3.146947622299194336e-01,1.441456079483032227e-01,4.096346795558929443e-01,-4.699887931346893311e-01,8.386165648698806763e-02,-2.242462486028671265e-01,2.801350057125091553e-01
-1.267423033714294434e-01,9.817729890346527100e-02,-1.850061565637588501e-01,-1.989171504974365234e-01,-8.544951677322387695e-02,-1.140306815505027771e-01,6.420089863240718842e-03,-4.526830315589904785e-01,1.906557381153106689e-01
3.801734447479248047e-01,1.154721155762672424e-01,9.085316956043243408e-02,3.788545727729797363e-01,4.386032223701477051e-01,2.729407846927642822e-01,-1.335417628288269043e-01,-4.503599703311920166e-01,4.693225324153900146e-01
-1.357212513685226440e-01,4.987012594938278198e-02,1.635275632143020630e-01,8.591386675834655762e-02,5.830656737089157104e-02,1.328502446413040161e-01,4.307143688201904297e-01,4.573066830635070801e-01,-4.593493938446044922e-01
6.192507967352867126e-02,-3.648613691329956055e-01,1.955648064613342285e-01,-1.912024617195129395e-02,-1.097790747880935669e-01,3.346807360649108887e-01,5.080344900488853455e-02,3.010979592800140381e-01,-2.336806803941726685e-01
-3.230394721031188965e-01,3.056768178939819336e-01,1.148400157690048218e-01,6.526711583137512207e-02,-1.354037523269653320e-01,2.842887938022613525e-01,-3.470659554004669189e-01,2.446511983871459961e-01,-4.708644468337297440e-03
3.148289024829864502e-01,3.962064087390899658e-01,3.498703241348266602e-01,2.219368144869804382e-02,-3.590373396873474121e-01,4.457113444805145264e-01,-1.323644369840621948e-01,-1.868661791086196899e-01,-1.664846837520599365e-01
1.645403169095516205e-02,1.208367943763732910e-01,7.838874310255050659e-02,1.216976046562194824e-01,-3.550370633602142334e-01,1.629288494586944580e-01,4.369758367538452148e-01,-3.511068522930145264e-01,-1.520105749368667603e-01
4.001970961689949036e-02,3.140752017498016357e-01,-4.501034319400787354e-01,2.926301956176757812e-01,2.962100505828857422e-01,3.232067525386810303e-01,2.995043694972991943e-01,-2.952949702739715576e-01,-2.704392671585083008e-01
2.566365897655487061e-01,-3.239133358001708984e-01,5.787807330489158630e-02,4.454972743988037109e-01,1.794855147600173950e-01,-4.672626554965972900e-01,7.850428670644760132e-02,2.516645193099975586e-01,-3.225145637989044189e-01
-2.062220498919487000e-02,4.468706548213958740e-01,-1.641065180301666260e-01,2.974122166633605957e-01,-3.622538745403289795e-01,-4.280728399753570557e-01,-2.658681273460388184e-01,-3.546858727931976318e-01,-1.567205786705017090e-01
-8.340094983577728271e-02,-3.895580768585205078e-01,3.293749988079071045e-01,2.703844606876373291e-01,-4.062646031379699707e-01,1.913976371288299561e-01,-3.417936563491821289e-01,4.109358415007591248e-02,-3.499037325382232666e-01
4.322423636913299561e-01,4.351174086332321167e-02,-8.497302234172821045e-02,2.101706415414810181e-01,-3.666606545448303223e-01,3.901213705539703369e-01,4.111922979354858398e-01,2.313795685768127441e-01,-1.253830641508102417e-01
2.981921434402465820e-01,2.164783030748367310e-01,2.774605751037597656e-01,2.564218044281005859e-01,-4.306435212492942810e-02,-4.070740342140197754e-01,1.826058775186538696e-01,-2.104988396167755127e-01,1.481501907110214233e-01
-3.409667611122131348e-01,3.644030094146728516e-01,-4.576633870601654053e-01,-3.140647709369659424e-02,2.905919253826141357e-01,2.071254700422286987e-02,7.148806005716323853e-02,-3.722984492778778076e-01,-3.948401808738708496e-01
2.878057658672332764e-01,-6.751482188701629639e-02,1.474803686141967773e-01,-3.973322212696075439e-01,1.452159732580184937e-01,1.056091040372848511e-01,-2.144170254468917847e-01,-4.400525689125061035e-01,2.589380145072937012e-01
-3.160004913806915283e-01,1.014971956610679626e-01,-2.633851766586303711e-01,6.040364876389503479e-02,-3.639098107814788818e-01,1.119326278567314148e-01,-1.675726175308227539e-01,-4.933939874172210693e-02,1.892651170492172241e-01
4.183154702186584473e-01,3.504828214645385742e-01,3.985487818717956543e-01,2.814741432666778564e-01,-1.712996959686279297e-01,-2.149071991443634033e-01,8.633726090192794800e-02,-1.099636927247047424e-01,2.724070549011230469e-01
-2.328564524650573730e-01,3.912664204835891724e-02,-2.463066577911376953e-01,3.830388886854052544e-03,-3.707186877727508545e-02,-1.164635270833969116e-01,2.683592736721038818e-01,-1.282190382480621338e-01,8.153713494539260864e-02
-4.556216299533843994e-02,3.698782324790954590e-01,-1.871547549962997437e-01,-2.987644374370574951e-01,-2.529351413249969482e-01,-1.097899600863456726e-01,4.192571043968200684e-01,2.651010453701019287e-01,-3.826436996459960938e-01
-2.131976485252380371e-01,-1.482729101553559303e-03,2.428016066551208496e-01,1.216791421175003052e-01,-4.325121343135833740e-01,1.466674059629440308e-01,3.573928773403167725e-01,3.945422768592834473e-01,2.789436280727386475e-01
3.546420335769653320e-01,6.591553986072540283e-02,3.771764039993286133e-01,3.432467579841613770e-01,-2.102644890546798706e-01,4.925141856074333191e-02,-4.779860004782676697e-02,3.420893251895904541e-01,2.597672641277313232e-01
4.171880781650543213e-01,-3.604516088962554932e-01,-4.553730487823486328e-01,3.520577549934387207e-01,1.182923167943954468e-01,-3.039126694202423096e-01,-4.656448066234588623e-01,4.450018703937530518e-01,3.992577791213989258e-01
5.889591947197914124e-02,-3.566890209913253784e-02,-3.869503363966941833e-02,-1.878471821546554565e-01,-2.155369371175765991e-01,-2.974180877208709717e-01,-4.701452702283859253e-02,-3.185699284076690674e-01,-2.257980853319168091e-01
1.253042835742235184e-02,4.139156341552734375e-01,-5.556726083159446716e-02,-2.830846905708312988e-01,-1.968543827533721924e-01,-1.021206658333539963e-02,2.223529666662216187e-02,-4.757329523563385010e-01,-8.411747962236404419e-02
6.076072156429290771e-02,-3.246217370033264160e-01,3.749258518218994141e-01,-1.564868539571762085e-01,-3.549323081970214844e-01,-2.469892948865890503e-01,-2.647950649261474609e-01,-2.339406907558441162e-01,4.602376222610473633e-01
4.496267139911651611e-01,1.447360813617706299e-01,-3.203220069408416748e-01,3.055269718170166016e-01,2.168878316879272461e-01,1.990582495927810669e-01,-2.291586482897400856e-03,-1.027974262833595276e-01,-2.758567631244659424e-01
-1.217272132635116577e-01,2.665626816451549530e-02,4.397366344928741455e-01,3.176367878913879395e-01,1.303910911083221436e-01,-3.575037717819213867e-01,-3.324769437313079834e-01,-3.585323095321655273e-01,-1.845501065254211426e-01
1.488316804170608521e-01,-1.487963050603866577e-01,3.216794133186340332e-01,2.306781858205795288e-01,-2.235904149711132050e-02,1.759550534188747406e-02,2.163708508014678955e-01,-4.246030449867248535e-01,-1.354822516441345215e-01
-2.644064724445343018e-01,-9.106885641813278198e-02,-1.385696828365325928e-01,8.225978165864944458e-02,-2.166006714105606079e-01,-4.180712997913360596e-01,-1.276973038911819458e-01,-4.191614389419555664e-01,-3.616433441638946533e-01
2.348917908966541290e-02,-2.996641397476196289e-01,3.038109093904495239e-02,4.338150918483734131e-01,1.924110054969787598e-01,-7.016076147556304932e-02,3.182819187641143799e-01,-1.210494153201580048e-02,1.501101702451705933e-01
-9.072553366422653198e-02,-3.361311554908752441e-01,2.489276379346847534e-01,-4.831093177199363708e-02,-2.647103276103734970e-03,1.824990808963775635e-01,-4.548500776290893555e-01,-1.545561999082565308e-01,-4.358750879764556885e-01
-3.147612139582633972e-02,-2.262903004884719849e-01,-4.548889994621276855e-01,-4.661245942115783691e-01,-3.035349845886230469e-01,3.069468587636947632e-02,2.180681377649307251e-01,2.359178811311721802e-01,1.761171370744705200e-01
-3.834438323974609375e-01,1.434249132871627808e-01,-1.335555966943502426e-02,-4.156470894813537598e-01,-1.653258353471755981e-01,-3.693307340145111084e-01,4.021388292312622070e-01,-8.752831816673278809e-02,-2.081420421600341797e-01
1.885231584310531616e-01,-1.759636402130126953e-01,3.022518754005432129e-01,2.598513662815093994e-01,-3.787953853607177734e-01,-1.384633183479309082e-01,-2.267247140407562256e-01,-2.465176135301589966e-01,-3.100980222225189209e-01
4.411329925060272217e-01,4.693942666053771973e-01,-4.121457040309906006e-01,-3.538281917572021484e-01,1.063265278935432434e-01,-3.962678611278533936e-01,4.425618350505828857e-01,5.866193026304244995e-02,-2.616316676139831543e-01
4.700466990470886230e-02,-4.484302103519439697e-01,2.859405875205993652e-01,-3.897036910057067871e-01,1.943468749523162842e-01,2.946596145629882812e-01,-2.013992667198181152e-01,2.520140111446380615e-01,3.617813587188720703e-01
4.409180879592895508e-01,-1.354856193065643311e-01,-4.045681357383728027e-01,-3.419844210147857666e-01,9.753369726240634918e-03,3.710750937461853027e-01,-3.895795047283172607e-01,-1.519032418727874756e-01,2.881297469139099121e-01
3.402437549084424973e-03,-3.501168787479400635e-01,9.852571785449981689e-02,-4.200560748577117920e-01,-1.353313624858856201e-01,7.233089208602905273e-02,3.597569763660430908e-01,3.993630409240722656e-01,4.650407433509826660e-01
1.078546196222305298e-01,-8.434434235095977783e-02,3.462049961090087891e-01,-1.941740661859512329e-01,2.295498847961425781e-01,-3.140710294246673584e-01,5.432621836662292480e-01,-1.419372558593750000e-01,-2.495137602090835571e-01
-5.636484548449516296e-02,-4.164356887340545654e-01,-4.143233895301818848e-01,-4.414541125297546387e-01,3.611464500427246094e-01,1.535193324089050293e-01,3.525984585285186768e-01,-2.548645436763763428e-01,2.805033922195434570e-01
-2.591817080974578857e-01,-7.431700825691223145e-02,2.116043120622634888e-02,3.466442525386810303e-01,-3.405838608741760254e-01,-4.292238354682922363e-01,-1.247396394610404968e-01,2.957675457000732422e-01,-4.769060313701629639e-01
2.706282436847686768e-01,-9.428920596837997437e-02,-6.042817607522010803e-02,-4.721862375736236572e-01,-2.243579328060150146e-01,-1.315166056156158447e-01,-1.510566174983978271e-01,-3.932923972606658936e-01,-1.357182767242193222e-02
4.184203445911407471e-01,-2.813297212123870850e-01,-4.020185470581054688e-01,3.626613914966583252e-01,-3.307323753833770752e-01,3.555728793144226074e-01,2.753582037985324860e-02,-4.718677997589111328e-01,7.845617085695266724e-02
2.510040998458862305e-01,-4.428360760211944580e-01,2.209745496511459351e-01,-2.801688313484191895e-01,4.825401306152343750e-02,-3.140798807144165039e-01,-3.123123198747634888e-03,-8.950861170887947083e-03,5.722234398126602173e-02
2.879360318183898926e-01,-4.130525887012481689e-01,4.466852247714996338e-01,-1.660834997892379761e-01,-3.519333899021148682e-01,2.035230547189712524e-01,-3.999803364276885986e-01,2.855209410190582275e-01,2.102703303098678589e-01
3.035569190979003906e-01,2.947457134723663330e-01,1.865681856870651245e-01,-8.527255803346633911e-02,-9.770365431904792786e-03,-2.153648883104324341e-01,-3.727470934391021729e-01,-1.229351758956909180e-01,-3.590163886547088623e-01
-3.486659526824951172e-01,-6.349948793649673462e-02,-7.246569544076919556e-02,-1.768483817577362061e-01,-1.974895149469375610e-01,1.111462637782096863e-01,4.054214954376220703e-01,-4.266133308410644531e-01,1.595384478569030762e-01
7.118202000856399536e-02,1.791073381900787354e-02,-2.235573977231979370e-01,3.253533542156219482e-01,-4.352445900440216064e-01,-2.858326435089111328e-01,-4.679152965545654297e-01,3.229857087135314941e-01,3.611739575862884521e-01
1.152152270078659058e-01,-1.415100693702697754e-01,-6.427671015262603760e-02,4.622338712215423584e-02,-6.141543760895729065e-02,1.899183690547943115e-01,4.382144212722778320e-01,-2.447095233947038651e-03,3.020173907279968262e-01
-2.148847281932830811e-01,3.186776340007781982e-01,4.686800390481948853e-02,-1.296591758728027344e-01,3.304340839385986328e-01,-3.637620508670806885e-01,-3.051888942718505859e-01,-6.711401045322418213e-02,3.974459767341613770e-01
-1.125853359699249268e-01,-4.140369594097137451e-01,-5.401561781764030457e-02,-3.326204419136047363e-01,3.665429651737213135e-01,-1.733295470476150513e-01,3.020361065864562988e-01,1.267491132020950317e-01,-1.936541795730590820e-01
1.880467981100082397e-01,2.357770055532455444e-01,1.094433218240737915e-01,2.545937299728393555e-01,-4.124814867973327637e-01,-4.642441123723983765e-02,-1.873977929353713989e-01,5.096271634101867676e-02,-3.260093033313751221e-01
3.973089624196290970e-03,5.547331273555755615e-02,3.129182457923889160e-01,8.256644755601882935e-02,-1.118178013712167740e-02,-4.335196018218994141e-01,-3.249505460262298584e-01,2.957420647144317627e-01,1.906720101833343506e-01
1.731833517551422119e-01,-1.261049062013626099e-01,2.652105093002319336e-01,2.023617625236511230e-01,6.581073254346847534e-02,-4.720851778984069824e-01,-1.032909750938415527e-01,-3.351512849330902100e-01,-2.714872658252716064e-01
-1.308336555957794189e-01,-3.670210242271423340e-01,3.022029697895050049e-01,2.603926360607147217e-01,3.792870044708251953e-01,4.701236486434936523e-01,1.713947951793670654e-01,-4.024803936481475830e-01,4.565100073814392090e-01
2.715114355087280273e-01,-2.630915641784667969e-01,1.397567540407180786e-01,1.084940135478973389e-01,-4.221307337284088135e-01,1.603248268365859985e-01,2.339807897806167603e-01,-2.946181297302246094e-01,3.148849010467529297e-01
4.350173175334930420e-01,-4.079749584197998047e-01,-3.835991322994232178e-01,-3.480256795883178711e-01,2.767851054668426514e-01,-2.271882444620132446e-01,-2.341764271259307861e-01,3.840539753437042236e-01,-3.027491271495819092e-01
-2.858011052012443542e-02,2.714703083038330078e-01,7.503462489694356918e-03,1.207456290721893311e-01,4.243486225605010986e-01,3.528615534305572510e-01,4.501658976078033447e-01,-7.969626784324645996e-02,-3.580911159515380859e-01
4.458048045635223389e-01,2.833285331726074219e-01,4.524227380752563477e-01,9.725337475538253784e-02,-4.216912016272544861e-02,-6.640585511922836304e-02,-4.645138680934906006e-01,-3.137085437774658203e-01,-4.232636988162994385e-01
1.786446869373321533e-01,-4.105555638670921326e-02,1.361596584320068359e-01,2.954380810260772705e-01,3.596442043781280518e-01,-4.204173088073730469e-01,2.425723522901535034e-01,8.102240413427352905e-02,1.865752637386322021e-01
-1.256769299507141113e-01,4.221434295177459717e-01,7.880668342113494873e-02,9.788673371076583862e-02,-7.937808334827423096e-02,6.941929459571838379e-02,1.947615593671798706e-01,2.593120634555816650e-01,4.710721075534820557e-01
3.603935837745666504e-01,-3.494244217872619629e-01,2.222939431667327881e-01,-1.116166561841964722e-01,2.088810056447982788e-01,4.448534250259399414e-01,4.217813313007354736e-01,-2.625606656074523926e-01,2.681009098887443542e-02
7.300295680761337280e-02,-3.714228272438049316e-01,-2.367602661252021790e-02,2.573750913143157959e-01,4.736188948154449463e-01,2.229437045753002167e-02,3.776752352714538574e-01,1.843384951353073120e-01,-4.585111513733863831e-02
-3.260150253772735596e-01,2.128719836473464966e-01,1.463824063539505005e-01,3.114689886569976807e-01,-3.604318201541900635e-01,2.809900604188442230e-02,-3.677730560302734375e-01,-4.594180881977081299e-01,-1.558685600757598877e-01
2.192577719688415527e-01,-3.237644135951995850e-01,2.958106622099876404e-02,2.332151085138320923e-01,-1.218521818518638611e-01,-1.646134704351425171e-01,1.511140465736389160e-01,-9.531740099191665649e-03,-1.089008450508117676e-01
1.592727452516555786e-01,-8.258818648755550385e-03,-4.397678673267364502e-01,8.934861421585083008e-02,2.899039350450038910e-02,-3.882930874824523926e-01,4.145898520946502686e-01,-4.120970517396926880e-02,3.716894388198852539e-01
-4.321172237396240234e-01,1.259770989418029785e-01,-2.642908096313476562e-01,1.740469634532928467e-01,-3.808501064777374268e-01,-2.817559428513050079e-02,7.033708691596984863e-02,-2.473420202732086182e-01,1.655967086553573608e-01
2.071067988872528076e-01,3.246373534202575684e-01,-2.449088394641876221e-01,2.119602710008621216e-01,2.520258128643035889e-01,4.502993524074554443e-01,9.739795699715614319e-03,4.562863111495971680e-01,-2.790889739990234375e-01
6.117767468094825745e-02,2.352062761783599854e-01,1.878069341182708740e-01,4.351512491703033447e-01,8.746057748794555664e-02,-8.700913935899734497e-02,3.484032452106475830e-01,9.983040392398834229e-02,-3.437433242797851562e-01
2.217232584953308105e-01,-2.187838554382324219e-01,-3.573678135871887207e-01,1.555916965007781982e-01,-2.683463990688323975e-01,-3.766280114650726318e-01,4.601190686225891113e-01,2.921184897422790527e-01,2.210853435099124908e-02
2.643183469772338867e-01,7.431241869926452637e-02,-1.902378201484680176e-01,-1.283225975930690765e-02,1.478525996208190918e-01,-2.372001409530639648e-01,-2.995378077030181885e-01,4.353032708168029785e-01,-2.982053756713867188e-01
3.747795522212982178e-01,-1.940978169441223145e-01,1.288061589002609253e-01,1.621675342321395874e-01,2.296685129404067993e-01,-8.863345533609390259e-02,2.105762623250484467e-02,3.690497577190399170e-01,-8.762379735708236694e-02
3.812250494956970215e-01,-2.568162381649017334e-01,3.819049298763275146e-01,1.867123097181320190e-01,-4.368098974227905273e-01,-1.207279786467552185e-01,-6.752514094114303589e-02,-4.309606254100799561e-01,1.829142719507217407e-01
-3.008784353733062744e-01,2.736450433731079102e-01,-1.737785339355468750e-02,3.258309066295623779e-01,-2.044055759906768799e-01,-3.439512550830841064e-01,-1.897134184837341309e-01,-1.759822480380535126e-03,-1.864237040281295776e-01
2.110525667667388916e-01,1.829944700002670288e-01,3.219636976718902588e-01,-3.543454781174659729e-02,-1.427141427993774414e-01,5.718639492988586426e-02,-3.996723294258117676e-01,2.173781841993331909e-01,-2.349527738988399506e-02
1.377598047256469727e-01,-1.199129223823547363e-02,-6.435385346412658691e-02,2.269162982702255249e-01,-4.472842812538146973e-01,-1.951699703931808472e-01,-4.366525411605834961e-01,-1.471101790666580200e-01,4.249774813652038574e-01
2.382878810167312622e-01,-7.631340529769659042e-03,1.855053603649139404e-01,3.129821717739105225e-01,-1.929071992635726929e-01,4.541282057762145996e-01,2.119760960340499878e-02,8.028680086135864258e-02,-4.303342401981353760e-01
1.559243649244308472e-01,-3.517689704895019531e-01,-3.523302674293518066e-01,3.498454988002777100e-01,2.595533430576324463e-01,-4.188558459281921387e-01,-4.371097385883331299e-01,9.634412080049514771e-02,3.361399173736572266e-01
-2.745283395051956177e-02,2.960567474365234375e-01,-7.415784895420074463e-02,-6.915003806352615356e-02,2.598879039287567139e-01,-4.283542633056640625e-01,-1.345271319150924683e-01,-3.791384771466255188e-02,2.449644804000854492e-01
1.261882781982421875e-01,1.562709957361221313e-01,4.402313753962516785e-02,-1.842404454946517944e-01,-1.325149536132812500e-01,-2.962869107723236084e-01,-4.207388162612915039e-01,3.690444231033325195e-01,-1.537195444107055664e-01
-4.711709320545196533e-01,3.503615260124206543e-01,4.066290259361267090e-01,-7.605855911970138550e-02,2.003060430288314819e-01,-2.402014881372451782e-01,3.006993792951107025e-02,1.493331640958786011e-01,2.937284409999847412e-01
2.615245878696441650e-01,-3.600414395332336426e-01,3.289076983928680420e-01,-5.760949105024337769e-02,2.875373363494873047e-01,3.621546626091003418e-01,1.050774976611137390e-01,-1.058047339320182800e-01,8.996237814426422119e-02
1.479334980249404907e-01,4.377415776252746582e-01,2.651681900024414062e-01,-1.227082535624504089e-01,1.813931018114089966e-01,3.994509577751159668e-01,-1.654734015464782715e-01,3.458981215953826904e-01,-3.167261481285095215e-01
2.450207620859146118e-02,4.089777469635009766e-01,-1.143613308668136597e-01,-3.254297673702239990e-01,-3.078392148017883301e-01,3.518084287643432617e-01,-2.583197355270385742e-01,-6.781628821045160294e-03,1.991185843944549561e-01
-4.169876277446746826e-01,3.369088172912597656e-01,2.990816235542297363e-01,3.488225340843200684e-01,-2.841449677944183350e-01,1.075159162282943726e-01,-3.208757042884826660e-01,4.179686903953552246e-01,1.317545622587203979e-01
7.665649056434631348e-02,-2.431700974702835083e-01,-7.442571222782135010e-02,-2.953330874443054199e-01,-8.326212316751480103e-02,-4.718509614467620850e-01,-1.624004542827606201e-01,-2.421964257955551147e-01,1.737176030874252319e-01
-2.184218168258666992e-02,-3.304426670074462891e-01,-8.924992382526397705e-02,2.448433637619018555e-01,-1.427679657936096191e-01,4.557591080665588379e-01,2.846446819603443146e-02,1.272215098142623901e-01,-1.365909427404403687e-01
-1.223034709692001343e-01,2.220230847597122192e-01,-1.658089458942413330e-01,-2.435736656188964844e-01,-2.013810165226459503e-02,-4.278443455696105957e-01,-1.756747215986251831e-01,3.486539721488952637e-01,-3.583681583404541016e-01
-2.254651859402656555e-03,-4.121875762939453125e-01,1.728977113962173462e-01,8.433906733989715576e-02,-1.600352823734283447e-01,1.774722337722778320e-01,-3.057023584842681885e-01,-3.726694583892822266e-01,2.679455280303955078e-01
1.508367657661437988e-01,2.921004295349121094e-01,-7.294452190399169922e-02,7.281165570020675659e-02,2.329766452312469482e-01,4.397878944873809814e-01,-3.093329966068267822e-01,2.681626677513122559e-01,1.550951302051544189e-01
1.739377826452255249e-01,4.491928517818450928e-01,-1.861395388841629028e-01,6.164063513278961182e-02,-4.083992838859558105e-01,1.653092801570892334e-01,-3.258076906204223633e-01,5.377702787518501282e-02,-1.909530013799667358e-01
-1.973220258951187134e-01,-1.593119055032730103e-01,-2.615011930465698242e-01,2.555147111415863037e-01,-4.837728664278984070e-02,-6.880353391170501709e-02,-3.453647196292877197e-01,2.127394527196884155e-01,5.326285585761070251e-02
-2.674663066864013672e-01,-2.232542075216770172e-02,-1.990378797054290771e-01,-1.977919042110443115e-01,3.144437074661254883e-01,4.269536435604095459e-01,3.060051202774047852e-01,-3.140176236629486084e-01,-1.178488507866859436e-01
-4.807864427566528320e-01,1.751730032265186310e-02,1.006006598472595215e-01,2.895395159721374512e-01,2.593412697315216064e-01,-4.404301047325134277e-01,3.634505271911621094e-01,3.283083736896514893e-01,-1.563209146261215210e-01
3.143683075904846191e-01,-4.295308589935302734e-01,-2.128529697656631470e-01,-2.733728885650634766e-01,-3.561721742153167725e-01,2.032085955142974854e-01,2.574274539947509766e-01,4.228365421295166016e-01,4.455285072326660156e-01
-3.596426546573638916e-01,-1.833894997835159302e-01,-3.564324378967285156e-01,2.192021161317825317e-01,-1.242519989609718323e-01,-1.047751978039741516e-01,-4.257348775863647461e-01,7.525042444467544556e-02,4.178530722856521606e-02
4.386533200740814209e-01,1.681667715311050415e-01,3.856023848056793213e-01,-3.845502436161041260e-01,4.587199985980987549e-01,-3.074096329510211945e-02,-4.059580862522125244e-01,3.680471479892730713e-01,5.030526220798492432e-02
-3.650561869144439697e-01,2.264490574598312378e-01,2.020382732152938843e-01,-4.357667639851570129e-02,-1.683225631713867188e-01,4.328823983669281006e-01,1.165817826986312866e-01,2.478695660829544067e-01,-4.066626727581024170e-01
-2.991489768028259277e-01,-3.651557862758636475e-01,4.091095551848411560e-02,3.106354475021362305e-01,3.581931293010711670e-01,2.368777692317962646e-01,7.840400561690330505e-03,1.656476780772209167e-02,-1.149495393037796021e-01
-4.025519266724586487e-02,3.037473559379577637e-01,2.876653969287872314e-01,4.134103655815124512e-01,3.267801403999328613e-01,-4.563739895820617676e-01,2.013046592473983765e-01,-2.662604153156280518e-01,-6.236232817173004150e-02
9.035530686378479004e-02,4.538838863372802734e-01,-2.990629076957702637e-01,1.086415648460388184e-01,-1.607935428619384766e-01,-2.312747687101364136e-01,-3.198286592960357666e-01,-4.560397565364837646e-01,2.695987522602081299e-01
1.472749114036560059e-01,-3.553651273250579834e-01,-9.752622246742248535e-02,-3.307552337646484375e-01,-9.256391972303390503e-02,4.230658710002899170e-02,3.182828724384307861e-01,1.799955666065216064e-01,-4.135693907737731934e-01
-4.317381605505943298e-02,-3.782442212104797363e-01,2.714754045009613037e-01,-4.046630263328552246e-01,-1.048894226551055908e-01,-4.130911827087402344e-01,-3.527581095695495605e-01,-3.958358168601989746e-01,-5.499816313385963440e-02
5.053012967109680176e-01,-3.758312761783599854e-01,1.245674267411231995e-01,-3.928882181644439697e-01,-3.454132378101348877e-01,-8.990427106618881226e-02,3.954620361328125000e-01,-3.555570244789123535e-01,-1.534893065690994263e-01
-1.165735274553298950e-01,-1.850900799036026001e-01,6.430486589670181274e-02,5.773306638002395630e-02,-4.408165216445922852e-01,-3.109322488307952881e-01,3.277557194232940674e-01,9.077326208353042603e-02,5.526866763830184937e-02
2.535199224948883057e-01,5.392507836222648621e-02,1.672779954969882965e-02,-2.762850821018218994e-01,2.351760268211364746e-01,2.682470083236694336e-01,-2.796248197555541992e-01,-2.365711778402328491e-01,-3.522197008132934570e-01
-1.755596548318862915e-01,-3.729627728462219238e-01,4.113363623619079590e-01,4.097167551517486572e-01,2.495205700397491455e-01,-2.216444611549377441e-01,-1.981216222047805786e-01,-1.599654555320739746e-02,-2.986862361431121826e-01
-3.255829513072967529e-01,4.975612461566925049e-02,-1.829290837049484253e-01,-5.805676802992820740e-02,1.023583486676216125e-01,9.720703959465026855e-02,-4.786594212055206299e-01,-1.684310287237167358e-02,-2.435885667800903320e-01
-4.190349578857421875e-02,4.344657063484191895e-01,-3.183574080467224121e-01,-2.564956545829772949e-01,7.022455334663391113e-02,9.090805053710937500e-02,-3.770853579044342041e-01,3.285890221595764160e-01,-2.828732430934906006e-01
8.985564112663269043e-02,-1.656722128391265869e-01,4.581480622291564941e-01,-4.089249968528747559e-01,3.174133896827697754e-01,1.639461219310760498e-01,4.076920747756958008e-01,1.208173781633377075e-01,-3.620894253253936768e-01
-3.466124832630157471e-01,3.333925008773803711e-01,7.873801141977310181e-02,-3.373406529426574707e-01,3.963040113449096680e-01,-1.823402941226959229e-01,-1.161262765526771545e-01,-9.484199434518814087e-02,1.889410018920898438e-01
-4.078841805458068848e-01,2.982787787914276123e-01,1.563440412282943726e-01,-8.258845657110214233e-02,-7.011391222476959229e-02,-7.299295812845230103e-02,-3.199410438537597656e-02,-2.311789244413375854e-01,-4.787297844886779785e-01
2.485060840845108032e-01,3.965832889080047607e-01,1.592841446399688721e-01,-3.843437433242797852e-01,-5.625073611736297607e-02,-5.693152546882629395e-02,-3.468070924282073975e-01,4.075583815574645996e-02,-2.716826200485229492e-01
1.494388580322265625e-01,1.825307905673980713e-01,1.523709893226623535e-01,-4.199120700359344482e-01,1.486688554286956787e-01,1.529720574617385864e-01,-2.400206774473190308e-01,-3.022549748420715332e-01,-2.066620290279388428e-01
8.382164686918258667e-02,-2.819568812847137451e-01,2.070506364107131958e-01,1.114400178194046021e-01,9.747540205717086792e-02,-3.912208080291748047e-01,3.382504582405090332e-01,-4.802950322628021240e-01,4.137550890445709229e-01
2.115395814180374146e-01,-1.018355637788772583e-01,-4.678644984960556030e-02,4.525270760059356689e-01,4.684353768825531006e-01,-8.456144481897354126e-02,1.523421257734298706e-01,-3.525792062282562256e-01,-2.582620978355407715e-01
4.485147893428802490e-01,3.268613517284393311e-01,-1.034240871667861938e-01,-4.607633054256439209e-01,-4.544889330863952637e-01,1.333110034465789795e-01,-2.007616013288497925e-01,2.232554405927658081e-01,-3.644579946994781494e-01
-1.549122482538223267e-01,1.054806634783744812e-01,-2.170543670654296875e-01,-8.876171708106994629e-02,3.734719753265380859e-01,1.582178175449371338e-01,2.103116810321807861e-01,-1.576364934444427490e-01,-6.001020316034555435e-03
-2.468665689229965210e-01,1.586396247148513794e-02,5.051047354936599731e-02,-1.504688174463808537e-03,-4.372296035289764404e-01,-3.142827749252319336e-01,2.895312570035457611e-02,3.513237833976745605e-01,2.131040841341018677e-01
2.360751777887344360e-01,1.843696534633636475e-01,-2.650977075099945068e-01,-1.444388478994369507e-01,-2.020708620548248291e-01,2.830202877521514893e-01,-1.887491643428802490e-01,-3.526781201362609863e-01,-8.987732976675033569e-02
2.718670666217803955e-01,-2.362187653779983521e-01,8.935558795928955078e-02,2.890807390213012695e-01,-4.446610808372497559e-01,-1.510791331529617310e-01,3.976148087531328201e-03,-2.380037903785705566e-01,4.198194444179534912e-01
-1.334327757358551025e-01,4.048559069633483887e-01,-3.277171552181243896e-01,1.561022400856018066e-01,-3.687535524368286133e-01,-3.619746565818786621e-01,1.583382487297058105e-01,-1.667614132165908813e-01,2.944652736186981201e-01
4.373632669448852539e-01,4.218566715717315674e-01,-1.544189602136611938e-01,-3.996979296207427979e-01,-4.513037502765655518e-01,-3.600262999534606934e-01,3.804467022418975830e-01,2.827555239200592041e-01,1.602966338396072388e-02
-2.606203407049179077e-02,2.907073795795440674e-01,-2.072137296199798584e-01,-1.513128131628036499e-01,4.463497996330261230e-01,-2.850247025489807129e-01,-2.134804427623748779e-01,-1.459581553936004639e-01,3.100748658180236816e-01
3.201591549441218376e-03,-2.605756819248199463e-01,-2.902492880821228027e-01,2.582743763923645020e-01,1.840264648199081421e-01,4.411331713199615479e-01,1.025110036134719849e-01,3.022840023040771484e-01,-2.109108120203018188e-01
4.537796676158905029e-01,-1.220198348164558411e-01,-2.281133383512496948e-01,-9.452109783887863159e-02,1.445746421813964844e-01,-2.575837969779968262e-01,-2.492120712995529175e-01,-4.198040664196014404e-01,-4.578188359737396240e-01
4.162096679210662842e-01,2.132225185632705688e-01,-4.542521834373474121e-01,1.556569635868072510e-01,4.163782000541687012e-01,4.197627007961273193e-01,-2.823782861232757568e-01,-4.556653499603271484e-01,8.375700563192367554e-02
-3.087957203388214111e-01,7.066475600004196167e-02,1.872599571943283081e-01,2.053103446960449219e-01,-1.341854501515626907e-02,-3.507758677005767822e-01,9.190521389245986938e-02,1.430255174636840820e-01,-7.009826600551605225e-02
2.115626782178878784e-01,-3.328152000904083252e-02,-4.010932445526123047e-01,2.824497036635875702e-02,1.439339667558670044e-01,-4.146021306514739990e-01,2.581982314586639404e-01,3.786164224147796631e-01,-5.446634721010923386e-03
-3.342099189758300781e-01,1.710749417543411255e-02,1.242613643407821655e-01,-1.838450133800506592e-01,3.407121896743774414e-01,-4.448135197162628174e-01,7.129314355552196503e-03,3.909518197178840637e-02,-2.395583391189575195e-01
-4.743397235870361328e-01,3.825712203979492188e-02,-3.089937865734100342e-01,-1.669056415557861328e-01,4.015756547451019287e-01,3.925985097885131836e-01,-3.312119841575622559e-01,4.162316918373107910e-01,-3.910671770572662354e-01
-1.384190563112497330e-02,-1.924180984497070312e-01,3.193013370037078857e-01,8.242844790220260620e-02,-4.783702492713928223e-01,-1.202896386384963989e-01,3.560249209403991699e-01,-1.963943392038345337e-01,8.555557578802108765e-02
2.862316966056823730e-01,2.809381783008575439e-01,-2.854503095149993896e-01,6.961888074874877930e-02,2.874284684658050537e-01,3.358090994879603386e-03,-3.845288157463073730e-01,-9.257999807596206665e-02,1.787773817777633667e-01
3.101274669170379639e-01,-1.644548475742340088e-01,-1.179951652884483337e-01,1.958357691764831543e-01,-7.119464874267578125e-02,-1.747593879699707031e-01,-3.902763426303863525e-01,3.077850639820098877e-01,-8.335007727146148682e-02
-7.488112896680831909e-02,1.012664660811424255e-01,6.426151841878890991e-03,9.466378390789031982e-02,3.916820287704467773e-01,-4.814018905162811279e-01,-3.236122056841850281e-02,2.520181238651275635e-01,-4.462264180183410645e-01
-1.087298914790153503e-01,3.517430424690246582e-01,2.940419912338256836e-01,7.418558001518249512e-02,-1.514277011156082153e-01,-3.323200345039367676e-01,3.581046760082244873e-01,-2.933957986533641815e-02,-2.963904440402984619e-01
6.785049289464950562e-02,-4.003983139991760254e-01,-9.339695423841476440e-02,2.722283899784088135e-01,1.774010360240936279e-01,-2.596191167831420898e-01,1.892706900835037231e-01,4.060710668563842773e-01,1.543203145265579224e-01
3.386922553181648254e-02,-3.941677510738372803e-01,-3.471986651420593262e-01,3.524790406227111816e-01,2.636336982250213623e-01,-4.191317558288574219e-01,-8.909596130251884460e-03,-8.584519475698471069e-02,1.687286645174026489e-01
-7.409426383674144745e-03,3.633674979209899902e-01,-3.046795167028903961e-02,2.875737249851226807e-01,-7.208202779293060303e-02,-8.835246413946151733e-02,-1.132907718420028687e-01,4.463756382465362549e-01,5.214238911867141724e-02
-2.895122468471527100e-01,-1.945245563983917236e-01,2.885932028293609619e-01,-1.441585645079612732e-02,-4.274668991565704346e-01,4.399290382862091064e-01,-1.017856150865554810e-01,-2.132778614759445190e-01,2.611350119113922119e-01
9.777097404003143311e-02,2.803581357002258301e-01,-1.215601190924644470e-01,4.704013168811798096e-01,9.598501026630401611e-03,4.808610081672668457e-01,1.076286658644676208e-01,2.916110157966613770e-01,4.013712108135223389e-01
-1.401842534542083740e-01,-2.478012144565582275e-01,9.064192324876785278e-02,-1.945921927690505981e-01,2.930524200201034546e-02,5.439830198884010315e-02,9.681808948516845703e-02,4.371678829193115234e-01,-1.725477129220962524e-01
3.147249817848205566e-01,2.105142474174499512e-01,2.194991111755371094e-01,-1.457869559526443481e-01,4.580998420715332031e-02,-3.957765996456146240e-01,6.299566011875867844e-03,3.957000076770782471e-01,4.166442751884460449e-01
1.587098389863967896e-01,-1.713756471872329712e-01,-7.126846164464950562e-02,2.353009879589080811e-01,-4.628088474273681641e-01,-2.524359822273254395e-01,-3.257455229759216309e-01,1.098139211535453796e-03,2.901136577129364014e-01
-1.638206839561462402e-01,-8.956931531429290771e-02,1.597038805484771729e-01,-7.749833166599273682e-02,1.730247139930725098e-01,2.799617052078247070e-01,1.562819629907608032e-01,-1.309914886951446533e-01,2.576418817043304443e-01
-1.011083126068115234e-01,1.106994971632957458e-01,-2.486473917961120605e-01,4.981557652354240417e-02,1.948847025632858276e-01,2.703725397586822510e-01,4.315449595451354980e-01,1.481163501739501953e-01,-5.756817013025283813e-02
-3.320205807685852051e-01,4.412948489189147949e-01,-4.775626957416534424e-01,1.062125116586685181e-01,-3.909274637699127197e-01,-4.135809540748596191e-01,-3.000572025775909424e-01,4.167076051235198975e-01,3.528734147548675537e-01
9.516827762126922607e-02,-4.462942183017730713e-01,-2.973208725452423096e-01,-3.721531331539154053e-01,-2.524605095386505127e-01,7.497102767229080200e-02,6.583403795957565308e-02,-2.114348858594894409e-01,3.012716174125671387e-01
2.306424677371978760e-01,1.943747885525226593e-02,-3.972579538822174072e-01,-2.940599322319030762e-01,1.538622379302978516e-01,1.691585034132003784e-01,4.236739575862884521e-01,4.090382754802703857e-01,4.313703775405883789e-01
3.911461234092712402e-01,-3.315432369709014893e-02,2.950677275657653809e-01,-1.246458217501640320e-01,1.487458199262619019e-01,4.009706377983093262e-01,4.197296798229217529e-01,-2.295041978359222412e-01,-3.199591487646102905e-02
1.351196467876434326e-01,-4.562939703464508057e-01,2.852006554603576660e-01,3.411453664302825928e-01,-6.405494362115859985e-02,1.045481488108634949e-01,8.691398799419403076e-02,2.451289072632789612e-02,3.182738721370697021e-01
-2.171918451786041260e-01,4.278900623321533203e-01,-1.685235649347305298e-01,-1.930026859045028687e-01,-3.360943123698234558e-02,-2.332417517900466919e-01,1.001053601503372192e-01,5.342336371541023254e-02,2.404803484678268433e-01
3.264260590076446533e-01,4.159124493598937988e-01,2.475036829710006714e-01,9.982825815677642822e-02,1.094820201396942139e-01,-2.206634581089019775e-01,3.284934759140014648e-01,-4.332090616226196289e-01,4.531395137310028076e-01
8.928419649600982666e-02,1.564889848232269287e-01,-3.551245331764221191e-01,1.552692651748657227e-01,4.462935030460357666e-01,1.880839765071868896e-01,-4.116028249263763428e-01,3.092197477817535400e-01,3.348392844200134277e-01
5.959127843379974365e-02,-1.153344213962554932e-01,2.942763268947601318e-01,-2.366460859775543213e-01,-1.685500703752040863e-02,2.274157246574759483e-03,4.474106431007385254e-01,2.095906287431716919e-01,-4.598993957042694092e-01
-3.130075335502624512e-02,1.487296968698501587e-01,-6.063870713114738464e-02,-3.704953566193580627e-02,-8.633808046579360962e-02,2.242738381028175354e-02,2.251057326793670654e-01,2.928018867969512939e-01,-1.790385842323303223e-01
4.175230860710144043e-01,-4.317755624651908875e-02,1.754542291164398193e-01,-3.710160255432128906e-01,-2.472345232963562012e-01,5.153733864426612854e-02,6.496084481477737427e-02,-1.297847628593444824e-01,-1.420163810253143311e-01
-4.265770018100738525e-01,9.355948865413665771e-02,4.436046183109283447e-01,4.055186808109283447e-01,4.121465682983398438e-01,8.308722078800201416e-02,-4.793748259544372559e-01,1.335774511098861694e-01,-4.371230602264404297e-01
3.204368054866790771e-01,-3.882679641246795654e-01,-4.572443068027496338e-01,-6.140295416116714478e-02,3.883177042007446289e-01,-1.059542149305343628e-01,-2.779851853847503662e-02,-1.574130505323410034e-01,-1.362331956624984741e-01
2.328060865402221680e-01,-4.658905863761901855e-01,-7.238271087408065796e-02,3.134446442127227783e-01,3.314894735813140869e-01,-1.233899891376495361e-01,-2.095817774534225464e-01,9.828368574380874634e-02,5.131532624363899231e-02
-4.137400984764099121e-01,4.068133980035781860e-02,1.135782375931739807e-01,2.173173129558563232e-01,2.164164632558822632e-01,-5.142310634255409241e-03,-2.617835402488708496e-01,1.629680097103118896e-01,-1.502862125635147095e-01
2.373408973217010498e-01,-1.754667162895202637e-01,-1.664951443672180176e-03,4.236188232898712158e-01,2.970764636993408203e-01,1.384045928716659546e-01,3.529240936040878296e-02,-2.405490428209304810e-01,4.549446105957031250e-01
-3.466771543025970459e-01,-4.421108663082122803e-01,2.285798788070678711e-01,-9.331227838993072510e-02,1.220815721899271011e-02,-1.111198663711547852e-01,3.493241220712661743e-02,-4.832594990730285645e-01,-1.914962381124496460e-01
-3.738257586956024170e-01,-4.532454907894134521e-01,-2.479285746812820435e-01,-1.304576098918914795e-01,-1.345808804035186768e-01,4.546402692794799805e-01,-2.791225910186767578e-01,-1.073664277791976929e-01,-5.400682240724563599e-02
1.606026738882064819e-01,1.497813612222671509e-01,-4.222446680068969727e-01,6.461089942604303360e-03,-4.576362371444702148e-01,2.152016907930374146e-01,-4.586563408374786377e-01,1.291771978139877319e-01,-1.395578086376190186e-01
1.502717286348342896e-01,-8.571345359086990356e-02,3.826383501291275024e-02,-4.106265679001808167e-02,-4.689845815300941467e-02,2.360512763261795044e-01,-4.280283451080322266e-01,-1.824705675244331360e-02,1.395737975835800171e-01
3.850626647472381592e-01,1.592234820127487183e-01,-4.396663606166839600e-01,-2.502861917018890381e-01,1.494877785444259644e-01,4.119002223014831543e-01,-3.807282149791717529e-01,6.315014511346817017e-02,-2.576228789985179901e-02
3.419031500816345215e-01,-1.679322421550750732e-01,2.464958429336547852e-01,2.162709534168243408e-01,-6.406527012586593628e-02,1.008961051702499390e-01,1.124217361211776733e-01,-1.860287785530090332e-01,-9.274621307849884033e-02
-3.244228661060333252e-01,1.976101100444793701e-01,2.641772329807281494e-01,3.531314432621002197e-02,1.148572564125061035e-01,4.346974939107894897e-02,3.684863448143005371e-01,2.143840640783309937e-01,3.172287344932556152e-02
-4.147609770298004150e-01,9.849013388156890869e-02,-2.531970739364624023e-01,-3.425289392471313477e-01,-3.741163313388824463e-01,-3.143785297870635986e-01,-5.097604990005493164e-01,-4.628783464431762695e-01,4.986485093832015991e-02
-7.018950581550598145e-02,-1.669678022153675556e-04,2.785859405994415283e-01,-4.483706355094909668e-01,3.260667324066162109e-01,3.656608462333679199e-01,-1.683824509382247925e-01,-3.381609022617340088e-01,-4.396410584449768066e-01
-1.481888890266418457e-01,3.995737433433532715e-01,3.092651665210723877e-01,1.661915481090545654e-01,5.435645207762718201e-02,4.084819182753562927e-02,6.513309478759765625e-02,2.904736399650573730e-01,-4.395213723182678223e-01
1.669291593134403229e-02,2.302655279636383057e-01,-2.359522879123687744e-01,-4.197444915771484375e-01,-3.933192789554595947e-01,-3.684611916542053223e-01,2.352063916623592377e-02,-3.995768129825592041e-01,-2.012130618095397949e-01
-1.983262412250041962e-02,3.057562410831451416e-01,-3.570399880409240723e-01,1.442384868860244751e-01,1.739072650671005249e-01,1.562037169933319092e-01,-2.584150135517120361e-01,-2.368529289960861206e-01,6.569450348615646362e-02
-3.627026379108428955e-01,-1.227889135479927063e-01,-3.712609410285949707e-01,1.255869865417480469e-01,3.430072367191314697e-01,3.416011929512023926e-01,5.375774577260017395e-02,-3.322612345218658447e-01,4.427520558238029480e-02
-3.122548460960388184e-01,-2.374725043773651123e-01,-4.403247535228729248e-01,-2.946093678474426270e-01,-9.703411906957626343e-02,2.338891178369522095e-01,1.916869431734085083e-01,1.149016618728637695e-01,1.774750500917434692e-01
3.408778607845306396e-01,-1.968092620372772217e-01,-3.983431681990623474e-02,-4.333331882953643799e-01,1.201301291584968567e-01,-3.063711151480674744e-02,-4.266639351844787598e-01,-2.341139912605285645e-01,7.211675494909286499e-02
-2.842905819416046143e-01,-2.941731810569763184e-01,-1.472875475883483887e-01,-7.285886257886886597e-02,-4.656311869621276855e-01,2.094936966896057129e-01,-4.159304201602935791e-01,-3.889824748039245605e-01,3.455471694469451904e-01
2.442363947629928589e-01,-3.749606609344482422e-01,-4.876746535301208496e-01,1.701884269714355469e-01,-1.971628069877624512e-01,-3.340735137462615967e-01,2.268229797482490540e-02,-2.825220823287963867e-01,-7.130060344934463501e-02
-3.629457578063011169e-02,4.154347777366638184e-01,-3.474829792976379395e-01,-2.817795872688293457e-01,-1.417118161916732788e-01,4.340578019618988037e-01,-4.131249785423278809e-01,2.412860244512557983e-01,3.810779452323913574e-01
-3.331694751977920532e-02,-3.353141248226165771e-01,-3.192513585090637207e-01,-8.834488689899444580e-02,3.933182656764984131e-01,4.442329406738281250e-01,1.949141770601272583e-01,3.872360289096832275e-01,4.062745273113250732e-01
3.622180521488189697e-01,-1.187575459480285645e-01,-3.033458888530731201e-01,-1.251020878553390503e-01,4.474244117736816406e-01,-2.149806171655654907e-01,-3.280622363090515137e-01,3.085340261459350586e-01,-2.138763815164566040e-01
-7.337606698274612427e-02,-1.275926232337951660e-01,-1.695317775011062622e-01,-3.234491646289825439e-01,9.522239118814468384e-02,9.309957735240459442e-03,1.547532677650451660e-01,1.321787387132644653e-01,-5.794449895620346069e-02
-2.214328944683074951e-01,4.452171623706817627e-01,-5.308190733194351196e-02,-2.982569672167301178e-02,4.218848049640655518e-01,-3.493700027465820312e-01,-3.115188479423522949e-01,1.825489103794097900e-01,-4.988932982087135315e-02
-1.345175653696060181e-01,1.083477959036827087e-01,4.290520250797271729e-01,2.972384393215179443e-01,-3.631283044815063477e-01,2.292701005935668945e-01,-3.034375607967376709e-01,1.046482995152473450e-01,-3.168881237506866455e-01
2.258625179529190063e-01,-2.411196827888488770e-01,3.836548328399658203e-01,3.598136901855468750e-01,1.875471919775009155e-01,-2.868044562637805939e-02,3.903721570968627930e-01,-4.790940582752227783e-01,2.760896682739257812e-01
-1.035395562648773193e-01,-1.937199681997299194e-01,-3.480497896671295166e-01,2.307052761316299438e-01,-5.815716087818145752e-02,-7.665430754423141479e-02,2.256886214017868042e-01,-3.014600872993469238e-01,4.404583275318145752e-01
2.536697778850793839e-03,2.451186813414096832e-02,1.822115331888198853e-01,1.115477606654167175e-01,-2.464755773544311523e-01,1.729788333177566528e-01,-1.304409652948379517e-01,-4.149110317230224609e-01,-9.894028306007385254e-02
3.601047694683074951e-01,-6.514108926057815552e-02,3.114458918571472168e-01,2.721222043037414551e-01,6.415763637050986290e-04,-1.833409219980239868e-01,-3.517653346061706543e-01,-5.549334734678268433e-02,3.082494437694549561e-01
-2.259895950555801392e-01,-2.741213738918304443e-01,9.032131731510162354e-02,-2.720768749713897705e-01,1.833855211734771729e-01,-1.561030447483062744e-01,-2.787361741065979004e-01,4.757583141326904297e-01,-2.636779844760894775e-01
-3.343746364116668701e-01,-2.155253142118453979e-01,-1.115712895989418030e-01,2.977854609489440918e-01,-2.918852027505636215e-03,1.746657537296414375e-03,-1.318988800048828125e-01,2.049947828054428101e-01,3.117464482784271240e-01
-8.235552906990051270e-02,1.568796038627624512e-01,-3.201282024383544922e-02,-3.779467046260833740e-01,3.883454203605651855e-01,-5.411551147699356079e-02,-4.381193965673446655e-02,7.063267379999160767e-02,2.878701984882354736e-01
2.907962203025817871e-01,-4.040783047676086426e-01,2.245687507092952728e-02,1.631304025650024414e-01,6.694621406495571136e-03,-2.390905916690826416e-01,-4.379567503929138184e-01,9.391621500253677368e-02,3.786389231681823730e-01
-4.175749123096466064e-01,-3.177616000175476074e-01,4.366080760955810547e-01,-3.691923990845680237e-02,-3.437205851078033447e-01,-3.512982726097106934e-01,2.679645121097564697e-01,-7.063157390803098679e-03,-5.629133060574531555e-02
-2.971643507480621338e-01,2.301543951034545898e-01,-2.054608464241027832e-01,-4.838022962212562561e-02,4.445401951670646667e-02,3.501757681369781494e-01,-3.310485184192657471e-01,4.458098411560058594e-01,2.677217721939086914e-01
-1.479081064462661743e-01,3.818080723285675049e-01,9.467747807502746582e-02,2.264468520879745483e-01,3.430636525154113770e-01,3.044541478157043457e-01,-4.438852146267890930e-02,1.891613453626632690e-01,1.075912714004516602e-01
4.226742684841156006e-01,-4.003687202930450439e-01,2.075329571962356567e-01,3.103843033313751221e-01,-6.203743978403508663e-04,-3.400880992412567139e-01,3.619563579559326172e-02,-3.378443121910095215e-01,2.096080034971237183e-01
-6.396810640580952168e-04,-2.449423074722290039e-01,-1.868440359830856323e-01,2.616983056068420410e-01,2.515634596347808838e-01,-2.344390749931335449e-02,-2.061875313520431519e-01,1.923124045133590698e-01,1.645055264234542847e-01
-2.010830044746398926e-01,4.589523375034332275e-01,3.649626672267913818e-01,4.382179975509643555e-01,2.874620258808135986e-01,4.244557917118072510e-01,3.848829269409179688e-01,3.451318442821502686e-01,-5.035558715462684631e-02
2.782252728939056396e-01,4.018368422985076904e-01,2.841491997241973877e-01,-3.580221906304359436e-02,1.225952431559562683e-01,-2.450147867202758789e-01,-2.316049337387084961e-01,1.456583589315414429e-01,1.806203871965408325e-01
-4.284469485282897949e-01,-1.760648488998413086e-01,-2.098104357719421387e-01,1.455510407686233521e-01,2.405565604567527771e-02,-1.343726068735122681e-01,1.833079457283020020e-01,-3.712295591831207275e-01,-3.268623352050781250e-01
7.171785086393356323e-02,-4.269333928823471069e-02,9.697748720645904541e-02,-4.013949334621429443e-01,3.476730883121490479e-01,-4.442824125289916992e-01,-2.271651029586791992e-01,6.775693595409393311e-02,-4.691597521305084229e-01
4.271115660667419434e-01,-9.416357427835464478e-02,1.945347785949707031e-01,-4.478753507137298584e-01,3.961088359355926514e-01,1.369998306035995483e-01,1.865883916616439819e-01,3.393549323081970215e-01,2.905393838882446289e-01
-4.055865406990051270e-01,3.278675079345703125e-01,1.936780661344528198e-01,-2.293456941843032837e-01,3.508118093013763428e-01,-7.430715858936309814e-02,-3.981620818376541138e-02,-1.804160624742507935e-01,-4.076198935508728027e-01
3.147275447845458984e-01,3.492227494716644287e-01,8.281004428863525391e-02,7.030580937862396240e-02,2.989044040441513062e-02,2.164836376905441284e-01,-3.543364107608795166e-01,-3.885020911693572998e-01,-1.109276860952377319e-01
2.874800264835357666e-01,3.098782896995544434e-01,7.504168897867202759e-02,3.502186536788940430e-01,-8.044309169054031372e-02,1.501981914043426514e-01,3.166436254978179932e-01,-2.541990876197814941e-01,3.858807384967803955e-01
6.013836711645126343e-02,-4.078044891357421875e-01,2.826721966266632080e-02,2.042838931083679199e-01,1.764795035123825073e-01,-3.329591751098632812e-01,1.594213098287582397e-01,3.359667211771011353e-02,-2.108328938484191895e-01
-8.818725496530532837e-02,1.703435927629470825e-01,-2.180481255054473877e-01,-9.791195392608642578e-02,-6.202726438641548157e-02,-3.441628813743591309e-01,4.170373678207397461e-01,-9.362086653709411621e-02,2.541094124317169189e-01
2.725822627544403076e-01,4.281878769397735596e-01,-2.765905261039733887e-01,2.146979272365570068e-01,-3.564336895942687988e-01,-2.350243031978607178e-01,-3.141477406024932861e-01,7.868340611457824707e-02,9.106681495904922485e-02
2.361246198415756226e-01,-4.766730070114135742e-01,-4.071152508258819580e-01,-3.607007563114166260e-01,-3.600947856903076172e-01,7.536066323518753052e-02,4.453483819961547852e-01,1.268102228641510010e-02,2.163926512002944946e-01
-2.340495884418487549e-01,-2.421073913574218750e-01,3.654770255088806152e-01,1.154814958572387695e-01,-1.489529106765985489e-02,4.009728431701660156e-01,2.206809967756271362e-01,-1.175250560045242310e-01,-3.933893442153930664e-01
4.392932355403900146e-01,3.822792470455169678e-01,-4.660814702510833740e-01,-1.614318601787090302e-02,4.048044085502624512e-01,1.725353449583053589e-01,4.041971564292907715e-01,-2.569281756877899170e-01,-3.485028818249702454e-02
9.424639493227005005e-02,-1.584741920232772827e-01,6.517449766397476196e-02,-3.135708868503570557e-01,-3.317598104476928711e-01,-1.553551256656646729e-01,2.436655610799789429e-01,2.944211661815643311e-01,1.200740858912467957e-01
1.919225454330444336e-01,2.037680894136428833e-01,-2.598805427551269531e-01,-3.100557327270507812e-01,-8.536408841609954834e-02,4.087038636207580566e-01,3.640826046466827393e-01,-3.474268317222595215e-01,3.608760833740234375e-01
-3.922662436962127686e-01,-3.091496229171752930e-01,-1.717591583728790283e-01,-1.925667673349380493e-01,-3.177140653133392334e-01,4.439368546009063721e-01,3.333769142627716064e-01,1.497043520212173462e-01,3.738100826740264893e-01
1.686226725578308105e-01,4.455498456954956055e-01,-1.551920771598815918e-01,4.531277120113372803e-01,1.465015560388565063e-01,4.061802327632904053e-01,-1.222972869873046875e-01,-1.139575913548469543e-01,-1.102839484810829163e-01
-8.873616904020309448e-02,2.267013192176818848e-01,-3.209498524665832520e-01,-1.760102361440658569e-01,1.555282175540924072e-01,6.427463144063949585e-02,4.234380722045898438e-01,1.365946829319000244e-01,-3.031630516052246094e-01
-2.208390384912490845e-01,-4.379652440547943115e-01,-1.496294140815734863e-01,-2.654848098754882812e-01,-4.464566409587860107e-01,1.711522042751312256e-01,2.958588898181915283e-01,4.809592962265014648e-01,4.260931909084320068e-01
-2.462771087884902954e-01,-4.144523143768310547e-01,-3.400480747222900391e-02,-2.927272915840148926e-01,-2.485582232475280762e-01,-4.127690792083740234e-01,4.948886856436729431e-02,3.374706804752349854e-01,4.028829038143157959e-01
-5.123320966958999634e-02,5.679017864167690277e-03,-3.943665623664855957e-01,4.649854823946952820e-02,1.699872314929962158e-01,3.706550300121307373e-01,1.663179844617843628e-01,-1.910737305879592896e-01,-1.619980931282043457e-01
-3.739154338836669922e-01,-1.884553134441375732e-01,3.522756397724151611e-01,-3.747809827327728271e-01,-1.208541691303253174e-01,3.007461726665496826e-01,-1.196158379316329956e-01,4.228639006614685059e-01,4.033283591270446777e-01
4.183594286441802979e-01,-4.009942710399627686e-02,-3.270829096436500549e-02,-3.151949495077133179e-02,4.547710418701171875e-01,-4.778485745191574097e-02,2.266835719347000122e-01,3.440000712871551514e-01,8.235297352075576782e-02
-5.121294781565666199e-02,-1.273856312036514282e-01,-1.138622462749481201e-01,1.440492421388626099e-01,3.208072483539581299e-01,1.756899505853652954e-01,-3.066108524799346924e-01,-3.482277989387512207e-01,3.496741950511932373e-01
1.228122040629386902e-01,4.048915505409240723e-01,-8.775973320007324219e-02,-6.222064793109893799e-02,-5.882767960429191589e-03,1.579044461250305176e-01,1.373358070850372314e-01,-8.216328918933868408e-02,-2.730676531791687012e-01
1.324426680803298950e-01,5.637296661734580994e-02,4.356276988983154297e-01,-4.471038579940795898e-01,-2.453033030033111572e-01,2.721850574016571045e-01,-3.729077875614166260e-01,2.860476672649383545e-01,2.199504375457763672e-01
2.281689494848251343e-01,-1.671273410320281982e-01,1.971042603254318237e-01,-5.025989189743995667e-02,-1.792407929897308350e-01,4.529044628143310547e-01,-2.237814813852310181e-01,-2.719035148620605469e-01,1.953664273023605347e-01
1.907082647085189819e-01,-4.667062759399414062e-01,3.934916257858276367e-01,1.536701768636703491e-01,-2.362967282533645630e-01,4.699465036392211914e-01,-1.383282244205474854e-01,-3.998492956161499023e-01,-3.216699659824371338e-01
-3.242012560367584229e-01,1.166395694017410278e-01,-2.536095976829528809e-01,1.346288472414016724e-01,3.682683706283569336e-01,-3.718461692333221436e-01,-4.616813957691192627e-01,-3.382691442966461182e-01,2.553789177909493446e-03
8.213356882333755493e-02,-1.393020600080490112e-01,2.629390060901641846e-01,3.096409440040588379e-01,-1.779361218214035034e-01,2.121620029211044312e-01,3.360143005847930908e-01,4.568094387650489807e-02,-4.533395767211914062e-01
-2.237569689750671387e-01,2.041043788194656372e-01,-1.562307868152856827e-02,4.328581094741821289e-01,2.628106772899627686e-01,-2.671553492546081543e-01,2.739765942096710205e-01,-4.641051292419433594e-01,2.586815655231475830e-01
1.968157887458801270e-01,3.396340608596801758e-01,-1.632211642572656274e-04,1.037554889917373657e-01,-2.590261697769165039e-01,3.286176128312945366e-03,1.783599853515625000e-01,-1.854183226823806763e-01,-4.676693081855773926e-01
-4.366783425211906433e-03,1.372717022895812988e-01,-2.770444154739379883e-01,3.116332292556762695e-01,2.954100370407104492e-01,2.484513223171234131e-01,2.710130214691162109e-01,-2.817307710647583008e-01,-3.469782173633575439e-01
-2.434273362159729004e-01,1.993657201528549194e-01,-2.065585739910602570e-02,-2.766509652137756348e-01,-2.984618581831455231e-02,-1.768492311239242554e-01,-7.859344780445098877e-02,-3.132306933403015137e-01,1.337005794048309326e-01
-1.874038279056549072e-01,-1.399946510791778564e-01,-2.628462612628936768e-01,3.547668755054473877e-01,3.200523555278778076e-01,3.090493083000183105e-01,-3.945051431655883789e-01,-2.816016674041748047e-01,2.363213300704956055e-01
4.582601413130760193e-02,-2.633194923400878906e-01,-1.933960765600204468e-01,-3.875303268432617188e-01,3.767350018024444580e-01,3.293455243110656738e-01,-2.735713720321655273e-01,1.462327688932418823e-01,-3.821065723896026611e-01
6.245549768209457397e-02,-3.036015033721923828e-01,-1.108628213405609131e-01,-8.321440964937210083e-02,-7.150287181138992310e-02,-4.827120006084442139e-01,-2.251475304365158081e-01,-4.969679936766624451e-02,-8.352486789226531982e-02
-4.406391978263854980e-01,3.947330117225646973e-01,-2.292677909135818481e-01,3.523071408271789551e-01,2.089036405086517334e-01,-3.341464102268218994e-01,-1.767169535160064697e-01,7.689404767006635666e-03,-1.281908005475997925e-01
-5.709742754697799683e-02,-2.461996376514434814e-01,-4.103348255157470703e-01,-8.394116908311843872e-02,1.361606270074844360e-01,1.634804159402847290e-01,-3.775207698345184326e-01,-3.191358447074890137e-01,-2.913411473855376244e-03
1.852714717388153076e-01,-1.989125460386276245e-01,1.884576827287673950e-01,3.425681889057159424e-01,-4.587473571300506592e-01,-3.011188805103302002e-01,-3.557129204273223877e-01,-2.343038171529769897e-01,2.425404191017150879e-01
-1.078760176897048950e-01,4.095237553119659424e-01,-3.479017317295074463e-01,-3.727411329746246338e-01,-1.427883654832839966e-01,3.941926062107086182e-01,3.327177762985229492e-01,2.303941845893859863e-01,-2.893472015857696533e-01
8.686985075473785400e-02,3.770548999309539795e-01,8.447837084531784058e-03,1.834853589534759521e-01,1.261234730482101440e-01,-2.184926420450210571e-01,-2.721180021762847900e-01,1.328495442867279053e-01,-2.610229551792144775e-01
-3.922933936119079590e-01,5.189124867320060730e-02,-3.054182827472686768e-01,2.198420315980911255e-01,-3.020273894071578979e-02,3.424315154552459717e-01,1.719293147325515747e-01,4.389801919460296631e-01,-4.360390603542327881e-01
-4.121524095535278320e-01,7.172953337430953979e-02,-3.307980597019195557e-01,3.694149851799011230e-01,2.437676340341567993e-01,2.572160065174102783e-01,-6.254228949546813965e-02,-3.186072409152984619e-02,2.649545073509216309e-01
5.862548947334289551e-02,-1.454240530729293823e-01,-1.358428746461868286e-01,-3.963952958583831787e-01,2.652383744716644287e-01,1.534211039543151855e-01,-5.341433733701705933e-02,-2.750943601131439209e-01,2.728872895240783691e-01
3.555382788181304932e-01,7.525011152029037476e-02,-3.741126954555511475e-01,-4.631527364253997803e-01,-2.936918139457702637e-01,5.614973977208137512e-02,-3.343476653099060059e-01,-4.151383936405181885e-01,-3.025214970111846924e-01
1.510167419910430908e-01,-4.419645667076110840e-01,-1.129757761955261230e-01,-1.106417030096054077e-01,-2.996490597724914551e-01,2.358927577733993530e-02,4.441401660442352295e-01,3.418479561805725098e-01,-1.829867362976074219e-01
3.171977996826171875e-01,-4.168696403503417969e-01,3.936412930488586426e-01,-2.420198358595371246e-02,-6.788951158523559570e-02,-1.590962707996368408e-01,-1.394832581281661987e-01,-7.472618948668241501e-03,-1.412852853536605835e-01
-3.664785027503967285e-01,3.013513684272766113e-01,-9.283000975847244263e-02,-4.068179130554199219e-01,-5.997132882475852966e-02,8.188123255968093872e-02,-1.568513810634613037e-01,-1.653736531734466553e-01,-3.464260697364807129e-01
4.374204576015472412e-01,2.065430879592895508e-01,-2.831869423389434814e-01,-3.865679726004600525e-02,4.440411031246185303e-01,-4.553798437118530273e-01,-6.837975978851318359e-02,-1.494425088167190552e-01,-7.949234545230865479e-02
3.374603688716888428e-01,5.016376376152038574e-01,5.137691274285316467e-02,4.363493621349334717e-01,-4.328021407127380371e-01,-3.551615178585052490e-01,3.029989898204803467e-01,-3.088165223598480225e-01,-3.203492164611816406e-01
3.868268132209777832e-01,2.056801170110702515e-01,-2.548174858093261719e-01,-4.146158099174499512e-01,3.895084559917449951e-01,-2.010326832532882690e-01,-1.832766085863113403e-01,3.582385927438735962e-02,-1.826677024364471436e-01
-4.298152327537536621e-01,4.487313926219940186e-01,4.770855978131294250e-02,3.808763325214385986e-01,-2.359678298234939575e-01,1.530975699424743652e-01,3.382852375507354736e-01,-3.660032749176025391e-01,2.643475234508514404e-01
4.189469218254089355e-01,-4.186795949935913086e-01,8.238035440444946289e-02,-1.320879310369491577e-01,-1.635401993989944458e-01,-2.032365500926971436e-01,-3.027128987014293671e-02,-7.877862453460693359e-02,-4.628763347864151001e-02
-1.728680431842803955e-01,-2.451107054948806763e-01,1.799333095550537109e-01,-2.376465499401092529e-01,1.287425905466079712e-01,-1.542991697788238525e-01,-9.550444781780242920e-02,2.830570936203002930e-01,3.673599958419799805e-01
-1.301212161779403687e-01,2.218833863735198975e-01,-2.556552886962890625e-01,9.196379035711288452e-02,-3.178704380989074707e-01,2.993952929973602295e-01,-2.339427620172500610e-01,-1.596705317497253418e-01,-4.323774874210357666e-01
3.296771943569183350e-01,-1.254855096340179443e-01,-5.569602176547050476e-02,-1.513105928897857666e-01,2.721352875232696533e-01,3.247003555297851562e-01,3.677954077720642090e-01,-3.134871423244476318e-01,-3.624716103076934814e-01
4.394962191581726074e-01,-4.354827702045440674e-01,2.456848323345184326e-01,-5.778673291206359863e-02,2.877652347087860107e-01,-1.463176459074020386e-01,1.100804284214973450e-01,2.039333581924438477e-01,4.017823040485382080e-01
2.627339586615562439e-02,5.574729759246110916e-03,-4.429113864898681641e-01,4.142422676086425781e-01,-5.148882046341896057e-02,-8.166448213160037994e-03,-3.077732324600219727e-01,-3.314400315284729004e-01,-3.976253867149353027e-01
-2.662751674652099609e-01,-1.348068565130233765e-01,-1.490351557731628418e-01,-2.128793448209762573e-01,2.657974660396575928e-01,4.033654034137725830e-01,-2.192177623510360718e-01,2.987450957298278809e-01,-3.836596310138702393e-01
-3.012429177761077881e-01,-1.671834290027618408e-01,-2.218250781297683716e-01,2.974777817726135254e-01,-2.880101501941680908e-01,3.588950037956237793e-01,2.839618623256683350e-01,-1.920621097087860107e-02,-3.764911293983459473e-01
4.463474452495574951e-02,-1.402469277381896973e-01,-2.374797612428665161e-01,-1.966176182031631470e-01,9.101638942956924438e-02,-4.070905447006225586e-01,-2.010544063523411751e-03,-2.546288371086120605e-01,6.065528094768524170e-02
4.616421163082122803e-01,-3.174417093396186829e-02,-2.845256775617599487e-02,-1.990903615951538086e-01,3.615497797727584839e-02,-2.662260532379150391e-01,2.353800237178802490e-01,1.313408911228179932e-01,-4.965930804610252380e-02
-7.315755635499954224e-02,-1.598003655672073364e-01,4.776810109615325928e-01,3.412583172321319580e-01,2.515712678432464600e-01,3.309488892555236816e-01,3.131995797157287598e-01,-3.356987237930297852e-01,1.833757013082504272e-02
1.931802034378051758e-01,3.069113194942474365e-01,3.742537796497344971e-01,2.601451575756072998e-01,-3.578788936138153076e-01,-1.210082918405532837e-01,8.485945314168930054e-02,-4.780610501766204834e-01,1.390526723116636276e-02
9.417390823364257812e-02,-3.958625495433807373e-01,2.064348757266998291e-01,2.166025042533874512e-01,-4.340785741806030273e-01,-5.425021797418594360e-02,-3.632777929306030273e-01,1.099569126963615417e-01,-3.578728735446929932e-01
