1.254809834063053131e-02,1.038330495357513428e-01,-2.358759194612503052e-01,-1.220174580812454224e-01,9.622406214475631714e-02,-7.888971269130706787e-02,6.266126781702041626e-02,-1.367125064134597778e-01,8.821434527635574341e-02
1.481864154338836670e-01,1.289297342300415039e-01,2.276508957147598267e-01,-1.852780282497406006e-01,1.184946820139884949e-01,3.696101531386375427e-02,-2.824386656284332275e-01,-4.816313683986663818e-01,-1.584999114274978638e-01
2.060043253004550934e-02,4.788315296173095703e-02,3.578627854585647583e-02,-4.990409314632415771e-02,-2.182057686150074005e-02,-1.797231100499629974e-02,-1.794523373246192932e-02,5.951154604554176331e-02,3.180109336972236633e-02
7.892113924026489258e-02,-4.895664006471633911e-02,-2.198172807693481445e-01,-1.473150961101055145e-02,2.714150547981262207e-01,1.041606813669204712e-01,-2.356443554162979126e-01,-1.845860388129949570e-03,-3.596752882003784180e-02
7.172980811446905136e-03,-1.035491451621055603e-01,6.184133887290954590e-02,3.634228184819221497e-02,1.611339300870895386e-02,1.701200939714908600e-02,-1.112748980522155762e-01,4.110845550894737244e-02,-1.995748467743396759e-02
3.558544442057609558e-02,5.291581898927688599e-02,1.320516467094421387e-01,4.006474837660789490e-02,6.691303104162216187e-02,1.331869810819625854e-01,-2.087501436471939087e-01,-3.101190030574798584e-01,-1.199429333209991455e-01
-4.202932417392730713e-01,7.709141355007886887e-03,-8.985115587711334229e-02,1.903783082962036133e-01,2.213359922170639038e-01,-1.392090916633605957e-01,-1.123064458370208740e-01,-6.046982109546661377e-02,-2.371294796466827393e-01
-1.146378293633460999e-01,1.557434815913438797e-02,1.086980849504470825e-02,-3.430758118629455566e-01,2.094877809286117554e-01,-3.114120569080114365e-03,1.583325266838073730e-01,9.642482548952102661e-02,-1.970191746950149536e-01
3.334720619022846222e-03,1.040540337562561035e-01,3.970969840884208679e-02,-9.805828332901000977e-02,2.103754691779613495e-02,2.289391309022903442e-02,1.478219521231949329e-03,4.398965463042259216e-02,6.863660365343093872e-02
7.179169356822967529e-02,2.412403523921966553e-01,-2.580263316631317139e-01,2.537908256053924561e-01,-1.434293240308761597e-01,-2.882458269596099854e-01,7.699071615934371948e-02,-1.388457566499710083e-01,1.774438470602035522e-01
1.109844520688056946e-01,3.094841837882995605e-01,8.914643526077270508e-02,-6.505868434906005859e-01,-1.996160298585891724e-01,1.375098824501037598e-01,7.441952824592590332e-02,-2.262775450944900513e-01,-2.508394420146942139e-01
2.614386975765228271e-01,6.171967834234237671e-02,3.238344788551330566e-01,4.679087549448013306e-02,-9.551390260457992554e-02,4.982721805572509766e-02,1.385581027716398239e-02,-3.479501307010650635e-01,-3.665129840373992920e-01
-2.916599251329898834e-02,1.743952929973602295e-01,-2.363341301679611206e-01,-2.680282294750213623e-01,9.700635820627212524e-02,1.089638769626617432e-01,5.791683867573738098e-02,-2.992673777043819427e-02,-6.866922974586486816e-02
2.410338371992111206e-01,-5.484120249748229980e-01,-4.134850800037384033e-01,-3.001083731651306152e-01,-5.187368988990783691e-01,2.542867064476013184e-01,-8.274218440055847168e-01,9.382799267768859863e-02,3.280598223209381104e-01
-3.970072790980339050e-02,-9.924637526273727417e-02,2.041223794221878052e-01,-3.351563513278961182e-01,1.427943725138902664e-02,2.235562801361083984e-01,-7.374988496303558350e-02,1.179121211171150208e-01,-5.487730354070663452e-02
8.379071205854415894e-02,3.697618097066879272e-02,-3.882633745670318604e-01,-1.199038624763488770e-01,2.286267876625061035e-01,1.546771675348281860e-01,-1.998209767043590546e-02,-2.282171137630939484e-02,6.609608232975006104e-02
-3.440589010715484619e-01,5.475149303674697876e-02,1.475289165973663330e-01,1.591038256883621216e-01,3.889599442481994629e-01,2.260661870241165161e-02,1.132268682122230530e-01,-1.722562015056610107e-01,-3.489629030227661133e-01
7.558482885360717773e-02,-3.840764984488487244e-02,9.483380615711212158e-02,1.653804443776607513e-02,-3.591794520616531372e-02,4.410377517342567444e-02,9.042982012033462524e-02,4.648623988032341003e-02,-4.682625830173492432e-02
-3.542106598615646362e-02,1.950739026069641113e-01,-9.679738432168960571e-02,-2.525221407413482666e-01,1.699832081794738770e-01,-5.104747787117958069e-02,-1.169086620211601257e-01,1.148831769824028015e-01,-4.853271320462226868e-02
1.718618124723434448e-01,-2.635065317153930664e-01,1.356834620237350464e-01,7.856406271457672119e-02,-2.757155299186706543e-01,9.678121656179428101e-02,5.443691834807395935e-02,3.158716857433319092e-02,-9.424360096454620361e-02
-2.857632748782634735e-02,-1.542497426271438599e-01,5.809078365564346313e-02,1.314164847135543823e-01,9.230385720729827881e-02,-1.376103516668081284e-02,-1.530752629041671753e-01,-9.783449023962020874e-02,-1.134827733039855957e-01
1.972573101520538330e-01,-2.738485112786293030e-02,6.646489351987838745e-02,-8.139473199844360352e-02,-3.909963965415954590e-01,1.939325481653213501e-01,-1.483489423990249634e-01,-5.965247005224227905e-02,2.704808115959167480e-01
1.646661609411239624e-01,1.389555353671312332e-02,-3.840376734733581543e-01,2.227290272712707520e-01,3.710609301924705505e-02,-3.139747679233551025e-01,1.024179235100746155e-01,2.373152971267700195e-02,4.227226972579956055e-02
4.742498975247144699e-03,1.870256662368774414e-02,-1.798064708709716797e-01,1.358908712863922119e-01,2.123010307550430298e-01,2.576261758804321289e-01,-4.081077277660369873e-01,-2.028798162937164307e-01,6.607198715209960938e-02
2.054395675659179688e-01,2.432562857866287231e-01,9.456855803728103638e-02,-3.131631761789321899e-03,1.449182257056236267e-02,-6.011958047747612000e-02,-3.339669108390808105e-01,-3.073721826076507568e-01,5.516679957509040833e-02
1.165854856371879578e-01,7.508002966642379761e-02,-7.531896978616714478e-02,1.845427900552749634e-01,-7.660284638404846191e-02,-2.035728991031646729e-01,9.348870813846588135e-02,2.213427796959877014e-02,-2.184297889471054077e-01
-4.372860193252563477e-01,3.888755291700363159e-02,9.590461105108261108e-02,1.297862529754638672e-01,3.452113270759582520e-01,2.432767860591411591e-02,9.515063464641571045e-02,-2.621369063854217529e-01,-2.155588269233703613e-01
1.690028309822082520e-01,-3.559039235115051270e-01,-2.708835601806640625e-01,3.656647801399230957e-01,-1.547165811061859131e-01,-1.442406624555587769e-01,2.777941524982452393e-01,7.507777959108352661e-02,7.693128287792205811e-02
5.456094816327095032e-02,-7.810764759778976440e-02,1.065738499164581299e-01,-2.475332282483577728e-02,2.756555974483489990e-01,-1.979085057973861694e-01,-9.060885012149810791e-02,6.584709882736206055e-02,-2.808127105236053467e-01
-7.816736400127410889e-02,-3.682088553905487061e-01,-2.317701727151870728e-01,1.738862246274948120e-01,1.540747284889221191e-01,1.675917804241180420e-01,9.998092055320739746e-02,1.970587521791458130e-01,-3.475625813007354736e-02
2.704467624425888062e-05,-9.294630587100982666e-02,-3.993129730224609375e-02,-2.671039476990699768e-02,-2.351869642734527588e-01,-4.948201123625040054e-03,2.086053639650344849e-01,6.998980045318603516e-02,1.061102673411369324e-01
2.201489657163619995e-01,-1.380695253610610962e-01,-2.068963497877120972e-01,2.437021285295486450e-01,-9.169815480709075928e-02,-3.452974855899810791e-01,1.460698843002319336e-01,5.890134721994400024e-02,-9.289021790027618408e-02
5.760138481855392456e-02,-2.763814851641654968e-02,-1.238407865166664124e-01,-1.456634253263473511e-01,-7.995185442268848419e-04,1.462453901767730713e-01,7.255882024765014648e-02,-4.210567846894264221e-02,-6.493366509675979614e-02
4.416281729936599731e-02,-1.027206629514694214e-01,-1.699493527412414551e-01,5.117328464984893799e-02,4.566422477364540100e-02,1.776481717824935913e-01,-1.457425504922866821e-01,1.771500147879123688e-02,-1.471091359853744507e-01
-1.150601506233215332e-01,-4.535563662648200989e-02,1.563882529735565186e-01,-4.064664840698242188e-01,-1.273923218250274658e-01,1.739221066236495972e-01,5.389051511883735657e-02,1.239139363169670105e-01,1.421055048704147339e-01
-4.839940071105957031e-01,3.741506487131118774e-02,1.225626990199089050e-01,2.304673790931701660e-01,2.366138100624084473e-01,1.749384030699729919e-02,6.487576663494110107e-02,-2.004612088203430176e-01,-2.127854824066162109e-01
9.151944518089294434e-02,7.471706718206405640e-02,-8.443412184715270996e-02,-6.814005319029092789e-03,2.272048592567443848e-01,7.249349355697631836e-02,-4.030423164367675781e-01,8.373323827981948853e-03,-3.229009686037898064e-03
-3.631194680929183960e-02,1.229246482253074646e-01,3.185262158513069153e-02,8.014741539955139160e-02,3.203249275684356689e-01,-1.564466655254364014e-01,5.213085561990737915e-02,-1.464840024709701538e-01,-4.073568582534790039e-01
-3.439979045651853085e-04,-1.431654095649719238e-01,1.536765843629837036e-01,-2.012553662061691284e-01,8.912958204746246338e-02,1.343196071684360504e-02,-4.977651685476303101e-02,1.514320224523544312e-01,-9.290262311697006226e-02
-1.256946176290512085e-01,5.332595482468605042e-02,8.703578263521194458e-03,2.683558873832225800e-02,-7.125702500343322754e-02,-3.183465451002120972e-02,-3.607683628797531128e-02,1.795830018818378448e-02,6.657631136476993561e-03
1.599279465153813362e-03,6.868278980255126953e-02,1.305395513772964478e-01,2.115202397108078003e-01,2.034905552864074707e-01,-2.816082723438739777e-02,-2.729929089546203613e-01,-3.979084789752960205e-01,-6.280635297298431396e-02
2.728018760681152344e-01,2.408924847841262817e-01,5.785699002444744110e-03,2.103221714496612549e-01,1.206637453287839890e-02,-4.525088369846343994e-01,-2.397131472826004028e-01,-5.988687872886657715e-01,5.461341142654418945e-02
-5.264906585216522217e-02,-2.971789538860321045e-01,-3.577584922313690186e-01,2.507396638393402100e-01,-1.926366239786148071e-02,-8.660636842250823975e-02,8.763931691646575928e-02,2.115103900432586670e-01,2.875961363315582275e-01
-1.646116226911544800e-01,-3.252613171935081482e-02,7.910429686307907104e-02,1.706152856349945068e-01,1.197077855467796326e-01,-5.146323144435882568e-02,-1.038769930601119995e-01,-1.902127265930175781e-01,-1.188127622008323669e-01
3.773891553282737732e-02,-1.170855760574340820e-02,-1.083881482481956482e-01,2.928257547318935394e-02,-1.005676109343767166e-03,-1.509347409009933472e-01,-1.037701666355133057e-01,9.389140456914901733e-02,-6.367641687393188477e-02
6.075792759656906128e-02,-4.953396320343017578e-02,-1.330677270889282227e-01,2.936534024775028229e-02,2.515825033187866211e-01,1.227566003799438477e-01,-3.372933566570281982e-01,-3.215606883168220520e-02,2.747387439012527466e-02
-3.106375336647033691e-01,1.270767748355865479e-01,-7.947474718093872070e-02,3.276371955871582031e-02,1.296648234128952026e-01,3.884660452604293823e-02,1.056230589747428894e-01,-1.700549423694610596e-01,-1.641803830862045288e-01
1.771941483020782471e-01,2.387828081846237183e-01,-2.264525145292282104e-01,-1.963158249855041504e-01,-5.084405839443206787e-02,-3.936656564474105835e-02,-1.392845064401626587e-01,1.524408310651779175e-01,1.566187590360641479e-01
1.260560899972915649e-01,1.564544886350631714e-01,-2.807360291481018066e-01,-1.268340498208999634e-01,1.632588952779769897e-01,-1.672454923391342163e-02,-2.422804981470108032e-01,1.482513546943664551e-01,-1.429339349269866943e-01
-2.486737221479415894e-01,1.241905093193054199e-01,1.560402959585189819e-01,-2.469788342714309692e-01,8.604817837476730347e-02,3.782118856906890869e-02,-2.026660740375518799e-02,4.834562912583351135e-02,1.353653073310852051e-01
2.183967977762222290e-01,9.648634493350982666e-02,1.964664459228515625e-01,-1.192384734749794006e-01,2.367615699768066406e-02,5.130045861005783081e-02,-1.569951772689819336e-01,-3.544135689735412598e-01,-2.408975362777709961e-01
-3.958977013826370239e-02,1.238234713673591614e-01,-1.781066209077835083e-01,-1.723973453044891357e-02,-3.836724162101745605e-02,-1.965547949075698853e-01,-4.402260854840278625e-02,3.660452365875244141e-02,8.963946998119354248e-02
-1.026462763547897339e-03,-6.167862564325332642e-02,6.438206881284713745e-02,2.030502557754516602e-01,1.574337184429168701e-01,6.401492655277252197e-02,-2.237627953290939331e-01,-1.280563920736312866e-01,-6.972363591194152832e-02
-1.280079632997512817e-01,-4.214667677879333496e-01,-5.240961909294128418e-02,2.794380187988281250e-01,1.887443214654922485e-01,6.274505704641342163e-02,1.036762725561857224e-02,3.826299309730529785e-02,9.677956812083721161e-03
3.457807600498199463e-01,1.175917536020278931e-01,2.378170192241668701e-01,-2.760701477527618408e-01,-4.046085774898529053e-01,1.277583185583353043e-03,-8.079180866479873657e-02,1.521957218647003174e-01,1.684419363737106323e-01
8.995895832777023315e-02,-2.789530456066131592e-01,-3.333827853202819824e-01,1.079021245241165161e-01,3.697447180747985840e-01,1.422238051891326904e-01,-1.742651164531707764e-01,1.005506608635187149e-02,1.725761592388153076e-02
8.283644914627075195e-03,1.467229127883911133e-01,7.920704036951065063e-02,-3.674783408641815186e-01,2.112646251916885376e-01,2.304971963167190552e-01,-4.171580672264099121e-01,-5.490389093756675720e-02,1.920019984245300293e-01
-5.467225238680839539e-02,1.490515917539596558e-01,3.213540911674499512e-01,-3.758291602134704590e-01,-1.603183001279830933e-01,4.038350582122802734e-01,-1.070799231529235840e-01,-3.968925178050994873e-01,-3.239442827180027962e-03
-2.232360392808914185e-01,-3.177384436130523682e-01,4.278853535652160645e-02,-8.858336508274078369e-02,1.766866594552993774e-01,1.880261301994323730e-01,1.746526509523391724e-01,9.049553424119949341e-02,4.167503863573074341e-02
-3.284250795841217041e-01,-4.546664059162139893e-01,1.145923417061567307e-02,-1.989065259695053101e-01,6.643655151128768921e-02,1.045679971575737000e-01,2.472296208143234253e-01,2.334805279970169067e-01,9.379404783248901367e-02
-2.466371655464172363e-01,-2.282523661851882935e-01,1.556933820247650146e-01,1.633753776550292969e-01,2.043848484754562378e-01,-3.486555814743041992e-02,-3.856050223112106323e-02,-2.053951919078826904e-01,-2.133904546499252319e-01
2.282545864582061768e-01,1.310036033391952515e-01,2.507791221141815186e-01,-2.588845789432525635e-01,-1.425511240959167480e-01,-2.093494832515716553e-01,-2.777115404605865479e-01,-3.713901340961456299e-01,-4.980510175228118896e-01
-2.513638734817504883e-01,1.678813099861145020e-01,-2.761408919468522072e-03,5.116794630885124207e-02,2.606036961078643799e-01,-2.033752053976058960e-01,-2.687452733516693115e-02,1.342403143644332886e-01,-2.846478223800659180e-01
-3.851997479796409607e-02,3.143525868654251099e-02,5.580538511276245117e-02,3.453413723036646843e-03,-7.600387185811996460e-02,-2.666989527642726898e-02,-2.539387717843055725e-02,-9.685226716101169586e-03,1.731108129024505615e-02
9.091200679540634155e-02,-1.941307336091995239e-01,-3.699122369289398193e-01,1.896066516637802124e-01,9.427877515554428101e-02,-8.162440359592437744e-02,-2.485843747854232788e-02,1.725101172924041748e-01,1.868395656347274780e-01
-2.510632872581481934e-01,-3.393853604793548584e-01,-9.351752698421478271e-02,1.120861619710922241e-02,-7.757217972539365292e-04,3.441757708787918091e-02,2.708621025085449219e-01,2.254559546709060669e-01,3.993200510740280151e-02
2.460860088467597961e-02,1.896847970783710480e-02,-2.127695828676223755e-02,-1.107214298099279404e-02,-3.681569546461105347e-02,-4.832112416625022888e-02,-2.871476300060749054e-02,4.551320895552635193e-02,1.264845952391624451e-03
1.236987262964248657e-01,3.339892923831939697e-01,8.231714018620550632e-04,-9.470187127590179443e-02,9.904814511537551880e-02,1.486278488300740719e-03,-4.645926654338836670e-01,1.253548730164766312e-02,6.185045465826988220e-02
-6.323481351137161255e-02,1.418610811233520508e-01,1.040190234780311584e-01,1.889944970607757568e-01,1.701031476259231567e-01,-1.513363420963287354e-01,-2.931554242968559265e-02,-2.836422026157379150e-01,-1.879696995019912720e-01
-2.435588389635086060e-01,-1.422470957040786743e-01,1.001585870981216431e-01,1.269866675138473511e-01,1.287184506654739380e-01,6.966777890920639038e-02,-7.264381647109985352e-02,-2.750231325626373291e-01,-3.063101768493652344e-01
-1.187996417284011841e-01,1.431092768907546997e-01,-2.284729033708572388e-01,-1.786097437143325806e-01,9.724385291337966919e-02,8.777567744255065918e-02,-6.711784005165100098e-02,-9.585323184728622437e-02,5.725764483213424683e-02
-2.091559916734695435e-01,-1.782846152782440186e-01,-1.507752239704132080e-01,1.827201992273330688e-01,1.872397810220718384e-01,2.541038691997528076e-01,-1.789886504411697388e-01,-1.951519101858139038e-01,-8.100590854883193970e-02
4.749346524477005005e-02,-8.334164321422576904e-02,4.712298139929771423e-02,-1.728256978094577789e-02,2.598211914300918579e-02,-4.932940751314163208e-02,1.395586226135492325e-02,-1.005673222243785858e-02,-9.283690899610519409e-02
-8.257006108760833740e-02,-1.323957592248916626e-01,-2.776608467102050781e-01,-3.154675289988517761e-02,2.011944726109504700e-02,2.649624049663543701e-01,-5.294158123433589935e-03,-1.812883466482162476e-01,1.967636123299598694e-02
3.086125478148460388e-02,-2.292578220367431641e-01,-3.486251235008239746e-01,3.202004134654998779e-01,-1.533945202827453613e-01,9.121470898389816284e-02,2.496415078639984131e-01,4.484949633479118347e-02,6.177236512303352356e-02
1.213215738534927368e-01,2.291114926338195801e-01,1.469846814870834351e-01,1.478247940540313721e-01,9.531608223915100098e-02,-1.658173501491546631e-01,-2.670238018035888672e-01,-3.136638700962066650e-01,-3.039301633834838867e-01
-1.267922669649124146e-01,2.416655272245407104e-01,-6.176038458943367004e-02,-3.556987941265106201e-01,1.250598430633544922e-01,1.229699701070785522e-01,-4.337284564971923828e-01,7.613758742809295654e-02,1.427863091230392456e-01
-3.246369957923889160e-02,-2.211860716342926025e-01,-1.567176729440689087e-01,2.715787664055824280e-02,6.521689705550670624e-03,1.581713408231735229e-01,3.130899742245674133e-02,1.531497202813625336e-02,-8.639066480100154877e-03
-9.111455082893371582e-02,2.911369502544403076e-01,2.797169089317321777e-01,-4.031296670436859131e-01,-1.046997830271720886e-01,2.890079915523529053e-01,-1.298178136348724365e-01,-3.553493022918701172e-01,-1.976241171360015869e-01
-3.307259455323219299e-02,-3.900017440319061279e-01,-1.953163370490074158e-02,-8.724897354841232300e-02,-5.348975956439971924e-02,-3.801776841282844543e-02,2.588593959808349609e-01,2.348460257053375244e-01,3.596037998795509338e-02
1.460835337638854980e-01,-3.943530023097991943e-01,-8.620692044496536255e-02,1.165149211883544922e-01,-1.036658287048339844e-01,-6.097020953893661499e-02,1.511007547378540039e-01,1.124233976006507874e-01,1.384902149438858032e-01
1.512125879526138306e-01,2.533929795026779175e-02,-1.906829327344894409e-01,1.308970898389816284e-01,9.582442790269851685e-02,-2.636122703552246094e-01,9.977667778730392456e-02,1.012124419212341309e-01,-1.731050014495849609e-01
1.629076898097991943e-01,1.417612582445144653e-01,-1.125333383679389954e-01,-7.980577647686004639e-02,-1.422259211540222168e-01,-5.476757138967514038e-02,1.397965382784605026e-02,-2.558152377605438232e-01,-4.321326911449432373e-01
-1.011692956089973450e-01,9.072817116975784302e-02,-3.461246788501739502e-01,2.490781992673873901e-01,2.457613945007324219e-01,-8.109985291957855225e-02,-4.529354572296142578e-01,6.926684826612472534e-02,-2.031112462282180786e-02
2.632508277893066406e-01,-8.053475618362426758e-02,1.157935783267021179e-01,-3.345825374126434326e-01,-1.676785498857498169e-01,4.460356757044792175e-02,1.039123758673667908e-01,2.241763025522232056e-01,1.182267791591584682e-03
2.592210769653320312e-01,2.038968503475189209e-01,-1.314751058816909790e-01,2.900466918945312500e-01,-8.488494902849197388e-02,-3.943212032318115234e-01,9.842461347579956055e-02,-5.608689039945602417e-02,-2.661682069301605225e-01
4.826598614454269409e-02,-3.159663379192352295e-01,3.631696850061416626e-02,2.344460040330886841e-01,-2.413222044706344604e-01,-2.460779994726181030e-01,2.002192288637161255e-01,8.767835050821304321e-02,9.066045284271240234e-02
-4.698497056961059570e-01,1.036738753318786621e-01,1.501996070146560669e-01,-2.061488106846809387e-02,3.558624684810638428e-01,-1.713830232620239258e-02,4.386549815535545349e-03,-2.872638963162899017e-02,-3.042919337749481201e-01
1.958455704152584076e-02,4.994444921612739563e-02,1.834880188107490540e-02,-4.021573439240455627e-02,-8.828508108854293823e-02,-7.583744823932647705e-02,3.703622892498970032e-02,9.623135626316070557e-02,9.191809594631195068e-02
-1.087106242775917053e-01,1.061847060918807983e-01,-1.081631481647491455e-01,-6.764126569032669067e-02,-6.775252404622733593e-04,3.765118494629859924e-02,-3.718361724168062210e-03,3.465624153614044189e-02,-6.110924854874610901e-02
1.275685727596282959e-01,1.000943109393119812e-01,-3.711313009262084961e-01,-1.053493171930313110e-01,2.289573550224304199e-01,1.161941513419151306e-02,-1.717802137136459351e-01,4.796135181095451117e-05,2.295942604541778564e-01
-1.501487713539972901e-04,2.825838029384613037e-01,1.921960711479187012e-01,-5.311795473098754883e-01,-4.381775557994842529e-01,-9.405356645584106445e-02,2.479631304740905762e-01,7.267453521490097046e-02,-1.594712287187576294e-01
-1.755320876836776733e-01,-4.141089022159576416e-01,-4.434904083609580994e-02,-1.744901179336011410e-03,5.426004901528358459e-02,-6.741344928741455078e-02,2.488320469856262207e-01,1.967454552650451660e-01,9.772574901580810547e-02
7.225106656551361084e-02,-5.521187186241149902e-02,-1.626310348510742188e-01,3.516883030533790588e-02,-5.955080687999725342e-02,2.257031574845314026e-02,-2.366099320352077484e-02,6.500827148556709290e-03,1.578642241656780243e-02
-5.671785771846771240e-02,1.645596027374267578e-01,-9.251087158918380737e-02,7.081795483827590942e-02,9.406137466430664062e-02,2.116622179746627808e-01,-2.813067734241485596e-01,-1.621534675359725952e-01,9.015132486820220947e-02
-7.816366106271743774e-02,8.569705486297607422e-02,-5.641074851155281067e-02,-1.058531645685434341e-02,-5.300234630703926086e-02,-4.929249733686447144e-02,-6.855519115924835205e-02,7.696546614170074463e-02,-6.911659985780715942e-02
-3.338622450828552246e-01,-3.093547001481056213e-02,5.523947998881340027e-02,1.813650876283645630e-01,1.335499435663223267e-01,2.313776016235351562e-01,1.231123954057693481e-01,-8.536730892956256866e-03,-1.395066678524017334e-01
5.242888815701007843e-03,3.686930611729621887e-02,1.634838618338108063e-02,2.152338437736034393e-02,-6.745322048664093018e-02,-1.427109073847532272e-02,-2.714442089200019836e-02,5.736529082059860229e-02,-1.743684150278568268e-02
9.339310973882675171e-02,2.323348633944988251e-02,1.156966388225555420e-01,8.426217734813690186e-02,2.008369751274585724e-02,-8.181431144475936890e-02,3.207686170935630798e-02,1.158185005187988281e-01,-2.075195163488388062e-01
3.570811450481414795e-02,4.773212596774101257e-02,-2.877777814865112305e-01,2.637918293476104736e-01,-8.970040082931518555e-02,-2.408776134252548218e-01,1.113467067480087280e-01,1.226047053933143616e-01,-6.950929760932922363e-02
1.920403689146041870e-01,6.201641634106636047e-02,1.244905143976211548e-01,7.557175308465957642e-02,-6.065018475055694580e-02,4.457858204841613770e-02,-3.472652137279510498e-01,-1.507270038127899170e-01,-9.609811007976531982e-02
1.735086739063262939e-01,-7.754073292016983032e-02,1.118586361408233643e-01,-1.002414971590042114e-01,-3.169270753860473633e-01,1.258152127265930176e-01,1.499779671430587769e-01,1.053050681948661804e-01,-2.575890906155109406e-02
-9.837736189365386963e-02,4.781504720449447632e-02,-2.309710346162319183e-02,-8.216329663991928101e-02,1.540667414665222168e-01,-4.627541601657867432e-01,2.634526230394840240e-02,2.974971830844879150e-01,-9.475193172693252563e-02
4.407038912177085876e-02,-2.781921438872814178e-02,-7.971818745136260986e-02,-1.725927591323852539e-01,8.387029916048049927e-02,-2.281939089298248291e-01,-1.850554794073104858e-01,2.114225625991821289e-01,1.810873858630657196e-02
-4.401704370975494385e-01,-1.025269972160458565e-03,2.265286147594451904e-01,-2.567743659019470215e-01,2.421236634254455566e-01,1.944119632244110107e-01,-1.162296608090400696e-01,2.262466400861740112e-01,-1.006669830530881882e-02
-9.833230823278427124e-02,-9.248885512351989746e-02,-1.612700074911117554e-01,2.710615098476409912e-02,7.341291755437850952e-02,2.101579308509826660e-01,-1.589717268943786621e-01,-2.601943612098693848e-01,5.365947633981704712e-02
-1.565947313793003559e-03,5.338492989540100098e-02,1.210796013474464417e-01,1.052358672022819519e-01,1.938479244709014893e-01,3.577547892928123474e-02,-1.225042492151260376e-01,-3.680559098720550537e-01,-4.120594635605812073e-02
7.089833170175552368e-02,1.885045617818832397e-01,2.422436773777008057e-01,-4.409935697913169861e-02,1.338280271738767624e-02,6.600049138069152832e-02,-2.242014408111572266e-01,-3.385192155838012695e-01,9.491714648902416229e-03
4.614742845296859741e-02,6.606265902519226074e-02,-8.803811669349670410e-02,4.737719520926475525e-02,-1.067754179239273071e-01,-1.931430697441101074e-01,2.956530265510082245e-02,-1.760151088237762451e-01,-1.731598526239395142e-01
2.380804345011711121e-02,2.922959858551621437e-03,9.747008979320526123e-02,2.091580927371978760e-01,4.578072205185890198e-02,-1.267585307359695435e-01,-2.771902978420257568e-01,-5.560971051454544067e-02,2.021681219339370728e-01
-1.925673484802246094e-01,-3.451275452971458435e-02,8.808913826942443848e-02,-1.762788891792297363e-01,2.746017575263977051e-01,6.379272043704986572e-02,1.769710630178451538e-01,8.767449855804443359e-02,-1.795254200696945190e-01
-7.603666186332702637e-01,-3.499555289745330811e-01,1.369824260473251343e-01,-6.043257713317871094e-01,9.695430099964141846e-02,1.597959995269775391e-01,-4.456311762332916260e-01,8.205106109380722046e-02,2.057010233402252197e-01
9.618274122476577759e-02,1.672512888908386230e-01,3.945489972829818726e-02,5.798400938510894775e-02,-1.075297072529792786e-01,-2.504197359085083008e-01,4.403037205338478088e-02,-2.183008044958114624e-01,-1.426437199115753174e-01
1.211097836494445801e-01,1.041804403066635132e-01,3.050402402877807617e-01,-1.732995361089706421e-01,-3.429696261882781982e-01,-1.485844403505325317e-01,1.110723540186882019e-01,5.066931620240211487e-02,-2.905519120395183563e-02
9.001127444207668304e-03,-6.827443838119506836e-02,1.434936840087175369e-02,5.319299548864364624e-02,-1.293783634901046753e-02,1.377083454281091690e-02,-8.987688273191452026e-02,7.898188382387161255e-02,-9.264824539422988892e-02
3.803206607699394226e-02,-2.088718563318252563e-01,-1.850642710924148560e-01,1.147597506642341614e-01,1.782228201627731323e-01,1.207195296883583069e-01,-1.910320967435836792e-01,-8.540566265583038330e-02,-8.899547159671783447e-02
-2.151947319507598877e-01,-3.431376516819000244e-01,-4.671389982104301453e-02,2.380273938179016113e-01,1.679481863975524902e-01,1.086014881730079651e-01,-6.595852226018905640e-02,-1.269176155328750610e-01,1.553962565958499908e-02
-9.069229662418365479e-02,5.613014474511146545e-02,2.539678812026977539e-01,2.146933674812316895e-01,1.576954424381256104e-01,-1.812020987272262573e-01,1.502564847469329834e-01,-1.788322627544403076e-01,-3.058385252952575684e-01
8.614992350339889526e-02,1.081119328737258911e-01,-1.785467416048049927e-01,4.361140727996826172e-02,-5.803528428077697754e-02,-9.168312698602676392e-02,8.693968504667282104e-02,1.104527786374092102e-01,6.581705063581466675e-02
7.491614669561386108e-02,9.581604041159152985e-03,-2.924112975597381592e-01,1.133285835385322571e-01,2.449168860912322998e-01,2.107235640287399292e-01,-2.605922222137451172e-01,-1.184122711420059204e-01,6.998599320650100708e-02
-1.428578346967697144e-01,-2.714991867542266846e-01,2.853514552116394043e-01,-4.778736829757690430e-01,1.689937412738800049e-01,1.591256409883499146e-01,-9.098190069198608398e-02,2.609400749206542969e-01,7.256522029638290405e-02
1.062739342451095581e-01,8.046115189790725708e-02,2.383304834365844727e-01,1.179318316280841827e-02,3.027608618140220642e-02,-1.261898875236511230e-02,-1.514697223901748657e-01,-2.469793856143951416e-01,-1.040970757603645325e-01
-3.608195185661315918e-01,2.735327556729316711e-02,1.537313461303710938e-01,1.974060982465744019e-01,1.769946515560150146e-01,-6.537008285522460938e-02,1.997871138155460358e-02,-1.378634274005889893e-01,-1.173634678125381470e-01
1.771028190851211548e-01,-2.179736346006393433e-01,-2.057844847440719604e-01,1.201024800539016724e-01,9.555582702159881592e-02,-3.072865605354309082e-01,4.524452984333038330e-02,-2.301486283540725708e-01,-2.424646764993667603e-01
-1.560462359338998795e-02,4.852830618619918823e-02,8.303055912256240845e-02,1.426208168268203735e-01,6.434276700019836426e-02,1.861360222101211548e-01,-1.779861003160476685e-01,-3.187798559665679932e-01,-7.425585296005010605e-03
-6.771870851516723633e-01,-6.083674430847167969e-01,-3.492494523525238037e-01,-4.510213434696197510e-01,-1.017238572239875793e-01,2.888843603432178497e-02,-5.077035352587699890e-02,2.834118008613586426e-01,2.927905321121215820e-01
7.672349363565444946e-02,1.280850023031234741e-01,-3.127962946891784668e-01,1.331122964620590210e-01,8.650141209363937378e-02,-1.885887682437896729e-01,2.194312401115894318e-02,2.474762648344039917e-01,5.284135695546865463e-03
1.847177147865295410e-01,-1.195354685187339783e-01,-2.999213337898254395e-02,1.112085506319999695e-01,-5.707350745797157288e-02,5.400973185896873474e-02,-3.742013126611709595e-02,-2.705279290676116943e-01,-3.311960101127624512e-01
8.300058543682098389e-02,-1.668690145015716553e-01,-9.745436161756515503e-02,4.487174749374389648e-02,1.568960845470428467e-01,-1.287717819213867188e-01,-1.811073422431945801e-01,7.384724169969558716e-02,9.370733052492141724e-03
-1.332971453666687012e-01,3.821690334007143974e-03,3.509115660563111305e-03,-1.960198879241943359e-01,-1.655153483152389526e-01,1.410224437713623047e-01,2.557781292125582695e-03,6.751339882612228394e-02,1.326003074645996094e-01
-1.483561005443334579e-02,2.569109201431274414e-02,2.224135585129261017e-02,-2.796850539743900299e-02,-7.292993366718292236e-02,-3.500214219093322754e-02,3.737810999155044556e-02,-2.113343402743339539e-02,3.548299148678779602e-02
-1.312910467386245728e-01,2.049354016780853271e-01,-1.859446316957473755e-01,-1.030960604548454285e-01,8.309473283588886261e-03,7.325465977191925049e-02,5.300598964095115662e-02,1.282639894634485245e-02,-2.325894869863986969e-02
-2.429403178393840790e-02,-4.158035218715667725e-01,-1.227182000875473022e-01,2.110656201839447021e-01,-9.095552377402782440e-03,2.722162306308746338e-01,1.164207905530929565e-01,3.552708774805068970e-02,-2.096496671438217163e-01
1.310639232397079468e-01,1.427295207977294922e-01,-3.952693343162536621e-01,-1.126211807131767273e-01,3.674738407135009766e-01,-8.005730062723159790e-02,-3.192113935947418213e-01,2.065926194190979004e-01,-2.648421190679073334e-02
-4.455494508147239685e-02,1.703209616243839264e-02,2.222320586442947388e-01,1.683428287506103516e-01,7.140175998210906982e-02,1.174979358911514282e-01,-1.206104233860969543e-01,-3.408971726894378662e-01,-1.088864579796791077e-01
3.904284164309501648e-02,1.171172782778739929e-01,-1.124745383858680725e-01,-2.379301190376281738e-02,-5.381925031542778015e-02,-1.183077227324247360e-02,1.897400990128517151e-02,5.721203982830047607e-02,2.355856634676456451e-02
1.784259825944900513e-02,9.548542648553848267e-02,8.926198631525039673e-02,5.444366112351417542e-02,-1.493723541498184204e-01,-8.208710700273513794e-02,7.113492488861083984e-02,3.822191059589385986e-02,-7.887634634971618652e-02
-4.701923578977584839e-02,-2.101821303367614746e-01,6.836521625518798828e-02,-3.247450888156890869e-01,-4.176969453692436218e-02,2.571283280849456787e-01,-3.694492392241954803e-03,2.187263965606689453e-01,6.259356439113616943e-02
-1.493925005197525024e-01,-3.557073473930358887e-01,-3.331541717052459717e-01,2.366129606962203979e-01,-2.253048308193683624e-02,5.171182751655578613e-02,8.230365812778472900e-03,1.589298844337463379e-01,4.140882194042205811e-02
2.650582045316696167e-02,-1.563203707337379456e-02,5.862553603947162628e-03,-5.535742640495300293e-02,-1.461098343133926392e-01,5.949529260396957397e-02,-6.924262642860412598e-02,-7.894035428762435913e-03,-4.209239408373832703e-02
2.228102833032608032e-01,2.012061476707458496e-01,8.325695991516113281e-02,-6.120991334319114685e-02,6.755494326353073120e-02,-5.643877387046813965e-02,-2.648082971572875977e-01,-3.463018834590911865e-01,-3.999194502830505371e-02
2.094397246837615967e-01,1.982760578393936157e-01,-1.651873439550399780e-01,1.177067235112190247e-01,7.441495358943939209e-02,-5.314294099807739258e-01,-5.842694640159606934e-01,-7.856462597846984863e-01,-8.722577989101409912e-02
-2.352450191974639893e-01,9.289007633924484253e-02,8.648165315389633179e-02,-3.413645550608634949e-02,1.837892532348632812e-01,-6.857375800609588623e-02,7.260487228631973267e-02,2.153434604406356812e-02,-2.014515846967697144e-01
7.682800292968750000e-02,5.793859437108039856e-02,8.827122300863265991e-02,1.480633486062288284e-02,4.220672696828842163e-02,3.539713844656944275e-02,-2.742268331348896027e-02,1.978763192892074585e-02,6.859172880649566650e-02
1.149614527821540833e-01,2.182584814727306366e-02,8.311035484075546265e-02,1.220269948244094849e-01,6.542713940143585205e-02,-9.339140355587005615e-02,-2.297382568940520287e-03,-2.614036202430725098e-01,-1.742233484983444214e-01
9.289340674877166748e-02,-3.504568338394165039e-02,-1.476010493934154510e-02,-9.173159301280975342e-02,1.741749793291091919e-01,4.952679574489593506e-02,-1.571543514728546143e-01,9.458418190479278564e-02,-2.170609980821609497e-01
1.460589319467544556e-01,5.737001076340675354e-02,1.906352341175079346e-01,1.295005716383457184e-02,6.207911670207977295e-02,1.027071848511695862e-01,-2.231182456016540527e-01,-2.922061681747436523e-01,-1.576817631721496582e-01
-3.911375999450683594e-02,-9.507030248641967773e-02,-2.763370871543884277e-01,1.425428390502929688e-01,8.141100406646728516e-02,3.351356089115142822e-01,-2.471414357423782349e-01,-3.932778537273406982e-02,-1.188894510269165039e-01
-1.881489753723144531e-01,-1.227066516876220703e-01,1.742987632751464844e-01,-2.598931491374969482e-01,1.391210108995437622e-01,1.189048364758491516e-01,1.384060233831405640e-01,2.228472828865051270e-01,-6.545786559581756592e-02
-2.694979310035705566e-01,-3.865418732166290283e-01,9.613312035799026489e-02,-9.057661890983581543e-02,-1.205865144729614258e-01,-5.641011148691177368e-02,6.427899934351444244e-03,7.306899130344390869e-02,1.329184025526046753e-01
-1.751674115657806396e-01,-3.571009933948516846e-01,6.593278050422668457e-02,-6.619142740964889526e-02,-2.911931872367858887e-01,2.080201953649520874e-01,-3.265744447708129883e-01,-1.768893599510192871e-01,2.900062799453735352e-01
-3.254721313714981079e-02,1.371839940547943115e-01,-4.751973599195480347e-02,2.729980088770389557e-02,8.392316848039627075e-02,-1.668434143066406250e-01,9.681905806064605713e-02,-4.334064200520515442e-02,-1.127596050500869751e-01
-7.371041923761367798e-02,7.642552256584167480e-02,-2.198630198836326599e-02,-9.081057459115982056e-02,1.790549159049987793e-01,-1.162908896803855896e-01,-6.863524764776229858e-02,7.542623579502105713e-02,-2.420396655797958374e-01
-3.188901841640472412e-01,-8.197156712412834167e-03,2.300625145435333252e-01,2.988963127136230469e-01,1.166523545980453491e-01,-7.268189638853073120e-02,-6.281120330095291138e-02,-4.616856202483177185e-02,-9.837751090526580811e-02
7.130835205316543579e-02,3.003197722136974335e-02,-1.052821427583694458e-01,1.192112788558006287e-01,2.878274619579315186e-01,2.992136403918266296e-02,-4.089767932891845703e-01,-2.431708723306655884e-01,5.641500651836395264e-02
1.694695092737674713e-02,-3.096675314009189606e-02,-1.594844311475753784e-01,8.915480226278305054e-02,2.525013983249664307e-01,6.556738913059234619e-02,-3.607135117053985596e-01,-1.370119899511337280e-01,7.277288474142551422e-03
-1.432677507400512695e-01,-5.284252762794494629e-01,-1.148887127637863159e-01,1.399791538715362549e-01,-2.869296073913574219e-02,-1.329967379570007324e-02,2.048808783292770386e-01,2.681558728218078613e-01,4.031848907470703125e-02
7.899127155542373657e-02,-9.200207144021987915e-02,-6.900383532047271729e-02,4.598960280418395996e-02,3.094649687409400940e-02,7.304755598306655884e-02,-8.981826901435852051e-02,-1.143600884824991226e-02,-1.657003536820411682e-02
1.832102537155151367e-01,-5.718448162078857422e-01,-3.918374478816986084e-01,-7.935826778411865234e-01,-4.312392473220825195e-01,2.082210332155227661e-01,-3.746967613697052002e-01,1.174277067184448242e-01,4.199760854244232178e-01
1.363128125667572021e-01,8.203401416540145874e-02,-1.793493777513504028e-01,1.939352750778198242e-01,-4.258439317345619202e-02,-2.079412341117858887e-01,6.551893055438995361e-02,-5.550575256347656250e-02,-1.516206860542297363e-01
1.347533613443374634e-01,-2.970536351203918457e-01,-1.181875988841056824e-01,1.380472034215927124e-01,1.083344370126724243e-01,2.701922357082366943e-01,-3.471292555332183838e-02,-1.902222931385040283e-01,-7.736214995384216309e-02
2.427695393562316895e-01,2.428337782621383667e-01,4.951028525829315186e-02,2.088552713394165039e-01,7.858491688966751099e-02,-8.553194254636764526e-02,-1.048013046383857727e-01,-4.303782582283020020e-01,-3.403286337852478027e-01
2.574385702610015869e-02,-1.372122466564178467e-01,-1.794897764921188354e-01,7.235774397850036621e-02,-5.362053215503692627e-02,-2.231270633637905121e-02,-5.683763697743415833e-02,5.079205334186553955e-02,4.327299445867538452e-02
2.401494830846786499e-01,9.383093565702438354e-02,-5.553076863288879395e-01,3.511137962341308594e-01,-9.614964947104454041e-03,-6.433177590370178223e-01,-1.003245934844017029e-01,-4.932052791118621826e-01,-5.111647397279739380e-02
1.113601773977279663e-02,-2.434178441762924194e-01,-1.605697423219680786e-01,1.170089393854141235e-01,1.562788635492324829e-01,3.377894163131713867e-01,-2.165560610592365265e-02,-1.319486945867538452e-01,-1.162540987133979797e-01
-5.097091197967529297e-02,2.986914813518524170e-01,1.769098192453384399e-01,2.035430520772933960e-01,-6.035984680056571960e-02,-4.140091836452484131e-01,3.238534554839134216e-02,-3.165752291679382324e-01,9.171888977289199829e-02
1.259931772947311401e-01,-1.327378898859024048e-01,-5.821368694305419922e-01,7.627961784601211548e-02,1.716452538967132568e-01,-1.326785981655120850e-01,5.159850791096687317e-02,1.643069386482238770e-01,2.216147929430007935e-01
-3.102542161941528320e-01,3.730720654129981995e-02,2.471228539943695068e-01,9.254910051822662354e-02,3.776580095291137695e-02,8.756880648434162140e-03,1.670634448528289795e-01,-4.307660833001136780e-02,-9.865815751254558563e-03
2.783446386456489563e-02,1.417192723602056503e-02,1.301447860896587372e-02,7.157097011804580688e-02,-2.783242426812648773e-02,-4.285394027829170227e-02,8.409672975540161133e-02,-3.005197271704673767e-02,-1.447577476501464844e-01
1.982184499502182007e-01,-4.260308295488357544e-02,2.308321297168731689e-01,-1.181221678853034973e-01,-1.855888664722442627e-01,-3.330203592777252197e-01,-7.106452435255050659e-02,-3.237542510032653809e-02,-2.277264893054962158e-01
-1.907139644026756287e-02,4.327853769063949585e-02,-1.064706407487392426e-02,2.061003260314464569e-02,-3.548235818743705750e-02,6.423252075910568237e-02,-5.926549434661865234e-02,1.608201488852500916e-02,-4.920939449220895767e-03
-1.819490492343902588e-01,1.791960150003433228e-01,1.986085176467895508e-01,1.496374160051345825e-01,2.477735131978988647e-01,-1.937180459499359131e-01,1.203987002372741699e-02,-8.163104206323623657e-02,-3.310818374156951904e-01
-6.065007299184799194e-02,-9.035421907901763916e-02,-7.256845384836196899e-02,-5.721724778413772583e-02,-5.301832780241966248e-02,-1.064629852771759033e-02,-8.647138625383377075e-02,-8.580267429351806641e-02,-1.134550571441650391e-02
-7.214414328336715698e-02,-1.182323042303323746e-02,-2.913014730438590050e-03,5.916613712906837463e-02,-5.144073069095611572e-02,-6.920633465051651001e-02,-2.371610887348651886e-02,-2.623862400650978088e-02,4.503917694091796875e-02
6.949332356452941895e-02,9.487474709749221802e-02,1.780069619417190552e-01,-2.106286436319351196e-01,1.834589838981628418e-01,1.132880151271820068e-01,-3.364902734756469727e-01,-5.058825016021728516e-01,-4.529345333576202393e-01
2.368689887225627899e-02,3.475821390748023987e-02,-2.416636794805526733e-01,-3.557231277227401733e-03,-2.735185809433460236e-02,1.170477494597434998e-01,-1.101687699556350708e-01,-1.900647417642176151e-03,-6.813769042491912842e-02
-1.755040436983108521e-01,-1.892126053571701050e-01,3.374938294291496277e-02,1.025828570127487183e-01,1.131309717893600464e-01,2.456184476613998413e-01,-1.255061030387878418e-01,-2.681590430438518524e-02,-2.949342727661132812e-01
1.106397658586502075e-01,7.407438755035400391e-02,3.200898468494415283e-01,-1.326471418142318726e-01,-2.561425268650054932e-01,-5.441568046808242798e-02,-2.629167139530181885e-01,-2.761520445346832275e-01,6.183176860213279724e-02
3.899856656789779663e-02,7.324646413326263428e-02,-3.766512572765350342e-01,4.877851158380508423e-02,-1.157045662403106689e-01,-2.875345945358276367e-01,3.090854883193969727e-01,2.548752129077911377e-01,6.121286004781723022e-02
-2.367151714861392975e-02,2.396857738494873047e-02,-1.287417113780975342e-01,-6.890811491757631302e-03,1.917507052421569824e-01,1.623744219541549683e-01,-2.741519212722778320e-01,-1.091941520571708679e-01,-3.173102065920829773e-02
-3.410523384809494019e-02,2.452963292598724365e-01,-8.657918870449066162e-02,-2.765277922153472900e-01,1.662571728229522705e-01,2.847844362258911133e-02,-2.247767299413681030e-01,1.055147722363471985e-01,7.942641526460647583e-02
5.728835985064506531e-02,1.930915862321853638e-01,1.486522257328033447e-01,-3.387821912765502930e-01,1.446404308080673218e-01,3.136202394962310791e-01,-3.844780325889587402e-01,-1.831094771623611450e-01,1.563210785388946533e-01
-2.496098354458808899e-02,-1.840317100286483765e-01,1.337856054306030273e-01,1.700337976217269897e-01,-1.824978142976760864e-01,3.285072743892669678e-01,8.994219452142715454e-02,-3.485477864742279053e-01,-1.767507791519165039e-01
2.486708611249923706e-01,2.583705186843872070e-01,5.308247730135917664e-02,-2.240266501903533936e-01,-2.090331166982650757e-01,1.354833990335464478e-01,-4.016261994838714600e-01,-5.797608569264411926e-02,3.037149012088775635e-01
2.082046717405319214e-01,3.313696384429931641e-01,1.183675900101661682e-01,5.082572624087333679e-02,-4.062185287475585938e-01,-5.266652107238769531e-01,6.781521439552307129e-02,-2.738364934921264648e-01,3.760000765323638916e-01
3.195031732320785522e-02,-3.305605649948120117e-01,-4.309955239295959473e-01,3.326648175716400146e-01,2.035606056451797485e-01,-2.616429328918457031e-02,2.643005363643169403e-02,9.246130473911762238e-03,1.988328397274017334e-01
2.707217633724212646e-02,-7.128889113664627075e-02,9.273425489664077759e-02,-7.356067746877670288e-02,1.823929883539676666e-02,-1.208016648888587952e-01,3.812020644545555115e-02,-3.856514766812324524e-02,-5.287024751305580139e-02
1.560998857021331787e-01,5.363609641790390015e-02,-2.110585123300552368e-01,9.821161627769470215e-02,4.357267543673515320e-02,-3.196576535701751709e-01,1.047371923923492432e-01,1.267347782850265503e-01,-1.821998059749603271e-01
-2.244526296854019165e-01,2.396626211702823639e-02,1.622870862483978271e-01,-2.144049406051635742e-01,7.015492022037506104e-02,7.574560493230819702e-02,-3.109345585107803345e-02,1.201540827751159668e-01,3.906724974513053894e-02
-2.572042047977447510e-01,-4.803832173347473145e-01,-2.227979153394699097e-01,-8.637282997369766235e-03,-7.152658700942993164e-02,-1.082175411283969879e-03,1.707008033990859985e-01,3.327028155326843262e-01,2.254671454429626465e-01
1.064769029617309570e-01,1.552875787019729614e-01,2.120527327060699463e-01,-1.197149455547332764e-01,7.590570300817489624e-02,1.032027378678321838e-01,-1.885697096586227417e-01,-3.439333438873291016e-01,-1.494595110416412354e-01
1.110025588423013687e-02,1.123185381293296814e-01,-1.048690006136894226e-01,-6.257255561649799347e-03,-1.157886311411857605e-01,-7.764331996440887451e-02,-7.691505365073680878e-03,-2.571975626051425934e-02,1.810327172279357910e-02
-2.508328258991241455e-01,-1.268901079893112183e-01,1.894192546606063843e-01,-3.722778335213661194e-02,7.121556252241134644e-02,1.818005740642547607e-01,6.377047300338745117e-02,7.828663289546966553e-02,-1.072866097092628479e-01
-1.400576382875442505e-01,-4.642804265022277832e-01,-1.784987300634384155e-01,2.814434766769409180e-01,2.078650444746017456e-01,1.495788097381591797e-01,5.753261595964431763e-02,1.416664756834506989e-02,-1.093776617199182510e-02
1.527988910675048828e-01,2.434508800506591797e-01,-1.057386323809623718e-01,1.959650218486785889e-01,-6.963570415973663330e-02,-2.504307031631469727e-01,4.782102629542350769e-02,-1.324992477893829346e-01,-1.175407879054546356e-02
3.518251329660415649e-02,-4.020956158638000488e-01,-2.250837534666061401e-02,6.099749729037284851e-02,-1.705812364816665649e-01,-9.912865608930587769e-02,2.885342538356781006e-01,1.670431494712829590e-01,5.648343637585639954e-02
-1.822055578231811523e-01,2.458107843995094299e-02,-1.123083569109439850e-02,1.816998869180679321e-01,6.431525945663452148e-02,7.088501006364822388e-02,-1.159093342721462250e-03,-1.723143458366394043e-01,2.387282438576221466e-02
-3.969046752899885178e-03,9.818535298109054565e-02,-2.343686521053314209e-01,-3.838465735316276550e-02,1.825864464044570923e-01,1.688066124916076660e-01,-3.657940924167633057e-01,-1.064807772636413574e-01,-8.514958620071411133e-02
9.520411491394042969e-03,5.722666531801223755e-02,-1.128823775798082352e-02,4.152583889663219452e-03,-1.908628083765506744e-02,-1.317160278558731079e-01,-3.146902471780776978e-02,7.279815524816513062e-02,-1.277837455272674561e-01
5.912523716688156128e-02,-7.159225642681121826e-02,-7.896938361227512360e-03,1.556714158505201340e-02,1.747788395732641220e-03,4.764289042213931680e-05,-2.499587647616863251e-02,3.134764730930328369e-03,-1.199694443494081497e-02
1.676800288259983063e-02,-4.214996397495269775e-01,-1.389858424663543701e-01,-2.881051413714885712e-02,2.652367353439331055e-01,3.009738028049468994e-01,7.681846618652343750e-02,-3.849143162369728088e-02,-2.500573992729187012e-01
1.834763772785663605e-02,1.179669946432113647e-01,2.533678114414215088e-01,-2.809984683990478516e-01,-4.014718830585479736e-01,1.430525723844766617e-02,-5.050831660628318787e-02,-6.474755406379699707e-01,5.210575833916664124e-02
-4.209887087345123291e-01,-1.582026928663253784e-01,1.066242530941963196e-01,-1.763325929641723633e-01,7.833109050989151001e-02,1.681806594133377075e-01,2.535485923290252686e-01,2.755711376667022705e-01,-4.318137653172016144e-03
8.570808917284011841e-02,5.808316916227340698e-02,-2.168342762161046267e-04,-2.943569980561733246e-02,4.371967911720275879e-02,2.458572238683700562e-01,3.467588219791650772e-03,-4.267720580101013184e-01,-1.097413226962089539e-01
1.560980081558227539e-01,4.300886765122413635e-02,-2.250116616487503052e-01,1.523797810077667236e-01,-4.498311504721641541e-02,-9.576698392629623413e-02,1.369383931159973145e-01,5.617725476622581482e-02,-2.004866451025009155e-01
-2.954161763191223145e-01,-6.024289727210998535e-01,-3.852369785308837891e-01,-6.355772018432617188e-01,-9.215721487998962402e-02,2.421203255653381348e-01,-1.515310555696487427e-01,2.972871661186218262e-01,3.776347339153289795e-01
-1.411297619342803955e-01,-1.495430022478103638e-01,-8.406008780002593994e-02,9.990666061639785767e-03,-1.336898058652877808e-01,-1.401006579399108887e-01,1.650656461715698242e-01,9.631332010030746460e-02,2.246002405881881714e-01
-2.410625815391540527e-01,-4.530944675207138062e-02,1.024005711078643799e-01,1.961092054843902588e-01,1.707804501056671143e-01,2.168209850788116455e-02,9.502968937158584595e-02,-2.154130488634109497e-01,-2.067795693874359131e-01
1.166509091854095459e-01,4.266312345862388611e-03,-2.398081570863723755e-01,8.876193314790725708e-02,-8.581727743148803711e-02,-2.209664285182952881e-01,1.747650504112243652e-01,1.929380148649215698e-01,8.511684089899063110e-02
-1.045802235603332520e-01,-8.838833868503570557e-02,6.110835075378417969e-02,7.150246948003768921e-02,-2.843921817839145660e-02,1.194892823696136475e-01,-8.013282716274261475e-02,-2.008029967546463013e-01,-1.464058905839920044e-01
-1.056251153349876404e-01,1.106719113886356354e-02,4.254487529397010803e-02,3.612717147916555405e-03,1.763592101633548737e-02,-1.261671166867017746e-02,-3.039611130952835083e-02,2.552086301147937775e-02,2.335891686379909515e-02
1.931645274162292480e-01,2.025284990668296814e-02,2.032079994678497314e-01,-4.976536333560943604e-02,-3.471638046903535724e-05,2.734129503369331360e-02,-6.253903359174728394e-02,-3.880074992775917053e-02,-3.927598893642425537e-01
-2.264707088470458984e-01,-3.493006527423858643e-01,-4.197119548916816711e-02,-2.135422639548778534e-02,1.108927950263023376e-01,1.530167013406753540e-01,2.128975093364715576e-01,1.495149880647659302e-01,-5.756518989801406860e-02
-6.387989036738872528e-03,-4.377090185880661011e-02,-1.482172310352325439e-01,5.947751551866531372e-02,1.585631519556045532e-01,1.888714432716369629e-01,-7.983526214957237244e-03,-1.901879012584686279e-01,-6.186284869909286499e-02
-7.078780978918075562e-02,-2.406159490346908569e-01,8.988405019044876099e-02,1.697778850793838501e-01,5.158612132072448730e-02,1.991573870182037354e-01,4.286219924688339233e-02,-2.291699647903442383e-01,-8.239246159791946411e-02
3.678724914789199829e-02,3.189093619585037231e-02,-8.588404208421707153e-02,-1.729975827038288116e-02,-1.061942428350448608e-01,-5.013516917824745178e-02,3.273340314626693726e-02,1.102572400122880936e-02,-1.058177743107080460e-02
-1.713014543056488037e-01,-2.133090421557426453e-02,2.543247044086456299e-01,4.964439943432807922e-02,1.586976498365402222e-01,-1.881823875010013580e-02,1.383223831653594971e-01,-1.098082959651947021e-01,-3.327037692070007324e-01
-2.484466880559921265e-02,1.789855659008026123e-01,-1.815122067928314209e-01,-8.978059887886047363e-02,1.892558038234710693e-01,-1.793921887874603271e-01,-1.431279182434082031e-01,2.520030140876770020e-01,-6.191574037075042725e-02
-2.356312572956085205e-01,-3.335973918437957764e-01,2.175449281930923462e-01,-4.410083889961242676e-01,-1.820573210716247559e-01,2.047969847917556763e-01,-2.887433767318725586e-01,-1.429394036531448364e-01,2.302461713552474976e-01
-9.265036880970001221e-02,-3.033390343189239502e-01,1.617452502250671387e-01,6.591772288084030151e-02,-3.389882743358612061e-01,-3.324547111988067627e-01,3.441409468650817871e-01,7.878242433071136475e-02,-6.983411312103271484e-02
2.860799133777618408e-01,-1.221052259206771851e-01,-3.928189277648925781e-01,3.097357153892517090e-01,-1.441168189048767090e-01,-3.819099664688110352e-01,-5.177395790815353394e-02,-4.531766176223754883e-01,-2.146678268909454346e-01
-4.266212880611419678e-01,9.301751852035522461e-02,1.710285246372222900e-01,8.065724372863769531e-02,2.206319868564605713e-01,-1.591756939888000488e-01,3.620625473558902740e-03,-1.180357951670885086e-02,-2.805124819278717041e-01
-1.293289661407470703e-01,-3.256101906299591064e-01,-5.591063946485519409e-02,2.336084470152854919e-02,-6.426636129617691040e-02,-3.095740638673305511e-02,2.253705561161041260e-01,1.982121020555496216e-01,-1.966538466513156891e-02
2.267063558101654053e-01,2.063080817461013794e-01,2.604691684246063232e-01,-5.161581560969352722e-02,3.914116322994232178e-02,8.203141391277313232e-02,-2.987236678600311279e-01,-3.424099683761596680e-01,-2.722970843315124512e-01
-5.539142340421676636e-02,1.306121945381164551e-01,-2.205474078655242920e-01,-1.535740047693252563e-01,4.439534153789281845e-03,1.806734246201813221e-03,-2.531297802925109863e-01,-2.304014191031455994e-02,4.987781122326850891e-02
-7.262407802045345306e-03,1.943105161190032959e-01,1.037928611040115356e-01,2.166913151741027832e-01,1.297240257263183594e-01,7.769434154033660889e-02,-2.019528597593307495e-01,-3.760310113430023193e-01,-1.862580329179763794e-01
1.206606402993202209e-01,-1.291583874262869358e-03,-1.679016202688217163e-01,-7.261355966329574585e-02,1.311270594596862793e-01,1.043991297483444214e-01,-3.998778387904167175e-02,-4.549542441964149475e-02,2.688746526837348938e-02
-1.005096510052680969e-01,1.198002025485038757e-01,5.853343009948730469e-02,1.073925271630287170e-01,3.400134444236755371e-01,-1.273927241563796997e-01,1.188109144568443298e-01,-1.297116726636886597e-01,-3.260834515094757080e-01
2.528035826981067657e-02,-8.007071912288665771e-03,-1.524125039577484131e-02,-2.215971425175666809e-02,-6.643998622894287109e-02,-3.547618910670280457e-02,1.672948151826858521e-02,7.217463105916976929e-03,-2.300057932734489441e-02
6.726002693176269531e-02,-2.028858754783868790e-03,-1.046561002731323242e-01,6.770078092813491821e-02,6.994243711233139038e-02,-3.506766557693481445e-01,1.345285326242446899e-01,1.832092851400375366e-01,-7.274568825960159302e-02
1.090551912784576416e-01,-4.331143200397491455e-02,-1.425006091594696045e-01,8.923424780368804932e-02,-4.997640475630760193e-02,2.594440430402755737e-02,6.082743778824806213e-02,2.631865208968520164e-03,8.233298361301422119e-02
4.448568820953369141e-02,-1.572339609265327454e-02,-2.136692106723785400e-01,1.957986652851104736e-01,5.235993489623069763e-02,-1.606211513280868530e-01,-1.239746958017349243e-01,2.209604531526565552e-01,-1.208142340183258057e-01
3.437594473361968994e-01,1.752487868070602417e-01,-3.906516432762145996e-01,1.305664479732513428e-01,6.907949224114418030e-03,-3.958863914012908936e-01,-1.367457658052444458e-01,-3.101748228073120117e-01,-3.360869586467742920e-01
-3.409848362207412720e-02,1.820988506078720093e-01,-3.258629143238067627e-01,-1.829062253236770630e-01,2.069983780384063721e-01,1.042919158935546875e-01,-6.319522857666015625e-02,-1.047219932079315186e-01,4.931798204779624939e-02
-2.113086730241775513e-01,3.454601764678955078e-02,-4.723877832293510437e-02,-5.723384674638509750e-03,2.058721147477626801e-02,1.071577239781618118e-02,-7.174284011125564575e-02,-3.924639150500297546e-02,5.921061336994171143e-02
1.631054095923900604e-02,6.688579916954040527e-02,-8.018650114536285400e-02,2.037266641855239868e-01,-6.885438412427902222e-02,-1.120127663016319275e-01,1.778338104486465454e-01,3.786035999655723572e-02,-2.289361208677291870e-01
-6.656957864761352539e-01,-5.786888003349304199e-01,-2.147762179374694824e-01,8.796747028827667236e-02,-2.161228284239768982e-02,-3.314815163612365723e-01,8.179083466529846191e-02,2.768539488315582275e-01,1.375314891338348389e-01
-3.208681643009185791e-01,5.848402529954910278e-02,1.232066377997398376e-01,-8.808581531047821045e-02,3.217000961303710938e-01,-1.243397369980812073e-01,3.005574457347393036e-02,8.764716982841491699e-02,-3.830950558185577393e-01
1.375485658645629883e-01,-1.548533737659454346e-01,2.292168326675891876e-03,-1.708646714687347412e-01,-1.498267650604248047e-01,3.585814312100410461e-02,2.319632470607757568e-02,-6.407889723777770996e-02,-2.450185269117355347e-01
-1.127027124166488647e-01,-1.728101670742034912e-01,-1.161312982439994812e-01,2.397220134735107422e-01,2.930738329887390137e-01,1.482636034488677979e-01,-2.729148864746093750e-01,-1.827066689729690552e-01,-1.010293439030647278e-01
1.317272633314132690e-01,1.598452217876911163e-02,-2.713934518396854401e-02,-2.266685944050550461e-03,1.457497030496597290e-01,-1.420784741640090942e-02,-2.662581801414489746e-01,-1.052498538047075272e-02,1.307853013277053833e-01
1.149085070937871933e-02,-2.881743013858795166e-03,-2.418890828266739845e-03,-1.658431068062782288e-02,-3.770976513624191284e-02,3.527993336319923401e-02,7.340048998594284058e-02,-2.834289520978927612e-02,-1.958702632691711187e-04
8.920200914144515991e-02,-4.407457262277603149e-02,-1.369227617979049683e-01,4.003244265913963318e-02,-1.921633630990982056e-02,-6.267436314374208450e-03,-1.520190015435218811e-02,1.489395927637815475e-02,7.751277089118957520e-02
5.629925429821014404e-02,-3.731587156653404236e-02,-4.693675786256790161e-03,-1.994124054908752441e-02,-3.357436135411262512e-02,2.846991457045078278e-02,-3.488413058221340179e-03,2.668036147952079773e-02,-1.203508675098419189e-01
3.369966149330139160e-02,-4.080006778240203857e-01,-2.779772877693176270e-01,3.800444006919860840e-01,-8.686883747577667236e-02,-5.348160490393638611e-02,1.869929879903793335e-01,2.439122647047042847e-02,1.645850092172622681e-01
1.729195713996887207e-01,2.183235287666320801e-01,3.482469618320465088e-01,-6.447958946228027344e-02,-7.143187802284955978e-03,3.578629810363054276e-03,-6.989745795726776123e-02,-4.522217512130737305e-01,-2.294724881649017334e-01
2.513276413083076477e-02,-1.154814101755619049e-02,3.447153046727180481e-02,-3.043414466083049774e-02,1.298905722796916962e-02,-4.302966967225074768e-02,-7.190006226301193237e-02,5.496507510542869568e-02,4.883527010679244995e-02
3.114863112568855286e-02,1.095117554068565369e-01,-8.629705011844635010e-02,-2.307032793760299683e-02,2.608602046966552734e-01,-2.025477290153503418e-01,-4.293882846832275391e-01,2.324470281600952148e-01,3.108868561685085297e-02
-2.708601653575897217e-01,2.533678412437438965e-01,5.700630322098731995e-02,-4.461015760898590088e-01,2.048256546258926392e-01,2.048261761665344238e-01,-4.542739689350128174e-01,-2.725022472441196442e-02,-6.020267494022846222e-03
1.273898780345916748e-01,1.041439250111579895e-01,2.556069381535053253e-02,-2.515159249305725098e-01,1.143218278884887695e-01,2.817142009735107422e-01,-3.500422537326812744e-01,-1.194370761513710022e-01,1.467588394880294800e-01
9.914675354957580566e-02,-3.788092732429504395e-01,-1.382942050695419312e-01,-1.795864999294281006e-01,1.344539690762758255e-02,1.312227398157119751e-01,1.387126892805099487e-01,3.170862793922424316e-01,4.339020326733589172e-02
-2.276581339538097382e-02,-2.732189744710922241e-02,-2.662896215915679932e-01,1.144001260399818420e-01,6.995394080877304077e-02,-3.684248626232147217e-01,1.250101923942565918e-01,2.004211395978927612e-01,-2.060267701745033264e-02
5.484252423048019409e-02,1.036357805132865906e-01,-9.262512624263763428e-02,3.138760104775428772e-02,-9.181173890829086304e-02,-1.461853366345167160e-02,6.021768599748611450e-02,1.180008575320243835e-01,6.364510208368301392e-02
2.264160811901092529e-01,2.574031949043273926e-01,-8.564954623579978943e-03,2.148636728525161743e-01,-2.031988501548767090e-01,-3.139037489891052246e-01,-3.105332888662815094e-02,-3.692834675312042236e-01,2.348008304834365845e-01
-5.773023515939712524e-02,2.099186331033706665e-01,3.517892658710479736e-01,-3.778722584247589111e-01,-8.420233428478240967e-02,2.675438523292541504e-01,-2.079511284828186035e-01,-2.802012860774993896e-01,-2.193413674831390381e-02
-2.725411057472229004e-01,-9.702654182910919189e-02,1.418299078941345215e-01,1.209379881620407104e-01,6.637312471866607666e-02,1.030775383114814758e-01,-7.671140134334564209e-02,7.412394136190414429e-02,-1.468901932239532471e-01
-8.560919761657714844e-02,3.431406989693641663e-02,-3.494119271636009216e-02,1.223319843411445618e-01,1.317838728427886963e-01,-5.376107990741729736e-02,6.203623861074447632e-02,7.159632444381713867e-02,-2.738702297210693359e-01
4.223643541336059570e-01,-5.061151981353759766e-01,-9.484479576349258423e-02,-5.603404641151428223e-01,-2.769311368465423584e-01,3.402530848979949951e-01,-6.495211124420166016e-01,1.433517336845397949e-01,1.249125972390174866e-01
-1.856045126914978027e-01,-1.804798543453216553e-01,-1.425888091325759888e-01,1.975229233503341675e-01,1.418961584568023682e-01,2.353474348783493042e-01,-2.259038090705871582e-01,-3.789409529417753220e-03,-2.623989284038543701e-01
2.055240049958229065e-02,4.910330846905708313e-02,2.605522796511650085e-02,2.152172029018402100e-01,5.782019719481468201e-02,-5.281656980514526367e-02,8.219675510190427303e-04,-3.186649829149246216e-02,-2.683272361755371094e-01
-1.398960351943969727e-01,5.690164491534233093e-02,-3.718190640211105347e-02,4.589514061808586121e-02,6.384335458278656006e-02,-2.082502841949462891e-02,-7.157265394926071167e-02,-5.196089670062065125e-02,-7.340056449174880981e-02
-3.681002259254455566e-01,-2.022960782051086426e-01,2.334915101528167725e-01,9.258411079645156860e-02,3.046057224273681641e-01,1.824953556060791016e-01,-1.172209274955093861e-03,-4.445947706699371338e-02,-1.995840519666671753e-01
1.794681251049041748e-01,6.374711543321609497e-02,-1.262422204017639160e-01,5.746755748987197876e-02,-3.566364198923110962e-02,-4.693288356065750122e-02,1.004398539662361145e-01,1.170662716031074524e-01,-5.761011689901351929e-02
1.438974291086196899e-01,9.333248436450958252e-02,3.221054673194885254e-01,1.529461145401000977e-01,1.162391379475593567e-01,5.277632176876068115e-02,-3.233027160167694092e-01,-5.666627287864685059e-01,-2.193382531404495239e-01
1.828721724450588226e-02,1.542323976755142212e-01,-3.748653233051300049e-01,-8.712368458509445190e-02,1.879164576530456543e-01,-1.512660086154937744e-01,5.846332293003797531e-03,1.619902998208999634e-01,7.180558890104293823e-02
9.175403416156768799e-02,4.459019377827644348e-02,-1.169733256101608276e-01,1.004930660128593445e-01,-4.087486118078231812e-02,-3.281911313533782959e-01,5.841352045536041260e-02,2.495955228805541992e-01,-3.931373357772827148e-02
9.682492166757583618e-02,3.492466211318969727e-01,2.795663289725780487e-02,2.886609733104705811e-01,9.305509179830551147e-02,-3.700950741767883301e-01,-9.951709955930709839e-02,-2.686706483364105225e-01,-4.165351688861846924e-01
-5.276574753224849701e-03,6.550884246826171875e-02,5.740223079919815063e-02,-7.187704555690288544e-03,-1.432708278298377991e-02,-1.154604256153106689e-01,-1.102239191532135010e-01,1.218709647655487061e-01,4.317547380924224854e-02
-1.663618236780166626e-01,-2.228488922119140625e-01,1.337255537509918213e-01,4.805128555744886398e-03,2.584727704524993896e-01,1.986798495054244995e-01,1.794540286064147949e-01,-4.531031474471092224e-02,-2.646542191505432129e-01
-2.811379432678222656e-01,-1.269446164369583130e-01,3.270319104194641113e-02,-5.084287375211715698e-02,-1.491377316415309906e-02,1.938075423240661621e-01,-1.369420066475868225e-02,3.512471914291381836e-02,-1.107565909624099731e-01
-1.819825172424316406e-01,-1.741329878568649292e-01,2.876842021942138672e-01,-3.744157254695892334e-01,9.966771304607391357e-02,1.191273629665374756e-01,-2.560083288699388504e-03,2.998551130294799805e-01,2.462810836732387543e-02
-6.886193295940756798e-04,-1.898973137140274048e-01,-2.230282127857208252e-01,1.939390301704406738e-01,6.909773498773574829e-02,2.443249225616455078e-01,-4.860664531588554382e-02,-3.424443677067756653e-02,-3.399979323148727417e-02
-1.665532588958740234e-01,-2.555009126663208008e-01,1.682079210877418518e-02,1.716178655624389648e-01,1.910167932510375977e-01,1.628856807947158813e-01,1.074122563004493713e-01,-3.218713402748107910e-01,-1.639115661382675171e-01
6.633619964122772217e-02,1.083050370216369629e-01,-2.062392048537731171e-02,-1.869808584451675415e-01,7.882259041070938110e-02,-3.108157590031623840e-02,-1.013967841863632202e-01,9.757664054632186890e-02,2.705809660255908966e-02
-6.129455566406250000e-02,-6.468834877014160156e-01,-3.250533938407897949e-01,-5.903369784355163574e-01,-7.538860291242599487e-02,3.001372516155242920e-01,-3.444331288337707520e-01,1.734392791986465454e-01,3.539890944957733154e-01
6.745747476816177368e-02,2.790887057781219482e-01,1.250547170639038086e-01,-2.331646233797073364e-01,1.176365241408348083e-01,5.042644217610359192e-02,-5.089735984802246094e-01,-9.225382655858993530e-02,1.256825625896453857e-01
-2.963736280798912048e-02,2.371075749397277832e-02,-1.788396686315536499e-01,-1.962507702410221100e-02,9.511357173323631287e-03,4.448065161705017090e-02,3.950880095362663269e-02,-8.285638689994812012e-02,-3.119827993214130402e-02
9.730573743581771851e-02,-3.361417055130004883e-01,-6.635200977325439453e-02,1.259074658155441284e-01,-1.770336180925369263e-01,-2.282710745930671692e-02,2.489329576492309570e-01,1.071180030703544617e-01,9.658990165917202830e-05
5.715509131550788879e-02,1.470911949872970581e-01,6.174315512180328369e-02,-4.600747197400778532e-04,-7.851927727460861206e-02,-2.484061568975448608e-01,5.702032148838043213e-02,9.302663803100585938e-02,1.472193002700805664e-01
-9.465486742556095123e-03,-3.027890063822269440e-02,6.655238568782806396e-02,-1.041946038603782654e-01,-2.581042237579822540e-02,-6.963799707591533661e-03,9.563229233026504517e-02,-3.034072741866111755e-02,4.588712006807327271e-02
2.123207598924636841e-01,2.049720436334609985e-01,4.240622371435165405e-02,-1.525891423225402832e-01,-2.678686976432800293e-01,-2.856171131134033203e-01,4.096556920558214188e-03,1.220883429050445557e-01,2.391004711389541626e-01
4.366705194115638733e-02,-8.579752594232559204e-02,-2.821397483348846436e-01,1.559795439243316650e-01,3.052809536457061768e-01,7.712642103433609009e-02,-3.792053461074829102e-01,-8.285852521657943726e-02,1.156328897923231125e-02
1.799907982349395752e-01,2.391942217946052551e-02,1.876359134912490845e-01,-6.838714331388473511e-02,-1.182350814342498779e-01,2.438719123601913452e-01,9.103253483772277832e-03,9.638906456530094147e-03,-4.989065527915954590e-01
3.773887176066637039e-03,9.884127229452133179e-02,1.455433666706085205e-01,-1.180160194635391235e-01,1.567212641239166260e-01,1.634099334478378296e-01,-2.632651329040527344e-01,-4.531447291374206543e-01,-4.960193857550621033e-02
2.398685179650783539e-02,7.398555427789688110e-02,1.724319905042648315e-02,-1.135156825184822083e-01,-6.959798745810985565e-03,-1.666875369846820831e-02,-2.421162277460098267e-02,9.293925017118453979e-02,1.417379826307296753e-02
-9.192875027656555176e-02,1.696952581405639648e-01,-3.301456272602081299e-01,-6.353934854269027710e-02,1.386005878448486328e-01,1.409609615802764893e-01,-1.275935620069503784e-01,-3.086371421813964844e-01,3.524952335283160210e-03
-3.585007190704345703e-01,-2.324141860008239746e-01,1.018453091382980347e-01,-3.818108141422271729e-02,6.959465891122817993e-02,1.807487159967422485e-01,1.960829496383666992e-01,1.735274791717529297e-01,1.166253164410591125e-02
2.061714082956314087e-01,-4.010102525353431702e-02,-1.273275911808013916e-01,1.671043485403060913e-01,-1.431763023138046265e-01,-1.363431066274642944e-01,1.223700344562530518e-01,-1.375272311270236969e-02,-9.947335720062255859e-02
-2.956964634358882904e-02,1.636628620326519012e-02,5.133766308426856995e-02,-1.532599236816167831e-02,-4.166864603757858276e-02,-4.797716811299324036e-02,-8.859254419803619385e-03,3.927975520491600037e-02,2.207536454079672694e-04
8.171921223402023315e-02,2.867675125598907471e-01,-3.662660419940948486e-01,-1.442757248878479004e-01,1.995819509029388428e-01,4.166512191295623779e-02,-2.339073866605758667e-01,9.021635353565216064e-02,7.643555849790573120e-02
1.027102116495370865e-02,-4.152294397354125977e-01,-2.800737917423248291e-01,-4.358183965086936951e-02,4.091209545731544495e-02,3.254744410514831543e-02,1.680509001016616821e-01,1.703276336193084717e-01,2.279640287160873413e-01
-5.418620631098747253e-02,-1.944200545549392700e-01,-3.864695131778717041e-01,2.188931703567504883e-01,2.014512270689010620e-01,-1.583868823945522308e-02,-1.396670937538146973e-01,9.610001742839813232e-02,1.861917972564697266e-01
1.132414788007736206e-01,3.044431842863559723e-02,-1.861082166433334351e-01,3.520424291491508484e-02,1.995701342821121216e-01,5.331293493509292603e-02,-2.173748016357421875e-01,8.128358423709869385e-02,4.050889983773231506e-02
6.220620498061180115e-02,-4.754122197628021240e-01,2.905934676527976990e-02,4.127741456031799316e-01,3.236030414700508118e-02,5.340350046753883362e-02,-6.273093074560165405e-02,4.408983513712882996e-02,-9.409111738204956055e-02
1.448320150375366211e-01,5.901473015546798706e-02,-2.175496518611907959e-01,2.220848351716995239e-01,-4.291709978133440018e-03,-3.723301887512207031e-01,1.258545517921447754e-01,-2.721356749534606934e-01,-5.722197294235229492e-01
9.576250612735748291e-02,-1.380950808525085449e-01,-3.114781379699707031e-01,1.912507414817810059e-01,1.581004858016967773e-01,4.028667137026786804e-02,-1.729189306497573853e-01,1.406728774309158325e-01,2.107596695423126221e-01
-2.018096596002578735e-01,-3.986753523349761963e-01,-1.094930619001388550e-01,-2.454053796827793121e-02,-2.815992571413516998e-02,-2.656846307218074799e-03,2.354088723659515381e-01,2.755725681781768799e-01,6.923649460077285767e-02
-2.363026738166809082e-01,-6.392410397529602051e-02,3.790529677644371986e-03,1.948401331901550293e-01,1.904431432485580444e-01,1.398413926362991333e-01,-1.389605551958084106e-01,-3.567539453506469727e-01,4.185655713081359863e-02
-1.193347503431141376e-03,8.577626198530197144e-02,-2.182438969612121582e-01,-2.362774312496185303e-02,1.185809075832366943e-02,-5.938936769962310791e-02,-1.869585551321506500e-02,2.142440341413021088e-02,3.914885222911834717e-02
-4.926872998476028442e-02,9.736075252294540405e-02,-3.969913423061370850e-01,-1.699678972363471985e-02,-7.158400118350982666e-02,-1.324502527713775635e-01,2.457091063261032104e-01,-1.168906781822443008e-02,1.880354583263397217e-01
7.744397968053817749e-02,2.112707309424877167e-02,1.052467674016952515e-01,1.473166942596435547e-01,5.102891847491264343e-02,-1.019240096211433411e-01,1.111260205507278442e-01,-7.316530495882034302e-02,-1.199154928326606750e-01
8.844236284494400024e-02,-3.280525505542755127e-01,-1.833450943231582642e-01,3.179557919502258301e-01,1.099944114685058594e-02,6.298636435531079769e-06,3.185738623142242432e-02,8.377883583307266235e-02,-3.196490462869405746e-03
1.866471171379089355e-01,-2.255233675241470337e-01,2.005318924784660339e-02,-4.530090689659118652e-01,-8.819390088319778442e-02,1.899165362119674683e-01,1.840896457433700562e-01,3.044627606868743896e-01,-6.921606510877609253e-02
2.159992232918739319e-02,1.431679576635360718e-01,-3.449003100395202637e-01,-5.351782217621803284e-02,2.867535352706909180e-01,2.173908799886703491e-01,-2.917510867118835449e-01,-2.669079415500164032e-02,-6.181654706597328186e-02
-1.482628192752599716e-02,1.193946786224842072e-02,4.251988232135772705e-02,-5.938084796071052551e-02,-1.300005614757537842e-02,-1.172456704080104828e-02,4.166532680392265320e-02,-2.208343707025051117e-03,4.876570031046867371e-02
1.378627568483352661e-01,1.772463694214820862e-02,-2.999368906021118164e-01,5.831683054566383362e-02,1.434054523706436157e-01,-1.457691043615341187e-01,1.100536063313484192e-01,3.933524340391159058e-02,1.012248843908309937e-01
-2.671433389186859131e-01,-3.211281001567840576e-01,-8.425839245319366455e-02,-6.043412536382675171e-02,2.113610953092575073e-01,1.484075039625167847e-01,2.164117693901062012e-01,4.573974758386611938e-02,1.674865372478961945e-02
-2.709262073040008545e-01,-3.594536781311035156e-01,-2.465254068374633789e-01,-2.068795114755630493e-01,-5.769386515021324158e-02,-1.359052304178476334e-02,6.106812506914138794e-02,8.892206847667694092e-02,1.207846999168395996e-01
2.536939680576324463e-01,3.146252930164337158e-01,6.704614311456680298e-02,-5.228159949183464050e-02,3.311083093285560608e-02,1.041638553142547607e-01,-4.148262739181518555e-01,-3.722824454307556152e-01,-5.606336519122123718e-02
-4.631047844886779785e-01,1.682441122829914093e-02,1.416953951120376587e-01,-1.879405230283737183e-02,3.440907597541809082e-01,3.441100567579269409e-02,-4.032693977933377028e-04,1.668484807014465332e-01,-3.860092163085937500e-01
-9.092975407838821411e-02,-1.674138382077217102e-02,-2.190744876861572266e-01,3.888745093718171120e-03,1.243073269724845886e-01,2.319500893354415894e-01,-1.269345730543136597e-01,-2.043180614709854126e-01,-7.363346405327320099e-03
3.228023946285247803e-01,3.994967788457870483e-02,-3.127266466617584229e-01,3.087255060672760010e-01,-3.225754499435424805e-01,-4.373544752597808838e-01,-1.105959340929985046e-01,-4.420525729656219482e-01,1.024049147963523865e-01
-2.768409252166748047e-01,2.465547174215316772e-01,2.418071627616882324e-01,-5.769963860511779785e-01,7.466325908899307251e-02,2.447118014097213745e-01,-3.937602341175079346e-01,1.912574097514152527e-02,1.880557239055633545e-01
-7.381176948547363281e-02,-4.344223141670227051e-01,4.239536821842193604e-02,4.714100435376167297e-02,-1.424018442630767822e-01,-3.129475563764572144e-02,3.344747424125671387e-01,1.605286300182342529e-01,2.528052404522895813e-02
-6.554871052503585815e-02,4.453878849744796753e-02,9.349995851516723633e-02,5.078431963920593262e-02,3.389149671420454979e-03,9.803798794746398926e-02,7.373433560132980347e-02,7.770633697509765625e-02,-8.483116328716278076e-02
9.969434142112731934e-02,-1.900352537631988525e-01,-1.789714395999908447e-01,1.612858846783638000e-02,1.248810291290283203e-01,1.863499879837036133e-01,4.951335489749908447e-02,2.120559103786945343e-02,9.591876529157161713e-03
1.565909236669540405e-01,-3.597928211092948914e-02,-4.964079558849334717e-01,2.296381890773773193e-01,-8.954423666000366211e-02,-2.959556281566619873e-01,8.150957524776458740e-02,-5.404298901557922363e-01,-3.238454759120941162e-01
-2.054483592510223389e-01,-7.521917670965194702e-02,5.887716263532638550e-02,1.143349111080169678e-01,-4.058371484279632568e-02,1.820615679025650024e-01,-6.253678351640701294e-02,-2.038915306329727173e-01,-3.720407187938690186e-02
3.776299208402633667e-02,1.080375537276268005e-01,6.984659284353256226e-02,1.464322656393051147e-01,-2.070334255695343018e-01,-1.775607913732528687e-01,-5.373934656381607056e-02,2.801723033189773560e-02,1.476654857397079468e-01
2.218056097626686096e-02,1.420313566923141479e-01,-3.167132437229156494e-01,1.175406053662300110e-01,-4.271937534213066101e-02,-2.398302704095840454e-01,2.415657341480255127e-01,9.665354341268539429e-02,-1.013496145606040955e-02
-8.818799257278442383e-02,3.034432232379913330e-01,2.800807058811187744e-01,-9.998182654380798340e-01,-3.650730848312377930e-01,-2.406428568065166473e-02,1.636657714843750000e-01,-6.053230166435241699e-01,-3.116257488727569580e-01
-1.606189906597137451e-01,4.179425910115242004e-02,1.238959953188896179e-01,-9.399671107530593872e-02,-2.695753797888755798e-02,-4.394424334168434143e-02,-2.982327900826931000e-02,1.039068549871444702e-01,6.342417746782302856e-02
5.298632755875587463e-02,-1.077478080987930298e-01,-3.891515731811523438e-02,4.082228243350982666e-02,-6.270973011851310730e-03,1.389716267585754395e-01,-7.253941893577575684e-02,1.481114514172077179e-02,-2.130406945943832397e-01
-2.754278779029846191e-01,-3.852806985378265381e-01,-8.563242852687835693e-02,1.856295317411422729e-01,-1.117882579565048218e-01,-4.313422143459320068e-01,3.877610862255096436e-01,2.098857313394546509e-01,-9.684700518846511841e-03
1.025291439145803452e-02,1.645055115222930908e-01,2.298003435134887695e-01,-3.663888573646545410e-01,-1.891927979886531830e-02,2.304330319166183472e-01,-3.050855100154876709e-01,-5.171642899513244629e-01,-1.556927859783172607e-01
5.857207998633384705e-02,-9.070233255624771118e-02,-1.108912974596023560e-01,-2.715576067566871643e-02,-5.225836765021085739e-03,9.636230021715164185e-02,-9.039158001542091370e-03,4.821511730551719666e-02,-9.361740201711654663e-02
-1.573666036128997803e-01,1.302500814199447632e-01,-1.360047161579132080e-01,-2.527822256088256836e-01,1.042928472161293030e-01,1.602949798107147217e-01,1.875049620866775513e-01,1.390213817358016968e-01,-1.809881776571273804e-01
1.370716243982315063e-01,1.822053343057632446e-01,-1.188199315220117569e-02,-1.816509366035461426e-01,1.655780076980590820e-01,1.105200797319412231e-01,-3.823027908802032471e-01,-8.045338839292526245e-02,-6.028534471988677979e-02
-1.311631686985492706e-02,-3.388652950525283813e-02,-8.289788663387298584e-02,1.765873021213337779e-04,-1.398759931325912476e-01,1.495680212974548340e-01,-1.271882504224777222e-01,-2.640246152877807617e-01,-1.926784589886665344e-02
3.569633513689041138e-02,-7.968517392873764038e-02,-3.669447302818298340e-01,1.981457173824310303e-01,-3.676125034689903259e-02,-2.881956994533538818e-01,2.833364307880401611e-01,1.306507885456085205e-01,1.757895760238170624e-02
-1.154076829552650452e-01,4.700162634253501892e-02,-1.061586812138557434e-01,-4.204101115465164185e-02,-5.046163871884346008e-02,4.453807696700096130e-02,2.972218208014965057e-02,-4.309535771608352661e-02,2.460610121488571167e-04
2.263258993625640869e-01,1.130618602037429810e-01,2.387288361787796021e-01,-2.668383345007896423e-02,-1.551923900842666626e-01,-1.308235824108123779e-01,-3.067095577716827393e-01,-1.016516312956809998e-01,2.676075994968414307e-01
-5.342597886919975281e-02,1.172022819519042969e-01,2.451044470071792603e-01,1.702551096677780151e-01,8.921071887016296387e-02,-3.650389984250068665e-02,-8.555868640542030334e-03,-2.552143335342407227e-01,-1.861983090639114380e-01
7.787318527698516846e-02,1.044220402836799622e-01,4.328930005431175232e-02,-1.775314807891845703e-01,4.948800802230834961e-02,-1.478130370378494263e-02,-1.502290368080139160e-01,1.264560967683792114e-01,7.702104747295379639e-02
2.321549355983734131e-01,1.360481381416320801e-01,2.528542578220367432e-01,-5.918853729963302612e-02,-1.051318366080522537e-02,8.213101327419281006e-02,-4.937908053398132324e-02,-3.801188468933105469e-01,-1.771690845489501953e-01
1.157578527927398682e-01,-9.591835737228393555e-02,5.956054478883743286e-02,-2.192077971994876862e-02,-9.984773397445678711e-02,9.943144023418426514e-02,2.761678397655487061e-02,8.921303786337375641e-03,-8.885260671377182007e-03
-8.530578576028347015e-03,-1.642808876931667328e-02,2.476608939468860626e-02,3.109788894653320312e-02,-9.005057811737060547e-02,-4.657629877328872681e-02,-3.225649520754814148e-02,2.101108245551586151e-02,-1.921351701021194458e-01
1.931226626038551331e-02,1.553737074136734009e-01,-2.617986500263214111e-01,1.600944846868515015e-01,2.929304838180541992e-01,2.458002716302871704e-01,-6.003189086914062500e-01,-1.634043753147125244e-01,8.618526160717010498e-02
-4.893908798694610596e-01,-2.936818003654479980e-01,2.331005483865737915e-01,-5.083923339843750000e-01,-1.128612458705902100e-01,1.566449105739593506e-01,-2.925242483615875244e-01,-6.975350528955459595e-02,1.627997159957885742e-01
-2.607814669609069824e-01,-1.798629760742187500e-02,1.993505507707595825e-01,4.060028865933418274e-02,6.586615741252899170e-02,-3.191588521003723145e-01,-1.811703741550445557e-01,3.900495916604995728e-02,-6.001693382859230042e-02
6.292982399463653564e-02,-1.078560948371887207e-01,8.012221008539199829e-02,-4.043068364262580872e-02,1.295142024755477905e-01,-2.564360387623310089e-02,8.968228101730346680e-02,-8.138020336627960205e-02,-2.855302691459655762e-01
1.016076654195785522e-01,2.911715507507324219e-01,-9.881298989057540894e-02,1.421676129102706909e-01,2.492143213748931885e-02,-3.684166073799133301e-01,-2.774766273796558380e-02,-1.311649382114410400e-02,-2.420445382595062256e-01
1.017748042941093445e-01,2.472697943449020386e-02,7.715553510934114456e-03,-3.864429295063018799e-01,2.301829308271408081e-02,3.833786025643348694e-02,-2.008777558803558350e-01,1.067361980676651001e-01,2.902156412601470947e-01
5.201791645959019661e-05,3.608559817075729370e-02,-2.297574188560247421e-03,1.944956481456756592e-01,2.854981832206249237e-02,-4.012312293052673340e-01,1.788099408149719238e-01,3.162582591176033020e-02,-6.907504051923751831e-02
1.941403150558471680e-01,-7.999214529991149902e-02,1.507636308670043945e-01,-2.173871248960494995e-01,2.926478162407875061e-02,-2.974267899990081787e-01,-1.701084077358245850e-01,3.594357669353485107e-01,-1.798764169216156006e-01
3.855310380458831787e-02,-2.929043583571910858e-02,6.515696644783020020e-02,-8.258381858468055725e-03,-4.464473202824592590e-02,4.382481053471565247e-02,3.295873478055000305e-02,-3.029400715604424477e-03,-1.143616810441017151e-02
7.912402972579002380e-03,2.029960900545120239e-01,-3.044981658458709717e-01,1.317576318979263306e-01,-4.422782361507415771e-02,-1.736502349376678467e-01,1.206209063529968262e-01,-1.598569899797439575e-01,1.039696335792541504e-01
-1.643375009298324585e-01,-4.591959714889526367e-01,-1.134285330772399902e-01,-7.434698194265365601e-02,-6.551633030176162720e-02,1.223438233137130737e-02,2.400914728641510010e-01,2.915403842926025391e-01,1.664219200611114502e-01
1.792560070753097534e-01,-1.609754115343093872e-01,-5.588573217391967773e-01,1.559972763061523438e-01,-3.591434657573699951e-01,9.580154903233051300e-03,-3.725043535232543945e-01,-4.921448826789855957e-01,9.101294726133346558e-02
1.241918504238128662e-01,-1.399068534374237061e-01,-3.984267711639404297e-01,2.490824162960052490e-01,1.791569739580154419e-01,-9.825566411018371582e-02,-2.087608352303504944e-02,1.866952180862426758e-01,7.737579941749572754e-02
-8.934589102864265442e-03,-2.530800402164459229e-01,-2.002057880163192749e-01,7.564582675695419312e-02,2.325316220521926880e-01,8.974386751651763916e-02,-1.852527260780334473e-01,-1.887268871068954468e-01,-2.103710733354091644e-02
9.166041761636734009e-02,-6.762172281742095947e-02,-1.085774227976799011e-01,-9.528039395809173584e-02,-4.494181275367736816e-02,3.930776380002498627e-03,1.858359947800636292e-02,2.697498351335525513e-02,-3.604093566536903381e-02
2.804931998252868652e-01,1.742203980684280396e-01,-1.036287918686866760e-01,1.527090370655059814e-01,4.490274563431739807e-02,-3.902836143970489502e-01,1.648740656673908234e-02,-2.442945241928100586e-01,-3.120878934860229492e-01
1.715510338544845581e-01,1.344400048255920410e-01,-3.635332360863685608e-02,-3.132399320602416992e-01,-3.644053936004638672e-01,-8.249872177839279175e-02,1.902887225151062012e-01,1.798168867826461792e-01,1.524370461702346802e-01
8.276986330747604370e-02,-1.161907836794853210e-01,2.481053769588470459e-02,-4.458228126168251038e-02,1.857496500015258789e-01,2.603610157966613770e-01,-4.644156247377395630e-02,-2.246473580598831177e-01,-1.389752179384231567e-01
-1.032589585520327091e-03,-4.283202290534973145e-01,-8.572530001401901245e-02,1.671977341175079346e-01,-1.028985716402530670e-02,-6.970615684986114502e-02,6.493795663118362427e-02,1.566918939352035522e-01,1.536235511302947998e-01
1.626159399747848511e-01,2.945942990481853485e-02,2.208263725042343140e-01,1.255013793706893921e-01,7.749633491039276123e-02,-2.371318452060222626e-02,-2.470756024122238159e-01,-2.906548380851745605e-01,-1.025612056255340576e-01
-8.190446346998214722e-02,-4.276365414261817932e-02,-9.902870282530784607e-03,-1.149605885148048401e-01,1.329716201871633530e-02,-1.758566941134631634e-03,-9.509801119565963745e-02,-3.723689913749694824e-02,-5.314495041966438293e-02
-2.864513313397765160e-03,6.193249672651290894e-02,2.216003686189651489e-01,2.743327058851718903e-02,2.781224250793457031e-01,-8.714378625154495239e-02,8.311303704977035522e-02,-1.978421360254287720e-01,-3.247934877872467041e-01
3.790640830993652344e-02,-1.661205291748046875e-01,-5.128873139619827271e-02,-1.583690196275711060e-01,-3.737298771739006042e-02,1.438060402870178223e-01,-2.201374433934688568e-02,1.067809239029884338e-01,-1.447206288576126099e-01
3.017027303576469421e-02,-5.189253017306327820e-02,-1.286815572530031204e-02,2.067714184522628784e-02,-6.171172112226486206e-02,1.231660172343254089e-01,-1.103402674198150635e-02,-4.653994925320148468e-03,-1.340529918670654297e-01
-3.485435247421264648e-01,1.549059450626373291e-01,1.243652626872062683e-01,-6.869287788867950439e-02,2.542333900928497314e-01,-1.205401793122291565e-01,3.007754683494567871e-02,1.066201031208038330e-01,-3.608681261539459229e-01
-5.121707171201705933e-02,-4.379177391529083252e-01,-1.570921242237091064e-01,3.431626558303833008e-01,2.148772031068801880e-01,-6.199650093913078308e-02,4.193532094359397888e-02,-9.317879378795623779e-02,8.876869082450866699e-02
-3.888236731290817261e-02,-3.850014209747314453e-01,-1.222414225339889526e-01,2.113832160830497742e-02,1.291351169347763062e-01,2.111823558807373047e-01,1.493632644414901733e-01,1.249733865261077881e-01,-1.086556389927864075e-01
1.540370937436819077e-02,-1.553370356559753418e-01,4.345250502228736877e-02,-4.698459804058074951e-01,3.276125714182853699e-02,1.728995442390441895e-01,5.122584756463766098e-03,3.213306665420532227e-01,4.123587906360626221e-02
2.574246376752853394e-02,-9.855470061302185059e-02,-3.145844638347625732e-01,-8.565904572606086731e-03,-9.414584189653396606e-02,-1.983987726271152496e-02,1.047356575727462769e-01,3.708902746438980103e-02,2.908039987087249756e-01
-5.044453591108322144e-02,6.311326473951339722e-02,-3.806527331471443176e-02,-2.125891670584678650e-02,-4.443968459963798523e-02,-4.946307837963104248e-02,-7.441588211804628372e-03,3.303407877683639526e-02,-1.733679324388504028e-02
-8.814709633588790894e-02,-1.163079142570495605e-01,4.110472276806831360e-02,-1.896299123764038086e-01,1.995025575160980225e-01,5.378676205873489380e-02,3.192340722307562828e-03,1.257467120885848999e-01,-3.175429403781890869e-01
-8.739035576581954956e-02,-1.996231079101562500e-01,9.277746826410293579e-02,1.232735216617584229e-01,7.813467644155025482e-03,1.339491605758666992e-01,-1.002763584256172180e-01,9.746807627379894257e-03,-1.906402707099914551e-01
-1.893566101789474487e-01,-1.717172414064407349e-01,2.718530893325805664e-01,-1.920945644378662109e-01,3.233045339584350586e-02,6.757583469152450562e-02,-2.559017576277256012e-02,1.113396510481834412e-01,-3.827170729637145996e-01
2.245558798313140869e-01,-4.411827400326728821e-02,-1.815746873617172241e-01,1.459955275058746338e-01,-5.866686115041375160e-04,-2.813042700290679932e-01,1.736844629049301147e-01,2.852402627468109131e-02,-9.737287461757659912e-02
-2.573927044868469238e-01,-3.336897790431976318e-01,1.544716805219650269e-01,2.286683917045593262e-01,1.453602761030197144e-01,2.512369155883789062e-01,1.566740684211254120e-02,-3.297643065452575684e-01,-1.114044114947319031e-01
2.454367578029632568e-01,-3.553769886493682861e-01,-1.011406630277633667e-01,2.784577012062072754e-01,-2.982898056507110596e-01,1.701106503605842590e-02,2.353568673133850098e-01,-1.583243347704410553e-02,4.276945814490318298e-02
-1.660625189542770386e-01,-1.411187648773193359e-01,9.572909027338027954e-02,-6.725204735994338989e-02,3.108651190996170044e-02,6.307078897953033447e-02,1.831396520137786865e-01,2.077315002679824829e-02,-5.663933232426643372e-02
5.853119492530822754e-02,8.334080129861831665e-02,-3.720445930957794189e-01,5.699091404676437378e-02,1.175119727849960327e-01,-1.158754080533981323e-01,-1.662033051252365112e-01,2.817098200321197510e-01,1.005803123116493225e-01
-4.574081301689147949e-02,-4.274493157863616943e-01,-1.474152952432632446e-01,1.583164632320404053e-01,2.399216592311859131e-02,1.383508145809173584e-01,1.111314296722412109e-01,2.034936845302581787e-01,-3.352022916078567505e-02
4.427611827850341797e-02,6.225682795047760010e-02,-3.545059859752655029e-01,-1.075573381967842579e-03,3.538461923599243164e-01,-1.932150572538375854e-01,-2.126274406909942627e-01,2.563579678535461426e-01,2.467918954789638519e-02
4.356076940894126892e-02,1.184521242976188660e-01,-3.278704583644866943e-01,3.927940875291824341e-02,-6.455357652157545090e-03,-1.324801295995712280e-01,1.099175289273262024e-01,1.961278021335601807e-01,8.321890234947204590e-02
-5.070697069168090820e-01,1.518929600715637207e-01,2.288160324096679688e-01,-5.969573855400085449e-01,2.230458557605743408e-01,2.752476334571838379e-01,-5.262670516967773438e-01,-9.006146341562271118e-02,1.467022895812988281e-01
1.704359203577041626e-01,1.345744729042053223e-01,2.121762633323669434e-01,-3.313367068767547607e-02,4.727923870086669922e-02,-7.463806867599487305e-02,-2.901933789253234863e-01,-2.479610592126846313e-01,5.276465788483619690e-02
4.074406623840332031e-02,2.790831960737705231e-02,-7.290142774581909180e-02,-1.167081966996192932e-01,6.874483078718185425e-02,-1.251119673252105713e-01,-1.032851859927177429e-01,2.189021185040473938e-02,4.064776469022035599e-03
9.725754708051681519e-02,9.514640271663665771e-02,-2.734392881393432617e-01,-1.151527911424636841e-01,9.177783876657485962e-02,1.138367727398872375e-01,-2.348785847425460815e-01,-1.157629340887069702e-01,-4.475043341517448425e-02
-4.660176932811737061e-01,5.803145840764045715e-02,-3.073410689830780029e-02,1.157478317618370056e-01,3.617173135280609131e-01,-6.089589092880487442e-03,-1.206062063574790955e-01,-7.814315706491470337e-02,-3.175363242626190186e-01
1.156042590737342834e-01,-1.277530044317245483e-01,-3.283061385154724121e-01,1.955790370702743530e-01,9.573131799697875977e-02,9.294077754020690918e-02,-1.913529485464096069e-01,7.251473516225814819e-02,-2.128303982317447662e-02
1.650872677564620972e-01,6.800536066293716431e-02,-2.689064741134643555e-01,-7.380348443984985352e-02,1.722424775362014771e-01,-3.914994001388549805e-02,-1.382683068513870239e-01,7.189329713582992554e-02,-1.182009205222129822e-01
2.195191532373428345e-01,-2.759484350681304932e-01,-4.158764481544494629e-01,2.334748804569244385e-01,2.420224547386169434e-01,-2.138586714863777161e-02,6.692295521497726440e-02,8.882273733615875244e-02,-7.107975427061319351e-03
4.187722876667976379e-02,5.516015738248825073e-02,3.367255628108978271e-02,-1.432925313711166382e-01,2.220535725355148315e-01,-2.923820316791534424e-01,-4.250942170619964600e-02,1.351776868104934692e-01,-8.925338089466094971e-02
9.594737552106380463e-03,4.134272038936614990e-02,3.849303582683205605e-03,-1.859836280345916748e-02,2.747915871441364288e-02,-8.561205863952636719e-02,-3.364381939172744751e-02,2.776104211807250977e-02,5.761772394180297852e-02
-3.152763545513153076e-01,-5.554573982954025269e-02,1.374546885490417480e-01,1.533886343240737915e-01,2.574393451213836670e-01,8.774852752685546875e-02,1.488966345787048340e-01,-1.017797812819480896e-01,-1.669027209281921387e-01
9.396455436944961548e-02,1.456932276487350464e-01,-2.986088395118713379e-01,5.336500471457839012e-04,1.745383590459823608e-01,1.556656807661056519e-01,-1.042839810252189636e-01,7.259474694728851318e-02,1.306792162358760834e-02
2.244264930486679077e-01,2.363813668489456177e-01,4.739942774176597595e-02,2.545946091413497925e-02,-1.276215314865112305e-01,-1.217200234532356262e-01,-1.905100345611572266e-01,-2.432705312967300415e-01,1.621544212102890015e-01
5.331578850746154785e-02,9.894465655088424683e-02,-1.004053652286529541e-01,3.635417670011520386e-02,1.092000491917133331e-02,7.936866581439971924e-02,2.731958590447902679e-02,5.566209182143211365e-02,4.631828889250755310e-02
-6.394707411527633667e-02,5.102698132395744324e-02,-3.350058197975158691e-02,-5.481645464897155762e-02,-1.743807084858417511e-02,-7.219520956277847290e-02,-2.724057808518409729e-02,-2.899955585598945618e-02,4.673552885651588440e-02
-4.859116394072771072e-03,2.213057577610015869e-01,-1.947861015796661377e-01,-3.269281238317489624e-02,1.247464343905448914e-01,-3.246068581938743591e-02,5.429955944418907166e-02,7.849020510911941528e-02,-8.971906453371047974e-02
2.665522098541259766e-01,-1.586992740631103516e-01,1.228933781385421753e-01,-3.224936500191688538e-02,-2.836703956127166748e-01,-2.731124125421047211e-02,-1.340019106864929199e-01,1.451912615448236465e-02,-6.035420894622802734e-01
2.510226070880889893e-01,2.096983939409255981e-01,9.889838844537734985e-02,-2.419631555676460266e-02,1.491607725620269775e-02,2.980675362050533295e-02,-1.165616437792778015e-01,-2.998673617839813232e-01,-2.503989934921264648e-01
7.488717883825302124e-02,2.677265554666519165e-02,7.245024293661117554e-02,1.956108585000038147e-02,2.240599133074283600e-02,6.854998320341110229e-02,4.168300703167915344e-02,5.307145789265632629e-02,4.186237230896949768e-02
7.158347871154546738e-03,1.445740740746259689e-02,4.915629688184708357e-06,2.723098546266555786e-02,3.290681913495063782e-02,1.883938014507293701e-01,-3.010729700326919556e-02,-1.445907354354858398e-01,-2.239102721214294434e-01
5.964819807559251785e-03,-9.991290420293807983e-02,-1.932045221328735352e-01,4.938454180955886841e-02,1.481262892484664917e-01,1.381026655435562134e-01,-1.999121159315109253e-01,-1.244491115212440491e-01,-3.152829408645629883e-02
1.343366801738739014e-01,-1.837844997644424438e-01,-3.315450847148895264e-01,2.903153002262115479e-01,-2.443780750036239624e-02,-6.680002063512802124e-02,1.981102377176284790e-01,6.092710886150598526e-03,2.025681585073471069e-01
-8.789824321866035461e-03,9.247470647096633911e-02,-2.268523164093494415e-02,1.018672948703169823e-03,-1.585733331739902496e-02,-4.801138117909431458e-02,2.197382412850856781e-02,-1.561683509498834610e-02,-6.537000089883804321e-02
7.937773317098617554e-02,1.849077641963958740e-01,9.817478060722351074e-02,-4.586312174797058105e-01,-6.818196922540664673e-02,2.107865959405899048e-01,-1.406187713146209717e-01,4.976592957973480225e-02,1.047794967889785767e-01
1.607537865638732910e-01,2.718637287616729736e-01,4.416444804519414902e-03,1.671350300312042236e-01,1.517509073019027710e-01,-3.434021174907684326e-01,-5.906049162149429321e-02,-8.680200576782226562e-02,-3.682140111923217773e-01
-2.027477324008941650e-01,-2.444595545530319214e-01,-1.680849120020866394e-02,1.031073257327079773e-01,1.263012737035751343e-01,2.392530739307403564e-01,6.432442367076873779e-02,2.656260970979928970e-03,-1.088115200400352478e-01
-6.835958361625671387e-01,-4.767712354660034180e-01,-3.551003336906433105e-01,-3.643701225519180298e-02,-1.371667981147766113e-01,-1.690361052751541138e-01,1.328543126583099365e-01,2.307981252670288086e-01,4.559465497732162476e-02
-8.126181364059448242e-02,-1.972431540489196777e-01,-1.760358363389968872e-02,1.710381954908370972e-01,1.309029012918472290e-01,1.108785048127174377e-01,-2.027956694364547729e-01,-4.479207471013069153e-02,-2.586183696985244751e-02
-5.963598378002643585e-03,-3.565221726894378662e-01,-2.568205296993255615e-01,2.920475304126739502e-01,8.284637331962585449e-02,6.732049584388732910e-02,-6.137247756123542786e-02,1.445873081684112549e-01,8.558578789234161377e-02
-1.597287505865097046e-01,-8.026141673326492310e-02,-1.734554022550582886e-01,7.693816721439361572e-02,-4.432523623108863831e-02,-1.152038201689720154e-01,-5.646712332963943481e-02,1.986470632255077362e-02,4.836355149745941162e-02
-4.941619560122489929e-02,-2.890554368495941162e-01,-7.239057123661041260e-02,-9.998705983161926270e-02,-1.494777500629425049e-01,-9.104498475790023804e-02,2.237240821123123169e-01,2.625645995140075684e-01,1.383035629987716675e-01
3.043372035026550293e-01,-4.746293723583221436e-01,1.117285788059234619e-01,-9.605181962251663208e-02,-1.500024646520614624e-01,2.838789522647857666e-01,1.841977387666702271e-01,3.218316659331321716e-02,-5.941016227006912231e-02
-2.429042458534240723e-01,1.146807521581649780e-01,6.395857036113739014e-02,-8.033654838800430298e-02,8.690398186445236206e-02,-1.329757720232009888e-01,9.072384983301162720e-02,-7.010112702846527100e-02,5.063805729150772095e-02
-3.199780583381652832e-01,-4.021290838718414307e-01,-1.469484902918338776e-02,1.249212920665740967e-01,-1.150348782539367676e-02,-5.435420274734497070e-01,1.582988500595092773e-01,2.023276090621948242e-01,1.099053677171468735e-02
1.984857022762298584e-01,-8.577644824981689453e-02,-3.830386698246002197e-01,2.340123057365417480e-01,-3.569382801651954651e-02,-4.221310615539550781e-01,2.926256358623504639e-01,1.429286748170852661e-01,-2.462255209684371948e-02
1.620463728904724121e-01,1.910765320062637329e-01,2.809731662273406982e-01,-1.453720331192016602e-01,-6.616282463073730469e-02,6.341330707073211670e-02,-8.004355430603027344e-02,-4.380486011505126953e-01,-9.027558565139770508e-02
3.620994836091995239e-02,1.450405418872833252e-01,1.822966039180755615e-01,1.928439736366271973e-01,6.445656716823577881e-02,-1.598907560110092163e-01,-2.455849200487136841e-01,-3.192678987979888916e-01,6.093282252550125122e-02
-4.020875692367553711e-02,-4.634144529700279236e-02,-6.417959928512573242e-02,-5.708285048604011536e-02,-5.405557528138160706e-02,-4.677466675639152527e-02,-8.120137453079223633e-02,-8.644065260887145996e-02,-7.680626958608627319e-02
1.624706387519836426e-01,5.273713916540145874e-02,2.989915385842323303e-02,-5.205038189888000488e-02,1.287686987780034542e-03,1.329044550657272339e-01,-5.316207930445671082e-02,-3.337179720401763916e-01,-2.312153279781341553e-01
-7.568636536598205566e-02,8.220079541206359863e-02,-3.053027205169200897e-02,-3.036448359489440918e-01,-1.715813875198364258e-01,1.455045342445373535e-01,1.683291345834732056e-01,1.078385040163993835e-01,1.132028847932815552e-01
-1.776753962039947510e-01,8.336116373538970947e-02,1.671949625015258789e-01,7.542036473751068115e-02,5.055125430226325989e-02,-4.802567139267921448e-02,-5.328286439180374146e-02,4.694575071334838867e-02,7.427687197923660278e-02
-1.086288988590240479e-01,-2.786509096622467041e-01,3.008678555488586426e-01,1.694619953632354736e-01,-2.310185730457305908e-01,1.872951537370681763e-01,1.906453222036361694e-01,-4.044067859649658203e-01,-5.266229435801506042e-02
3.311387076973915100e-02,-1.751402765512466431e-02,7.513187080621719360e-02,-7.726357132196426392e-02,-7.401733845472335815e-02,-2.335673570632934570e-01,-1.318660378456115723e-01,2.355533465743064880e-02,5.409598723053932190e-02
1.283209323883056641e-01,-1.580231706611812115e-03,-5.581569671630859375e-01,8.807799965143203735e-02,8.099770545959472656e-02,-1.132955849170684814e-01,-3.401339426636695862e-02,2.209878563880920410e-01,1.566819548606872559e-01
1.358184404671192169e-02,5.713488534092903137e-02,3.337382897734642029e-02,-9.328130632638931274e-02,-1.120307017117738724e-02,6.505446135997772217e-02,-5.430924519896507263e-02,-8.758440613746643066e-03,1.170260831713676453e-01
-1.675341278314590454e-01,1.507439166307449341e-01,-6.706467363983392715e-03,-3.440077006816864014e-01,2.616012096405029297e-01,-1.366136968135833740e-02,2.911708503961563110e-02,1.619391888380050659e-01,-1.967048197984695435e-01
-1.431583464145660400e-01,1.437704712152481079e-01,1.618281751871109009e-01,2.633177340030670166e-01,1.295512318611145020e-01,-1.602135896682739258e-01,1.668950915336608887e-02,-4.376485347747802734e-01,5.690927058458328247e-02
-3.037606179714202881e-01,-1.089009344577789307e-01,4.740779474377632141e-02,2.595361173152923584e-01,2.311035841703414917e-01,3.307590633630752563e-02,6.656990945339202881e-02,-4.266703501343727112e-02,-1.231148615479469299e-01
-3.991452977061271667e-02,9.453471004962921143e-02,-1.131449863314628601e-01,-2.429314255714416504e-01,5.797072127461433411e-02,3.694836050271987915e-02,6.298321532085537910e-04,-7.469423115253448486e-02,9.535618126392364502e-02
-3.326406478881835938e-01,-4.937907308340072632e-02,2.580002844333648682e-01,-2.781033217906951904e-01,1.215671896934509277e-01,1.820172518491744995e-01,-9.210764616727828979e-02,1.332254055887460709e-02,8.764186501502990723e-02
-9.620729833841323853e-03,8.671424537897109985e-02,6.023480370640754700e-02,-3.268340826034545898e-01,-5.610123276710510254e-02,6.128256022930145264e-02,-1.089626178145408630e-01,2.430176287889480591e-01,2.793016470968723297e-02
6.678048521280288696e-02,-2.472448647022247314e-01,-2.740290164947509766e-01,-5.167486071586608887e-01,-2.220926284790039062e-01,1.775481849908828735e-01,-2.307848818600177765e-02,2.300585955381393433e-01,2.161853909492492676e-01
1.513460725545883179e-01,8.805384486913681030e-02,-2.225286066532135010e-01,-6.850581616163253784e-02,3.453473448753356934e-01,1.687250137329101562e-01,-5.399917364120483398e-01,-4.450832307338714600e-02,6.873632967472076416e-02
2.063933908939361572e-01,1.231000199913978577e-01,1.340372115373611450e-01,-1.577966511249542236e-01,1.620433181524276733e-01,5.666872859001159668e-02,-2.176379859447479248e-01,-3.643152415752410889e-01,-1.311477273702621460e-01
1.168814077973365784e-01,-1.321349591016769409e-01,-5.278825410641729832e-04,2.447254210710525513e-02,2.429252266883850098e-01,5.232347175478935242e-02,-6.156362593173980713e-02,1.538221444934606552e-02,-3.468985855579376221e-01
5.743991583585739136e-02,-6.525505799800157547e-03,-1.952876709401607513e-02,-9.157540043815970421e-04,-3.864473104476928711e-02,-5.716078449040651321e-03,-2.116768248379230499e-02,7.601712644100189209e-02,-9.838582575321197510e-02
4.270292073488235474e-02,6.805217266082763672e-02,-5.899883434176445007e-02,4.969101399183273315e-02,-4.355501011013984680e-02,7.628700882196426392e-02,3.636069595813751221e-02,7.579798996448516846e-02,-1.838936656713485718e-01
