8.766677230596542358e-02,1.100220233201980591e-01,-1.069677919149398804e-01,-4.972095042467117310e-02,1.045823991298675537e-01,-4.543395340442657471e-02,8.607146888971328735e-02,-7.021962665021419525e-03,1.690825968980789185e-01
1.319211870431900024e-01,1.288311779499053955e-01,1.643767505884170532e-01,-8.969281613826751709e-02,7.385669648647308350e-02,4.608105868101119995e-03,-2.467333525419235229e-01,-2.259501218795776367e-01,-1.497602611780166626e-01
6.459524482488632202e-02,1.339443176984786987e-01,9.553977847099304199e-02,4.462316632270812988e-02,9.440463036298751831e-02,2.415241859853267670e-02,4.453397542238235474e-02,1.061345785856246948e-01,1.041422411799430847e-01
9.191259741783142090e-02,6.385667622089385986e-02,-9.508191049098968506e-02,7.969243824481964111e-02,1.667782664299011230e-01,4.542198404669761658e-02,-6.749269366264343262e-02,2.589020133018493652e-02,7.679747045040130615e-02
9.306837618350982666e-02,-3.746324032545089722e-02,1.099543645977973938e-01,6.962230801582336426e-02,1.064399629831314087e-01,9.987808763980865479e-02,-8.357817307114601135e-03,1.365736722946166992e-01,5.707961693406105042e-02
8.090997487306594849e-02,1.132571026682853699e-01,7.698188722133636475e-02,7.691849023103713989e-02,2.839752659201622009e-02,1.382477432489395142e-01,-1.887959539890289307e-01,-1.756393015384674072e-01,-1.159983947873115540e-01
-1.513777077198028564e-01,-3.035620320588350296e-03,-3.157954290509223938e-02,8.868263661861419678e-02,1.491891890764236450e-01,-5.667749419808387756e-02,1.754017174243927002e-02,1.299005001783370972e-01,-8.170263841748237610e-03
-3.714053705334663391e-02,7.279334962368011475e-02,3.791357576847076416e-02,-1.116117089986801147e-01,1.146506741642951965e-01,2.815323881804943085e-02,1.280710697174072266e-01,1.229719296097755432e-01,-9.265064448118209839e-02
4.100274667143821716e-02,1.642434597015380859e-01,9.543972462415695190e-02,9.435576386749744415e-03,1.458066701889038086e-01,1.342077255249023438e-01,-2.845569979399442673e-04,1.393870543688535690e-02,8.599865436553955078e-02
7.946851104497909546e-02,1.824640780687332153e-01,-2.084314525127410889e-01,1.843501031398773193e-01,-2.602685429155826569e-02,-2.856085300445556641e-01,7.657419145107269287e-02,-6.378730386495590210e-02,5.098047479987144470e-02
6.493761390447616577e-02,1.738128513097763062e-01,6.710095703601837158e-02,-2.628830671310424805e-01,-1.400384902954101562e-01,8.437676727771759033e-02,4.643910005688667297e-02,-5.288417264819145203e-02,-1.859834194183349609e-01
2.074921280145645142e-01,1.000260412693023682e-01,2.395119071006774902e-01,9.910636395215988159e-02,-2.700739353895187378e-02,-8.174514397978782654e-03,-2.252382412552833557e-02,-2.669538259506225586e-01,-3.316472172737121582e-01
-3.377124294638633728e-02,4.654203727841377258e-02,-8.990784734487533569e-02,-8.597932010889053345e-02,1.153576374053955078e-01,8.765093237161636353e-02,6.283611059188842773e-02,8.846676349639892578e-02,4.916932061314582825e-02
9.648192673921585083e-02,-2.891988754272460938e-01,-2.368227690458297729e-01,-2.156096845865249634e-01,-2.445491403341293335e-01,9.646568447351455688e-02,-3.500505983829498291e-01,9.870844334363937378e-02,2.349479496479034424e-01
-7.354113459587097168e-02,-6.270816177129745483e-02,1.434903442859649658e-01,-1.837540417909622192e-01,2.551304921507835388e-02,1.484782844781875610e-01,-3.974694386124610901e-02,8.081157505512237549e-02,3.249816969037055969e-02
1.053708717226982117e-01,-2.044904232025146484e-02,-2.361980676651000977e-01,-1.362061779946088791e-02,1.136097609996795654e-01,7.937850058078765869e-02,9.055249392986297607e-02,4.965298250317573547e-02,3.290284052491188049e-02
-1.178988963365554810e-01,6.044865027070045471e-02,7.829817384481430054e-02,1.144672557711601257e-01,2.128969579935073853e-01,-3.139348933473229408e-03,1.304927021265029907e-01,-1.155009046196937561e-01,-2.497634440660476685e-01
1.405183821916580200e-01,1.118529513478279114e-01,8.929289132356643677e-02,1.552993357181549072e-01,1.437116414308547974e-01,1.167022660374641418e-01,1.138229072093963623e-01,9.116925299167633057e-02,-5.636034533381462097e-02
3.486850764602422714e-03,1.261903345584869385e-01,7.123301923274993896e-02,-1.472918689250946045e-01,1.454330235719680786e-01,-1.203618384897708893e-02,-2.964950725436210632e-02,5.374641716480255127e-02,-2.018444007262587547e-03
1.426014006137847900e-01,-1.019320860505104065e-01,2.994662895798683167e-02,9.842103719711303711e-02,-1.213703900575637817e-01,8.172198385000228882e-02,3.976362943649291992e-02,9.874337911605834961e-02,-5.452870577573776245e-02
-3.337549045681953430e-03,-5.155059322714805603e-02,8.217646926641464233e-02,6.680330634117126465e-02,8.670702576637268066e-02,8.938884735107421875e-02,3.479164559394121170e-03,7.972013205289840698e-02,3.382388129830360413e-02
9.824915230274200439e-02,-3.410981595516204834e-02,6.883209943771362305e-02,-9.656348079442977905e-02,-1.457217037677764893e-01,1.218653246760368347e-01,-1.656362563371658325e-01,1.702293381094932556e-02,2.058971226215362549e-01
1.586938798427581787e-01,5.592675134539604187e-02,-2.527307569980621338e-01,1.850403547286987305e-01,1.398324687033891678e-02,-2.315260022878646851e-01,1.037219166755676270e-01,-2.630625665187835693e-02,-1.051090750843286514e-02
2.760656177997589111e-02,7.905487716197967529e-02,2.158200927078723907e-02,1.067642122507095337e-01,1.162836775183677673e-01,1.631892919540405273e-01,-2.030109316110610962e-01,-1.658244580030441284e-01,8.989854902029037476e-02
2.081252187490463257e-01,2.247722595930099487e-01,8.765009045600891113e-02,1.777067221701145172e-02,-1.007879711687564850e-02,-2.285772562026977539e-02,-2.781336307525634766e-01,-2.079481780529022217e-01,-1.643508672714233398e-02
1.568805724382400513e-01,1.391682475805282593e-01,-9.530331194400787354e-02,1.749207973480224609e-01,-2.033261768519878387e-02,-2.130120098590850830e-01,1.322364360094070435e-01,2.358378097414970398e-02,-1.676045805215835571e-01
-1.857313960790634155e-01,5.695356428623199463e-02,7.985305786132812500e-02,8.374485373497009277e-02,1.574331969022750854e-01,3.524793311953544617e-02,1.152720749378204346e-01,-9.457772225141525269e-02,-1.100816205143928528e-01
1.515626460313796997e-01,-1.982456743717193604e-01,-2.139527946710586548e-01,2.210137546062469482e-01,-8.479412645101547241e-02,-1.701797991991043091e-01,1.797680556774139404e-01,2.571956440806388855e-02,1.125846803188323975e-01
1.384920328855514526e-01,8.401285111904144287e-02,1.578478813171386719e-01,2.312252856791019440e-02,1.865475177764892578e-01,-7.708782702684402466e-02,-3.335393965244293213e-02,7.242468651384115219e-03,-2.712293267250061035e-01
-9.086959064006805420e-02,-1.489385217428207397e-01,-2.626262605190277100e-01,1.295942366123199463e-01,7.548710703849792480e-02,1.274299770593643188e-01,8.064045011997222900e-02,1.719662696123123169e-01,-1.609676890075206757e-02
-4.565981775522232056e-02,-7.979650050401687622e-02,-1.082226857542991638e-01,9.160251915454864502e-02,-4.135372489690780640e-02,3.096443414688110352e-02,1.063479706645011902e-01,3.027841076254844666e-02,1.001848727464675903e-01
2.009852230548858643e-01,-4.592174664139747620e-02,-1.489211469888687134e-01,1.891452223062515259e-01,-3.875239565968513489e-02,-2.208380699157714844e-01,1.491420418024063110e-01,2.588898502290248871e-02,-6.712464988231658936e-02
1.464837938547134399e-01,1.397459506988525391e-01,-1.893043331801891327e-02,-1.345534157007932663e-02,1.610621660947799683e-01,1.987064331769943237e-01,1.204846575856208801e-01,-1.407442707568407059e-02,-3.211371973156929016e-02
1.336882710456848145e-01,-7.421777583658695221e-03,-7.273215800523757935e-02,1.373275220394134521e-01,5.515773221850395203e-02,1.564616113901138306e-01,-1.818469725549221039e-02,1.172598674893379211e-01,-5.578232929110527039e-02
-2.825286984443664551e-01,-3.486150130629539490e-02,1.665719449520111084e-01,-1.920785307884216309e-01,-4.779488779604434967e-03,1.321978867053985596e-01,2.115955762565135956e-02,1.037226170301437378e-01,1.768652498722076416e-01
-2.582353055477142334e-01,-5.366085097193717957e-03,6.297434121370315552e-02,1.600183844566345215e-01,9.690013527870178223e-02,-4.078318830579519272e-03,1.240332871675491333e-01,2.005039900541305542e-02,-8.680623769760131836e-02
1.016140133142471313e-01,4.646328091621398926e-02,5.261671543121337891e-02,3.915032371878623962e-02,8.005608618259429932e-02,1.077672839164733887e-01,-2.210513055324554443e-01,-8.919305354356765747e-02,-3.671899810433387756e-02
8.917160332202911377e-02,1.902909874916076660e-01,7.057024538516998291e-02,1.156892552971839905e-01,1.810295283794403076e-01,-1.157750934362411499e-01,8.673630654811859131e-02,-1.541740894317626953e-01,-2.972096800804138184e-01
4.943339154124259949e-02,-6.045996025204658508e-02,1.292375475168228149e-01,-4.050580784678459167e-02,1.267590522766113281e-01,2.739254757761955261e-02,-6.120983976870775223e-03,1.354201436042785645e-01,1.646136492490768433e-02
-4.129076749086380005e-02,7.717036455869674683e-02,6.188549846410751343e-02,1.134935021400451660e-01,-1.330592576414346695e-02,2.240246720612049103e-02,9.308780729770660400e-02,1.322268247604370117e-01,9.896618872880935669e-02
4.807139560580253601e-02,8.160360157489776611e-02,9.018327295780181885e-02,1.516074538230895996e-01,1.758980602025985718e-01,1.725105196237564087e-02,-2.066049128770828247e-01,-2.714979052543640137e-01,-1.662854254245758057e-01
2.460764348506927490e-01,1.614178717136383057e-01,3.214369341731071472e-02,1.969570964574813843e-01,5.315547809004783630e-02,-2.252272069454193115e-01,-1.521668136119842529e-01,-3.824476003646850586e-01,-1.273345798254013062e-01
-6.690496206283569336e-02,-1.667306125164031982e-01,-2.600690424442291260e-01,1.632849723100662231e-01,7.542566396296024323e-03,-3.120165504515171051e-02,2.727526053786277771e-02,9.652733802795410156e-02,2.054401189088821411e-01
-9.434531629085540771e-02,1.728300563991069794e-02,7.571803778409957886e-02,1.284897029399871826e-01,1.296799927949905396e-01,9.584604203701019287e-02,5.085446685552597046e-02,4.670684412121772766e-02,6.309795379638671875e-02
9.231100231409072876e-02,3.913353011012077332e-02,-2.263752371072769165e-02,1.215988248586654663e-01,5.856073647737503052e-02,-8.648608624935150146e-02,2.945144660770893097e-02,1.097006425261497498e-01,8.483307808637619019e-02
4.059334099292755127e-02,1.133210491389036179e-02,4.476645216345787048e-02,2.316370792686939240e-02,1.573423445224761963e-01,1.074388325214385986e-01,-1.483900249004364014e-01,-9.044717252254486084e-02,4.991257190704345703e-02
-1.426014304161071777e-01,1.246360838413238525e-01,-1.725704781711101532e-02,-2.743405289947986603e-02,1.062129214406013489e-01,1.029211506247520447e-01,7.748281210660934448e-02,1.795536838471889496e-02,1.341806538403034210e-02
1.723393201828002930e-01,1.657015234231948853e-01,-1.239331364631652832e-01,-3.374847024679183960e-02,-4.071621224284172058e-02,3.402634756639599800e-03,-7.184182852506637573e-02,1.403086334466934204e-01,1.589066833257675171e-01
8.864130824804306030e-02,1.078263670206069946e-01,-2.210744842886924744e-02,-1.924811489880084991e-02,4.727164283394813538e-02,6.875536590814590454e-02,-9.236830472946166992e-02,7.148079574108123779e-02,-5.709719657897949219e-02
-2.025377303361892700e-01,5.814336985349655151e-02,1.236033812165260315e-01,-1.479235142469406128e-01,9.943249821662902832e-02,5.305441468954086304e-02,-2.789475396275520325e-02,5.106142535805702209e-02,1.589707285165786743e-01
2.223477661609649658e-01,1.447299867868423462e-01,1.453088074922561646e-01,-7.596595678478479385e-04,1.452622655779123306e-02,4.483027756214141846e-02,-1.999923586845397949e-01,-2.440879344940185547e-01,-1.965633481740951538e-01
8.583328872919082642e-02,1.587116718292236328e-01,-1.354981213808059692e-01,8.208170533180236816e-02,6.360233575105667114e-02,-1.434335857629776001e-01,4.160235822200775146e-02,5.480542406439781189e-02,1.451343595981597900e-01
6.032399088144302368e-02,4.471645131707191467e-02,4.504039511084556580e-02,1.290857344865798950e-01,1.183824464678764343e-01,9.321428090333938599e-02,-1.862935274839401245e-01,-1.144170612096786499e-01,-1.063731312751770020e-01
-1.277834326028823853e-01,-2.060198485851287842e-01,-1.313281357288360596e-01,1.660229265689849854e-01,1.314264088869094849e-01,3.453045710921287537e-02,7.130730152130126953e-02,1.320447921752929688e-01,7.229863107204437256e-02
1.323309987783432007e-01,4.225206747651100159e-02,1.287158131599426270e-01,-9.590017795562744141e-02,-1.086573898792266846e-01,4.995610937476158142e-02,-7.237328216433525085e-03,4.811202362179756165e-02,9.329136461019515991e-02
1.010816544294357300e-01,-1.395160108804702759e-01,-1.649485528469085693e-01,5.875072628259658813e-02,1.636275053024291992e-01,1.202580109238624573e-01,-5.028704181313514709e-02,7.902616262435913086e-02,1.405290421098470688e-02
6.173979490995407104e-03,7.790468633174896240e-02,9.462331235408782959e-02,-1.942498534917831421e-01,9.065493941307067871e-02,1.320463567972183228e-01,-2.435917258262634277e-01,-3.474562242627143860e-02,1.350305676460266113e-01
2.894203178584575653e-02,1.620128005743026733e-01,2.718501985073089600e-01,-1.932918131351470947e-01,-6.018915027379989624e-02,3.187494575977325439e-01,-2.658559679985046387e-01,-2.572615444660186768e-01,-7.782461121678352356e-03
-2.333058714866638184e-01,-2.319176793098449707e-01,-1.422051712870597839e-02,-4.928068071603775024e-02,1.501399874687194824e-01,1.553377211093902588e-01,9.535825252532958984e-02,6.950598210096359253e-02,1.135502383112907410e-01
-2.514744102954864502e-01,-2.551732063293457031e-01,-2.009526826441287994e-02,-7.687929272651672363e-02,1.196808069944381714e-01,1.036804541945457458e-01,1.584938466548919678e-01,1.390566080808639526e-01,1.160042509436607361e-01
7.728658150881528854e-03,-8.003048598766326904e-02,1.155139580368995667e-01,1.227245554327964783e-01,1.422610431909561157e-01,-4.820698127150535583e-02,3.171092271804809570e-02,-1.427691243588924408e-02,-2.457060106098651886e-02
1.288360506296157837e-01,1.436915248632431030e-01,1.968984007835388184e-01,-1.432938724756240845e-01,-7.470464706420898438e-02,-5.405690148472785950e-02,-1.216404959559440613e-01,-1.323466897010803223e-01,-2.096435427665710449e-01
-1.014227420091629028e-01,1.373771876096725464e-01,2.131295204162597656e-02,5.271762236952781677e-02,1.304962486028671265e-01,-1.729033291339874268e-01,2.773256227374076843e-02,1.472703516483306885e-01,-1.455151587724685669e-01
6.476052105426788330e-02,9.912638366222381592e-02,1.145976036787033081e-01,9.727367013692855835e-02,-2.897262573242187500e-02,5.398331955075263977e-02,7.193619012832641602e-02,4.128960520029067993e-02,7.764872908592224121e-02
1.251854300498962402e-01,-1.795048564672470093e-01,-3.123469948768615723e-01,1.447273790836334229e-01,5.176896229386329651e-02,-6.810355931520462036e-02,1.087253331206738949e-03,1.626773923635482788e-01,1.381462365388870239e-01
-2.335031628608703613e-01,-2.319171130657196045e-01,-1.113714054226875305e-01,1.108379475772380829e-02,-3.545483201742172241e-02,4.936342313885688782e-02,2.215684056282043457e-01,2.214673608541488647e-01,9.971667081117630005e-02
8.282223343849182129e-02,7.883168756961822510e-02,-1.154788210988044739e-02,9.765128791332244873e-02,3.666745871305465698e-02,1.340372022241353989e-02,3.075617738068103790e-02,1.251859962940216064e-01,1.222580224275588989e-01
4.880030080676078796e-02,2.358947098255157471e-01,9.712402522563934326e-02,-1.019529625773429871e-01,-3.320860117673873901e-02,3.123548440635204315e-02,-2.104120701551437378e-01,-5.698311328887939453e-02,2.151685021817684174e-02
4.221481084823608398e-02,1.819979846477508545e-01,1.355982571840286255e-01,1.528004109859466553e-01,1.241342350840568542e-01,-4.615716636180877686e-02,-1.273110508918762207e-02,-2.220433205366134644e-01,-2.200525104999542236e-01
2.405133470892906189e-02,1.041593402624130249e-01,1.155336797237396240e-01,8.250067383050918579e-02,4.013407230377197266e-02,9.245289117097854614e-02,-3.850470855832099915e-02,-1.914021968841552734e-01,-1.445150226354598999e-01
5.128128826618194580e-02,9.571799635887145996e-02,-8.783536404371261597e-02,-1.480688713490962982e-02,1.256406158208847046e-01,2.091114036738872528e-02,1.138255447149276733e-01,-5.745382979512214661e-03,9.270659834146499634e-02
-1.285100281238555908e-01,-3.382867574691772461e-02,-9.914360195398330688e-02,1.127153337001800537e-01,4.101421684026718140e-02,1.248779520392417908e-01,-1.736697182059288025e-02,4.555398970842361450e-02,8.837614953517913818e-02
5.383182317018508911e-02,4.858069121837615967e-02,8.169580996036529541e-02,7.142319530248641968e-02,6.648262590169906616e-02,8.582538925111293793e-03,1.430933326482772827e-01,5.657566711306571960e-02,-6.156956776976585388e-02
-7.138558477163314819e-02,-6.518021970987319946e-02,-1.635128110647201538e-01,2.136404439806938171e-02,5.777909979224205017e-02,1.233206763863563538e-01,5.694349855184555054e-02,6.900509446859359741e-02,7.470297813415527344e-02
3.665339946746826172e-02,-1.068249121308326721e-01,-3.177151083946228027e-01,2.003226429224014282e-01,-8.453577011823654175e-02,2.251148223876953125e-02,1.722557842731475830e-01,8.397663384675979614e-02,5.863086506724357605e-02
9.228781610727310181e-02,1.520919650793075562e-01,1.753146201372146606e-01,1.271133273839950562e-01,1.852888427674770355e-02,-4.829325154423713684e-02,-2.060318142175674438e-01,-1.831821799278259277e-01,-1.982215046882629395e-01
-1.424583494663238525e-01,1.079743728041648865e-01,-2.607165463268756866e-02,-1.833891421556472778e-01,9.152649343013763428e-02,1.515781581401824951e-01,-1.876968592405319214e-01,1.105795279145240784e-01,1.069409847259521484e-01
-1.062370091676712036e-01,-2.355884313583374023e-01,-1.527947187423706055e-01,4.724770784378051758e-02,2.473434247076511383e-02,9.381565451622009277e-02,1.272852867841720581e-01,1.505749672651290894e-01,9.559416770935058594e-02
2.903473563492298126e-02,2.348490357398986816e-01,2.028832286596298218e-01,-2.287216782569885254e-01,-1.000669226050376892e-01,1.873611062765121460e-01,-1.554552018642425537e-01,-1.548802703619003296e-01,-5.026094615459442139e-02
-8.526068180799484253e-02,-2.138497382402420044e-01,-5.926657095551490784e-02,-7.577315717935562134e-02,-5.494831874966621399e-02,-2.741557359695434570e-02,1.965832710266113281e-01,1.941665112972259521e-01,1.060710847377777100e-01
1.192178502678871155e-01,-2.800268232822418213e-01,-2.231245934963226318e-01,6.747339665889739990e-02,-2.397721447050571442e-02,-3.952401503920555115e-02,1.395259499549865723e-01,1.777723282575607300e-01,1.693924814462661743e-01
1.233230158686637878e-01,2.748652175068855286e-02,-1.265679299831390381e-01,8.989122509956359863e-02,5.682216212153434753e-02,-1.887714713811874390e-01,1.144341006875038147e-01,8.639597892761230469e-02,-1.305664628744125366e-01
1.421645730733871460e-01,1.589296907186508179e-01,2.319071069359779358e-02,3.525273501873016357e-02,-2.350139664486050606e-03,5.596634745597839355e-02,8.967894315719604492e-02,-1.234719976782798767e-01,-2.909669280052185059e-01
4.728512093424797058e-02,8.500023186206817627e-02,-6.164838373661041260e-02,1.145180612802505493e-01,1.750180497765541077e-02,1.957509201020002365e-03,-1.589601337909698486e-01,-5.362148862332105637e-03,1.878569833934307098e-02
3.232745826244354248e-02,-5.529846623539924622e-02,9.323659539222717285e-02,-7.860051840543746948e-02,-1.549765234813094139e-03,1.333810761570930481e-02,1.217026449739933014e-02,1.035519093275070190e-01,6.166166812181472778e-02
2.110617905855178833e-01,1.436164528131484985e-01,-7.914686948060989380e-02,1.709850877523422241e-01,-6.855475902557373047e-02,-2.068246752023696899e-01,8.509545773267745972e-02,-2.453348971903324127e-02,-2.257916331291198730e-01
6.896345317363739014e-02,-1.108312383294105530e-01,-1.429224908351898193e-01,1.837431341409683228e-01,-7.357771694660186768e-02,-2.050154805183410645e-01,1.616123765707015991e-01,9.450200945138931274e-02,6.544354557991027832e-02
-1.931730806827545166e-01,5.089545249938964844e-02,8.744513243436813354e-02,-9.082827717065811157e-02,1.578657329082489014e-01,5.488277226686477661e-02,8.553050458431243896e-03,4.772805422544479370e-02,-7.633598893880844116e-02
4.878002032637596130e-02,1.243531331419944763e-01,6.534519046545028687e-02,1.713295839726924896e-02,-1.160825230181217194e-02,-3.305431827902793884e-02,1.023728400468826294e-01,1.059125438332557678e-01,9.840250760316848755e-02
-1.826732978224754333e-02,9.181372076272964478e-02,-5.333077162504196167e-02,7.462649792432785034e-02,1.199300363659858704e-01,1.004253402352333069e-01,7.220691442489624023e-02,1.257675290107727051e-01,3.900683671236038208e-02
1.276402920484542847e-01,2.168302796781063080e-02,-1.909800916910171509e-01,-9.603022783994674683e-02,1.045190319418907166e-01,-2.579964930191636086e-03,-5.171069130301475525e-02,-1.584232598543167114e-02,1.461322307586669922e-01
4.584607854485511780e-02,1.533660590648651123e-01,1.464711725711822510e-01,-2.494898736476898193e-01,-2.048556953668594360e-01,-7.125167548656463623e-02,1.007433161139488220e-01,4.190064594149589539e-02,-6.823392212390899658e-02
-1.707729250192642212e-01,-3.063640892505645752e-01,-8.400747179985046387e-02,6.180009804666042328e-04,4.994317144155502319e-02,-4.282590746879577637e-02,2.050215750932693481e-01,1.575132757425308228e-01,1.507920324802398682e-01
1.188350766897201538e-01,2.224845066666603088e-02,-1.415563970804214478e-01,1.358278393745422363e-01,4.305721074342727661e-02,7.181467860937118530e-02,5.130468681454658508e-02,1.438981592655181885e-01,1.201961115002632141e-01
2.916778903454542160e-03,1.122298240661621094e-01,1.514815841801464558e-03,5.483697354793548584e-02,1.651683822274208069e-02,1.069532036781311035e-01,-1.741295158863067627e-01,-1.022243052721023560e-01,4.312637820839881897e-02
8.285494521260261536e-03,1.290239095687866211e-01,-6.577681005001068115e-02,1.574940383434295654e-01,5.554039403796195984e-02,-2.861039899289608002e-02,1.122898161411285400e-01,1.321914196014404297e-01,-2.312560006976127625e-02
-2.484908849000930786e-01,-2.315345406532287598e-02,2.627677842974662781e-02,5.760913714766502380e-02,2.864196524024009705e-02,1.862843036651611328e-01,1.150051727890968323e-01,6.381462514400482178e-02,6.451847404241561890e-02
1.119317635893821716e-01,1.427756398916244507e-01,6.252396851778030396e-02,1.137328594923019409e-01,1.579524762928485870e-02,7.878307998180389404e-02,-4.239460977260023355e-04,1.280382126569747925e-01,2.940280176699161530e-02
1.592112183570861816e-01,1.236866936087608337e-01,9.103307873010635376e-02,9.603704512119293213e-02,5.607832595705986023e-02,-1.350770890712738037e-01,6.830157339572906494e-02,2.586352638900279999e-02,-1.706397086381912231e-01
6.309161335229873657e-02,4.074782133102416992e-02,-2.254953384399414062e-01,1.995257139205932617e-01,-7.250934839248657227e-02,-1.979288309812545776e-01,1.007126346230506897e-01,1.455005109310150146e-01,-6.039276719093322754e-02
1.503833979368209839e-01,9.614293277263641357e-02,1.537139415740966797e-01,8.543070405721664429e-02,-4.447875544428825378e-02,4.261340573430061340e-02,-2.292681932449340820e-01,-9.199516475200653076e-02,-1.261384934186935425e-01
5.738589167594909668e-02,-1.469397172331809998e-02,5.681128799915313721e-02,-2.154387038899585605e-05,-1.001647785305976868e-01,7.805252075195312500e-02,7.517813891172409058e-02,6.214443966746330261e-02,-6.991060823202133179e-02
-1.604360155761241913e-02,-8.929088711738586426e-03,-4.375242069363594055e-02,-6.234669126570224762e-03,1.241779550909996033e-01,-2.036391496658325195e-01,1.185077428817749023e-01,1.497124284505844116e-01,-6.287039816379547119e-02
8.498636633157730103e-02,-3.717754036188125610e-02,1.694887690246105194e-02,-3.960262611508369446e-02,2.567412145435810089e-02,-1.631202921271324158e-02,-2.000825293362140656e-02,5.760686844587326050e-02,5.436750873923301697e-02
-3.445624411106109619e-01,-4.835593327879905701e-02,1.078924313187599182e-01,-2.546276748180389404e-01,1.351284533739089966e-01,1.841445118188858032e-01,-9.958007186651229858e-02,1.551374495029449463e-01,7.595860213041305542e-02
3.481908887624740601e-02,4.830633476376533508e-02,4.265353828668594360e-02,6.009729206562042236e-02,9.411849081516265869e-02,1.309555172920227051e-01,-3.290715068578720093e-02,-1.081693395972251892e-01,5.331345647573471069e-02
4.674481973052024841e-02,5.743481591343879700e-02,1.346150636672973633e-01,7.742875069379806519e-02,1.349558979272842407e-01,4.474308714270591736e-02,-1.291328221559524536e-01,-2.339636981487274170e-01,-1.149281263351440430e-01
1.750461198389530182e-02,1.878186613321304321e-01,1.975006014108657837e-01,-3.646721690893173218e-02,1.100664399564266205e-02,4.228220507502555847e-02,-1.877029538154602051e-01,-2.352354526519775391e-01,2.746727131307125092e-02
1.462486982345581055e-01,1.416217833757400513e-01,2.350228466093540192e-02,1.156155467033386230e-01,-1.476589310914278030e-02,-9.374818205833435059e-02,1.462281942367553711e-01,-3.293886780738830566e-02,-1.835020333528518677e-01
8.201495558023452759e-02,-2.457246929407119751e-02,1.237340569496154785e-01,9.999231994152069092e-02,3.047300502657890320e-02,-9.830646216869354248e-02,-1.405079662799835205e-01,-7.103610038757324219e-02,6.086183339357376099e-02
-1.174710020422935486e-01,-2.319899387657642365e-02,2.238798700273036957e-02,-1.175814494490623474e-01,1.543752402067184448e-01,8.689402788877487183e-02,9.186773002147674561e-02,7.329715788364410400e-02,2.060127072036266327e-02
-3.629388213157653809e-01,-1.371345967054367065e-01,1.399487107992172241e-01,-2.784884870052337646e-01,1.038236096501350403e-01,1.323720961809158325e-01,-1.856063604354858398e-01,1.194866523146629333e-01,1.644418239593505859e-01
1.611314117908477783e-01,1.301176995038986206e-01,6.062086671590805054e-02,6.602221727371215820e-02,-4.737458750605583191e-02,-1.966833472251892090e-01,1.196160241961479187e-01,-6.870718300342559814e-02,-1.739047914743423462e-01
1.236381679773330688e-01,1.038567721843719482e-01,2.264909297227859497e-01,-1.268154233694076538e-01,-1.874788254499435425e-01,-7.876352220773696899e-02,1.933619007468223572e-02,3.180629387497901917e-02,-9.787725657224655151e-02
5.652946606278419495e-02,6.668823212385177612e-02,1.209931224584579468e-01,1.440465301275253296e-01,4.883247613906860352e-02,7.077043503522872925e-02,-3.769743815064430237e-02,1.220392733812332153e-01,-6.422518193721771240e-02
9.026358835399150848e-03,-2.904273755848407745e-02,-1.413764059543609619e-01,1.302693784236907959e-01,1.112275496125221252e-01,2.509541437029838562e-02,1.587507687509059906e-02,7.387742400169372559e-02,2.762943506240844727e-02
-1.192914173007011414e-01,-1.586572974920272827e-01,-7.284463942050933838e-02,1.431871801614761353e-01,4.706249013543128967e-02,3.521473333239555359e-02,6.397575139999389648e-02,-8.691970724612474442e-04,9.083524346351623535e-02
6.796515733003616333e-02,8.787375688552856445e-02,1.738417893648147583e-01,1.945687085390090942e-01,6.581876426935195923e-02,-1.630526036024093628e-01,9.459270536899566650e-02,-1.636877954006195068e-01,-1.714498549699783325e-01
1.129288077354431152e-01,7.087560743093490601e-02,-1.489216834306716919e-01,8.567173033952713013e-02,-4.970527952536940575e-04,-1.324948817491531372e-01,9.880480170249938965e-02,1.119270622730255127e-01,6.135651841759681702e-02
1.011741980910301208e-01,4.312079772353172302e-02,-1.292851716279983521e-01,8.380628377199172974e-02,1.063993796706199646e-01,1.374232470989227295e-01,-1.232236176729202271e-01,-1.421272405423223972e-03,1.062436103820800781e-01
-2.332001775503158569e-01,-1.824017167091369629e-01,1.763713955879211426e-01,-3.108269274234771729e-01,1.613264381885528564e-01,1.027666330337524414e-01,-5.749315395951271057e-02,1.578109562397003174e-01,1.136549934744834900e-01
4.576483741402626038e-02,1.020634546875953674e-01,2.170061320066452026e-01,4.021063819527626038e-02,5.075710639357566833e-02,-2.519228868186473846e-02,-1.478322446346282959e-01,-1.673114895820617676e-01,-1.085933148860931396e-01
-1.163524240255355835e-01,2.890264987945556641e-02,1.032298654317855835e-01,1.838427037000656128e-01,1.051226630806922913e-01,7.668471429497003555e-03,3.063427098095417023e-02,-1.384268142282962799e-02,3.372343257069587708e-02
1.040569990873336792e-01,-1.577174104750156403e-02,-7.617648690938949585e-02,5.810790881514549255e-02,8.663813769817352295e-02,-1.361209452152252197e-01,1.017689034342765808e-01,-4.306924343109130859e-02,-3.358821617439389229e-03
-9.650452062487602234e-03,1.451656073331832886e-01,1.158258616924285889e-01,1.030592322349548340e-01,3.089853562414646149e-02,1.346529424190521240e-01,-2.057332545518875122e-01,-2.486843913793563843e-01,-5.728655681014060974e-02
-3.870825171470642090e-01,-2.980173826217651367e-01,-2.358731478452682495e-01,-1.230805069208145142e-01,-6.174033042043447495e-03,8.875645697116851807e-03,3.093510679900646210e-02,2.341292798519134521e-01,1.989885568618774414e-01
7.838814705610275269e-02,7.457775622606277466e-02,-2.038863599300384521e-01,1.502294838428497314e-01,1.902051270008087158e-02,-1.663649976253509521e-01,5.156849697232246399e-02,1.887703090906143188e-01,-1.488209515810012817e-02
2.011479139328002930e-01,1.849687658250331879e-02,5.346909165382385254e-02,1.315643936395645142e-01,1.578166708350181580e-02,1.433990746736526489e-01,-5.254055559635162354e-02,-1.603409796953201294e-01,-2.678614854812622070e-01
1.334204673767089844e-01,2.404366992413997650e-02,7.296008057892322540e-03,9.122581779956817627e-02,1.193346306681632996e-01,-2.871490828692913055e-02,-1.171398833394050598e-01,3.535773605108261108e-02,1.060859933495521545e-01
-1.844619065523147583e-01,6.226448342204093933e-02,6.874390691518783569e-02,-1.777787357568740845e-01,-5.339731276035308838e-02,1.667807847261428833e-01,-3.803491964936256409e-02,1.572247445583343506e-01,1.777036637067794800e-01
5.653841793537139893e-02,7.028278708457946777e-02,6.784036755561828613e-02,-2.439443580806255341e-02,-3.733372315764427185e-02,1.802001893520355225e-02,7.048526406288146973e-02,7.580200582742691040e-02,1.046534329652786255e-01
-8.204752579331398010e-03,1.540452986955642700e-01,-8.570005744695663452e-02,2.247454971075057983e-02,1.032217741012573242e-01,1.150676831603050232e-01,1.219091638922691345e-01,2.178406156599521637e-02,6.572249694727361202e-04
-7.360450923442840576e-02,-1.912968158721923828e-01,-8.020392060279846191e-02,1.459043920040130615e-01,-3.127882257103919983e-02,1.607295721769332886e-01,1.136737316846847534e-01,1.377733498811721802e-01,-4.510805755853652954e-02
1.607049554586410522e-01,4.246123880147933960e-02,-2.115709632635116577e-01,-3.583183512091636658e-02,1.679164916276931763e-01,-3.321499750018119812e-02,-1.192248910665512085e-01,1.588454246520996094e-01,-6.585592776536941528e-02
-1.857107505202293396e-03,2.940849214792251587e-02,1.598992794752120972e-01,1.121366471052169800e-01,4.811487346887588501e-02,9.821984171867370605e-02,-1.160842105746269226e-01,-2.127579748630523682e-01,-1.106097474694252014e-01
9.369375556707382202e-02,1.471399515867233276e-01,-5.108091607689857483e-02,1.719540171325206757e-02,-1.188610773533582687e-02,2.545155119150876999e-03,5.776968225836753845e-02,1.341939568519592285e-01,4.926979541778564453e-02
2.041776850819587708e-02,1.459832042455673218e-01,4.329989477992057800e-02,1.496969610452651978e-01,-3.745364397764205933e-02,-1.118776798248291016e-01,9.978719055652618408e-02,1.342461556196212769e-01,-5.895200744271278381e-02
-1.940056830644607544e-01,-9.747784584760665894e-02,2.843412943184375763e-02,-1.968962848186492920e-01,-3.673950908705592155e-03,1.918344497680664062e-01,-1.323117688298225403e-02,1.659292280673980713e-01,1.208637356758117676e-01
-1.277182549238204956e-01,-1.181814968585968018e-01,-2.291557192802429199e-01,1.866260468959808350e-01,-7.872154936194419861e-03,6.726241111755371094e-02,1.333177788183093071e-03,1.590819507837295532e-01,6.745103746652603149e-02
5.899652838706970215e-02,1.498043686151504517e-01,1.053435280919075012e-01,-3.569325897842645645e-03,-2.172639407217502594e-02,1.278594881296157837e-01,-9.769557043910026550e-03,8.452238515019416809e-03,1.137806940823793411e-02
1.947039961814880371e-01,1.813825666904449463e-01,1.008060723543167114e-01,-4.769456014037132263e-02,4.203658923506736755e-02,-4.802288115024566650e-02,-2.089384049177169800e-01,-2.237487286329269409e-01,-5.302844941616058350e-02
1.548087894916534424e-01,1.696161925792694092e-01,-7.953082770109176636e-02,6.800660397857427597e-03,3.440844267606735229e-02,-2.214872986078262329e-01,-2.669916450977325439e-01,-3.618969619274139404e-01,-1.314040720462799072e-01
-7.069313526153564453e-02,1.129363626241683960e-01,8.930963277816772461e-02,7.878371980041265488e-04,4.975334554910659790e-02,3.138420358300209045e-02,1.050872951745986938e-01,1.019329950213432312e-01,-4.847523570060729980e-02
6.226195394992828369e-02,1.320115178823471069e-01,9.085743874311447144e-02,3.212605789303779602e-02,9.707867354154586792e-02,3.655619546771049500e-02,-2.858578972518444061e-02,6.240528076887130737e-02,9.217056632041931152e-02
1.977078169584274292e-01,8.501899987459182739e-02,1.223683953285217285e-01,1.173290833830833435e-01,4.761364310979843140e-02,-1.245711892843246460e-01,6.745308055542409420e-04,-2.144156396389007568e-01,-2.015535533428192139e-01
1.176421418786048889e-01,8.066335320472717285e-02,2.642576117068529129e-03,5.912833288311958313e-02,1.627570688724517822e-01,9.174436330795288086e-02,-1.803612411022186279e-01,-3.138851001858711243e-02,-8.799567818641662598e-02
1.276637464761734009e-01,9.591735899448394775e-02,1.459426581859588623e-01,4.911109060049057007e-02,2.607083134353160858e-02,4.896013066172599792e-02,-2.107964605093002319e-01,-1.632207781076431274e-01,-1.477475315332412720e-01
1.076619178056716919e-01,1.541257277131080627e-02,-1.838303804397583008e-01,1.347637921571731567e-01,1.865169592201709747e-02,1.765479147434234619e-01,-8.926587551832199097e-02,8.006174862384796143e-02,-1.400226913392543793e-02
-1.469416916370391846e-01,-2.083056047558784485e-02,8.589645475149154663e-02,-1.189369857311248779e-01,6.539070606231689453e-02,6.541733443737030029e-02,6.543048471212387085e-02,1.594958007335662842e-01,3.728197887539863586e-02
-2.262626886367797852e-01,-1.606324911117553711e-01,1.021260619163513184e-01,-1.480590403079986572e-01,9.575640782713890076e-03,2.480357885360717773e-02,2.911277487874031067e-02,1.088543459773063660e-01,1.609391421079635620e-01
-1.076763942837715149e-01,-3.860702365636825562e-02,3.427352011203765869e-02,-1.486668139696121216e-01,-5.015484616160392761e-02,1.009105518460273743e-01,-1.311416774988174438e-01,-5.954885855317115784e-02,1.654344350099563599e-01
2.959478646516799927e-02,1.044502183794975281e-01,-9.526017121970653534e-03,6.114853173494338989e-02,8.211371302604675293e-02,-1.310243159532546997e-01,1.075009405612945557e-01,1.137944590300321579e-02,-7.571394741535186768e-02
9.198545664548873901e-02,1.229874268174171448e-01,7.697429042309522629e-03,-4.693780560046434402e-03,1.530206054449081421e-01,-4.041838273406028748e-02,9.040382690727710724e-03,3.335744887590408325e-02,-1.098153367638587952e-01
-1.126575767993927002e-01,1.198259890079498291e-01,1.830917596817016602e-01,1.429059803485870361e-01,7.055457681417465210e-02,5.346375331282615662e-02,-1.702970475889742374e-03,3.447508439421653748e-02,-5.253518745303153992e-02
7.416708022356033325e-02,2.974508330225944519e-02,-1.244098693132400513e-02,8.450097590684890747e-02,1.558280885219573975e-01,5.592774227261543274e-02,-2.204755395650863647e-01,-1.450590640306472778e-01,-8.135669864714145660e-03
9.585363417863845825e-02,7.826701551675796509e-02,-9.123390540480613708e-03,1.271407455205917358e-01,1.577344238758087158e-01,9.429987519979476929e-02,-2.324714213609695435e-01,-8.530617505311965942e-02,3.189535066485404968e-02
-1.308252066373825073e-01,-2.560854852199554443e-01,-1.042897477746009827e-01,1.033378168940544128e-01,-8.778867311775684357e-03,6.469759158790111542e-03,8.674012124538421631e-02,2.118447721004486084e-01,7.145693898200988770e-02
1.843452900648117065e-01,7.535784039646387100e-03,-3.146899864077568054e-02,1.518726944923400879e-01,1.106388270854949951e-01,7.580170780420303345e-02,-5.284907296299934387e-02,4.975739493966102600e-02,8.788871020078659058e-02
2.610456757247447968e-02,-3.348332643508911133e-01,-1.765586137771606445e-01,-3.875228464603424072e-01,-1.041858717799186707e-01,1.253460198640823364e-01,-2.397913336753845215e-01,1.347227692604064941e-01,2.774997055530548096e-01
1.274081617593765259e-01,7.309796661138534546e-02,-8.164507150650024414e-02,1.758347153663635254e-01,-7.944874465465545654e-03,-1.964334398508071899e-01,6.812781095504760742e-02,-5.781112238764762878e-02,-1.347351670265197754e-01
1.671831160783767700e-01,-1.231802478432655334e-01,-1.286015957593917847e-01,9.989058971405029297e-02,1.050964295864105225e-01,1.593569368124008179e-01,7.835672236979007721e-03,-2.111922204494476318e-02,1.232939399778842926e-02
2.541369199752807617e-01,2.550399303436279297e-01,6.217413768172264099e-02,1.834559440612792969e-01,3.618922829627990723e-02,-6.182719022035598755e-02,-6.515415757894515991e-02,-3.229517638683319092e-01,-2.863125503063201904e-01
1.511282026767730713e-01,-7.886143028736114502e-02,-1.125294119119644165e-01,1.448032557964324951e-01,1.576344668865203857e-02,-2.079731412231922150e-02,1.092485035769641399e-03,1.094905883073806763e-01,1.245365813374519348e-01
1.452497243881225586e-01,4.498500004410743713e-02,-1.900048851966857910e-01,1.672301441431045532e-01,-1.594542991369962692e-03,-2.871509194374084473e-01,-6.404974311590194702e-02,-2.682382762432098389e-01,-1.390783339738845825e-01
5.837870389223098755e-02,-1.407072246074676514e-01,-1.437504142522811890e-01,1.244472786784172058e-01,1.157117411494255066e-01,1.730113327503204346e-01,9.310141950845718384e-02,1.185903176665306091e-01,7.249467074871063232e-03
5.839811637997627258e-02,2.353658378124237061e-01,1.792369484901428223e-01,1.238137036561965942e-01,2.278063446283340454e-03,-2.266901284456253052e-01,3.231894597411155701e-02,-2.350819110870361328e-01,-1.558195054531097412e-01
1.898568570613861084e-01,-1.861131489276885986e-01,-3.984024822711944580e-01,7.835853844881057739e-02,1.130043342709541321e-01,-1.736900359392166138e-01,1.405281871557235718e-01,1.427901685237884521e-01,1.621252000331878662e-01
-2.131620645523071289e-01,6.966248899698257446e-02,1.663977503776550293e-01,6.848218850791454315e-03,-2.301669120788574219e-02,9.873057156801223755e-02,1.126071140170097351e-01,4.956361372023820877e-03,4.118042066693305969e-02
7.396312057971954346e-02,8.032633364200592041e-02,2.684832923114299774e-02,1.129472330212593079e-01,6.271470338106155396e-02,-8.425197005271911621e-02,1.523390263319015503e-01,-1.260863523930311203e-02,-1.746631562709808350e-01
1.815488785505294800e-01,6.171370670199394226e-02,1.231300532817840576e-01,6.436727941036224365e-02,-5.275804921984672546e-02,-1.373210400342941284e-01,-2.009996026754379272e-02,-2.228374220430850983e-02,-1.323369741439819336e-01
-5.891490727663040161e-03,1.340888440608978271e-01,3.228155151009559631e-02,5.664743110537528992e-02,3.837325423955917358e-02,1.362081766128540039e-01,-1.578714139759540558e-02,7.116432487964630127e-02,6.889514625072479248e-02
1.895886030979454517e-03,1.605564951896667480e-01,1.968514472246170044e-01,1.609550416469573975e-01,8.766601979732513428e-02,-1.604158878326416016e-01,2.951171807944774628e-02,-1.027835682034492493e-01,-2.342301905155181885e-01
-6.065007299184799194e-02,-9.035421907901763916e-02,-7.256845384836196899e-02,-5.721724778413772583e-02,-5.301832780241966248e-02,-1.064629852771759033e-02,-8.647138625383377075e-02,-8.580267429351806641e-02,-1.134550571441650391e-02
-6.095346994698047638e-03,2.434337511658668518e-02,1.865111477673053741e-02,1.509979069232940674e-01,2.836938574910163879e-02,-3.802586719393730164e-02,7.747942954301834106e-02,7.162100821733474731e-02,1.170354783535003662e-01
5.090390145778656006e-02,4.255338758230209351e-02,1.450711190700531006e-01,-4.186435416340827942e-02,9.743842482566833496e-02,2.680094540119171143e-02,-2.196538299322128296e-01,-2.488221675157546997e-01,-2.362642139196395874e-01
1.060224547982215881e-01,1.014175117015838623e-01,-1.385261565446853638e-01,1.135453581809997559e-01,1.456717960536479950e-02,9.438840299844741821e-02,-1.166591537185013294e-03,2.648367919027805328e-02,1.689664460718631744e-02
-6.915108114480972290e-02,1.564267836511135101e-02,9.109446406364440918e-02,1.181046292185783386e-02,7.667670398950576782e-02,1.755459606647491455e-01,-3.783088549971580505e-02,7.605271786451339722e-02,-3.915219753980636597e-02
8.905053883790969849e-02,5.883253365755081177e-02,1.975956112146377563e-01,1.204924099147319794e-02,-5.154537409543991089e-02,-4.924254491925239563e-02,-2.348223924636840820e-01,-1.046275794506072998e-01,1.363462675362825394e-02
8.274486660957336426e-02,3.701962903141975403e-02,-3.383596241474151611e-01,6.085081025958061218e-02,-4.739662632346153259e-02,-1.769830882549285889e-01,2.023486495018005371e-01,1.846507638692855835e-01,5.101037397980690002e-02
9.450107812881469727e-02,1.652486175298690796e-01,8.999887108802795410e-02,2.986862789839506149e-03,1.654028743505477905e-01,1.809075921773910522e-01,-1.609304845333099365e-01,-6.501028686761856079e-02,-1.449518185108900070e-02
1.876396685838699341e-02,1.565426141023635864e-01,-6.080274935811758041e-03,-1.718600392341613770e-01,9.054517745971679688e-02,1.053540334105491638e-01,-1.550033837556838989e-01,1.250231415033340454e-01,1.530043780803680420e-01
7.945460081100463867e-02,1.378912329673767090e-01,1.118270680308341980e-01,-1.460721194744110107e-01,2.529044076800346375e-02,1.901687085628509521e-01,-2.896264791488647461e-01,-1.621653884649276733e-01,1.430816650390625000e-01
4.899863526225090027e-02,7.638017088174819946e-02,1.390179097652435303e-01,1.139571964740753174e-01,-4.757010191679000854e-02,1.785286366939544678e-01,-5.363472178578376770e-02,-2.485169470310211182e-01,-1.111965849995613098e-01
1.445572525262832642e-01,1.813973039388656616e-01,5.833451822400093079e-02,-1.819283068180084229e-01,-1.428202092647552490e-01,8.470055460929870605e-02,-2.600586116313934326e-01,-9.065065532922744751e-02,2.299152016639709473e-01
1.629268825054168701e-01,2.303072512149810791e-01,5.302698910236358643e-02,8.623977191746234894e-03,-1.826469749212265015e-01,-2.781696915626525879e-01,2.826113812625408173e-02,-2.075807750225067139e-01,1.967739313840866089e-01
7.294146716594696045e-02,-2.401178628206253052e-01,-3.277218341827392578e-01,2.047348916530609131e-01,1.547252833843231201e-01,-4.840377718210220337e-02,2.314325235784053802e-02,3.584440797567367554e-02,1.870010793209075928e-01
9.952132403850555420e-02,-1.022565993480384350e-03,9.215056896209716797e-02,2.029628679156303406e-02,1.082084998488426208e-01,-9.870393574237823486e-02,1.215648725628852844e-01,5.324045196175575256e-02,-2.869005687534809113e-02
1.267573684453964233e-01,6.574174761772155762e-02,-1.956519782543182373e-01,9.443385899066925049e-02,3.823671862483024597e-02,-1.957627683877944946e-01,7.201054692268371582e-02,8.898025751113891602e-02,-1.194778829813003540e-01
-2.240987420082092285e-01,3.810937749221920967e-03,1.629619747400283813e-01,-1.776871681213378906e-01,2.768200449645519257e-02,8.723833411931991577e-02,-6.792889535427093506e-02,1.029725596308708191e-01,1.139973551034927368e-01
-2.140201479196548462e-01,-2.332092523574829102e-01,-1.522349417209625244e-01,5.519048124551773071e-02,-3.445649892091751099e-02,6.190432608127593994e-02,8.641033619642257690e-02,2.285930067300796509e-01,2.268369793891906738e-01
8.569663763046264648e-02,1.224461942911148071e-01,1.456204354763031006e-01,-3.881303966045379639e-02,5.889302119612693787e-02,1.014416143298149109e-01,-2.112776935100555420e-01,-2.243772298097610474e-01,-8.717343956232070923e-02
1.109109371900558472e-01,1.234818249940872192e-01,-1.047566086053848267e-01,7.299355417490005493e-02,-2.629846520721912384e-02,-1.096798628568649292e-01,1.131884008646011353e-01,9.947637468576431274e-02,5.613707005977630615e-02
-1.062901392579078674e-01,-8.485399186611175537e-02,8.741489797830581665e-02,-4.694011062383651733e-03,2.378406189382076263e-02,1.274859160184860229e-01,5.356862768530845642e-02,7.166908681392669678e-02,-1.072794012725353241e-02
-1.265747845172882080e-01,-2.517091631889343262e-01,-1.259556412696838379e-01,1.360392719507217407e-01,6.371732056140899658e-02,6.511424481868743896e-02,1.103329733014106750e-01,5.960546806454658508e-02,4.798588156700134277e-02
1.685884892940521240e-01,1.524168998003005981e-01,-1.408258676528930664e-01,1.627468615770339966e-01,-5.730754882097244263e-02,-1.950467079877853394e-01,3.317232429981231689e-02,-4.729974642395973206e-02,-7.590227574110031128e-02
-1.406246889382600784e-02,-2.312745451927185059e-01,-7.706887274980545044e-02,2.992744557559490204e-02,-8.197257667779922485e-02,-8.029329031705856323e-02,1.995204687118530273e-01,1.178757324814796448e-01,9.342323243618011475e-02
-6.732922792434692383e-02,9.942426532506942749e-02,2.665176987648010254e-02,1.290702521800994873e-01,1.152945309877395630e-01,1.181908771395683289e-01,4.342350363731384277e-02,-9.563504904508590698e-02,6.623292714357376099e-02
1.080838032066822052e-02,1.603976041078567505e-01,-3.948670625686645508e-02,9.822341799736022949e-02,1.704078167676925659e-01,1.264023184776306152e-01,-5.859348922967910767e-02,-9.471249580383300781e-02,-6.759063154458999634e-02
1.335386335849761963e-01,1.722860932350158691e-01,8.712819218635559082e-02,1.002208366990089417e-01,7.100760936737060547e-02,-1.330271512269973755e-01,2.152287028729915619e-02,5.502448976039886475e-02,-1.544470936059951782e-01
9.845678508281707764e-02,-5.250585079193115234e-02,1.052699610590934753e-02,1.139562875032424927e-01,8.867419511079788208e-02,5.889271944761276245e-02,3.482384979724884033e-02,8.662071079015731812e-02,9.551528841257095337e-02
-4.056052863597869873e-02,-2.152130603790283203e-01,-9.384290874004364014e-02,-4.450010508298873901e-02,1.379204094409942627e-01,1.739941239356994629e-01,1.447804570198059082e-01,8.122469484806060791e-02,-3.420826792716979980e-02
6.756028532981872559e-02,1.480637192726135254e-01,1.351543217897415161e-01,-9.839714318513870239e-02,-4.013937711715698242e-02,6.560031324625015259e-02,-2.511803805828094482e-02,-1.789765805006027222e-01,3.130587935447692871e-02
-2.732212841510772705e-01,-1.238852962851524353e-01,7.226078212261199951e-02,-9.851401299238204956e-02,3.321617841720581055e-02,1.240652799606323242e-01,1.574245095252990723e-01,2.234034687280654907e-01,3.822056204080581665e-02
7.037883996963500977e-02,1.150217652320861816e-01,1.132500730454921722e-02,2.705520391464233398e-02,9.662757813930511475e-02,1.351470798254013062e-01,-3.792891651391983032e-02,-2.316110581159591675e-01,-5.485470965504646301e-02
1.461740583181381226e-01,2.449042350053787231e-02,-1.512036770582199097e-01,1.292342990636825562e-01,-4.939631372690200806e-02,-1.087966188788414001e-01,1.286885589361190796e-01,1.256360113620758057e-02,-1.330390721559524536e-01
-2.756770551204681396e-01,-3.826730251312255859e-01,-3.430818617343902588e-01,-2.581638097763061523e-01,-6.114951521158218384e-02,1.425866335630416870e-01,-1.023519635200500488e-01,1.804482042789459229e-01,3.362788856029510498e-01
-1.369640380144119263e-01,-1.010973528027534485e-01,-1.079195067286491394e-01,2.862521260976791382e-02,-6.886234879493713379e-02,-2.999326214194297791e-02,1.504615247249603271e-01,1.075052693486213684e-01,1.650318205356597900e-01
-6.806580722332000732e-02,1.128413230180740356e-01,6.113724410533905029e-02,1.745806485414505005e-01,1.398697942495346069e-01,-5.235617049038410187e-03,1.060367152094841003e-01,-1.664842814207077026e-01,-1.991011798381805420e-01
1.535789668560028076e-01,2.900251559913158417e-02,-1.484525054693222046e-01,7.765666395425796509e-02,-7.813558913767337799e-03,-2.127425521612167358e-01,1.636282056570053101e-01,1.720829457044601440e-01,1.425118371844291687e-02
3.798203170299530029e-02,1.310157179832458496e-01,1.466819494962692261e-01,1.039556860923767090e-01,4.623597860336303711e-02,6.672702729701995850e-02,-4.140716046094894409e-02,-1.445101797580718994e-01,-9.029033035039901733e-02
-5.311159789562225342e-02,9.773414582014083862e-02,1.230220273137092590e-01,1.465909481048583984e-01,1.544653624296188354e-01,1.088395118713378906e-01,9.214510768651962280e-02,7.567606866359710693e-02,9.628856182098388672e-02
1.626484096050262451e-01,1.644607484340667725e-01,1.592097729444503784e-01,5.229530856013298035e-02,3.145240247249603271e-02,-5.940600857138633728e-02,-3.699927404522895813e-02,-8.743283897638320923e-02,-2.398767173290252686e-01
-1.803957819938659668e-01,-2.148270756006240845e-01,-5.336515232920646667e-02,1.972262002527713776e-02,6.748624145984649658e-02,5.142387375235557556e-02,1.495923548936843872e-01,1.276060193777084351e-01,2.188577689230442047e-02
-1.781875267624855042e-02,-2.202271111309528351e-02,7.757291663438081741e-03,1.191441714763641357e-01,9.872087091207504272e-02,1.061782240867614746e-01,8.647824823856353760e-02,-3.929018601775169373e-02,2.705468237400054932e-02
2.404056116938591003e-02,-5.382266640663146973e-02,9.094042330980300903e-02,1.217879354953765869e-01,4.602141305804252625e-02,1.155598536133766174e-01,1.095372438430786133e-01,-1.161335855722427368e-01,3.443963453173637390e-02
9.566739946603775024e-02,1.025397479534149170e-01,-3.855040296912193298e-02,4.924156889319419861e-02,2.319594472646713257e-02,-2.254955284297466278e-02,1.018367633223533630e-01,6.224458664655685425e-02,-4.031952843070030212e-02
1.885156147181987762e-02,1.376502364873886108e-01,1.489685326814651489e-01,1.082636602222919464e-02,1.016337722539901733e-01,-3.283133357763290405e-02,5.014293640851974487e-02,-9.554016590118408203e-02,-2.502632737159729004e-01
1.233226507902145386e-01,1.362054049968719482e-01,-1.120498999953269958e-01,3.603745996952056885e-02,1.223337054252624512e-01,-1.254368871450424194e-01,1.870868541300296783e-02,1.546658873558044434e-01,-3.528048098087310791e-02
-9.253092855215072632e-02,-1.224713698029518127e-01,1.142785027623176575e-01,-1.906043589115142822e-01,-6.083351373672485352e-02,1.538937240839004517e-01,-1.222108900547027588e-01,-5.753735825419425964e-02,1.918380409479141235e-01
-5.424794554710388184e-02,-1.599984467029571533e-01,-4.782638698816299438e-02,2.315897867083549500e-02,-7.124437391757965088e-02,-1.374804228544235229e-01,2.291845679283142090e-01,5.778877809643745422e-02,4.700338467955589294e-02
1.560852676630020142e-01,-5.504258349537849426e-02,-1.338698267936706543e-01,1.763937324285507202e-01,-7.992982864379882812e-02,-2.085387706756591797e-01,1.853752322494983673e-02,-1.371810436248779297e-01,-2.168143093585968018e-01
-1.469334810972213745e-01,1.029545292258262634e-01,6.544765830039978027e-02,4.218245297670364380e-02,1.118930801749229431e-01,-6.672930717468261719e-02,2.177200652658939362e-02,3.933006152510643005e-02,-5.981643497943878174e-02
-1.142898574471473694e-01,-1.680108904838562012e-01,-1.171533837914466858e-01,4.872524365782737732e-02,-6.351868808269500732e-02,-1.066233403980731964e-02,1.751455217599868774e-01,1.398224681615829468e-01,2.611781843006610870e-02
1.629628688097000122e-01,1.707541048526763916e-01,1.893956512212753296e-01,-4.195023700594902039e-02,-2.006042562425136566e-02,3.732220083475112915e-02,-2.303165197372436523e-01,-1.632477492094039917e-01,-1.496716141700744629e-01
5.559989809989929199e-02,7.883667945861816406e-02,-2.874019369482994080e-02,4.944822937250137329e-02,-8.525510318577289581e-03,1.120192110538482666e-01,-6.010669097304344177e-02,9.731593728065490723e-02,9.163732081651687622e-02
-5.935698747634887695e-03,1.434242576360702515e-01,6.493239849805831909e-02,1.683882623910903931e-01,2.491502091288566589e-02,5.531459674239158630e-02,-1.696345657110214233e-01,-1.882680654525756836e-01,-1.049705296754837036e-01
1.490027010440826416e-01,4.439501464366912842e-02,-9.209236502647399902e-02,2.386575378477573395e-02,1.569389104843139648e-01,1.199377998709678650e-01,5.517166107892990112e-02,8.067970722913742065e-02,1.016431897878646851e-01
-2.787300199270248413e-02,1.028911694884300232e-01,5.286809429526329041e-02,1.269010156393051147e-01,1.892685741186141968e-01,-1.035234108567237854e-01,1.581278443336486816e-01,-1.116295009851455688e-01,-2.827467918395996094e-01
1.051372662186622620e-01,6.512469798326492310e-02,5.459195375442504883e-02,5.989969894289970398e-02,-1.568582095205783844e-02,-3.984472528100013733e-02,1.183554828166961670e-01,5.543775483965873718e-02,3.576926514506340027e-02
1.291548758745193481e-01,1.234453916549682617e-02,-8.453443646430969238e-02,2.117560245096683502e-02,6.873991340398788452e-02,-2.419939637184143066e-01,1.613645404577255249e-01,1.538009792566299438e-01,-1.180801019072532654e-01
1.110505461692810059e-01,-5.649312958121299744e-02,-1.500679850578308105e-01,8.561778813600540161e-02,4.060998558998107910e-02,-2.651987224817276001e-02,1.171898320317268372e-01,1.003549546003341675e-01,8.593516796827316284e-02
9.245136380195617676e-02,2.510379441082477570e-02,-1.342211365699768066e-01,1.702941060066223145e-01,3.365292772650718689e-02,-1.625707596540451050e-01,-1.948688528500497341e-03,1.840764135122299194e-01,-9.402570873498916626e-02
2.484471946954727173e-01,7.934718579053878784e-02,-1.669583320617675781e-01,6.485453248023986816e-02,5.750030744820833206e-03,-1.875741481781005859e-01,-2.997403964400291443e-02,-2.308185845613479614e-01,-3.208507597446441650e-01
4.024069011211395264e-02,1.155886426568031311e-01,-9.949014335870742798e-02,-6.635124236345291138e-02,1.286062747240066528e-01,1.426837593317031860e-01,7.410392165184020996e-02,-1.007211674004793167e-02,1.032886058092117310e-01
-1.314257830381393433e-01,5.086246132850646973e-02,2.407194301486015320e-02,3.574690781533718109e-03,8.745012432336807251e-02,7.357058674097061157e-02,1.562722586095333099e-02,1.628995960345491767e-05,7.638349384069442749e-02
6.969161331653594971e-02,5.192999169230461121e-02,-7.964392751455307007e-02,1.672233492136001587e-01,-7.971391826868057251e-02,-9.612032026052474976e-02,1.768509298563003540e-01,-1.806994341313838959e-02,-1.660408973693847656e-01
-2.908575534820556641e-01,-1.992113292217254639e-01,-7.497600466012954712e-02,-4.108798224478960037e-03,-8.591681718826293945e-02,-1.824262142181396484e-01,6.770285218954086304e-02,2.021334022283554077e-01,9.659662097692489624e-02
-8.194573968648910522e-02,9.046703577041625977e-02,7.795179635286331177e-02,-3.560776636004447937e-02,1.656966954469680786e-01,-4.647457599639892578e-02,7.726532220840454102e-02,9.836795181035995483e-02,-1.831537336111068726e-01
9.560821205377578735e-02,5.463093519210815430e-02,2.239970304071903229e-02,-1.488434057682752609e-02,1.147854402661323547e-01,3.380770236253738403e-02,1.057197619229555130e-02,-2.176249958574771881e-02,-6.681795418262481689e-02
-5.743323266506195068e-02,-4.720294103026390076e-02,-3.858826588839292526e-03,1.247298046946525574e-01,1.724947839975357056e-01,6.457150727510452271e-02,-1.003577858209609985e-01,-1.149758845567703247e-01,-7.550632208585739136e-02
1.473486125469207764e-01,1.683648228645324707e-01,1.111811399459838867e-01,7.873340696096420288e-02,5.822192505002021790e-02,2.592350589111447334e-03,-1.211729943752288818e-01,-1.007144600152969360e-01,1.466833800077438354e-01
1.111174598336219788e-01,1.281516160815954208e-02,1.029578298330307007e-01,6.863278150558471680e-02,-7.910620421171188354e-03,9.728588908910751343e-02,1.479017436504364014e-01,2.630169130861759186e-02,7.380542904138565063e-02
7.386356592178344727e-02,-3.845204040408134460e-02,-4.783633351325988770e-02,9.780244529247283936e-02,4.020334407687187195e-02,-1.961395144462585449e-02,5.548144504427909851e-02,1.244229450821876526e-01,1.077683940529823303e-01
1.404705196619033813e-01,2.359589561820030212e-02,2.119666337966918945e-02,9.516593813896179199e-02,6.239669397473335266e-02,-1.259071938693523407e-02,9.398994594812393188e-02,9.442587941884994507e-02,-3.591642156243324280e-02
1.507739908993244171e-02,-2.219988405704498291e-01,-2.022902518510818481e-01,2.174654155969619751e-01,-3.383635357022285461e-02,-1.401465088129043579e-01,1.800754517316818237e-01,8.231476694345474243e-02,1.664782464504241943e-01
7.399143278598785400e-02,1.699590086936950684e-01,2.431159019470214844e-01,-6.151898205280303955e-02,1.238396577537059784e-02,-4.071124643087387085e-02,-3.850901871919631958e-02,-2.331341803073883057e-01,-1.366412937641143799e-01
1.142867133021354675e-01,5.626644939184188843e-02,1.445849388837814331e-01,5.011143162846565247e-02,1.331253200769424438e-01,-7.607898674905300140e-03,9.734526276588439941e-03,1.413872241973876953e-01,1.085568070411682129e-01
1.035741940140724182e-01,1.066347807645797729e-01,2.639389596879482269e-02,4.185323417186737061e-02,1.197153925895690918e-01,-9.010085463523864746e-02,-1.069501787424087524e-01,1.190880164504051208e-01,1.066225580871105194e-02
-1.480994224548339844e-01,1.354790478944778442e-01,8.795118331909179688e-02,-2.004698812961578369e-01,1.209820061922073364e-01,1.981917619705200195e-01,-1.767960488796234131e-01,-2.680867165327072144e-02,-2.715804241597652435e-02
4.356970638036727905e-02,1.006288528442382812e-01,7.464574277400970459e-02,-1.231501027941703796e-01,1.419951859861612320e-02,1.847800165414810181e-01,-2.526123225688934326e-01,-1.012224331498146057e-01,1.190879121422767639e-01
3.296247869729995728e-02,-2.347273826599121094e-01,-1.508664488792419434e-01,-6.102700531482696533e-02,-2.091629058122634888e-02,1.062056124210357666e-01,6.917731463909149170e-02,2.075906991958618164e-01,7.970540225505828857e-02
-4.949799273163080215e-03,-4.679277166724205017e-02,-2.188849598169326782e-01,8.993481099605560303e-02,3.289229061920195818e-05,-2.262933254241943359e-01,1.527757346630096436e-01,1.526079326868057251e-01,-1.675706543028354645e-02
1.501793414354324341e-01,1.257264167070388794e-01,-1.129686832427978516e-01,7.941766828298568726e-02,-3.458580374717712402e-02,1.014796458184719086e-02,8.684691041707992554e-02,1.161523908376693726e-01,6.520026922225952148e-02
2.236259728670120239e-01,2.036035209894180298e-01,-6.796674430370330811e-02,1.460981369018554688e-01,-9.465641528367996216e-02,-1.817129403352737427e-01,-3.450446948409080505e-02,-2.563030719757080078e-01,-1.690997555851936340e-02
1.262316852807998657e-02,1.969999074935913086e-01,2.843796312808990479e-01,-2.148064225912094116e-01,-6.483390927314758301e-02,1.845127642154693604e-01,-2.474601566791534424e-01,-2.124703377485275269e-01,-9.692340157926082611e-03
-2.085457891225814819e-01,3.402796015143394470e-02,8.489090204238891602e-02,8.396356552839279175e-02,8.911315351724624634e-02,9.421660751104354858e-02,1.363113522529602051e-02,1.472270637750625610e-01,-4.647472873330116272e-02
6.880937144160270691e-03,1.240439713001251221e-01,3.040873259305953979e-02,1.233049333095550537e-01,9.190411865711212158e-02,-3.908266499638557434e-02,7.934464514255523682e-02,1.255189776420593262e-01,-1.058447137475013733e-01
8.974825590848922729e-02,-4.228263497352600098e-01,-1.123808249831199646e-01,-2.699170410633087158e-01,-7.888844609260559082e-02,2.027294188737869263e-01,-2.836984097957611084e-01,7.728151232004165649e-02,1.489193588495254517e-01
2.289009653031826019e-02,4.157385975122451782e-02,6.942200707271695137e-05,1.671607941389083862e-01,1.476953476667404175e-01,1.652434468269348145e-01,-1.029988005757331848e-01,5.904297903180122375e-02,-8.609498292207717896e-02
6.923688948154449463e-02,1.487606614828109741e-01,4.830301180481910706e-02,1.371287405490875244e-01,4.859041422605514526e-02,5.881928279995918274e-02,6.467208731919527054e-03,-7.485271990299224854e-02,-2.607272267341613770e-01
-4.797154664993286133e-02,1.023166552186012268e-01,1.168842893093824387e-02,9.971146285533905029e-02,1.205191388726234436e-01,3.936032950878143311e-02,5.134084075689315796e-02,5.187420640140771866e-03,5.489061772823333740e-02
-1.947109252214431763e-01,-1.089517474174499512e-01,1.527451276779174805e-01,5.194802954792976379e-02,1.957636773586273193e-01,1.730182766914367676e-01,7.961130142211914062e-02,9.744919836521148682e-03,-1.378214545547962189e-02
1.638727933168411255e-01,7.040881365537643433e-02,-1.415657401084899902e-01,4.329792037606239319e-02,-7.111195940524339676e-03,-1.096646562218666077e-01,1.166754886507987976e-01,1.456288099288940430e-01,-9.818740189075469971e-02
1.363924592733383179e-01,6.570076197385787964e-02,2.256127148866653442e-01,1.307255923748016357e-01,1.130146384239196777e-01,6.121632456779479980e-02,-2.769969701766967773e-01,-2.720732092857360840e-01,-1.910936683416366577e-01
4.201521351933479309e-02,-7.253101561218500137e-03,-2.531905770301818848e-01,4.212965257465839386e-03,1.020726561546325684e-01,-1.220939084887504578e-01,9.805315732955932617e-02,9.325430542230606079e-02,9.884571284055709839e-02
1.097571477293968201e-01,6.574704498052597046e-02,-1.300347745418548584e-01,1.185655593872070312e-01,-2.337457798421382904e-02,-2.203357666730880737e-01,9.818256646394729614e-02,2.199552655220031738e-01,-7.371181994676589966e-02
1.443490535020828247e-01,2.257041931152343750e-01,-3.660382330417633057e-02,1.904127299785614014e-01,7.125423289835453033e-03,-1.485472619533538818e-01,-4.260230436921119690e-02,-2.052841186523437500e-01,-3.074282705783843994e-01
1.482262313365936279e-01,1.485913693904876709e-01,6.361715495586395264e-02,7.991074025630950928e-02,1.339476108551025391e-01,-3.636749088764190674e-02,-4.673186689615249634e-02,1.419667750597000122e-01,8.228275179862976074e-02
-5.596642568707466125e-02,-6.797549873590469360e-02,1.082912757992744446e-01,-4.372146725654602051e-02,1.100932732224464417e-01,1.350802630186080933e-01,1.083517000079154968e-01,-7.482456043362617493e-03,-6.370155513286590576e-02
-2.330112457275390625e-01,-1.980758085846900940e-02,1.541020534932613373e-02,6.555548403412103653e-03,1.236590221524238586e-01,2.015055418014526367e-01,5.320618674159049988e-02,1.199697107076644897e-01,5.377046018838882446e-02
-2.457329928874969482e-01,-1.008597537875175476e-01,1.391885578632354736e-01,-2.506331503391265869e-01,1.002747118473052979e-01,8.192680031061172485e-02,1.912109181284904480e-02,1.756235957145690918e-01,1.280409991741180420e-01
-4.735573753714561462e-02,-1.355790346860885620e-01,-2.253335863351821899e-01,1.520682126283645630e-01,6.034947559237480164e-02,1.598377525806427002e-01,4.807618632912635803e-02,1.427628695964813232e-01,8.982738107442855835e-02
4.177329689264297485e-02,-8.328996598720550537e-02,6.085930764675140381e-02,1.136030107736587524e-01,7.064547389745712280e-02,9.282818995416164398e-03,1.095683276653289795e-01,-1.011102125048637390e-01,3.060927428305149078e-02
1.218082010746002197e-01,1.249422878026962280e-01,7.774567604064941406e-02,-3.882000222802162170e-02,1.132855564355850220e-01,9.333886206150054932e-02,-8.227422833442687988e-02,9.843076765537261963e-02,1.327580809593200684e-01
-1.457088440656661987e-01,-3.723274469375610352e-01,-2.176641523838043213e-01,-2.313970327377319336e-01,-6.138863414525985718e-02,1.722827106714248657e-01,-2.506511211395263672e-01,1.003579273819923401e-01,2.876498997211456299e-01
7.314727455377578735e-02,2.096672803163528442e-01,1.570322364568710327e-01,-1.393190473318099976e-01,4.868000745773315430e-02,4.338876903057098389e-02,-3.202340900897979736e-01,-1.239137053489685059e-01,8.971098810434341431e-02
6.245377659797668457e-02,6.976111233234405518e-02,-1.314401477575302124e-01,6.004767119884490967e-02,1.059253588318824768e-01,8.010582625865936279e-02,8.268395066261291504e-02,1.069533638656139374e-02,4.289933666586875916e-02
4.335401952266693115e-02,-1.602446138858795166e-01,-2.114687561988830566e-01,9.798460453748703003e-02,-5.535891652107238770e-02,-3.752506524324417114e-02,2.071286290884017944e-01,1.416726857423782349e-01,-4.156603012233972549e-03
1.761114411056041718e-02,1.335068196058273315e-01,4.824698343873023987e-02,1.679947972297668457e-02,9.393610991537570953e-03,-1.386157125234603882e-01,8.568792045116424561e-02,7.488851249217987061e-02,9.213794022798538208e-02
8.866830915212631226e-02,-3.605398163199424744e-02,1.295923739671707153e-01,-3.982758522033691406e-02,5.454664304852485657e-02,1.084443628787994385e-01,1.194453686475753784e-01,3.758630156517028809e-02,1.294113695621490479e-01
1.087709143757820129e-01,1.200654953718185425e-01,-1.011050045490264893e-01,-5.139700323343276978e-02,-3.485767170786857605e-02,-1.656417697668075562e-01,3.936950117349624634e-02,6.716900318861007690e-02,1.725002974271774292e-01
5.535412952303886414e-02,-7.747282832860946655e-02,-1.270737200975418091e-01,9.817323088645935059e-02,1.372030675411224365e-01,2.702281624078750610e-02,-1.378935873508453369e-01,3.536658361554145813e-02,1.190751641988754272e-01
1.850593388080596924e-01,7.650797069072723389e-02,8.919101953506469727e-02,1.627186313271522522e-02,-7.353222370147705078e-02,1.264208406209945679e-01,4.079487174749374390e-03,-7.253905385732650757e-02,-2.987614870071411133e-01
4.488550499081611633e-02,1.115811169147491455e-01,1.324158757925033569e-01,-1.607090607285499573e-02,1.239385530352592468e-01,1.352022588253021240e-01,-2.228051722049713135e-01,-2.543937861919403076e-01,-4.703596234321594238e-02
7.674523442983627319e-02,9.829355776309967041e-02,4.943772405385971069e-02,-1.534048467874526978e-02,1.182468235492706299e-01,4.833284765481948853e-02,4.574934765696525574e-02,1.375403553247451782e-01,1.046140864491462708e-01
6.727240048348903656e-03,1.395656317472457886e-01,-1.290592551231384277e-01,6.441438943147659302e-02,6.805355846881866455e-02,5.332652851939201355e-02,3.246152400970458984e-02,-1.877230778336524963e-02,2.442320436239242554e-02
-2.801856100559234619e-01,-1.739076226949691772e-01,2.744178287684917450e-02,-5.826802924275398254e-02,5.055700987577438354e-02,1.371307671070098877e-01,1.550244390964508057e-01,1.034845635294914246e-01,1.035978570580482483e-01
1.813678592443466187e-01,-5.991773214191198349e-03,-9.877309203147888184e-02,1.737763732671737671e-01,-8.375948667526245117e-02,-1.575003713369369507e-01,1.512795090675354004e-01,3.007413819432258606e-03,-1.074515283107757568e-01
4.255824163556098938e-02,1.086062937974929810e-01,1.471804082393646240e-01,6.141655519604682922e-02,3.768770257011055946e-03,-1.889367960393428802e-02,4.596910253167152405e-02,1.001185476779937744e-01,4.509183019399642944e-02
4.026062041521072388e-02,1.435125172138214111e-01,-1.715957820415496826e-01,-1.047578547149896622e-02,5.427194386720657349e-02,5.994919314980506897e-02,-1.216005533933639526e-01,4.829982668161392212e-02,1.446823924779891968e-01
3.176132962107658386e-02,-2.862690687179565430e-01,-2.625585198402404785e-01,-1.151795964688062668e-02,5.226887762546539307e-02,2.714833430945873260e-02,1.195083037018775940e-01,1.467800885438919067e-01,1.839861720800399780e-01
-8.804162964224815369e-03,-1.774425804615020752e-01,-2.128217369318008423e-01,1.408080756664276123e-01,1.377961784601211548e-01,-5.296969413757324219e-02,-4.713442549109458923e-02,8.244359493255615234e-02,1.382229477167129517e-01
1.369579881429672241e-01,5.927964672446250916e-02,-1.485103517770767212e-01,7.277257740497589111e-02,1.128690615296363831e-01,6.677147746086120605e-02,-1.185884624719619751e-01,8.771951496601104736e-02,1.013269051909446716e-01
4.146368056535720825e-02,-2.137718945741653442e-01,-1.217278465628623962e-01,1.967689692974090576e-01,3.129561990499496460e-02,-1.724037341773509979e-02,-5.681980401277542114e-03,1.471337974071502686e-01,-4.238235950469970703e-02
1.385220885276794434e-01,3.495140746235847473e-02,-1.353439539670944214e-01,1.491531878709793091e-01,3.649870632216334343e-03,-2.117964923381805420e-01,7.674629241228103638e-02,-1.294974833726882935e-01,-3.531182110309600830e-01
1.310784667730331421e-01,-1.268992125988006592e-01,-2.630339860916137695e-01,1.895141899585723877e-01,9.129662066698074341e-02,-3.655566275119781494e-02,-3.461613133549690247e-02,1.453361362218856812e-01,1.561360061168670654e-01
-1.297254413366317749e-01,-1.993805170059204102e-01,-1.247367411851882935e-01,1.682834932580590248e-03,-5.105910450220108032e-02,4.250252991914749146e-02,1.308531165122985840e-01,2.135231792926788330e-01,7.595786452293395996e-02
1.686966046690940857e-02,1.018329933285713196e-01,8.490715920925140381e-02,1.352037936449050903e-01,1.034322977066040039e-01,6.865537911653518677e-02,-1.469302177429199219e-01,-1.428239792585372925e-01,7.583324331790208817e-03
9.029007703065872192e-02,1.171686872839927673e-01,-1.317311972379684448e-01,7.283372431993484497e-02,4.503155499696731567e-02,-1.255302876234054565e-02,-1.592323929071426392e-02,4.619249328970909119e-02,1.280586570501327515e-01
3.776919096708297729e-02,9.472218342125415802e-03,-3.075005412101745605e-01,1.635771803557872772e-02,-2.912950329482555389e-02,-1.329034119844436646e-01,1.805322617292404175e-01,6.408081948757171631e-02,1.700139343738555908e-01
1.148265078663825989e-01,7.760157436132431030e-02,8.722198754549026489e-02,1.078694164752960205e-01,6.627301126718521118e-02,-8.462157845497131348e-02,1.324338912963867188e-01,-8.883858472108840942e-02,-1.318061947822570801e-01
7.060380280017852783e-02,-1.629255414009094238e-01,-1.981022059917449951e-01,2.115910798311233521e-01,4.824756458401679993e-02,-7.099420577287673950e-02,2.294621430337429047e-02,1.410250216722488403e-01,2.980010956525802612e-02
-1.853113062679767609e-02,-1.337705552577972412e-01,-5.412056297063827515e-02,-2.151992172002792358e-01,-4.109085723757743835e-02,1.291615664958953857e-01,1.364961564540863037e-01,2.064037024974822998e-01,-1.941652502864599228e-03
9.546206891536712646e-02,1.225037425756454468e-01,-1.908923834562301636e-01,5.450476333498954773e-02,1.565625667572021484e-01,1.381134390830993652e-01,-1.238883659243583679e-01,6.427396554499864578e-03,1.030513346195220947e-01
2.607307583093643188e-02,5.884908884763717651e-02,9.543354809284210205e-02,-1.109933364205062389e-03,2.686287276446819305e-02,5.344959348440170288e-02,1.101938486099243164e-01,2.997197583317756653e-02,1.044818609952926636e-01
1.433848291635513306e-01,-8.688010275363922119e-03,-2.527451217174530029e-01,6.489336490631103516e-02,1.380702704191207886e-01,-1.693233847618103027e-01,1.025072932243347168e-01,8.413622528314590454e-02,6.308379769325256348e-02
-2.311743944883346558e-01,-2.339407056570053101e-01,-8.882846683263778687e-02,-3.501913323998451233e-02,1.761371642351150513e-01,9.865617007017135620e-02,1.814757138490676880e-01,3.323156759142875671e-02,1.099248677492141724e-01
-1.047739908099174500e-01,-2.210770733654499054e-02,-2.032308727502822876e-01,-5.950641632080078125e-02,1.740247826091945171e-04,3.982961550354957581e-02,1.011014878749847412e-01,1.282037645578384399e-01,1.430588662624359131e-01
2.158629000186920166e-01,2.300780713558197021e-01,6.417571753263473511e-02,-3.295676037669181824e-02,-4.292392171919345856e-03,8.577074855566024780e-02,-3.111201822757720947e-01,-2.077762782573699951e-01,-6.308231502771377563e-02
-1.827076524496078491e-01,-2.915483526885509491e-02,9.227666258811950684e-02,-2.911428734660148621e-02,1.824231147766113281e-01,1.050594374537467957e-01,-2.033037506043910980e-02,1.529784351587295532e-01,-1.275311559438705444e-01
3.098999895155429840e-02,8.770214766263961792e-02,-8.177506923675537109e-02,7.969773560762405396e-02,1.002133786678314209e-01,1.363307535648345947e-01,-4.720924422144889832e-02,-9.993287920951843262e-02,1.279420405626296997e-01
1.991325020790100098e-01,1.244397740811109543e-02,-1.894187331199645996e-01,2.212426215410232544e-01,-8.073770999908447266e-02,-2.140383124351501465e-01,-4.311215132474899292e-02,-2.650717496871948242e-01,-2.819852530956268311e-01
-1.702517569065093994e-01,1.654061228036880493e-01,2.141863405704498291e-01,-2.988244295120239258e-01,2.639500238001346588e-02,2.023874968290328979e-01,-1.545669734477996826e-01,1.780105009675025940e-02,1.788466721773147583e-01
-3.049361519515514374e-02,-2.208969891071319580e-01,-5.839328095316886902e-02,7.152401655912399292e-02,-1.468731164932250977e-01,-4.041311144828796387e-02,2.270563691854476929e-01,1.267935782670974731e-01,4.685377329587936401e-02
-1.986152306199073792e-02,1.602549403905868530e-01,1.971248537302017212e-01,1.397944688796997070e-01,4.567465558648109436e-02,1.022201329469680786e-01,1.516964137554168701e-01,6.973143666982650757e-02,-1.322818845510482788e-01
4.341235756874084473e-02,-1.189576163887977600e-01,-1.857790946960449219e-01,6.603553146123886108e-02,1.069282591342926025e-01,8.768804371356964111e-02,6.498709321022033691e-02,7.727305591106414795e-02,9.337506443262100220e-02
1.189409494400024414e-01,2.831977792084217072e-02,-1.865699589252471924e-01,1.786978244781494141e-01,-6.623661518096923828e-02,-2.364096939563751221e-01,5.916210263967514038e-02,-2.106317877769470215e-01,-2.505331337451934814e-01
-1.464331895112991333e-01,5.584106966853141785e-02,5.537405982613563538e-02,6.921884417533874512e-02,-5.161135271191596985e-02,1.617836952209472656e-01,8.240132778882980347e-02,-5.747599527239799500e-02,5.093462020158767700e-02
8.877073973417282104e-02,1.180593818426132202e-01,2.669001929461956024e-02,1.490361690521240234e-01,-7.521157711744308472e-02,-1.585881412029266357e-01,7.989716716110706329e-03,5.245250090956687927e-02,1.378956809639930725e-02
5.947817862033843994e-02,1.039649993181228638e-01,-2.435967624187469482e-01,1.221816688776016235e-01,-4.794052988290786743e-02,-2.227556258440017700e-01,1.854297816753387451e-01,8.859927207231521606e-02,-8.559051901102066040e-02
-7.652533054351806641e-02,1.731111109256744385e-01,1.762241423130035400e-01,-4.301211535930633545e-01,-1.033916324377059937e-01,-5.705112218856811523e-02,-2.412796765565872192e-02,-2.968823611736297607e-01,-2.196218669414520264e-01
-1.176128312945365906e-01,1.743579842150211334e-02,1.361033618450164795e-01,-7.788413763046264648e-02,6.231029331684112549e-02,-9.878851473331451416e-03,1.309202983975410461e-02,1.606823503971099854e-01,1.393200457096099854e-01
1.021931096911430359e-01,3.902480006217956543e-02,8.652676641941070557e-02,1.260111778974533081e-01,8.554171770811080933e-02,1.112015470862388611e-01,-3.871512785553932190e-02,9.692979604005813599e-02,-1.281582564115524292e-01
-1.933712363243103027e-01,-9.769774228334426880e-02,-6.847142428159713745e-02,5.059580504894256592e-02,-9.653780609369277954e-02,-2.446564435958862305e-01,2.607530653476715088e-01,1.084020137786865234e-01,-1.394013408571481705e-02
1.247302163392305374e-02,1.278358101844787598e-01,2.154871225357055664e-01,-1.314925104379653931e-01,4.804930835962295532e-02,1.353371739387512207e-01,-3.109920620918273926e-01,-2.603318989276885986e-01,-1.286561340093612671e-01
8.392991125583648682e-02,-1.022024732083082199e-02,-1.413865536451339722e-01,8.733604103326797485e-03,6.194965541362762451e-02,9.628972411155700684e-02,3.483498096466064453e-02,1.527038961648941040e-01,1.356994546949863434e-02
-1.665568798780441284e-01,8.440179377794265747e-02,-5.427636951208114624e-02,-9.781562536954879761e-02,3.832777217030525208e-02,1.360869854688644409e-01,1.749895811080932617e-01,1.249202266335487366e-01,-6.137051060795783997e-02
6.860370934009552002e-02,1.487118303775787354e-01,9.706984460353851318e-02,-1.087526381015777588e-01,8.838429301977157593e-02,6.398457288742065430e-02,-2.316900193691253662e-01,-1.271399110555648804e-01,-7.276992499828338623e-02
7.441910356283187866e-02,1.033392921090126038e-01,-8.390066027641296387e-02,1.072387471795082092e-01,4.075140692293643951e-03,8.763513714075088501e-02,3.243917971849441528e-02,-2.000465057790279388e-02,1.115850359201431274e-01
6.581768393516540527e-02,-4.233643040060997009e-02,-2.411524802446365356e-01,1.521156728267669678e-01,-3.273273259401321411e-02,-2.549998462200164795e-01,2.347636371850967407e-01,1.052459180355072021e-01,-3.680607676506042480e-02
-8.033996820449829102e-02,1.103563085198402405e-01,-7.493867725133895874e-02,1.285035256296396255e-02,1.923765428364276886e-02,1.312681287527084351e-01,9.534443914890289307e-02,8.207055181264877319e-02,9.662766754627227783e-02
1.798868477344512939e-01,1.002980768680572510e-01,1.751644015312194824e-01,-2.125834859907627106e-02,-7.843886315822601318e-02,-9.585437178611755371e-02,-2.394990175962448120e-01,-1.560177057981491089e-01,1.206555068492889404e-01
5.668105930089950562e-02,1.623687595129013062e-01,1.942252069711685181e-01,1.613170504570007324e-01,4.706552252173423767e-02,-8.003516495227813721e-02,7.884739898145198822e-03,-2.272818237543106079e-01,-1.921210736036300659e-01
-1.611699722707271576e-02,6.014081090688705444e-02,4.641301557421684265e-02,-1.323227137327194214e-01,4.567905887961387634e-02,6.284756213426589966e-02,-8.345004916191101074e-02,1.155947744846343994e-01,1.135814562439918518e-01
1.671551614999771118e-01,1.213247105479240417e-01,1.944133192300796509e-01,-1.750173233449459076e-02,-2.038187347352504730e-02,1.930002309381961823e-02,-1.124257296323776245e-01,-2.424459904432296753e-01,-1.336597055196762085e-01
1.395266354084014893e-01,5.034143105149269104e-03,1.423221081495285034e-01,-2.563322708010673523e-02,-1.132872328162193298e-02,1.472150683403015137e-01,6.480994820594787598e-02,8.613961189985275269e-02,6.522097438573837280e-02
5.585458874702453613e-02,8.162965625524520874e-02,1.164241358637809753e-01,1.210760399699211121e-01,5.217435956001281738e-02,-7.112540304660797119e-02,8.838144131004810333e-03,4.777283594012260437e-02,-1.953969001770019531e-01
1.455398555845022202e-02,1.442286670207977295e-01,-1.097940132021903992e-01,8.054352551698684692e-02,3.547182306647300720e-02,1.018655449151992798e-01,-2.399359047412872314e-01,-1.015769168734550476e-01,1.195502802729606628e-01
-1.909506022930145264e-01,-9.359213709831237793e-02,1.696942597627639771e-01,-1.639849394559860229e-01,-1.079727429896593094e-02,9.419440478086471558e-02,-1.584598869085311890e-01,-3.254840895533561707e-02,1.602228283882141113e-01
-3.692991286516189575e-02,5.789156258106231689e-02,9.924489259719848633e-02,1.084849983453750610e-01,1.511007430963218212e-03,-7.160718739032745361e-02,-4.315128549933433533e-02,1.905611902475357056e-02,6.138208508491516113e-02
1.610692888498306274e-01,5.014532431960105896e-02,1.004419997334480286e-01,4.101170971989631653e-02,1.409215480089187622e-01,-2.803157269954681396e-02,1.231679245829582214e-01,-7.240198552608489990e-02,-2.806505858898162842e-01
1.369447410106658936e-01,1.978111416101455688e-01,-5.001012608408927917e-02,1.838445216417312622e-01,1.368206553161144257e-02,-2.068880200386047363e-01,2.168826200067996979e-02,-4.146935790777206421e-02,-2.573442161083221436e-01
-4.882339388132095337e-03,4.206746444106101990e-02,-1.968762837350368500e-02,-2.154571413993835449e-01,4.818056523799896240e-02,7.024033367633819580e-02,-1.529557108879089355e-01,3.970030322670936584e-02,2.008627206087112427e-01
5.251432582736015320e-02,-8.109994232654571533e-03,-6.305509805679321289e-02,1.547068655490875244e-01,1.314910966902971268e-02,-2.752835750579833984e-01,1.873668730258941650e-01,2.765449509024620056e-02,-9.467802196741104126e-02
1.601907461881637573e-01,1.094796042889356613e-02,6.976380199193954468e-02,7.341283839195966721e-03,9.646937251091003418e-03,-9.075425565242767334e-02,-9.511371701955795288e-02,1.294259577989578247e-01,-3.239289298653602600e-02
8.720482885837554932e-02,5.163778364658355713e-02,1.355795115232467651e-01,5.892417207360267639e-02,9.593533724546432495e-02,6.738621741533279419e-02,1.125079169869422913e-01,8.970984816551208496e-02,1.345865335315465927e-02
3.543983027338981628e-02,1.244552284479141235e-01,-1.773658990859985352e-01,9.208753705024719238e-02,-5.921075865626335144e-02,-1.015731990337371826e-01,1.738346517086029053e-01,-4.827853664755821228e-02,-1.062819138169288635e-01
-1.634491682052612305e-01,-2.202434241771697998e-01,-1.444242596626281738e-01,-3.917333111166954041e-02,-6.422478705644607544e-02,5.161696299910545349e-02,2.053912580013275146e-01,1.872327178716659546e-01,1.693877279758453369e-01
6.132471188902854919e-02,-1.858152598142623901e-01,-8.325243741273880005e-02,3.184904903173446655e-02,-2.529619634151458740e-01,-1.153662428259849548e-02,-1.526690870523452759e-01,-1.902129054069519043e-01,-2.360746450722217560e-02
1.034810692071914673e-01,-1.185967996716499329e-01,-2.676434814929962158e-01,2.100560516119003296e-01,1.424280852079391479e-01,-1.041303128004074097e-01,1.173886843025684357e-02,1.446502506732940674e-01,4.986440390348434448e-02
1.164840906858444214e-01,-5.259330943226814270e-02,-6.281937658786773682e-02,1.194051727652549744e-01,1.666126400232315063e-01,9.094094485044479370e-02,-5.616353824734687805e-02,-7.715675979852676392e-03,8.865996450185775757e-02
1.608002185821533203e-01,-4.676000773906707764e-02,-1.361782848834991455e-01,1.458371337503194809e-02,1.003392785787582397e-01,6.225896254181861877e-02,1.049614921212196350e-01,1.216218471527099609e-01,8.555290102958679199e-02
2.182915508747100830e-01,1.213176697492599487e-01,-1.590117439627647400e-02,1.292963773012161255e-01,3.809366375207901001e-02,-1.608609259128570557e-01,1.810096949338912964e-02,-1.694530099630355835e-01,-2.954980432987213135e-01
2.765507623553276062e-02,-3.558593615889549255e-02,-9.753113240003585815e-02,-1.838090866804122925e-01,-1.550455987453460693e-01,-3.546449169516563416e-02,1.580518931150436401e-01,1.379962563514709473e-01,9.162171185016632080e-02
9.880341589450836182e-02,-3.404054045677185059e-02,9.456111490726470947e-02,-7.439946755766868591e-03,1.210739538073539734e-01,1.191196963191032410e-01,-5.708246678113937378e-02,-1.802621781826019287e-01,-1.033251807093620300e-01
-5.779811739921569824e-02,-2.692131698131561279e-01,-1.465273499488830566e-01,1.071493402123451233e-01,2.703526243567466736e-02,-7.385643571615219116e-02,8.936684578657150269e-02,1.229085624217987061e-01,1.745165437459945679e-01
1.347185522317886353e-01,4.887368902564048767e-02,1.873041540384292603e-01,1.234890893101692200e-01,3.152332827448844910e-02,-1.980486139655113220e-02,-2.312176227569580078e-01,-1.694044321775436401e-01,-1.390222907066345215e-01
-8.190446346998214722e-02,-4.259507730603218079e-02,-9.404542855918407440e-03,-1.149608418345451355e-01,2.842113003134727478e-02,-2.132559893652796745e-03,-9.509801119565963745e-02,-3.723601624369621277e-02,-5.314435064792633057e-02
1.160828769207000732e-01,7.136775553226470947e-02,2.095884233713150024e-01,7.584196329116821289e-02,1.806777864694595337e-01,-1.058260574936866760e-01,1.123585924506187439e-01,-1.596861779689788818e-01,-3.193934559822082520e-01
-1.570245623588562012e-01,-5.435649678111076355e-02,-5.322412773966789246e-02,-1.439415011554956436e-02,9.171296656131744385e-02,1.623639166355133057e-01,6.084129959344863892e-02,1.561599373817443848e-01,5.765615496784448624e-04
5.961454659700393677e-02,7.681651413440704346e-02,1.045665517449378967e-01,8.445332944393157959e-02,2.265153452754020691e-02,1.405851840972900391e-01,6.434238702058792114e-02,5.652837827801704407e-02,-8.444174379110336304e-02
-1.774595528841018677e-01,1.015037745237350464e-01,9.972561895847320557e-02,5.531062372028827667e-03,8.851858973503112793e-02,-7.280799001455307007e-02,9.619577974081039429e-02,1.259748190641403198e-01,-1.022729352116584778e-01
-9.301334619522094727e-02,-2.462531626224517822e-01,-1.551404446363449097e-01,1.734241545200347900e-01,1.252814084291458130e-01,-5.510775372385978699e-02,1.335268020629882812e-01,-1.773224398493766785e-02,1.309256553649902344e-01
-8.769374340772628784e-02,-2.184382528066635132e-01,-1.165688186883926392e-01,3.605994209647178650e-02,5.730022490024566650e-02,1.377075016498565674e-01,1.166067495942115784e-01,8.092146366834640503e-02,-2.275720052421092987e-02
-1.584539264440536499e-01,-4.234459623694419861e-02,-4.495396092534065247e-02,-2.494452595710754395e-01,3.219534829258918762e-02,1.476773321628570557e-01,1.926842331886291504e-02,1.852646172046661377e-01,8.996158093214035034e-02
7.319045718759298325e-03,-1.566684991121292114e-01,-2.455476373434066772e-01,-6.637887563556432724e-03,-1.852820999920368195e-02,-1.364659424871206284e-02,1.424156576395034790e-01,7.614709436893463135e-02,2.018075734376907349e-01
-3.145079687237739563e-02,1.276333183050155640e-01,2.951583638787269592e-02,6.481644511222839355e-02,2.565071359276771545e-02,1.893803104758262634e-02,7.073421031236648560e-02,1.230670958757400513e-01,5.878932401537895203e-02
1.208154484629631042e-02,-6.272235512733459473e-02,1.248496491461992264e-02,-3.136225789785385132e-02,1.639757007360458374e-01,2.419716119766235352e-02,9.525983035564422607e-02,1.042598932981491089e-01,-9.456495195627212524e-02
-6.582539528608322144e-02,-8.324180543422698975e-02,7.732589542865753174e-02,1.177824959158897400e-01,1.095728762447834015e-02,1.546349376440048218e-01,1.608344726264476776e-02,1.323528289794921875e-01,3.716335445642471313e-02
-1.094584818929433823e-02,5.575820803642272949e-02,1.748601049184799194e-01,-3.227005945518612862e-03,-5.187201313674449921e-03,1.352674979716539383e-02,1.247183978557586670e-02,1.740584149956703186e-02,-1.505521535873413086e-01
1.770312637090682983e-01,-5.170160531997680664e-02,-1.475104689598083496e-01,1.217999383807182312e-01,1.057303324341773987e-02,-2.089283764362335205e-01,1.946204453706741333e-01,3.130928426980972290e-02,-6.793338805437088013e-02
-1.694376915693283081e-01,-1.111368536949157715e-01,1.537977904081344604e-01,1.267111301422119141e-01,5.745214223861694336e-02,1.333927065134048462e-01,4.446239769458770752e-02,-6.306757777929306030e-02,-7.168643176555633545e-03
1.644483059644699097e-01,-1.490110754966735840e-01,-1.761238425970077515e-01,1.482698619365692139e-01,-1.621650606393814087e-01,-7.021363824605941772e-02,1.996550559997558594e-01,8.935405313968658447e-02,-2.919231541454792023e-02
-2.171954810619354248e-01,-1.262898296117782593e-01,1.162208151072263718e-02,2.083019167184829712e-02,-1.906581892399117351e-04,6.925859302282333374e-02,1.978004276752471924e-01,4.649090766906738281e-02,9.303908050060272217e-02
1.120860204100608826e-01,3.452379256486892700e-02,-2.523763477802276611e-01,1.277336627244949341e-01,7.329387962818145752e-02,-8.896940201520919800e-02,-5.372425168752670288e-02,1.855385899543762207e-01,8.262708038091659546e-02
-1.144471243023872375e-01,-2.930783927440643311e-01,-1.692994982004165649e-01,1.263720244169235229e-01,8.474814239889383316e-04,1.246948167681694031e-01,1.342885792255401611e-01,1.811666637659072876e-01,4.092846438288688660e-02
1.050328984856605530e-01,1.203014142811298370e-02,-1.875869482755661011e-01,4.972204193472862244e-02,1.753926426172256470e-01,-6.154467910528182983e-02,-8.668693155050277710e-02,1.197765767574310303e-01,4.586377367377281189e-02
4.965723678469657898e-02,8.052405901253223419e-03,-2.679365277290344238e-01,9.717869758605957031e-02,-2.079096809029579163e-02,-1.315710544586181641e-01,9.141761064529418945e-02,1.826277524232864380e-01,1.026511564850807190e-01
-2.267776876688003540e-01,3.448515385389328003e-02,1.432685405015945435e-01,-3.120546936988830566e-01,8.479907363653182983e-02,1.817398071289062500e-01,-3.006635308265686035e-01,-7.866708934307098389e-02,1.004900112748146057e-01
1.693134009838104248e-01,1.046642810106277466e-01,1.915539205074310303e-01,-4.721647128462791443e-03,-1.450547389686107635e-02,-6.599881500005722046e-02,-2.692525088787078857e-01,-1.380003839731216431e-01,-6.304415874183177948e-03
1.126148402690887451e-01,9.376396983861923218e-02,4.563292860984802246e-02,4.248395562171936035e-02,1.311707943677902222e-01,-3.589181229472160339e-02,-3.367309644818305969e-02,7.248730212450027466e-02,1.321892589330673218e-01
1.521333605051040649e-01,1.676690429449081421e-01,-4.657957330346107483e-02,-4.950106889009475708e-02,1.088964194059371948e-01,1.567678898572921753e-01,-9.783573448657989502e-02,-4.034955799579620361e-02,4.212130978703498840e-02
-1.537278294563293457e-01,2.028353884816169739e-02,8.160259574651718140e-03,1.592048555612564087e-01,1.757054030895233154e-01,2.299143001437187195e-02,-3.606950491666793823e-02,-1.297144684940576553e-02,-5.604910850524902344e-02
1.647123843431472778e-01,-3.898015990853309631e-02,-2.270905524492263794e-01,1.761863827705383301e-01,9.540340304374694824e-02,6.467497348785400391e-02,-5.161700397729873657e-02,9.160190075635910034e-02,-1.409480627626180649e-02
1.686491072177886963e-01,7.490388303995132446e-02,-2.286947332322597504e-02,1.136487233452498913e-03,1.158078685402870178e-01,6.399109959602355957e-02,-1.021709814667701721e-01,1.054330915212631226e-01,6.721822917461395264e-02
1.892094910144805908e-01,-1.942168027162551880e-01,-2.733605802059173584e-01,8.128608018159866333e-02,1.457967460155487061e-01,-5.305430665612220764e-02,6.990728527307510376e-02,9.137393534183502197e-02,-4.140545800328254700e-02
1.524596810340881348e-01,1.125958487391471863e-01,5.809328705072402954e-02,9.103217162191867828e-03,1.293010711669921875e-01,-1.684675514698028564e-01,2.735594660043716431e-02,4.425625316798686981e-03,-6.873415410518646240e-02
9.926804155111312866e-02,8.121306449174880981e-02,5.868435651063919067e-02,7.758451253175735474e-02,1.335945576429367065e-01,-6.304247677326202393e-02,-1.890800311230123043e-03,7.678435742855072021e-02,1.398356854915618896e-01
-1.991539299488067627e-01,-1.542071811854839325e-02,7.491059601306915283e-02,7.557731121778488159e-02,1.098611578345298767e-01,1.205778345465660095e-01,1.386580616235733032e-01,-4.793531820178031921e-02,3.917462751269340515e-02
1.185152307152748108e-01,1.592051684856414795e-01,-1.073106229305267334e-01,7.202298194169998169e-02,3.451965749263763428e-02,1.368743777275085449e-01,-9.996371716260910034e-02,4.100811854004859924e-02,6.479204446077346802e-02
1.824073493480682373e-01,1.838545054197311401e-01,4.525104537606239319e-02,3.492859890684485435e-03,-2.934878692030906677e-02,-6.708333641290664673e-02,-1.888414323329925537e-01,-1.738295406103134155e-01,4.215728864073753357e-02
9.363561868667602539e-02,1.100604310631752014e-01,-4.262713715434074402e-02,1.090873926877975464e-01,6.821091473102569580e-02,8.141519129276275635e-02,9.432966262102127075e-02,1.365032345056533813e-01,8.382730185985565186e-02
-1.319187879562377930e-02,9.125333279371261597e-02,5.078929662704467773e-02,5.364451184868812561e-02,1.001370176672935486e-01,-2.310607349500060081e-03,7.430767267942428589e-02,7.242218405008316040e-02,1.342274993658065796e-01
1.007140651345252991e-01,1.348191052675247192e-01,-1.372450143098831177e-01,8.526729792356491089e-02,1.126976013183593750e-01,-7.285447418689727783e-02,1.273213326930999756e-01,1.093619465827941895e-01,-3.976465016603469849e-02
1.198066398501396179e-01,-4.194000735878944397e-03,1.255570501089096069e-01,8.227226138114929199e-02,-9.529623389244079590e-02,-1.188503485172986984e-02,-2.829311974346637726e-02,2.556928806006908417e-02,-1.724456995725631714e-01
1.997104734182357788e-01,2.120248526334762573e-01,5.210889875888824463e-02,3.361742570996284485e-02,-1.109401788562536240e-02,2.240267582237720490e-02,-1.332491636276245117e-01,-2.071499824523925781e-01,-1.893752515316009521e-01
9.634313732385635376e-02,1.378039922565221786e-02,1.134203970432281494e-01,7.444087415933609009e-02,1.381573975086212158e-01,1.386211216449737549e-01,5.757265165448188782e-02,6.287838518619537354e-02,4.149403795599937439e-02
7.972764223814010620e-02,1.551263183355331421e-01,7.552374154329299927e-02,3.840116411447525024e-02,6.522611528635025024e-02,1.587462425231933594e-01,2.649619244039058685e-02,-1.623989790678024292e-01,-1.667214483022689819e-01
1.251805871725082397e-01,1.570708863437175751e-02,6.494800001382827759e-02,6.569734960794448853e-02,8.972720056772232056e-02,1.657617092132568359e-01,-1.806378364562988281e-01,-1.237549819052219391e-03,1.257450692355632782e-02
1.272496432065963745e-01,-1.417559832334518433e-01,-3.054606616497039795e-01,2.068502157926559448e-01,4.438874125480651855e-02,-5.919969081878662109e-02,1.564620435237884521e-01,3.786584734916687012e-02,1.550998687744140625e-01
6.612709164619445801e-02,1.435346454381942749e-01,2.411956340074539185e-02,7.837879657745361328e-02,1.147049814462661743e-01,9.397386573255062103e-03,5.873617157340049744e-02,2.478651702404022217e-02,-6.679877638816833496e-02
1.567164622247219086e-02,8.880297094583511353e-02,1.154929548501968384e-01,-2.364425510168075562e-01,-8.727911859750747681e-03,1.660394668579101562e-01,-1.729586571455001831e-01,4.811201989650726318e-02,6.862971931695938110e-02
1.214797347784042358e-01,2.222094386816024780e-01,1.265483722090721130e-02,9.317064285278320312e-02,5.601683259010314941e-02,-1.921944320201873779e-01,-4.961086902767419815e-03,-3.751118108630180359e-02,-2.598591148853302002e-01
-1.914623081684112549e-01,-1.376798748970031738e-01,-1.148227788507938385e-02,1.029972806572914124e-01,4.687955230474472046e-02,1.722356230020523071e-01,1.277148276567459106e-01,8.706743270158767700e-02,2.611890248954296112e-02
-3.170575499534606934e-01,-2.154038399457931519e-01,-2.075723707675933838e-01,5.347052961587905884e-02,-5.022621527314186096e-02,-2.312714792788028717e-02,1.198751553893089294e-01,2.117884904146194458e-01,3.025945648550987244e-02
2.464432641863822937e-02,-2.203454077243804932e-02,4.847011715173721313e-02,1.156621724367141724e-01,1.446442306041717529e-01,1.075838878750801086e-01,3.706955909729003906e-02,1.230342835187911987e-01,2.094109775498509407e-03
-2.552884630858898163e-02,-2.485879212617874146e-01,-2.018724232912063599e-01,1.802737265825271606e-01,4.818324372172355652e-02,5.944150686264038086e-02,6.000387482345104218e-03,1.360297650098800659e-01,9.838259220123291016e-02
-1.521823406219482422e-01,-1.127729490399360657e-01,-1.195540204644203186e-01,1.448327898979187012e-01,2.499168179929256439e-02,1.723927259445190430e-02,9.429019689559936523e-02,1.210809648036956787e-01,1.030175983905792236e-01
-1.083043292164802551e-01,-1.102176308631896973e-01,-8.344399183988571167e-02,-2.485360763967037201e-02,-1.215411052107810974e-01,-3.953352198004722595e-02,1.650543510913848877e-01,1.902505755424499512e-01,1.274428367614746094e-01
3.566382825374603271e-02,-1.845702677965164185e-01,1.619267836213111877e-02,5.252885632216930389e-03,-7.503917813301086426e-02,1.356175690889358521e-01,7.184621691703796387e-02,5.683173611760139465e-02,8.163998834788799286e-03
-7.779259979724884033e-02,1.303841173648834229e-01,1.124547272920608521e-01,-6.591770052909851074e-02,1.125618442893028259e-01,-2.245302870869636536e-02,8.732646703720092773e-02,-1.746770739555358887e-02,8.690135926008224487e-02
-1.308654993772506714e-01,-1.989521980285644531e-01,-5.634415429085493088e-03,7.349114865064620972e-02,-9.224040433764457703e-03,-2.116825282573699951e-01,9.219568222761154175e-02,1.282463818788528442e-01,4.926130175590515137e-02
1.277012377977371216e-01,-4.905183985829353333e-02,-2.286058515310287476e-01,1.558647900819778442e-01,7.463924121111631393e-03,-2.648720443248748779e-01,1.923299878835678101e-01,7.454108446836471558e-02,-4.137079417705535889e-02
1.207489520311355591e-01,1.581269651651382446e-01,2.164255231618881226e-01,-1.264768242835998535e-01,-6.164789944887161255e-02,2.995472587645053864e-02,-6.001725420355796814e-02,-2.263624817132949829e-01,-5.859982967376708984e-02
8.043167740106582642e-02,1.350608766078948975e-01,1.368163675069808960e-01,1.009479835629463196e-01,3.382114320993423462e-02,-6.887261569499969482e-02,-1.764303743839263916e-01,-2.105670720338821411e-01,-4.041706025600433350e-02
-4.020875692367553711e-02,-4.634144529700279236e-02,-6.417959928512573242e-02,-5.708285048604011536e-02,-5.405557528138160706e-02,-4.677466675639152527e-02,-8.120137453079223633e-02,-8.644065260887145996e-02,-7.680626958608627319e-02
1.316730380058288574e-01,1.029451340436935425e-01,8.382807672023773193e-02,5.120937153697013855e-02,4.421958327293395996e-02,1.249133273959159851e-01,-9.328592568635940552e-02,-2.237701863050460815e-01,-1.314935237169265747e-01
-8.050097525119781494e-02,1.466827094554901123e-02,-6.141575053334236145e-02,-1.172066628932952881e-01,-6.665334850549697876e-02,1.754175424575805664e-01,4.260299727320671082e-02,8.555407077074050903e-02,1.527147740125656128e-01
-1.238676533102989197e-01,7.119102776050567627e-02,1.399339586496353149e-01,3.712579607963562012e-02,1.163657605648040771e-01,1.154841668903827667e-02,2.004039997700601816e-04,1.172546818852424622e-01,9.142044186592102051e-02
-4.045835696160793304e-03,-4.799383506178855896e-02,1.541498601436614990e-01,8.254850655794143677e-02,-8.370182663202285767e-02,8.146201819181442261e-02,3.680664300918579102e-02,-1.362302452325820923e-01,-7.859233883209526539e-04
1.397343873977661133e-01,9.236935526132583618e-02,1.407839655876159668e-01,4.290098324418067932e-02,-2.125148102641105652e-02,-1.475616246461868286e-01,-3.362670540809631348e-02,9.422085434198379517e-02,5.012236163020133972e-02
1.707649827003479004e-01,-7.675443589687347412e-02,-3.763441443443298340e-01,9.726772457361221313e-02,7.278894633054733276e-02,-6.695089489221572876e-02,-2.061947714537382126e-03,1.429195702075958252e-01,1.167760938405990601e-01
-2.773586427792906761e-03,1.206079944968223572e-01,2.842062711715698242e-02,-1.135209202766418457e-02,7.170829176902770996e-02,1.017474606633186340e-01,-4.329955205321311951e-02,5.816616117954254150e-02,1.422414183616638184e-01
-2.822433225810527802e-02,6.196238100528717041e-02,7.895257323980331421e-03,-1.184120625257492065e-01,1.296599656343460083e-01,3.870412008836865425e-03,-3.050400875508785248e-03,1.025609672069549561e-01,-4.518960043787956238e-02
-6.620028056204319000e-03,1.354448050260543823e-01,1.220579668879508972e-01,1.675747185945510864e-01,3.386346250772476196e-02,-7.902763038873672485e-02,6.599801592528820038e-03,-2.443493157625198364e-01,-8.775577694177627563e-02
-1.429736018180847168e-01,-8.520792424678802490e-02,3.140516346320509911e-03,1.230556592345237732e-01,1.054525896906852722e-01,3.706740215420722961e-03,8.588420599699020386e-02,1.121704727411270142e-01,1.209499873220920563e-02
-5.769940465688705444e-02,8.892077207565307617e-02,-3.105535544455051422e-02,-9.054269641637802124e-02,1.221483349800109863e-01,9.438028186559677124e-02,-5.483160726726055145e-03,5.277452245354652405e-02,1.486109346151351929e-01
-2.241896986961364746e-01,-7.584273815155029297e-02,1.590902209281921387e-01,-1.747963726520538330e-01,6.420999765396118164e-02,1.552755534648895264e-01,-7.251488417387008667e-02,-1.156382448971271515e-02,1.106405109167098999e-01
-1.399685889482498169e-01,3.641023486852645874e-02,8.959109336137771606e-02,-9.513187408447265625e-02,-2.025847695767879486e-02,8.738601207733154297e-02,-1.352036148309707642e-01,1.396795958280563354e-01,3.211656957864761353e-02
-1.522403955459594727e-01,-7.464212924242019653e-02,-1.089466810226440430e-01,-9.814027696847915649e-02,-4.402045160531997681e-02,1.811455488204956055e-01,2.508828230202198029e-02,1.737563461065292358e-01,1.684092432260513306e-01
1.750357151031494141e-01,1.000779494643211365e-01,-7.896309345960617065e-02,-6.386284530162811279e-02,2.147577702999114990e-01,1.100577265024185181e-01,-2.974596619606018066e-01,-3.465402871370315552e-03,1.429608091711997986e-02
1.561585664749145508e-01,6.181285530328750610e-02,9.316803514957427979e-02,-1.110210716724395752e-01,9.496629983186721802e-02,7.941231876611709595e-02,-1.598599106073379517e-01,-1.812408864498138428e-01,-6.584943085908889771e-02
1.788766682147979736e-01,4.824499785900115967e-02,8.277024142444133759e-03,1.092292368412017822e-01,1.994812041521072388e-01,8.662908338010311127e-03,-2.826656587421894073e-02,2.948650857433676720e-03,-2.369603663682937622e-01
5.795659869909286499e-02,3.540104255080223083e-02,8.699463307857513428e-02,4.462713748216629028e-02,7.868550717830657959e-02,9.693473577499389648e-02,4.586429148912429810e-02,1.154109537601470947e-01,-3.387360274791717529e-02
8.529536426067352295e-02,1.202844530344009399e-01,8.754264563322067261e-04,1.306283175945281982e-01,3.428133949637413025e-02,4.232485219836235046e-02,7.520467042922973633e-02,6.730814278125762939e-02,-1.764589399099349976e-01
-9.700256586074829102e-02,-1.814509779214859009e-01,-1.072233021259307861e-01,-4.437291249632835388e-02,2.824223786592483521e-02,1.574998907744884491e-02,1.981425881385803223e-01,8.318531513214111328e-02,7.691815495491027832e-02
2.236214727163314819e-01,8.166284114122390747e-02,1.165329813957214355e-01,-8.156534284353256226e-02,-3.692090511322021484e-02,2.812793105840682983e-02,-1.674107760190963745e-01,-7.912002503871917725e-02,-1.024181023240089417e-01
