-2.074386551976203918e-02,1.766051799058914185e-01,-3.704380095005035400e-01,-3.072076439857482910e-01,2.815379202365875244e-01,-2.269986085593700409e-02,-2.333527952432632446e-01,-1.741130799055099487e-01,1.617887318134307861e-01
1.983043700456619263e-01,1.571769565343856812e-01,2.792710661888122559e-01,-1.835798621177673340e-01,1.781939268112182617e-01,7.099183276295661926e-03,-2.632759511470794678e-01,-5.424568653106689453e-01,-1.429159641265869141e-01
-2.561406465247273445e-03,2.874341048300266266e-02,1.695499569177627563e-02,-4.990409314632415771e-02,-2.765684388577938080e-02,-3.690809011459350586e-02,-1.794523373246192932e-02,4.082115739583969116e-02,1.276861876249313354e-02
4.467957094311714172e-02,-9.125203639268875122e-02,-3.492475748062133789e-01,-3.960609436035156250e-02,3.659135699272155762e-01,7.066278904676437378e-02,-2.955888211727142334e-01,-2.752513810992240906e-02,-2.133597247302532196e-02
-6.354950368404388428e-02,-1.554487049579620361e-01,6.273595243692398071e-02,3.342971578240394592e-02,4.014177247881889343e-03,1.880010589957237244e-02,-1.367540210485458374e-01,5.130743980407714844e-02,-2.798383682966232300e-02
-1.827091909945011139e-02,-4.569947719573974609e-02,4.386118426918983459e-02,-1.432132255285978317e-02,2.183988876640796661e-02,6.700383126735687256e-02,-1.368775069713592529e-01,-2.411561310291290283e-01,-1.716157495975494385e-01
-6.480715870857238770e-01,9.857980161905288696e-02,-3.378053009510040283e-01,2.702696323394775391e-01,3.856220841407775879e-01,-3.001760840415954590e-01,-9.447162598371505737e-02,-2.081350609660148621e-02,-2.567961215972900391e-01
-6.689280271530151367e-02,-4.280588403344154358e-02,-9.670482017099857330e-03,-4.764103591442108154e-01,2.406551092863082886e-01,-4.266437888145446777e-02,1.928196400403976440e-01,9.000168740749359131e-02,-2.980951070785522461e-01
-1.040040049701929092e-02,8.752737939357757568e-02,1.512278150767087936e-02,-1.092219203710556030e-01,1.945381402038037777e-03,-4.174866713583469391e-03,-9.584558196365833282e-03,2.252264879643917084e-02,3.375105559825897217e-02
3.606669232249259949e-02,2.926503419876098633e-01,-1.865454763174057007e-01,2.522819042205810547e-01,-1.660941839218139648e-01,-3.707617223262786865e-01,1.213543638586997986e-01,-1.347167044878005981e-01,2.595002949237823486e-01
8.962243050336837769e-02,3.648509681224822998e-01,5.674428492784500122e-02,-7.367592453956604004e-01,-2.048396021127700806e-01,1.566275358200073242e-01,1.546593606472015381e-01,-2.786441445350646973e-01,-3.897439539432525635e-01
2.877875864505767822e-01,-3.762887045741081238e-02,2.917914092540740967e-01,-1.798183657228946686e-02,-7.793395966291427612e-02,1.122218966484069824e-01,7.701047509908676147e-02,-3.718737959861755371e-01,-4.253296554088592529e-01
-9.424234181642532349e-02,2.632681131362915039e-01,-4.311427474021911621e-01,-2.989715933799743652e-01,1.793246269226074219e-01,1.093795001506805420e-01,5.517082288861274719e-02,-7.180117815732955933e-02,-9.952406585216522217e-02
2.281034886837005615e-01,-6.188303828239440918e-01,-5.379321575164794922e-01,-2.558654248714447021e-01,-6.860803365707397461e-01,2.799381911754608154e-01,-8.651232123374938965e-01,6.248094886541366577e-02,3.141720890998840332e-01
1.160514913499355316e-02,-8.644812554121017456e-02,1.671632379293441772e-01,-3.125397861003875732e-01,7.361603784374892712e-04,2.383733093738555908e-01,1.235011685639619827e-02,1.545164734125137329e-01,-1.056454256176948547e-01
1.084156930446624756e-01,3.765269368886947632e-02,-5.499152541160583496e-01,-1.324759125709533691e-01,2.293097376823425293e-01,1.216187179088592529e-01,2.435733191668987274e-02,-1.351338177919387817e-01,2.367995306849479675e-02
-4.023771882057189941e-01,1.307643763720989227e-02,2.162105590105056763e-01,1.444840878248214722e-01,3.846989572048187256e-01,3.635601699352264404e-02,1.621649265289306641e-01,-1.756286919116973877e-01,-3.912642002105712891e-01
1.998565532267093658e-02,-8.778773993253707886e-02,7.711903750896453857e-02,-1.632408238947391510e-02,-7.469049841165542603e-02,1.847890950739383698e-02,4.433271288871765137e-02,1.878230087459087372e-02,-7.543214410543441772e-02
-1.620496213436126709e-01,1.486820578575134277e-01,-1.601999998092651367e-01,-3.936136662960052490e-01,1.710151433944702148e-01,-8.697669953107833862e-02,-1.418177336454391479e-01,3.646761924028396606e-02,-4.889011755585670471e-02
1.530820876359939575e-01,-3.586833775043487549e-01,1.813490241765975952e-01,1.497076451778411865e-01,-4.432371556758880615e-01,1.449617296457290649e-01,1.176173537969589233e-01,9.554290026426315308e-02,-1.820847839117050171e-01
-8.822474628686904907e-02,-2.964299619197845459e-01,9.115417301654815674e-02,1.065119728446006775e-01,1.371735781431198120e-01,2.737611718475818634e-02,-1.427968442440032959e-01,-2.609710395336151123e-01,-3.152498900890350342e-01
2.275055944919586182e-01,-4.236762970685958862e-02,5.579999089241027832e-02,-3.365805372595787048e-02,-4.372817277908325195e-01,1.691865772008895874e-01,-3.025747239589691162e-01,-9.537518024444580078e-02,2.635207176208496094e-01
1.267327517271041870e-01,9.363593533635139465e-03,-3.103724420070648193e-01,1.866772770881652832e-01,8.705082535743713379e-02,-3.421276509761810303e-01,8.929093182086944580e-02,6.384748220443725586e-02,5.279162526130676270e-02
-2.217357046902179718e-02,-2.397223375737667084e-02,-1.843724697828292847e-01,1.571891754865646362e-01,2.606763243675231934e-01,3.219222426414489746e-01,-3.757824003696441650e-01,-1.805816441774368286e-01,1.883668266236782074e-02
1.759672164916992188e-01,2.204724252223968506e-01,3.485819324851036072e-02,7.217453327029943466e-03,4.954639077186584473e-02,-4.514342173933982849e-02,-1.906985640525817871e-01,-3.176361322402954102e-01,9.117966890335083008e-02
5.635929759591817856e-03,4.973417613655328751e-03,-8.408102393150329590e-02,8.703513443470001221e-02,-1.341389417648315430e-01,-1.221745163202285767e-01,-6.956212967634201050e-02,1.474330574274063110e-02,-2.079963833093643188e-01
-4.869739711284637451e-01,1.976036280393600464e-02,1.752098053693771362e-01,1.499041914939880371e-01,3.544968068599700928e-01,1.699756272137165070e-02,9.067803621292114258e-02,-2.873159050941467285e-01,-2.692475616931915283e-01
1.811901777982711792e-01,-3.518882393836975098e-01,-2.284110337495803833e-01,3.402843475341796875e-01,-2.058683335781097412e-01,-8.440747857093811035e-02,2.408144474029541016e-01,4.621735960245132446e-02,7.350538671016693115e-02
5.525096133351325989e-02,-8.743301033973693848e-02,4.027312621474266052e-02,-1.033728644251823425e-01,3.709712028503417969e-01,-2.546743154525756836e-01,-2.137047946453094482e-01,-6.426742672920227051e-02,-3.402063250541687012e-01
-1.001865486614406109e-03,-3.643229305744171143e-01,-2.131845951080322266e-01,6.985004991292953491e-02,1.363510936498641968e-01,1.488021314144134521e-01,1.677433215081691742e-02,1.431273072957992554e-01,-7.156586647033691406e-02
2.583520486950874329e-02,-3.634620606899261475e-01,-2.795130610466003418e-01,-8.014972507953643799e-02,-1.814488619565963745e-01,6.546740978956222534e-02,2.215367108583450317e-01,-7.259669899940490723e-02,9.212683141231536865e-02
1.484179943799972534e-01,-3.221943676471710205e-01,-2.176585197448730469e-01,1.816720217466354370e-01,-1.473374068737030029e-01,-2.641850113868713379e-01,1.230640485882759094e-01,1.031117811799049377e-01,-1.404156833887100220e-01
8.269043639302253723e-03,-1.016041561961174011e-01,-1.478618383407592773e-01,-3.978591859340667725e-01,3.217229247093200684e-02,2.921539247035980225e-01,7.445014268159866333e-02,-7.417571544647216797e-02,-2.015951573848724365e-01
4.474279005080461502e-03,-5.523455142974853516e-02,-1.495221853256225586e-01,-5.017555877566337585e-02,8.033864945173263550e-02,2.059143781661987305e-01,-3.444032669067382812e-01,-2.065505087375640869e-01,-3.138910830020904541e-01
-7.416937500238418579e-02,-3.466680645942687988e-02,1.061960384249687195e-01,-4.065988063812255859e-01,-1.728424280881881714e-01,1.812312901020050049e-01,4.053648188710212708e-02,8.760829269886016846e-02,9.037742018699645996e-02
-5.173714160919189453e-01,8.130128681659698486e-02,1.215456947684288025e-01,2.192999422550201416e-01,1.839556694030761719e-01,-6.043190509080886841e-02,9.024975448846817017e-02,-3.720895051956176758e-01,-2.378017753362655640e-01
2.989525720477104187e-02,8.868875354528427124e-02,-9.253795444965362549e-02,-1.388467103242874146e-02,2.337506115436553955e-01,5.172170326113700867e-02,-3.364146947860717773e-01,-2.885638922452926636e-02,-7.917405106127262115e-03
-9.404594451189041138e-02,4.526442661881446838e-02,-2.063562907278537750e-02,-4.089907277375459671e-03,2.190108001232147217e-01,-2.784995436668395996e-01,-1.322217844426631927e-02,-1.143824160099029541e-01,-3.220689594745635986e-01
2.187686599791049957e-02,-3.774797320365905762e-01,2.155243009328842163e-01,-4.761792123317718506e-01,2.033850252628326416e-01,-1.198557554744184017e-03,-7.400012761354446411e-02,2.009271085262298584e-01,-1.933102309703826904e-01
-1.256946176290512085e-01,5.332595482468605042e-02,8.703578263521194458e-03,2.683558873832225800e-02,-7.125702500343322754e-02,-3.183465451002120972e-02,-3.607683628797531128e-02,1.795830018818378448e-02,6.657631136476993561e-03
-1.393023226410150528e-02,5.078616365790367126e-02,1.563587039709091187e-01,2.503263354301452637e-01,2.387574464082717896e-01,-5.129377916455268860e-02,-1.894496381282806396e-01,-3.105770647525787354e-01,-9.215322323143482208e-03
2.483477890491485596e-01,2.340440303087234497e-01,-1.098682060837745667e-01,1.306498944759368896e-01,4.684731364250183105e-02,-4.771502912044525146e-01,-3.588258028030395508e-01,-4.923072457313537598e-01,1.597147551365196705e-03
-3.869125992059707642e-02,-2.356045097112655640e-01,-3.830179870128631592e-01,2.432450354099273682e-01,-3.999473527073860168e-02,-1.435060203075408936e-01,9.112262725830078125e-02,2.370570898056030273e-01,3.086242377758026123e-01
-3.664931654930114746e-01,-1.230091303586959839e-01,3.609339520335197449e-02,1.977961212396621704e-01,1.800191402435302734e-01,-1.873824596405029297e-01,-1.838402599096298218e-01,-3.450091183185577393e-01,-2.190704196691513062e-01
2.550619095563888550e-02,-3.809922933578491211e-02,-1.090255826711654663e-01,3.672579536214470863e-03,-1.135666575282812119e-02,-1.784964501857757568e-01,-1.505021154880523682e-01,1.056645736098289490e-01,-4.805942252278327942e-02
5.732112377882003784e-02,-8.976384252309799194e-02,-2.011756151914596558e-01,4.734854027628898621e-02,2.757233083248138428e-01,8.667387813329696655e-02,-5.757529735565185547e-01,-1.226201057434082031e-01,8.506469428539276123e-02
-3.572971522808074951e-01,1.948979347944259644e-01,-2.029190808534622192e-01,4.185888543725013733e-02,2.264554053544998169e-01,1.157176047563552856e-01,1.503853648900985718e-01,-1.697898060083389282e-01,-9.864392131567001343e-02
2.448427528142929077e-01,3.173812627792358398e-01,-2.714352607727050781e-01,-2.221836298704147339e-01,2.883730456233024597e-02,-7.728949189186096191e-02,-1.230758503079414368e-01,1.695102006196975708e-01,2.227868884801864624e-01
1.396588832139968872e-01,1.722277700901031494e-01,-4.307861626148223877e-01,-1.885190159082412720e-01,2.514603734016418457e-01,-1.895786845125257969e-03,-4.199986457824707031e-01,8.807370811700820923e-02,-1.678997725248336792e-01
-3.047499954700469971e-01,1.186209693551063538e-01,1.217857301235198975e-01,-2.638128399848937988e-01,5.137349665164947510e-02,-1.967136748135089874e-02,-4.499437659978866577e-02,-1.645218208432197571e-02,7.143232226371765137e-02
1.623464375734329224e-01,-2.118459343910217285e-02,8.205671608448028564e-02,-1.676499694585800171e-01,4.211124405264854431e-02,7.456636428833007812e-02,-1.103238686919212341e-01,-3.502504825592041016e-01,-2.620806694030761719e-01
-9.408716112375259399e-03,1.222691982984542847e-01,-2.225129604339599609e-01,-1.293096598237752914e-02,-2.987310662865638733e-02,-1.808009594678878784e-01,-7.469381392002105713e-02,-1.077006757259368896e-02,8.521389216184616089e-02
-8.606438338756561279e-02,-1.431234031915664673e-01,-2.287935931235551834e-03,1.131984442472457886e-01,9.312056750059127808e-02,-5.438894778490066528e-02,-2.672024071216583252e-01,-1.470177769660949707e-01,-9.861029684543609619e-02
-7.058845460414886475e-02,-3.986349105834960938e-01,-5.330554209649562836e-03,2.949248850345611572e-01,2.541842162609100342e-01,1.627753674983978271e-02,-6.397719029337167740e-03,-2.717465162277221680e-02,-2.965386956930160522e-02
4.570675492286682129e-01,1.017248928546905518e-01,2.619940042495727539e-01,-3.768589198589324951e-01,-5.801866054534912109e-01,2.551677636802196503e-02,-5.093249306082725525e-02,2.421692907810211182e-01,2.076759636402130127e-01
3.298280760645866394e-02,-3.443670272827148438e-01,-3.951130807399749756e-01,9.668236970901489258e-02,4.147772192955017090e-01,1.285482794046401978e-01,-1.926355957984924316e-01,-5.195990949869155884e-02,6.056649237871170044e-02
1.434628386050462723e-02,1.412018239498138428e-01,7.088008522987365723e-02,-3.787074983119964600e-01,1.989602893590927124e-01,2.217908650636672974e-01,-4.297995269298553467e-01,-1.413989067077636719e-01,1.803314089775085449e-01
-1.403810679912567139e-01,1.356198787689208984e-01,2.912642359733581543e-01,-4.571498632431030273e-01,-1.758043169975280762e-01,3.835554718971252441e-01,4.243060946464538574e-02,-4.213040769100189209e-01,-3.843278810381889343e-02
-1.819979250431060791e-01,-2.015006840229034424e-01,6.081513687968254089e-02,-1.219668164849281311e-01,1.339037716388702393e-01,1.377321034669876099e-01,1.463279873132705688e-01,-3.154456242918968201e-02,-8.530618622899055481e-03
-3.404134809970855713e-01,-4.153507053852081299e-01,2.013012953102588654e-02,-2.205012887716293335e-01,1.520411763340234756e-02,4.644879326224327087e-02,2.847828567028045654e-01,2.136384546756744385e-01,9.406008571386337280e-02
-3.954687416553497314e-01,-3.362007141113281250e-01,2.736004889011383057e-01,1.554081737995147705e-01,2.778386771678924561e-01,7.679474353790283203e-02,-4.873231798410415649e-02,-3.284890651702880859e-01,-3.478929698467254639e-01
2.558138370513916016e-01,9.982015192508697510e-02,2.446697950363159180e-01,-2.546870708465576172e-01,-8.900371193885803223e-02,-3.423166573047637939e-01,-6.764162778854370117e-01,-6.260081529617309570e-01,-9.893593788146972656e-01
-2.872386872768402100e-01,2.104365378618240356e-01,-4.024957120418548584e-02,-8.653226494789123535e-02,3.237681090831756592e-01,-3.275944888591766357e-01,-5.027131736278533936e-02,1.784352362155914307e-01,-2.759488224983215332e-01
-7.121076807379722595e-03,3.509223088622093201e-02,5.194066837430000305e-02,-6.514503806829452515e-02,-1.032097190618515015e-01,-4.941015690565109253e-02,-1.749230548739433289e-02,-6.239030882716178894e-02,-3.494819253683090210e-02
9.008229523897171021e-02,-1.240842565894126892e-01,-4.155275523662567139e-01,2.241057008504867554e-01,1.534004807472229004e-01,-3.945296257734298706e-02,-6.471198052167892456e-02,1.567356288433074951e-01,2.743241488933563232e-01
-2.331884503364562988e-01,-3.022711575031280518e-01,-1.362709701061248779e-01,-4.136677831411361694e-02,3.926258906722068787e-02,-1.306196488440036774e-02,2.165703028440475464e-01,1.380555778741836548e-01,-8.484470099210739136e-02
2.460860088467597961e-02,1.896847970783710480e-02,-2.127695828676223755e-02,-1.107214298099279404e-02,-3.681569546461105347e-02,-4.832112416625022888e-02,-2.871476300060749054e-02,4.551320895552635193e-02,1.264845952391624451e-03
1.473560333251953125e-01,3.607053458690643311e-01,3.378590941429138184e-02,-4.411455243825912476e-02,9.303246438503265381e-02,1.321848202496767044e-02,-5.825340151786804199e-01,-3.657436370849609375e-02,8.248948305845260620e-02
-1.326774209737777710e-01,5.233539268374443054e-02,5.713808815926313400e-03,1.027707681059837341e-01,7.276453822851181030e-02,-2.386933267116546631e-01,-1.802197843790054321e-01,-4.090306460857391357e-01,-9.084095805883407593e-02
-4.244184494018554688e-01,-2.022712081670761108e-01,1.629951745271682739e-01,1.406670808792114258e-01,2.589714825153350830e-01,4.668885841965675354e-02,-1.191352978348731995e-01,-4.902384579181671143e-01,-4.181138575077056885e-01
-2.621661424636840820e-01,2.677358984947204590e-01,-5.260887742042541504e-01,-2.729752957820892334e-01,1.656576246023178101e-01,1.209852192550897598e-02,-5.322428047657012939e-02,-1.357257515192031860e-01,-9.454628452658653259e-03
-1.625974029302597046e-01,-1.871797144412994385e-01,-1.401988863945007324e-01,1.880607903003692627e-01,2.654207646846771240e-01,3.242695927619934082e-01,-2.011654227972030640e-01,-2.050809264183044434e-01,-1.987253427505493164e-01
3.695755451917648315e-02,-8.334165811538696289e-02,3.608288615942001343e-02,-2.819044329226016998e-02,1.632341183722019196e-02,-5.328269302845001221e-02,2.905478235334157944e-03,-1.005594339221715927e-02,-9.283690899610519409e-02
-1.222233921289443970e-01,-5.699760094285011292e-02,-3.372869789600372314e-01,-1.094494089484214783e-01,7.211701571941375732e-02,3.458457887172698975e-01,-2.725039049983024597e-02,-2.176731526851654053e-01,-1.417753286659717560e-02
6.334596872329711914e-02,-1.291941553354263306e-01,-3.660120666027069092e-01,2.966448664665222168e-01,-1.504068672657012939e-01,1.420848667621612549e-01,2.513829767704010010e-01,-6.004383787512779236e-03,8.583272248506546021e-02
1.834241747856140137e-01,2.560673654079437256e-01,1.170513853430747986e-01,1.362912952899932861e-01,1.272458434104919434e-01,-2.073209881782531738e-01,-3.428582549095153809e-01,-3.867867588996887207e-01,-3.018514215946197510e-01
-1.842251121997833252e-01,2.033435702323913574e-01,-1.735042184591293335e-01,-4.123213887214660645e-01,1.075890436768531799e-01,1.268566846847534180e-01,-3.076760172843933105e-01,1.816785149276256561e-02,1.104541793465614319e-01
-6.872683018445968628e-02,-2.182998359203338623e-01,-1.447448879480361938e-01,-2.639063261449337006e-02,-3.741965815424919128e-02,9.806053340435028076e-02,2.143410034477710724e-03,-2.023553289473056793e-02,-6.044402346014976501e-02
-1.933732032775878906e-01,2.147148698568344116e-01,2.396389842033386230e-01,-5.154920816421508789e-01,-9.107791632413864136e-02,2.964922785758972168e-01,-1.442526374012231827e-02,-5.182985663414001465e-01,-1.826512068510055542e-01
2.537124045193195343e-02,-3.964843153953552246e-01,4.780763387680053711e-02,-8.630243688821792603e-02,-5.258908867835998535e-02,-3.147392533719539642e-03,2.501021325588226318e-01,2.587851881980895996e-01,2.369848079979419708e-02
1.135350093245506287e-01,-2.968967258930206299e-01,4.596307128667831421e-02,8.655638992786407471e-02,-1.387378871440887451e-01,-2.208358794450759888e-02,6.833277642726898193e-02,1.187838986515998840e-02,9.323921054601669312e-02
1.321153789758682251e-01,-8.917196094989776611e-02,-2.021316289901733398e-01,6.813080608844757080e-02,7.048567757010459900e-03,-1.994834393262863159e-01,6.593073718249797821e-03,1.405707150697708130e-01,-1.146704852581024170e-01
1.930680423974990845e-01,1.927658021450042725e-01,-3.145876824855804443e-01,-1.192860379815101624e-01,-2.202835083007812500e-01,-4.716107547283172607e-01,-5.903996154665946960e-02,-7.471342682838439941e-01,-3.906164467334747314e-01
-1.878989785909652710e-01,1.848055720329284668e-01,-4.822511374950408936e-01,3.825362324714660645e-01,3.411636352539062500e-01,-2.159964740276336670e-01,-6.308337450027465820e-01,4.325092583894729614e-02,-1.562917381525039673e-01
3.828921914100646973e-01,-3.696912527084350586e-02,1.983159482479095459e-01,-5.252008438110351562e-01,-2.567010819911956787e-01,1.031057313084602356e-01,1.239075437188148499e-01,3.008851408958435059e-01,3.155631944537162781e-02
2.416093498468399048e-01,1.820690631866455078e-01,-1.554051190614700317e-01,2.648719251155853271e-01,-1.325443536043167114e-01,-4.362700581550598145e-01,5.255220830440521240e-02,-8.090043067932128906e-02,-2.391896396875381470e-01
7.834258675575256348e-02,-3.805880248546600342e-01,1.413918584585189819e-01,1.946343481540679932e-01,-3.155509233474731445e-01,-2.209373414516448975e-01,1.864485144615173340e-01,1.307282149791717529e-01,4.324467107653617859e-02
-5.116382241249084473e-01,1.587019264698028564e-01,1.331504285335540771e-01,-5.095904320478439331e-02,4.098645150661468506e-01,-6.435965746641159058e-02,3.069739555940032005e-03,-3.516990691423416138e-02,-3.635772168636322021e-01
1.563096977770328522e-02,3.064576908946037292e-02,-1.039110124111175537e-02,-7.416687160730361938e-02,-1.146292239427566528e-01,-1.203412786126136780e-01,2.193937823176383972e-02,4.815898463129997253e-02,4.793402552604675293e-02
-1.087106242775917053e-01,1.061847060918807983e-01,-1.081631481647491455e-01,-6.764126569032669067e-02,-6.775252404622733593e-04,3.765118494629859924e-02,-3.718361724168062210e-03,3.465624153614044189e-02,-6.110924854874610901e-02
1.148276329040527344e-01,5.653510987758636475e-02,-4.508483111858367920e-01,-1.068436279892921448e-01,2.342543751001358032e-01,-6.959226448088884354e-03,-2.178742438554763794e-01,-1.616451889276504517e-02,2.414850145578384399e-01
-3.723629191517829895e-02,3.117679953575134277e-01,1.401124596595764160e-01,-5.289427638053894043e-01,-5.723125934600830078e-01,-1.598004251718521118e-01,3.093546032905578613e-01,5.909973010420799255e-02,-1.582466959953308105e-01
-1.481274962425231934e-01,-3.872590363025665283e-01,-2.870667167007923126e-02,2.908323705196380615e-02,6.514604389667510986e-02,-5.407312139868736267e-02,2.187652885913848877e-01,2.077239900827407837e-01,1.321944445371627808e-01
6.653327494859695435e-02,-5.522144585847854614e-02,-1.626310348510742188e-01,3.197303041815757751e-02,-5.981337279081344604e-02,1.474551856517791748e-02,-2.414322271943092346e-02,3.444081405177712440e-03,7.938657887279987335e-03
-1.000477224588394165e-01,1.762218177318572998e-01,-1.324709951877593994e-01,4.674273077398538589e-03,3.257842734456062317e-02,1.923814862966537476e-01,-5.303925275802612305e-01,-1.721585839986801147e-01,1.143941804766654968e-01
-2.032631784677505493e-01,6.111966073513031006e-02,-2.700646519660949707e-01,-1.281895041465759277e-01,4.460268467664718628e-02,-2.691404223442077637e-01,-2.462168782949447632e-01,1.624896526336669922e-01,-1.827045083045959473e-01
-4.031498134136199951e-01,-5.002159997820854187e-02,-7.785975933074951172e-03,2.504687607288360596e-01,1.257542073726654053e-01,2.845056354999542236e-01,1.534751057624816895e-01,-3.113372623920440674e-02,-1.152986958622932434e-01
-1.947055384516716003e-02,1.203119382262229919e-02,-7.779687643051147461e-03,-7.346756756305694580e-03,-9.252631664276123047e-02,-3.336438909173011780e-02,-5.824675038456916809e-02,3.103128820657730103e-02,-4.760976508259773254e-02
3.674164414405822754e-02,-7.660469412803649902e-02,6.671733409166336060e-02,-1.790831796824932098e-02,-5.046124383807182312e-02,-1.887891069054603577e-02,-2.702257595956325531e-02,4.206462204456329346e-02,-1.794866025447845459e-01
8.080765604972839355e-03,4.755802825093269348e-02,-3.855216801166534424e-01,1.937523186206817627e-01,-1.002550721168518066e-01,-2.370367497205734253e-01,3.098482824862003326e-02,1.226661056280136108e-01,-2.283118665218353271e-02
1.775703877210617065e-01,-5.539316684007644653e-02,4.077151045203208923e-02,3.723069280385971069e-02,-1.192611157894134521e-01,-8.193774521350860596e-02,-4.571546912193298340e-01,-3.362517356872558594e-01,-7.996056973934173584e-02
2.821752130985260010e-01,-1.191009432077407837e-01,1.935108751058578491e-01,-8.270605653524398804e-02,-5.553695559501647949e-01,1.659263521432876587e-01,2.659946382045745850e-01,1.257083266973495483e-01,-2.660439535975456238e-02
-2.015050351619720459e-01,-4.079123958945274353e-03,-5.954341962933540344e-02,-1.663263291120529175e-01,8.518399298191070557e-02,-4.783084988594055176e-01,-7.349633425474166870e-02,3.470298051834106445e-01,-2.125267386436462402e-01
1.305895391851663589e-02,-1.135739833116531372e-01,-3.249785304069519043e-02,-4.430936872959136963e-01,1.394268125295639038e-01,-4.276814162731170654e-01,-3.091079890727996826e-01,4.112094044685363770e-01,-1.172938011586666107e-02
-4.880886673927307129e-01,-2.937783719971776009e-03,2.282930165529251099e-01,-1.236143857240676880e-01,1.796562075614929199e-01,1.300305277109146118e-01,-7.469108700752258301e-02,1.772338300943374634e-01,-1.678975671529769897e-02
-4.803986102342605591e-02,-2.192004919052124023e-01,-2.831311225891113281e-01,3.252030909061431885e-02,5.597392842173576355e-02,3.487388789653778076e-01,-3.969754874706268311e-01,-4.542407691478729248e-01,7.947623729705810547e-02
-4.940167069435119629e-02,-5.421803146600723267e-02,6.116041168570518494e-02,3.801269829273223877e-02,9.102050960063934326e-02,-8.407773822546005249e-02,-1.867249459028244019e-01,-3.558119833469390869e-01,4.074338451027870178e-02
7.255882769823074341e-02,1.125762313604354858e-01,1.949648857116699219e-01,-4.249356687068939209e-02,3.589789196848869324e-02,2.813806384801864624e-02,-2.365155816078186035e-01,-3.503954708576202393e-01,1.065630167722702026e-01
3.327446430921554565e-02,3.224290534853935242e-02,-1.134284064173698425e-01,3.346226736903190613e-02,-1.477819979190826416e-01,-1.951524764299392700e-01,3.200736641883850098e-02,-1.905596703290939331e-01,-1.619341522455215454e-01
-9.124868363142013550e-02,-7.921363413333892822e-02,4.569397494196891785e-02,2.184758782386779785e-01,-1.442011743783950806e-01,-4.225317239761352539e-01,-6.753982305526733398e-01,-1.018845960497856140e-01,3.103393316268920898e-01
-3.110490739345550537e-01,-1.438246071338653564e-01,1.258130222558975220e-01,-2.724280953407287598e-01,2.608546316623687744e-01,2.139939554035663605e-02,1.786640137434005737e-01,1.244968771934509277e-01,-2.057204544544219971e-01
-1.033847212791442871e+00,-2.811098396778106689e-01,1.192024946212768555e-01,-8.546811342239379883e-01,1.490717381238937378e-01,1.437948942184448242e-01,-5.868314504623413086e-01,-1.072434335947036743e-02,2.305172085762023926e-01
2.212600223720073700e-02,9.859622269868850708e-02,4.787006415426731110e-03,9.883862733840942383e-02,-6.105443462729454041e-02,-2.457894533872604370e-01,1.529714018106460571e-01,-4.511145055294036865e-01,-2.455658018589019775e-01
1.079621762037277222e-01,4.576422646641731262e-02,3.454907834529876709e-01,-1.322154104709625244e-01,-3.933431506156921387e-01,-1.100941970944404602e-01,2.189895659685134888e-01,7.550632953643798828e-02,2.590288594365119934e-02
6.118168123066425323e-03,-6.832270324230194092e-02,1.434936840087175369e-02,4.416190460324287415e-02,-2.060725912451744080e-02,1.377083454281091690e-02,-9.056762605905532837e-02,6.881164014339447021e-02,-9.264824539422988892e-02
7.032760232686996460e-02,-2.884614467620849609e-01,-2.953905761241912842e-01,2.012120336294174194e-01,1.890193521976470947e-01,8.604770898818969727e-02,-3.999246656894683838e-01,-1.351354867219924927e-01,-7.419812679290771484e-02
-1.782375276088714600e-01,-5.200811624526977539e-01,-5.903723835945129395e-02,2.548186182975769043e-01,1.226517036557197571e-01,9.186021238565444946e-02,-1.242113411426544189e-01,-2.436088919639587402e-01,6.862590461969375610e-02
-1.268707960844039917e-01,2.031794004142284393e-02,2.897123992443084717e-01,1.788495182991027832e-01,2.013186514377593994e-01,-1.596644073724746704e-01,1.451521217823028564e-01,-1.647794395685195923e-01,-3.379253745079040527e-01
6.258181482553482056e-02,8.158655464649200439e-02,-2.589921951293945312e-01,-4.806877113878726959e-03,-1.396390944719314575e-01,-1.155197918415069580e-01,4.614214971661567688e-02,1.693408936262130737e-02,1.747881434857845306e-02
3.929491341114044189e-02,1.276491966564208269e-04,-2.914436161518096924e-01,6.631370633840560913e-02,2.404869794845581055e-01,2.076640427112579346e-01,-3.296321332454681396e-01,-1.647103130817413330e-01,4.727247729897499084e-02
5.718336906284093857e-03,-3.023754358291625977e-01,2.248688936233520508e-01,-4.033628702163696289e-01,1.130886673927307129e-01,1.273813843727111816e-01,-6.926652044057846069e-02,2.296548485755920410e-01,1.326152216643095016e-02
1.348800361156463623e-01,8.418848738074302673e-03,2.239082455635070801e-01,-1.382366567850112915e-02,2.319654263556003571e-02,-2.689486369490623474e-03,-2.781562879681587219e-02,-2.983140647411346436e-01,-1.068524122238159180e-01
-4.675188064575195312e-01,2.611439116299152374e-02,1.424037367105484009e-01,2.880984842777252197e-01,1.902147382497787476e-01,-9.555330872535705566e-02,1.234176903963088989e-01,-1.866062730550765991e-01,-1.353803724050521851e-01
1.899475902318954468e-01,-3.205697834491729736e-01,-4.907671511173248291e-01,1.493014395236968994e-01,1.493698805570602417e-01,-6.697745919227600098e-01,5.650361999869346619e-02,-2.902626693248748779e-01,-4.035679101943969727e-01
1.574725843966007233e-02,2.204809524118900299e-02,5.079673603177070618e-02,1.943344026803970337e-01,-5.885523743927478790e-03,1.437775641679763794e-01,-2.922865450382232666e-01,-3.821847140789031982e-01,8.760491758584976196e-02
-7.868968248367309570e-01,-6.775803565979003906e-01,-4.495390653610229492e-01,-4.655216038227081299e-01,-1.056383475661277771e-01,9.806384332478046417e-03,-6.862764060497283936e-02,2.804104089736938477e-01,2.979838848114013672e-01
4.528183862566947937e-02,1.707272231578826904e-01,-2.995504140853881836e-01,7.423874735832214355e-02,9.927766770124435425e-02,-1.511223912239074707e-01,-1.395066385157406330e-03,3.143491744995117188e-01,2.225152403116226196e-02
1.052664667367935181e-01,-2.981713116168975830e-01,-2.859278582036495209e-02,4.438740015029907227e-02,7.126300781965255737e-02,7.988655567169189453e-02,-1.590287983417510986e-01,-4.503916203975677490e-01,-4.070111811161041260e-01
8.942283689975738525e-02,-2.237935066223144531e-01,-1.730836778879165649e-01,8.979234099388122559e-02,2.484225630760192871e-01,-3.093838989734649658e-01,-3.899987936019897461e-01,7.409022748470306396e-02,5.493613332509994507e-02
-1.505000144243240356e-01,1.662728190422058105e-02,-6.102205440402030945e-02,-1.268062144517898560e-01,-2.051433771848678589e-01,7.085346430540084839e-02,1.273493096232414246e-02,-1.557435560971498489e-02,7.309200614690780640e-02
-1.551009435206651688e-02,2.454345300793647766e-02,2.112207375466823578e-02,-2.796850539743900299e-02,-7.292993366718292236e-02,-3.515093773603439331e-02,3.605806827545166016e-02,-2.245414070785045624e-02,3.423010185360908508e-02
-3.153364658355712891e-01,3.412393629550933838e-01,-2.854405045509338379e-01,-2.532135844230651855e-01,-3.133745864033699036e-02,6.304020434617996216e-02,4.060549661517143250e-02,-3.726017475128173828e-02,-1.497055031359195709e-02
6.076169759035110474e-02,-4.686043262481689453e-01,-8.941721171140670776e-02,2.667216062545776367e-01,5.111230164766311646e-02,2.885616421699523926e-01,1.103611290454864502e-01,5.757201090455055237e-02,-2.963305413722991943e-01
9.192833304405212402e-02,1.932361721992492676e-01,-4.502320885658264160e-01,-1.702855676412582397e-01,3.647112846374511719e-01,-1.149410009384155273e-01,-4.123834967613220215e-01,2.455430328845977783e-01,-4.155813530087471008e-02
-7.813270390033721924e-02,-6.705873459577560425e-02,2.025387138128280640e-01,1.619019657373428345e-01,7.607693783938884735e-03,6.549781560897827148e-02,-1.147813275456428528e-01,-3.843818306922912598e-01,-1.183181405067443848e-01
1.850380189716815948e-02,9.864640235900878906e-02,-1.369898617267608643e-01,-5.937466397881507874e-02,-8.876974880695343018e-02,-4.863320291042327881e-02,2.861193614080548286e-03,3.541368618607521057e-02,-5.270344205200672150e-03
6.106380745768547058e-02,1.389637738466262817e-01,2.116340696811676025e-01,1.231341660022735596e-01,-4.104309380054473877e-01,-2.374760210514068604e-01,1.495848745107650757e-01,3.732884675264358521e-02,-1.130924373865127563e-01
3.693034499883651733e-02,-1.781139075756072998e-01,1.022538393735885620e-01,-3.595376908779144287e-01,-4.928718134760856628e-02,2.319315075874328613e-01,-8.323233341798186302e-04,2.334626168012619019e-01,9.985828772187232971e-03
-2.239263802766799927e-01,-3.101011216640472412e-01,-3.693549633026123047e-01,1.897802650928497314e-01,-1.006439048796892166e-02,-4.519685730338096619e-02,-1.565879136323928833e-01,1.469027251005172729e-01,-6.974936276674270630e-02
5.015227943658828735e-03,-3.964761272072792053e-02,-1.176231447607278824e-02,-5.535742640495300293e-02,-1.461098343133926392e-01,4.155969247221946716e-02,-6.924262642860412598e-02,-7.894035428762435913e-03,-4.209239408373832703e-02
2.030616253614425659e-01,1.426493674516677856e-01,6.816063076257705688e-02,-1.151176914572715759e-01,8.850046992301940918e-02,1.805323176085948944e-02,-2.059882879257202148e-01,-4.499408900737762451e-01,1.492678746581077576e-02
1.420609652996063232e-01,1.926967799663543701e-01,-1.788301616907119751e-01,1.378965824842453003e-01,1.866781562566757202e-01,-5.630576014518737793e-01,-6.989694237709045410e-01,-8.115442395210266113e-01,-3.311895951628684998e-02
-2.395381182432174683e-01,1.849665790796279907e-01,7.600101828575134277e-02,-5.287314206361770630e-02,2.159522920846939087e-01,-1.218146085739135742e-01,7.415564358234405518e-02,7.870249450206756592e-03,-3.230529129505157471e-01
4.419638589024543762e-02,1.601967774331569672e-02,7.606172561645507812e-02,4.208781290799379349e-03,1.331707835197448730e-02,2.636759355664253235e-02,-2.140815742313861847e-02,2.923424122855067253e-03,7.273250073194503784e-02
6.199975311756134033e-02,-5.938541889190673828e-02,1.638560928404331207e-02,3.313900530338287354e-02,-1.932348497211933136e-02,-1.292319446802139282e-01,-4.675311967730522156e-02,-2.939111292362213135e-01,-1.571667641401290894e-01
5.711112916469573975e-02,-4.647565633058547974e-02,-4.634489305317401886e-03,-1.916207969188690186e-01,2.423949241638183594e-01,1.973475515842437744e-02,-2.218412160873413086e-01,1.647620946168899536e-01,-4.080359339714050293e-01
8.044361323118209839e-02,-1.030113846063613892e-01,5.201260372996330261e-02,-1.025003194808959961e-01,-2.109032310545444489e-02,-2.286998741328716278e-02,-1.904755383729934692e-01,-3.290934562683105469e-01,-3.270638585090637207e-01
-2.443805150687694550e-02,-5.656991153955459595e-02,-3.720625042915344238e-01,1.647178381681442261e-01,1.284035146236419678e-01,4.580205976963043213e-01,-3.973948061466217041e-01,-1.042928248643875122e-01,-1.339021623134613037e-01
-7.138788700103759766e-02,-1.395438760519027710e-01,1.941886395215988159e-01,-3.181535303592681885e-01,1.581193208694458008e-01,1.252200454473495483e-01,1.302172690629959106e-01,2.691814303398132324e-01,-9.969174861907958984e-02
-3.127890229225158691e-01,-7.473924160003662109e-01,2.428029328584671021e-01,8.660811930894851685e-02,-1.798455864191055298e-01,-1.493044048547744751e-01,-4.172115027904510498e-02,4.782169708050787449e-05,1.001745164394378662e-01
-3.549725413322448730e-01,-3.989917933940887451e-01,5.641562119126319885e-02,-1.821846067905426025e-01,-2.528891265392303467e-01,1.994630545377731323e-01,-5.615156888961791992e-01,-1.931982636451721191e-01,3.264319598674774170e-01
-9.143073856830596924e-02,7.006311416625976562e-02,-3.187312558293342590e-02,-3.878125548362731934e-02,3.609232977032661438e-02,-1.928892731666564941e-01,4.078013077378273010e-02,-1.067173257470130920e-01,-9.502904117107391357e-02
-2.671492993831634521e-01,6.045283004641532898e-02,-4.121552035212516785e-02,-2.738848626613616943e-01,3.014762103557586670e-01,-2.238849848508834839e-01,-1.058923974633216858e-01,4.085792601108551025e-02,-4.264842271804809570e-01
-4.288084506988525391e-01,-5.291036516427993774e-02,2.821708023548126221e-01,3.390982747077941895e-01,1.703413277864456177e-01,-1.301677227020263672e-01,-3.541577979922294617e-02,-8.996552973985671997e-02,-1.420160681009292603e-01
6.648361682891845703e-02,8.477225154638290405e-02,-1.043589636683464050e-01,1.030368655920028687e-01,3.397378921508789062e-01,7.654119282960891724e-03,-4.498041868209838867e-01,-3.510147333145141602e-01,1.577989757061004639e-01
-1.631882600486278534e-02,-1.106501743197441101e-01,-3.172046840190887451e-01,1.474265754222869873e-01,3.405657410621643066e-01,-1.003165170550346375e-02,-4.884965121746063232e-01,-2.539831399917602539e-01,4.385634139180183411e-02
-1.547397524118423462e-01,-5.740451812744140625e-01,-2.691436558961868286e-02,1.478424221277236938e-01,-3.007860109210014343e-02,-4.354935511946678162e-02,2.152438312768936157e-01,2.725709974765777588e-01,-2.358124218881130219e-02
7.651878893375396729e-02,-1.030818894505500793e-01,-9.578201174736022949e-02,3.229144215583801270e-02,1.383949350565671921e-02,6.055936217308044434e-02,-1.127310022711753845e-01,-3.821903094649314880e-02,-5.586724355816841125e-02
3.174062967300415039e-01,-4.324705004692077637e-01,-4.533266723155975342e-01,-7.661431431770324707e-01,-3.760052025318145752e-01,1.936099827289581299e-01,-3.296773731708526611e-01,9.037428349256515503e-02,4.095015227794647217e-01
4.990775510668754578e-02,3.583122417330741882e-02,-1.201983541250228882e-01,8.844554424285888672e-02,-2.958076447248458862e-02,-1.201789528131484985e-01,5.467787384986877441e-03,-7.002731412649154663e-02,-1.881449222564697266e-01
1.624050587415695190e-01,-4.112454652786254883e-01,-1.044186651706695557e-01,1.651628762483596802e-01,1.436454355716705322e-01,3.952378332614898682e-01,-3.529603779315948486e-02,-1.989896297454833984e-01,3.539559990167617798e-02
2.497752159833908081e-01,1.754314005374908447e-01,4.889484494924545288e-02,1.608215421438217163e-01,1.071275696158409119e-01,-4.681772366166114807e-02,-5.613149702548980713e-02,-3.633289635181427002e-01,-3.266360461711883545e-01
2.385494299232959747e-02,-1.634934097528457642e-01,-1.791934669017791748e-01,6.534000486135482788e-02,-7.478316873311996460e-02,-2.180299535393714905e-02,-6.346081942319869995e-02,3.641542419791221619e-02,4.255462065339088440e-02
2.087107598781585693e-01,4.880305007100105286e-02,-5.882126688957214355e-01,4.160057008266448975e-01,3.528372198343276978e-02,-5.333117842674255371e-01,-1.594846546649932861e-01,-5.973754525184631348e-01,7.204031944274902344e-02
-6.312692910432815552e-02,-3.825131356716156006e-01,-1.890090852975845337e-01,6.082521751523017883e-02,1.579516232013702393e-01,3.445085883140563965e-01,-1.588742248713970184e-02,-1.693191081285476685e-01,-1.498923748731613159e-01
-1.540019363164901733e-01,2.255798727273941040e-01,1.836134046316146851e-01,2.705402970314025879e-01,8.243637159466743469e-03,-4.873670041561126709e-01,5.477774515748023987e-02,-3.057358264923095703e-01,1.859860867261886597e-01
1.248259022831916809e-01,-4.563854634761810303e-02,-4.974692165851593018e-01,5.991017073392868042e-02,1.144605875015258789e-01,-7.448833435773849487e-02,3.435996361076831818e-03,1.378275603055953979e-01,2.129848152399063110e-01
-4.131515622138977051e-01,1.163575798273086548e-01,2.898760735988616943e-01,1.419926434755325317e-01,1.888513751327991486e-02,-3.908741474151611328e-02,1.452886462211608887e-01,-1.677581816911697388e-01,8.680962957441806793e-03
3.029370121657848358e-02,-3.663325309753417969e-02,5.004158616065979004e-02,9.374774992465972900e-03,-1.435764431953430176e-01,-6.068329140543937683e-02,3.968180343508720398e-02,-1.107633262872695923e-01,-1.391551047563552856e-01
2.530062198638916016e-01,-1.076936349272727966e-01,2.823562324047088623e-01,-2.585914731025695801e-01,-4.524123966693878174e-01,-4.913320243358612061e-01,-1.624107211828231812e-01,5.090931430459022522e-03,-2.504493296146392822e-01
-1.907139644026756287e-02,4.327853769063949585e-02,-1.064706407487392426e-02,2.061003260314464569e-02,-3.548235818743705750e-02,6.423252075910568237e-02,-5.926549434661865234e-02,1.608201488852500916e-02,-4.920939449220895767e-03
-2.656261026859283447e-01,1.247497648000717163e-01,2.054617851972579956e-01,9.602161496877670288e-02,2.279484421014785767e-01,-1.912493407726287842e-01,3.199605271220207214e-02,-5.171567201614379883e-02,-3.011431097984313965e-01
-6.065007299184799194e-02,-9.035421907901763916e-02,-7.256845384836196899e-02,-5.721724778413772583e-02,-5.301832780241966248e-02,-1.064629852771759033e-02,-8.647138625383377075e-02,-8.580267429351806641e-02,-1.134550571441650391e-02
-7.211697101593017578e-02,-1.182323042303323746e-02,-2.913014730438590050e-03,2.896124124526977539e-02,-6.544231623411178589e-02,-6.920633465051651001e-02,-4.357498139142990112e-02,-4.613725095987319946e-02,1.607896946370601654e-02
9.744790196418762207e-02,1.373431831598281860e-01,2.170337140560150146e-01,-2.992795109748840332e-01,1.579776555299758911e-01,1.227391436696052551e-01,-4.685842990875244141e-01,-4.835459589958190918e-01,-6.695730090141296387e-01
1.523167081177234650e-02,3.223560005426406860e-02,-2.437655478715896606e-01,-8.391082286834716797e-03,-3.443765267729759216e-02,9.779106080532073975e-02,-1.144313141703605652e-01,-1.010795682668685913e-02,-8.411471545696258545e-02
-1.881559342145919800e-01,-4.464762210845947266e-01,-1.164660416543483734e-02,1.047250330448150635e-01,1.367381215095520020e-01,3.686343729496002197e-01,-2.246098965406417847e-01,-7.760082185268402100e-02,-4.343958497047424316e-01
8.134645968675613403e-02,-6.261995434761047363e-02,3.262880742549896240e-01,-1.518569886684417725e-01,-2.895268797874450684e-01,-7.718521356582641602e-02,-2.599506676197052002e-01,-2.946081459522247314e-01,3.336206078529357910e-02
5.894623324275016785e-02,5.495662242174148560e-02,-2.944921851158142090e-01,3.677992522716522217e-02,-1.502886414527893066e-01,-3.401379883289337158e-01,2.624910771846771240e-01,2.087489962577819824e-01,9.832987934350967407e-02
-1.140550300478935242e-01,-4.717374686151742935e-04,-2.985359728336334229e-01,-1.059074997901916504e-01,2.875759303569793701e-01,2.451692372560501099e-01,-4.202418029308319092e-01,-2.136198878288269043e-01,-4.294417053461074829e-02
-1.944249123334884644e-01,2.323536574840545654e-01,-9.778025746345520020e-02,-3.400317132472991943e-01,1.701130568981170654e-01,8.251719176769256592e-03,-3.039952814579010010e-01,1.008982062339782715e-01,8.710342645645141602e-02
1.387679949402809143e-02,1.158153116703033447e-01,9.265752136707305908e-02,-3.440195620059967041e-01,1.627359390258789062e-01,2.650321722030639648e-01,-2.819989621639251709e-01,-1.451275050640106201e-01,1.349448412656784058e-01
-7.099775969982147217e-02,-2.816378474235534668e-01,1.003863066434860229e-01,1.862771958112716675e-01,-2.439322769641876221e-01,3.844493031501770020e-01,9.713931381702423096e-02,-5.886717438697814941e-01,-1.995991766452789307e-01
2.550592422485351562e-01,2.283954620361328125e-01,3.328172490000724792e-02,-1.702721863985061646e-01,-2.362794876098632812e-01,5.554138123989105225e-02,-2.994951009750366211e-01,2.787130326032638550e-02,3.113937675952911377e-01
2.290947586297988892e-01,3.026301562786102295e-01,1.270941644906997681e-01,3.967342898249626160e-02,-4.662250578403472900e-01,-5.498668551445007324e-01,8.064690232276916504e-02,-2.826344370841979980e-01,4.662523865699768066e-01
-1.651810109615325928e-02,-2.802853286266326904e-01,-3.399622440338134766e-01,3.091006577014923096e-01,1.588881909847259521e-01,-4.443056881427764893e-02,7.023373153060674667e-03,-1.013037487864494324e-01,1.961241960525512695e-01
2.707635797560214996e-02,-7.832203805446624756e-02,7.121500372886657715e-02,-7.366318255662918091e-02,1.786050759255886078e-02,-1.247289776802062988e-01,2.333042770624160767e-02,-3.993732109665870667e-02,-5.287024751305580139e-02
1.282853931188583374e-01,2.339961007237434387e-02,-1.902637481689453125e-01,6.704359501600265503e-02,5.903524905443191528e-02,-3.711303472518920898e-01,9.510752558708190918e-02,1.876025348901748657e-01,-2.084944248199462891e-01
-1.949706673622131348e-01,2.266642823815345764e-02,8.351279050111770630e-02,-2.731222510337829590e-01,-5.671962723135948181e-02,2.230643108487129211e-02,-8.316682651638984680e-03,6.998556852340698242e-02,-4.903096240013837814e-03
-2.590926885604858398e-01,-4.272503554821014404e-01,-1.902012228965759277e-01,-6.679496169090270996e-02,-1.507669407874345779e-02,-4.085414856672286987e-02,1.111432760953903198e-01,2.894423305988311768e-01,2.100587338209152222e-01
1.314992606639862061e-01,1.340173780918121338e-01,2.384116649627685547e-01,-1.159575283527374268e-01,8.731544762849807739e-02,8.016072213649749756e-02,-1.901865750551223755e-01,-3.942288756370544434e-01,-1.800547391176223755e-01
1.939379028044641018e-03,1.012731492519378662e-01,-1.049655899405479431e-01,-7.762860972434282303e-03,-1.158638522028923035e-01,-7.764331996440887451e-02,-9.274967946112155914e-03,-2.571629919111728668e-02,1.811105757951736450e-02
-2.664627134799957275e-01,-7.965022325515747070e-02,2.444297075271606445e-01,4.732382670044898987e-02,6.220477074384689331e-02,1.636389642953872681e-01,3.513699397444725037e-02,-9.632511064410209656e-03,-1.379464566707611084e-01
-1.032574102282524109e-01,-5.167549252510070801e-01,-1.688719242811203003e-01,3.517089486122131348e-01,2.967691123485565186e-01,1.092203781008720398e-01,2.811296656727790833e-02,-5.755260121077299118e-03,-4.171529784798622131e-02
7.296287268400192261e-02,2.387275695800781250e-01,-1.743875294923782349e-01,1.229328289628028870e-01,-1.101074218750000000e-01,-3.420952260494232178e-01,5.607756599783897400e-02,-1.120085269212722778e-01,1.084139943122863770e-02
7.822548598051071167e-02,-3.837140202522277832e-01,-5.235134158283472061e-03,5.816216766834259033e-02,-2.203930765390396118e-01,-4.544783011078834534e-02,2.583766877651214600e-01,1.707837879657745361e-01,4.566094651818275452e-02
-2.964990735054016113e-01,4.058815166354179382e-02,8.862565271556377411e-03,2.118728458881378174e-01,2.012571878731250763e-02,-2.318040467798709869e-03,-6.188094615936279297e-02,-3.120536506175994873e-01,3.969820216298103333e-02
6.400517653673887253e-03,6.943511217832565308e-02,-3.585460186004638672e-01,-5.652675032615661621e-02,2.225262969732284546e-01,2.461804896593093872e-01,-7.570953369140625000e-01,-1.930562108755111694e-01,-7.759780436754226685e-02
1.288403756916522980e-03,4.271140322089195251e-02,-1.353642623871564865e-02,-2.743296092376112938e-03,-3.497603163123130798e-02,-1.344529390335083008e-01,-3.394957631826400757e-02,5.638169497251510620e-02,-1.275584399700164795e-01
5.912523716688156128e-02,-7.159225642681121826e-02,-7.896938361227512360e-03,1.556714158505201340e-02,1.747788395732641220e-03,4.764289042213931680e-05,-2.499587647616863251e-02,3.134764730930328369e-03,-1.199694443494081497e-02
1.085614971816539764e-02,-4.749465882778167725e-01,-1.686884313821792603e-01,-5.513031035661697388e-02,3.210099637508392334e-01,3.551413416862487793e-01,6.676098704338073730e-02,-9.799703210592269897e-02,-3.488028049468994141e-01
-6.602918356657028198e-02,4.105015099048614502e-02,2.516959607601165771e-01,-4.170794486999511719e-01,-6.004545092582702637e-01,2.795702021103352308e-04,2.597214281558990479e-01,-7.746112942695617676e-01,7.997782528400421143e-02
-4.062975645065307617e-01,-1.080611795186996460e-01,1.430730670690536499e-01,-1.393086016178131104e-01,2.972780168056488037e-02,1.582632213830947876e-01,2.438427209854125977e-01,1.915936022996902466e-01,-2.067327685654163361e-02
-1.786043494939804077e-02,-4.771051928400993347e-02,-1.444387435913085938e-01,-5.987412109971046448e-02,3.264140337705612183e-02,2.766348719596862793e-01,1.228167265653610229e-01,-5.031341314315795898e-01,-1.553976684808731079e-01
8.101657778024673462e-02,-1.551349461078643799e-02,-1.903232187032699585e-01,9.067323058843612671e-02,-4.463757574558258057e-02,-5.220377072691917419e-02,1.070686802268028259e-01,6.950696557760238647e-02,-1.640034317970275879e-01
-3.082917332649230957e-01,-7.261412739753723145e-01,-4.425871372222900391e-01,-7.076857089996337891e-01,-5.746570602059364319e-02,2.450445294380187988e-01,-1.308219432830810547e-01,2.588674426078796387e-01,3.144561648368835449e-01
-2.339100837707519531e-01,-1.171262860298156738e-01,1.984884403645992279e-02,-7.668016850948333740e-02,-2.279586493968963623e-01,-2.017266154289245605e-01,1.697539091110229492e-01,-2.031495049595832825e-02,1.919505596160888672e-01
-2.924747467041015625e-01,-1.159193068742752075e-01,1.312352716922760010e-01,1.762839257717132568e-01,1.561063975095748901e-01,-5.810615420341491699e-02,5.053591728210449219e-02,-3.242125809192657471e-01,-3.255303502082824707e-01
1.808816343545913696e-01,7.268443703651428223e-02,-3.214922249317169189e-01,1.496360898017883301e-01,-9.796404838562011719e-02,-2.043237388134002686e-01,2.237233519554138184e-01,1.275471597909927368e-01,1.271638274192810059e-01
-1.247758418321609497e-01,-1.367861777544021606e-01,2.070609107613563538e-02,4.640940576791763306e-02,-6.981553882360458374e-02,9.453302621841430664e-02,-1.048677563667297363e-01,-2.288445234298706055e-01,-2.438767403364181519e-01
-1.056251153349876404e-01,1.106719113886356354e-02,4.254487529397010803e-02,3.612717147916555405e-03,1.763592101633548737e-02,-1.261671166867017746e-02,-3.039611130952835083e-02,2.552086301147937775e-02,2.335891686379909515e-02
1.502684950828552246e-01,-4.649220779538154602e-02,1.072330996394157410e-01,-1.044995635747909546e-01,-7.620547711849212646e-02,-1.570968888700008392e-02,-9.738941490650177002e-02,1.948157884180545807e-02,-4.455357789993286133e-01
-1.915037333965301514e-01,-3.339799642562866211e-01,-5.861743912100791931e-02,-5.672242492437362671e-02,6.946676969528198242e-02,9.488449245691299438e-02,2.271298915147781372e-01,1.432774662971496582e-01,-1.171574443578720093e-01
-1.060866788029670715e-01,-1.533145010471343994e-01,-2.814131677150726318e-01,-2.027973532676696777e-02,1.395457088947296143e-01,3.086358010768890381e-01,-5.148135870695114136e-02,-4.191363453865051270e-01,-1.622564531862735748e-02
-1.689026653766632080e-01,-3.583051562309265137e-01,7.547619193792343140e-02,2.565011978149414062e-01,2.806719951331615448e-02,2.009543925523757935e-01,1.176690384745597839e-01,-4.756713211536407471e-01,-1.320322006940841675e-01
3.678724914789199829e-02,3.189093619585037231e-02,-8.588404208421707153e-02,-1.729975827038288116e-02,-1.061942428350448608e-01,-5.013516917824745178e-02,3.273340314626693726e-02,1.102572400122880936e-02,-1.058177743107080460e-02
-2.662595212459564209e-01,-1.275973618030548096e-01,2.152150869369506836e-01,9.095618128776550293e-02,1.017995402216911316e-01,-3.166472539305686951e-02,3.082033479586243629e-03,-3.868537247180938721e-01,-3.970059454441070557e-01
-5.496440827846527100e-02,2.513130903244018555e-01,-2.813090682029724121e-01,-1.407130807638168335e-01,2.105070650577545166e-01,-2.819912135601043701e-01,-2.137643396854400635e-01,2.944674789905548096e-01,-1.182942166924476624e-01
-2.242696881294250488e-01,-5.087970495223999023e-01,2.643515765666961670e-01,-5.500745773315429688e-01,-1.787362098693847656e-01,2.415008097887039185e-01,-3.125134110450744629e-01,-1.929200440645217896e-01,2.260197252035140991e-01
-1.020151749253273010e-01,-2.548969388008117676e-01,2.158071994781494141e-01,2.133909799158573151e-02,-4.711571931838989258e-01,-3.306236565113067627e-01,3.680057227611541748e-01,8.132994920015335083e-02,-9.692618995904922485e-02
2.907815575599670410e-01,-1.869217157363891602e-01,-5.818536281585693359e-01,3.680391013622283936e-01,-1.635960042476654053e-01,-5.451816320419311523e-01,-4.439426586031913757e-02,-5.146064162254333496e-01,-3.373811244964599609e-01
-5.409788489341735840e-01,1.409073919057846069e-01,2.081358730792999268e-01,1.458237469196319580e-01,2.416410595178604126e-01,-2.114355862140655518e-01,4.014921560883522034e-02,-3.405487909913063049e-02,-3.187375068664550781e-01
-2.139628231525421143e-01,-4.084284007549285889e-01,-1.887574195861816406e-01,-1.897964440286159515e-02,-1.429940387606620789e-02,-6.790938228368759155e-02,1.488989293575286865e-01,1.808745563030242920e-01,-2.129597961902618408e-02
2.363895475864410400e-01,1.745986342430114746e-01,2.494169920682907104e-01,-8.256307989358901978e-02,7.537545263767242432e-02,8.181992173194885254e-02,-3.569680750370025635e-01,-3.780913650989532471e-01,-2.455215007066726685e-01
-5.107041820883750916e-02,1.150479838252067566e-01,-2.230940163135528564e-01,-1.541778296232223511e-01,-8.548562414944171906e-03,-1.243494261871092021e-05,-2.532525360584259033e-01,-4.707645624876022339e-02,3.357688337564468384e-02
-7.178487256169319153e-03,1.781494915485382080e-01,9.229667484760284424e-02,2.545290589332580566e-01,1.441735029220581055e-01,7.322717458009719849e-02,-1.478847116231918335e-01,-4.139531850814819336e-01,-2.139966636896133423e-01
4.529135674238204956e-02,-6.749423593282699585e-02,-1.872588992118835449e-01,-1.342874765396118164e-01,6.715339422225952148e-02,4.302524402737617493e-02,-6.877134740352630615e-02,-8.208080381155014038e-02,-7.970402017235755920e-03
-7.605421543121337891e-02,5.966195091605186462e-02,6.612647324800491333e-02,5.662362650036811829e-02,3.437331318855285645e-01,-2.120039165019989014e-01,6.840175390243530273e-02,-1.012515723705291748e-01,-2.875597774982452393e-01
2.528035826981067657e-02,-8.007071912288665771e-03,-1.524125039577484131e-02,-2.215971425175666809e-02,-6.643998622894287109e-02,-3.547618910670280457e-02,1.672948151826858521e-02,7.217463105916976929e-03,-2.300057932734489441e-02
5.149628967046737671e-02,-1.908393949270248413e-02,-5.926452577114105225e-03,6.475175917148590088e-02,3.898511081933975220e-02,-3.253320455551147461e-01,7.974483072757720947e-02,1.355074942111968994e-01,-6.813631206750869751e-02
7.933700084686279297e-02,-4.258461296558380127e-02,-1.482350528240203857e-01,6.145386770367622375e-02,-5.490997806191444397e-02,-1.915401895530521870e-03,3.335918858647346497e-02,-9.788186289370059967e-04,6.131346523761749268e-02
3.832370787858963013e-02,-2.861084230244159698e-02,-9.610065072774887085e-02,1.953312903642654419e-01,8.394546061754226685e-02,-1.639091372489929199e-01,-1.990928500890731812e-01,2.658768296241760254e-01,-4.502019286155700684e-02
2.990775406360626221e-01,1.804083585739135742e-01,-4.952197968959808350e-01,1.132734268903732300e-01,3.062607906758785248e-02,-5.135927796363830566e-01,-2.727525830268859863e-01,-2.159844487905502319e-01,-2.360808998346328735e-01
-5.695312842726707458e-02,2.783769071102142334e-01,-5.446600914001464844e-01,-3.483808934688568115e-01,2.806508839130401611e-01,1.532023996114730835e-01,-7.119335979223251343e-02,-2.625359594821929932e-01,7.763980329036712646e-02
-2.113086730241775513e-01,3.454601764678955078e-02,-4.723877832293510437e-02,-5.723384674638509750e-03,2.058721147477626801e-02,1.071577239781618118e-02,-7.174284011125564575e-02,-3.924639150500297546e-02,5.921061336994171143e-02
-8.880528621375560760e-03,7.161864638328552246e-02,-8.900676667690277100e-02,1.805134564638137817e-01,-9.675714373588562012e-02,-1.511716395616531372e-01,1.434255391359329224e-01,5.923426151275634766e-02,-1.964050829410552979e-01
-6.905125975608825684e-01,-7.050831317901611328e-01,-2.891022264957427979e-01,1.218256577849388123e-01,1.320253033190965652e-02,-5.043604373931884766e-01,3.181004431098699570e-03,3.068065941333770752e-01,1.236543729901313782e-01
-4.427335858345031738e-01,6.908556912094354630e-03,9.010413661599159241e-03,-8.668392151594161987e-02,4.286018013954162598e-01,-1.949054598808288574e-01,4.972553253173828125e-02,1.332544088363647461e-01,-4.957488775253295898e-01
2.723231315612792969e-01,-2.082248330116271973e-01,9.454680979251861572e-02,-2.745535671710968018e-01,-4.494625627994537354e-01,-2.246144562959671021e-01,9.075939655303955078e-02,4.839587956666946411e-02,-3.949013352394104004e-01
-1.368162930011749268e-01,-2.115852236747741699e-01,-1.132681667804718018e-01,2.510737180709838867e-01,3.396596908569335938e-01,1.719894856214523315e-01,-3.684391975402832031e-01,-1.204396262764930725e-01,-1.452956795692443848e-01
1.459907889366149902e-01,-2.338407002389431000e-02,-6.831758469343185425e-02,-2.940187416970729828e-02,9.253969043493270874e-02,-1.188542917370796204e-01,-4.086104333400726318e-01,-9.362786263227462769e-02,1.038851067423820496e-01
-1.093692146241664886e-02,-2.478475309908390045e-02,-2.470869570970535278e-02,-3.880863636732101440e-02,-6.869233399629592896e-02,1.298667304217815399e-02,5.103326588869094849e-02,-5.939402058720588684e-02,-3.163970634341239929e-02
8.920200914144515991e-02,-4.407457262277603149e-02,-1.369227617979049683e-01,4.003244265913963318e-02,-1.921633630990982056e-02,-6.267436314374208450e-03,-1.520190015435218811e-02,1.489395927637815475e-02,7.751277089118957520e-02
7.953386008739471436e-02,-1.350733935832977295e-01,-5.431893467903137207e-02,-1.438769549131393433e-01,-1.107299327850341797e-01,-7.513891160488128662e-02,-5.945119541138410568e-03,8.032085746526718140e-02,-2.209131121635437012e-01
3.146591037511825562e-02,-3.592939972877502441e-01,-1.971934437751770020e-01,4.018281102180480957e-01,-6.222233176231384277e-02,7.489746436476707458e-03,1.742574423551559448e-01,-7.145987357944250107e-03,2.128216326236724854e-01
1.518482267856597900e-01,1.610010415315628052e-01,3.149852752685546875e-01,-6.367397308349609375e-02,1.193787809461355209e-02,-9.544307366013526917e-03,-4.037402197718620300e-02,-3.247638642787933350e-01,-2.402877807617187500e-01
2.425977215170860291e-02,-1.311526168137788773e-02,3.279062360525131226e-02,-3.036898747086524963e-02,1.106946263462305069e-02,-4.448257386684417725e-02,-7.190006971359252930e-02,5.309701338410377502e-02,4.717277362942695618e-02
-6.826689932495355606e-03,9.379751235246658325e-02,-1.258013993501663208e-01,1.809473522007465363e-02,3.271811306476593018e-01,-2.461296468973159790e-01,-6.589511036872863770e-01,3.023593127727508545e-01,1.358226779848337173e-02
-3.369174599647521973e-01,2.381508052349090576e-01,7.237390428781509399e-02,-5.372218489646911621e-01,3.152604699134826660e-01,1.768095791339874268e-01,-4.809961318969726562e-01,-4.901900142431259155e-02,-1.030697003006935120e-01
1.958619356155395508e-01,4.487290233373641968e-02,3.414206579327583313e-02,-2.926437258720397949e-01,1.527065187692642212e-01,2.948457002639770508e-01,-3.002320230007171631e-01,-1.348332613706588745e-01,2.063978463411331177e-01
6.576161831617355347e-02,-4.310721755027770996e-01,-1.075500473380088806e-01,-2.113097310066223145e-01,-3.958211280405521393e-03,1.550492793321609497e-01,1.445820778608322144e-01,3.277054429054260254e-01,-6.607635319232940674e-02
-4.119984433054924011e-02,-2.813522703945636749e-03,-2.129668742418289185e-01,8.864953368902206421e-02,3.294381871819496155e-02,-2.763798832893371582e-01,5.290284380316734314e-02,1.369500011205673218e-01,3.199078608304262161e-03
2.779775112867355347e-02,8.210236579179763794e-02,-1.650072634220123291e-01,-1.731681078672409058e-02,-9.923744201660156250e-02,-3.741514310240745544e-02,6.855219835415482521e-04,8.605532348155975342e-02,6.776589900255203247e-02
1.862106621265411377e-01,2.839066386222839355e-01,-2.072239108383655548e-02,1.772161126136779785e-01,-2.408795952796936035e-01,-3.914594352245330811e-01,-1.757589168846607208e-02,-3.171072006225585938e-01,3.050985634326934814e-01
-1.036042869091033936e-01,1.693424433469772339e-01,2.747893035411834717e-01,-2.948643267154693604e-01,-1.712625287473201752e-02,2.363149672746658325e-01,-1.388757377862930298e-01,-3.223664164543151855e-01,-7.024890929460525513e-02
-2.742206156253814697e-01,-1.891101598739624023e-01,6.109913438558578491e-02,9.708475321531295776e-02,7.738416641950607300e-02,-5.217934399843215942e-02,-1.707897931337356567e-01,-6.093455106019973755e-02,-3.107610940933227539e-01
-2.178680449724197388e-01,-1.268248856067657471e-01,-1.737536042928695679e-01,5.818964168429374695e-02,5.822364240884780884e-02,-2.327825576066970825e-01,-1.018567755818367004e-02,4.921963065862655640e-02,-2.610955536365509033e-01
4.286836087703704834e-01,-6.354392170906066895e-01,-9.057337045669555664e-02,-5.220921039581298828e-01,-3.653986454010009766e-01,2.801060676574707031e-01,-6.589311957359313965e-01,1.738648861646652222e-01,-5.056670401245355606e-03
-3.153289854526519775e-01,-2.676314115524291992e-01,-8.635174483060836792e-02,1.394691765308380127e-01,1.526530236005783081e-01,3.299652338027954102e-01,-3.224589824676513672e-01,4.373130574822425842e-02,-3.654687702655792236e-01
-5.182773247361183167e-02,-2.669335156679153442e-02,3.110883198678493500e-02,1.370093971490859985e-01,1.187823526561260223e-02,-1.961504481732845306e-02,-2.398400940001010895e-02,4.831310827285051346e-03,-1.917395591735839844e-01
-1.398960351943969727e-01,5.690164491534233093e-02,-3.718190640211105347e-02,4.589514061808586121e-02,6.384335458278656006e-02,-2.082502841949462891e-02,-7.157265394926071167e-02,-5.196089670062065125e-02,-7.340056449174880981e-02
-2.987369596958160400e-01,-2.581537961959838867e-01,2.770909368991851807e-01,1.033610403537750244e-01,2.524360418319702148e-01,9.523626416921615601e-02,-2.370657399296760559e-02,-8.002687245607376099e-02,-1.883636265993118286e-01
1.429796963930130005e-01,6.122556701302528381e-02,-1.138941645622253418e-01,2.677533775568008423e-02,-7.322418689727783203e-02,-1.674785614013671875e-01,7.646017521619796753e-02,9.460777789354324341e-02,-2.658182382583618164e-02
1.607174426317214966e-01,3.892323747277259827e-02,3.897658586502075195e-01,1.353589296340942383e-01,9.780309349298477173e-02,3.603159636259078979e-02,-3.256306648254394531e-01,-6.009506583213806152e-01,-2.711458504199981689e-01
1.072862092405557632e-02,2.353639304637908936e-01,-3.905932903289794922e-01,-9.324993938207626343e-02,2.755400240421295166e-01,-1.088504791259765625e-01,2.012583613395690918e-02,1.308017522096633911e-01,1.212349720299243927e-02
8.672883361577987671e-02,-3.815779637079685926e-04,-3.413392603397369385e-02,7.993197441101074219e-02,-5.733957886695861816e-02,-3.826621770858764648e-01,1.328246085904538631e-03,2.204389274120330811e-01,-8.294430375099182129e-02
6.711264699697494507e-02,3.678312897682189941e-01,6.599103100597858429e-03,3.180891871452331543e-01,1.585543155670166016e-01,-4.393814504146575928e-01,-1.663829684257507324e-01,-2.144187390804290771e-01,-1.406683921813964844e-01
-8.250781334936618805e-03,6.034694984555244446e-02,1.746764220297336578e-02,-4.579864814877510071e-02,-6.754431873559951782e-02,-1.757969260215759277e-01,-1.686307936906814575e-01,7.548990845680236816e-02,-3.335182741284370422e-02
-1.953099668025970459e-01,-2.563126981258392334e-01,1.842624843120574951e-01,1.344932359643280506e-03,3.114823400974273682e-01,2.022255510091781616e-01,2.129153460264205933e-01,-8.532415330410003662e-02,-2.656557261943817139e-01
-2.746099233627319336e-01,-1.285006701946258545e-01,-1.278608292341232300e-02,-2.396116964519023895e-02,-1.531368214637041092e-02,1.559029370546340942e-01,-5.793324206024408340e-03,1.250212639570236206e-02,-1.246334090828895569e-01
-1.504118740558624268e-01,-2.158872187137603760e-01,3.747872710227966309e-01,-3.312294781208038330e-01,4.559783264994621277e-02,1.223199963569641113e-01,-2.156665548682212830e-02,2.172048538923263550e-01,-1.320332847535610199e-02
-1.557779312133789062e-01,-2.853492796421051025e-01,-3.061176240444183350e-01,7.286701351404190063e-02,-2.171967364847660065e-02,1.515363007783889771e-01,-1.460063010454177856e-01,-1.085418462753295898e-01,-1.219459548592567444e-01
-3.564726114273071289e-01,-2.658360600471496582e-01,2.545977197587490082e-02,1.994415670633316040e-01,2.436212748289108276e-01,1.027335301041603088e-01,1.452205628156661987e-01,-5.340344309806823730e-01,-3.620302975177764893e-01
8.183430135250091553e-02,9.702092409133911133e-02,-6.745123118162155151e-02,-2.791912853717803955e-01,7.258792966604232788e-02,-1.044620573520660400e-01,-1.353566199541091919e-01,1.323317140340805054e-01,-2.192446961998939514e-03
-1.480030864477157593e-01,-7.091954350471496582e-01,-2.743811905384063721e-01,-8.042426109313964844e-01,-6.513199210166931152e-02,2.718816697597503662e-01,-4.173279106616973877e-01,1.621132642030715942e-01,3.551304936408996582e-01
1.085896492004394531e-01,2.497887313365936279e-01,7.432977855205535889e-02,-1.994429826736450195e-01,1.317731291055679321e-01,6.230059079825878143e-03,-4.442781805992126465e-01,-7.578475028276443481e-02,1.551877111196517944e-01
-2.963736280798912048e-02,2.371075749397277832e-02,-1.788396686315536499e-01,-4.866864159703254700e-02,-1.857842318713665009e-02,1.559411734342575073e-02,1.199951767921447754e-02,-8.265429735183715820e-02,-3.090509027242660522e-02
1.255636364221572876e-01,-2.860988080501556396e-01,-9.387776255607604980e-02,7.082219421863555908e-02,-1.443015187978744507e-01,3.188595548272132874e-02,2.172062844038009644e-01,9.168100357055664062e-02,8.879675297066569328e-04
2.893099002540111542e-02,1.535749137401580811e-01,9.225548058748245239e-02,-2.519319765269756317e-02,-1.813586950302124023e-01,-3.106105625629425049e-01,1.348066478967666626e-01,1.149944290518760681e-01,2.181473076343536377e-01
-8.899006992578506470e-03,-3.331395238637924194e-02,4.151448234915733337e-02,-1.055365577340126038e-01,-2.938004955649375916e-02,-2.970940805971622467e-02,7.458630204200744629e-02,-4.045230522751808167e-02,2.213153429329395294e-02
2.564850449562072754e-01,2.894596755504608154e-01,1.183195933699607849e-01,-1.583115756511688232e-01,-4.847812652587890625e-01,-3.165989220142364502e-01,-1.884005032479763031e-02,1.782247871160507202e-01,3.609486520290374756e-01
6.289763003587722778e-02,-1.391747593879699707e-01,-3.497709929943084717e-01,1.371357291936874390e-01,3.976569771766662598e-01,8.479962497949600220e-02,-5.904585719108581543e-01,-2.234854847192764282e-01,-8.065243810415267944e-02
1.362054198980331421e-01,1.398642733693122864e-02,1.338592320680618286e-01,-1.364026814699172974e-01,-1.439744532108306885e-01,1.808871030807495117e-01,5.306819453835487366e-02,1.059437394142150879e-01,-5.060517787933349609e-01
-3.380450233817100525e-02,2.862107707187533379e-03,2.019501030445098877e-01,-2.488757967948913574e-01,4.022118076682090759e-02,1.815905123949050903e-01,-1.556219309568405151e-01,-5.495579242706298828e-01,-8.138869702816009521e-02
-3.584612905979156494e-02,5.861504003405570984e-02,-3.721695020794868469e-02,-1.495801955461502075e-01,-1.427691429853439331e-02,-6.573154032230377197e-02,-9.006015211343765259e-02,6.504905968904495239e-02,-3.382948413491249084e-02
-1.323137879371643066e-01,2.566815912723541260e-01,-5.509668588638305664e-01,-1.251812428236007690e-01,3.300328850746154785e-01,1.513331979513168335e-01,-2.901578843593597412e-01,-4.141379296779632568e-01,7.138395216315984726e-03
-2.540455460548400879e-01,-2.593561112880706787e-01,1.277574449777603149e-01,-2.788018062710762024e-02,-5.560398474335670471e-02,1.805142164230346680e-01,1.421828269958496094e-01,1.454721689224243164e-01,3.292863816022872925e-02
1.442677825689315796e-01,-1.520222723484039307e-01,-8.407801389694213867e-02,4.021083191037178040e-02,-2.610882222652435303e-01,-1.280425190925598145e-01,3.133913502097129822e-02,6.066329032182693481e-02,2.745269099250435829e-03
-2.956964634358882904e-02,1.636628620326519012e-02,5.133766308426856995e-02,-1.532599236816167831e-02,-4.166864603757858276e-02,-4.797716811299324036e-02,-8.859254419803619385e-03,3.927975520491600037e-02,2.207536454079672694e-04
9.042758494615554810e-02,3.812917172908782959e-01,-4.317158162593841553e-01,-2.427883297204971313e-01,2.297904044389724731e-01,9.159857779741287231e-02,-3.712499439716339111e-01,6.845413148403167725e-02,6.758821755647659302e-02
4.436872899532318115e-02,-3.389833569526672363e-01,-2.714368999004364014e-01,-1.225877404212951660e-01,7.210551202297210693e-02,-4.227492585778236389e-02,9.599251300096511841e-02,9.484513103961944580e-02,1.475241631269454956e-01
-1.208052318543195724e-02,-1.778747439384460449e-01,-4.524562954902648926e-01,2.577997744083404541e-01,1.702482849359512329e-01,1.374272687826305628e-05,-1.135786771774291992e-01,1.119130551815032959e-01,1.945904046297073364e-01
3.899379819631576538e-02,-3.257079422473907471e-02,-2.294597476720809937e-01,-4.852823168039321899e-02,1.149561852216720581e-01,-2.586664399132132530e-03,-2.301701456308364868e-01,2.602959610521793365e-02,-5.290255066938698292e-04
5.025815218687057495e-02,-5.968794822692871094e-01,-4.344805609434843063e-03,4.566523432731628418e-01,6.941102445125579834e-02,2.791736647486686707e-02,-6.401274353265762329e-02,3.269673511385917664e-02,-9.925802052021026611e-02
1.111742705106735229e-01,2.747798152267932892e-02,-1.698693186044692993e-01,2.363254129886627197e-01,5.926064401865005493e-02,-3.538435399532318115e-01,1.264174282550811768e-01,-2.342588305473327637e-01,-7.091463804244995117e-01
1.804686039686203003e-01,-1.201532408595085144e-01,-3.427069187164306641e-01,1.983239948749542236e-01,4.935945570468902588e-02,-3.425395698286592960e-04,-1.456680744886398315e-01,9.030602127313613892e-02,1.808001399040222168e-01
-2.936823070049285889e-01,-5.205786228179931641e-01,-9.194814413785934448e-02,-5.748137086629867554e-02,4.569244384765625000e-02,-2.987242862582206726e-02,2.691333889961242676e-01,2.701264917850494385e-01,2.455676160752773285e-02
-2.670257687568664551e-01,-9.204088151454925537e-02,2.383132651448249817e-02,2.701261937618255615e-01,2.242546230554580688e-01,1.032058298587799072e-01,-1.024525314569473267e-01,-5.093413591384887695e-01,4.712833464145660400e-02
-2.954324893653392792e-02,5.498854070901870728e-02,-2.182257026433944702e-01,-2.400072664022445679e-02,-1.890503987669944763e-02,-8.653722703456878662e-02,-1.876563392579555511e-02,-9.113037027418613434e-03,8.228751830756664276e-03
-6.586079299449920654e-02,2.133475840091705322e-01,-3.604355752468109131e-01,-1.095632463693618774e-02,-6.697856634855270386e-02,-4.704275727272033691e-02,2.194307446479797363e-01,-9.733237326145172119e-02,2.147952169179916382e-01
5.095004662871360779e-02,1.180507615208625793e-02,2.149453908205032349e-01,1.036468967795372009e-01,9.681691974401473999e-02,-1.010536029934883118e-01,1.099903434514999390e-01,-1.540641020983457565e-02,-1.401350647211074829e-01
2.747972495853900909e-03,-3.433656096458435059e-01,-1.149801239371299744e-01,2.244920730590820312e-01,-6.143899634480476379e-02,2.701913239434361458e-03,-2.620611153542995453e-02,2.256467938423156738e-02,1.918637752532958984e-02
2.387975156307220459e-01,-2.576543390750885010e-01,5.139949172735214233e-02,-5.010200142860412598e-01,-1.291694790124893188e-01,2.170321494340896606e-01,2.024248689413070679e-01,3.378617763519287109e-01,-9.301546216011047363e-02
2.082238160073757172e-02,1.166618987917900085e-01,-5.257188081741333008e-01,-2.468569129705429077e-01,2.554148435592651367e-01,1.917062103748321533e-01,-5.602250695228576660e-01,-6.052996590733528137e-02,-2.714288979768753052e-02
-1.483235787600278854e-02,-2.499011578038334846e-03,2.994547970592975616e-02,-5.938997119665145874e-02,-3.005100972950458527e-02,-2.574894204735755920e-02,2.908875606954097748e-02,-1.504223700612783432e-02,3.620863333344459534e-02
8.600766956806182861e-02,-3.183786198496818542e-02,-2.980259954929351807e-01,-2.580323256552219391e-02,3.301019594073295593e-02,-8.310140669345855713e-02,5.815304815769195557e-02,-3.654864057898521423e-02,8.456168323755264282e-02
-1.584420353174209595e-01,-3.765242397785186768e-01,-8.323436230421066284e-02,-1.422038376331329346e-01,1.862736344337463379e-01,1.127368509769439697e-01,1.751598268747329712e-01,-4.737598448991775513e-02,-1.051055267453193665e-01
-2.670105397701263428e-01,-3.199109137058258057e-01,-6.280510425567626953e-01,-1.500581353902816772e-01,-2.377643994987010956e-02,-1.421760022640228271e-02,2.481648325920104980e-02,8.946342021226882935e-02,1.378669291734695435e-01
2.352073192596435547e-01,2.892843186855316162e-01,3.609048575162887573e-02,-1.128401458263397217e-01,-1.830023713409900665e-02,3.383658453822135925e-02,-3.432444334030151367e-01,-3.012329339981079102e-01,-4.495706409215927124e-02
-4.993782639503479004e-01,9.286705404520034790e-02,1.678443551063537598e-01,-5.875276774168014526e-02,3.959656953811645508e-01,-9.749614447355270386e-02,-1.520588528364896774e-02,1.615176647901535034e-01,-4.090802073478698730e-01
-9.891612082719802856e-02,3.798019140958786011e-02,-3.348324596881866455e-01,-7.686295360326766968e-02,1.816527992486953735e-01,3.546134829521179199e-01,-2.812192738056182861e-01,-1.711694300174713135e-01,3.554715961217880249e-02
2.991387546062469482e-01,8.455201983451843262e-02,-2.797338664531707764e-01,2.874395847320556641e-01,-3.792553246021270752e-01,-6.606320142745971680e-01,-1.312478929758071899e-01,-5.367276072502136230e-01,1.919483095407485962e-01
-3.469845652580261230e-01,2.235505133867263794e-01,2.524569034576416016e-01,-7.264634966850280762e-01,8.583413809537887573e-02,2.544062137603759766e-01,-3.403515517711639404e-01,-3.196599334478378296e-02,1.520646959543228149e-01
-2.895892970263957977e-02,-4.838254153728485107e-01,-1.986286789178848267e-02,8.090090006589889526e-03,-9.608578681945800781e-02,-6.327650696039199829e-02,3.535906672477722168e-01,1.271795481443405151e-01,8.842837996780872345e-03
-8.547524362802505493e-02,2.245572954416275024e-02,5.647930130362510681e-02,1.856639422476291656e-02,-3.836524114012718201e-02,4.646246135234832764e-02,3.251890838146209717e-02,5.187766626477241516e-02,-5.796352401375770569e-02
1.009153649210929871e-01,-2.010615319013595581e-01,-1.981695592403411865e-01,-9.299658238887786865e-02,5.580584332346916199e-02,1.520570069551467896e-01,3.116263821721076965e-02,-3.657261282205581665e-02,-7.047587633132934570e-02
1.108302995562553406e-01,3.408100223168730736e-03,-5.311295986175537109e-01,1.802932322025299072e-01,2.480665408074855804e-02,-3.984624445438385010e-01,5.261921137571334839e-02,-5.206513404846191406e-01,-3.347456455230712891e-01
-5.119656324386596680e-01,-3.039198815822601318e-01,1.393227577209472656e-01,-2.215313315391540527e-01,-8.399011194705963135e-02,2.552406191825866699e-01,-2.876150608062744141e-01,-2.906986176967620850e-01,-6.538515537977218628e-02
1.129675507545471191e-01,1.318189650774002075e-01,9.703056514263153076e-02,2.163507640361785889e-01,-3.912453949451446533e-01,-2.630564272403717041e-01,-3.795748576521873474e-02,-4.099673405289649963e-02,2.922466099262237549e-01
1.552799833007156849e-03,9.055276960134506226e-02,-3.128076195716857910e-01,1.048613935708999634e-01,-3.268696367740631104e-02,-1.980914473533630371e-01,2.293007522821426392e-01,2.865217253565788269e-02,2.559697069227695465e-02
-1.033740043640136719e-01,3.581533133983612061e-01,2.655702829360961914e-01,-1.259147644042968750e+00,-4.081123769283294678e-01,-8.185499906539916992e-02,2.412863820791244507e-01,-7.653342485427856445e-01,-3.254373073577880859e-01
-1.672237068414688110e-01,4.208356514573097229e-02,1.031417027115821838e-01,-5.209702998399734497e-02,-5.585942044854164124e-02,-6.654351949691772461e-02,-3.972350433468818665e-02,4.745142534375190735e-02,2.132263965904712677e-02
2.304498106241226196e-02,-1.598933041095733643e-01,-7.781849801540374756e-02,1.053798664361238480e-02,-2.439261041581630707e-02,1.155012324452400208e-01,-7.854267954826354980e-02,9.911333210766315460e-03,-1.865462362766265869e-01
-2.676494121551513672e-01,-4.098661541938781738e-01,-1.420625001192092896e-01,1.320045292377471924e-01,-5.092325806617736816e-02,-4.320351779460906982e-01,4.170848429203033447e-01,2.339231520891189575e-01,-3.973914682865142822e-02
-2.034141682088375092e-02,1.374329924583435059e-01,2.427040487527847290e-01,-3.661133944988250732e-01,4.727167263627052307e-02,2.599352300167083740e-01,-3.388081789016723633e-01,-5.832788944244384766e-01,-1.685182005167007446e-01
5.939415097236633301e-02,-1.073999851942062378e-01,-1.366484165191650391e-01,-4.217277094721794128e-02,-3.163182735443115234e-02,7.855653017759323120e-02,-2.304298058152198792e-02,3.187659010291099548e-02,-1.160639226436614990e-01
-2.584434449672698975e-01,1.953469067811965942e-01,-2.183210104703903198e-01,-3.192023336887359619e-01,1.482775509357452393e-01,1.473931074142456055e-01,2.255194485187530518e-01,1.407733261585235596e-01,-2.495741248130798340e-01
1.177784353494644165e-01,1.540952175855636597e-01,-1.147016361355781555e-01,-1.944192647933959961e-01,1.311925351619720459e-01,-1.384603790938854218e-03,-3.952547013759613037e-01,-1.008014008402824402e-01,-2.437993586063385010e-01
-2.413797751069068909e-02,-1.476568281650543213e-01,-2.068295329809188843e-01,-2.300793863832950592e-02,-5.495586991310119629e-01,3.636549115180969238e-01,-4.449001252651214600e-01,-6.060970425605773926e-01,3.957777097821235657e-02
1.728610508143901825e-02,2.662011981010437012e-02,-3.605479300022125244e-01,1.891645789146423340e-01,-1.031520310789346695e-02,-2.382566332817077637e-01,2.562530338764190674e-01,1.175534129142761230e-01,3.133274987339973450e-02
-1.154076829552650452e-01,4.700156301259994507e-02,-1.061586812138557434e-01,-4.204101115465164185e-02,-5.046163871884346008e-02,4.453799873590469360e-02,2.972218208014965057e-02,-4.309535771608352661e-02,2.460433752276003361e-04
2.424833625555038452e-01,1.027067378163337708e-01,2.601461410522460938e-01,3.937202692031860352e-02,-2.140244394540786743e-01,-1.436803936958312988e-01,-3.886751234531402588e-01,-6.508666090667247772e-03,3.719904124736785889e-01
-1.763615310192108154e-01,-1.474490202963352203e-02,1.772363185882568359e-01,1.104340478777885437e-01,-4.858622327446937561e-02,-1.224737390875816345e-01,-2.997763641178607941e-02,-1.998109221458435059e-01,-2.162187993526458740e-01
5.924614518880844116e-02,5.635866522789001465e-02,-2.594905719161033630e-02,-2.934762835502624512e-01,3.661445528268814087e-02,-6.757800281047821045e-02,-1.671016812324523926e-01,6.043991819024085999e-02,4.989206790924072266e-02
2.680921554565429688e-01,1.125173047184944153e-01,2.747934758663177490e-01,-5.216555669903755188e-02,-1.342950109392404556e-02,8.858828246593475342e-02,-2.705687656998634338e-02,-4.150515496730804443e-01,-2.125207036733627319e-01
1.448882520198822021e-01,-2.348414957523345947e-01,6.370002031326293945e-02,-1.525311470031738281e-01,-1.313764601945877075e-01,5.090099200606346130e-02,-1.328556090593338013e-01,-3.425668552517890930e-02,-1.408676505088806152e-01
-8.530578576028347015e-03,-1.642808876931667328e-02,2.476608939468860626e-02,3.109788894653320312e-02,-9.005057811737060547e-02,-4.657629877328872681e-02,-3.225649520754814148e-02,2.101108245551586151e-02,-1.921351701021194458e-01
1.693030074238777161e-02,1.541016101837158203e-01,-3.027139306068420410e-01,1.754851490259170532e-01,2.931784689426422119e-01,2.996335327625274658e-01,-6.260932087898254395e-01,-2.584520876407623291e-01,5.668255686759948730e-02
-7.344310283660888672e-01,-2.946410775184631348e-01,2.018368393182754517e-01,-4.872082471847534180e-01,-2.083996236324310303e-01,1.786329597234725952e-01,-4.297487735748291016e-01,-4.843901097774505615e-02,1.404943615198135376e-01
-4.768821001052856445e-01,2.498514018952846527e-02,3.403477966785430908e-01,2.775016706436872482e-03,1.068712323904037476e-01,-4.942418932914733887e-01,-2.634052336215972900e-01,3.465251997113227844e-02,1.060140039771795273e-02
2.487086504697799683e-02,-1.349357217550277710e-01,4.577155783772468567e-02,-7.573734223842620850e-02,1.040614694356918335e-01,-4.435212165117263794e-02,6.032177433371543884e-02,-7.660162448883056641e-02,-2.902021110057830811e-01
7.138538360595703125e-02,2.875813245773315430e-01,-1.255848109722137451e-01,1.452784687280654907e-01,-3.096160478889942169e-03,-3.643740117549896240e-01,-4.533354192972183228e-02,8.836665190756320953e-03,-1.287104338407516479e-01
1.766504049301147461e-01,6.043427437543869019e-02,6.675154436379671097e-03,-3.790774345397949219e-01,3.973083198070526123e-02,-2.125887013971805573e-02,-8.330689370632171631e-02,6.280229985713958740e-02,2.998609542846679688e-01
-2.520421333611011505e-02,-2.472515217959880829e-02,-1.315054297447204590e-01,1.629144400358200073e-01,-3.215147927403450012e-02,-3.526007235050201416e-01,9.729739278554916382e-02,-2.071897871792316437e-02,-6.895814090967178345e-02
2.534229159355163574e-01,-1.610769182443618774e-01,2.213927358388900757e-01,-2.726762294769287109e-01,1.036843582987785339e-01,-3.311028182506561279e-01,-3.060718476772308350e-01,4.468389749526977539e-01,-2.809436321258544922e-01
2.968595176935195923e-02,-3.221078217029571533e-02,5.626008287072181702e-02,-1.292583253234624863e-02,-4.631138965487480164e-02,3.537898510694503784e-02,2.660318836569786072e-02,-5.556343123316764832e-03,-1.523968949913978577e-02
9.647882543504238129e-03,2.634554505348205566e-01,-2.976541221141815186e-01,1.720763891935348511e-01,-8.836208283901214600e-02,-1.668765544891357422e-01,1.036633327603340149e-01,-2.140011489391326904e-01,1.937229484319686890e-01
-1.653912961483001709e-01,-5.359372496604919434e-01,-3.595178946852684021e-02,-1.144855935126543045e-02,-8.962399512529373169e-02,2.500006742775440216e-02,2.702246606349945068e-01,2.600977718830108643e-01,1.725991964340209961e-01
1.765923947095870972e-01,-6.212760508060455322e-02,-8.130049705505371094e-01,2.063932269811630249e-01,-3.818395137786865234e-01,-9.072468429803848267e-02,-4.760248959064483643e-01,-4.690112769603729248e-01,1.664396971464157104e-01
1.086798980832099915e-01,-1.299853622913360596e-01,-4.206438064575195312e-01,2.447958886623382568e-01,1.372326314449310303e-01,-5.807048454880714417e-02,-1.796703040599822998e-02,2.193990796804428101e-01,8.974280208349227905e-02
7.312446366995573044e-03,-2.552523910999298096e-01,-3.543848991394042969e-01,1.395745426416397095e-01,3.948301076889038086e-01,1.116627156734466553e-01,-1.975963711738586426e-01,-2.884676456451416016e-01,-1.798093691468238831e-02
7.413789629936218262e-02,-8.362109959125518799e-02,-1.085774227976799011e-01,-9.162658452987670898e-02,-4.555389657616615295e-02,3.642493858933448792e-03,3.673939965665340424e-03,1.197818294167518616e-02,-3.644707798957824707e-02
3.021354377269744873e-01,1.152000427246093750e-01,-1.062102988362312317e-01,1.302258819341659546e-01,4.149929806590080261e-02,-4.288587570190429688e-01,1.381513662636280060e-02,-2.490724921226501465e-01,-2.425651550292968750e-01
2.451060265302658081e-01,1.584618389606475830e-01,1.590956561267375946e-02,-3.467656970024108887e-01,-4.833617508411407471e-01,-4.051324352622032166e-02,2.404969036579132080e-01,1.599699407815933228e-01,1.924663782119750977e-01
1.104950010776519775e-01,-1.411469429731369019e-01,2.156688831746578217e-02,-9.585178457200527191e-03,1.633909344673156738e-01,2.496604770421981812e-01,-1.777870059013366699e-01,-2.847309708595275879e-01,-1.473221927881240845e-01
-6.153807509690523148e-03,-3.930333554744720459e-01,4.171670600771903992e-02,1.074071750044822693e-01,-3.370101377367973328e-02,-8.859898149967193604e-02,-8.869863301515579224e-02,4.773460701107978821e-02,8.801818639039993286e-02
1.236803308129310608e-01,-6.145408377051353455e-02,1.879259049892425537e-01,1.148104742169380188e-01,8.165317773818969727e-02,-9.019984304904937744e-02,-1.649438440799713135e-01,-1.973154395818710327e-01,-8.156488835811614990e-02
-8.190446346998214722e-02,-4.276365414261817932e-02,-9.902870282530784607e-03,-1.149605885148048401e-01,1.329716201871633530e-02,-1.758566941134631634e-03,-9.509801119565963745e-02,-3.723689913749694824e-02,-5.314495041966438293e-02
-4.734159633517265320e-02,-1.535893138498067856e-02,2.287496328353881836e-01,3.550858050584793091e-02,2.939161360263824463e-01,-6.113569065928459167e-02,9.345183521509170532e-02,-1.403384208679199219e-01,-2.811225950717926025e-01
5.208672955632209778e-02,-4.044631421566009521e-01,-1.175790876150131226e-01,-3.037592768669128418e-01,2.571734227240085602e-02,1.783305853605270386e-01,-1.328995171934366226e-02,1.719242632389068604e-01,-3.468291461467742920e-01
4.129014909267425537e-02,-7.096859067678451538e-02,-3.591641411185264587e-02,1.917810551822185516e-02,-6.421284377574920654e-02,9.591323882341384888e-02,-2.652909047901630402e-02,-2.489113621413707733e-02,-1.626677662134170532e-01
-4.442164003849029541e-01,2.024748772382736206e-01,1.130444481968879700e-01,-1.521542370319366455e-01,2.909406125545501709e-01,-1.916493773460388184e-01,2.752541005611419678e-02,1.622508913278579712e-01,-4.276864230632781982e-01
-8.376505225896835327e-02,-5.002169609069824219e-01,-6.217002868652343750e-02,3.649681508541107178e-01,2.933645248413085938e-01,-3.403681144118309021e-02,-1.799280568957328796e-02,-8.367016911506652832e-02,5.076342448592185974e-02
-2.207777500152587891e-01,-4.799396991729736328e-01,-2.110152095556259155e-01,-1.547181606292724609e-01,2.005522549152374268e-01,2.670490741729736328e-01,1.646601259708404541e-01,1.370834857225418091e-01,-1.612328290939331055e-01
8.099415153264999390e-02,-2.175913900136947632e-01,8.899039775133132935e-02,-4.990169405937194824e-01,4.474993795156478882e-02,1.786268055438995361e-01,1.038203015923500061e-02,2.762252688407897949e-01,-6.166376546025276184e-02
-9.677468799054622650e-03,-9.035061299800872803e-02,-4.013486206531524658e-01,2.475588768720626831e-02,-3.331170603632926941e-02,-1.467143185436725616e-02,8.664276450872421265e-02,-4.763952270150184631e-02,2.671914398670196533e-01
-7.817795872688293457e-02,5.169922485947608948e-02,-5.866292119026184082e-02,-3.294026479125022888e-02,-6.492351740598678589e-02,-4.905044659972190857e-02,-2.447609417140483856e-02,2.410390786826610565e-02,-1.420233212411403656e-02
-5.546930059790611267e-02,-2.540990114212036133e-01,5.505590699613094330e-03,-3.426782786846160889e-01,2.762189209461212158e-01,6.006583198904991150e-02,-7.815789431333541870e-03,1.975935548543930054e-01,-5.234098434448242188e-01
-2.527762763202190399e-02,-3.187903761863708496e-01,1.950764283537864685e-02,1.218637302517890930e-01,5.996480584144592285e-02,1.522503495216369629e-01,-2.830602526664733887e-01,-6.971582025289535522e-02,-3.174005448818206787e-01
-1.089482456445693970e-01,-2.636338174343109131e-01,2.828090786933898926e-01,-4.883176088333129883e-01,4.680882021784782410e-02,1.336667984724044800e-01,-3.881139680743217468e-02,1.910093873739242554e-01,-4.666285216808319092e-01
1.571025997400283813e-01,-1.301719248294830322e-01,-2.371614128351211548e-01,1.279011815786361694e-01,-9.829881601035594940e-03,-4.006470739841461182e-01,5.883038789033889771e-02,-1.446128189563751221e-01,-2.612595260143280029e-01
-3.974336087703704834e-01,-4.178082048892974854e-01,1.514459252357482910e-01,2.575535476207733154e-01,1.655614823102951050e-01,2.356930226087570190e-01,7.807199656963348389e-02,-5.117153525352478027e-01,-2.388936579227447510e-01
3.146578967571258545e-01,-4.178874194622039795e-01,-7.410603761672973633e-02,2.898321747779846191e-01,-3.813640475273132324e-01,6.733785569667816162e-02,2.473755478858947754e-01,-7.774245925247669220e-03,5.286268144845962524e-02
-2.202919870615005493e-01,-1.142875030636787415e-01,7.462490350008010864e-02,-1.124443933367729187e-01,-1.249979902058839798e-02,-2.722734399139881134e-02,1.498185843229293823e-01,-2.847089245915412903e-02,-9.450291097164154053e-02
7.839430123567581177e-02,6.529884785413742065e-02,-3.797468841075897217e-01,3.368759155273437500e-02,7.367188483476638794e-02,-1.815716028213500977e-01,-2.355819046497344971e-01,2.374719381332397461e-01,1.127626467496156693e-02
-3.784549608826637268e-02,-4.342442452907562256e-01,-9.109371900558471680e-02,1.316822022199630737e-01,2.649083547294139862e-02,1.439593881368637085e-01,-1.790168462321162224e-03,1.150176376104354858e-01,-1.353574544191360474e-01
1.582769677042961121e-02,8.342380821704864502e-02,-4.229001402854919434e-01,-6.086337193846702576e-02,4.188138544559478760e-01,-2.592658102512359619e-01,-2.000919878482818604e-01,2.898463010787963867e-01,-9.953823871910572052e-03
3.657433204352855682e-03,1.526162028312683105e-01,-3.481335043907165527e-01,-6.845542043447494507e-02,-8.740334957838058472e-02,-6.392643600702285767e-02,6.287629902362823486e-02,1.658629477024078369e-01,8.730135113000869751e-02
-4.418928623199462891e-01,1.463692933320999146e-01,2.182488441467285156e-01,-5.083444118499755859e-01,2.162767797708511353e-01,2.935087084770202637e-01,-5.705825090408325195e-01,-1.218188256025314331e-01,1.420711725950241089e-01
1.109722703695297241e-01,8.512774109840393066e-02,1.708665192127227783e-01,-2.742031589150428772e-02,4.427688941359519958e-02,-1.474249064922332764e-01,-1.885518133640289307e-01,-3.675642013549804688e-01,1.399173438549041748e-01
2.460072189569473267e-02,5.166460759937763214e-03,-7.521858811378479004e-02,-1.187850311398506165e-01,4.660188034176826477e-02,-1.305353790521621704e-01,-1.037652939558029175e-01,3.274318529292941093e-03,-5.938970018178224564e-03
-5.199126526713371277e-02,7.679624855518341064e-02,-4.648438096046447754e-01,-1.873503327369689941e-01,2.004328668117523193e-01,2.215443700551986694e-01,-3.783948123455047607e-01,-3.838637769222259521e-01,2.529406733810901642e-02
-6.217927336692810059e-01,5.671775713562965393e-02,-9.148671478033065796e-02,1.054501459002494812e-01,4.654294550418853760e-01,3.544877097010612488e-02,-1.714411824941635132e-01,-1.285269856452941895e-01,-3.292298018932342529e-01
-8.227252215147018433e-02,-2.947156429290771484e-01,-5.350665450096130371e-01,1.692253202199935913e-01,2.377136796712875366e-02,2.140156365931034088e-02,-4.014489948749542236e-01,4.629790037870407104e-02,-8.126980066299438477e-02
2.288566678762435913e-01,6.017312780022621155e-02,-5.371553301811218262e-01,-1.599069982767105103e-01,3.484539091587066650e-01,-1.183154806494712830e-01,-1.928217858076095581e-01,2.848840355873107910e-01,-3.351958096027374268e-01
1.981334835290908813e-01,-3.200723230838775635e-01,-3.139837086200714111e-01,2.501861453056335449e-01,2.060043811798095703e-01,-2.576794289052486420e-02,3.955313190817832947e-02,-8.311681449413299561e-02,-5.692230537533760071e-02
-7.678028196096420288e-02,3.258196637034416199e-02,7.212412357330322266e-02,-2.405998706817626953e-01,3.044126033782958984e-01,-5.036655664443969727e-01,-5.738865584135055542e-02,1.864485889673233032e-01,-1.581511795520782471e-01
1.420634705573320389e-02,2.578894980251789093e-02,-4.212393984198570251e-02,-3.670084848999977112e-02,2.486782148480415344e-03,-1.215037778019905090e-01,-7.182129472494125366e-02,-1.606255024671554565e-02,2.472862228751182556e-02
-3.086978793144226074e-01,-9.953797608613967896e-02,1.512893736362457275e-01,1.521488279104232788e-01,3.111515343189239502e-01,1.080203354358673096e-01,1.741935461759567261e-01,-7.134382426738739014e-02,-2.074220329523086548e-01
1.458864752203226089e-02,1.152912229299545288e-01,-3.685386776924133301e-01,-1.478388905525207520e-01,1.101434156298637390e-01,8.482887595891952515e-02,-1.857466846704483032e-01,-4.211179167032241821e-02,-4.887149482965469360e-02
2.323457896709442139e-01,1.895329803228378296e-01,-5.927021056413650513e-02,2.818321995437145233e-02,-1.801830977201461792e-01,-1.836684495210647583e-01,-2.481403052806854248e-01,-2.017377763986587524e-01,2.284067869186401367e-01
2.783299796283245087e-02,8.156875520944595337e-02,-1.233827844262123108e-01,4.714067559689283371e-03,-1.006789319217205048e-02,5.375083163380622864e-02,-9.815711528062820435e-04,3.319842368364334106e-02,1.727686636149883270e-02
-7.074877619743347168e-02,3.710878267884254456e-02,-3.350253403186798096e-02,-5.481645464897155762e-02,-1.743807084858417511e-02,-7.219520956277847290e-02,-2.724057808518409729e-02,-2.899955585598945618e-02,3.343181312084197998e-02
-1.148520112037658691e-01,2.701344192028045654e-01,-3.078382611274719238e-01,-2.611412107944488525e-01,7.916823029518127441e-03,-1.461616307497024536e-01,4.139252472668886185e-03,3.770625963807106018e-02,-1.021826639771461487e-01
3.705277442932128906e-01,-2.143957018852233887e-01,1.479825228452682495e-01,-6.828658282756805420e-02,-6.873764395713806152e-01,2.946488745510578156e-02,-1.576544493436813354e-01,8.838240057229995728e-03,-9.884922504425048828e-01
2.017199695110321045e-01,1.702537089586257935e-01,6.906743347644805908e-02,-7.515824586153030396e-02,4.621794447302818298e-02,5.392672494053840637e-02,-1.238703057169914246e-01,-3.801489770412445068e-01,-2.504177987575531006e-01
4.947177693247795105e-02,-1.791709335520863533e-03,5.369419232010841370e-02,-2.889455528929829597e-03,-6.607228424400091171e-03,5.772669613361358643e-02,4.498448595404624939e-02,3.217495232820510864e-02,2.959649451076984406e-02
-5.208393093198537827e-03,-3.042848408222198486e-02,-7.212567329406738281e-02,2.491385303437709808e-02,-1.371765322983264923e-02,1.203630641102790833e-01,-3.286223486065864563e-02,-1.376061439514160156e-01,-2.398802489042282104e-01
-2.530748769640922546e-02,-1.044530123472213745e-01,-3.254825770854949951e-01,1.209198590368032455e-02,2.139870375394821167e-01,2.618602812290191650e-01,-3.395789861679077148e-01,-3.848970234394073486e-01,-1.583906114101409912e-01
1.173033714294433594e-01,-1.735670417547225952e-01,-2.294027656316757202e-01,2.490426898002624512e-01,-6.011252477765083313e-02,-1.368130091577768326e-02,1.388473957777023315e-01,-7.900720834732055664e-02,2.617633342742919922e-01
-8.789824321866035461e-03,9.247470647096633911e-02,-2.268523164093494415e-02,1.018672948703169823e-03,-1.585733331739902496e-02,-4.801138117909431458e-02,2.197382412850856781e-02,-1.561683509498834610e-02,-6.537000089883804321e-02
1.224852949380874634e-01,1.801251918077468872e-01,8.486824482679367065e-02,-5.288153886795043945e-01,-8.738630264997482300e-02,2.172570675611495972e-01,6.599344313144683838e-03,3.674801439046859741e-02,1.084266602993011475e-01
1.629593223333358765e-01,2.116819918155670166e-01,3.239147737622261047e-02,1.208183020353317261e-01,1.203974783420562744e-01,-3.308382630348205566e-01,-8.011450618505477905e-02,-5.023044347763061523e-02,-3.513481020927429199e-01
-2.034251093864440918e-01,-3.677963018417358398e-01,-4.926601052284240723e-02,-1.936684250831604004e-01,4.173330217599868774e-02,3.404032289981842041e-01,-1.081991046667098999e-01,-9.536873549222946167e-02,-2.526572942733764648e-01
-7.396414279937744141e-01,-7.537080049514770508e-01,-6.487293243408203125e-01,-5.093286558985710144e-02,-7.601850479841232300e-02,-1.554962545633316040e-01,7.495282590389251709e-02,2.131536751985549927e-01,3.424301743507385254e-02
-1.321012377738952637e-01,-3.632307350635528564e-01,-1.489616930484771729e-01,2.422733604907989502e-01,2.083870172500610352e-01,1.044374182820320129e-01,-3.025224804878234863e-01,-1.157099157571792603e-01,-2.783037349581718445e-02
1.087351515889167786e-02,-4.238518178462982178e-01,-1.727463006973266602e-01,3.460530340671539307e-01,4.586777836084365845e-02,3.385850042104721069e-02,-1.476780027151107788e-01,1.480273455381393433e-01,5.413358658552169800e-02
-1.590011715888977051e-01,-8.024559915065765381e-02,-1.734554022550582886e-01,5.891456082463264465e-02,-4.941390454769134521e-02,-1.181953251361846924e-01,-6.782662123441696167e-02,4.766714759171009064e-03,3.499459102749824524e-02
-1.428498141467571259e-02,-2.312592118978500366e-01,-9.177431464195251465e-03,-1.022389382123947144e-01,-2.039124071598052979e-01,-1.369697004556655884e-01,1.774647086858749390e-01,2.572986185550689697e-01,1.309844255447387695e-01
4.013810157775878906e-01,-5.958890914916992188e-01,1.326832920312881470e-01,-1.557940542697906494e-01,-2.036229372024536133e-01,3.627243041992187500e-01,2.696779966354370117e-01,-1.529907807707786560e-02,-5.746576562523841858e-02
-4.195807576179504395e-01,1.830110549926757812e-01,8.177307993173599243e-02,-1.878770738840103149e-01,1.107451096177101135e-01,-3.064620494842529297e-01,9.790693968534469604e-02,-1.137311086058616638e-01,-4.825946316123008728e-02
-3.492955863475799561e-01,-5.062236189842224121e-01,2.953238412737846375e-02,1.514590680599212646e-01,3.426102176308631897e-02,-6.600682735443115234e-01,1.853003501892089844e-01,2.729334533214569092e-01,-1.411157660186290741e-02
1.515225321054458618e-01,-7.191952317953109741e-02,-3.118035793304443359e-01,2.460799217224121094e-01,2.545989491045475006e-02,-4.065319895744323730e-01,2.760578691959381104e-01,1.369455009698867798e-01,2.252606861293315887e-02
1.903022378683090210e-01,1.631590873003005981e-01,3.103597462177276611e-01,-1.321901977062225342e-01,-5.111060291528701782e-02,6.180455535650253296e-02,-4.359823837876319885e-02,-4.527212083339691162e-01,-1.313218772411346436e-01
3.893348574638366699e-02,1.308499574661254883e-01,1.984880864620208740e-01,2.305025607347488403e-01,8.388344198465347290e-03,-1.917974948883056641e-01,-2.697418928146362305e-01,-3.208732604980468750e-01,7.958296686410903931e-02
-4.020875692367553711e-02,-4.634144529700279236e-02,-6.417959928512573242e-02,-5.708285048604011536e-02,-5.405557528138160706e-02,-4.677466675639152527e-02,-8.120137453079223633e-02,-8.644065260887145996e-02,-7.680626958608627319e-02
1.334007233381271362e-01,-6.983766704797744751e-02,-4.001925885677337646e-02,-4.052789881825447083e-02,-1.481590270996093750e-01,1.606096178293228149e-01,-9.397325664758682251e-02,-3.541467487812042236e-01,-3.328385949134826660e-01
-6.069946289062500000e-02,1.051650941371917725e-01,4.098654165863990784e-02,-3.810200393199920654e-01,-3.222121000289916992e-01,1.366197168827056885e-01,2.403991669416427612e-01,6.110988184809684753e-02,2.896108850836753845e-02
-1.925117820501327515e-01,5.283908545970916748e-02,1.218180805444717407e-01,5.828891322016716003e-02,1.602476090192794800e-02,-7.419355958700180054e-02,-7.182750850915908813e-02,5.702193360775709152e-03,3.556921705603599548e-02
-8.250382542610168457e-02,-4.026331007480621338e-01,3.244165182113647461e-01,1.909358352422714233e-01,-2.668819129467010498e-01,1.885574012994766235e-01,1.677884757518768311e-01,-6.614409089088439941e-01,-1.599859595298767090e-01
3.275752067565917969e-02,-1.785836927592754364e-02,7.064425945281982422e-02,-7.700683176517486572e-02,-7.401733845472335815e-02,-2.335630506277084351e-01,-1.318660378456115723e-01,2.437963150441646576e-02,4.124274104833602905e-02
9.535774588584899902e-02,7.900681346654891968e-02,-6.017471551895141602e-01,7.615515589714050293e-02,9.712557494640350342e-02,-1.046395078301429749e-01,-5.925500392913818359e-02,1.888347268104553223e-01,2.106945961713790894e-01
5.794659256935119629e-03,2.434455417096614838e-02,1.255961041897535324e-02,-9.258759021759033203e-02,-2.190656773746013641e-02,4.890732839703559875e-02,-5.214978754520416260e-02,-4.169484227895736694e-02,9.877480566501617432e-02
-1.692292094230651855e-01,1.106784045696258545e-01,-7.246048748493194580e-02,-4.327953755855560303e-01,3.522962331771850586e-01,-2.096197009086608887e-02,7.324931025505065918e-02,2.021540254354476929e-01,-2.931907773017883301e-01
-2.113262712955474854e-01,1.085615158081054688e-01,1.363666802644729614e-01,3.199083805084228516e-01,1.309190988540649414e-01,-2.168594449758529663e-01,3.318773955106735229e-02,-4.805339872837066650e-01,1.879646778106689453e-01
-3.249223828315734863e-01,-1.544272899627685547e-01,7.056019455194473267e-02,2.239340990781784058e-01,2.678405046463012695e-01,-3.853617981076240540e-02,1.242718845605850220e-02,-2.068753987550735474e-01,-4.058113396167755127e-01
-1.269453763961791992e-01,2.069627791643142700e-01,-1.374832093715667725e-01,-5.007438659667968750e-01,1.925299316644668579e-01,1.022405028343200684e-01,-7.992826402187347412e-03,-1.659199297428131104e-01,1.851259320974349976e-01
-3.556618392467498779e-01,-5.411916226148605347e-02,2.726083397865295410e-01,-3.262170851230621338e-01,1.235278919339179993e-01,1.566245108842849731e-01,-1.277915686368942261e-01,-4.860576707869768143e-03,7.610294967889785767e-02
1.021041497588157654e-01,1.266151815652847290e-01,1.100865229964256287e-01,-3.178914189338684082e-01,-1.628965139389038086e-01,6.224466487765312195e-02,-1.389857232570648193e-01,2.390998005867004395e-01,-3.805517032742500305e-02
5.035569518804550171e-02,-1.697617918252944946e-01,-2.725209295749664307e-01,-5.701536536216735840e-01,-2.451887726783752441e-01,1.398699730634689331e-01,-4.971700534224510193e-02,2.892319262027740479e-01,2.422833740711212158e-01
1.769063025712966919e-01,7.645471394062042236e-02,-2.117465138435363770e-01,1.780452206730842590e-02,3.705638051033020020e-01,2.158268243074417114e-01,-5.767855048179626465e-01,-1.309426780790090561e-02,9.093046188354492188e-02
2.141672819852828979e-01,1.049187332391738892e-01,1.314224451780319214e-01,-2.184696346521377563e-01,9.815588593482971191e-02,1.095243380405008793e-03,-1.486323177814483643e-01,-3.675138950347900391e-01,-1.884108036756515503e-01
3.400399535894393921e-02,-2.085248082876205444e-01,-1.307251751422882080e-01,-2.940193377435207367e-02,1.800936609506607056e-01,-1.208813190460205078e-01,-2.733783423900604248e-01,-1.497201174497604370e-01,-5.104802846908569336e-01
5.623684078454971313e-02,-6.525486707687377930e-03,-1.952876709401607513e-02,-2.071002265438437462e-03,-3.876778110861778259e-02,-5.716078449040651321e-03,-2.187402732670307159e-02,7.492329180240631104e-02,-9.838582575321197510e-02
9.245497174561023712e-03,1.213362999260425568e-02,-9.359352290630340576e-02,6.890934426337480545e-03,-8.093210309743881226e-02,6.755114346742630005e-02,4.201155155897140503e-03,4.139697179198265076e-02,-1.829262971878051758e-01
