1.079611778259277344e-01,-1.394063979387283325e-01,-3.344392478466033936e-01,5.597686171531677246e-01,-3.868062496185302734e-01,-5.238509774208068848e-01,4.712252616882324219e-01,2.979140542447566986e-02,1.230013296008110046e-01
-1.975767016410827637e-01,-3.623541593551635742e-01,3.714257180690765381e-01,-1.617381274700164795e-01,9.456489235162734985e-02,-4.701884172391146421e-04,-7.271789014339447021e-02,3.856905102729797363e-01,-4.044939279556274414e-01
-1.024801284074783325e-01,1.526444405317306519e-02,-7.351923733949661255e-02,8.680556900799274445e-03,-6.055520474910736084e-02,-8.785800635814666748e-02,-9.221491403877735138e-03,-7.125294208526611328e-02,-3.298055753111839294e-02
2.563871741294860840e-01,7.589734345674514771e-02,3.201711475849151611e-01,-9.235732257366180420e-02,-5.634583830833435059e-01,1.520059555768966675e-01,1.408500075340270996e-01,1.339268237352371216e-01,2.838939130306243896e-01
-8.028504997491836548e-02,2.776316702365875244e-01,5.370222330093383789e-01,-4.848531484603881836e-01,-2.572960257530212402e-01,7.867078483104705811e-02,-8.268253803253173828e-01,-6.294441223144531250e-01,-1.094813719391822815e-01
-4.416458308696746826e-01,-8.721027523279190063e-02,1.480423659086227417e-01,3.151236474514007568e-01,4.604193270206451416e-01,-7.470581680536270142e-02,-1.114485189318656921e-01,-1.478462815284729004e-01,-4.546572566032409668e-01
-4.331140816211700439e-01,-3.322324752807617188e-01,-1.353956162929534912e-01,1.997824013233184814e-01,3.734290599822998047e-01,3.483546972274780273e-01,8.084467798471450806e-02,-2.169817984104156494e-01,-2.693603634834289551e-01
5.152781605720520020e-01,2.695519328117370605e-01,2.699622884392738342e-02,-3.059471584856510162e-02,1.471655219793319702e-01,-2.154266089200973511e-01,-3.007054030895233154e-01,-3.596850037574768066e-01,-5.486661195755004883e-01
-2.830704152584075928e-01,5.517497062683105469e-01,-2.023376971483230591e-01,-4.197854101657867432e-01,3.032189607620239258e-01,-2.176968753337860107e-01,-2.392604500055313110e-01,4.445022046566009521e-01,-2.092829942703247070e-01
3.079624772071838379e-01,3.091476261615753174e-01,1.954369693994522095e-01,-4.707994759082794189e-01,-6.038503050804138184e-01,-5.959312319755554199e-01,1.585799753665924072e-01,4.678343832492828369e-01,1.247684583067893982e-01
2.963988482952117920e-01,6.749830394983291626e-02,2.229811549186706543e-01,9.250155091285705566e-02,1.699144195299595594e-04,7.775605469942092896e-02,5.818149819970130920e-02,2.287197858095169067e-02,4.521268233656883240e-02
-3.186744153499603271e-01,-3.107903301715850830e-01,1.795983314514160156e-01,-7.239144444465637207e-01,2.891872264444828033e-02,1.855188608169555664e-01,-4.271636307239532471e-01,2.220580428838729858e-01,1.390667557716369629e-01
-4.015059471130371094e-01,-3.880408778786659241e-02,2.655109167098999023e-01,2.591015100479125977e-01,4.031831324100494385e-01,3.854731912724673748e-04,2.535859681665897369e-02,-1.614294946193695068e-01,-3.791680932044982910e-01
-6.972611546516418457e-01,-2.577143609523773193e-01,5.635887384414672852e-02,-4.200457036495208740e-01,2.386083453893661499e-01,-8.309125155210494995e-02,-2.190290987491607666e-01,2.105844169855117798e-01,3.226547539234161377e-01
-3.024309575557708740e-01,-2.277612835168838501e-01,2.704314291477203369e-01,-7.461033295840024948e-03,1.770115345716476440e-01,-1.123640164732933044e-01,3.666893243789672852e-01,5.168413743376731873e-02,-2.132920324802398682e-01
3.491851985454559326e-01,-4.151511490345001221e-01,-1.931356042623519897e-01,2.535558938980102539e-01,1.052658632397651672e-01,-4.080212712287902832e-01,7.573284674435853958e-03,-2.799660861492156982e-01,-4.839434921741485596e-01
4.043336808681488037e-01,-2.398747503757476807e-01,-9.545814990997314453e-02,-1.152262464165687561e-01,-4.685993492603302002e-01,3.656365275382995605e-01,-1.008381009101867676e+00,-2.005378007888793945e-01,4.727559089660644531e-01
1.558434367179870605e-01,-4.368499815464019775e-01,-8.550729602575302124e-02,-7.175628095865249634e-02,-1.967648416757583618e-01,9.140241146087646484e-02,2.642357945442199707e-01,1.842330992221832275e-01,1.530621200799942017e-01
3.756215870380401611e-01,1.689199507236480713e-01,2.322374880313873291e-01,1.206234842538833618e-01,-1.063031181693077087e-01,-3.058120794594287872e-02,-2.813974022865295410e-01,-3.752045929431915283e-01,-9.256827831268310547e-02
-3.249939680099487305e-01,1.896279305219650269e-01,-2.042121812701225281e-02,-1.233757734298706055e+00,-3.803254365921020508e-01,3.454243242740631104e-01,-5.427241921424865723e-01,-2.791496515274047852e-01,1.987542659044265747e-01
-1.677195578813552856e-01,-1.640055328607559204e-01,2.448498606681823730e-01,-3.490918278694152832e-01,4.341625422239303589e-02,2.243387401103973389e-01,-2.703620493412017822e-01,-4.089509020559489727e-04,1.963940262794494629e-01
2.833155989646911621e-01,7.602817565202713013e-02,-5.719668865203857422e-01,-4.162944108247756958e-02,2.132935822010040283e-01,2.803028821945190430e-01,-1.704260259866714478e-01,-4.669367894530296326e-02,2.046624571084976196e-01
-2.319824695587158203e-01,3.927517309784889221e-02,2.631486952304840088e-01,2.727546691894531250e-01,3.104184865951538086e-01,-7.641334086656570435e-02,2.676812559366226196e-02,-3.043218255043029785e-01,-2.480631321668624878e-01
3.599120974540710449e-01,9.053299576044082642e-02,-4.623361229896545410e-01,3.522258996963500977e-01,-1.716213673353195190e-01,-4.427887201309204102e-01,1.114381998777389526e-01,2.733647823333740234e-01,-7.759831100702285767e-02
-6.004973649978637695e-01,-6.039571166038513184e-01,-2.095339894294738770e-01,-1.021893247961997986e-01,1.619915217161178589e-01,-5.493204668164253235e-02,3.924214839935302734e-01,3.056010007858276367e-01,2.485426068305969238e-01
-3.843370079994201660e-01,-2.960348129272460938e-01,2.274886518716812134e-01,1.742240041494369507e-01,6.252166628837585449e-02,2.167004793882369995e-01,1.507800817489624023e-01,-1.616171151399612427e-01,-4.193387925624847412e-01
-3.155338466167449951e-01,-2.012572884559631348e-01,2.211087495088577271e-01,-3.343977034091949463e-01,-1.399111002683639526e-01,1.692153662443161011e-01,4.289114177227020264e-01,5.967133492231369019e-02,3.636279329657554626e-02
5.019793510437011719e-01,1.116371899843215942e-01,-4.961176216602325439e-01,-1.100315973162651062e-01,-2.227720767259597778e-01,-9.769477695226669312e-02,-2.577936947345733643e-01,-6.623598188161849976e-02,5.754925608634948730e-01
1.580736935138702393e-01,2.949450612068176270e-01,1.557853519916534424e-01,-4.151719808578491211e-01,4.964100122451782227e-01,-5.570352673530578613e-01,-8.981227278709411621e-01,-8.359811305999755859e-01,-2.883454263210296631e-01
5.708577483892440796e-02,9.109792858362197876e-02,-1.033121794462203979e-01,-8.650631457567214966e-02,3.948154672980308533e-02,1.579716242849826813e-02,8.046986162662506104e-02,2.586950063705444336e-01,-1.205612495541572571e-01
1.463454663753509521e-01,1.031499654054641724e-01,1.437641382217407227e-01,-2.919882237911224365e-01,-1.300541870296001434e-02,-5.867103487253189087e-02,-6.780360639095306396e-02,2.373036742210388184e-01,4.202113673090934753e-02
2.742929160594940186e-01,-6.556903719902038574e-01,3.236467838287353516e-01,-1.015802472829818726e-01,-4.380299746990203857e-01,4.095503091812133789e-01,1.232079789042472839e-01,-1.320872921496629715e-03,4.805885627865791321e-02
-3.166404366493225098e-01,-2.743714451789855957e-01,-3.098495304584503174e-01,-3.464218601584434509e-02,3.567846864461898804e-02,-4.531319811940193176e-02,2.105037719011306763e-01,1.548766046762466431e-01,1.278944760560989380e-01
8.442479372024536133e-02,-1.009953469038009644e-01,2.411615252494812012e-01,1.637873947620391846e-01,2.064383774995803833e-02,1.084447428584098816e-01,9.234444797039031982e-02,-3.526744246482849121e-01,1.525622606277465820e-01
2.662557959556579590e-01,1.868712604045867920e-01,7.988975197076797485e-02,-2.263665348291397095e-01,1.708217114210128784e-01,1.949127167463302612e-01,-2.824177742004394531e-01,-3.118409216403961182e-01,-3.238521814346313477e-01
3.690376281738281250e-01,-3.081785142421722412e-01,-2.032788842916488647e-01,1.803225278854370117e-01,-3.494539484381675720e-02,3.284146487712860107e-01,7.633700966835021973e-02,4.871561005711555481e-02,2.412135452032089233e-01
-1.054471507668495178e-01,1.427338272333145142e-02,-5.177480354905128479e-02,2.138364501297473907e-02,-1.601577736437320709e-02,-8.740486204624176025e-02,-1.533532440662384033e-01,-3.896326944231987000e-02,2.134245820343494415e-03
-1.247528102248907089e-02,-4.804853796958923340e-01,-5.340063571929931641e-01,4.466295242309570312e-01,-2.463829703629016876e-02,-2.247643470764160156e-02,2.873145341873168945e-01,2.800510823726654053e-01,-6.402230262756347656e-02
-7.280090451240539551e-01,-1.835411489009857178e-01,2.208916395902633667e-01,-4.788601100444793701e-01,6.541960872709751129e-03,-3.011252544820308685e-02,-1.204390451312065125e-01,2.151318788528442383e-01,2.781575620174407959e-01
2.520965039730072021e-01,1.828197538852691650e-01,1.167960185557603836e-02,-5.701217427849769592e-02,4.962518513202667236e-01,-4.328838884830474854e-01,-3.236912786960601807e-01,-3.811945319175720215e-01,-3.415672779083251953e-01
9.317175298929214478e-02,2.504524886608123779e-01,-4.134932756423950195e-01,-2.683855891227722168e-01,3.071030378341674805e-01,3.175824582576751709e-01,-3.836408853530883789e-01,-1.380622982978820801e-01,1.085912510752677917e-01
1.044843569397926331e-01,-3.147221729159355164e-02,-6.153632402420043945e-01,5.521815642714500427e-02,3.037648499011993408e-01,1.650663465261459351e-01,-5.426489710807800293e-01,-1.920172944664955139e-02,6.398423016071319580e-02
-4.100989401340484619e-01,4.400711357593536377e-01,3.213801681995391846e-01,-6.878901124000549316e-01,-6.657642871141433716e-02,3.435894250869750977e-01,-2.969930768013000488e-01,-2.596347630023956299e-01,1.649557799100875854e-01
6.375804543495178223e-02,-1.269813627004623413e-01,1.830819845199584961e-01,2.068849653005599976e-01,1.077269762754440308e-01,7.363509386777877808e-02,1.370742470026016235e-01,2.857303805649280548e-02,-2.768317162990570068e-01
-2.258297055959701538e-01,-1.542402207851409912e-01,2.227631509304046631e-01,-5.312630534172058105e-01,2.982074022293090820e-01,2.817987799644470215e-01,4.407580569386482239e-02,1.676391959190368652e-01,8.540320396423339844e-02
-2.790315747261047363e-01,-4.705405980348587036e-02,3.433601558208465576e-01,-3.255578577518463135e-01,4.376695156097412109e-01,1.898392103612422943e-02,2.318846732378005981e-01,1.877229660749435425e-01,-3.415089249610900879e-01
-9.707348942756652832e-01,-5.021651983261108398e-01,-5.629561543464660645e-01,-1.020465865731239319e-01,2.809017896652221680e-01,-3.201093375682830811e-01,5.921677872538566589e-02,4.162297844886779785e-01,2.550028264522552490e-01
4.945029690861701965e-02,1.489552855491638184e-01,4.156183004379272461e-01,-1.803302019834518433e-01,5.573358386754989624e-02,5.767079815268516541e-02,-6.362825036048889160e-01,-4.608209729194641113e-01,-1.161243021488189697e-01
7.814022898674011230e-02,1.455086469650268555e-01,1.919777095317840576e-01,-1.429993212223052979e-01,-2.274613082408905029e-01,2.468979805707931519e-01,-4.588905572891235352e-01,8.973399177193641663e-03,2.691967189311981201e-01
4.326234757900238037e-01,2.185960263013839722e-01,-6.744029372930526733e-02,5.089393258094787598e-01,-2.327182441949844360e-01,-3.595384061336517334e-01,3.288999795913696289e-01,-3.248607516288757324e-01,-7.082865834236145020e-01
-5.999623537063598633e-01,8.555535227060317993e-02,3.247674107551574707e-01,-2.581130564212799072e-01,2.023340016603469849e-01,-2.048409730195999146e-02,8.312367647886276245e-02,1.278198808431625366e-01,1.347707509994506836e-01
2.248857468366622925e-01,2.156546413898468018e-01,-2.541758418083190918e-01,-1.959601342678070068e-01,2.447402030229568481e-01,2.776685953140258789e-01,-4.280214309692382812e-01,-1.542834043502807617e-01,4.558055847883224487e-02
2.769827544689178467e-01,3.168823421001434326e-01,2.503786087036132812e-01,-1.138227358460426331e-01,6.563431769609451294e-02,4.044612348079681396e-01,-3.744906187057495117e-01,-5.931338071823120117e-01,-1.516498923301696777e-01
5.792341008782386780e-02,2.098136544227600098e-01,-2.270085215568542480e-01,1.898538023233413696e-01,-1.239684177562594414e-03,-4.608792662620544434e-01,5.531218275427818298e-02,3.975054025650024414e-01,-1.495088543742895126e-02
1.843838840723037720e-01,1.790543645620346069e-01,1.198145523667335510e-01,2.193596912547945976e-03,-1.491393148899078369e-01,4.856564998626708984e-01,-5.927463173866271973e-01,-3.670361042022705078e-01,2.308273017406463623e-01
-1.947951018810272217e-01,-1.795340776443481445e-01,-1.176960095763206482e-01,3.567696213722229004e-01,-7.457052171230316162e-02,-3.678270578384399414e-01,-6.553112864494323730e-01,4.066972732543945312e-01,-4.551304876804351807e-02
-1.662326902151107788e-01,-3.017755746841430664e-01,-5.369389653205871582e-01,4.225663244724273682e-01,2.122172266244888306e-01,-2.074962854385375977e-02,2.451377213001251221e-01,-1.279771178960800171e-01,-5.527233332395553589e-02
-2.163559347391128540e-01,1.163164526224136353e-01,-4.277439117431640625e-01,-6.597431492991745472e-04,2.155617326498031616e-01,-4.139227867126464844e-01,3.921735882759094238e-01,1.504540145397186279e-01,-3.038981743156909943e-02
-1.993888765573501587e-01,-3.410347402095794678e-01,1.974204480648040771e-01,-6.970616430044174194e-02,-1.278617531061172485e-01,1.026585847139358521e-01,2.205754965543746948e-01,-5.443023052066564560e-03,-3.626381158828735352e-01
-1.033650636672973633e+00,-3.678548932075500488e-01,-7.616244256496429443e-02,-9.969602823257446289e-01,2.493938952684402466e-01,1.932830214500427246e-01,-2.792176008224487305e-01,-2.736672759056091309e-01,1.226022019982337952e-01
-7.877663969993591309e-01,-5.620681047439575195e-01,-7.209899425506591797e-01,1.168288737535476685e-01,3.691354393959045410e-01,-8.941469192504882812e-01,6.846489906311035156e-01,5.013487115502357483e-02,-3.894890844821929932e-01
2.119444310665130615e-01,3.797534406185150146e-01,-4.211941063404083252e-01,-3.740267455577850342e-01,-8.823238611221313477e-01,-3.714177906513214111e-01,-7.128632664680480957e-01,5.504307746887207031e-01,1.700003445148468018e-01
1.392370313405990601e-01,-5.856788754463195801e-01,-8.168189972639083862e-02,-1.885623782873153687e-01,4.164558649063110352e-02,5.182936787605285645e-02,9.136410057544708252e-02,2.360789924860000610e-01,3.388089537620544434e-01
2.328595668077468872e-01,-2.035371512174606323e-01,7.357177883386611938e-02,1.905272752046585083e-01,-4.972407221794128418e-01,-6.760180741548538208e-02,2.459535151720046997e-01,2.464411035180091858e-02,1.082592085003852844e-01
-8.933481574058532715e-02,-3.285223618149757385e-02,1.511473301798105240e-02,4.056967049837112427e-02,-2.542456798255443573e-02,-8.424454927444458008e-02,-5.486531555652618408e-02,-1.107542067766189575e-01,1.808349229395389557e-02
3.200925514101982117e-02,2.213710099458694458e-01,-2.414015680551528931e-01,3.115427494049072266e-01,-4.451561868190765381e-01,-4.299767315387725830e-01,1.700661629438400269e-01,5.219392105937004089e-02,2.945572137832641602e-01
-1.550377011299133301e-01,-2.285506576299667358e-03,1.511134356260299683e-01,3.480114936828613281e-01,2.067615091800689697e-01,1.152473781257867813e-02,-1.882434934377670288e-01,-2.985005378723144531e-01,-8.588988333940505981e-02
-7.041467428207397461e-01,4.914668202400207520e-02,2.243433296680450439e-01,1.938435584306716919e-01,3.559018075466156006e-01,-1.086785271763801575e-01,1.695960760116577148e-01,-1.667907834053039551e-01,-4.189981222152709961e-01
1.898636370897293091e-01,2.422742396593093872e-01,-6.938191056251525879e-01,-4.434321820735931396e-01,3.073676526546478271e-01,-8.671648800373077393e-02,-1.177081763744354248e-01,1.115292906761169434e-01,-3.511867299675941467e-02
-4.656192958354949951e-01,-8.663402795791625977e-01,-1.185083165764808655e-01,-8.979718685150146484e-01,2.970565259456634521e-01,4.630339741706848145e-01,-5.022392272949218750e-01,-8.290544897317886353e-02,2.642320692539215088e-01
4.211714565753936768e-01,2.923474907875061035e-01,2.590161859989166260e-01,-3.286784887313842773e-02,1.336929053068161011e-01,2.074607312679290771e-01,-4.715263247489929199e-01,-4.865627884864807129e-01,-3.047180473804473877e-01
-6.873035430908203125e-01,-1.963914036750793457e-01,8.669934421777725220e-02,-2.886296808719635010e-01,1.008041799068450928e-01,-5.378545448184013367e-02,4.707147181034088135e-02,2.501063048839569092e-01,3.056710064411163330e-01
-3.614859282970428467e-01,-9.940981864929199219e-02,2.766255140304565430e-01,-2.361051291227340698e-01,-1.000352352857589722e-01,1.418135464191436768e-01,-5.376368016004562378e-02,-4.579754173755645752e-02,3.501821458339691162e-01
-2.962064445018768311e-01,-3.567508887499570847e-03,2.192699164152145386e-01,4.083192646503448486e-01,4.383734762668609619e-01,-5.483188200742006302e-03,-7.141271233558654785e-02,-3.808449804782867432e-01,-2.728916108608245850e-01
2.621394991874694824e-01,1.625685691833496094e-01,1.315055042505264282e-01,2.011342532932758331e-02,-3.242495357990264893e-01,8.708944916725158691e-02,1.470572501420974731e-01,6.547809392213821411e-02,3.111584782600402832e-01
2.799097597599029541e-01,2.711973190307617188e-01,2.596110999584197998e-01,-1.552573442459106445e-01,-3.593846559524536133e-01,2.148368656635284424e-01,-4.057269692420959473e-01,-2.010627686977386475e-01,2.255961745977401733e-01
1.064367145299911499e-01,2.356690317392349243e-01,-4.279392957687377930e-01,-3.215169608592987061e-01,3.755491077899932861e-01,-4.269794002175331116e-02,-2.815699875354766846e-01,5.853948369622230530e-02,9.563378244638442993e-02
-4.013584554195404053e-01,-4.256363809108734131e-01,2.008164972066879272e-01,-1.567393168807029724e-02,9.985633939504623413e-02,1.399932354688644409e-01,3.760524690151214600e-01,4.846179485321044922e-02,-1.719292402267456055e-01
-4.218216240406036377e-01,-2.079884260892868042e-01,-1.977944672107696533e-01,-3.517110943794250488e-01,2.513805963099002838e-02,-6.818504631519317627e-02,2.721503973007202148e-01,5.223565921187400818e-02,1.339945048093795776e-01
1.107870265841484070e-01,3.488071858882904053e-01,1.657859981060028076e-01,-3.756686151027679443e-01,3.574323952198028564e-01,-2.161995321512222290e-01,-9.968752861022949219e-01,-3.347451388835906982e-01,-6.916874647140502930e-01
-4.981470406055450439e-01,2.684797346591949463e-01,2.266876846551895142e-01,-4.944563508033752441e-01,1.460024416446685791e-01,1.115322187542915344e-01,-4.105051755905151367e-01,2.419768832623958588e-02,1.549291312694549561e-01
8.239549398422241211e-02,3.461538851261138916e-01,-5.087332725524902344e-01,1.169531643390655518e-01,3.214033842086791992e-01,-4.502462446689605713e-01,-1.917637139558792114e-01,-4.867860972881317139e-01,-2.667756676673889160e-01
1.502612531185150146e-01,3.013556599617004395e-01,-2.938676774501800537e-01,-2.457141578197479248e-01,2.947961390018463135e-01,4.633229970932006836e-01,-4.735512137413024902e-01,-2.022741138935089111e-01,4.086676612496376038e-02
-2.266098000109195709e-02,-3.587303757667541504e-01,-4.619051516056060791e-01,1.765873581171035767e-01,1.273227203637361526e-02,-1.175059825181961060e-01,5.239117741584777832e-01,1.188040599226951599e-01,-1.832929998636245728e-02
1.534794718027114868e-01,2.781973779201507568e-01,-2.076375484466552734e-01,-5.615031719207763672e-01,-1.320776194334030151e-01,-2.071200460195541382e-01,-3.034802386537194252e-03,3.778398931026458740e-01,-4.165913909673690796e-02
-1.280796974897384644e-01,-2.221890538930892944e-01,8.343499153852462769e-02,2.048072814941406250e-01,-9.342467784881591797e-02,1.431444473564624786e-02,-4.211553558707237244e-02,-6.933974623680114746e-01,2.590445280075073242e-01
2.372499108314514160e-01,-4.859498143196105957e-02,-4.814698100090026855e-01,1.599458009004592896e-01,3.120980560779571533e-01,-1.650988757610321045e-01,-3.356817364692687988e-01,1.557255536317825317e-01,4.106562435626983643e-01
-3.563623726367950439e-01,-2.434531599283218384e-01,8.932767063379287720e-02,1.822180487215518951e-02,1.528116613626480103e-01,1.477978080511093140e-01,3.922473490238189697e-01,-4.022736474871635437e-02,2.013125456869602203e-03
-5.066244006156921387e-01,1.257843058556318283e-02,4.888270050287246704e-02,1.381202936172485352e-01,4.303298592567443848e-01,1.390665471553802490e-01,-9.881680831313133240e-03,-1.191412061452865601e-01,-4.446815848350524902e-01
-2.148935794830322266e-01,-2.056606560945510864e-01,-3.298992812633514404e-01,3.171584010124206543e-01,4.935532808303833008e-02,-1.720587164163589478e-01,-8.002267032861709595e-02,1.527462899684906006e-01,-5.511729046702384949e-02
-2.195958048105239868e-01,4.545623064041137695e-01,4.181800782680511475e-01,-7.425935268402099609e-01,-6.347522139549255371e-01,-6.150253415107727051e-01,4.413480162620544434e-01,1.234811991453170776e-01,-4.030820429325103760e-01
4.874146878719329834e-01,2.613705992698669434e-01,-2.422076761722564697e-01,7.179116457700729370e-02,-7.844753265380859375e-01,-4.015360176563262939e-01,-3.452112972736358643e-01,5.636443942785263062e-02,5.821066498756408691e-01
2.918162569403648376e-02,1.399273127317428589e-01,1.715197265148162842e-01,-2.021309733390808105e-01,-3.060358464717864990e-01,3.356567621231079102e-01,-3.687290251255035400e-01,-9.036296606063842773e-02,2.900892794132232666e-01
1.393673717975616455e-01,-1.135748904198408127e-02,2.750594019889831543e-01,-1.299936324357986450e-01,-6.223351955413818359e-01,-3.545572161674499512e-01,3.440508544445037842e-01,3.851015120744705200e-02,3.821246623992919922e-01
2.166775166988372803e-01,-4.024783670902252197e-01,-2.126278728246688843e-01,3.451895415782928467e-01,2.750219106674194336e-01,3.766213953495025635e-01,-2.572033107280731201e-01,-3.126657009124755859e-01,1.820276379585266113e-01
-2.758468389511108398e-01,-1.592837870121002197e-01,2.865528464317321777e-01,-4.214256405830383301e-01,2.594134509563446045e-01,1.286167800426483154e-01,3.398079797625541687e-02,1.981053203344345093e-01,1.757692247629165649e-01
-5.286530256271362305e-01,4.974333196878433228e-02,5.880328267812728882e-02,1.351916491985321045e-01,2.941088974475860596e-01,-1.425051838159561157e-01,9.869624674320220947e-02,-1.549283415079116821e-01,-3.794841766357421875e-01
4.137195050716400146e-01,-1.452670544385910034e-01,-4.337405264377593994e-01,-1.600278615951538086e-01,-1.464132368564605713e-01,-1.039597839117050171e-01,4.332739487290382385e-02,2.257279604673385620e-01,2.660978734493255615e-01
2.030589878559112549e-01,1.492932885885238647e-01,1.717464476823806763e-01,7.712000608444213867e-02,-9.638805687427520752e-02,1.020751371979713440e-01,3.632880449295043945e-01,2.338238209486007690e-01,1.808502078056335449e-01
1.369604468345642090e-01,-2.629030644893646240e-01,-2.264084517955780029e-01,2.321939021348953247e-01,-1.038630679249763489e-01,-5.988481044769287109e-01,3.775238692760467529e-01,2.804410457611083984e-01,8.028004318475723267e-02
-5.784126743674278259e-02,1.002875436097383499e-02,-6.144939363002777100e-02,-2.487987279891967773e-02,-3.782213479280471802e-02,-4.797201231122016907e-02,-7.030086964368820190e-02,-8.672911673784255981e-02,-6.068155169486999512e-02
-8.624275773763656616e-02,3.037299029529094696e-02,2.778910398483276367e-01,1.000146120786666870e-01,-9.439334273338317871e-02,3.624364137649536133e-01,-2.063931524753570557e-01,-4.422950744628906250e-01,-1.445708125829696655e-01
1.618785411119461060e-01,1.142480075359344482e-01,-3.497646003961563110e-02,3.179188445210456848e-02,-3.464281558990478516e-02,2.369355261325836182e-01,-2.280193120241165161e-01,-4.323488175868988037e-01,3.734174370765686035e-01
-1.080970317125320435e-01,2.142740935087203979e-01,-3.651210367679595947e-01,-1.438335627317428589e-01,1.983455568552017212e-01,7.317722588777542114e-02,-1.589813530445098877e-01,-1.088275909423828125e-01,1.726190932095050812e-02
-1.682889461517333984e-01,-6.133779287338256836e-01,-3.211775720119476318e-01,3.390907645225524902e-01,1.988474428653717041e-01,1.700671464204788208e-01,2.396756112575531006e-01,2.041194401681423187e-02,-2.061833627521991730e-02
2.625823318958282471e-01,-1.759652644395828247e-01,-4.515764415264129639e-01,1.139488741755485535e-01,4.108573496341705322e-02,-3.317306041717529297e-01,7.126377522945404053e-02,2.009291201829910278e-01,2.489450722932815552e-01
-3.514882624149322510e-01,2.936261892318725586e-01,-2.509113168343901634e-03,-5.604656934738159180e-01,2.632175087928771973e-01,1.300143152475357056e-01,-7.570253312587738037e-02,1.318445801734924316e-01,-1.777665913105010986e-01
-9.050783514976501465e-02,-5.724568963050842285e-01,1.765992492437362671e-01,8.576372265815734863e-02,1.769514381885528564e-01,1.981450468301773071e-01,-1.641209274530410767e-01,1.210108399391174316e-01,-3.701062202453613281e-01
-5.767744779586791992e-01,2.537332773208618164e-01,2.759804427623748779e-01,-5.672990679740905762e-01,8.587612211704254150e-02,2.466419041156768799e-01,-2.439519762992858887e-01,-1.249158307909965515e-01,1.338022351264953613e-01
-1.194768548011779785e+00,-4.425405859947204590e-01,-8.416978269815444946e-02,-4.765569269657135010e-01,2.406237274408340454e-02,8.870496600866317749e-02,-1.461320072412490845e-01,2.237789332866668701e-01,2.238890081644058228e-01
2.629832327365875244e-01,-1.571814417839050293e-01,-6.878022849559783936e-02,4.465424716472625732e-01,-2.548502087593078613e-01,-3.373963534832000732e-01,2.574456036090850830e-01,-6.814974546432495117e-01,-5.731178522109985352e-01
6.337759643793106079e-02,1.337355226278305054e-01,1.124138981103897095e-01,2.898432314395904541e-03,-7.143170386552810669e-02,3.887993842363357544e-02,2.588763535022735596e-01,3.210195153951644897e-02,7.975705713033676147e-02
-1.765322685241699219e-01,-1.218109801411628723e-01,-4.374287426471710205e-01,3.326777517795562744e-01,4.091354906558990479e-01,-7.455793092958629131e-04,-2.153679728507995605e-01,-4.345659911632537842e-01,-2.034358829259872437e-01
-5.390726923942565918e-01,-3.407466113567352295e-01,-1.100872159004211426e-01,2.052248641848564148e-02,3.168207108974456787e-01,3.355461955070495605e-01,3.245461881160736084e-01,-4.438966047018766403e-03,-6.642850488424301147e-02
1.243470087647438049e-01,-1.088056247681379318e-02,-5.547375082969665527e-01,3.534726798534393311e-02,1.450221538543701172e-01,-2.189491391181945801e-01,-8.569831401109695435e-02,1.920193880796432495e-01,4.079895019531250000e-01
-1.972997188568115234e-02,3.126089870929718018e-01,4.105395078659057617e-01,-2.448171228170394897e-01,-1.544707641005516052e-02,1.206025481224060059e-01,-7.419812083244323730e-01,-5.127338767051696777e-01,-2.306636720895767212e-01
-2.691502273082733154e-01,1.153295934200286865e-01,2.346513122320175171e-01,-2.686577439308166504e-01,3.535107970237731934e-01,-8.795534819364547729e-02,6.550376862287521362e-02,3.618324697017669678e-01,-3.121346235275268555e-01
3.304088711738586426e-01,1.107714697718620300e-01,-6.027212142944335938e-01,-3.459287285804748535e-01,1.245958134531974792e-01,2.506453394889831543e-01,-9.941994212567806244e-03,-1.406729072332382202e-01,1.833464503288269043e-01
-6.152504086494445801e-01,-4.359756708145141602e-01,-1.151081085205078125e+00,1.931879222393035889e-01,1.033880710601806641e-01,-6.670835018157958984e-01,4.744745492935180664e-01,4.230050444602966309e-01,-8.994033187627792358e-02
3.060812056064605713e-01,6.042482331395149231e-02,-4.798327982425689697e-01,3.769101798534393311e-01,-1.181403994560241699e-01,-4.187245965003967285e-01,2.235228568315505981e-01,1.115573421120643616e-01,-8.716200478374958038e-03
2.148838639259338379e-01,3.873250186443328857e-01,-5.456370860338211060e-02,3.247110545635223389e-01,2.995478212833404541e-01,-4.174221754074096680e-01,-4.105206429958343506e-01,-5.051732659339904785e-01,-4.420787990093231201e-01
2.836166322231292725e-01,2.821867167949676514e-01,-2.004789886996150017e-03,2.144284844398498535e-01,7.786463946104049683e-02,-2.349736541509628296e-01,3.633785620331764221e-02,2.550850249826908112e-02,-6.106893420219421387e-01
-2.872351109981536865e-01,1.693966537714004517e-01,3.270938098430633545e-01,-6.171452999114990234e-01,-3.058421313762664795e-01,1.024091914296150208e-01,-6.438395380973815918e-01,-2.110141515731811523e-02,-2.121502533555030823e-03
3.368637263774871826e-01,1.069025695323944092e-02,2.272437959909439087e-01,2.517905458807945251e-02,2.974091656506061554e-02,-2.394632995128631592e-02,-3.028191030025482178e-01,-1.945600509643554688e-01,-1.771865636110305786e-01
3.087013661861419678e-01,-1.056151986122131348e-01,-5.308465957641601562e-01,4.611440896987915039e-01,-1.943448930978775024e-01,-4.326649308204650879e-01,3.160801827907562256e-01,5.803338810801506042e-02,-5.862723290920257568e-02
1.754746735095977783e-01,-1.656110398471355438e-02,1.747096180915832520e-01,1.547572612762451172e-01,4.803588613867759705e-03,4.020046442747116089e-02,2.709383666515350342e-01,-3.398372500669211149e-04,-7.748736739158630371e-01
-5.661860108375549316e-02,2.846328914165496826e-01,-8.706530928611755371e-02,-4.439440965652465820e-01,3.038140013813972473e-02,-2.513797879219055176e-01,-8.145119994878768921e-02,2.042519599199295044e-01,1.006362512707710266e-01
-6.259948015213012695e-01,-5.590869784355163574e-01,-5.063624382019042969e-01,2.058627270162105560e-02,2.214528620243072510e-01,-1.199839860200881958e-01,3.700749576091766357e-01,2.261651456356048584e-01,1.946469843387603760e-01
-9.724656492471694946e-02,-4.758279919624328613e-01,-4.583105444908142090e-01,3.288111388683319092e-01,-2.220934629440307617e-02,-4.497170150279998779e-01,4.744141399860382080e-01,1.987579166889190674e-01,-2.146509103477001190e-02
-2.664018273353576660e-01,1.535749882459640503e-01,2.232379615306854248e-01,1.346669197082519531e-01,1.862267106771469116e-01,-1.638194918632507324e-01,1.247032061219215393e-01,-2.371285855770111084e-01,-6.551417112350463867e-01
1.518935412168502808e-01,2.058514803647994995e-01,3.649286329746246338e-01,-2.883866131305694580e-01,-7.307503819465637207e-01,-5.013242363929748535e-01,1.727265566587448120e-01,3.695140779018402100e-01,7.693868130445480347e-02
-5.171746015548706055e-01,1.389110535383224487e-01,1.753625124692916870e-01,-7.980800420045852661e-02,1.159280315041542053e-01,-5.087923631072044373e-02,-5.689343065023422241e-02,9.082122147083282471e-02,2.873430252075195312e-01
3.704158067703247070e-01,-2.657373249530792236e-01,-1.799119561910629272e-01,1.056629195809364319e-01,-2.799083292484283447e-01,2.803404927253723145e-01,2.152071893215179443e-01,3.770585358142852783e-02,3.670835793018341064e-01
2.917184233665466309e-01,1.027890294790267944e-02,-4.841020703315734863e-01,3.139443695545196533e-01,-1.198776662349700928e-01,-5.014277696609497070e-01,2.354204803705215454e-01,9.933308511972427368e-02,-3.564932197332382202e-02
-3.074354529380798340e-01,2.773109637200832367e-02,5.351040512323379517e-02,2.940032184123992920e-01,3.515698611736297607e-01,-7.356896996498107910e-02,-1.173994466662406921e-01,-3.458420634269714355e-01,-4.680568873882293701e-01
5.216632410883903503e-02,2.775336243212223053e-02,-5.120071768760681152e-01,3.723797202110290527e-01,-2.125832587480545044e-01,-2.407807558774948120e-01,3.049130141735076904e-01,1.769344359636306763e-01,6.172718107700347900e-02
-1.313907980918884277e+00,-4.128515720367431641e-01,-7.257917895913124084e-03,-6.482648849487304688e-01,1.338157523423433304e-02,1.369441598653793335e-01,8.450053632259368896e-03,7.913890294730663300e-03,5.877418518066406250e-01
1.043288484215736389e-01,-2.748238146305084229e-01,3.108864724636077881e-01,3.065317273139953613e-01,-9.628371000289916992e-01,2.696595489978790283e-01,3.441232442855834961e-01,-4.385180771350860596e-01,2.290069013833999634e-01
3.117017149925231934e-01,1.994466185569763184e-01,1.469873487949371338e-01,-6.633006036281585693e-02,1.546526998281478882e-01,-7.899320125579833984e-02,-3.759332895278930664e-01,-3.791192173957824707e-01,-3.494366407394409180e-01
1.091127321124076843e-01,3.562217354774475098e-01,2.176143676042556763e-01,-3.935675919055938721e-01,3.594078123569488525e-01,-7.919797897338867188e-01,-1.119384765625000000e+00,-8.445082306861877441e-01,-1.959703862667083740e-01
-3.430604338645935059e-01,1.056948974728584290e-01,3.377101123332977295e-01,-6.392266750335693359e-01,-1.972745805978775024e-01,3.050162196159362793e-01,7.872367650270462036e-02,1.431030184030532837e-01,1.167332902550697327e-01
2.480070292949676514e-01,-7.625008001923561096e-03,-1.956201344728469849e-01,1.640496253967285156e-01,2.375492304563522339e-01,-6.825236231088638306e-02,-5.330767855048179626e-02,-7.297466695308685303e-02,-5.750164389610290527e-01
-2.429302930831909180e-01,-5.559897050261497498e-03,1.233912408351898193e-01,-2.219585031270980835e-01,5.971548147499561310e-03,1.862499564886093140e-01,-1.382382810115814209e-01,-7.248734682798385620e-02,2.293912470340728760e-01
2.680343985557556152e-01,9.935642778873443604e-02,2.540806829929351807e-01,1.378419995307922363e-01,-5.282758548855781555e-02,1.334057450294494629e-01,3.711861968040466309e-01,1.695405244827270508e-01,4.394769668579101562e-02
1.674612313508987427e-01,1.936885267496109009e-01,-4.156910479068756104e-01,2.234589159488677979e-01,-2.047288268804550171e-01,-7.646048069000244141e-01,1.910244971513748169e-01,2.217461615800857544e-01,1.401223540306091309e-01
4.358806312084197998e-01,-1.317270249128341675e-01,-1.560844630002975464e-01,-3.755076825618743896e-01,-5.812981128692626953e-01,2.008206248283386230e-01,1.582254022359848022e-01,3.468775153160095215e-01,1.045171022415161133e-01
2.274737656116485596e-01,2.512796819210052490e-01,-3.997004628181457520e-01,-2.137667033821344376e-03,-1.805911511182785034e-01,-2.946858704090118408e-01,-1.456219106912612915e-01,-7.574980705976486206e-02,5.507649183273315430e-01
-2.428056895732879639e-01,4.183242022991180420e-01,-1.889607310295104980e-01,-1.604551672935485840e-01,1.930094361305236816e-01,-5.047177076339721680e-01,-2.273073643445968628e-01,3.187756240367889404e-01,-1.166118159890174866e-01
3.736516535282135010e-01,4.983941614627838135e-01,-2.700962126255035400e-01,4.231684505939483643e-01,1.642621159553527832e-01,-7.556521892547607422e-01,-1.708488613367080688e-01,-3.433510959148406982e-01,-8.279623985290527344e-01
-5.847461223602294922e-01,-3.427818715572357178e-01,-2.703312337398529053e-01,6.167892739176750183e-02,2.162192761898040771e-01,-6.802179217338562012e-01,5.703878402709960938e-01,7.923913002014160156e-02,-4.374184012413024902e-01
-1.159925535321235657e-01,3.115372955799102783e-01,2.900595366954803467e-01,-3.975603282451629639e-01,-2.970797717571258545e-01,2.493767440319061279e-01,-2.019717097282409668e-01,-4.217687994241714478e-02,1.252746582031250000e-01
2.396530807018280029e-01,1.859691739082336426e-01,-2.915471494197845459e-01,1.047221943736076355e-03,3.422936797142028809e-01,4.654138386249542236e-01,-7.545155286788940430e-01,-2.565088272094726562e-01,-9.498512744903564453e-02
2.581682801246643066e-02,2.031309753656387329e-01,1.484542340040206909e-01,2.436092309653759003e-02,-5.584722384810447693e-02,-1.264295727014541626e-01,1.825925856828689575e-01,-5.039809644222259521e-02,-2.058485746383666992e-01
3.556795418262481689e-01,-1.271468847990036011e-01,-4.443421661853790283e-01,8.474241942167282104e-02,-1.591646969318389893e-01,-5.587311089038848877e-02,3.583635203540325165e-03,1.913770884275436401e-01,4.160210788249969482e-01
4.484109580516815186e-02,-4.570832103490829468e-02,-1.908652111887931824e-02,-1.964858919382095337e-01,-1.405538152903318405e-02,1.362078357487916946e-02,-7.991390302777290344e-03,8.201105147600173950e-02,3.449274972081184387e-02
-2.302285842597484589e-02,2.664146721363067627e-01,2.827968299388885498e-01,-2.233781516551971436e-01,-6.235571950674057007e-02,3.431957364082336426e-01,-4.398546814918518066e-01,-5.313871502876281738e-01,-4.427599310874938965e-01
2.243862748146057129e-01,1.584605686366558075e-02,-1.184039413928985596e-01,3.600199222564697266e-01,-5.850016325712203979e-02,-5.321042537689208984e-01,-6.597170233726501465e-02,8.829405531287193298e-03,1.546645611524581909e-01
-3.990745246410369873e-01,1.808425784111022949e-02,3.314452171325683594e-01,-1.295855045318603516e-01,-1.220900341868400574e-01,-7.583140730857849121e-01,3.471036255359649658e-01,2.613112330436706543e-01,-6.867910921573638916e-02
2.648957073688507080e-01,3.453520312905311584e-02,-1.112069636583328247e-01,-1.316255033016204834e-01,-2.726315259933471680e-01,-3.255208432674407959e-01,1.076004877686500549e-01,2.079040706157684326e-01,8.049067854881286621e-02
3.255223631858825684e-01,3.831459581851959229e-01,1.379965692758560181e-01,-1.308991909027099609e-01,1.442870646715164185e-01,1.798510849475860596e-01,-4.597779214382171631e-01,-4.872390925884246826e-01,-1.684091985225677490e-01
1.024748012423515320e-01,-3.718062937259674072e-01,-1.834468543529510498e-02,2.726300954818725586e-01,3.216113429516553879e-03,3.593903183937072754e-01,1.138319373130798340e-01,-3.607974946498870850e-01,-5.481794476509094238e-02
1.271953880786895752e-01,1.473610699176788330e-01,-2.982211410999298096e-01,4.597387835383415222e-02,2.465408891439437866e-01,-4.286410808563232422e-01,-2.557212710380554199e-01,2.360753566026687622e-01,2.745960056781768799e-01
4.573446139693260193e-02,9.835982322692871094e-02,-2.319864928722381592e-01,7.138041406869888306e-02,1.148683950304985046e-01,1.858469694852828979e-01,-3.497929126024246216e-02,-5.122676491737365723e-01,1.922072470188140869e-01
5.773654207587242126e-02,6.990315020084381104e-02,1.721430420875549316e-01,9.532107505947351456e-04,-1.137775704264640808e-01,1.400881633162498474e-02,1.401691883802413940e-01,7.942181825637817383e-02,1.125223264098167419e-01
8.941704034805297852e-02,1.396150588989257812e-01,2.735523581504821777e-01,1.885752081871032715e-01,4.821189865469932556e-02,-1.715144515037536621e-01,-3.298875391483306885e-01,-2.937973439693450928e-01,-6.113246828317642212e-02
-2.431827932596206665e-01,-3.038811385631561279e-01,-1.056088060140609741e-01,3.429380655288696289e-01,2.226697951555252075e-01,3.819148242473602295e-01,-2.419660836458206177e-01,-6.252635717391967773e-01,-6.867541372776031494e-02
-1.008291728794574738e-02,1.657203584909439087e-01,-3.600060194730758667e-02,1.598475128412246704e-01,-1.884329617023468018e-01,-1.741374135017395020e-01,2.000738829374313354e-01,-1.219303682446479797e-01,-5.692607760429382324e-01
1.570431888103485107e-01,1.532380431890487671e-01,2.481446415185928345e-01,1.580069586634635925e-02,2.402968406677246094e-01,-3.968303650617599487e-02,-1.867721080780029297e-01,-2.249459475278854370e-01,-8.642024993896484375e-01
-7.336555719375610352e-01,1.987946331501007080e-01,4.303522706031799316e-01,-5.309058353304862976e-02,4.013636708259582520e-01,-2.384622246026992798e-01,1.665746569633483887e-01,8.349252492189407349e-02,-3.970204293727874756e-01
-2.405806928873062134e-01,-5.169785618782043457e-01,-7.072445750236511230e-01,1.557856053113937378e-01,9.128386527299880981e-02,-1.506699770689010620e-01,5.404286384582519531e-01,2.510666549205780029e-01,-8.328011631965637207e-02
-5.688109993934631348e-01,-3.734064102172851562e-01,-4.873409569263458252e-01,-1.186637356877326965e-01,1.280866265296936035e-01,-7.446097582578659058e-02,4.536035060882568359e-01,2.354723811149597168e-01,2.723504602909088135e-01
-2.967203855514526367e-01,-3.508766591548919678e-01,-4.362950846552848816e-02,-2.277791202068328857e-01,2.537102401256561279e-01,1.951550990343093872e-01,1.214932873845100403e-01,1.065804511308670044e-01,1.088137403130531311e-01
1.692768484354019165e-01,1.159311011433601379e-01,-1.419724225997924805e-01,3.205196857452392578e-01,-1.625622510910034180e-01,-4.579459428787231445e-01,6.710081547498703003e-02,1.636813431978225708e-01,-1.519583463668823242e-01
-2.144331932067871094e-01,1.395832151174545288e-01,1.172429397702217102e-01,-2.651019990444183350e-01,2.374817728996276855e-01,3.339666500687599182e-02,-8.094637840986251831e-02,-1.022813841700553894e-03,-1.347804255783557892e-02
3.629369735717773438e-01,-2.992799133062362671e-02,1.171328276395797729e-01,-1.752162724733352661e-01,5.509576946496963501e-02,1.940755844116210938e-01,2.409535497426986694e-01,1.032488346099853516e-01,-7.113026976585388184e-01
4.393590688705444336e-01,-8.929160237312316895e-02,-4.990703463554382324e-01,1.490911692380905151e-01,-1.084452420473098755e-01,-3.139317035675048828e-03,-2.035286575555801392e-01,4.997038468718528748e-02,3.008951842784881592e-01
8.505999296903610229e-02,3.163774311542510986e-01,5.293210968375205994e-02,-2.000033259391784668e-01,7.038451731204986572e-02,-9.469395875930786133e-02,-2.248082682490348816e-02,1.439839750528335571e-01,1.968894749879837036e-01
-5.456851720809936523e-01,-2.652225196361541748e-01,-9.088353067636489868e-02,1.772390007972717285e-01,4.674534201622009277e-01,2.395721375942230225e-01,2.947861552238464355e-01,-1.806773990392684937e-01,-1.930191963911056519e-01
-5.219992995262145996e-01,-6.919392943382263184e-02,-5.247145891189575195e-01,5.815845131874084473e-01,2.252570688724517822e-01,-4.654965698719024658e-01,-6.162315607070922852e-02,-3.857496976852416992e-01,-1.160135865211486816e+00
2.967624366283416748e-01,-2.814302444458007812e-01,-5.381746888160705566e-01,5.280796289443969727e-01,-1.780003905296325684e-01,6.132622435688972473e-02,1.178523823618888855e-01,-1.733607053756713867e-01,1.335827559232711792e-01
4.670317173004150391e-01,-6.169071793556213379e-01,-2.421012967824935913e-01,2.378402501344680786e-01,-8.028466105461120605e-01,6.018314361572265625e-01,-9.429382681846618652e-01,-2.434965074062347412e-01,1.992848217487335205e-01
-1.413600742816925049e-01,4.042695760726928711e-01,3.523929119110107422e-01,-2.911455929279327393e-01,-2.665521204471588135e-01,4.443274438381195068e-01,-1.191780447959899902e+00,-3.999195396900177002e-01,1.136653795838356018e-01
-4.649105072021484375e-01,-4.302071928977966309e-01,-2.025833725929260254e-01,1.836313307285308838e-01,1.914590597152709961e-01,1.112766750156879425e-02,2.502624094486236572e-01,2.183631062507629395e-01,3.135227784514427185e-02
-9.348128736019134521e-02,1.484834700822830200e-01,9.773033671081066132e-04,-1.667178422212600708e-01,3.142720758914947510e-01,-1.635469645261764526e-01,-5.447087287902832031e-01,2.987599670886993408e-01,1.164556145668029785e-01
8.845260739326477051e-02,3.431293070316314697e-01,-4.839484393596649170e-01,-4.481061995029449463e-01,-1.270198496058583260e-03,-1.926837116479873657e-01,-3.399594873189926147e-02,1.566733866930007935e-01,1.493771374225616455e-01
2.478940971195697784e-02,-2.578809857368469238e-01,-5.670682787895202637e-01,1.813884228467941284e-01,4.066628813743591309e-01,1.196038573980331421e-01,-3.784793913364410400e-01,3.388215228915214539e-02,1.973431259393692017e-01
1.183716803789138794e-01,1.165094301104545593e-01,2.514460682868957520e-01,1.822476387023925781e-01,3.088581934571266174e-02,8.843619376420974731e-03,-2.466529421508312225e-02,-3.800528049468994141e-01,-2.628802359104156494e-01
2.969375252723693848e-01,-3.724112734198570251e-02,-2.062494168058037758e-03,3.613752722740173340e-01,-2.881513237953186035e-01,-4.261839687824249268e-01,3.402241170406341553e-01,-3.683541119098663330e-01,-1.004590868949890137e+00
2.362134158611297607e-01,8.911431580781936646e-02,2.433183342218399048e-01,-2.168373316526412964e-01,-1.302991360425949097e-01,9.931043535470962524e-02,-4.910973906517028809e-01,-3.590180873870849609e-01,2.026910521090030670e-02
-6.456762552261352539e-01,3.565880283713340759e-02,3.392987325787544250e-02,2.506810426712036133e-01,2.803398966789245605e-01,1.607107520103454590e-01,5.414521321654319763e-02,-2.401733547449111938e-01,-3.998027443885803223e-01
-1.485143154859542847e-01,-2.124672979116439819e-01,1.028113588690757751e-01,-3.023179471492767334e-01,-3.133966028690338135e-01,2.346796095371246338e-01,3.577403128147125244e-01,2.677654027938842773e-01,-1.283008232712745667e-02
1.724735200405120850e-01,2.604704722762107849e-02,2.908954620361328125e-01,-1.688272953033447266e-01,-6.711297035217285156e-01,6.588295102119445801e-02,3.450400233268737793e-01,-8.231029659509658813e-02,1.881301701068878174e-01
3.072700500488281250e-01,-1.887514442205429077e-01,-4.471885859966278076e-01,4.706189334392547607e-01,-3.103899359703063965e-01,-5.400210618972778320e-01,2.997139394283294678e-01,-8.263178169727325439e-02,7.694020867347717285e-02
-2.227501124143600464e-01,3.040949106216430664e-01,-5.154831334948539734e-02,3.642956539988517761e-02,3.164994716644287109e-01,-5.397427082061767578e-01,1.336472630500793457e-01,1.867987960577011108e-01,-1.896440982818603516e-01
1.318951789289712906e-02,-7.783703505992889404e-03,-2.001857906579971313e-01,2.495881170034408569e-01,-1.394671350717544556e-01,-2.445586919784545898e-01,-5.972625315189361572e-02,1.609260141849517822e-01,1.307146251201629639e-01
-3.508085906505584717e-01,-3.432678878307342529e-01,-1.953483819961547852e-01,3.446588516235351562e-01,3.130540549755096436e-01,-8.490346372127532959e-02,-6.359438598155975342e-02,-2.476178705692291260e-01,-4.906191527843475342e-01
-4.870410263538360596e-01,-2.515494525432586670e-01,-6.655412912368774414e-02,2.450669556856155396e-01,1.071046292781829834e-01,-1.837218925356864929e-02,-7.177784293889999390e-02,-1.019016727805137634e-01,2.344636172056198120e-01
-9.634069353342056274e-02,2.868378758430480957e-01,2.902833521366119385e-01,-4.982402622699737549e-01,-2.053765356540679932e-01,-6.024575233459472656e-01,1.706009060144424438e-01,3.045872747898101807e-01,-1.159902885556221008e-01
3.037921786308288574e-01,-4.946691095829010010e-01,-6.249956786632537842e-02,4.141514003276824951e-01,2.153028547763824463e-01,1.851757019758224487e-01,-1.966311633586883545e-01,-2.666182219982147217e-01,1.679458469152450562e-01
-1.119680255651473999e-01,1.240512356162071228e-01,2.666252255439758301e-01,-5.792858600616455078e-01,3.396590948104858398e-01,2.839152514934539795e-01,-4.245661795139312744e-01,-6.557276248931884766e-01,-4.240479469299316406e-01
-3.777849972248077393e-01,-7.647462934255599976e-02,2.082709968090057373e-01,2.358420342206954956e-01,3.816300928592681885e-01,1.642197519540786743e-01,1.200876571238040924e-02,-2.628825306892395020e-01,-5.013539195060729980e-01
-1.248976914212107658e-03,1.453461591154336929e-03,-1.227343752980232239e-01,1.181820333003997803e-01,4.152474403381347656e-01,-4.467668235301971436e-01,-7.213513851165771484e-01,2.202270478010177612e-01,-5.062869191169738770e-01
5.313850194215774536e-02,4.895600974559783936e-01,2.251045778393745422e-02,-3.185526728630065918e-01,1.677529811859130859e-01,2.775553166866302490e-01,-9.003432989120483398e-01,-3.220319151878356934e-01,-1.668316274881362915e-01
2.026232779026031494e-01,3.150310516357421875e-01,2.896018326282501221e-01,-2.133520990610122681e-01,1.422702521085739136e-01,-6.048082839697599411e-03,-4.561114311218261719e-01,-2.442965209484100342e-01,-7.101209163665771484e-01
-3.705970346927642822e-01,-5.907993316650390625e-01,-1.910521090030670166e-01,1.584672182798385620e-01,6.773730367422103882e-02,-7.847597002983093262e-01,5.198670029640197754e-01,2.985082864761352539e-01,-7.056404650211334229e-02
-1.175688207149505615e-01,-5.095776915550231934e-01,-3.205798864364624023e-01,-2.683316767215728760e-01,1.871833801269531250e-01,2.631709910929203033e-02,3.936188519001007080e-01,2.505137026309967041e-01,5.699433013796806335e-02
-3.635248541831970215e-02,6.228452920913696289e-02,-2.465336397290229797e-02,-4.335004091262817383e-01,-1.523108184337615967e-01,-1.402485817670822144e-01,-3.247224912047386169e-02,1.179008483886718750e-01,2.763527631759643555e-01
-1.885364949703216553e-01,-3.925116956233978271e-01,-2.227417230606079102e-01,-4.795195460319519043e-01,1.640634089708328247e-01,2.545690238475799561e-01,2.789091169834136963e-01,1.482367664575576782e-01,3.770609945058822632e-02
3.593316674232482910e-01,2.949596643447875977e-01,1.463180929422378540e-01,-6.723231077194213867e-01,-2.338250428438186646e-01,-5.232814550399780273e-01,-1.812178790569305420e-01,-3.000138401985168457e-01,3.299708366394042969e-01
-8.707193136215209961e-01,-7.398880720138549805e-01,-3.034068048000335693e-01,-1.759574115276336670e-01,3.103447258472442627e-01,7.517008483409881592e-02,-1.292798668146133423e-01,2.809140384197235107e-01,3.368625044822692871e-01
5.548879504203796387e-01,-6.746626645326614380e-02,-4.427049160003662109e-01,-9.148816019296646118e-02,3.203764325007796288e-03,-2.078328281641006470e-02,-5.763124302029609680e-02,7.958956807851791382e-02,7.660982012748718262e-02
3.362202644348144531e-01,-1.401623487472534180e-01,-5.421447753906250000e-01,4.798000454902648926e-01,-1.565077900886535645e-01,-5.901297330856323242e-01,3.357509374618530273e-01,1.383111774921417236e-01,-2.120857313275337219e-02
2.163158953189849854e-01,1.787103563547134399e-01,1.817955374717712402e-01,1.880258694291114807e-02,7.718833535909652710e-02,4.598481208086013794e-02,2.718464434146881104e-01,3.095099329948425293e-01,1.389118880033493042e-01
2.634245157241821289e-02,-1.770732402801513672e-01,-5.868849754333496094e-01,4.744251072406768799e-02,-7.711051963269710541e-03,-2.016779780387878418e-02,5.240490436553955078e-01,2.483373321592807770e-02,1.957073807716369629e-01
-6.095653176307678223e-01,6.253428757190704346e-02,3.590542674064636230e-01,-3.580565750598907471e-01,4.451371263712644577e-03,2.076928913593292236e-01,-4.644701778888702393e-01,8.017103374004364014e-02,1.219060495495796204e-01
2.617833316326141357e-01,-2.239993512630462646e-01,2.649452090263366699e-01,-9.207087755203247070e-02,-8.111650943756103516e-01,8.335774391889572144e-02,1.762793064117431641e-01,8.265522867441177368e-02,3.080543577671051025e-01
2.971726953983306885e-01,2.873442769050598145e-01,-2.096133120357990265e-02,-4.410561546683311462e-02,-6.430315226316452026e-02,2.422730028629302979e-01,-7.210264801979064941e-01,-1.966955363750457764e-01,3.767195343971252441e-01
-6.007726192474365234e-01,3.730361163616180420e-01,1.672966778278350830e-02,-9.273104071617126465e-01,-5.051723718643188477e-01,-1.070227995514869690e-01,-4.481846690177917480e-01,1.407098472118377686e-01,1.874808967113494873e-01
1.649049669504165649e-02,1.929478645324707031e-01,-4.181474447250366211e-01,-1.801683455705642700e-01,4.814231991767883301e-01,3.821024596691131592e-01,-4.044885337352752686e-01,-1.688354015350341797e-01,-3.872479870915412903e-02
-9.817739129066467285e-01,-8.193174600601196289e-01,9.567891061305999756e-02,-8.484181761741638184e-01,-5.479913577437400818e-02,1.817588657140731812e-01,-3.033779263496398926e-01,2.145605683326721191e-01,5.307848453521728516e-01
-4.373472929000854492e-01,-9.359283745288848877e-02,2.541047036647796631e-01,-5.093237161636352539e-01,2.055832296609878540e-01,3.102417290210723877e-01,-1.499297562986612320e-02,1.343688517808914185e-01,2.229753285646438599e-01
3.724344074726104736e-01,2.045417428016662598e-01,1.551337838172912598e-01,4.525267984718084335e-03,-1.815985292196273804e-01,2.254922538995742798e-01,-5.813966989517211914e-01,-2.282189130783081055e-01,2.613219916820526123e-01
-3.192557990550994873e-01,-1.946935057640075684e-01,3.666828153654932976e-03,-4.105774164199829102e-01,-5.709697678685188293e-02,-2.708228230476379395e-01,-2.054791450500488281e-01,5.503782629966735840e-01,-4.386741518974304199e-01
-1.068488061428070068e-01,-1.327064186334609985e-01,1.504873931407928467e-01,2.380155026912689209e-01,3.084382712841033936e-01,1.152587011456489563e-01,2.116596885025501251e-02,-2.595195770263671875e-01,-3.834449350833892822e-01
4.922954738140106201e-02,6.814312189817428589e-02,-9.695128351449966431e-02,-1.468470543622970581e-01,1.486992696300148964e-04,-9.480483084917068481e-02,-3.969829156994819641e-02,1.524093449115753174e-01,8.854356408119201660e-02
-6.796253323554992676e-01,-2.316286712884902954e-01,-8.985441923141479492e-02,-1.142713129520416260e-01,1.850257962942123413e-01,-4.617211818695068359e-01,2.129342854022979736e-01,2.201323062181472778e-01,-1.052044052630662918e-02
2.392183542251586914e-01,-2.863997817039489746e-01,2.392343580722808838e-01,-1.884487122297286987e-01,-9.766932576894760132e-02,7.934235036373138428e-03,3.744388744235038757e-02,1.864720433950424194e-01,-3.986739739775657654e-02
3.907929062843322754e-01,3.077390789985656738e-01,-1.646027117967605591e-01,2.831970453262329102e-01,-3.274508416652679443e-01,-5.378706455230712891e-01,-1.548362970352172852e-01,-3.033375600352883339e-03,2.358371168375015259e-01
4.982272982597351074e-01,2.812708020210266113e-01,3.740243613719940186e-02,3.668983876705169678e-01,1.382509618997573853e-01,-3.417398631572723389e-01,-8.891930431127548218e-02,-2.813938856124877930e-01,-7.147027254104614258e-01
-2.789415121078491211e-01,-9.751269221305847168e-02,1.874508112668991089e-01,-2.437790483236312866e-01,4.221921563148498535e-01,-6.589934229850769043e-02,7.624735683202743530e-02,1.088953018188476562e-01,-1.570070832967758179e-01
-3.539528250694274902e-01,4.005447030067443848e-01,9.891594946384429932e-02,-4.437884688377380371e-01,2.895113825798034668e-01,5.262728407979011536e-02,-4.011093378067016602e-01,9.030377119779586792e-02,-3.909964859485626221e-02
-3.185870051383972168e-01,1.766484230756759644e-01,4.495467841625213623e-01,-7.527452707290649414e-01,-4.604122638702392578e-01,3.512105643749237061e-01,-4.337829351425170898e-01,-5.062695741653442383e-01,3.194744139909744263e-02
-7.134117484092712402e-01,1.062507703900337219e-01,-2.472729794681072235e-02,6.771101802587509155e-02,6.319090127944946289e-01,-1.859886944293975830e-02,-7.123272866010665894e-03,-3.891862928867340088e-02,-5.192642211914062500e-01
-2.215829342603683472e-01,-4.069106876850128174e-01,-1.956200450658798218e-01,-7.142063975334167480e-02,-8.396463468670845032e-03,-5.913373455405235291e-02,4.188725352287292480e-01,2.635102868080139160e-01,1.440217643976211548e-01
2.104056477546691895e-01,1.944149285554885864e-01,8.638716489076614380e-02,1.146117597818374634e-01,8.373957127332687378e-02,-4.126806929707527161e-02,-4.065894782543182373e-01,-2.125519216060638428e-01,-3.051015138626098633e-01
7.939092069864273071e-02,-5.225567221641540527e-01,-4.501384198665618896e-01,3.649484515190124512e-01,3.131538331508636475e-01,2.276320904493331909e-01,-3.559408485889434814e-01,6.423866003751754761e-02,9.092363715171813965e-02
-4.880559444427490234e-01,3.584174513816833496e-01,-2.336173504590988159e-02,-3.287872374057769775e-01,3.023997135460376740e-02,-1.897094845771789551e-01,6.436509639024734497e-02,1.139503717422485352e-01,1.769425161182880402e-02
4.708279669284820557e-02,4.089343920350074768e-02,2.400109022855758667e-01,-1.153160482645034790e-01,1.743142306804656982e-01,9.487473405897617340e-03,1.757849305868148804e-01,2.183604389429092407e-01,-3.829106092453002930e-01
5.611547827720642090e-02,7.662714272737503052e-02,-3.477294147014617920e-01,5.937892571091651917e-02,1.140298396348953247e-01,-4.618694782257080078e-01,-5.422645434737205505e-02,5.080896019935607910e-01,3.999923542141914368e-02
3.369685411453247070e-01,3.652463853359222412e-01,-3.447144031524658203e-01,2.373973876237869263e-01,2.574066519737243652e-01,-8.467513322830200195e-01,-4.802196025848388672e-01,-6.452926993370056152e-01,-4.877137243747711182e-01
3.140954077243804932e-01,2.191901206970214844e-01,-1.531952917575836182e-01,-1.606701463460922241e-01,-1.640810817480087280e-01,1.982178241014480591e-01,-3.311342895030975342e-01,-1.461043208837509155e-01,2.621579170227050781e-01
-5.115149542689323425e-02,3.737112581729888916e-01,3.294381499290466309e-01,-3.903937339782714844e-01,-3.015394806861877441e-01,2.383816242218017578e-01,-3.049499094486236572e-01,-5.009776949882507324e-01,-2.653844058513641357e-01
-5.138273835182189941e-01,-3.192874789237976074e-01,1.034674271941184998e-01,3.209476917982101440e-02,3.460578024387359619e-01,1.890022009611129761e-01,4.416104257106781006e-01,-8.723628520965576172e-02,-3.371278047561645508e-01
3.465827107429504395e-01,2.069142460823059082e-01,-1.291131526231765747e-01,-1.281269490718841553e-01,1.333169788122177124e-01,1.133315637707710266e-01,-2.727645933628082275e-01,-1.916697174310684204e-01,-3.956218361854553223e-01
-1.171147376298904419e-01,2.067272514104843140e-01,-1.088258326053619385e-01,-1.373606324195861816e-01,2.954854965209960938e-01,-1.895238757133483887e-01,-3.722792565822601318e-01,3.838264048099517822e-01,-1.817087829113006592e-01
2.010785192251205444e-01,-5.081173032522201538e-02,-2.675129100680351257e-02,8.130239695310592651e-02,5.481245368719100952e-02,2.342597842216491699e-01,2.195986956357955933e-01,2.629415504634380341e-02,2.065962553024291992e-01
1.047591492533683777e-01,1.948983781039714813e-02,2.506330609321594238e-01,5.634623393416404724e-02,-7.393180131912231445e-01,3.064137101173400879e-01,-4.630376771092414856e-02,-5.152788758277893066e-01,3.232230246067047119e-01
1.551113873720169067e-01,1.091557592153549194e-01,1.662865728139877319e-01,8.348590880632400513e-02,8.237901329994201660e-02,2.377154827117919922e-01,-2.721768021583557129e-01,-3.821839690208435059e-01,-3.623194620013237000e-02
2.589760422706604004e-01,-3.456441164016723633e-01,-5.023304224014282227e-01,-2.701366841793060303e-01,-6.482523679733276367e-01,-3.463637530803680420e-01,2.574729621410369873e-01,8.861742168664932251e-02,1.502306163311004639e-01
9.985745698213577271e-02,3.973888158798217773e-01,-5.864439606666564941e-01,-3.322676122188568115e-01,2.558643221855163574e-01,5.664794892072677612e-02,-1.155302375555038452e-01,-8.802702277898788452e-02,1.693345755338668823e-01
-2.666010558605194092e-01,3.373419344425201416e-01,-2.668559923768043518e-02,-2.409021109342575073e-01,3.288233280181884766e-02,4.450829327106475830e-02,-1.684013158082962036e-01,1.041094139218330383e-01,9.692188352346420288e-02
3.673839569091796875e-01,1.480604112148284912e-01,5.073641240596771240e-02,-1.908090412616729736e-01,-7.004094123840332031e-01,-1.942021697759628296e-01,1.236636042594909668e-01,1.515050530433654785e-01,3.754098415374755859e-01
4.528895020484924316e-03,-2.263863570988178253e-02,1.307058930397033691e-01,3.763688206672668457e-01,3.233771026134490967e-01,1.412162184715270996e-01,-3.495414853096008301e-01,-3.958228528499603271e-01,-2.426136583089828491e-01
-2.236680127680301666e-02,-1.919556707143783569e-01,-6.496640443801879883e-01,3.371713459491729736e-01,7.158751785755157471e-02,1.002634391188621521e-01,3.517474234104156494e-01,-1.076571345329284668e-01,1.317548900842666626e-01
9.797843545675277710e-02,3.033955693244934082e-01,-1.173533946275711060e-01,6.441961228847503662e-02,2.405479997396469116e-01,-3.769317269325256348e-01,-1.682052910327911377e-01,-2.636017501354217529e-01,-5.474755167961120605e-01
-4.755764007568359375e-01,2.203030278906226158e-03,3.690027892589569092e-01,-1.803842186927795410e-01,-1.960994750261306763e-01,3.167764246463775635e-01,-4.647364467382431030e-02,5.373435840010643005e-02,1.314696371555328369e-01
-2.950707674026489258e-01,1.177053749561309814e-01,-4.350554663687944412e-03,3.697244822978973389e-01,2.912574410438537598e-01,-8.379624783992767334e-02,-1.828052550554275513e-01,-3.349087238311767578e-01,-4.710635840892791748e-01
-6.694377064704895020e-01,3.452743887901306152e-01,1.924139261245727539e-01,-1.791266351938247681e-01,-8.638927340507507324e-02,-6.303389072418212891e-01,-2.964355349540710449e-01,-3.575057387351989746e-01,3.124460577964782715e-01
-5.434539914131164551e-02,2.127729058265686035e-01,-2.447538375854492188e-01,-5.896716564893722534e-02,5.535368621349334717e-02,-2.073122709989547729e-01,1.692032814025878906e-01,1.061015203595161438e-01,2.999281883239746094e-01
5.417549610137939453e-02,1.876338422298431396e-01,2.032883912324905396e-01,1.152093987911939621e-02,1.805953681468963623e-01,1.719244718551635742e-01,-3.788475990295410156e-01,-3.111735880374908447e-01,-5.671116113662719727e-01
3.238297253847122192e-02,3.103967607021331787e-01,3.429666459560394287e-01,-3.988867700099945068e-01,-5.306380614638328552e-02,-1.675468832254409790e-01,-8.008747100830078125e-01,-2.799162268638610840e-01,-5.070927739143371582e-01
1.169699728488922119e-01,3.027171269059181213e-02,-3.540337979793548584e-01,5.117049440741539001e-03,3.201317191123962402e-01,2.081481963396072388e-01,2.541352622210979462e-02,-2.636345624923706055e-01,1.826008260250091553e-01
-2.448835968971252441e-02,2.173875719308853149e-01,-2.645199894905090332e-01,-3.395479917526245117e-01,3.088945150375366211e-01,-5.379016697406768799e-02,-2.903858721256256104e-01,4.298237338662147522e-02,2.650702837854623795e-03
2.895777672529220581e-02,-3.147852793335914612e-02,2.650641798973083496e-01,-1.082107890397310257e-02,-6.440089941024780273e-01,1.881160140037536621e-01,2.713503539562225342e-01,-7.690171003341674805e-01,3.358236849308013916e-01
3.548986911773681641e-01,3.022258877754211426e-01,-1.562696248292922974e-01,-3.283315002918243408e-01,-4.587169885635375977e-01,-3.588022291660308838e-01,-9.012950062751770020e-01,1.306756436824798584e-01,2.914781868457794189e-01
3.710369467735290527e-01,-5.310423970222473145e-01,-3.846839368343353271e-01,-1.324275255203247070e+00,-2.824509441852569580e-01,9.585583209991455078e-02,-3.399921357631683350e-01,3.929411470890045166e-01,2.703149914741516113e-01
4.699253439903259277e-01,-6.012824829667806625e-03,-5.230350494384765625e-01,4.544144868850708008e-01,-1.095040440559387207e-01,-4.856170117855072021e-01,1.830709129571914673e-01,-2.319879829883575439e-03,5.829730629920959473e-02
3.671676814556121826e-01,1.884535849094390869e-01,-2.163511514663696289e-01,4.351454377174377441e-01,-2.054215818643569946e-01,-3.714983761310577393e-01,1.803529560565948486e-01,-5.959706902503967285e-01,-9.399672746658325195e-01
-3.211390599608421326e-02,3.739377558231353760e-01,1.791814416646957397e-01,-4.305671155452728271e-01,-9.151969105005264282e-03,4.106765985488891602e-01,-1.254306077957153320e+00,-5.438110828399658203e-01,-4.241828322410583496e-01
-2.136369794607162476e-01,2.011759877204895020e-01,1.173379570245742798e-01,-3.957560360431671143e-01,1.827063262462615967e-01,6.787918508052825928e-02,-5.051473975181579590e-01,1.126938015222549438e-01,1.863098889589309692e-01
2.782504558563232422e-01,2.595087885856628418e-01,-4.753203690052032471e-01,7.086782902479171753e-02,2.670788168907165527e-01,-9.767301082611083984e-01,-4.875743389129638672e-01,-7.137099504470825195e-01,-4.697029478847980499e-03
-1.502713680267333984e+00,-4.457103908061981201e-01,8.139483630657196045e-02,-5.303080081939697266e-01,1.724390089511871338e-01,6.293297559022903442e-02,-1.657773852348327637e-01,1.896918192505836487e-02,5.196058750152587891e-01
-5.361632108688354492e-01,-9.144201874732971191e-02,-4.771525412797927856e-02,2.666555345058441162e-01,3.929715454578399658e-01,3.142283856868743896e-01,6.868423521518707275e-02,-1.894682198762893677e-01,-3.453398346900939941e-01
4.806242585182189941e-01,1.150940060615539551e-01,-2.749957516789436340e-02,-5.579409003257751465e-01,-3.106521368026733398e-01,2.566237747669219971e-01,-1.330300420522689819e-01,1.315174698829650879e-01,2.245596647262573242e-01
-5.716458559036254883e-01,3.562129661440849304e-02,2.344819456338882446e-01,-6.412342190742492676e-02,-2.048449590802192688e-02,-1.407916424795985222e-03,2.686804533004760742e-01,-6.337027996778488159e-02,1.761033236980438232e-01
-5.720041990280151367e-01,-3.175725042819976807e-02,-4.449543356895446777e-02,4.277298152446746826e-01,2.047666162252426147e-02,3.014860451221466064e-01,-2.424850463867187500e-01,-6.147508025169372559e-01,6.412314251065254211e-03
-3.238639980554580688e-02,-4.340041577816009521e-01,-3.150207102298736572e-01,-5.006627365946769714e-02,-1.228471994400024414e-01,-6.141013465821743011e-03,4.041540920734405518e-01,2.323928773403167725e-01,1.635665744543075562e-01
3.833486884832382202e-02,2.137527912855148315e-01,-1.944303959608078003e-01,1.886614561080932617e-01,9.930060058832168579e-02,-5.185314416885375977e-01,3.996411263942718506e-01,1.969393789768218994e-01,-2.208262085914611816e-01
-5.808587670326232910e-01,4.395417869091033936e-01,-1.407229006290435791e-01,-5.905427336692810059e-01,-3.521955609321594238e-01,3.699609041213989258e-01,-3.379514217376708984e-01,-3.929325044155120850e-01,1.924458593130111694e-01
-1.069511994719505310e-01,1.179061606526374817e-01,3.289061784744262695e-01,-4.005988240242004395e-01,-2.945917248725891113e-01,1.606588810682296753e-01,-5.216376781463623047e-01,-6.490588188171386719e-01,-1.878345012664794922e-01
2.511826157569885254e-01,-1.672908216714859009e-01,1.502499282360076904e-01,-7.864952683448791504e-01,-7.590703666210174561e-02,2.868968546390533447e-01,3.071829080581665039e-01,1.624478697776794434e-01,-9.536404907703399658e-02
-5.789560079574584961e-01,1.307552903890609741e-01,-1.551635563373565674e-02,-8.644001185894012451e-02,4.678524434566497803e-01,-1.064087301492691040e-01,-3.585789725184440613e-02,1.469914168119430542e-01,-5.560630559921264648e-01
2.027307897806167603e-01,1.139106526970863342e-01,2.471257448196411133e-01,3.117547035217285156e-01,3.026894330978393555e-01,-1.433018036186695099e-02,-4.001036882400512695e-01,-4.382542371749877930e-01,-3.647691607475280762e-01
2.524300515651702881e-01,2.355736643075942993e-01,1.820444166660308838e-01,-1.193890199065208435e-01,-1.261090189218521118e-01,2.293168008327484131e-01,-5.261340141296386719e-01,-1.988803744316101074e-01,1.924581974744796753e-01
-1.384495291858911514e-02,-5.008105933666229248e-02,-6.730193644762039185e-02,-3.044258803129196167e-02,-1.750194281339645386e-02,3.669891506433486938e-03,-7.760048657655715942e-02,1.030252408236265182e-02,-3.971131891012191772e-02
1.353472620248794556e-01,1.203209981322288513e-01,1.975006461143493652e-01,-6.405677646398544312e-02,-8.516474962234497070e-01,5.217608436942100525e-02,2.439754307270050049e-01,8.855104446411132812e-02,2.424648255109786987e-01
3.916280344128608704e-02,-3.450775146484375000e-01,-2.083545029163360596e-01,2.433308959007263184e-01,-8.324307203292846680e-02,2.912988960742950439e-01,9.324570745229721069e-02,-5.764466524124145508e-02,-1.884711906313896179e-03
2.329920977354049683e-01,2.472972422838211060e-01,3.169911801815032959e-01,-3.429868072271347046e-02,-2.921770699322223663e-02,4.029153287410736084e-02,-4.301024377346038818e-01,-3.769082427024841309e-01,9.753522276878356934e-02
1.957917511463165283e-01,2.410594820976257324e-01,2.029958218336105347e-01,1.031181886792182922e-01,6.191483139991760254e-02,-2.125822603702545166e-01,-1.124638989567756653e-01,-8.744605630636215210e-02,-3.730877637863159180e-01
-5.054955482482910156e-01,1.894747912883758545e-01,1.816965788602828979e-01,-2.992232143878936768e-01,3.194542825222015381e-01,1.495268046855926514e-01,8.348955959081649780e-02,2.479800879955291748e-01,-3.277437686920166016e-01
-5.380186438560485840e-02,-1.436608731746673584e-01,-7.661839574575424194e-02,2.352668941020965576e-01,1.737097464501857758e-02,-5.116057395935058594e-01,-1.957151144742965698e-01,3.732097446918487549e-01,-2.012300677597522736e-02
4.850997403264045715e-02,2.774219512939453125e-01,2.969924807548522949e-01,2.302241474390029907e-01,-2.746033668518066406e-01,-1.156807038933038712e-02,1.455864906311035156e-01,-4.046256542205810547e-01,-7.361057400703430176e-01
-5.795432329177856445e-01,-7.604593038558959961e-01,-1.807210296392440796e-01,-5.134150981903076172e-01,1.721965968608856201e-01,2.301097065210342407e-01,-8.806843310594558716e-02,2.807571887969970703e-01,2.605176568031311035e-01
1.800255663692951202e-02,3.615531027317047119e-01,-2.713591754436492920e-01,-3.579778075218200684e-01,7.217597961425781250e-02,-6.689085364341735840e-01,-9.262092411518096924e-02,3.356279730796813965e-01,3.368482887744903564e-01
-1.020132750272750854e-01,-4.422515630722045898e-01,-5.441347360610961914e-01,5.735402703285217285e-01,2.639960348606109619e-01,1.749089360237121582e-01,-1.335161179304122925e-01,9.337835013866424561e-02,-2.286834828555583954e-02
-6.310284733772277832e-01,-2.698374986648559570e-01,1.813344955444335938e-01,9.270073473453521729e-02,2.144294977188110352e-02,1.635456532239913940e-01,2.465407699346542358e-01,3.164946660399436951e-02,2.605718374252319336e-01
3.390033543109893799e-01,6.394702941179275513e-02,1.565255969762802124e-01,-8.221539109945297241e-02,2.303287833929061890e-01,-3.723791837692260742e-01,-2.918973565101623535e-01,-1.650472879409790039e-01,-5.165467858314514160e-01
1.803172826766967773e-01,-1.339488029479980469e-01,-4.267109036445617676e-01,1.140982955694198608e-01,2.661994695663452148e-01,3.194200396537780762e-01,-1.348572373390197754e-01,-2.521606683731079102e-01,2.099149972200393677e-01
1.867685914039611816e-01,-5.007822811603546143e-02,2.082713991403579712e-01,1.636533290147781372e-01,-2.289921231567859650e-02,1.266610622406005859e-01,2.107564955949783325e-01,1.507906466722488403e-01,-3.771698176860809326e-01
2.289600819349288940e-01,5.942463874816894531e-01,-2.299751341342926025e-01,-3.431580029428005219e-03,7.093200087547302246e-02,-8.163643479347229004e-01,-3.720078766345977783e-01,-7.346708774566650391e-01,-9.686787426471710205e-02
-3.689838051795959473e-01,-2.520276606082916260e-01,2.116338908672332764e-01,1.525074392557144165e-01,2.389245927333831787e-01,1.106840223073959351e-01,1.438674032688140869e-01,-1.829469799995422363e-01,-8.611885458230972290e-02
-1.007878258824348450e-01,-1.515189856290817261e-01,1.925261020660400391e-01,2.095957547426223755e-01,1.077208966016769409e-01,1.674177199602127075e-01,1.240323930978775024e-01,-1.829622834920883179e-01,-9.298153966665267944e-02
1.753273904323577881e-01,2.185391932725906372e-01,1.738019436597824097e-01,9.668506681919097900e-03,1.785587221384048462e-01,3.025762736797332764e-01,-4.757210314273834229e-01,-4.710167348384857178e-01,-1.027580574154853821e-01
-1.951973140239715576e-01,-5.601437687873840332e-01,-4.002447426319122314e-01,1.982243061065673828e-01,8.293870091438293457e-02,-4.864906519651412964e-02,4.163886606693267822e-01,2.562540471553802490e-01,-1.546963211148977280e-02
-5.778255462646484375e-01,1.738225519657135010e-01,3.978270292282104492e-01,-6.744588613510131836e-01,1.410891413688659668e-01,4.061651229858398438e-01,-5.998347401618957520e-01,-1.392977982759475708e-01,2.868629395961761475e-01
-5.257259607315063477e-01,-4.939281940460205078e-01,-2.059854269027709961e-01,-8.194279670715332031e-02,1.424062103033065796e-01,-9.557821601629257202e-02,4.450900554656982422e-01,2.351118624210357666e-01,1.632890254259109497e-01
4.808176755905151367e-01,-3.868656978011131287e-02,-3.176721334457397461e-01,-2.537127118557691574e-03,-5.990744829177856445e-01,-2.582284063100814819e-02,-1.135625317692756653e-01,1.157607361674308777e-01,4.084385931491851807e-01
1.744773983955383301e-01,7.370304316282272339e-02,1.915404796600341797e-01,1.553256064653396606e-01,-2.433188557624816895e-01,7.972047477960586548e-02,2.608838677406311035e-01,1.396297663450241089e-01,1.719096004962921143e-01
-6.347927451133728027e-01,-3.119534254074096680e-02,3.656859695911407471e-01,2.482460886240005493e-01,1.147660538554191589e-01,-5.619996041059494019e-02,2.589155137538909912e-01,-2.368865311145782471e-01,-3.439005613327026367e-01
-1.992694288492202759e-01,4.164226055145263672e-01,1.883116811513900757e-01,-4.639718532562255859e-01,1.803846657276153564e-01,-2.253048270940780640e-01,1.246287822723388672e-01,9.843665361404418945e-02,-9.122236818075180054e-02
1.061977371573448181e-01,1.383429616689682007e-01,-4.218341708183288574e-01,-1.467131078243255615e-01,4.394478797912597656e-01,1.962285041809082031e-01,-4.008686244487762451e-01,-1.562068164348602295e-01,1.725161522626876831e-01
2.157695442438125610e-01,6.529316306114196777e-02,9.384000301361083984e-02,8.883830904960632324e-02,-1.952451914548873901e-01,1.648811548948287964e-01,2.559536993503570557e-01,1.966578513383865356e-01,2.400647997856140137e-01
2.647670209407806396e-01,1.532610803842544556e-01,-2.638287842273712158e-01,-1.040734350681304932e-01,1.908566206693649292e-01,2.220758646726608276e-01,-5.468910932540893555e-01,-1.689862012863159180e-01,1.525499373674392700e-01
-4.473125636577606201e-01,1.151220574975013733e-01,-1.506322063505649567e-02,2.741205096244812012e-01,2.119154483079910278e-01,-1.222900748252868652e-01,-4.566049948334693909e-02,-3.541363775730133057e-01,-6.350899934768676758e-01
1.576023101806640625e-01,1.853365004062652588e-01,-3.840840980410575867e-02,1.675790548324584961e-01,-1.261646747589111328e-01,-1.807036101818084717e-01,1.670574098825454712e-01,-8.957895636558532715e-02,-3.458838462829589844e-01
-3.310337066650390625e-01,-6.756773591041564941e-02,2.173312902450561523e-01,1.890248954296112061e-01,7.605999708175659180e-02,-6.627170741558074951e-02,2.061519771814346313e-02,-1.063105762004852295e-01,-2.024768739938735962e-01
1.898374557495117188e-01,1.042322814464569092e-01,2.770348489284515381e-01,-6.607657670974731445e-01,-1.692260801792144775e-01,-2.618459984660148621e-02,-3.633012473583221436e-01,-2.530241012573242188e-01,-6.393087655305862427e-02
1.305616497993469238e-01,-3.220304250717163086e-01,8.793043345212936401e-02,1.109615117311477661e-01,-6.485183537006378174e-02,6.691415607929229736e-02,3.335420489311218262e-01,-2.914497852325439453e-01,-5.715190172195434570e-01
1.694927066564559937e-01,-1.137588769197463989e-01,-2.955678105354309082e-01,4.060109257698059082e-01,-6.080202460289001465e-01,-6.297056376934051514e-02,4.423845708370208740e-01,-1.990203112363815308e-01,1.257902979850769043e-01
-8.456462621688842773e-01,-5.334913134574890137e-01,-4.382649362087249756e-01,9.653804451227188110e-02,1.030436381697654724e-01,-8.298450708389282227e-01,5.933736562728881836e-01,3.521613180637359619e-01,-9.042349457740783691e-02
3.030032515525817871e-01,-1.634795367717742920e-01,-2.319525778293609619e-01,2.717511951923370361e-01,-1.316377520561218262e-01,-5.443507432937622070e-01,1.694636493921279907e-01,3.216138184070587158e-01,3.568103909492492676e-02
3.123390674591064453e-02,8.640693128108978271e-02,1.617892831563949585e-01,2.450203597545623779e-01,8.328724652528762817e-02,1.865404546260833740e-01,1.699184328317642212e-01,-3.481470048427581787e-01,2.127978056669235229e-01
-1.720921695232391357e-01,1.562328785657882690e-01,4.132108092308044434e-01,-2.919228076934814453e-01,-2.028351724147796631e-01,2.359161078929901123e-01,-5.948766469955444336e-01,-3.964245915412902832e-01,-3.184752464294433594e-01
-1.066841036081314087e-01,-5.122651457786560059e-01,-1.428771615028381348e-01,-5.079999566078186035e-02,2.526731789112091064e-01,1.917688250541687012e-01,4.290389120578765869e-01,9.170464240014553070e-03,-6.317334622144699097e-02
1.193650513887405396e-01,-2.359378337860107422e-02,-1.696804761886596680e-01,-2.818991430103778839e-02,-1.605065464973449707e-01,-1.012917160987854004e-01,1.595210582017898560e-01,-2.073541982099413872e-03,1.555150300264358521e-01
-4.673900902271270752e-01,-6.094039082527160645e-01,-9.894746541976928711e-01,-1.336494833230972290e-01,1.802443712949752808e-01,-4.859098792076110840e-02,3.364771008491516113e-01,3.241221010684967041e-01,1.493488699197769165e-01
-5.446849390864372253e-02,2.497507929801940918e-01,-5.597251933068037033e-03,-2.169858813285827637e-01,1.283018290996551514e-01,3.191784322261810303e-01,-7.901877760887145996e-01,-2.725557088851928711e-01,-4.310713708400726318e-01
3.198620378971099854e-01,1.183963008224964142e-02,-4.729214906692504883e-01,5.615023970603942871e-01,-2.993833720684051514e-01,-8.369405269622802734e-01,-3.922462761402130127e-01,-8.877820968627929688e-01,3.966649174690246582e-01
4.148510098457336426e-02,4.147636145353317261e-02,-1.022651791572570801e-02,3.325858116149902344e-01,3.431568741798400879e-01,-2.640853226184844971e-01,-3.379426002502441406e-01,-4.362370371818542480e-01,-2.977144420146942139e-01
-4.250375926494598389e-01,-4.898039102554321289e-01,-6.947193145751953125e-01,1.554495245218276978e-01,-8.408636599779129028e-02,-6.290600895881652832e-01,5.252156853675842285e-01,2.853721380233764648e-01,-5.792935565114021301e-02
-2.042774856090545654e-02,3.173660039901733398e-01,2.919925153255462646e-01,-3.971397876739501953e-01,5.603362806141376495e-03,1.522563993930816650e-01,-4.539060294628143311e-01,-5.044084787368774414e-01,-5.864018797874450684e-01
9.814945608377456665e-02,-1.347541660070419312e-01,-2.431299835443496704e-01,-5.789452195167541504e-01,-8.360397815704345703e-02,1.480372101068496704e-01,3.390112519264221191e-01,-3.119276463985443115e-01,-5.406165495514869690e-02
2.479144185781478882e-01,2.573295235633850098e-01,-4.360073208808898926e-01,-1.816124022006988525e-01,4.423586130142211914e-01,3.191312849521636963e-01,-5.108453035354614258e-01,-2.547059655189514160e-01,2.495483458042144775e-01
3.856613337993621826e-01,1.062694340944290161e-01,-1.632584184408187866e-01,-1.758230924606323242e-01,-3.629238009452819824e-01,1.295896619558334351e-01,-1.694929152727127075e-01,1.185840964317321777e-01,1.972081959247589111e-01
4.075065627694129944e-02,-5.923627018928527832e-01,-2.574723064899444580e-01,-2.834087936207652092e-03,9.548617154359817505e-02,9.942257404327392578e-02,-5.059923231601715088e-02,3.795897662639617920e-01,2.208160161972045898e-01
9.834806621074676514e-02,2.537863552570343018e-01,2.132844477891921997e-01,-9.045462310314178467e-02,4.601881653070449829e-02,-2.714745402336120605e-01,1.535045821219682693e-02,1.164805069565773010e-01,1.541990488767623901e-01
-1.029645651578903198e-02,1.512290239334106445e-01,-3.089837431907653809e-01,2.406577616930007935e-01,-1.618608683347702026e-01,-5.497292280197143555e-01,1.952627003192901611e-01,-3.949618712067604065e-02,7.420589029788970947e-02
3.250021114945411682e-02,1.184457913041114807e-01,-4.785831868648529053e-01,1.080451086163520813e-01,3.599574565887451172e-01,-3.570521473884582520e-01,-2.544700503349304199e-01,2.063771933317184448e-01,1.475492566823959351e-01
-8.459989428520202637e-01,-3.839799761772155762e-01,-7.734858989715576172e-02,-5.290716886520385742e-01,-7.645882964134216309e-01,2.267069816589355469e-01,-1.412122100591659546e-01,9.073025733232498169e-02,5.111392736434936523e-01
-2.005111426115036011e-02,-3.940240666270256042e-02,-7.513149082660675049e-02,3.198504447937011719e-01,3.569868206977844238e-02,-6.778120398521423340e-01,3.610329031944274902e-01,1.265729665756225586e-01,-2.231891751289367676e-01
3.902990520000457764e-01,1.932639926671981812e-01,1.617095060646533966e-02,-1.258054524660110474e-01,-3.967352584004402161e-02,2.230779500678181648e-03,-1.925774514675140381e-01,-2.414913624525070190e-01,-2.403707616031169891e-02
3.697125315666198730e-01,2.551995404064655304e-02,-1.827328950166702271e-01,4.562774896621704102e-01,-2.424335628747940063e-01,-5.202234983444213867e-01,-1.219959259033203125e-01,-4.438679218292236328e-01,-6.938359737396240234e-01
2.767655551433563232e-01,-3.108135461807250977e-01,-2.303113043308258057e-01,4.141922295093536377e-01,-2.134824097156524658e-01,-1.645478457212448120e-01,5.969964712858200073e-02,-1.685122214257717133e-02,1.279150396585464478e-01
-6.600587964057922363e-01,-1.248881500214338303e-02,1.554121673107147217e-01,2.018470615148544312e-01,3.916305899620056152e-01,7.844124734401702881e-02,1.500176340341567993e-01,-1.812333464622497559e-01,-4.704446196556091309e-01
4.356712400913238525e-01,-1.485337018966674805e-01,-8.572753518819808960e-02,1.232232153415679932e-02,-2.926875948905944824e-01,-3.516339957714080811e-01,-1.176708787679672241e-01,2.819762229919433594e-01,2.946121692657470703e-01
-5.811029076576232910e-01,3.448960557579994202e-02,4.323713779449462891e-01,-2.548587322235107422e-01,8.589488267898559570e-02,1.000425964593887329e-01,3.062503878027200699e-03,1.171043142676353455e-01,9.707289934158325195e-02
3.284608125686645508e-01,1.597282141447067261e-01,2.048248797655105591e-01,1.415510475635528564e-01,3.116128146648406982e-01,-3.677406907081604004e-02,-4.484414756298065186e-01,-3.148827850818634033e-01,-5.758752226829528809e-01
2.080111205577850342e-01,-3.667131662368774414e-01,-3.031757771968841553e-01,2.315614074468612671e-01,4.415775835514068604e-02,3.642663955688476562e-01,1.805595867335796356e-02,-1.667427569627761841e-01,2.097395062446594238e-01
1.695089042186737061e-01,1.667384952306747437e-01,1.468234658241271973e-01,3.762566670775413513e-02,-2.276009768247604370e-01,1.678448542952537537e-02,1.871200352907180786e-01,3.460384160280227661e-02,2.739486992359161377e-01
-5.244811773300170898e-01,-1.268600672483444214e-01,-3.505553901195526123e-01,-2.564493417739868164e-01,7.495257258415222168e-01,-5.425831675529479980e-01,1.579182595014572144e-01,3.157659620046615601e-02,-2.012833803892135620e-01
-7.199027389287948608e-02,3.534036576747894287e-01,-2.798687815666198730e-01,-2.682313024997711182e-01,9.929977357387542725e-02,-5.620911717414855957e-01,-3.748579919338226318e-01,4.385887384414672852e-01,3.003690950572490692e-02
-1.457678973674774170e-01,-4.719339907169342041e-01,-7.175115942955017090e-01,3.444186151027679443e-01,1.265514492988586426e-01,-4.233872145414352417e-02,5.216078758239746094e-01,2.950338460505008698e-02,-6.527377665042877197e-02
-1.166979148983955383e-01,-1.824323534965515137e-01,-3.132748603820800781e-02,1.123034358024597168e-01,6.205555051565170288e-02,-4.359464645385742188e-01,4.055247306823730469e-01,1.932460814714431763e-02,-2.791452407836914062e-01
3.836187347769737244e-02,-1.631192266941070557e-01,1.047720313072204590e-01,1.659823358058929443e-01,2.249010354280471802e-01,2.453462928533554077e-01,2.144462168216705322e-01,-2.841788232326507568e-01,-1.436031162738800049e-01
-6.192989945411682129e-01,7.793363183736801147e-02,2.241975516080856323e-01,5.819462239742279053e-02,3.921114802360534668e-01,-1.443721950054168701e-01,1.157235121354460716e-03,-2.503742091357707977e-02,-3.102608621120452881e-01
-2.679820358753204346e-01,2.127284854650497437e-01,3.091890513896942139e-01,-5.317780375480651855e-01,3.630665242671966553e-01,3.899610787630081177e-02,-5.560168623924255371e-01,-6.601362675428390503e-02,6.650172173976898193e-02
3.336793184280395508e-01,2.617385387420654297e-01,-8.642822504043579102e-02,3.042535781860351562e-01,1.983047462999820709e-02,-3.228656649589538574e-01,1.970500200986862183e-01,6.730068940669298172e-03,-7.291526198387145996e-01
-6.881965398788452148e-01,-2.055030465126037598e-01,2.955656945705413818e-01,4.833311215043067932e-02,1.923016160726547241e-01,2.215013951063156128e-01,3.563965857028961182e-01,-2.993647649418562651e-05,-7.525473833084106445e-02
3.819507360458374023e-02,-1.567399650812149048e-01,1.990411616861820221e-02,4.997977986931800842e-03,2.143690735101699829e-02,-1.141234952956438065e-02,-6.165353953838348389e-02,-1.084814667701721191e-01,-3.750929236412048340e-01
3.191406428813934326e-01,2.335982620716094971e-01,-3.548715710639953613e-01,-3.228970766067504883e-01,-1.573068201541900635e-01,1.470186114311218262e-01,-9.870053827762603760e-02,-5.503769218921661377e-02,2.434935718774795532e-01
1.813491582870483398e-01,4.104003608226776123e-01,9.312473237514495850e-02,-6.600614786148071289e-01,-4.777139723300933838e-01,-2.588729262351989746e-01,4.220637381076812744e-01,1.512284278869628906e-01,-7.981602102518081665e-03
-1.894180923700332642e-01,-5.016853809356689453e-01,-1.120723560452461243e-01,4.349617958068847656e-01,1.913473308086395264e-01,3.047074377536773682e-01,-5.065962076187133789e-01,4.398205876350402832e-02,-2.687591314315795898e-01
1.096158772706985474e-01,1.531513482332229614e-01,2.463384866714477539e-01,1.518653631210327148e-01,2.559417188167572021e-01,5.359130725264549255e-02,-3.512546718120574951e-01,-5.229834318161010742e-01,-4.212813079357147217e-01
2.261609286069869995e-01,-6.109559163451194763e-02,3.176959604024887085e-02,1.621352583169937134e-01,-6.510897278785705566e-01,1.149469465017318726e-01,2.837865650653839111e-01,-3.016310036182403564e-01,2.688198983669281006e-01
-4.150016978383064270e-02,-4.014711380004882812e-01,-3.124052286148071289e-01,9.684082120656967163e-02,-5.415775999426841736e-02,-3.502055704593658447e-01,1.476597189903259277e-01,6.544047594070434570e-02,-6.297609210014343262e-02
-2.018935978412628174e-01,-8.897066116333007812e-03,1.196905598044395447e-01,4.061980545520782471e-01,1.214322820305824280e-01,7.757706195116043091e-02,-4.650837182998657227e-01,-9.070464223623275757e-02,-8.896363377571105957e-01
-3.960757255554199219e-01,4.347344860434532166e-02,3.480400741100311279e-01,-3.609811961650848389e-01,-2.246613241732120514e-02,1.316267400979995728e-01,-4.111225605010986328e-01,1.615751981735229492e-01,1.335154473781585693e-01
6.971977651119232178e-02,-1.698886603116989136e-02,1.834770143032073975e-01,2.019552290439605713e-01,-1.229434367269277573e-02,2.604944705963134766e-01,-2.224346846342086792e-01,-3.654576838016510010e-01,4.686803743243217468e-02
2.848442196846008301e-01,2.979925572872161865e-01,-3.813274577260017395e-02,-1.805963218212127686e-01,4.617477357387542725e-01,-6.718968152999877930e-01,-5.720787048339843750e-01,-6.886688470840454102e-01,-3.997972309589385986e-01
-3.267602026462554932e-01,1.471204608678817749e-01,3.820562958717346191e-01,-5.030953884124755859e-01,-1.013816073536872864e-01,1.050166264176368713e-01,-2.594564259052276611e-01,2.952565811574459076e-02,1.836996376514434814e-01
-1.104291435331106186e-02,3.777969777584075928e-01,-4.954465106129646301e-02,-1.122342273592948914e-01,4.085701704025268555e-02,-6.638398021459579468e-02,1.113638207316398621e-01,2.366434633731842041e-01,1.458934247493743896e-01
3.076396882534027100e-01,9.715992212295532227e-02,7.352901995182037354e-02,-2.127807289361953735e-01,-2.899013757705688477e-01,-2.140057832002639771e-01,5.004730075597763062e-02,-8.835237473249435425e-03,3.606178611516952515e-02
-9.097687005996704102e-01,-5.891659855842590332e-01,3.566093742847442627e-01,-1.458457946777343750e+00,-4.524740874767303467e-01,2.150171995162963867e-01,-7.709189653396606445e-01,-1.438700258731842041e-01,2.471906989812850952e-01
-5.904551744461059570e-01,1.843470148742198944e-02,-3.111045993864536285e-02,2.436823397874832153e-01,4.041017293930053711e-01,8.658595383167266846e-02,-2.128182351589202881e-02,-2.155922353267669678e-01,-4.333648383617401123e-01
4.269112944602966309e-01,-5.092921853065490723e-01,-2.495592832565307617e-01,3.186392486095428467e-01,-3.189036250114440918e-01,-1.458610873669385910e-02,2.134806215763092041e-01,1.186402440071105957e-01,3.018665313720703125e-01
6.779894977807998657e-02,4.133491814136505127e-01,1.129989027976989746e-01,-2.234792113304138184e-01,4.447830468416213989e-02,3.587408065795898438e-01,-8.168515563011169434e-01,-3.134468793869018555e-01,-1.308685392141342163e-01
-6.174243688583374023e-01,-4.286051988601684570e-01,9.177102148532867432e-02,-5.927420258522033691e-01,2.941802144050598145e-01,2.131854295730590820e-01,-9.224936366081237793e-02,2.526449263095855713e-01,9.436095505952835083e-02
1.106465309858322144e-01,1.593868732452392578e-01,4.181150794029235840e-01,6.282079964876174927e-02,-5.297456979751586914e-01,1.809944659471511841e-01,-2.570315599441528320e-01,-3.528242409229278564e-01,2.974253296852111816e-01
2.397372573614120483e-01,-9.945652633905410767e-02,-4.822946190834045410e-01,2.144835591316223145e-01,3.546019196510314941e-01,1.753396391868591309e-01,-4.033553302288055420e-01,-1.271191686391830444e-01,2.541545629501342773e-01
1.110503375530242920e-01,2.067929357290267944e-01,2.710959315299987793e-01,-4.804772511124610901e-02,-1.447036955505609512e-02,-1.150119770318269730e-02,-2.315792888402938843e-01,-3.121419250965118408e-01,-4.360703006386756897e-02
-6.633161902427673340e-01,-2.533707022666931152e-01,-1.078875362873077393e-01,-1.790590584278106689e-01,7.015141844749450684e-02,1.436658948659896851e-01,2.539741694927215576e-01,-4.178215935826301575e-02,7.810259610414505005e-02
-3.429588675498962402e-01,1.314388513565063477e-01,-1.382471621036529541e-02,-3.374087214469909668e-01,3.498564362525939941e-01,9.774214029312133789e-02,-4.676791429519653320e-01,-1.145851537585258484e-01,1.709099858999252319e-01
-3.563966229557991028e-02,7.973778247833251953e-02,8.519642055034637451e-02,1.247668787837028503e-01,1.661463230848312378e-01,2.889619171619415283e-01,-4.293034076690673828e-01,-3.729840517044067383e-01,-2.748397886753082275e-01
-6.329714655876159668e-01,-3.488789498805999756e-01,-8.739225566387176514e-02,-2.185243517160415649e-01,-4.887932911515235901e-02,1.987551301717758179e-01,5.498353838920593262e-01,3.150598406791687012e-01,1.742492616176605225e-01
-3.459217846393585205e-01,1.252491921186447144e-01,2.286133915185928345e-01,-4.416227638721466064e-01,6.122187152504920959e-02,2.326360940933227539e-01,-2.233170270919799805e-01,-1.094483584165573120e-01,1.412785500288009644e-01
1.170676350593566895e-01,1.278215646743774414e-01,3.154031336307525635e-01,2.430451661348342896e-01,-1.808543205261230469e-01,-7.326707988977432251e-02,1.412150077521800995e-02,-1.309709250926971436e-01,-3.940297663211822510e-01
2.944463193416595459e-01,1.783026158809661865e-01,-4.683414101600646973e-02,-3.602489829063415527e-02,-4.040058329701423645e-02,1.149927973747253418e-01,1.989964395761489868e-01,1.019844561815261841e-01,2.900197207927703857e-01
-1.054462268948554993e-01,3.146282136440277100e-01,-2.536011636257171631e-01,-2.209575846791267395e-03,4.388500750064849854e-02,2.164623886346817017e-01,7.942276448011398315e-02,5.973126366734504700e-02,2.923934347927570343e-02
4.004144966602325439e-01,2.415212094783782959e-01,-1.924770772457122803e-01,2.047785073518753052e-01,8.226029574871063232e-03,-3.428247869014739990e-01,-1.417881101369857788e-01,-3.629295527935028076e-02,-4.576979279518127441e-01
-6.405156254768371582e-01,9.240294247865676880e-02,3.197288811206817627e-01,-3.453621566295623779e-01,8.057605475187301636e-02,1.900129318237304688e-01,1.132748648524284363e-01,2.698427438735961914e-01,8.970205485820770264e-02
2.794682085514068604e-01,2.262275367975234985e-01,1.698335111141204834e-01,-2.652752101421356201e-01,-4.377410709857940674e-01,5.688198283314704895e-02,-5.303856357932090759e-02,2.037475258111953735e-02,3.207040429115295410e-01
2.175374925136566162e-01,1.095138862729072571e-01,-2.572156190872192383e-01,2.574749886989593506e-01,-1.413325369358062744e-01,-7.409524321556091309e-01,2.010580152273178101e-01,3.277524411678314209e-01,2.953880727291107178e-01
3.268728554248809814e-01,-1.036090776324272156e-01,1.815999113023281097e-02,4.299238622188568115e-01,-2.992615401744842529e-01,-6.530225276947021484e-01,4.192325770854949951e-01,-2.227812260389328003e-01,-1.107549071311950684e+00
-1.436910405755043030e-02,-4.552905857563018799e-01,-1.985039114952087402e-01,1.870957016944885254e-01,-1.194766312837600708e-01,-3.885100185871124268e-01,5.033764839172363281e-01,6.305257230997085571e-02,-6.249759718775749207e-02
-1.344500899314880371e+00,-7.823191881179809570e-01,-2.169003188610076904e-01,-4.645667672157287598e-01,2.207087725400924683e-01,3.000927865505218506e-01,3.342054039239883423e-02,2.910584211349487305e-01,3.240909576416015625e-01
-7.845588028430938721e-02,2.681553959846496582e-01,3.912238478660583496e-01,-4.891637861728668213e-01,-3.105165064334869385e-02,3.681058585643768311e-01,-3.689668476581573486e-01,-5.655829310417175293e-01,-5.819118022918701172e-01
3.072290495038032532e-02,2.373170554637908936e-01,2.077185809612274170e-01,-1.242851242423057556e-01,8.305165171623229980e-02,2.467230409383773804e-01,-5.591325163841247559e-01,-1.783984899520874023e-01,1.546244788914918900e-02
-7.925113313831388950e-04,-1.089085489511489868e-01,-2.789836227893829346e-01,3.521059453487396240e-01,-1.186899468302726746e-01,-4.617647230625152588e-01,5.247434973716735840e-01,-4.743123799562454224e-02,4.818098153918981552e-03
1.170763596892356873e-01,2.671855986118316650e-01,-6.449558734893798828e-01,-3.646759688854217529e-01,2.909415960311889648e-01,1.498363167047500610e-01,-2.346299588680267334e-01,-2.261042445898056030e-01,-2.263223677873611450e-01
-4.057115912437438965e-01,-6.839228272438049316e-01,-2.110720276832580566e-01,-1.113885045051574707e-01,1.695735752582550049e-01,1.749494671821594238e-01,4.972270727157592773e-01,2.683687210083007812e-01,1.703572273254394531e-01
-1.173494935035705566e+00,-4.039704799652099609e-01,-5.903154611587524414e-01,1.944289803504943848e-01,2.088841646909713745e-01,-7.584761381149291992e-01,5.221173763275146484e-01,4.805104136466979980e-01,-2.998661994934082031e-02
-4.146489202976226807e-01,3.519436717033386230e-01,-1.222316995263099670e-01,-7.977722287178039551e-01,-4.052953049540519714e-02,-1.509409397840499878e-01,-7.808374762535095215e-01,-2.297722399234771729e-01,3.081068992614746094e-01
-3.389667272567749023e-01,-3.084505498409271240e-01,4.164873436093330383e-02,-7.302933931350708008e-01,-3.157790005207061768e-02,2.910177707672119141e-01,1.746809482574462891e-01,1.179807931184768677e-01,-4.012456834316253662e-01
-5.699525475502014160e-01,1.301232576370239258e-01,2.838263511657714844e-01,1.550840586423873901e-01,1.127216741442680359e-01,-1.346909254789352417e-01,2.097054272890090942e-01,-4.495921358466148376e-02,-2.965887784957885742e-01
2.333212792873382568e-01,2.914617955684661865e-01,3.811410069465637207e-02,-1.961533874273300171e-01,2.199286669492721558e-01,3.633361160755157471e-01,-3.516099452972412109e-01,-5.169649720191955566e-01,-1.891489624977111816e-01
-7.625920261489227414e-05,-5.950582623481750488e-01,4.453529119491577148e-01,3.458598554134368896e-01,-4.297685325145721436e-01,8.624847978353500366e-02,-1.996152251958847046e-01,1.830149441957473755e-01,-7.795367389917373657e-02
1.963364779949188232e-01,1.191780790686607361e-01,2.955806553363800049e-01,-1.937553286552429199e-01,-3.260702788829803467e-01,3.003346323966979980e-01,-5.648216605186462402e-01,-2.997041046619415283e-01,3.573688566684722900e-01
-3.225378692150115967e-02,3.533147573471069336e-01,2.156566679477691650e-01,-2.154655903577804565e-01,-6.537635624408721924e-02,1.677324473857879639e-01,-9.258362054824829102e-01,-4.171845912933349609e-01,-3.260041773319244385e-01
2.055826187133789062e-01,-6.557909399271011353e-02,2.231305539608001709e-01,6.465099286288022995e-03,7.414840906858444214e-02,5.888327211141586304e-02,1.346536874771118164e-01,-6.919779628515243530e-02,-5.645017027854919434e-01
-1.081197261810302734e-01,2.491441816091537476e-01,-9.705437719821929932e-02,2.263253480195999146e-01,4.569613933563232422e-02,4.900674894452095032e-02,9.988967329263687134e-02,-3.678652942180633545e-01,2.725985646247863770e-01
4.795330166816711426e-01,-4.078216254711151123e-01,-1.030407845973968506e-01,1.833664923906326294e-01,-3.498387336730957031e-01,-2.849175408482551575e-02,-3.641393035650253296e-02,1.847117692232131958e-01,2.845388054847717285e-01
-2.108333166688680649e-03,1.351185441017150879e-01,-1.711251586675643921e-01,-2.547898702323436737e-02,2.282460033893585205e-01,-6.423162221908569336e-01,-1.836367398500442505e-01,4.295701980590820312e-01,7.255801558494567871e-02
1.883026957511901855e-02,3.502640128135681152e-02,-1.395932398736476898e-02,-1.522434353828430176e-01,1.450713574886322021e-01,-7.874234579503536224e-03,-2.924374639987945557e-01,-2.152666300535202026e-01,-1.727915555238723755e-01
5.981962010264396667e-02,2.064640633761882782e-03,2.777016460895538330e-01,1.607146561145782471e-01,-1.596216345205903053e-03,2.255961745977401733e-01,-2.609854936599731445e-01,-4.972411096096038818e-01,1.678854674100875854e-01
2.964958548545837402e-01,3.546507358551025391e-01,-2.189903408288955688e-01,-1.142015010118484497e-01,1.728661656379699707e-01,7.536257803440093994e-02,-7.649402618408203125e-01,1.002683397382497787e-02,3.271741271018981934e-01
9.787265956401824951e-02,2.878028750419616699e-01,-1.880868971347808838e-01,2.191181182861328125e-01,-2.225568294525146484e-01,-5.512675046920776367e-01,-1.372311562299728394e-01,-1.549976617097854614e-01,2.944290041923522949e-01
-4.901538193225860596e-01,-2.483352720737457275e-01,-1.298061758279800415e-01,2.594029903411865234e-01,3.001453280448913574e-01,4.050401449203491211e-01,-1.177062932401895523e-02,-2.199273854494094849e-01,-2.971098423004150391e-01
-5.001825094223022461e-01,-7.355429977178573608e-02,2.934742905199527740e-02,3.378495872020721436e-01,2.074693739414215088e-01,-8.018279820680618286e-02,-9.498777985572814941e-02,-3.190614879131317139e-01,-3.454413115978240967e-01
3.513229787349700928e-01,1.480592191219329834e-01,-6.193892359733581543e-01,4.130782783031463623e-01,-1.320108622312545776e-01,-3.988053798675537109e-01,3.135897517204284668e-01,-3.763605281710624695e-02,8.877632021903991699e-02
-1.175890490412712097e-01,2.201393246650695801e-01,1.785130649805068970e-01,-4.241844117641448975e-01,-2.341181486845016479e-01,1.377818137407302856e-01,-3.175469934940338135e-01,-2.930973172187805176e-01,-4.194720089435577393e-02
3.012600243091583252e-01,3.335854411125183105e-01,-5.341609939932823181e-02,2.239731401205062866e-01,3.283368349075317383e-01,-7.293330430984497070e-01,-4.551650285720825195e-01,-7.146946787834167480e-01,-5.459917187690734863e-01
-1.886108517646789551e-02,-2.868666946887969971e-01,2.280307114124298096e-01,2.253483980894088745e-01,-3.485086560249328613e-01,-1.434559933841228485e-03,2.589697241783142090e-01,-1.305113583803176880e-01,-5.789850354194641113e-01
1.614909172058105469e-01,1.468922644853591919e-01,-6.313846707344055176e-01,-7.872412353754043579e-02,3.444972932338714600e-01,2.734087705612182617e-01,-2.127812653779983521e-01,-1.640779078006744385e-01,1.608026176691055298e-01
4.562629461288452148e-01,1.432632952928543091e-01,-3.976404070854187012e-01,-1.880918294191360474e-01,-3.313451111316680908e-01,-1.577614098787307739e-01,-2.402868270874023438e-01,1.773200631141662598e-01,5.100088715553283691e-01
-2.252670228481292725e-01,3.105165362358093262e-01,-2.807128801941871643e-02,3.277016878128051758e-01,4.359342157840728760e-01,-2.845538258552551270e-01,2.183008939027786255e-02,-3.010254800319671631e-01,-3.194746971130371094e-01
-6.808569431304931641e-01,1.091441065073013306e-01,2.815550565719604492e-01,5.439657345414161682e-02,-2.297661155462265015e-01,4.339971020817756653e-02,2.609800696372985840e-01,9.958083182573318481e-02,1.019277498126029968e-01
-4.987740144133567810e-02,-5.100667476654052734e-01,-1.241100803017616272e-01,2.099718898534774780e-03,-2.452357485890388489e-02,3.575217351317405701e-02,4.510627686977386475e-01,1.782115101814270020e-01,-2.914520911872386932e-02
-4.521551430225372314e-01,1.977281570434570312e-01,-1.192422583699226379e-02,-5.335517525672912598e-01,2.032253146171569824e-01,-2.198902517557144165e-01,-6.072434782981872559e-02,4.646921157836914062e-01,-4.959996044635772705e-01
-2.888318896293640137e-01,2.225009799003601074e-01,3.555706143379211426e-01,-4.223476350307464600e-01,-2.502754926681518555e-01,7.316502183675765991e-02,-6.007292121648788452e-02,2.151798270642757416e-02,1.057456061244010925e-01
-1.972389817237854004e-01,3.360565304756164551e-01,-1.894827038049697876e-01,-4.400223195552825928e-01,3.223704695701599121e-01,-1.742957346141338348e-02,-2.485450804233551025e-01,-5.779347196221351624e-02,2.108005285263061523e-01
-1.689854383468627930e+00,-6.620750427246093750e-01,1.675779819488525391e-01,-8.830048441886901855e-01,-1.098473370075225830e-01,2.840329110622406006e-01,-2.588699460029602051e-01,-3.130203485488891602e-02,3.796091973781585693e-01
2.545383572578430176e-01,2.678547799587249756e-01,2.895583398640155792e-02,-2.905064225196838379e-01,3.356786668300628662e-01,-2.036073654890060425e-01,-2.936419248580932617e-01,-3.603154122829437256e-01,-5.993110537528991699e-01
-5.774077177047729492e-01,2.269837409257888794e-01,3.507006466388702393e-01,-1.356728821992874146e-01,1.752443164587020874e-01,-3.073419630527496338e-02,1.502897888422012329e-01,1.324391216039657593e-01,-5.576788634061813354e-02
-2.514421045780181885e-01,-1.993439346551895142e-01,2.872434854507446289e-01,3.331198394298553467e-01,-9.070332348346710205e-02,1.059901714324951172e-01,-4.146511852741241455e-01,-3.774525821208953857e-01,-3.418928012251853943e-02
2.254970371723175049e-01,1.889963448047637939e-01,1.177158877253532410e-01,2.636947929859161377e-01,2.746840119361877441e-01,-1.331750899553298950e-01,-4.783210158348083496e-01,-3.628568649291992188e-01,-3.819991052150726318e-01
