-4.370869603008031845e-03,-3.069975040853023529e-02,-6.564044952392578125e-02,7.170482724905014038e-02,9.225079417228698730e-02,1.346191167831420898e-01,1.164755672216415405e-01,1.044081449508666992e-01,1.192482858896255493e-01
6.909973919391632080e-02,1.159195154905319214e-01,1.712523959577083588e-02,-6.547598540782928467e-02,1.039226874709129333e-01,3.525852784514427185e-02,-6.921375542879104614e-02,1.305378377437591553e-01,1.257320046424865723e-01
1.895144730806350708e-01,1.845486164093017578e-01,1.637929677963256836e-01,-1.136601567268371582e-01,-7.035623490810394287e-02,7.372855395078659058e-02,-1.615671366453170776e-01,-1.576748192310333252e-01,-1.183500662446022034e-01
-2.984676361083984375e-01,-3.474066257476806641e-01,-3.013756275177001953e-01,-1.902223527431488037e-01,2.121801720932126045e-03,1.146962791681289673e-01,1.464398484677076340e-02,1.593761146068572998e-01,2.673960924148559570e-01
-9.391157887876033783e-03,1.414073258638381958e-01,1.087218150496482849e-01,5.024157464504241943e-02,3.900752216577529907e-02,5.834507290273904800e-03,4.214376583695411682e-02,2.189876697957515717e-02,1.755714416503906250e-02
1.239774152636528015e-01,-1.670978069305419922e-01,-7.732591032981872559e-02,1.416673362255096436e-01,-3.194680064916610718e-02,-8.700568228960037231e-02,-3.811585158109664917e-02,8.490998297929763794e-02,1.508720666170120239e-01
1.133202202618122101e-02,3.816214203834533691e-02,1.481883525848388672e-01,-8.536659181118011475e-02,-9.930121153593063354e-02,3.244463726878166199e-02,-1.715931482613086700e-02,-7.494031637907028198e-02,3.268563002347946167e-02
-2.079187035560607910e-01,-1.971035003662109375e-01,-4.345252364873886108e-02,-2.102295309305191040e-01,-7.955850660800933838e-02,1.572302132844924927e-01,-1.660895645618438721e-01,1.230543330311775208e-01,1.608209013938903809e-01
1.606281697750091553e-01,1.100187376141548157e-01,-1.123651191592216492e-01,-1.170100457966327667e-02,1.250838935375213623e-01,4.206205904483795166e-02,-8.349454402923583984e-02,-1.494520530104637146e-02,1.404901146888732910e-01
5.003105383366346359e-03,-2.702367864549160004e-02,-2.312032878398895264e-01,1.569204479455947876e-01,8.948159217834472656e-02,-1.413158327341079712e-02,8.943914622068405151e-02,7.795874029397964478e-03,1.605043932795524597e-02
8.431380242109298706e-02,9.311203658580780029e-02,1.256718188524246216e-01,1.184915676712989807e-01,4.880049824714660645e-02,1.046198680996894836e-01,2.254565432667732239e-02,-4.197743907570838928e-02,-6.968499720096588135e-02
-4.892424214631319046e-03,-1.257596313953399658e-01,-2.391601055860519409e-01,-1.968434825539588928e-02,1.202074289321899414e-01,1.199341565370559692e-01,4.444898292422294617e-02,1.822610944509506226e-01,1.399061679840087891e-01
-2.471805810928344727e-01,-2.633977830410003662e-01,-6.125925853848457336e-02,1.419462561607360840e-01,6.260997056961059570e-02,1.641110628843307495e-01,9.785120189189910889e-02,1.876077353954315186e-01,-6.311709433794021606e-02
4.618341475725173950e-02,8.276627212762832642e-02,-1.232061311602592468e-01,1.204811334609985352e-01,1.211011931300163269e-01,2.047948352992534637e-02,-4.975985269993543625e-03,-6.139639019966125488e-02,9.365130215883255005e-02
-8.072771877050399780e-02,-1.842441223561763763e-02,6.391494721174240112e-02,-2.751684486865997314e-01,5.020631477236747742e-03,1.839829087257385254e-01,-2.903251722455024719e-02,-1.458052918314933777e-02,1.520706266164779663e-01
-8.972512930631637573e-02,1.036194339394569397e-01,-1.138682663440704346e-01,1.226300969719886780e-01,-7.770237978547811508e-03,5.861739814281463623e-02,1.409922987222671509e-01,1.509401649236679077e-01,1.359311938285827637e-01
-4.585342481732368469e-02,-1.999352872371673584e-01,-9.342568367719650269e-02,-2.174961864948272705e-01,-1.200283765792846680e-01,2.114699222147464752e-02,-1.542896181344985962e-01,-1.575368456542491913e-02,2.665061950683593750e-01
-6.918869167566299438e-02,-1.330891847610473633e-01,-1.059128567576408386e-01,-8.857871592044830322e-02,4.064043238759040833e-02,5.777783691883087158e-03,-8.195867389440536499e-02,-7.263577729463577271e-02,-3.978802636265754700e-02
1.065913438796997070e-01,1.140020340681076050e-01,1.260683685541152954e-01,4.219308495521545410e-02,3.055919893085956573e-02,1.391035877168178558e-02,-1.628046333789825439e-01,-1.834096759557723999e-01,-1.014866828918457031e-01
9.645934216678142548e-03,1.064294651150703430e-01,1.101059317588806152e-01,7.719323039054870605e-02,2.448055893182754517e-02,1.310625672340393066e-01,8.391577005386352539e-02,3.806704282760620117e-02,5.106517672538757324e-02
9.176915884017944336e-02,8.944633603096008301e-02,1.654770523309707642e-01,1.357476115226745605e-01,1.566279083490371704e-01,-5.735582485795021057e-02,-2.820936031639575958e-02,-2.209078371524810791e-01,-2.311248034238815308e-01
1.211023852229118347e-01,1.278999894857406616e-01,1.283973902463912964e-01,-1.121039688587188721e-01,1.642847806215286255e-02,1.616203486919403076e-01,-3.014182150363922119e-01,-8.875725418329238892e-02,-4.869910702109336853e-02
-1.663306504487991333e-01,-1.352458596229553223e-01,-1.426532864570617676e-01,-6.266236305236816406e-02,-3.729599341750144958e-02,9.888616204261779785e-02,1.446727514266967773e-01,1.853168755769729614e-01,1.275300979614257812e-01
4.669755324721336365e-02,-1.949882656335830688e-01,1.599426418542861938e-01,1.430553495883941650e-01,-2.947465181350708008e-01,7.859417051076889038e-02,1.540943086147308350e-01,-1.175010055303573608e-01,4.540944471955299377e-02
1.529112905263900757e-01,1.196330860257148743e-01,6.867193430662155151e-02,6.730251759290695190e-02,1.370387733913958073e-03,-1.353027373552322388e-01,-1.611811853945255280e-02,-1.780050396919250488e-01,-9.375102072954177856e-02
4.635637253522872925e-02,1.237824410200119019e-01,3.978044912219047546e-02,-1.573031023144721985e-02,-7.899469695985317230e-03,-3.946988657116889954e-02,5.774749815464019775e-02,7.755242288112640381e-02,8.077639341354370117e-02
1.321512758731842041e-01,-5.105394497513771057e-02,-2.524709105491638184e-01,3.908542171120643616e-02,-3.026421070098876953e-01,5.971642211079597473e-02,-1.985597759485244751e-01,-5.617934092879295349e-02,2.246613204479217529e-01
6.738548725843429565e-02,2.004311978816986084e-01,1.298370510339736938e-01,3.380755707621574402e-02,-2.604446001350879669e-02,5.499966815114021301e-02,-1.129748821258544922e-01,-2.085607498884201050e-01,-1.798719167709350586e-01
3.357487916946411133e-01,2.852902412414550781e-01,-1.671431399881839752e-02,7.847875356674194336e-02,-1.353490948677062988e-01,-2.961688637733459473e-01,6.352409720420837402e-03,-1.026524677872657776e-01,-1.821328550577163696e-01
2.059548795223236084e-01,-1.512033864855766296e-02,-1.970898956060409546e-01,1.745507121086120605e-01,5.304862931370735168e-02,-2.593936026096343994e-01,1.100238561630249023e-01,-6.269139796495437622e-02,-2.439222484827041626e-01
9.764458984136581421e-02,1.754574477672576904e-01,1.649748235940933228e-01,1.611330360174179077e-01,1.258307718671858311e-03,-5.844489857554435730e-02,8.989122509956359863e-02,-8.103846013545989990e-02,-2.567003965377807617e-01
1.152187585830688477e-01,8.824013918638229370e-02,1.019041091203689575e-01,1.298641711473464966e-01,1.115239709615707397e-01,1.378316879272460938e-01,-7.073964923620223999e-02,-3.934800624847412109e-02,1.196605116128921509e-01
1.072040274739265442e-01,8.201539516448974609e-02,-1.451010704040527344e-01,3.407257795333862305e-02,9.050176292657852173e-02,-1.803246587514877319e-01,4.401643760502338409e-03,1.047637462615966797e-01,1.816899143159389496e-02
-1.154669076204299927e-01,-9.147271513938903809e-02,1.416253298521041870e-01,-3.728774841874837875e-03,1.637520641088485718e-01,1.746983528137207031e-01,3.956218250095844269e-03,2.000966295599937439e-02,2.501356974244117737e-02
4.429824650287628174e-02,9.419418871402740479e-02,2.442074865102767944e-01,7.671941537410020828e-03,-4.536160081624984741e-02,-6.474996358156204224e-02,-2.277486026287078857e-01,-1.221976205706596375e-01,-1.208337843418121338e-01
1.462315171957015991e-01,6.276102364063262939e-02,-1.391167044639587402e-01,8.579485118389129639e-02,-1.966636441648006439e-02,-8.244508877396583557e-03,-3.348088264465332031e-02,7.014343887567520142e-02,7.658754289150238037e-02
3.305849060416221619e-02,1.415742337703704834e-01,1.528449356555938721e-01,-1.208422798663377762e-02,1.657156944274902344e-01,-3.903017938137054443e-02,4.245171695947647095e-02,-6.738875806331634521e-02,-8.206991851329803467e-02
-2.047915160655975342e-01,-1.634472459554672241e-01,-1.888757050037384033e-01,3.644385561347007751e-02,-9.075942635536193848e-02,-1.508682966232299805e-01,2.329630553722381592e-01,1.031739413738250732e-01,-2.994956262409687042e-02
-1.677764803171157837e-01,-1.341653056442737579e-02,1.049234718084335327e-01,-1.968145519495010376e-01,-2.140624448657035828e-02,1.868373453617095947e-01,-1.404149234294891357e-01,6.804209202527999878e-02,1.234228089451789856e-01
-9.410439431667327881e-02,8.943248540163040161e-02,2.065886184573173523e-02,7.091003656387329102e-02,1.031714379787445068e-01,1.666521430015563965e-01,-8.436964452266693115e-02,-2.564770169556140900e-02,9.829666465520858765e-02
-7.436588406562805176e-02,1.268464624881744385e-01,9.475605934858322144e-02,1.432763785123825073e-01,1.226886436343193054e-01,-1.923314668238162994e-02,2.153050713241100311e-02,-9.878620505332946777e-02,-6.930036842823028564e-02
1.018958315253257751e-01,-7.488405704498291016e-02,-2.381749264895915985e-02,5.888067930936813354e-02,8.134215325117111206e-02,-6.849379092454910278e-02,1.234956830739974976e-01,1.361311972141265869e-01,-1.454965025186538696e-01
1.045178174972534180e-01,-4.315124079585075378e-02,-1.201902404427528381e-01,1.416923105716705322e-01,1.438202559947967529e-01,1.607981920242309570e-01,6.902760267257690430e-02,7.372798025608062744e-02,-3.534430637955665588e-02
3.640542179346084595e-02,-1.260973811149597168e-01,-3.569663763046264648e-01,2.264009863138198853e-01,1.251276880502700806e-01,-1.035859435796737671e-01,1.103589963167905807e-02,2.058864086866378784e-01,6.060257088392972946e-03
1.412783116102218628e-01,-5.931589379906654358e-02,-1.102291941642761230e-01,7.197291404008865356e-02,1.090170815587043762e-01,-2.163728624582290649e-01,1.546826064586639404e-01,-1.300223823636770248e-02,3.122613020241260529e-02
1.697555780410766602e-01,-4.317254200577735901e-02,-6.270247697830200195e-02,1.510512977838516235e-01,-5.329272523522377014e-02,-1.735256463289260864e-01,1.726882159709930420e-01,-1.591697894036769867e-02,-8.939483761787414551e-02
3.058386407792568207e-02,1.793209165334701538e-01,-1.131933927536010742e-01,1.111314520239830017e-01,7.211398798972368240e-03,-2.446945607662200928e-01,1.731291264295578003e-01,7.448305934667587280e-02,-1.455098390579223633e-01
-1.706215441226959229e-01,1.932191476225852966e-02,1.581365317106246948e-01,9.761375933885574341e-02,6.763701885938644409e-02,1.348138153553009033e-01,8.229220658540725708e-02,-8.671068353578448296e-04,-6.602180004119873047e-02
1.585953682661056519e-01,6.424833089113235474e-02,-2.345447689294815063e-01,1.827585697174072266e-01,-2.170812524855136871e-02,-2.842806279659271240e-01,3.641170263290405273e-02,-2.419073134660720825e-01,-4.016502797603607178e-01
9.117001295089721680e-02,-2.009550854563713074e-02,-1.541897072456777096e-03,2.307151257991790771e-02,-3.358708322048187256e-02,1.298113167285919189e-01,1.166626662015914917e-01,6.287661194801330566e-02,1.383347250521183014e-02
-4.292469099164009094e-02,-2.366132587194442749e-01,-2.425976395606994629e-01,1.863210946321487427e-01,1.026969924569129944e-01,-5.299608036875724792e-02,4.496272280812263489e-02,1.399349272251129150e-01,1.681707352399826050e-01
-2.885241061449050903e-02,1.354653537273406982e-01,-5.077115446329116821e-02,1.368727087974548340e-01,1.057861186563968658e-02,1.300373822450637817e-01,1.082539558410644531e-02,4.868375882506370544e-02,8.269544690847396851e-02
-1.536783203482627869e-02,1.539826393127441406e-01,1.250595748424530029e-01,-1.710452735424041748e-01,1.187379434704780579e-01,1.087653040885925293e-01,-1.046997308731079102e-01,4.615000262856483459e-02,1.723763905465602875e-02
9.424157440662384033e-02,9.964438527822494507e-02,1.212791278958320618e-01,1.367048472166061401e-01,1.020966470241546631e-01,2.740958705544471741e-02,-7.451427727937698364e-02,1.228663325309753418e-01,7.593023031949996948e-02
-2.355983667075634003e-02,1.535420566797256470e-01,4.460538551211357117e-02,-1.392119675874710083e-01,-2.091579511761665344e-02,7.267107814550399780e-02,-8.764838427305221558e-02,3.743602707982063293e-02,1.493991017341613770e-01
1.438296735286712646e-01,8.012732863426208496e-02,-1.877462565898895264e-01,-9.297499805688858032e-02,7.519493252038955688e-02,8.059451356530189514e-03,-1.692163348197937012e-01,8.687111735343933105e-02,1.448448598384857178e-01
6.196583062410354614e-02,-2.469146996736526489e-02,1.339577436447143555e-01,5.560291185975074768e-02,1.092308387160301208e-01,5.415046960115432739e-02,3.373858053237199783e-03,8.238249272108078003e-02,8.723005652427673340e-02
7.381852716207504272e-02,9.412396699190139771e-02,2.032185159623622894e-02,8.329214155673980713e-02,1.121925935149192810e-01,8.130253106355667114e-02,1.234047263860702515e-01,3.444844484329223633e-02,5.983713269233703613e-02
1.832652986049652100e-01,1.573395133018493652e-01,1.676018387079238892e-01,-5.501075834035873413e-02,-4.049206152558326721e-02,-6.907463073730468750e-02,-2.052406072616577148e-01,-7.975089550018310547e-02,-6.545518338680267334e-02
-7.344532012939453125e-02,1.030682586133480072e-02,-3.670831024646759033e-02,-7.204383611679077148e-02,-6.390880793333053589e-02,9.434589743614196777e-02,-1.445486303418874741e-02,1.132917776703834534e-02,1.212111562490463257e-01
1.795305162668228149e-01,8.023023605346679688e-02,-1.151619106531143188e-02,8.852597326040267944e-03,7.133835554122924805e-02,-6.439126282930374146e-02,-2.166751474142074585e-01,8.348310738801956177e-02,1.232985854148864746e-01
1.127354800701141357e-01,5.954909604042768478e-03,1.111860666424036026e-02,7.227180153131484985e-02,1.453867256641387939e-01,1.876578927040100098e-01,-1.977426111698150635e-01,-1.754117161035537720e-01,-5.870018154382705688e-02
-7.441165391355752945e-03,7.203982770442962646e-02,1.139081548899412155e-02,1.072873622179031372e-01,-4.538757354021072388e-02,4.781764373183250427e-02,1.230147853493690491e-02,5.590775050222873688e-03,7.106746733188629150e-02
-8.519539237022399902e-02,-3.517171442508697510e-01,-1.935071498155593872e-01,1.964777149260044098e-02,1.092599704861640930e-01,4.288738593459129333e-02,8.014901727437973022e-02,2.120091617107391357e-01,1.458493769168853760e-01
9.180972725152969360e-02,8.991623669862747192e-02,-5.282288044691085815e-02,8.617401123046875000e-03,1.252152025699615479e-01,1.351514607667922974e-01,-1.545157432556152344e-01,-2.155123092234134674e-02,1.855777762830257416e-02
1.655996963381767273e-02,1.300571262836456299e-01,-8.858883753418922424e-03,-9.510486572980880737e-02,2.077560275793075562e-01,1.207023635506629944e-01,-3.114685416221618652e-01,-7.077535986900329590e-02,7.269367575645446777e-02
1.412682533264160156e-01,1.598658785223960876e-02,-1.287790536880493164e-01,1.162940785288810730e-01,1.930050179362297058e-02,-1.841404885053634644e-01,8.614920079708099365e-02,-1.135313585400581360e-01,-1.768939197063446045e-02
4.299863800406455994e-02,3.641793131828308105e-02,5.851056799292564392e-02,6.509982049465179443e-02,1.171245723962783813e-01,3.611440304666757584e-03,3.621987998485565186e-02,7.680841535329818726e-02,-4.396970197558403015e-02
-1.154504716396331787e-01,-2.671929597854614258e-01,-8.721797913312911987e-02,-8.666241914033889771e-02,-1.030655857175588608e-02,2.072092890739440918e-01,1.045477539300918579e-01,5.937010794878005981e-02,1.892934292554855347e-01
1.417869329452514648e-01,-4.955014586448669434e-02,-2.622007727622985840e-01,1.911846548318862915e-01,-3.382483497262001038e-02,-2.142720967531204224e-01,1.693926602602005005e-01,1.295932233333587646e-01,5.863586440682411194e-02
-3.182001113891601562e-01,-1.357654035091400146e-01,9.208826720714569092e-02,4.863558802753686905e-03,2.173742353916168213e-01,1.341130286455154419e-01,1.853664070367813110e-01,1.844024844467639923e-02,-2.978955022990703583e-02
-4.388287663459777832e-02,4.640696942806243896e-02,2.175519615411758423e-01,8.478844910860061646e-02,-3.659995272755622864e-02,1.093100979924201965e-01,-1.197149902582168579e-01,-2.236241698265075684e-01,-4.722544923424720764e-02
-1.872890293598175049e-01,-2.977150380611419678e-01,-1.233986094594001770e-01,-5.534500256180763245e-02,5.293321982026100159e-02,4.200326278805732727e-02,6.785726547241210938e-02,2.292443215847015381e-01,1.303286850452423096e-01
7.936400920152664185e-02,-1.393214911222457886e-01,6.259402632713317871e-02,1.067152544856071472e-01,-1.764544472098350525e-02,1.143628805875778198e-01,4.244139790534973145e-02,5.985064432024955750e-02,-5.037584900856018066e-02
-2.624467313289642334e-01,-7.910443842411041260e-02,7.113616168498992920e-02,-2.127673327922821045e-01,4.461264237761497498e-02,8.203304558992385864e-02,-1.564018726348876953e-01,4.718094319105148315e-02,2.008810341358184814e-01
2.384840324521064758e-02,5.785169079899787903e-02,5.894446000456809998e-02,1.581329554319381714e-01,8.172041922807693481e-02,1.310490071773529053e-01,-3.090737387537956238e-02,-5.210247635841369629e-02,5.732471123337745667e-02
-2.444140464067459106e-01,1.381317339837551117e-02,5.242050066590309143e-02,-8.260892331600189209e-02,3.256359323859214783e-02,9.403633326292037964e-02,4.788437485694885254e-02,2.137302421033382416e-02,1.327898949384689331e-01
2.535583674907684326e-01,-1.668648980557918549e-02,-2.571578621864318848e-01,1.013984233140945435e-01,-1.030250042676925659e-01,-1.752642393112182617e-01,-5.937067791819572449e-02,-2.404310405254364014e-01,-1.704591065645217896e-01
-2.272011339664459229e-01,-3.794254735112190247e-02,6.911975890398025513e-02,-6.774194538593292236e-02,1.054448261857032776e-01,1.193246468901634216e-01,1.222452521324157715e-01,5.675636976957321167e-02,-1.499973144382238388e-02
-5.614441633224487305e-02,1.034275591373443604e-01,-1.172360926866531372e-01,1.418726742267608643e-01,3.844359889626502991e-02,-1.004280894994735718e-01,-2.868717769160866737e-03,1.138639599084854126e-01,1.372617185115814209e-01
7.443179190158843994e-02,-1.841240562498569489e-02,-2.005848800763487816e-03,1.188153177499771118e-01,9.782651066780090332e-02,-5.881842691451311111e-03,2.501142397522926331e-02,5.393403582274913788e-03,1.179469376802444458e-01
1.506472080945968628e-01,-1.624197885394096375e-02,1.343456953763961792e-01,5.381045863032341003e-02,3.786320565268397331e-03,9.734135121107101440e-02,9.231370687484741211e-02,5.977378413081169128e-02,9.507261961698532104e-02
1.790378689765930176e-01,1.460717469453811646e-01,1.665205359458923340e-01,-1.771867275238037109e-02,6.668457388877868652e-02,4.215412307530641556e-03,-2.175219804048538208e-01,-2.019339650869369507e-01,-1.586640477180480957e-01
-5.836232751607894897e-02,1.297274511307477951e-02,5.245222896337509155e-02,-2.534993737936019897e-02,2.151333913207054138e-02,1.903586089611053467e-01,1.172081567347049713e-02,-8.234462141990661621e-02,-1.963914334774017334e-01
7.041113078594207764e-02,1.102042645215988159e-01,1.434706598520278931e-01,1.200746744871139526e-02,9.656313806772232056e-02,2.013962157070636749e-02,7.922485470771789551e-02,8.514251559972763062e-02,2.921349834650754929e-03
1.525221467018127441e-01,5.695167928934097290e-02,-5.922479927539825439e-02,-1.946358010172843933e-02,1.252378970384597778e-01,5.855019018054008484e-02,9.970338642597198486e-02,1.274818181991577148e-01,1.350072175264358521e-01
-7.434131950139999390e-02,-5.717779323458671570e-02,-8.040253818035125732e-02,-9.700149297714233398e-03,-4.226697236299514771e-02,-1.348765194416046143e-02,-2.529738098382949829e-02,-1.345053315162658691e-03,-6.105009093880653381e-02
3.084442205727100372e-02,-2.212131023406982422e-01,-6.092451140284538269e-02,1.449461579322814941e-01,-9.735079854726791382e-02,-1.491538435220718384e-01,9.934966266155242920e-02,1.607821732759475708e-01,1.007087677717208862e-01
-2.468706369400024414e-01,-1.580976694822311401e-01,2.183840051293373108e-02,-1.230462267994880676e-01,-1.863687299191951752e-02,1.863758862018585205e-01,2.838746272027492523e-02,1.246685609221458435e-01,1.655805110931396484e-01
1.476978063583374023e-01,1.178538948297500610e-01,8.030889183282852173e-02,5.755131598562002182e-03,3.671502321958541870e-02,1.676128208637237549e-01,-1.316318809986114502e-01,-8.554942160844802856e-02,-1.888667978346347809e-02
2.014383859932422638e-02,1.102268323302268982e-01,7.255817763507366180e-03,1.129640340805053711e-01,1.295914500951766968e-01,5.375567078590393066e-02,-5.980230867862701416e-02,2.994420379400253296e-02,3.621336445212364197e-02
1.133124008774757385e-01,-1.229960471391677856e-03,5.060365051031112671e-02,9.568279236555099487e-02,1.296919435262680054e-01,-1.608484238386154175e-01,6.167040765285491943e-02,8.747686445713043213e-02,-8.594690263271331787e-02
1.254914253950119019e-01,2.287976890802383423e-01,1.730680614709854126e-01,7.679463177919387817e-02,-2.679902315139770508e-02,-1.690391600131988525e-01,-7.553739851573482156e-05,-1.789568066596984863e-01,-2.336536943912506104e-01
1.027602106332778931e-01,-3.247540676966309547e-03,8.937152475118637085e-02,1.114505305886268616e-01,4.305298626422882080e-02,1.293383240699768066e-01,1.004242599010467529e-01,-6.310824304819107056e-02,-4.388491064310073853e-02
-1.497728824615478516e-01,-8.120676875114440918e-02,2.481211721897125244e-01,-2.298821955919265747e-01,-3.706925362348556519e-02,1.664079874753952026e-01,6.087136454880237579e-03,5.446304753422737122e-02,-5.327484570443630219e-03
1.334966421127319336e-01,-2.445793151855468750e-02,-9.821633994579315186e-02,1.372977346181869507e-01,-5.182040110230445862e-02,-1.339512616395950317e-01,1.334419548511505127e-01,-9.276153519749641418e-03,-1.014754548668861389e-01
4.268962517380714417e-02,-1.818597018718719482e-01,-2.826973199844360352e-01,-1.594901643693447113e-02,-5.178775265812873840e-02,5.433050170540809631e-02,1.116296872496604919e-01,1.232792064547538757e-01,1.956875026226043701e-01
2.087977156043052673e-02,-1.486774254590272903e-02,-4.928541928529739380e-02,8.743503689765930176e-02,1.066392213106155396e-01,1.226777359843254089e-01,2.135492488741874695e-02,-2.188364043831825256e-02,1.923678256571292877e-02
1.052041500806808472e-01,-1.142374649643898010e-01,6.847168505191802979e-02,6.539536267518997192e-02,3.728559240698814392e-02,1.247961521148681641e-01,3.605786943808197975e-03,-6.722640991210937500e-02,-1.032886654138565063e-01
8.992482721805572510e-02,2.243419177830219269e-02,7.102445513010025024e-02,8.926887065172195435e-02,8.912947028875350952e-03,1.064074710011482239e-01,4.597131907939910889e-02,2.461710385978221893e-02,9.392134100198745728e-02
-5.719953030347824097e-02,3.302907198667526245e-02,-5.653113126754760742e-02,1.155868545174598694e-01,-4.563093930482864380e-02,1.627640128135681152e-01,1.303852796554565430e-01,-5.176063627004623413e-02,5.895459651947021484e-02
-8.872509747743606567e-02,3.973598405718803406e-02,2.607111260294914246e-02,-6.130771338939666748e-02,1.218461468815803528e-01,4.636076465249061584e-02,1.217769607901573181e-01,6.799089908599853516e-02,-1.019962653517723083e-01
-2.988112159073352814e-02,5.425760522484779358e-02,2.573793195188045502e-02,1.030669659376144409e-01,1.487278491258621216e-01,1.384064108133316040e-01,1.370153725147247314e-01,1.064482331275939941e-01,-7.292313873767852783e-02
1.005710884928703308e-01,-9.432946331799030304e-03,-1.157827898859977722e-01,1.273563355207443237e-01,2.337978407740592957e-02,-1.219422370195388794e-01,1.010441407561302185e-01,8.381526172161102295e-02,1.174279078841209412e-01
-9.078415483236312866e-02,-7.485511712729930878e-03,1.432196199893951416e-01,-1.820154190063476562e-01,-5.118765309453010559e-02,1.639087349176406860e-01,-1.563963443040847778e-01,1.074624508619308472e-01,7.326009124517440796e-02
-1.598338782787322998e-01,-1.497764587402343750e-01,-1.352722644805908203e-01,-3.167695924639701843e-02,-2.121719345450401306e-02,-2.162546850740909576e-03,1.928763836622238159e-01,1.689828336238861084e-01,5.136673897504806519e-02
1.659543998539447784e-02,1.285733431577682495e-01,4.917043820023536682e-02,2.780081890523433685e-02,9.661066532135009766e-02,1.207392290234565735e-01,6.723281741142272949e-02,1.331671774387359619e-01,4.193795472383499146e-02
9.406996518373489380e-02,1.126815602183341980e-01,1.221263110637664795e-01,-7.918133400380611420e-03,8.927912265062332153e-02,-1.290128752589225769e-02,-5.751195549964904785e-02,8.353222161531448364e-02,-1.431051939725875854e-01
-2.969086766242980957e-01,-2.205255925655364990e-01,-2.863385081291198730e-01,4.170489963144063950e-03,1.453029662370681763e-01,-1.186336576938629150e-01,8.601671457290649414e-02,8.652189373970031738e-02,6.878988444805145264e-02
1.261115372180938721e-01,8.359673619270324707e-02,1.148676574230194092e-01,1.026530489325523376e-01,-1.322148833423852921e-03,9.946811199188232422e-02,-8.293169550597667694e-03,-7.600057870149612427e-02,3.846890758723020554e-03
4.562641680240631104e-02,1.599159538745880127e-01,1.757186949253082275e-01,1.114893984049558640e-02,1.014521345496177673e-01,-3.653869498521089554e-04,-1.600610017776489258e-01,-2.407258152961730957e-01,-1.201463937759399414e-01
5.354120209813117981e-02,1.174201369285583496e-01,1.378099173307418823e-01,9.531989693641662598e-02,6.448622047901153564e-02,-3.478115424513816833e-02,-1.694150269031524658e-01,-2.048873603343963623e-01,-6.938633322715759277e-02
1.494813114404678345e-01,1.524473577737808228e-01,1.466287951916456223e-02,9.365626424551010132e-02,7.828687876462936401e-02,-1.618535816669464111e-01,1.623319834470748901e-02,-7.092969119548797607e-02,-2.628645896911621094e-01
6.939788162708282471e-02,1.884691230952739716e-02,6.273668259382247925e-02,8.699227124452590942e-02,1.409846097230911255e-01,3.258914500474929810e-02,-8.995844423770904541e-02,7.377224415540695190e-02,8.061821758747100830e-02
9.619166702032089233e-02,6.829647719860076904e-02,8.311659842729568481e-02,-4.203513637185096741e-02,-5.756523460149765015e-02,2.683892846107482910e-02,-1.030726917088031769e-02,-8.822852373123168945e-02,-1.091581024229526520e-02
1.043006107211112976e-01,-3.972205333411693573e-03,-1.041716262698173523e-01,1.891732662916183472e-01,-5.595530197024345398e-02,-1.967334151268005371e-01,1.053285151720046997e-01,9.252141416072845459e-02,-1.107480600476264954e-01
1.636067777872085571e-01,-1.818170994520187378e-01,-2.798148691654205322e-01,1.191018894314765930e-01,-4.268985241651535034e-03,1.149044558405876160e-01,1.546241063624620438e-02,-2.029763534665107727e-03,3.405242040753364563e-02
4.828134924173355103e-02,1.298721879720687866e-01,1.195309832692146301e-01,-3.799434052780270576e-04,6.510941684246063232e-02,1.877827011048793793e-02,3.474901244044303894e-02,1.018304303288459778e-01,1.395895928144454956e-01
1.383223831653594971e-01,4.931612312793731689e-02,8.291750401258468628e-02,-1.266547888517379761e-01,-2.094882577657699585e-01,-1.852673739194869995e-01,5.868834629654884338e-02,9.774921834468841553e-02,9.121008217334747314e-02
1.334785223007202148e-01,9.939000755548477173e-02,5.338292941451072693e-02,-8.693199604749679565e-03,-2.308736927807331085e-02,1.794620305299758911e-01,-7.443039119243621826e-02,-1.470530033111572266e-01,-4.473897442221641541e-02
1.323168426752090454e-01,1.255667507648468018e-01,2.678512781858444214e-02,9.385215491056442261e-02,-4.052404314279556274e-02,-1.086708344519138336e-02,-3.936151415109634399e-02,2.775880135595798492e-02,-9.329982846975326538e-02
-5.217143800109624863e-03,-2.079240605235099792e-02,7.763658463954925537e-02,-1.359322667121887207e-01,-8.579982677474617958e-04,9.500741213560104370e-02,2.984270080924034119e-02,1.272972952574491501e-02,7.175056636333465576e-02
-1.667118668556213379e-01,-9.170109033584594727e-02,5.131657049059867859e-02,3.213524073362350464e-02,6.459276378154754639e-02,1.589713841676712036e-01,6.883764266967773438e-02,1.066115275025367737e-01,-9.198565967381000519e-03
5.991074815392494202e-02,1.069366782903671265e-01,1.371785700321197510e-01,-1.103064417839050293e-02,7.414671033620834351e-02,5.473745986819267273e-02,-2.180308848619461060e-01,-2.043287605047225952e-01,-4.775518085807561874e-03
2.196996808052062988e-01,-4.077053070068359375e-02,-1.418365389108657837e-01,4.787646979093551636e-02,1.589835993945598602e-02,-6.719785928726196289e-02,1.362475007772445679e-01,-6.716982275247573853e-02,-2.194402664899826050e-01
-1.130254343152046204e-01,1.215125173330307007e-01,1.364961862564086914e-01,1.641918867826461792e-01,1.049169921316206455e-03,-1.694598980247974396e-02,7.246760278940200806e-02,-1.643577069044113159e-01,-1.723605394363403320e-01
-6.689730286598205566e-02,7.045061793178319931e-03,1.489707082509994507e-01,9.071929007768630981e-02,-1.431428268551826477e-02,9.458720684051513672e-02,-1.048761680722236633e-01,-1.089552417397499084e-01,-1.272168606519699097e-01
-7.122788578271865845e-03,6.768207252025604248e-02,-6.322275847196578979e-02,4.126929119229316711e-02,3.316543623805046082e-02,-1.974865049123764038e-01,1.384021639823913574e-01,8.704190701246261597e-02,-7.877621799707412720e-02
7.418453693389892578e-02,1.607595533132553101e-01,1.326425522565841675e-01,-1.119644120335578918e-01,5.044665886089205742e-04,-7.375838467851281166e-04,-1.542683988809585571e-01,-1.975608319044113159e-01,-1.450918465852737427e-01
-2.320327460765838623e-01,2.063640393316745758e-02,2.780024148523807526e-02,-1.020319610834121704e-01,1.433250959962606430e-02,6.887019425630569458e-02,-6.936322152614593506e-02,5.547598004341125488e-02,1.256133466958999634e-01
-1.462662369012832642e-01,-8.741154521703720093e-02,1.003905981779098511e-01,-1.079240441322326660e-01,-2.295879647135734558e-02,1.213675290346145630e-01,-8.628811687231063843e-02,1.511922031641006470e-01,5.952564626932144165e-02
1.808213070034980774e-02,-1.902053132653236389e-02,1.325224936008453369e-01,-9.489817172288894653e-02,1.401054300367832184e-02,1.195982545614242554e-01,3.312397748231887817e-02,1.353952437639236450e-01,9.685984998941421509e-02
5.552805028855800629e-03,1.794456094503402710e-01,4.892673343420028687e-02,1.964131891727447510e-01,3.681531548500061035e-02,-2.710576057434082031e-01,1.490725427865982056e-01,-2.017337977886199951e-01,-1.461073011159896851e-01
-1.488557364791631699e-02,1.467855572700500488e-01,2.490280121564865112e-01,-2.194181829690933228e-01,-1.449206322431564331e-01,3.574805334210395813e-02,-1.056815758347511292e-01,-1.437508910894393921e-01,-1.962703317403793335e-01
-3.466633260250091553e-01,-6.555401533842086792e-02,4.375910386443138123e-02,-1.854268908500671387e-01,-1.366886496543884277e-01,1.429414302110671997e-01,-1.232364252209663391e-01,-8.981321007013320923e-02,1.345719397068023682e-01
8.780390024185180664e-02,9.073480218648910522e-02,-1.072734743356704712e-01,-1.641665250062942505e-01,-2.500782907009124756e-01,-5.790059268474578857e-02,6.400604546070098877e-02,1.401533633470535278e-01,1.573394685983657837e-01
-1.434424668550491333e-01,7.315111160278320312e-02,-1.247986964881420135e-02,-6.961414217948913574e-02,1.357776969671249390e-01,6.118737906217575073e-02,9.457537531852722168e-02,2.461495250463485718e-02,1.830101711675524712e-03
-1.967990957200527191e-02,3.539309650659561157e-02,2.604389749467372894e-02,1.024268567562103271e-01,1.063200980424880981e-01,1.130077987909317017e-01,4.359146952629089355e-02,-1.120401322841644287e-01,-1.629963703453540802e-02
-1.588146239519119263e-01,-5.543317273259162903e-02,6.977699697017669678e-02,-4.949525743722915649e-02,5.742455273866653442e-02,7.591315358877182007e-02,1.264785677194595337e-01,1.348136812448501587e-01,4.858249158132821321e-04
8.133885264396667480e-02,4.593699425458908081e-02,4.559151455760002136e-02,1.324539184570312500e-01,8.323381096124649048e-02,-9.032019227743148804e-02,-2.930628322064876556e-02,-1.333237141370773315e-01,-1.012584716081619263e-01
2.312717586755752563e-01,7.585610449314117432e-02,-2.331971526145935059e-01,1.016829684376716614e-01,-3.241093456745147705e-01,-2.332695014774799347e-02,-1.824664175510406494e-01,-1.432384848594665527e-01,1.266495585441589355e-01
6.692939996719360352e-02,1.081023886799812317e-01,-2.110094390809535980e-02,6.509889662265777588e-02,2.328992821276187897e-02,-1.212803646922111511e-01,9.862016141414642334e-02,6.326343119144439697e-02,-4.543233662843704224e-02
-1.094063669443130493e-01,7.843596488237380981e-02,1.142500936985015869e-01,1.552479714155197144e-01,9.655340015888214111e-02,-4.437061771750450134e-02,1.224954202771186829e-01,-9.870733320713043213e-02,-5.517347902059555054e-02
2.414201013743877411e-02,3.222332522273063660e-02,1.076945364475250244e-01,2.402406185865402222e-02,1.323566287755966187e-01,-9.003110462799668312e-04,7.667081803083419800e-02,7.834968715906143188e-02,4.009941220283508301e-02
7.039196044206619263e-02,8.060761541128158569e-02,6.007419526576995850e-02,2.939850836992263794e-02,1.469109058380126953e-01,-6.117002293467521667e-02,-6.437487155199050903e-02,1.113544180989265442e-01,-1.993637718260288239e-02
-5.062387138605117798e-02,-1.788434535264968872e-01,-1.793942600488662720e-01,3.729458898305892944e-02,-4.077633470296859741e-02,2.424945123493671417e-02,1.418269425630569458e-01,9.398508071899414062e-02,1.801992803812026978e-01
1.341707706451416016e-01,7.377524394541978836e-03,2.412713505327701569e-02,-5.475321784615516663e-03,3.991644084453582764e-02,-1.384845674037933350e-01,1.324042677879333496e-01,-8.876223117113113403e-02,-8.692210912704467773e-02
2.177768386900424957e-02,1.287262141704559326e-01,1.246648803353309631e-01,-4.432581365108489990e-02,3.294513374567031860e-02,2.114512175321578979e-01,-2.004770934581756592e-01,-2.543560564517974854e-01,2.141152136027812958e-02
5.189607664942741394e-02,1.389810591936111450e-01,1.484065502882003784e-01,8.918824046850204468e-02,-3.532076627016067505e-02,2.514369972050189972e-02,-1.317975372076034546e-01,-9.505569189786911011e-02,-2.230763435363769531e-01
-1.915256232023239136e-01,-5.085779726505279541e-02,1.452953219413757324e-01,-1.559965312480926514e-01,-2.578530646860599518e-02,9.633698314428329468e-02,-9.114152938127517700e-02,-5.665087327361106873e-02,1.412852406501770020e-01
-1.209475398063659668e-01,-9.013700485229492188e-02,-4.258263111114501953e-02,-8.556541800498962402e-02,-3.333991393446922302e-02,1.386533081531524658e-01,8.860654383897781372e-02,5.341590940952301025e-02,1.545750796794891357e-01
-2.860727608203887939e-01,-8.055523037910461426e-02,-1.363964378833770752e-01,2.891662716865539551e-02,-8.181668072938919067e-02,-1.732734739780426025e-01,2.264759242534637451e-01,1.099794358015060425e-01,4.178634658455848694e-02
6.102919206023216248e-02,1.700697243213653564e-01,1.455315202474594116e-01,-1.190737262368202209e-01,3.027964197099208832e-02,6.962887942790985107e-02,-1.072950884699821472e-01,-2.352137863636016846e-01,-9.052719920873641968e-02
-1.599892526865005493e-01,-3.750543892383575439e-01,-2.241304814815521240e-01,-2.614198029041290283e-01,1.389215048402547836e-02,2.108796983957290649e-01,-1.535174995660781860e-01,1.306820958852767944e-01,1.485359221696853638e-01
1.348868459463119507e-01,1.894654780626296997e-01,5.956831574440002441e-02,2.070570141077041626e-01,2.980135194957256317e-02,-1.551583409309387207e-01,-4.223451018333435059e-02,-1.474276632070541382e-01,-3.375920951366424561e-01
1.140481829643249512e-01,1.561979502439498901e-01,1.109328344464302063e-01,-1.372357457876205444e-01,-6.127892807126045227e-02,1.810280978679656982e-01,-1.480494737625122070e-01,-1.259701848030090332e-01,-1.181067749857902527e-01
-4.929176345467567444e-02,-4.727034643292427063e-02,1.830941438674926758e-02,1.350821703672409058e-01,1.532139927148818970e-01,1.282523572444915771e-01,-6.661442667245864868e-02,-3.177942335605621338e-02,2.594399731606245041e-03
9.443771094083786011e-02,-8.680903166532516479e-02,-1.508507132530212402e-01,8.654253184795379639e-02,1.124840974807739258e-01,6.191430985927581787e-02,6.299627572298049927e-02,1.840874366462230682e-02,3.203321248292922974e-02
-6.979403644800186157e-02,9.606115520000457764e-02,1.177255883812904358e-01,2.763098850846290588e-02,1.044131666421890259e-01,8.657268434762954712e-02,1.135281100869178772e-01,4.600278288125991821e-02,-6.360290572047233582e-03
1.752084642648696899e-01,-1.996582448482513428e-01,-3.594171702861785889e-01,2.299108207225799561e-01,1.595196872949600220e-01,-3.294833377003669739e-02,5.695949867367744446e-02,5.467170104384422302e-02,4.065657034516334534e-02
4.056052863597869873e-02,1.543537229299545288e-01,1.505366116762161255e-01,1.471250057220458984e-01,8.116621756926178932e-04,-7.583370804786682129e-02,-6.411653012037277222e-02,-1.720947772264480591e-01,-1.623711287975311279e-01
7.604562491178512573e-02,1.295629888772964478e-01,3.252190351486206055e-02,1.091796755790710449e-01,3.795158863067626953e-02,7.293511182069778442e-02,-1.520630251616239548e-02,9.954121708869934082e-02,6.187549978494644165e-02
3.255655616521835327e-02,3.956571966409683228e-02,-1.197650730609893799e-01,-7.148497551679611206e-02,1.030388250946998596e-01,1.337850242853164673e-01,1.030174121260643005e-01,1.020298749208450317e-01,5.837390199303627014e-02
8.260942995548248291e-02,-4.028591513633728027e-02,-3.874538838863372803e-01,1.467823237180709839e-01,6.216467171907424927e-02,-2.173753827810287476e-01,2.730579078197479248e-01,8.306837081909179688e-02,2.789042517542839050e-02
-9.382111579179763794e-02,8.868782222270965576e-02,7.516630738973617554e-02,1.935599488206207752e-03,5.523884296417236328e-02,-4.072477668523788452e-02,-1.005975157022476196e-02,4.170963913202285767e-02,-3.063034079968929291e-02
1.345181018114089966e-01,8.625096082687377930e-02,-1.471837013959884644e-01,9.123666584491729736e-02,-3.365882486104965210e-02,-1.837433874607086182e-01,1.527624577283859253e-01,1.177109405398368835e-01,-1.394209265708923340e-01
1.597354933619499207e-02,-1.580180674791336060e-01,-1.835620105266571045e-01,4.474847763776779175e-02,1.079491078853607178e-01,9.550397098064422607e-02,9.487589448690414429e-02,4.027710482478141785e-02,1.389236152172088623e-01
-1.397953331470489502e-01,2.483604662120342255e-02,1.261176913976669312e-01,9.032157063484191895e-02,1.709134578704833984e-01,-1.161425262689590454e-01,9.252468496561050415e-02,-2.785200998187065125e-02,-1.637382954359054565e-01
-1.324856537394225597e-03,-1.249657198786735535e-02,8.932236582040786743e-02,1.010090261697769165e-01,-4.632280394434928894e-02,-1.095752790570259094e-02,-1.811669953167438507e-02,8.966659754514694214e-02,1.030843332409858704e-01
-2.139022797346115112e-01,-6.032658740878105164e-02,1.856346242129802704e-02,4.034665971994400024e-02,3.213693201541900635e-02,6.364820897579193115e-02,1.635445654392242432e-01,2.983683161437511444e-02,7.231474667787551880e-02
-1.609519571065902710e-01,-3.646776452660560608e-02,1.992486864328384399e-01,7.025214284658432007e-02,1.883004456758499146e-01,-5.201291292905807495e-02,1.508422195911407471e-02,1.675149612128734589e-02,-2.892279922962188721e-01
-1.277100592851638794e-01,-2.812040783464908600e-02,-3.664692863821983337e-02,-1.960268802940845490e-02,1.544009000062942505e-01,1.008170545101165771e-01,1.446730047464370728e-01,4.213203117251396179e-02,-6.033966690301895142e-02
1.608284935355186462e-02,-8.131536841392517090e-02,-2.278261184692382812e-01,1.235003620386123657e-01,1.870463043451309204e-01,-1.189155131578445435e-01,-2.652554959058761597e-02,1.383731961250305176e-01,9.802412241697311401e-02
2.013187706470489502e-01,1.178877949714660645e-01,1.379527896642684937e-01,-2.241320908069610596e-02,5.302917957305908203e-02,5.317984521389007568e-02,-1.919542104005813599e-01,-1.776317209005355835e-01,-1.939491629600524902e-01
1.341766119003295898e-02,1.714245229959487915e-01,4.897133260965347290e-02,9.001996368169784546e-02,1.746381968259811401e-01,-1.817574650049209595e-01,1.703335791826248169e-01,-5.073819682002067566e-02,-3.671447634696960449e-01
1.357631683349609375e-01,-1.555570121854543686e-02,-2.071788068860769272e-03,-1.295522600412368774e-02,1.903904229402542114e-02,5.809208005666732788e-02,9.748206287622451782e-02,1.459401100873947144e-01,1.359202861785888672e-01
7.720024883747100830e-02,1.005937829613685608e-01,-1.170636042952537537e-01,-8.158158743754029274e-04,2.738710306584835052e-02,1.168829947710037231e-01,-7.562635093927383423e-02,1.195255219936370850e-01,1.137886345386505127e-01
1.534777134656906128e-01,5.751237273216247559e-02,-2.722660005092620850e-01,1.690070629119873047e-01,3.295327723026275635e-02,-1.622055172920227051e-01,6.739550828933715820e-02,9.942054748535156250e-02,3.048282116651535034e-02
1.066580880433320999e-03,1.959479004144668579e-01,2.105772495269775391e-01,-1.023462414741516113e-01,-1.017746329307556152e-01,1.138718947768211365e-01,-4.628485068678855896e-02,-2.356954813003540039e-01,-1.213973686099052429e-01
-3.619863837957382202e-02,2.225569263100624084e-02,-3.497957065701484680e-02,6.984754651784896851e-02,1.357391625642776489e-01,-9.254653938114643097e-03,-2.269116928800940514e-03,-5.440443754196166992e-02,2.373490668833255768e-02
6.756336987018585205e-02,5.483497306704521179e-02,-5.810037627816200256e-02,-2.847327105700969696e-02,1.295683979988098145e-01,7.962647825479507446e-02,-9.456776827573776245e-02,1.218967735767364502e-01,-8.898416534066200256e-03
5.660791322588920593e-02,5.134827643632888794e-02,-1.975764185190200806e-01,6.107236444950103760e-02,1.497516036033630371e-01,4.399667680263519287e-02,-1.636850833892822266e-01,8.578640967607498169e-02,3.359268605709075928e-02
1.152445329353213310e-03,-1.153444200754165649e-01,-3.895748779177665710e-02,-7.864335179328918457e-02,-6.950403749942779541e-02,1.226300001144409180e-01,1.270975321531295776e-01,4.098517820239067078e-02,1.322999745607376099e-01
4.130276665091514587e-02,1.171107143163681030e-01,1.264045294374227524e-02,1.239300444722175598e-01,2.559529244899749756e-02,1.083089187741279602e-01,-1.399564743041992188e-01,-2.018368802964687347e-02,-7.117534428834915161e-02
1.461976766586303711e-01,1.281950473785400391e-01,8.411677926778793335e-02,1.175177544355392456e-01,8.367542177438735962e-02,-6.552305817604064941e-02,6.176520511507987976e-02,9.948983043432235718e-02,-1.763797402381896973e-01
-1.918724551796913147e-02,1.925876289606094360e-01,9.930629283189773560e-02,-2.362891137599945068e-01,5.081661790609359741e-02,1.307260394096374512e-01,-1.888912618160247803e-01,-4.992982000112533569e-02,8.672768622636795044e-02
2.459067292511463165e-02,7.370293140411376953e-02,7.606241106986999512e-02,1.075341179966926575e-01,9.455431252717971802e-02,-4.798451438546180725e-02,9.709157049655914307e-02,5.690893623977899551e-03,-1.294391602277755737e-01
6.528282165527343750e-02,-5.780877172946929932e-02,-1.167543902993202209e-01,1.580017805099487305e-01,8.993218839168548584e-02,-3.052924573421478271e-01,1.269303858280181885e-01,1.275969892740249634e-01,-1.136741489171981812e-01
1.847773045301437378e-01,6.046094466000795364e-03,-1.235034167766571045e-01,5.835523828864097595e-02,6.528556346893310547e-02,-2.398269474506378174e-01,1.628627777099609375e-01,6.336956284940242767e-03,-1.415624916553497314e-01
-2.029573917388916016e-02,-9.435192495584487915e-02,8.224466815590858459e-03,1.280210465192794800e-01,1.240542680025100708e-01,1.040858700871467590e-01,-3.791033476591110229e-02,-1.065834239125251770e-01,-2.190354513004422188e-03
-1.477158814668655396e-01,-2.680709064006805420e-01,-1.416012495756149292e-01,-1.191719551570713520e-03,2.434200979769229889e-02,4.906456917524337769e-03,1.731137931346893311e-01,2.065600007772445679e-01,1.385832577943801880e-01
-8.633370697498321533e-02,3.577185049653053284e-02,9.377647936344146729e-02,-1.675182878971099854e-01,-1.196853891015052795e-01,1.196239888668060303e-01,-1.328282207250595093e-01,-7.822324335575103760e-02,1.504373848438262939e-01
1.475055068731307983e-01,4.608779028058052063e-02,-1.183272376656532288e-01,1.606855243444442749e-01,3.056568326428532600e-03,-2.331634014844894409e-01,1.701923906803131104e-01,-7.521282881498336792e-02,-1.173010692000389099e-01
1.293410807847976685e-01,-1.228207871317863464e-01,-2.136127501726150513e-01,9.165996313095092773e-02,1.395605355501174927e-01,-3.674888238310813904e-02,1.759671233594417572e-02,9.471454471349716187e-02,3.277270868420600891e-02
1.440896987915039062e-01,1.396166682243347168e-01,6.716606765985488892e-02,1.380243804305791855e-02,1.004258990287780762e-01,8.805412799119949341e-02,-2.331781834363937378e-01,-1.312549263238906860e-01,2.000521309673786163e-02
-9.162363409996032715e-02,-8.248417079448699951e-02,-1.629977673292160034e-01,1.181561592966318130e-02,-1.100117564201354980e-01,2.347790822386741638e-02,1.534691900014877319e-01,1.718616783618927002e-01,1.160381212830543518e-01
-1.710495054721832275e-01,8.541652560234069824e-02,1.291370540857315063e-01,-1.411581933498382568e-01,5.250330083072185516e-03,6.280169636011123657e-02,-1.028918921947479248e-01,-5.990560725331306458e-02,1.696201115846633911e-01
-1.763526350259780884e-02,5.582343041896820068e-02,9.756753593683242798e-02,9.390129894018173218e-02,1.104255206882953644e-02,2.840410359203815460e-02,-1.122167683206498623e-03,2.389113418757915497e-02,7.263153046369552612e-02
1.686142683029174805e-01,-8.441441506147384644e-02,-2.562547922134399414e-01,1.553670912981033325e-01,9.594811499118804932e-02,-1.005886197090148926e-01,1.101121976971626282e-01,6.472228467464447021e-02,1.299605369567871094e-01
1.452162675559520721e-02,1.449291706085205078e-01,-1.301172077655792236e-01,1.813944131135940552e-01,-2.605897746980190277e-02,-1.779168993234634399e-01,1.505407243967056274e-01,7.779014855623245239e-02,-2.069805562496185303e-01
2.065244615077972412e-01,1.658384054899215698e-01,1.730412095785140991e-01,-6.823815405368804932e-02,2.644051052629947662e-02,8.003742247819900513e-02,-1.855693757534027100e-01,-2.448505014181137085e-01,-1.595844179391860962e-01
-5.661260336637496948e-02,-2.329449504613876343e-01,-1.350539028644561768e-01,-8.655063062906265259e-02,3.136854618787765503e-02,1.278321593999862671e-01,9.785052388906478882e-02,1.802721917629241943e-01,1.243477538228034973e-01
2.370207943022251129e-02,1.947048120200634003e-02,1.443115435540676117e-02,1.668628901243209839e-01,1.516918987035751343e-01,-2.091983407735824585e-01,8.994244970381259918e-03,5.231262743473052979e-02,-1.565065830945968628e-01
-1.931094527244567871e-01,-1.039271354675292969e-01,3.776784241199493408e-02,-1.750291883945465088e-01,4.745360836386680603e-02,6.426057219505310059e-02,-4.456764087080955505e-02,1.060522571206092834e-01,2.055383771657943726e-01
6.643896549940109253e-02,2.430525794625282288e-02,8.356510847806930542e-02,5.798882246017456055e-02,1.028408035635948181e-01,1.364935338497161865e-01,1.701232939958572388e-01,2.820975333452224731e-02,-3.469385951757431030e-02
-4.672262817621231079e-02,5.937708169221878052e-02,4.693635925650596619e-02,-1.459139138460159302e-01,1.158753782510757446e-01,1.997141167521476746e-02,-9.858351945877075195e-02,1.194731965661048889e-01,-1.349413674324750900e-02
-9.898757934570312500e-02,-9.953688830137252808e-02,-1.724963635206222534e-02,1.514558196067810059e-01,1.836923509836196899e-01,1.618691235780715942e-01,-1.228555757552385330e-02,-1.299672126770019531e-01,-1.024127453565597534e-01
-9.395925328135490417e-03,-1.240205205976963043e-02,1.042021205648779869e-03,4.151319712400436401e-02,6.369482725858688354e-02,1.111243814229965210e-01,-1.476810574531555176e-01,8.730509132146835327e-02,1.164935752749443054e-01
-9.995666891336441040e-02,-2.036492526531219482e-01,-8.135480433702468872e-02,-1.183807402849197388e-01,-1.134272143244743347e-01,1.029237061738967896e-01,-2.234570086002349854e-01,-5.662709474563598633e-02,2.449956685304641724e-01
-3.414031490683555603e-02,9.564103186130523682e-02,-7.361575961112976074e-02,1.062690243124961853e-01,3.049650974571704865e-02,4.621032997965812683e-02,1.045456901192665100e-02,5.735912546515464783e-02,1.315397769212722778e-01
-5.651159211993217468e-02,-1.475128680467605591e-01,-1.055463925004005432e-01,8.511783182621002197e-02,-1.914680935442447662e-02,1.465822905302047729e-01,1.244369372725486755e-01,1.093991175293922424e-01,3.201114758849143982e-02
1.694438457489013672e-01,-1.970493234694004059e-02,-1.126618459820747375e-01,1.202421784400939941e-01,-2.926307357847690582e-02,-1.345813572406768799e-01,1.668414920568466187e-01,-5.928928032517433167e-02,-1.259564310312271118e-01
9.526801854372024536e-02,1.669328100979328156e-02,1.692400872707366943e-01,2.187645286321640015e-01,1.390222012996673584e-01,-1.334220729768276215e-02,-6.912320852279663086e-02,-2.134701758623123169e-01,-1.987093091011047363e-01
1.138109713792800903e-01,8.540832251310348511e-02,-8.489825576543807983e-02,5.075076967477798462e-02,7.559996843338012695e-02,1.705696731805801392e-01,-1.210220232605934143e-01,-1.065430939197540283e-01,-1.149804983288049698e-02
-1.185824294225312769e-04,9.307325631380081177e-02,8.455070853233337402e-02,1.236385032534599304e-01,1.274512559175491333e-01,3.889152780175209045e-03,4.786188527941703796e-02,-6.185213569551706314e-03,1.219813153147697449e-01
1.085926964879035950e-01,2.599008567631244659e-02,6.810295581817626953e-02,1.515505835413932800e-02,1.024241745471954346e-01,9.635677188634872437e-02,6.347431242465972900e-02,1.533964723348617554e-01,-4.337379708886146545e-03
2.694056928157806396e-02,1.237875893712043762e-01,8.114089071750640869e-02,-6.161291152238845825e-02,1.203150078654289246e-01,-2.428792417049407959e-02,5.225848779082298279e-02,3.424376249313354492e-02,1.385973542928695679e-01
3.857381176203489304e-03,5.291253328323364258e-02,-1.879729097709059715e-03,-1.298596858978271484e-01,-4.781705141067504883e-02,7.752254605293273926e-02,-2.000364512205123901e-01,6.266637891530990601e-02,1.610447913408279419e-01
1.113735213875770569e-01,1.344087421894073486e-01,7.223728299140930176e-02,1.151649951934814453e-01,6.460823863744735718e-02,1.097714975476264954e-01,-2.483654916286468506e-01,-2.225413471460342407e-01,-1.276099085807800293e-01
-1.713620126247406006e-01,-1.243485584855079651e-01,-4.034961108118295670e-03,-5.508767813444137573e-02,1.310929358005523682e-01,7.546938210725784302e-02,1.386264711618423462e-01,6.161798536777496338e-02,9.902136772871017456e-02
1.189101934432983398e-01,1.446720808744430542e-01,9.759578108787536621e-02,8.693906664848327637e-02,-6.091067939996719360e-02,1.003724187612533569e-01,3.414443507790565491e-02,9.425814449787139893e-02,3.555513545870780945e-02
-5.941914767026901245e-02,1.021684259176254272e-01,8.053327351808547974e-02,-5.694872885942459106e-02,-4.581800196319818497e-03,5.006246268749237061e-02,-3.581204265356063843e-02,-5.592035874724388123e-02,1.439358890056610107e-01
8.291917294263839722e-02,-1.301885545253753662e-01,-1.638513207435607910e-01,-1.117825061082839966e-01,-2.085736691951751709e-01,4.127476364374160767e-02,-2.820251584053039551e-01,2.933366969227790833e-02,2.302211225032806396e-01
3.651618584990501404e-02,-1.326222997158765793e-02,1.127579435706138611e-01,1.319894492626190186e-01,-1.316865533590316772e-02,1.055987700819969177e-01,1.499800682067871094e-01,5.567208677530288696e-02,1.314525008201599121e-01
-1.147102937102317810e-01,-2.574490010738372803e-01,-1.032256856560707092e-01,7.348962873220443726e-02,-3.177142888307571411e-02,4.376880079507827759e-02,2.025426477193832397e-01,1.456988900899887085e-01,7.505984604358673096e-02
1.403888911008834839e-01,2.582962997257709503e-02,-2.184731662273406982e-01,1.527984142303466797e-01,-6.622727960348129272e-02,-1.476507633924484253e-01,9.089552611112594604e-02,3.899554535746574402e-02,-7.132765650749206543e-02
5.012489482760429382e-02,9.321026504039764404e-02,-5.991488695144653320e-03,1.121440529823303223e-01,8.825934678316116333e-02,6.450168788433074951e-02,1.225650459527969360e-01,1.426462382078170776e-01,1.305430941283702850e-02
-9.021227806806564331e-02,-1.859187707304954529e-02,7.768192887306213379e-02,1.170280352234840393e-01,1.350724548101425171e-01,4.637044668197631836e-02,-2.693902514874935150e-02,-3.204066306352615356e-02,-9.768372401595115662e-03
1.014402955770492554e-01,1.487663984298706055e-01,2.865522727370262146e-02,-5.262446030974388123e-02,1.448457986116409302e-01,1.146496161818504333e-01,-2.698841392993927002e-01,-1.851851195096969604e-01,3.589045628905296326e-02
-1.059773787856101990e-01,1.003755256533622742e-01,7.807949185371398926e-02,-1.117097809910774231e-01,-3.546680510044097900e-02,1.280282735824584961e-01,1.241069287061691284e-01,-1.047639027237892151e-01,-1.106561273336410522e-01
8.173643797636032104e-02,8.067940175533294678e-02,8.356089144945144653e-02,1.541901528835296631e-01,1.788840442895889282e-01,7.593534886837005615e-02,-3.968651220202445984e-02,5.047698318958282471e-02,-2.195145236328244209e-03
-4.634260386228561401e-02,1.268121227622032166e-02,7.404545694589614868e-02,6.063357740640640259e-02,9.282214194536209106e-02,4.822233691811561584e-02,1.018254011869430542e-01,-6.121750921010971069e-02,8.843003958463668823e-02
7.765418291091918945e-02,-8.476131595671176910e-03,-4.647001251578330994e-02,1.032510027289390564e-01,-4.849423840641975403e-02,1.135772466659545898e-01,2.069458924233913422e-02,-1.510304212570190430e-01,1.076420471072196960e-01
-7.121216505765914917e-02,-1.336468905210494995e-01,-1.465376913547515869e-01,-9.096894413232803345e-03,-5.332177132368087769e-02,-1.443638652563095093e-01,2.328341901302337646e-01,1.873906552791595459e-01,3.714451938867568970e-02
-2.857738733291625977e-02,8.590175211429595947e-02,-9.594854712486267090e-02,7.904559373855590820e-02,1.402423977851867676e-01,7.437068969011306763e-02,1.224023997783660889e-01,1.123350858688354492e-01,1.557912230491638184e-01
-1.821748465299606323e-01,-1.158133521676063538e-01,-1.195190381258726120e-02,-1.499479860067367554e-01,6.422621756792068481e-02,4.697915166616439819e-02,6.055996939539909363e-02,1.844732165336608887e-01,1.673746705055236816e-01
2.790326178073883057e-01,-3.769411519169807434e-02,-1.292702257633209229e-01,-1.435852795839309692e-01,-2.970587313175201416e-01,5.385706573724746704e-02,-1.053370237350463867e-01,1.558769345283508301e-01,1.781208068132400513e-01
1.932385005056858063e-02,-1.234992891550064087e-01,-3.220480978488922119e-01,1.588523685932159424e-01,9.594836831092834473e-02,-3.468261957168579102e-01,2.548723816871643066e-01,1.822329908609390259e-01,-3.491636738181114197e-02
-1.169224530458450317e-01,-8.262338116765022278e-03,9.171655774116516113e-02,1.286327540874481201e-01,-1.921263290569186211e-03,2.209652774035930634e-02,-5.737818777561187744e-02,-6.444031745195388794e-02,1.150797232985496521e-01
-1.025173589587211609e-01,1.166692003607749939e-01,-7.271376997232437134e-02,1.143506914377212524e-01,1.041071861982345581e-01,-1.788853108882904053e-01,4.070690646767616272e-02,1.239626780152320862e-01,-2.247244864702224731e-02
-9.431329369544982910e-02,9.428184479475021362e-02,-7.943800091743469238e-02,7.612138986587524414e-02,1.674737632274627686e-01,1.413040161132812500e-01,-2.106659859418869019e-02,-5.146203935146331787e-02,4.758945852518081665e-02
-1.865427643060684204e-01,-2.368402183055877686e-01,-4.567369073629379272e-02,1.860879659652709961e-01,6.430548615753650665e-03,-7.769643515348434448e-02,8.701227605342864990e-02,1.420735865831375122e-01,7.180907577276229858e-02
-1.390129476785659790e-01,-1.310458183288574219e-01,2.926684357225894928e-02,2.178539708256721497e-02,4.200058057904243469e-02,1.651884168386459351e-01,1.724948436021804810e-01,3.535123914480209351e-02,9.470790624618530273e-02
-1.289870142936706543e-01,-2.831563055515289307e-01,-1.811750680208206177e-01,9.435427933931350708e-02,5.483776330947875977e-02,-1.006265543401241302e-02,1.712925285100936890e-01,1.160929352045059204e-01,1.614025831222534180e-01
-9.676209092140197754e-02,-1.117198914289474487e-02,6.373580545186996460e-02,-4.942661523818969727e-02,-6.175954639911651611e-02,1.456415206193923950e-01,9.872754663228988647e-02,7.073368877172470093e-02,6.396500021219253540e-02
3.889364376664161682e-02,-1.055648326873779297e-01,-2.624151296913623810e-03,4.842175543308258057e-02,8.476183563470840454e-02,1.535133719444274902e-01,1.200110465288162231e-01,-4.334931261837482452e-03,2.067727968096733093e-02
-1.042645797133445740e-01,-7.915903627872467041e-02,1.803757995367050171e-01,-1.690231561660766602e-01,4.309882223606109619e-02,6.134793162345886230e-02,-8.903738856315612793e-02,3.131154179573059082e-02,8.165065199136734009e-02
9.836725890636444092e-02,1.752888113260269165e-01,1.121284440159797668e-01,1.166696399450302124e-01,-6.476368010044097900e-02,-6.532140076160430908e-02,-1.312344670295715332e-01,-9.898725152015686035e-02,-1.409061849117279053e-01
9.181961417198181152e-02,-1.272855252027511597e-01,-2.547262609004974365e-01,1.960521787405014038e-01,1.183329373598098755e-01,-7.947602123022079468e-02,-5.888139829039573669e-02,1.224792450666427612e-01,1.385215073823928833e-01
-6.967527791857719421e-03,1.526844948530197144e-01,7.629277557134628296e-02,5.271363258361816406e-02,-2.637763693928718567e-02,2.885747887194156647e-02,-7.509697228670120239e-02,3.436967730522155762e-02,1.529587060213088989e-01
2.021445482969284058e-01,2.533516883850097656e-01,5.483735352754592896e-02,7.246567308902740479e-02,4.622866213321685791e-02,-1.400445997714996338e-01,-5.048791319131851196e-02,-1.312642395496368408e-01,-2.703790664672851562e-01
8.118122816085815430e-02,7.552245259284973145e-02,2.767657116055488586e-02,-1.090191602706909180e-01,3.814882785081863403e-02,1.096916794776916504e-01,3.073216602206230164e-02,6.835812330245971680e-02,1.096375361084938049e-01
-3.004288859665393829e-02,-4.318423941731452942e-02,9.611063450574874878e-02,1.930253952741622925e-02,1.581825613975524902e-01,8.946437388658523560e-02,1.212041154503822327e-01,6.951401382684707642e-02,5.989764630794525146e-02
6.807752698659896851e-02,3.885777294635772705e-02,-9.171642363071441650e-02,1.146693825721740723e-01,4.730537906289100647e-02,-1.763302981853485107e-01,2.202437520027160645e-01,-2.995173260569572449e-02,-2.186875045299530029e-01
1.555061340332031250e-01,-5.713745951652526855e-02,-1.885366290807723999e-01,1.643758416175842285e-01,2.765311487019062042e-02,-9.442730247974395752e-02,1.191674098372459412e-01,8.431774377822875977e-02,4.654986783862113953e-03
-2.506435513496398926e-01,-7.079324871301651001e-02,9.793372452259063721e-02,-1.643121987581253052e-01,1.796489953994750977e-02,1.605107039213180542e-01,-1.021301448345184326e-01,1.144509389996528625e-01,7.360051572322845459e-02
6.509607192128896713e-03,1.601402163505554199e-01,5.408095568418502808e-02,-2.917131595313549042e-02,7.160791754722595215e-02,1.195348501205444336e-01,-2.568957209587097168e-01,-1.307469010353088379e-01,2.202332392334938049e-02
-9.370177984237670898e-02,-2.432957738637924194e-01,-1.376608461141586304e-01,1.011519432067871094e-01,4.606598988175392151e-03,1.328045278787612915e-01,6.470799446105957031e-02,1.512491106986999512e-01,4.689364228397607803e-03
7.886664010584354401e-03,1.360911875963211060e-01,9.620810300111770630e-02,1.331312060356140137e-01,1.339143961668014526e-01,-3.169331699609756470e-02,-4.501507431268692017e-02,5.599400028586387634e-02,-2.211690321564674377e-02
5.774009600281715393e-02,3.703027218580245972e-02,-1.841477304697036743e-02,1.786782033741474152e-02,1.445900946855545044e-01,1.103738918900489807e-01,-2.002574205398559570e-01,-1.259153634309768677e-01,-4.183037206530570984e-02
1.199371963739395142e-01,1.129566505551338196e-01,1.297795921564102173e-01,3.851337358355522156e-03,1.007644236087799072e-01,-5.913656949996948242e-02,-1.640771329402923584e-01,-2.317316681146621704e-01,-2.221982926130294800e-01
1.666679084300994873e-01,1.614237874746322632e-01,1.994986087083816528e-02,1.345653180032968521e-02,8.350136922672390938e-04,7.883137464523315430e-02,-2.160484045743942261e-01,-1.571789979934692383e-01,-1.077243387699127197e-01
-3.509101644158363342e-02,1.193233057856559753e-01,-8.154623955488204956e-02,1.032655388116836548e-01,1.031795665621757507e-01,2.466564252972602844e-02,-9.649513661861419678e-02,-1.046833768486976624e-02,1.254471987485885620e-01
2.828538790345191956e-02,-1.460257172584533691e-01,-5.093853175640106201e-02,1.187307089567184448e-01,-1.172762811183929443e-01,-1.644712835550308228e-01,1.917989104986190796e-01,1.159235611557960510e-01,5.149822682142257690e-02
-2.366043627262115479e-01,-9.978333115577697754e-02,-9.916555136442184448e-03,-9.644902497529983521e-02,1.360787730664014816e-02,8.095511794090270996e-02,1.124845966696739197e-01,1.335693895816802979e-01,1.060184687376022339e-01
-1.239742785692214966e-01,-3.949341177940368652e-02,1.649419516324996948e-01,-1.398899853229522705e-01,3.247186169028282166e-02,4.697941616177558899e-02,-7.290210574865341187e-02,3.719339519739151001e-02,1.531803309917449951e-01
4.149232432246208191e-02,1.435638964176177979e-01,1.187442615628242493e-01,8.783765882253646851e-02,9.243622422218322754e-02,-5.156913399696350098e-02,1.102036610245704651e-01,-8.340410888195037842e-03,5.223996192216873169e-02
-1.139369606971740723e-01,3.835675772279500961e-03,1.618095785379409790e-01,5.239586904644966125e-02,6.811791658401489258e-02,1.176542565226554871e-01,8.006896078586578369e-02,-6.622109562158584595e-02,1.348534505814313889e-02
9.181510657072067261e-02,9.225592017173767090e-02,-2.259085327386856079e-02,2.139050066471099854e-01,7.724899798631668091e-02,-2.656500339508056641e-01,8.380288630723953247e-02,-1.396897435188293457e-01,-1.240867003798484802e-01
1.790806055068969727e-01,1.859683729708194733e-02,2.721642144024372101e-02,7.462657988071441650e-02,5.998060107231140137e-02,-4.863192141056060791e-02,-1.272452771663665771e-01,-5.149557720869779587e-03,9.712803363800048828e-02
2.038647234439849854e-01,1.386046260595321655e-01,1.621657609939575195e-01,-9.185789152979850769e-03,-1.795041933655738831e-02,-3.537829592823982239e-02,-1.944743990898132324e-01,-2.379355430603027344e-01,-2.298825792968273163e-02
6.591407954692840576e-02,4.346605017781257629e-02,1.298512369394302368e-01,-1.334765739738941193e-02,1.425943523645401001e-01,-7.273589074611663818e-02,6.476350128650665283e-02,1.183971688151359558e-01,-1.378563493490219116e-01
1.958999037742614746e-01,8.479585871100425720e-03,-1.977578252553939819e-01,8.735735714435577393e-02,-6.148429587483406067e-02,-2.110682278871536255e-01,-9.874893724918365479e-02,-1.929785609245300293e-01,-1.298664957284927368e-01
6.883365660905838013e-02,1.855851858854293823e-01,-1.579444110393524170e-02,-7.694415748119354248e-02,5.042808875441551208e-02,1.776961237192153931e-01,-2.377627789974212646e-01,-1.095668151974678040e-01,-9.293553233146667480e-02
-1.692598462104797363e-01,-4.063343256711959839e-02,1.149374470114707947e-01,-1.408134996891021729e-01,-4.677450656890869141e-02,1.453758031129837036e-01,-8.000050485134124756e-02,3.164583444595336914e-02,1.539382487535476685e-01
6.070528551936149597e-02,1.778695732355117798e-01,1.093579903244972229e-01,-1.290171891450881958e-01,1.025603152811527252e-02,1.341992616653442383e-01,-1.391726732254028320e-01,-2.255903035402297974e-01,-1.259238366037607193e-02
-1.416532546281814575e-01,1.057000458240509033e-01,1.507231295108795166e-01,-1.833025068044662476e-01,-3.804091736674308777e-02,1.096394509077072144e-01,1.093120034784078598e-02,7.874004542827606201e-02,3.048735670745372772e-02
-3.764266520738601685e-02,1.580795049667358398e-01,1.459494829177856445e-01,1.797388643026351929e-01,-1.964890398085117340e-02,-1.689682155847549438e-02,2.113980241119861603e-02,-3.953739255666732788e-02,-1.804151535034179688e-01
-7.752801291644573212e-03,1.398602873086929321e-01,1.021763756871223450e-01,8.721292018890380859e-02,5.259392783045768738e-03,1.089235916733741760e-01,1.121057644486427307e-01,7.049039006233215332e-02,-7.633418589830398560e-02
-2.335860729217529297e-01,-9.646656364202499390e-02,-2.914773859083652496e-02,-2.163210362195968628e-01,-9.802693873643875122e-02,8.763168007135391235e-02,-1.427859663963317871e-01,-3.417669236660003662e-02,1.448469460010528564e-01
1.647707074880599976e-01,1.140904426574707031e-01,-8.042223006486892700e-02,-8.580689877271652222e-02,1.979505456984043121e-02,-4.521046951413154602e-02,-1.092062816023826599e-01,1.204173862934112549e-01,1.169528290629386902e-01
-5.381612479686737061e-02,-2.020564377307891846e-01,-1.165624707937240601e-01,1.307609379291534424e-01,9.729349054396152496e-03,9.034372866153717041e-02,-1.431797165423631668e-02,1.194535195827484131e-01,1.795004867017269135e-02
1.989400237798690796e-01,-1.223596632480621338e-01,-5.814975872635841370e-02,1.419022493064403534e-02,-2.502116560935974121e-01,3.962969034910202026e-02,-1.960586309432983398e-01,-9.694229811429977417e-02,1.839480549097061157e-01
1.294619590044021606e-01,1.787649840116500854e-01,1.284201592206954956e-01,-2.153154229745268822e-03,-2.952269511297345161e-03,2.937646210193634033e-02,-2.246704101562500000e-01,-1.718759536743164062e-01,-4.474151879549026489e-02
4.999850317835807800e-02,-5.584812536835670471e-02,-2.541398406028747559e-01,-4.213143140077590942e-02,-3.225232660770416260e-01,5.724097415804862976e-02,-2.905346155166625977e-01,9.094541519880294800e-02,1.434164196252822876e-01
-2.086906582117080688e-01,-2.997285500168800354e-02,3.030107542872428894e-02,-1.121019199490547180e-01,-3.929013386368751526e-02,1.540396362543106079e-01,2.970541082322597504e-02,1.814721152186393738e-03,1.393075883388519287e-01
-8.209923654794692993e-02,-2.563966810703277588e-01,-5.329652130603790283e-02,-1.655199974775314331e-01,-5.156468972563743591e-02,8.222202956676483154e-02,-1.509554684162139893e-01,1.444568186998367310e-01,1.098802536725997925e-01
1.013281941413879395e-01,1.247887592762708664e-02,-1.937905251979827881e-01,8.150177448987960815e-02,8.576673269271850586e-02,4.105596244335174561e-02,7.831079885363578796e-03,-2.419770509004592896e-02,5.438501760363578796e-02
1.253550052642822266e-01,-2.806873321533203125e-01,-2.531177699565887451e-01,-6.143763661384582520e-02,-8.014090359210968018e-02,1.067901253700256348e-01,1.013076454401016235e-01,9.988614916801452637e-02,2.447740584611892700e-01
5.588298663496971130e-02,1.230711117386817932e-01,-1.437708921730518341e-02,8.045511692762374878e-02,5.707455798983573914e-02,1.074999496340751648e-01,6.277751177549362183e-02,1.130369380116462708e-01,4.203088581562042236e-02
1.391324102878570557e-01,-1.514412276446819305e-02,-5.681676045060157776e-02,1.151117011904716492e-01,7.952424883842468262e-02,-2.093143761157989502e-01,1.549384593963623047e-01,-2.092491462826728821e-02,-1.835257411003112793e-01
1.498239487409591675e-01,1.401403397321701050e-01,8.463866077363491058e-03,5.701641365885734558e-02,1.085989400744438171e-01,-4.728586226701736450e-02,6.957428902387619019e-02,1.575641892850399017e-02,8.192975074052810669e-02
1.261705011129379272e-01,2.093068137764930725e-02,1.620514988899230957e-01,8.805673569440841675e-02,1.632163524627685547e-01,2.245123870670795441e-02,-1.736212223768234253e-01,-2.292622774839401245e-01,-2.123196870088577271e-01
-2.357220835983753204e-02,1.562094390392303467e-01,1.136037930846214294e-01,-2.815230488777160645e-01,-5.854068696498870850e-02,2.108895331621170044e-01,-1.430846303701400757e-01,-2.993762679398059845e-02,4.821268841624259949e-02
4.057811200618743896e-02,1.489486098289489746e-01,1.056777015328407288e-01,-4.737716540694236755e-02,2.689228765666484833e-02,1.183647662401199341e-01,-1.032073795795440674e-02,8.029014617204666138e-02,-5.621180310845375061e-02
7.965797185897827148e-02,-8.104520291090011597e-02,1.007930841296911240e-02,8.433352410793304443e-02,9.738178551197052002e-02,8.927508443593978882e-02,-1.154656801372766495e-02,5.759545415639877319e-02,-2.503949590027332306e-02
-6.137180607765913010e-03,1.559431478381156921e-02,1.459371298551559448e-01,8.097218722105026245e-02,-3.661095723509788513e-02,1.379928924143314362e-02,3.470833227038383484e-02,2.339342981576919556e-02,1.437053382396697998e-01
-1.442039851099252701e-03,6.373750418424606323e-02,2.035703212022781372e-01,-1.568841338157653809e-01,-7.480212301015853882e-02,1.355662476271390915e-02,-9.376551210880279541e-02,-2.206185758113861084e-01,-1.241636574268341064e-01
1.449692398309707642e-01,9.780596941709518433e-02,2.400636300444602966e-02,1.684531718492507935e-01,1.836479525081813335e-03,4.678821936249732971e-02,-2.159556187689304352e-02,-1.478682458400726318e-01,-1.169879883527755737e-01
4.346349835395812988e-02,-2.657130546867847443e-02,-9.548101574182510376e-02,-1.112680509686470032e-01,1.208728402853012085e-01,1.439190357923507690e-01,2.623171359300613403e-02,4.686384275555610657e-02,5.051120370626449585e-02
1.352963894605636597e-01,2.466178499162197113e-02,8.737541735172271729e-02,7.454024255275726318e-02,2.927886880934238434e-02,-3.394565731287002563e-02,3.862278535962104797e-02,6.437750905752182007e-02,9.129244089126586914e-02
2.747310698032379150e-02,6.328013539314270020e-02,5.741517618298530579e-02,2.079013921320438385e-02,1.010505333542823792e-01,5.207304656505584717e-02,-9.544664993882179260e-03,5.687870457768440247e-02,-4.605183005332946777e-02
1.658022403717041016e-01,8.639962971210479736e-02,-5.153449997305870056e-02,2.038823366165161133e-01,-7.142279297113418579e-02,-2.332352101802825928e-01,6.290470808744430542e-02,2.946597337722778320e-02,-1.836597919464111328e-01
-7.582260668277740479e-02,1.167546138167381287e-01,1.398835927248001099e-01,3.725874051451683044e-02,9.943000972270965576e-02,-1.198660731315612793e-01,1.639116406440734863e-01,1.242113783955574036e-01,-3.140988647937774658e-01
-8.138522505760192871e-02,-3.533893078565597534e-02,-9.197958558797836304e-02,-5.160726606845855713e-02,-6.530064158141613007e-03,-2.378538064658641815e-02,-7.470165193080902100e-02,1.147238351404666901e-02,-5.289399251341819763e-02
1.254799216985702515e-01,1.103377789258956909e-01,9.332231432199478149e-02,-1.090010534971952438e-02,1.946142315864562988e-02,4.799311235547065735e-02,6.820833683013916016e-02,9.048298932611942291e-03,4.379862919449806213e-02
1.044438257813453674e-01,9.291891753673553467e-02,8.355091512203216553e-02,-2.707177773118019104e-02,-1.909113675355911255e-02,1.704199761152267456e-01,-7.998309098184108734e-03,1.013947054743766785e-01,1.248207166790962219e-01
-7.053516805171966553e-02,-1.774214655160903931e-01,-1.253769248723983765e-01,-3.581767156720161438e-02,3.062977641820907593e-02,1.295053958892822266e-02,1.640725582838058472e-01,7.749750465154647827e-02,1.027023717761039734e-01
1.133942976593971252e-01,8.028009533882141113e-02,-4.796801134943962097e-02,4.980132728815078735e-02,1.408471018075942993e-01,4.691670835018157959e-02,-1.042005866765975952e-01,1.222941502928733826e-01,8.340592682361602783e-02
1.719581037759780884e-01,-1.418081950396299362e-02,-7.155489176511764526e-02,9.924204647541046143e-02,3.661597520112991333e-02,9.920302778482437134e-02,9.512531012296676636e-02,3.127448260784149170e-02,1.027208417654037476e-01
-2.788793062791228294e-03,9.912033379077911377e-02,8.173860609531402588e-02,7.388168573379516602e-02,1.077399104833602905e-01,4.934846423566341400e-03,-6.808832287788391113e-02,-5.414261296391487122e-02,-2.713374048471450806e-02
5.248328670859336853e-02,9.612147510051727295e-02,6.440982222557067871e-02,-2.036738395690917969e-01,-7.579121738672256470e-02,-1.574957519769668579e-01,1.333366036415100098e-01,-2.342982217669487000e-02,5.259155109524726868e-02
1.333063691854476929e-01,1.093628183007240295e-01,-2.220047451555728912e-02,2.664771862328052521e-02,1.229377463459968567e-01,-1.936426460742950439e-01,-3.997223079204559326e-02,7.936237007379531860e-02,-1.161418035626411438e-01
4.989852756261825562e-02,-1.983286067843437195e-02,6.205195561051368713e-02,-2.894192375242710114e-02,1.278668344020843506e-01,-2.967431955039501190e-02,1.284691542387008667e-01,3.124446049332618713e-02,4.640272632241249084e-02
-6.066739559173583984e-02,-2.170905470848083496e-01,-7.972691953182220459e-02,8.188724517822265625e-02,1.553289741277694702e-01,-2.277400717139244080e-02,-1.260308735072612762e-02,6.918487697839736938e-02,8.229303359985351562e-02
1.283562928438186646e-01,-1.402257680892944336e-01,-2.528969049453735352e-01,1.029957905411720276e-01,7.823763042688369751e-02,1.287569198757410049e-02,1.198759861290454865e-02,1.441096216440200806e-01,-2.394726499915122986e-02
1.801834106445312500e-01,1.255819350481033325e-01,1.890543252229690552e-01,-1.207423508167266846e-01,-8.715761452913284302e-02,-2.915964834392070770e-02,-7.990086823701858521e-02,-7.413205504417419434e-02,-1.571469157934188843e-01
-2.820794098079204559e-02,-2.151885926723480225e-01,-1.362057328224182129e-01,1.518238633871078491e-01,1.677995920181274414e-02,-6.557681411504745483e-02,-9.516249410808086395e-03,1.459855437278747559e-01,1.334296613931655884e-01
1.183231361210346222e-02,1.586947888135910034e-01,1.343612223863601685e-01,1.456660032272338867e-01,-3.885674476623535156e-02,7.170051336288452148e-02,-1.867124438285827637e-01,-1.532461196184158325e-01,-1.838802695274353027e-01
8.492471650242805481e-03,1.457303017377853394e-01,1.047054007649421692e-01,-1.939114532433450222e-03,-9.015849232673645020e-02,4.155797138810157776e-02,-1.740196347236633301e-01,-7.239668816328048706e-02,9.656656533479690552e-02
1.459379494190216064e-01,-2.128754369914531708e-02,-2.287064641714096069e-01,1.715311110019683838e-01,5.959968641400337219e-02,-1.569355130195617676e-01,8.647102862596511841e-02,9.115359932184219360e-02,-1.193898636847734451e-02
7.519750297069549561e-02,-1.649367809295654297e-01,-3.012344539165496826e-01,-3.150112628936767578e-01,-2.874572873115539551e-01,1.640030741691589355e-02,-2.302262634038925171e-01,1.205865666270256042e-01,3.444154858589172363e-01
-4.371871799230575562e-02,1.225426606833934784e-02,4.316540807485580444e-02,-9.231768548488616943e-02,1.201419308781623840e-01,-3.681264072656631470e-02,1.345472484827041626e-01,-9.463165886700153351e-03,4.072774201631546021e-02
-3.681932389736175537e-02,-8.426630496978759766e-02,5.502191558480262756e-02,-2.250104546546936035e-01,8.631325513124465942e-02,1.576414257287979126e-01,-1.858379133045673370e-02,8.235332556068897247e-03,1.175608411431312561e-01
1.503689140081405640e-01,-8.124546706676483154e-02,-2.582165300846099854e-01,3.723586350679397583e-02,1.997566372156143188e-01,3.429987654089927673e-02,-2.594673819839954376e-02,2.696943283081054688e-02,3.723221644759178162e-02
2.326681278645992279e-02,-6.369274854660034180e-02,4.192908480763435364e-02,6.003703922033309937e-02,9.085964411497116089e-02,1.327223479747772217e-01,1.151337474584579468e-01,-7.800638675689697266e-02,-3.185476735234260559e-02
-1.322500407695770264e-01,-1.342100203037261963e-01,-1.625357568264007568e-02,3.025408089160919189e-02,-9.616754204034805298e-02,1.102178022265434265e-01,5.557105317711830139e-02,9.819076955318450928e-02,1.152123138308525085e-01
7.206337060779333115e-03,9.179957211017608643e-02,-1.219464614987373352e-01,7.137216627597808838e-03,9.428897500038146973e-02,3.701416775584220886e-02,6.684433668851852417e-02,1.017682924866676331e-01,1.124322935938835144e-01
1.043570339679718018e-01,6.696700304746627808e-02,-7.441202551126480103e-02,1.549362540245056152e-01,-1.654073968529701233e-02,-1.257991045713424683e-01,1.369926184415817261e-01,-1.018531620502471924e-02,-2.133156806230545044e-01
6.928111612796783447e-02,-6.801874190568923950e-02,-1.584880053997039795e-02,7.909141480922698975e-02,1.145350411534309387e-01,1.294623464345932007e-01,1.348867863416671753e-01,7.326327264308929443e-02,-5.827489495277404785e-02
1.003531292080879211e-01,-1.007097065448760986e-01,-1.858421564102172852e-01,3.588220104575157166e-02,1.075744107365608215e-01,7.704841345548629761e-02,5.460347607731819153e-02,4.156300798058509827e-02,1.106720045208930969e-01
-1.352709382772445679e-01,1.656787097454071045e-02,6.186902523040771484e-02,1.645590062253177166e-03,1.158958226442337036e-01,7.825586944818496704e-02,4.360076040029525757e-02,1.355137396603822708e-02,4.120236635208129883e-02
-1.345910876989364624e-01,9.812923148274421692e-03,1.840512081980705261e-02,-3.465284360572695732e-03,1.869917847216129303e-02,2.347415871918201447e-02,2.178550139069557190e-02,1.028392910957336426e-01,1.023547202348709106e-01
2.287627011537551880e-01,1.053538694977760315e-01,9.998268634080886841e-02,-2.315261214971542358e-02,2.322991564869880676e-02,9.932864457368850708e-03,-2.103354930877685547e-01,-1.311283856630325317e-01,-1.087873503565788269e-01
-3.383288159966468811e-02,-4.756116494536399841e-02,2.014148281887173653e-03,1.757208257913589478e-02,3.196391090750694275e-02,7.276737689971923828e-02,9.922189265489578247e-02,1.184925585985183716e-01,1.416034996509552002e-02
-5.397389084100723267e-02,-3.506562486290931702e-02,8.427004516124725342e-02,1.192051842808723450e-01,6.698250770568847656e-02,8.384902775287628174e-02,1.514753699302673340e-01,4.583071172237396240e-02,1.036740988492965698e-01
9.832885861396789551e-02,-1.396722998470067978e-02,5.904918164014816284e-02,1.603976637125015259e-02,9.578914195299148560e-02,5.288316402584314346e-03,3.982702270150184631e-02,6.182305514812469482e-02,5.333287641406059265e-02
1.492850482463836670e-01,6.849881261587142944e-02,-1.255615651607513428e-01,-7.692494243383407593e-02,9.126851707696914673e-02,1.226602345705032349e-01,-1.769360601902008057e-01,9.299764782190322876e-02,6.074975430965423584e-02
-1.426627486944198608e-01,5.387414619326591492e-02,1.390166729688644409e-01,-2.900891751050949097e-02,-6.374067626893520355e-03,1.376817375421524048e-01,1.406763494014739990e-01,6.695723533630371094e-02,9.308821707963943481e-02
-1.837104372680187225e-02,7.104185223579406738e-02,-9.474769979715347290e-02,-1.717313751578330994e-02,6.601573526859283447e-02,-5.346808582544326782e-02,-1.684685610234737396e-02,1.363967508077621460e-01,1.652663499116897583e-01
-1.818648539483547211e-02,6.967394798994064331e-02,2.362918108701705933e-02,3.297510370612144470e-02,8.832196146249771118e-02,-1.374025493860244751e-01,1.622551977634429932e-01,1.256588250398635864e-01,-2.414608895778656006e-01
1.122634336352348328e-01,1.896784305572509766e-01,2.451398372650146484e-01,-1.403760761022567749e-01,1.066687330603599548e-02,5.503267422318458557e-02,-3.207212686538696289e-01,-1.952853202819824219e-01,9.121986478567123413e-02
-4.450628533959388733e-02,-2.182844430208206177e-01,-1.235809922218322754e-01,-3.649902343750000000e-02,7.484558969736099243e-02,2.156332135200500488e-02,1.534399688243865967e-01,5.532312765717506409e-02,1.098985597491264343e-01
-2.708308696746826172e-01,-6.317574530839920044e-02,7.292991131544113159e-02,-2.297032475471496582e-01,-6.176688522100448608e-02,5.590856447815895081e-02,-1.373743712902069092e-01,-6.888505816459655762e-02,1.915892064571380615e-01
1.325932294130325317e-01,7.046794146299362183e-02,1.186571940779685974e-01,7.329479604959487915e-02,1.355659663677215576e-01,-3.900644928216934204e-02,5.364457145333290100e-03,-1.203274503350257874e-01,-2.373174428939819336e-01
4.159055277705192566e-02,1.376784890890121460e-01,2.625543624162673950e-02,3.583617880940437317e-02,1.336505264043807983e-01,1.635281592607498169e-01,-2.978049814701080322e-01,-1.749270707368850708e-01,-4.765842109918594360e-02
-1.706775575876235962e-01,-1.347345411777496338e-01,1.525681279599666595e-02,-4.306133370846509933e-03,1.253749728202819824e-01,6.393332779407501221e-02,1.255869418382644653e-01,-1.104665827006101608e-02,5.557051673531532288e-02
8.939997106790542603e-02,-2.551865391433238983e-02,3.321784734725952148e-02,-2.248295024037361145e-02,8.691538870334625244e-02,-3.235301747918128967e-02,1.174818351864814758e-01,7.615029811859130859e-02,4.462945833802223206e-02
1.138058900833129883e-01,7.361413538455963135e-02,2.148768305778503418e-01,-2.223423868417739868e-02,2.166900038719177246e-02,8.958381600677967072e-03,-2.026876658201217651e-01,-1.543218344449996948e-01,-1.894699484109878540e-01
-9.740831330418586731e-03,-1.736777089536190033e-02,-2.487102523446083069e-02,-1.528145931661128998e-02,1.129281371831893921e-01,1.366600990295410156e-01,1.019248515367507935e-01,-2.009714581072330475e-02,-9.589236974716186523e-02
-3.164592012763023376e-02,-2.419784814119338989e-01,-1.832072138786315918e-01,2.417531795799732208e-02,-2.776583097875118256e-02,-1.576068252325057983e-02,1.361203640699386597e-01,1.373887956142425537e-01,1.920669525861740112e-01
-1.996175497770309448e-01,-4.000682011246681213e-02,1.048850864171981812e-01,-1.576045751571655273e-01,-1.522114686667919159e-02,3.563681244850158691e-02,3.162917122244834900e-02,1.204975098371505737e-01,1.769429445266723633e-01
-5.292832385748624802e-03,7.442320883274078369e-02,-8.837433159351348877e-02,1.129080206155776978e-01,2.640856988728046417e-02,-2.300318889319896698e-02,1.009493842720985413e-01,1.126497313380241394e-01,-5.184763297438621521e-02
-9.866280108690261841e-02,-5.315175279974937439e-03,7.402248680591583252e-02,-1.183998286724090576e-01,7.823622971773147583e-02,6.740942597389221191e-02,7.475861161947250366e-02,1.588183492422103882e-01,6.468924134969711304e-02
6.246028095483779907e-02,-1.386379152536392212e-01,-6.910861283540725708e-02,1.016039326786994934e-01,1.925719529390335083e-02,-3.272334858775138855e-02,1.070948615670204163e-01,7.822033017873764038e-02,7.081973552703857422e-02
2.750471048057079315e-02,-5.383607931435108185e-03,-1.704894565045833588e-02,4.316441714763641357e-02,5.465987697243690491e-02,1.278408467769622803e-01,1.361864358186721802e-01,7.415402680635452271e-02,-9.218015521764755249e-02
-4.233299940824508667e-02,-1.941447257995605469e-01,-8.179610222578048706e-02,2.414001896977424622e-02,1.132382005453109741e-01,1.018354073166847229e-01,-1.919572427868843079e-02,1.293753683567047119e-01,7.459069788455963135e-02
5.717644840478897095e-02,5.679130926728248596e-02,3.716496750712394714e-03,1.499522030353546143e-01,1.090678796172142029e-01,1.039470359683036804e-01,9.132337756454944611e-03,1.038233935832977295e-01,3.403129056096076965e-02
-2.062709629535675049e-01,1.103428825736045837e-01,9.938977658748626709e-02,-6.769789755344390869e-02,1.665838956832885742e-01,-3.752571716904640198e-02,1.198191121220588684e-01,6.610736250877380371e-02,-1.221645399928092957e-01
-8.994017541408538818e-02,-4.568564519286155701e-02,-3.851096332073211670e-02,-3.528338298201560974e-02,9.828788042068481445e-02,5.419889837503433228e-02,6.567409634590148926e-02,1.070114225149154663e-01,4.396451264619827271e-02
1.347435712814331055e-01,4.729975387454032898e-02,-1.053663268685340881e-01,1.459380835294723511e-01,-6.421323120594024658e-02,-1.841093897819519043e-01,1.006719768047332764e-01,9.547689929604530334e-03,1.260285824537277222e-02
-2.660582959651947021e-02,-2.329415827989578247e-01,-1.275458186864852905e-01,-1.891878247261047363e-02,-7.393322139978408813e-02,5.315968766808509827e-02,1.773297190666198730e-01,1.682983636856079102e-01,9.717942774295806885e-02
-6.647965312004089355e-02,6.664123386144638062e-02,1.377992033958435059e-01,-3.239460662007331848e-02,1.061222404241561890e-01,4.635790362954139709e-02,5.114645231515169144e-03,1.613497883081436157e-01,6.817660480737686157e-02
4.025242477655410767e-02,-3.326570987701416016e-02,7.362835109233856201e-02,9.313926100730895996e-02,2.435006946325302124e-02,-2.548808231949806213e-02,4.715813696384429932e-02,-1.278132349252700806e-01,1.153944432735443115e-02
1.327457726001739502e-01,1.119291931390762329e-01,4.996675625443458557e-02,9.436833113431930542e-02,-1.168914791196584702e-02,8.279240876436233521e-02,-2.470114454627037048e-02,-1.714052408933639526e-01,-1.893870383501052856e-01
8.580255508422851562e-02,1.331949383020401001e-01,1.165017187595367432e-01,-5.233845114707946777e-02,1.618769019842147827e-01,6.540978699922561646e-02,-1.543498188257217407e-01,-2.249772548675537109e-01,-2.321114987134933472e-01
-9.009252488613128662e-02,1.439492851495742798e-01,1.606007218360900879e-01,-1.556405127048492432e-01,-8.989933133125305176e-02,9.493279457092285156e-02,-1.212524846196174622e-01,1.897346973419189453e-02,4.803556203842163086e-02
-2.544415369629859924e-02,6.710258871316909790e-02,1.411300748586654663e-01,-3.537677461281418800e-03,-1.143519952893257141e-02,1.630130857229232788e-01,-3.435948491096496582e-02,-5.645416304469108582e-02,2.330587431788444519e-02
-1.266736239194869995e-01,-1.730585545301437378e-01,-3.587564080953598022e-02,-1.696958839893341064e-01,8.369704335927963257e-02,1.400074809789657593e-01,1.396751999855041504e-01,1.212891936302185059e-01,6.970706582069396973e-02
8.967915922403335571e-02,7.777491956949234009e-02,-1.720180362462997437e-02,8.539035916328430176e-02,1.011981219053268433e-01,9.293366223573684692e-02,-5.780403316020965576e-02,7.694615982472896576e-03,5.046045407652854919e-02
-7.207426428794860840e-02,-1.944894902408123016e-02,9.882916510105133057e-02,7.513665407896041870e-02,1.071679368615150452e-01,-1.517326757311820984e-02,9.275487065315246582e-02,6.341020017862319946e-02,2.950254268944263458e-02
-3.874985501170158386e-02,-1.363511085510253906e-01,-2.017623484134674072e-01,1.700838953256607056e-01,1.174769997596740723e-01,-1.513233184814453125e-01,3.924757242202758789e-02,1.374070644378662109e-01,6.535807251930236816e-02
1.297876685857772827e-01,1.097332611680030823e-01,-1.270945519208908081e-01,2.062701135873794556e-01,1.435947883874177933e-02,-2.124700844287872314e-01,1.456005871295928955e-01,-1.258604526519775391e-01,-1.386870145797729492e-01
8.663505315780639648e-02,1.092407703399658203e-01,6.671896576881408691e-02,4.646245017647743225e-02,-2.845599083229899406e-03,1.054883562028408051e-02,1.105815768241882324e-01,1.093367114663124084e-01,1.035701483488082886e-01
-9.989074617624282837e-02,4.890314489603042603e-02,4.778601601719856262e-02,1.196894943714141846e-01,-3.140227124094963074e-02,1.282533258199691772e-01,1.139510944485664368e-01,-3.088874742388725281e-02,-8.176406472921371460e-02
1.413019597530364990e-01,9.907113760709762573e-02,1.432630699127912521e-02,-7.015525549650192261e-02,6.807101517915725708e-02,4.944374412298202515e-02,-6.709911674261093140e-02,8.979833126068115234e-02,6.314443051815032959e-02
-9.475619299337267876e-04,2.719436958432197571e-02,-6.146021559834480286e-02,-2.262902818620204926e-02,-8.536943048238754272e-02,-1.568002551794052124e-01,1.672190129756927490e-01,1.101012676954269409e-01,3.260699100792407990e-03
9.525526314973831177e-02,1.822555810213088989e-01,1.372182965278625488e-01,-8.101741969585418701e-02,2.544368430972099304e-02,6.389198452234268188e-02,-2.508629858493804932e-01,-1.624157726764678955e-01,-7.228680700063705444e-02
-1.129071637988090515e-01,-1.208088323473930359e-01,-1.014890670776367188e-01,-3.905290737748146057e-02,-8.583175390958786011e-02,4.953746870160102844e-02,2.161268740892410278e-01,1.217996031045913696e-01,6.055871769785881042e-02
-1.129279062151908875e-01,-2.186751067638397217e-01,-3.807885944843292236e-02,2.840181812644004822e-02,-5.461450666189193726e-02,-6.176218390464782715e-03,1.283980458974838257e-01,2.118449807167053223e-01,7.953090220689773560e-02
-1.445167213678359985e-01,-4.472966864705085754e-02,1.603524088859558105e-01,-2.735247313976287842e-01,-5.046438798308372498e-02,8.296819031238555908e-02,-1.084643378853797913e-01,-9.695367515087127686e-02,1.013904139399528503e-01
2.073964849114418030e-02,-1.108110547065734863e-01,-6.560301035642623901e-02,1.532274633646011353e-01,-2.058894336223602295e-01,-2.758091688156127930e-01,2.894052565097808838e-01,1.940852105617523193e-01,-1.331230532377958298e-02
-1.337573975324630737e-01,-3.487601876258850098e-02,1.489444226026535034e-01,4.647910222411155701e-02,6.665127002634108067e-04,1.261105537414550781e-01,-2.009239420294761658e-02,1.213870644569396973e-01,-2.301102690398693085e-02
-1.341190785169601440e-01,-1.572986394166946411e-01,-6.892780959606170654e-02,-5.083000659942626953e-02,1.213885545730590820e-01,1.440603286027908325e-01,1.457075476646423340e-01,3.397803008556365967e-02,-2.286046743392944336e-03
1.127677634358406067e-01,1.226528286933898926e-01,-4.006514325737953186e-03,-4.847568646073341370e-02,5.695714149624109268e-03,3.841849416494369507e-02,1.098557412624359131e-01,5.830153450369834900e-02,6.836453825235366821e-02
3.876221179962158203e-02,1.162959337234497070e-01,-1.299573481082916260e-01,1.011488437652587891e-01,3.037650510668754578e-02,-2.169273495674133301e-01,1.324985623359680176e-01,-1.236279979348182678e-01,1.078253518790006638e-02
7.707098126411437988e-02,-1.748244762420654297e-01,-1.099471971392631531e-01,1.002204045653343201e-01,1.357029527425765991e-01,8.385930210351943970e-02,4.356182739138603210e-02,-4.981764405965805054e-02,1.288534404011443257e-04
-1.309606283903121948e-01,-1.212129965424537659e-01,-5.080601945519447327e-02,8.728308975696563721e-02,2.616782300174236298e-02,1.249509528279304504e-01,1.343606859445571899e-01,2.610371075570583344e-02,2.485271543264389038e-02
-2.693447098135948181e-02,2.108736336231231689e-02,1.176221072673797607e-01,1.309368014335632324e-01,1.370309386402368546e-02,-9.990777820348739624e-03,8.118361234664916992e-02,8.061971515417098999e-02,6.395018100738525391e-02
-1.792051196098327637e-01,1.651139743626117706e-02,1.392859965562820435e-01,1.258838921785354614e-01,1.151876002550125122e-01,3.271592780947685242e-03,8.547861874103546143e-02,-1.113469228148460388e-01,-5.215860903263092041e-02
1.230089589953422546e-01,-3.039374761283397675e-02,6.660100817680358887e-02,-6.337599456310272217e-02,8.501644432544708252e-02,5.946655943989753723e-02,3.892469033598899841e-02,5.539030581712722778e-02,-2.190135233104228973e-02
7.615874707698822021e-02,1.063792631030082703e-01,1.342244893312454224e-01,8.773829787969589233e-02,1.225553303956985474e-01,-1.314857155084609985e-01,8.878587931394577026e-02,7.960505783557891846e-02,-1.388210654258728027e-01
8.980764448642730713e-02,1.254143714904785156e-01,9.200529754161834717e-02,1.153526902198791504e-01,5.149656906723976135e-02,-1.247047819197177887e-02,8.026461303234100342e-02,8.406051993370056152e-02,1.375352442264556885e-01
-3.949178457260131836e-01,-3.646450340747833252e-01,-1.471916437149047852e-01,-1.921586692333221436e-01,1.059511378407478333e-01,2.359287142753601074e-01,-1.083778589963912964e-02,2.789886891841888428e-01,1.580227911472320557e-01
-1.499828416854143143e-02,1.066872105002403259e-02,1.852684915065765381e-01,4.646006226539611816e-02,-1.048398576676845551e-02,7.083468884229660034e-02,-1.117760911583900452e-01,-1.132598295807838440e-01,-1.343425661325454712e-01
-1.762196607887744904e-02,7.985237240791320801e-02,1.367934979498386383e-02,1.160124167799949646e-01,8.328334987163543701e-02,1.173624321818351746e-01,-4.824981465935707092e-02,-7.103404961526393890e-03,1.096392944455146790e-01
-2.883391641080379486e-02,3.866545110940933228e-02,4.148502647876739502e-02,7.550838589668273926e-02,6.173045560717582703e-02,5.073961615562438965e-02,6.052221357822418213e-02,1.276499032974243164e-01,6.069843098521232605e-02
-1.895582675933837891e-01,-5.914601311087608337e-02,1.520555019378662109e-01,-1.890681535005569458e-01,-6.248069927096366882e-02,1.166792735457420349e-01,-1.108235418796539307e-01,-9.171865880489349365e-02,1.402636468410491943e-01
3.013056411873549223e-04,6.650097668170928955e-02,1.548331510275602341e-02,1.189381927251815796e-01,1.279481500387191772e-01,-1.144640222191810608e-01,-1.438917815685272217e-01,8.228694647550582886e-02,-8.303462713956832886e-02
-5.882413592189550400e-03,4.553709179162979126e-02,1.730064898729324341e-01,1.276850104331970215e-01,1.324648410081863403e-01,-2.543166838586330414e-02,-1.112398058176040649e-01,-1.889447569847106934e-01,-1.445589959621429443e-01
1.157267391681671143e-01,1.271981000900268555e-01,-3.503103554248809814e-02,8.897729963064193726e-02,1.274206042289733887e-01,9.157683700323104858e-02,-1.847425997257232666e-01,-6.624528020620346069e-02,1.053499653935432434e-01
-1.788422912359237671e-01,-1.084404960274696350e-01,1.336611658334732056e-01,3.405601903796195984e-02,5.466908961534500122e-02,3.984617441892623901e-02,1.100106015801429749e-01,7.103064656257629395e-02,-2.193620651960372925e-01
-1.732334196567535400e-01,-4.737135767936706543e-02,1.357940733432769775e-01,-1.577277779579162598e-01,-8.908201754093170166e-02,1.009023934602737427e-01,-1.092828884720802307e-01,4.526922479271888733e-02,1.550945639610290527e-01
-6.523915380239486694e-02,-4.350313171744346619e-02,2.583128586411476135e-02,3.227643668651580811e-02,1.491181552410125732e-01,9.061136841773986816e-02,-4.337114095687866211e-02,1.057396754622459412e-01,-2.165836095809936523e-02
1.039835959672927856e-01,5.847748368978500366e-02,1.357343047857284546e-01,5.584825202822685242e-02,1.414875835180282593e-01,2.218623086810112000e-02,-2.277442812919616699e-01,-1.976124793291091919e-01,-8.277592808008193970e-02
2.498052865266799927e-01,1.765310466289520264e-01,-4.081169888377189636e-02,-1.475575938820838928e-02,-8.166226744651794434e-02,-3.466077744960784912e-01,-2.685438096523284912e-01,-2.742453515529632568e-01,1.063079461455345154e-01
7.598788291215896606e-02,1.132928431034088135e-01,1.378604769706726074e-01,-3.154480829834938049e-02,1.531368046998977661e-01,6.023919209837913513e-02,-1.704700291156768799e-01,-1.096939668059349060e-01,2.307505533099174500e-02
1.045977175235748291e-01,4.314725846052169800e-02,-6.829130649566650391e-02,-6.692683789879083633e-03,1.121219545602798462e-01,-1.352338641881942749e-01,1.478309929370880127e-01,1.434357166290283203e-01,-1.182593181729316711e-01
2.912391535937786102e-02,5.537579208612442017e-02,9.157245606184005737e-02,-4.161892458796501160e-02,6.428930908441543579e-02,1.381381899118423462e-01,-9.163712710142135620e-02,7.770095020532608032e-02,1.006588041782379150e-01
-1.596114598214626312e-02,7.914157211780548096e-02,2.565973065793514252e-02,1.164250820875167847e-01,-3.729282692074775696e-02,2.296020090579986572e-02,1.674545556306838989e-01,-7.183045893907546997e-02,-1.460853368043899536e-01
8.525695651769638062e-02,2.866362035274505615e-02,-2.413861006498336792e-01,8.252962678670883179e-02,6.380553543567657471e-02,-2.091429084539413452e-01,7.936856150627136230e-02,2.223069220781326294e-01,3.419459983706474304e-02
3.624692931771278381e-02,-1.742000281810760498e-01,-1.178366243839263916e-01,-1.487524807453155518e-01,-2.919992059469223022e-02,3.084777109324932098e-02,1.079171672463417053e-01,9.023379534482955933e-02,1.954997330904006958e-01
8.978516608476638794e-02,-1.469435263425111771e-02,8.980417996644973755e-02,1.334950178861618042e-01,1.321977674961090088e-01,9.776888787746429443e-02,-2.137913852930068970e-01,-1.421078145503997803e-01,-1.614609211683273315e-01
4.011147469282150269e-02,1.735529154539108276e-01,1.276716291904449463e-01,1.123838424682617188e-01,9.739179164171218872e-03,-2.444226667284965515e-02,-1.325852274894714355e-01,-1.875634044408798218e-01,-1.576088666915893555e-01
1.261843740940093994e-01,1.248996406793594360e-01,1.231224164366722107e-01,7.622891664505004883e-02,1.465375274419784546e-01,-4.177151992917060852e-02,1.115614250302314758e-01,9.188529849052429199e-02,-3.116842359304428101e-02
6.312961876392364502e-02,5.304635316133499146e-02,-9.623230248689651489e-02,2.759389393031597137e-02,8.716930449008941650e-02,-9.014832973480224609e-02,1.025111749768257141e-01,1.066246777772903442e-01,1.216718554496765137e-01
-2.522564828395843506e-01,-2.164028733968734741e-01,-1.635968126356601715e-02,-2.307723164558410645e-01,3.811625018715858459e-02,1.944185197353363037e-01,-1.981110870838165283e-01,8.003651164472103119e-03,1.238636597990989685e-01
1.416746079921722412e-01,1.133056506514549255e-01,1.256743818521499634e-01,1.245408281683921814e-01,-7.723766379058361053e-03,-6.845827214419841766e-03,-9.446296095848083496e-02,-9.621596336364746094e-02,-5.791679024696350098e-02
5.381269752979278564e-02,1.132842525839805603e-01,-1.278356462717056274e-02,1.687317341566085815e-01,-1.737858541309833527e-02,9.424878656864166260e-02,1.387739032506942749e-01,-7.120926678180694580e-02,-2.328997850418090820e-01
1.105572357773780823e-01,1.035124212503433228e-01,-1.844854652881622314e-01,1.697960942983627319e-01,-1.226182095706462860e-02,-1.627319604158401489e-01,1.194123625755310059e-01,-6.410378962755203247e-02,-1.841897219419479370e-01
7.681957632303237915e-02,1.871360093355178833e-01,3.734917566180229187e-02,-1.736765205860137939e-01,6.545856129378080368e-03,9.545978158712387085e-02,-1.463680118322372437e-01,-1.074576303362846375e-01,-9.381862729787826538e-02
1.755633354187011719e-01,5.668289214372634888e-02,-6.825070828199386597e-02,3.428062796592712402e-02,9.022115170955657959e-02,1.265815794467926025e-01,4.119341820478439331e-02,1.413383185863494873e-01,1.287261098623275757e-01
4.073392227292060852e-02,6.897839158773422241e-02,-5.300907045602798462e-02,1.011127755045890808e-01,6.081276014447212219e-02,-2.012840211391448975e-01,1.144351139664649963e-01,2.352723293006420135e-02,-1.365458518266677856e-01
1.399438083171844482e-01,-1.076019108295440674e-01,-2.227181345224380493e-01,3.577895089983940125e-02,-7.878894917666912079e-03,-2.414780110120773315e-01,3.440932929515838623e-02,-8.122143894433975220e-02,-2.565377056598663330e-01
-9.558407217264175415e-02,-1.576301157474517822e-01,-1.070216521620750427e-01,-5.836305394768714905e-02,5.267162807285785675e-03,-7.999221794307231903e-03,1.914406865835189819e-01,1.068695932626724243e-01,9.827498346567153931e-02
4.233366344124078751e-03,-1.177926138043403625e-01,-1.659936457872390747e-01,-7.912179455161094666e-03,-4.494136571884155273e-02,-3.948201239109039307e-02,1.146105006337165833e-01,1.518315523862838745e-01,1.125384345650672913e-01
4.213906452059745789e-02,-4.727595020085573196e-03,-7.738808542490005493e-02,4.056959971785545349e-02,1.811039596796035767e-01,3.341351076960563660e-02,-2.412395477294921875e-01,-4.172656312584877014e-02,1.394877284765243530e-01
-1.030031442642211914e-01,-1.769346147775650024e-01,-1.202298328280448914e-01,7.790561020374298096e-02,2.317964471876621246e-02,-7.063801586627960205e-02,1.903082579374313354e-01,3.356468304991722107e-02,1.550832539796829224e-01
6.507807224988937378e-02,4.520677775144577026e-02,1.053521260619163513e-01,7.007230073213577271e-02,5.339183844625949860e-03,6.390731036663055420e-02,-9.261438250541687012e-02,1.108477488160133362e-01,-1.227039936929941177e-02
-1.160096451640129089e-01,7.149060070514678955e-02,8.863035589456558228e-02,-1.167655661702156067e-01,6.077915057539939880e-02,4.577186889946460724e-03,-3.583217505365610123e-03,5.616440251469612122e-02,1.544530987739562988e-01
-4.763523116707801819e-02,-1.243283599615097046e-01,-1.236600428819656372e-02,1.186874210834503174e-01,1.403674930334091187e-01,9.797644615173339844e-02,9.930644929409027100e-02,7.373595982789993286e-02,-3.894457966089248657e-02
1.971726492047309875e-02,-3.684177249670028687e-02,-1.637555360794067383e-01,-2.767952717840671539e-02,1.982017233967781067e-02,-2.558462554588913918e-03,7.722059637308120728e-02,9.174378216266632080e-02,9.691789746284484863e-02
-1.671071164309978485e-02,1.196306794881820679e-01,-3.041530586779117584e-02,-1.804382726550102234e-02,1.136531382799148560e-01,-2.790283784270286560e-02,-2.571384981274604797e-02,9.100644290447235107e-02,1.119297221302986145e-01
4.421609267592430115e-02,9.040272235870361328e-02,5.452955514192581177e-02,1.759677194058895111e-02,1.169806346297264099e-02,2.895460650324821472e-02,-1.903933659195899963e-02,9.043563157320022583e-02,-1.601775549352169037e-02
-1.606989949941635132e-01,7.202489674091339111e-02,1.365016698837280273e-01,-1.990424245595932007e-01,1.531028002500534058e-02,1.269972771406173706e-01,-9.882186353206634521e-02,-3.654353320598602295e-02,1.430657655000686646e-01
1.212014853954315186e-01,1.249347999691963196e-01,1.435966938734054565e-01,-1.257527917623519897e-01,-6.015148758888244629e-02,3.003981895744800568e-02,-8.219798654317855835e-02,-1.028597578406333923e-01,-9.550765901803970337e-02
-1.098693832755088806e-01,7.635734975337982178e-02,8.467361330986022949e-02,1.219524964690208435e-01,1.171622574329376221e-01,-1.022048518061637878e-01,1.702213585376739502e-01,-1.117029935121536255e-01,-1.956060677766799927e-01
