-2.289363294839859009e-01,-3.598586618900299072e-01,1.013653203845024109e-01,-1.193209365010261536e-01,3.521486371755599976e-02,3.057599067687988281e-01,1.751707494258880615e-01,1.421704292297363281e-01,-8.065433055162429810e-02
1.375931799411773682e-01,1.553886085748672485e-01,8.643453568220138550e-02,-1.589822471141815186e-01,-3.468351364135742188e-01,-1.714283078908920288e-01,4.501484706997871399e-02,1.222269088029861450e-01,6.180852651596069336e-02
-1.489313542842864990e-01,1.923720240592956543e-01,1.789765954017639160e-01,5.104660615324974060e-02,2.122303396463394165e-01,-1.317921727895736694e-01,3.722942993044853210e-02,-9.596219658851623535e-02,-3.662943243980407715e-01
2.325158715248107910e-01,1.232953444123268127e-01,9.678225964307785034e-02,-1.235502213239669800e-01,-8.032391220331192017e-02,-1.642392016947269440e-04,-1.972536146640777588e-01,-1.150166690349578857e-01,-1.314460188150405884e-01
1.876498013734817505e-01,8.307560533285140991e-02,-6.854134798049926758e-02,1.414318233728408813e-01,-8.649914711713790894e-02,-1.655820310115814209e-01,1.484054978936910629e-02,-1.410743445158004761e-01,-1.064115837216377258e-01
1.142828837037086487e-01,3.716925159096717834e-02,-2.522394359111785889e-01,1.777659868821501732e-03,1.544439345598220825e-01,7.332060486078262329e-02,-3.227287232875823975e-01,-8.889458258636295795e-04,1.511261761188507080e-01
1.068370863795280457e-01,-6.576590985059738159e-02,-2.865257859230041504e-01,1.587139368057250977e-01,1.522076427936553955e-01,-5.182660371065139771e-02,-8.704297244548797607e-02,7.625450193881988525e-02,1.733671426773071289e-01
-4.630563259124755859e-01,-5.508592128753662109e-01,-5.015552043914794922e-01,1.681483685970306396e-01,2.631879448890686035e-01,-3.590385615825653076e-01,1.692731231451034546e-01,2.305809110403060913e-01,3.555809333920478821e-02
-2.702203094959259033e-01,-1.378108561038970947e-01,5.757581070065498352e-02,4.638711735606193542e-02,1.692750006914138794e-01,1.000874713063240051e-01,-1.223744899034500122e-01,8.715127408504486084e-02,-1.741935312747955322e-01
5.051078740507364273e-03,4.085762053728103638e-02,5.520700663328170776e-02,8.184441179037094116e-02,2.125586383044719696e-02,-2.486696653068065643e-02,-1.994860824197530746e-03,2.378990501165390015e-02,2.024015411734580994e-02
3.950390219688415527e-02,-6.218134984374046326e-02,-3.092861771583557129e-01,2.022490650415420532e-01,4.159845784306526184e-02,-6.456397473812103271e-02,-5.815926939249038696e-02,1.615693569183349609e-01,7.438247650861740112e-02
-1.255968064069747925e-01,3.863282129168510437e-02,4.085369408130645752e-02,-1.379324644804000854e-01,-1.030408404767513275e-02,-1.505177766084671021e-01,4.561723768711090088e-02,1.148701757192611694e-01,2.755628898739814758e-02
8.487768471240997314e-03,-2.910238802433013916e-01,-3.067013025283813477e-01,2.223539203405380249e-01,8.155597001314163208e-02,-1.975880376994609833e-02,-2.376772835850715637e-02,1.002702340483665466e-01,1.702717393636703491e-01
4.593630135059356689e-02,8.970013260841369629e-02,-3.223790973424911499e-02,2.029046788811683655e-02,7.245745509862899780e-02,-1.232399642467498779e-01,1.095162183046340942e-01,2.774628996849060059e-02,-8.361154794692993164e-02
5.821834877133369446e-02,-3.595499098300933838e-01,-1.287384480237960815e-01,1.780172586441040039e-01,-1.492933034896850586e-01,-1.093352362513542175e-01,1.680267006158828735e-01,1.160606220364570618e-01,1.679304838180541992e-01
1.060123220086097717e-01,-1.771625876426696777e-02,-2.201489955186843872e-01,1.294846832752227783e-01,4.483948275446891785e-02,-2.251198291778564453e-01,1.249385476112365723e-01,-1.428852137178182602e-02,-3.906043991446495056e-02
-2.652172744274139404e-01,1.166475638747215271e-01,8.660266548395156860e-02,-1.315770447254180908e-01,1.499022692441940308e-01,-4.096235707402229309e-02,5.162481963634490967e-02,8.687985688447952271e-02,2.093882299959659576e-02
3.350964188575744629e-02,1.082166433334350586e-01,-4.231533780694007874e-02,-2.169246785342693329e-02,5.046404525637626648e-02,-7.496431469917297363e-02,2.303641289472579956e-02,4.899517074227333069e-02,3.294401243329048157e-02
3.479297757148742676e-01,3.489872813224792480e-01,-2.546508014202117920e-01,2.398475110530853271e-01,-2.842693328857421875e-01,-5.312926173210144043e-01,-6.435661315917968750e-01,-3.669709265232086182e-01,1.860089004039764404e-01
-3.038481175899505615e-01,9.007972478866577148e-02,8.053167164325714111e-02,-1.852362751960754395e-01,2.681699022650718689e-02,1.329758465290069580e-01,-1.333845406770706177e-01,1.232325136661529541e-01,9.851708263158798218e-02
1.653896570205688477e-01,2.032202184200286865e-01,1.540990173816680908e-01,1.073097810149192810e-01,-5.730182677507400513e-02,-6.138690933585166931e-02,-9.086083620786666870e-02,-2.623299062252044678e-01,-2.316084355115890503e-01
4.159101098775863647e-02,8.568767458200454712e-02,-1.760015189647674561e-01,1.846896559000015259e-01,-4.154092445969581604e-02,-2.167607545852661133e-01,1.640112996101379395e-01,1.461045071482658386e-02,-1.205219402909278870e-01
-2.155165374279022217e-01,-6.433627754449844360e-02,-1.843860149383544922e-01,-3.860440850257873535e-02,1.755855083465576172e-01,4.798193275928497314e-02,2.485119923949241638e-02,3.342272341251373291e-02,1.295012533664703369e-01
1.041006948798894882e-02,-8.835861086845397949e-02,7.293494790792465210e-02,8.671285212039947510e-02,1.260377317667007446e-01,-1.291192322969436646e-01,-9.486421197652816772e-02,2.091536857187747955e-02,-1.276525855064392090e-01
7.983269169926643372e-03,1.040828078985214233e-01,1.246702149510383606e-01,-3.296611085534095764e-02,-6.008669734001159668e-02,1.848696768283843994e-01,-3.167015910148620605e-01,-2.660761177539825439e-01,-6.862379610538482666e-03
4.848510399460792542e-02,-1.090365946292877197e-01,-2.771755158901214600e-01,-4.649504646658897400e-02,5.482617765665054321e-02,3.896633908152580261e-02,8.086521923542022705e-02,-1.368279382586479187e-02,2.010025829076766968e-01
2.582283020019531250e-01,-1.042446047067642212e-01,-8.495662361383438110e-02,-3.050621449947357178e-01,-2.780872583389282227e-01,3.630675747990608215e-02,4.526573419570922852e-02,2.141734808683395386e-01,1.388249248266220093e-01
5.239972472190856934e-02,1.023512631654739380e-01,-5.172200500965118408e-02,-2.011290006339550018e-02,3.982192277908325195e-02,-3.466746211051940918e-02,6.343114376068115234e-02,5.132280290126800537e-02,-4.316034913063049316e-02
1.520377993583679199e-01,-1.985810995101928711e-01,-3.517368435859680176e-01,2.477284371852874756e-01,-1.232249587774276733e-01,-5.811706781387329102e-01,9.808380901813507080e-02,9.526672959327697754e-02,-2.657699882984161377e-01
-5.924735590815544128e-02,2.723802067339420319e-02,-2.347779273986816406e-01,1.566299796104431152e-02,1.484386324882507324e-01,1.473159492015838623e-01,-1.832687109708786011e-02,-9.013365209102630615e-02,1.661585830152034760e-02
-2.187481373548507690e-01,8.775057643651962280e-02,-1.950060389935970306e-02,-6.431671231985092163e-02,1.847962141036987305e-01,-2.184452302753925323e-02,-7.432959042489528656e-03,-6.377046555280685425e-02,-1.231259107589721680e-01
3.982600569725036621e-02,-3.609013184905052185e-02,-1.754412949085235596e-01,1.228463947772979736e-01,1.932841241359710693e-01,1.810810267925262451e-01,-1.197995096445083618e-01,-1.359756737947463989e-01,3.210520837455987930e-03
-4.535225033760070801e-02,6.794615089893341064e-02,1.901858020573854446e-03,5.935151129961013794e-02,-4.630238935351371765e-02,-7.221492007374763489e-03,-1.088785156607627869e-01,1.002564281225204468e-01,1.166027504950761795e-02
-2.546897232532501221e-01,9.267421811819076538e-02,3.230547904968261719e-02,-4.612967744469642639e-02,4.869364574551582336e-02,-4.590491950511932373e-02,9.114384651184082031e-02,8.898238837718963623e-02,-6.236432865262031555e-02
-5.550897866487503052e-02,1.701606065034866333e-01,-1.810616701841354370e-01,9.312480688095092773e-02,1.614018678665161133e-01,-6.750444322824478149e-02,-1.589744538068771362e-02,6.985535472631454468e-02,-8.486225455999374390e-02
1.708050817251205444e-01,1.523225009441375732e-02,-7.396529614925384521e-02,1.093000844120979309e-01,-2.218770422041416168e-02,-1.130077242851257324e-01,1.691504269838333130e-01,-1.067428588867187500e-01,-1.795071959495544434e-01
1.682298183441162109e-01,3.492029383778572083e-02,9.363875724375247955e-03,2.058137059211730957e-01,-1.252861320972442627e-01,-1.563368886709213257e-01,-8.261583000421524048e-02,-1.904654800891876221e-01,4.395158588886260986e-02
1.041608396917581558e-02,-9.436668455600738525e-02,-3.711770847439765930e-02,-3.885516896843910217e-02,-1.612277142703533173e-02,-3.209629282355308533e-02,-2.055524662137031555e-02,-8.216395974159240723e-02,-1.720347814261913300e-02
1.310769170522689819e-01,2.276384830474853516e-01,1.565887629985809326e-01,-1.807793527841567993e-01,5.356849171221256256e-03,1.933632344007492065e-01,-3.325096964836120605e-01,-2.611227929592132568e-01,6.022978574037551880e-02
5.788838118314743042e-02,4.883393272757530212e-02,-1.516196429729461670e-01,-7.872537523508071899e-02,3.277964144945144653e-02,9.408964961767196655e-02,7.028379291296005249e-02,-4.498359188437461853e-02,4.356265813112258911e-02
2.063389271497726440e-01,7.832560688257217407e-02,1.251475661993026733e-01,-5.488375201821327209e-02,4.027117416262626648e-02,1.237175241112709045e-02,-2.868809103965759277e-01,-1.495575010776519775e-01,-1.410229206085205078e-01
-1.650015413761138916e-01,-2.487911283969879150e-01,-2.352253347635269165e-02,1.145531684160232544e-01,2.053060233592987061e-01,1.517154723405838013e-01,1.246712058782577515e-01,-2.097821831703186035e-01,-1.359436064958572388e-01
1.407227516174316406e-01,1.669700257480144501e-02,3.091731341555714607e-03,-4.162016883492469788e-02,1.807667464017868042e-01,2.903916500508785248e-02,-2.443907409906387329e-01,-6.076338142156600952e-02,-2.197669632732868195e-02
5.585879087448120117e-02,1.175937503576278687e-01,-1.678340882062911987e-01,8.534911274909973145e-02,-4.586151242256164551e-02,-1.391985565423965454e-01,5.680743139237165451e-03,4.455596581101417542e-02,-1.330926865339279175e-01
1.533200740814208984e-01,1.176215484738349915e-01,2.448650151491165161e-01,-1.499877125024795532e-01,-1.566341370344161987e-01,7.940901070833206177e-02,-3.024087287485599518e-02,-3.088032901287078857e-01,3.314935788512229919e-02
3.962848708033561707e-02,-1.766202002763748169e-01,-9.287181496620178223e-02,-1.057320609688758850e-01,-2.828826010227203369e-02,1.332507580518722534e-01,4.263786971569061279e-02,3.222800791263580322e-02,3.471682965755462646e-02
5.531808361411094666e-02,2.003987580537796021e-01,-3.965592011809349060e-02,-2.339722402393817902e-02,1.867552250623703003e-01,1.239072754979133606e-01,-3.341334760189056396e-01,-1.872468590736389160e-01,-1.564606465399265289e-02
-9.466461092233657837e-02,1.662035286426544189e-01,-1.731627285480499268e-01,-5.496206134557723999e-02,6.731510162353515625e-02,2.493460103869438171e-02,-6.722334772348403931e-02,-3.516456112265586853e-02,3.321431949734687805e-02
-2.593164443969726562e-01,-3.180837333202362061e-01,1.855235919356346130e-02,-3.826104700565338135e-01,1.642363667488098145e-01,2.258516401052474976e-01,-1.931378245353698730e-01,7.587958127260208130e-02,2.268736809492111206e-01
8.490926772356033325e-02,-1.018456071615219116e-01,1.085429266095161438e-01,2.033433467149734497e-01,2.731819264590740204e-02,2.161401063203811646e-01,-3.705883026123046875e-02,-1.990284621715545654e-01,-2.051665782928466797e-01
-1.275283284485340118e-02,2.735827863216400146e-02,-2.756887078285217285e-01,2.217983454465866089e-02,5.428842827677726746e-02,4.058830812573432922e-02,7.819130271673202515e-02,-9.056403301656246185e-03,1.101152747869491577e-01
1.669285893440246582e-01,-1.489627361297607422e-01,-1.511362344026565552e-01,1.515538245439529419e-01,-1.416257023811340332e-01,-1.082549765706062317e-01,4.766019433736801147e-02,6.440161168575286865e-02,-5.259576439857482910e-02
1.867493540048599243e-01,2.108922451734542847e-01,8.073005825281143188e-02,-2.550413645803928375e-02,1.661216467618942261e-02,-8.811672218143939972e-03,-2.131223380565643311e-01,-2.786038815975189209e-01,-7.213576138019561768e-02
1.886538267135620117e-01,5.281775072216987610e-02,1.161107942461967468e-01,1.131661236286163330e-01,9.389754384756088257e-02,5.144334211945533752e-02,-1.519602984189987183e-01,-3.057680726051330566e-01,-2.428134530782699585e-01
-1.174063757061958313e-01,-2.911113798618316650e-01,-3.344103693962097168e-02,-1.315787732601165771e-01,-6.074229255318641663e-02,8.889801055192947388e-02,2.384447157382965088e-01,1.902651190757751465e-01,8.688940107822418213e-02
-1.551814097911119461e-02,1.466369535773992538e-02,3.911615908145904541e-02,9.018833935260772705e-02,7.066605985164642334e-02,-7.131682243198156357e-03,2.279751934111118317e-02,-6.161816045641899109e-02,-2.708966434001922607e-01
-8.081388659775257111e-03,-4.027657210826873779e-02,-1.576275080442428589e-01,1.354332864284515381e-01,3.507801890373229980e-02,1.124147549271583557e-01,-9.641707874834537506e-03,4.604291915893554688e-02,-9.444714337587356567e-02
-1.769092679023742676e-01,-2.660870738327503204e-02,2.775106728076934814e-01,-2.533198595046997070e-01,-7.883245497941970825e-02,2.343550026416778564e-01,-1.719783842563629150e-01,4.142982885241508484e-02,1.464439928531646729e-01
1.695419847965240479e-01,2.244704402983188629e-02,-2.347909212112426758e-01,1.159424781799316406e-01,-2.477174811065196991e-02,1.304186433553695679e-01,6.564942747354507446e-02,1.258437931537628174e-01,-3.641456738114356995e-02
8.047630637884140015e-02,3.508001565933227539e-02,-1.116161346435546875e-01,1.344897747039794922e-01,1.359695941209793091e-01,6.045132130384445190e-02,-1.751254498958587646e-01,-3.387302625924348831e-03,3.341253846883773804e-02
-1.443566381931304932e-01,-1.645490527153015137e-01,1.861375719308853149e-01,-1.990017443895339966e-01,6.174585968255996704e-02,2.309024482965469360e-01,2.997770346701145172e-02,3.435085527598857880e-03,-3.263678029179573059e-02
-3.396164998412132263e-02,-1.390568614006042480e-01,2.939569577574729919e-02,9.055113047361373901e-02,1.061832904815673828e-01,5.001150816679000854e-02,-1.305845528841018677e-01,-1.939959824085235596e-02,-5.160582438111305237e-02
-8.223754167556762695e-02,-1.407873034477233887e-01,3.155291453003883362e-02,1.733322739601135254e-01,4.643881693482398987e-02,1.559898406267166138e-01,-4.185713827610015869e-02,2.665049768984317780e-02,-1.278823167085647583e-01
-2.562270872294902802e-02,-2.580392360687255859e-01,-1.764924079179763794e-01,1.708015203475952148e-01,-1.914733648300170898e-01,-8.053855597972869873e-02,1.948782056570053101e-01,1.391192823648452759e-01,1.496962755918502808e-01
-2.852115333080291748e-01,-1.370006501674652100e-01,1.733199506998062134e-01,1.166085898876190186e-02,2.731418013572692871e-01,1.007019504904747009e-01,5.393894761800765991e-02,4.052038118243217468e-02,-3.581441342830657959e-01
-2.898102402687072754e-01,5.738893896341323853e-02,8.007968217134475708e-02,-9.642729908227920532e-02,1.588183939456939697e-01,1.256345212459564209e-01,5.303033813834190369e-02,2.171324193477630615e-02,-1.290940940380096436e-01
1.585534214973449707e-01,1.084412634372711182e-01,2.237884253263473511e-01,-4.418607801198959351e-02,-4.658770188689231873e-02,-2.235694788396358490e-02,-2.843179702758789062e-01,-3.241718709468841553e-01,-5.557979643344879150e-02
-2.047728151082992554e-01,1.272428482770919800e-01,3.526403754949569702e-02,-1.637831181287765503e-01,3.060268424451351166e-02,6.470121443271636963e-02,-1.502405107021331787e-01,9.837399423122406006e-02,-3.524530306458473206e-02
1.881091892719268799e-01,-2.695282399654388428e-01,-1.137070283293724060e-01,2.022893577814102173e-01,-1.281795054674148560e-01,-2.572391629219055176e-01,6.000118330121040344e-02,3.579977899789810181e-02,-1.621545106172561646e-01
1.420798301696777344e-01,1.499361991882324219e-01,1.309733092784881592e-01,-2.978283539414405823e-02,6.313625723123550415e-03,2.048825658857822418e-02,-2.821145653724670410e-01,-2.400615066289901733e-01,-2.133485861122608185e-02
3.945913538336753845e-02,2.870834432542324066e-02,7.023973762989044189e-02,-1.352015696465969086e-02,3.496916592121124268e-02,-6.536208838224411011e-02,4.742681607604026794e-02,-2.714180387556552887e-02,3.870913386344909668e-02
-3.531408682465553284e-02,1.493307352066040039e-01,-1.872207969427108765e-01,-8.789791166782379150e-02,1.782926619052886963e-01,-1.633610576391220093e-01,-2.026779763400554657e-02,2.401972748339176178e-02,4.609055817127227783e-02
-6.114890053868293762e-02,-3.232529759407043457e-01,-1.687861792743206024e-02,1.952718049287796021e-01,5.947258323431015015e-02,9.264007955789566040e-02,1.085023302584886551e-02,2.325957082211971283e-02,1.452809013426303864e-02
2.195196747779846191e-01,4.752605780959129333e-02,1.460333317518234253e-01,-5.289893969893455505e-02,9.961474686861038208e-02,7.284296676516532898e-03,-2.771843671798706055e-01,-3.031584918498992920e-01,-1.415991038084030151e-01
1.762209692969918251e-03,6.580341607332229614e-02,5.704257264733314514e-02,1.393434852361679077e-01,1.937728673219680786e-01,-2.686409465968608856e-02,1.492528468370437622e-01,-4.002000391483306885e-02,-2.842351198196411133e-01
1.997437886893749237e-02,7.340534776449203491e-02,1.387161202728748322e-02,3.560024499893188477e-02,-3.676944598555564880e-02,-7.552679628133773804e-02,2.734243683516979218e-02,1.358090043067932129e-01,6.715893745422363281e-02
-8.655061572790145874e-02,-3.877970576286315918e-01,-9.006303548812866211e-02,1.670333594083786011e-01,-7.591624557971954346e-02,-7.608278840780258179e-02,1.668725162744522095e-01,2.023894935846328735e-01,1.088555753231048584e-01
5.385857820510864258e-02,1.390485465526580811e-01,2.800724208354949951e-01,-2.554816007614135742e-01,-4.142735004425048828e-01,2.875291043892502785e-03,1.827796846628189087e-01,-1.397314369678497314e-01,2.773093245923519135e-02
2.429079450666904449e-02,-6.310304999351501465e-02,-3.334453105926513672e-01,2.697629667818546295e-02,4.024241119623184204e-02,-6.236014887690544128e-02,-4.147483035922050476e-03,1.446043401956558228e-01,1.915764063596725464e-01
-1.242757663130760193e-01,1.596424132585525513e-01,-2.059396207332611084e-01,-1.246920321136713028e-02,6.858821958303451538e-02,-2.979326993227005005e-02,-8.906447887420654297e-02,4.119657352566719055e-02,4.899026826024055481e-02
-6.250301748514175415e-02,-3.795564472675323486e-01,-5.238340795040130615e-02,7.979187369346618652e-02,-5.989249050617218018e-02,-6.022534891963005066e-02,1.310939937829971313e-01,2.218215316534042358e-01,9.476054459810256958e-02
-7.560198009014129639e-02,2.868029847741127014e-02,-1.844487935304641724e-01,1.161805242300033569e-01,1.771777421236038208e-01,1.453631371259689331e-01,-8.604570478200912476e-02,-8.062332123517990112e-02,2.761968038976192474e-02
1.489161103963851929e-01,4.288676381111145020e-02,-3.479974567890167236e-01,2.182372063398361206e-01,-8.429187349975109100e-03,-3.205766081809997559e-01,1.506273448467254639e-01,2.857717871665954590e-01,1.662949100136756897e-02
5.988683551549911499e-02,6.117203831672668457e-02,-3.716042339801788330e-01,6.986257433891296387e-02,1.201193556189537048e-01,-1.492714583873748779e-01,5.959485098719596863e-02,2.665589153766632080e-01,5.121532455086708069e-02
-2.144967317581176758e-01,-1.172920167446136475e-01,1.020960360765457153e-01,2.189451828598976135e-02,3.997321426868438721e-02,1.347826421260833740e-01,4.765708371996879578e-02,-7.019416987895965576e-02,-1.878226250410079956e-01
9.726782143115997314e-02,1.750511676073074341e-01,8.162774145603179932e-03,-1.526641249656677246e-01,1.780607551336288452e-01,1.651028394699096680e-01,-4.550437331199645996e-01,-2.104943096637725830e-01,2.689009997993707657e-03
-2.259432226419448853e-01,-1.943790540099143982e-02,2.001563161611557007e-01,-1.607607752084732056e-01,-1.009510457515716553e-01,1.797412782907485962e-01,-2.140956670045852661e-01,4.933070018887519836e-02,7.024584803730249405e-03
-2.476892918348312378e-01,-2.673764824867248535e-01,-2.932881936430931091e-02,-2.078334800899028778e-02,-1.005970034748315811e-02,-5.578248202800750732e-02,2.532629072666168213e-01,1.789701879024505615e-01,1.110325381159782410e-01
-8.814200013875961304e-02,1.882127672433853149e-02,-7.654461264610290527e-02,-6.803941726684570312e-02,-4.308595880866050720e-02,-2.949951449409127235e-03,-4.081335291266441345e-02,-9.107346832752227783e-02,-9.139276295900344849e-02
2.957777380943298340e-01,-3.397957980632781982e-01,4.076910018920898438e-02,-3.320701122283935547e-01,-1.967252492904663086e-01,1.202106177806854248e-01,-2.885935902595520020e-01,1.128929294645786285e-02,2.195609807968139648e-01
-7.684072107076644897e-02,1.716523803770542145e-02,7.272251695394515991e-02,9.117904305458068848e-02,5.667726974934339523e-03,-5.080041289329528809e-02,-1.867085695266723633e-02,7.801280915737152100e-02,1.456337887793779373e-02
-1.269960850477218628e-01,1.056760549545288086e-01,1.370870042592287064e-03,6.584911048412322998e-02,7.778763771057128906e-02,-1.500338613986968994e-01,1.855119168758392334e-01,7.597806304693222046e-02,-3.727171421051025391e-01
8.259148895740509033e-02,-6.916885729879140854e-03,-1.089161038398742676e-01,5.849292129278182983e-02,5.468285828828811646e-02,2.109379135072231293e-02,3.066641651093959808e-02,1.403384953737258911e-01,-4.757583513855934143e-02
-1.670839488506317139e-01,-1.791893094778060913e-01,1.274007409811019897e-01,-1.380823850631713867e-01,1.708070486783981323e-01,1.074689626693725586e-01,1.569422185420989990e-01,8.054137974977493286e-02,-2.467609643936157227e-01
1.702088490128517151e-02,1.198856532573699951e-01,1.740964315831661224e-02,-1.339473426342010498e-01,-5.601427517831325531e-03,-3.503232821822166443e-02,-7.316338270902633667e-02,7.945562154054641724e-02,3.089269064366817474e-02
1.569965630769729614e-01,1.551677286624908447e-01,-1.434072554111480713e-01,1.278423219919204712e-01,4.085798561573028564e-02,-2.896215021610260010e-02,1.018576100468635559e-01,1.530791819095611572e-01,-1.520135104656219482e-01
-2.000692859292030334e-02,-7.352553308010101318e-02,3.920534159988164902e-03,9.290909022092819214e-02,1.541819870471954346e-01,1.735899299383163452e-01,-1.539072096347808838e-01,-7.604433596134185791e-02,-1.548898071050643921e-01
8.614905178546905518e-02,2.062424421310424805e-01,-4.671416804194450378e-02,-4.248003941029310226e-03,1.801369190216064453e-01,-2.300217449665069580e-01,-3.771470114588737488e-02,1.731824278831481934e-01,-1.343175470829010010e-01
1.279680281877517700e-01,1.546971797943115234e-01,1.177364885807037354e-01,7.646639645099639893e-02,4.276942461729049683e-02,6.674053519964218140e-02,-2.557130753993988037e-01,-2.582223117351531982e-01,-1.176060885190963745e-01
1.295024901628494263e-01,1.639612317085266113e-01,-8.589439094066619873e-02,-1.487665176391601562e-01,3.077659569680690765e-02,1.006102710962295532e-01,-2.020958811044692993e-01,-8.114010840654373169e-02,1.608299016952514648e-01
-3.559589385986328125e-02,8.121222257614135742e-02,3.619324415922164917e-02,6.204013898968696594e-02,-4.128104075789451599e-02,-4.779834672808647156e-02,9.242216125130653381e-03,1.102071851491928101e-01,3.498062491416931152e-02
-2.486132383346557617e-01,1.006399914622306824e-01,-4.396891221404075623e-03,2.234887331724166870e-02,-1.698601059615612030e-02,-6.605689879506826401e-03,2.293549850583076477e-02,3.472337871789932251e-02,9.035215526819229126e-02
-8.412273228168487549e-02,7.557655125856399536e-02,1.443283259868621826e-01,-3.856365010142326355e-02,5.423527583479881287e-02,2.610352039337158203e-01,-1.785181164741516113e-01,-3.758306801319122314e-01,-1.677365154027938843e-01
-4.452320560812950134e-02,-1.634444296360015869e-01,8.172294497489929199e-02,1.204556077718734741e-01,4.817920178174972534e-02,1.413502842187881470e-01,6.392454355955123901e-02,-5.885985679924488068e-03,-2.375202327966690063e-01
-2.747767567634582520e-01,-5.987497046589851379e-02,1.993902474641799927e-01,-2.290313541889190674e-01,3.054296225309371948e-02,1.988659203052520752e-01,-1.079486384987831116e-01,4.262646194547414780e-03,1.476423442363739014e-01
7.556175440549850464e-02,-9.673731401562690735e-03,-4.106256365776062012e-02,3.009223006665706635e-02,-1.040328219532966614e-01,6.672284752130508423e-02,4.821627587080001831e-02,-1.489419490098953247e-02,3.987324982881546021e-02
2.621978521347045898e-02,-1.195459887385368347e-01,-1.052695959806442261e-01,7.522914558649063110e-02,5.651436746120452881e-03,1.800422668457031250e-01,-2.369314618408679962e-02,-2.794959396123886108e-02,-1.528251022100448608e-01
7.727397233247756958e-02,4.608277231454849243e-02,8.683794736862182617e-02,-2.687906026840209961e-01,-1.458276342600584030e-02,1.558713018894195557e-01,-2.753304839134216309e-01,-1.064583212137222290e-01,1.485970467329025269e-01
-5.148472189903259277e-01,-1.652904003858566284e-01,2.508819103240966797e-02,-3.183439373970031738e-01,7.211689837276935577e-03,3.922162577509880066e-02,-1.904946118593215942e-01,-1.945644058287143707e-02,1.773952096700668335e-01
-3.377941250801086426e-01,-1.368570774793624878e-01,3.729811310768127441e-02,-1.774354130029678345e-01,2.747185900807380676e-02,6.664972752332687378e-02,2.345531284809112549e-01,1.676420718431472778e-01,1.889638975262641907e-02
-1.647418141365051270e-01,1.525885611772537231e-01,6.892286706715822220e-03,-2.458853870630264282e-01,-1.459980662912130356e-02,8.573003858327865601e-02,-1.481589823961257935e-01,1.744646579027175903e-01,1.587015241384506226e-01
-3.881855681538581848e-02,-4.629982411861419678e-01,-2.790592052042484283e-02,-6.369734555482864380e-02,4.048784822225570679e-02,2.352443784475326538e-01,1.256127208471298218e-01,1.525960266590118408e-01,3.564319387078285217e-02
-2.635671384632587433e-02,5.743922293186187744e-02,2.651938796043395996e-02,-1.972262514755129814e-03,2.840075828135013580e-02,6.399360299110412598e-02,-7.484474033117294312e-02,5.052854772657155991e-03,6.265788525342941284e-02
1.134919598698616028e-01,-1.059843003749847412e-01,-3.106359541416168213e-01,1.060162708163261414e-01,2.493318915367126465e-02,3.911165520548820496e-03,6.603494286537170410e-02,9.760285913944244385e-02,1.144775152206420898e-01
6.696649640798568726e-02,1.188987493515014648e-01,3.245782479643821716e-02,9.718081355094909668e-02,1.143124848604202271e-01,3.581415116786956787e-02,7.450203411281108856e-03,3.649939596652984619e-02,2.652248833328485489e-03
-4.313662052154541016e-01,-6.017697453498840332e-01,-3.130538463592529297e-01,-5.147072076797485352e-01,3.075124137103557587e-02,2.282240688800811768e-01,-7.038012146949768066e-02,3.590024113655090332e-01,2.508236467838287354e-01
2.300029695034027100e-01,1.432016342878341675e-01,1.757578849792480469e-01,2.384794056415557861e-01,2.778517268598079681e-02,-3.026551008224487305e-01,1.639696806669235229e-01,-2.429338395595550537e-01,-3.829124569892883301e-01
-4.801323264837265015e-02,5.693640187382698059e-02,1.233863085508346558e-02,1.306716501712799072e-01,1.913820952177047729e-02,6.804060935974121094e-02,6.283471593633294106e-04,-2.146407775580883026e-02,-3.325346857309341431e-02
-1.250957250595092773e-01,3.721070289611816406e-02,-7.871228270232677460e-03,9.436956048011779785e-02,-1.808820478618144989e-02,1.009215638041496277e-01,4.004749283194541931e-02,-6.322558224201202393e-02,6.653324514627456665e-02
2.729210536926984787e-03,-2.376393079757690430e-01,-2.646392285823822021e-01,1.426202207803726196e-01,9.238843619823455811e-02,2.492375969886779785e-01,-4.309422895312309265e-02,7.608067989349365234e-02,-6.315768510103225708e-02
2.386856451630592346e-02,5.780138075351715088e-02,-7.561448961496353149e-02,-2.636298537254333496e-02,4.125668108463287354e-02,7.767458260059356689e-02,-1.589807495474815369e-02,2.567538619041442871e-02,3.785702213644981384e-02
1.300077699124813080e-02,-8.864951133728027344e-02,-3.296803236007690430e-01,4.409890621900558472e-02,-5.612336099147796631e-02,-5.224377289414405823e-02,8.475894480943679810e-02,2.091257274150848389e-01,1.167556941509246826e-01
1.077611520886421204e-01,5.148481950163841248e-02,-3.391580656170845032e-02,-9.143611043691635132e-02,-3.650467470288276672e-02,-2.915917709469795227e-02,8.336483500897884369e-03,-2.085781097412109375e-02,-4.818451404571533203e-02
1.079042032361030579e-01,9.696263074874877930e-02,1.631949394941329956e-01,-1.257883012294769287e-01,1.764661073684692383e-02,1.776189655065536499e-01,-2.880845963954925537e-01,-3.199893236160278320e-01,-1.176081672310829163e-01
1.544365733861923218e-01,-1.893273293972015381e-01,-4.312266409397125244e-01,3.074737191200256348e-01,-1.447257101535797119e-01,-1.269619166851043701e-01,2.921984791755676270e-01,6.896530091762542725e-02,3.086744435131549835e-02
-1.748884320259094238e-01,-1.892115473747253418e-01,7.631689310073852539e-02,-3.705221414566040039e-01,8.793355897068977356e-03,2.029318213462829590e-01,-1.712050102651119232e-02,2.879902422428131104e-01,1.140261739492416382e-01
-1.011630073189735413e-01,-3.315986096858978271e-01,-7.023965939879417419e-03,1.714686602354049683e-01,7.047069817781448364e-02,7.075533270835876465e-02,6.541445851325988770e-02,8.552541583776473999e-02,-5.660209432244300842e-02
4.142510890960693359e-02,9.408245980739593506e-02,-2.088603526353836060e-01,6.201995909214019775e-02,1.307065784931182861e-01,1.707041859626770020e-01,-2.486517876386642456e-01,-4.647613689303398132e-02,8.617185987532138824e-03
-3.080566786229610443e-02,3.694096207618713379e-02,8.419713377952575684e-02,1.577924340963363647e-01,7.073014229536056519e-02,-1.687541455030441284e-01,2.556539326906204224e-02,-8.242903649806976318e-02,-1.603225171566009521e-01
-8.726894110441207886e-02,9.210598468780517578e-02,5.339828878641128540e-02,7.062149047851562500e-02,2.040917612612247467e-02,2.644187211990356445e-02,-4.062171280384063721e-02,5.953291803598403931e-02,6.249764934182167053e-02
5.356672778725624084e-02,1.385667920112609863e-02,4.642461612820625305e-02,-6.921681016683578491e-02,3.663771599531173706e-02,-7.504682987928390503e-02,-1.568457335233688354e-01,2.189819887280464172e-02,-2.628091908991336823e-02
1.171661466360092163e-01,1.551922857761383057e-01,4.373819380998611450e-02,-1.474444568157196045e-01,1.373685449361801147e-01,1.197498515248298645e-01,-2.886390089988708496e-01,-2.361027449369430542e-01,1.544206589460372925e-01
8.281581848859786987e-02,1.044327542185783386e-01,-3.009971380233764648e-01,1.138721108436584473e-01,7.414701581001281738e-02,-2.045567184686660767e-01,7.208293676376342773e-02,2.376420646905899048e-01,-2.186287194490432739e-02
9.688338637351989746e-02,3.516390174627304077e-02,2.252940833568572998e-02,3.335584700107574463e-02,-5.083949118852615356e-02,-2.592976577579975128e-02,7.082884758710861206e-02,6.239160150289535522e-02,-9.381673485040664673e-02
-1.307981610298156738e-01,4.710549116134643555e-02,2.312511950731277466e-02,7.155601680278778076e-02,-8.550966531038284302e-02,-3.425541892647743225e-02,2.806374058127403259e-02,-1.071725785732269287e-01,1.022767554968595505e-02
-3.258956968784332275e-01,9.970975108444690704e-03,5.251183360815048218e-02,7.077455520629882812e-02,2.619257569313049316e-01,7.709224522113800049e-02,-1.057665422558784485e-02,-1.467740442603826523e-02,-3.233080208301544189e-01
5.030995234847068787e-02,9.950313717126846313e-02,-1.834069788455963135e-01,-3.216612339019775391e-02,1.215256303548812866e-01,1.578469425439834595e-01,-1.549501717090606689e-01,-1.287586838006973267e-01,-4.362491145730018616e-02
-2.248641252517700195e-01,-1.055823490023612976e-01,1.812189668416976929e-01,-2.680659294128417969e-01,1.024055555462837219e-01,6.893740594387054443e-02,-2.778406254947185516e-02,1.915091425180435181e-01,5.365533754229545593e-02
-1.923279762268066406e-01,-2.827565670013427734e-01,8.036123216152191162e-02,3.282701969146728516e-02,1.662425696849822998e-01,5.357743799686431885e-02,1.546409577131271362e-01,-6.186968088150024414e-02,1.875184662640094757e-02
-2.422701120376586914e-01,1.133931577205657959e-01,5.451123230159282684e-03,2.600563503801822662e-02,1.956080794334411621e-01,-1.202684640884399414e-01,2.284248471260070801e-01,-6.507211178541183472e-02,-2.720213234424591064e-01
-9.938107803463935852e-03,1.489839404821395874e-01,2.172565013170242310e-01,-3.293404281139373779e-01,-5.101208686828613281e-01,-2.059337943792343140e-01,1.155687421560287476e-01,1.088099256157875061e-01,-1.361828148365020752e-01
-5.255815759301185608e-02,-3.314349800348281860e-02,-1.030102446675300598e-01,1.683692261576652527e-02,4.137207195162773132e-02,1.100695282220840454e-01,-1.950563676655292511e-02,-1.717601567506790161e-01,2.440668642520904541e-02
1.090670898556709290e-01,-6.088690087199211121e-02,2.647615596652030945e-02,-4.645767807960510254e-02,-1.006843149662017822e-01,8.198886364698410034e-02,3.198611736297607422e-02,1.319891810417175293e-01,-6.514834612607955933e-02
1.372366845607757568e-01,1.121631264686584473e-01,-5.012427642941474915e-02,3.587171807885169983e-02,-5.036262050271034241e-02,-4.199964459985494614e-03,4.289609938859939575e-02,-8.791087195277214050e-03,1.262632608413696289e-01
-8.906373381614685059e-02,-3.848493993282318115e-01,-1.478716880083084106e-01,2.089072912931442261e-01,-4.618949070572853088e-02,-3.679058980196714401e-03,1.595003604888916016e-01,1.506935060024261475e-01,8.752685785293579102e-02
1.361150443553924561e-01,-2.044227207079529762e-03,-5.537289753556251526e-02,1.449294686317443848e-01,1.389586329460144043e-01,6.366898119449615479e-02,-5.704860016703605652e-02,1.810730062425136566e-02,2.556421793997287750e-02
6.349094957113265991e-02,-2.078333348035812378e-01,1.966647207736968994e-01,-1.992322057485580444e-01,-1.952936500310897827e-01,1.050114333629608154e-01,-1.399137973785400391e-01,8.494744449853897095e-02,1.295411735773086548e-01
-4.637233167886734009e-02,-4.745408892631530762e-02,-2.323122769594192505e-01,1.393927037715911865e-01,2.529999613761901855e-01,7.822491973638534546e-02,-2.006916552782058716e-01,-9.453513473272323608e-02,7.965249009430408478e-03
8.380974829196929932e-02,4.626484215259552002e-02,5.667817220091819763e-02,1.334517356008291245e-02,4.732421785593032837e-02,1.158374696969985962e-01,6.936363130807876587e-02,3.828217461705207825e-02,-3.513849526643753052e-02
1.325149834156036377e-01,1.559549868106842041e-01,2.626227736473083496e-01,1.529597584158182144e-02,-2.862488292157649994e-02,1.142593100666999817e-01,-2.433760464191436768e-01,-3.509214818477630615e-01,-5.437912046909332275e-02
-2.476662583649158478e-02,-5.257565155625343323e-02,-2.182936370372772217e-01,6.732073426246643066e-02,2.091303020715713501e-01,5.945987626910209656e-02,-2.507195472717285156e-01,-6.902316957712173462e-02,3.876363858580589294e-02
4.185022786259651184e-03,-7.577911764383316040e-02,-8.842191100120544434e-02,9.472670964896678925e-03,8.961053192615509033e-02,-1.090392246842384338e-01,-9.626284241676330566e-02,8.586664497852325439e-02,8.473275601863861084e-02
-1.326380968093872070e-01,1.244556680321693420e-01,2.195237576961517334e-01,-3.362892568111419678e-01,-4.905647039413452148e-01,-1.549760699272155762e-01,1.946767568588256836e-01,8.637142926454544067e-02,-1.550850719213485718e-01
2.104276418685913086e-02,1.815487891435623169e-01,2.571721374988555908e-01,-2.370447814464569092e-01,-1.365684866905212402e-01,5.004612263292074203e-03,-5.464830398559570312e-01,-4.816582202911376953e-01,-2.571223676204681396e-01
1.662614643573760986e-01,2.033313363790512085e-01,1.747996956110000610e-01,-6.003160029649734497e-02,1.424449495971202850e-02,2.962076850235462189e-02,-1.317821890115737915e-01,-3.648141324520111084e-01,-3.873011469841003418e-02
9.849293157458305359e-03,-1.188594195991754532e-02,-2.439782172441482544e-01,1.232336834073066711e-01,1.150342822074890137e-01,-1.603742390871047974e-01,5.591959133744239807e-02,3.026704303920269012e-02,-6.041774153709411621e-02
-1.009512599557638168e-02,-1.151256915181875229e-02,6.430973857641220093e-02,8.266182243824005127e-02,-2.137161418795585632e-02,3.051231801509857178e-01,-2.258355617523193359e-01,-3.939787149429321289e-01,1.376041173934936523e-01
-4.027232527732849121e-03,-4.255503416061401367e-02,-8.230068534612655640e-02,-9.005561470985412598e-02,-1.014658994972705841e-02,1.536670257337391376e-03,-4.758709296584129333e-02,-5.232324823737144470e-02,-2.297471836209297180e-02
-1.616105139255523682e-01,-1.328984051942825317e-01,2.429858595132827759e-01,-2.665487229824066162e-01,1.585363410413265228e-02,2.125595659017562866e-01,-1.280470341444015503e-01,1.035823002457618713e-01,1.118681207299232483e-01
2.451099753379821777e-01,-2.406028956174850464e-01,-3.626614511013031006e-01,-6.500126123428344727e-01,-4.093115627765655518e-01,-1.064069662243127823e-02,-1.577810794115066528e-01,3.178531527519226074e-01,3.447084128856658936e-01
-1.378201842308044434e-01,-2.339712157845497131e-02,1.848968304693698883e-02,1.179002076387405396e-01,2.014591395854949951e-01,3.935628756880760193e-02,1.085383370518684387e-01,-1.797996759414672852e-01,-2.303109019994735718e-01
8.056481927633285522e-02,4.740117117762565613e-02,1.645359545946121216e-01,1.656871289014816284e-01,1.268594264984130859e-01,7.200164347887039185e-02,-2.226603776216506958e-01,-2.768130004405975342e-01,-2.473143935203552246e-01
-3.473594486713409424e-01,-4.445071816444396973e-01,-2.401135712862014771e-01,-1.921022832393646240e-01,3.927278891205787659e-02,9.597800672054290771e-02,3.353314846754074097e-02,1.919647902250289917e-01,2.449313849210739136e-01
7.245490700006484985e-02,2.575794979929924011e-02,3.306689113378524780e-02,1.112595293670892715e-02,7.076115161180496216e-02,-1.752938609570264816e-03,9.538149833679199219e-02,-2.147253043949604034e-02,-1.074394583702087402e-01
-1.779643297195434570e-01,2.812513895332813263e-02,-7.898594439029693604e-02,1.034862846136093140e-01,1.609267443418502808e-01,1.438154559582471848e-02,-1.822209358215332031e-01,-8.078209310770034790e-02,-1.099551375955343246e-02
1.655815541744232178e-01,-9.680254012346267700e-02,-2.691002488136291504e-01,2.031918764114379883e-01,-4.674718156456947327e-02,-2.676768302917480469e-01,2.439780347049236298e-02,1.815488189458847046e-01,-7.850531488656997681e-02
-1.979639828205108643e-01,-3.735681995749473572e-02,2.713126242160797119e-01,-2.621271610260009766e-01,-7.225105911493301392e-02,1.984294652938842773e-01,-2.625896930694580078e-01,-7.697466015815734863e-02,1.573229432106018066e-01
1.360928290523588657e-03,9.003221243619918823e-02,2.828933894634246826e-01,-1.662518084049224854e-02,-1.447692960500717163e-01,7.402262836694717407e-02,1.889339238405227661e-01,-3.921234607696533203e-01,-1.139971986413002014e-01
1.140815839171409607e-01,1.053748726844787598e-01,-2.063983976840972900e-01,3.997724503278732300e-02,8.841370046138763428e-02,4.025742411613464355e-02,-1.092178653925657272e-02,1.323825865983963013e-01,-9.602553397417068481e-02
-4.566891863942146301e-02,2.206057906150817871e-01,-9.545255452394485474e-02,-2.725672721862792969e-01,1.296343803405761719e-01,5.962627753615379333e-02,-2.182476818561553955e-01,1.062422096729278564e-01,1.298287063837051392e-01
-1.829445064067840576e-01,-2.292941063642501831e-01,2.323731034994125366e-02,1.789027303457260132e-01,-1.516803354024887085e-01,-2.310900092124938965e-01,2.441753000020980835e-01,1.990725547075271606e-01,5.332620069384574890e-02
1.786755174398422241e-01,1.896468251943588257e-01,7.671022415161132812e-02,-1.046248301863670349e-01,7.531426101922988892e-02,9.830007702112197876e-02,-1.585812121629714966e-01,-2.746624052524566650e-01,-8.693249523639678955e-02
2.468967288732528687e-01,2.578566670417785645e-01,9.087497740983963013e-02,4.327102378010749817e-02,-7.038474082946777344e-02,3.742467239499092102e-02,-2.732714116573333740e-01,-2.415257245302200317e-01,-1.201937943696975708e-01
6.363534182310104370e-02,1.325496435165405273e-01,-9.543295949697494507e-02,4.289586842060089111e-02,6.286016106605529785e-02,1.456420402973890305e-02,3.834499220829457045e-04,9.768176078796386719e-02,1.260869503021240234e-01
-1.698570847511291504e-01,1.220522746443748474e-01,-1.703922450542449951e-02,4.616776481270790100e-02,7.283608615398406982e-02,-7.895970344543457031e-02,2.948178164660930634e-02,-7.754527614451944828e-04,-8.850857615470886230e-02
1.255666557699441910e-02,8.393125981092453003e-02,-3.877042606472969055e-02,6.199290603399276733e-02,7.717800885438919067e-02,-9.667497128248214722e-02,-7.380397617816925049e-02,1.016872525215148926e-01,7.890732586383819580e-02
8.383346349000930786e-02,-2.118385732173919678e-01,1.422999352216720581e-01,7.624549418687820435e-02,-1.528763175010681152e-01,1.625863611698150635e-01,1.162250339984893799e-01,-1.158802658319473267e-01,-8.898520469665527344e-02
1.512356698513031006e-01,1.361597478389739990e-01,-2.176577784121036530e-02,1.687969267368316650e-01,-6.179825961589813232e-02,-2.183358222246170044e-01,4.978684708476066589e-03,-1.369597166776657104e-01,-1.464930176734924316e-02
7.967136055231094360e-02,-5.595029890537261963e-02,-2.524934411048889160e-01,8.566704392433166504e-02,9.855674207210540771e-02,-4.478443786501884460e-02,-5.006331950426101685e-02,2.101168408989906311e-02,1.130006015300750732e-01
8.609780925326049328e-04,-2.774174697697162628e-02,1.772289723157882690e-01,1.570593863725662231e-01,8.350872993469238281e-02,-2.821865305304527283e-02,-7.239951938390731812e-02,-1.254832148551940918e-01,-3.112412095069885254e-01
-1.137361228466033936e-01,3.806481882929801941e-02,2.914533019065856934e-02,-3.536137565970420837e-02,-2.840987779200077057e-02,5.709778144955635071e-02,1.281858235597610474e-01,-7.463058829307556152e-02,7.014591246843338013e-02
-1.551065295934677124e-01,-3.889786303043365479e-01,-2.771678268909454346e-01,2.268025279045104980e-01,7.809226959943771362e-02,-1.526650190353393555e-01,3.018507957458496094e-01,1.576506644487380981e-01,1.012860760092735291e-01
-1.386197507381439209e-01,-2.673928439617156982e-01,-1.305214911699295044e-01,-7.426750659942626953e-02,-4.571980796754360199e-03,1.061291694641113281e-01,2.361170351505279541e-01,1.588974595069885254e-01,5.331043154001235962e-02
-2.714045047760009766e-01,-5.300987884402275085e-02,9.397992491722106934e-02,1.304356902837753296e-01,1.312925964593887329e-01,-5.637837108224630356e-03,-1.165370121598243713e-01,2.676703222095966339e-02,-3.122033923864364624e-02
-1.914278566837310791e-01,-4.221288561820983887e-01,-1.139868944883346558e-01,6.823077052831649780e-02,1.870292355306446552e-03,-3.150072693824768066e-02,1.851633638143539429e-01,2.759702503681182861e-01,1.068409085273742676e-01
-3.490450680255889893e-01,-1.651861220598220825e-01,-8.901262655854225159e-03,-9.590272605419158936e-02,4.004857689142227173e-02,1.945827454328536987e-01,3.359317481517791748e-01,8.859920501708984375e-02,-7.761861383914947510e-02
1.643732190132141113e-01,1.543839722871780396e-01,-1.925874948501586914e-01,1.952288746833801270e-01,2.358669973909854889e-02,-3.601840734481811523e-01,3.840740770101547241e-02,1.349831223487854004e-01,-1.728428155183792114e-01
3.623196780681610107e-01,-1.020013540983200073e-01,-8.075071871280670166e-02,-1.082433685660362244e-01,-4.743637144565582275e-01,2.653836831450462341e-02,-5.418272614479064941e-01,2.430617250502109528e-02,2.887659668922424316e-01
-2.883226871490478516e-01,-3.873929083347320557e-01,-2.924004569649696350e-02,-1.276446729898452759e-01,2.264883816242218018e-01,2.694606781005859375e-01,9.995226562023162842e-02,2.367783635854721069e-01,-7.376301568001508713e-03
-6.879278272390365601e-02,-1.496230810880661011e-01,6.668233126401901245e-02,-1.041284576058387756e-02,1.156567186117172241e-01,-3.516180207952857018e-03,-5.196158587932586670e-02,4.815224930644035339e-02,-1.902980506420135498e-01
6.656199693679809570e-02,-1.477232277393341064e-01,-3.034041225910186768e-01,2.708731591701507568e-01,1.380817443132400513e-01,6.021726503968238831e-02,1.964868791401386261e-02,1.806155033409595490e-02,1.696449518203735352e-02
2.535272538661956787e-01,3.644562363624572754e-01,8.082148432731628418e-02,2.301560044288635254e-01,-1.821714267134666443e-02,-4.028938710689544678e-01,7.333765737712383270e-03,-3.835183382034301758e-01,-1.758174747228622437e-01
2.315120957791805267e-02,1.207477301359176636e-01,2.526070736348628998e-02,1.191558316349983215e-02,-4.997852817177772522e-02,3.552876040339469910e-02,4.499212279915809631e-02,6.142255663871765137e-02,7.974737137556076050e-02
-1.799944639205932617e-01,-3.011354804039001465e-01,-1.043834164738655090e-01,-8.623233065009117126e-03,7.170119881629943848e-02,8.187412470579147339e-02,1.226288750767707825e-01,1.167835295200347900e-01,8.341901749372482300e-02
7.765024155378341675e-02,-1.352852582931518555e-01,1.238808035850524902e-02,-2.050125598907470703e-02,-4.876838624477386475e-02,-4.293999820947647095e-02,2.042640000581741333e-03,1.801499724388122559e-02,-2.409508451819419861e-02
-4.632591083645820618e-02,1.071461960673332214e-01,2.323578000068664551e-01,-1.965463906526565552e-02,-1.025363802909851074e-01,7.838090509176254272e-02,-4.030705988407135010e-02,-3.405960202217102051e-01,6.260209530591964722e-02
-6.089179217815399170e-02,-3.689044713973999023e-01,-1.221690848469734192e-01,-4.678237438201904297e-02,-7.399426400661468506e-02,1.496769338846206665e-01,4.435501247644424438e-02,2.507902383804321289e-01,9.746468812227249146e-02
-3.598679900169372559e-01,-1.715423166751861572e-01,1.823601126670837402e-01,-1.195728033781051636e-01,2.005381584167480469e-01,1.709735393524169922e-01,1.702783554792404175e-01,1.629347056150436401e-01,2.242749929428100586e-02
-4.318758845329284668e-01,-3.254625499248504639e-01,-2.199978753924369812e-02,-2.276080995798110962e-01,-2.826973609626293182e-02,1.032181233167648315e-01,8.665143698453903198e-02,1.088476479053497314e-01,1.916493177413940430e-01
-5.621717497706413269e-02,1.135552078485488892e-01,7.566714286804199219e-02,-1.064801737666130066e-01,8.432261645793914795e-02,5.542545393109321594e-02,-1.038302779197692871e-01,7.477895170450210571e-02,5.538526177406311035e-02
2.286539673805236816e-01,9.792521595954895020e-02,2.181522399187088013e-01,-1.116860285401344299e-02,7.833904027938842773e-02,-7.790603488683700562e-02,-1.837009191513061523e-01,-2.516419291496276855e-01,-1.284221857786178589e-01
9.939974546432495117e-02,2.114385813474655151e-01,-1.727271974086761475e-01,1.725357770919799805e-01,-6.386774126440286636e-03,-3.369545042514801025e-01,-5.699505656957626343e-02,9.780211001634597778e-02,-6.210612133145332336e-03
3.362457826733589172e-02,2.184449583292007446e-01,1.019499897956848145e-01,-1.390209496021270752e-01,-2.182854805141687393e-03,1.269365251064300537e-01,-2.473706752061843872e-01,-2.008396834135055542e-01,4.096821695566177368e-02
-5.539095029234886169e-02,1.336891800165176392e-01,-3.737925365567207336e-02,-8.941080421209335327e-02,9.656401723623275757e-02,-1.330108474940061569e-02,7.371276617050170898e-02,-1.338178198784589767e-02,1.769885979592800140e-02
1.232547163963317871e-01,-7.175993174314498901e-02,-2.968150973320007324e-01,1.437319517135620117e-01,1.912727653980255127e-01,-6.812291592359542847e-02,-1.021440774202346802e-01,5.620679631829261780e-02,6.825351715087890625e-02
2.032143622636795044e-02,1.159265711903572083e-01,-2.729217708110809326e-01,-5.280091241002082825e-02,1.548342257738113403e-01,-7.970998436212539673e-02,-7.173581421375274658e-02,1.476487070322036743e-01,5.191771313548088074e-02
-8.656283468008041382e-02,-3.308076858520507812e-01,-1.267763823270797729e-01,7.545642554759979248e-02,1.054671928286552429e-01,2.000919543206691742e-02,1.564821153879165649e-01,8.771115541458129883e-02,2.855905517935752869e-02
7.692659646272659302e-02,-5.545375123620033264e-02,8.750101551413536072e-03,2.832785993814468384e-02,1.280758678913116455e-01,9.445365518331527710e-02,-2.376772463321685791e-01,-1.628513336181640625e-01,-4.418035503476858139e-03
-2.093795388936996460e-01,-8.462129160761833191e-03,2.176362574100494385e-01,-3.892828524112701416e-01,-7.589146494865417480e-02,2.365885376930236816e-01,-2.601478397846221924e-01,-6.454439461231231689e-02,6.903745234012603760e-02
-1.376712471246719360e-01,8.653392642736434937e-02,-1.052604317665100098e-01,-1.631870307028293610e-02,1.244905740022659302e-01,2.656854130327701569e-02,-8.899040520191192627e-02,1.809304952621459961e-02,-6.432421505451202393e-03
7.735814899206161499e-02,-1.143691539764404297e-01,-6.753970682621002197e-02,4.816723521798849106e-03,-2.657215856015682220e-02,1.476227045059204102e-01,4.922656342387199402e-02,-1.402101572602987289e-02,-8.728753030300140381e-02
1.813227869570255280e-02,-3.916756436228752136e-02,-2.979302033782005310e-02,2.113658934831619263e-01,9.328956156969070435e-02,4.177067801356315613e-02,-6.434141844511032104e-02,-1.593118160963058472e-01,-2.846775949001312256e-01
6.114398315548896790e-02,3.913710825145244598e-03,-2.554613947868347168e-01,1.247473284602165222e-01,1.747257448732852936e-02,5.802588164806365967e-02,-9.127059578895568848e-02,1.080909045413136482e-03,3.211839497089385986e-02
4.157127067446708679e-02,-9.326277673244476318e-02,1.100665405392646790e-01,1.309055685997009277e-01,6.021009758114814758e-02,5.311614274978637695e-02,6.591843813657760620e-02,-1.277129650115966797e-01,-1.916364580392837524e-02
-1.847500801086425781e-01,4.581774026155471802e-02,1.345344334840774536e-01,-2.725534141063690186e-01,4.911648109555244446e-02,7.733813673257827759e-02,-1.349415332078933716e-01,1.515450179576873779e-01,-1.702378876507282257e-02
8.716370910406112671e-02,-1.050415709614753723e-01,7.857231795787811279e-02,3.881813213229179382e-02,8.824131637811660767e-02,5.529918894171714783e-02,3.361722454428672791e-02,-7.997216284275054932e-02,-5.304668098688125610e-02
7.713766396045684814e-02,1.034953445196151733e-01,6.621970236301422119e-02,-4.296963103115558624e-03,7.970342785120010376e-02,1.845727674663066864e-02,6.189301982522010803e-02,-1.471329014748334885e-02,3.532565757632255554e-02
1.759792864322662354e-01,4.689180105924606323e-02,-1.882061958312988281e-01,2.314886301755905151e-01,2.121560089290142059e-02,-3.084035515785217285e-01,9.058954566717147827e-02,1.477688737213611603e-02,-1.051837727427482605e-01
-2.884374856948852539e-01,-3.885909914970397949e-02,2.281218301504850388e-03,1.342728734016418457e-01,1.776451170444488525e-01,2.148544490337371826e-01,-8.852206170558929443e-02,3.865519538521766663e-03,-2.650877535343170166e-01
1.181145161390304565e-01,5.591895803809165955e-02,1.392610818147659302e-01,-1.258266624063253403e-02,-2.543056197464466095e-02,3.353159502148628235e-02,-1.877553015947341919e-01,-2.158624231815338135e-01,5.303346738219261169e-02
-7.839377969503402710e-03,1.058656126260757446e-01,9.710887446999549866e-03,1.444888208061456680e-02,3.098105452954769135e-02,2.019742876291275024e-02,4.568016529083251953e-02,9.370858222246170044e-02,-1.204871200025081635e-02
8.452018955722451210e-04,1.784484982490539551e-01,3.025737702846527100e-01,-3.112429678440093994e-01,-1.473362296819686890e-01,2.745845317840576172e-01,-1.793026030063629150e-01,-2.105911225080490112e-01,2.799160778522491455e-02
6.293836236000061035e-02,-2.214006930589675903e-01,-4.142164587974548340e-01,2.957479655742645264e-01,8.027215301990509033e-02,-3.596958220005035400e-01,1.518965810537338257e-01,3.880541622638702393e-01,6.384953111410140991e-02
9.950675070285797119e-02,-5.269546061754226685e-02,-1.616797000169754028e-01,-2.931618317961692810e-02,-2.181596159934997559e-01,-9.238181263208389282e-02,4.426797479391098022e-02,1.819501370191574097e-01,2.063964158296585083e-01
1.172507479786872864e-01,2.628114074468612671e-02,-3.092390671372413635e-02,7.526911050081253052e-02,-2.725474303588271141e-03,-8.526895940303802490e-02,-1.955281011760234833e-02,1.317563056945800781e-01,-5.860615149140357971e-02
1.020039767026901245e-01,-9.064806252717971802e-02,2.369053289294242859e-02,3.201784938573837280e-02,-3.878634795546531677e-02,1.064845398068428040e-01,7.482393085956573486e-02,-7.650997489690780640e-02,4.898544773459434509e-02
-1.326692849397659302e-02,-3.437970876693725586e-01,-8.538427948951721191e-02,1.320527940988540649e-01,-4.483532533049583435e-02,-4.193062707781791687e-02,1.491254474967718124e-02,2.018681913614273071e-01,8.843567967414855957e-02
1.225523650646209717e-01,7.419247925281524658e-02,1.217343956232070923e-01,2.401828207075595856e-02,6.030223146080970764e-02,1.015355587005615234e-01,-2.035086601972579956e-01,-1.507524400949478149e-01,-2.281033098697662354e-01
9.219408035278320312e-02,-1.593187451362609863e-02,-8.575451374053955078e-02,8.141960948705673218e-02,3.306439518928527832e-02,1.916971206665039062e-01,-9.120028465986251831e-02,-4.309267550706863403e-02,4.191653430461883545e-02
-7.190344622358679771e-04,-2.240244746208190918e-01,1.600230671465396881e-02,-6.859764456748962402e-02,-1.022089645266532898e-01,-7.191524654626846313e-02,2.454047799110412598e-01,1.343250274658203125e-01,1.956892013549804688e-02
2.391425669193267822e-01,8.001746982336044312e-02,1.319922655820846558e-01,-3.879873082041740417e-02,3.428139910101890564e-02,1.228223368525505066e-01,-1.655617058277130127e-01,-2.439399510622024536e-01,-1.422067880630493164e-01
3.268634527921676636e-02,1.285432726144790649e-01,1.054474860429763794e-01,3.706634417176246643e-02,7.355584949254989624e-02,7.497768104076385498e-02,-2.406485229730606079e-01,-2.308807671070098877e-01,-6.485328078269958496e-02
-6.793432682752609253e-02,-1.504810601472854614e-01,-1.855460405349731445e-01,1.555203050374984741e-01,2.580459117889404297e-01,5.931190401315689087e-02,-2.623887956142425537e-01,-3.373803943395614624e-02,-1.015868596732616425e-02
2.111424803733825684e-01,1.487524807453155518e-01,1.150773391127586365e-01,-2.950106747448444366e-02,2.241368219256401062e-02,7.797302212566137314e-03,-2.108005732297897339e-01,-2.221083790063858032e-01,-1.504130810499191284e-01
3.489991277456283569e-02,1.471325308084487915e-01,1.817179284989833832e-02,7.685299497097730637e-03,7.101370394229888916e-02,-9.012569487094879150e-02,1.293205842375755310e-02,2.858096733689308167e-02,-1.465091295540332794e-02
7.256563007831573486e-02,7.873607426881790161e-02,4.250188544392585754e-02,-2.016212642192840576e-01,-1.006766408681869507e-02,1.570058241486549377e-02,-1.316736936569213867e-01,1.553775370121002197e-01,-1.033912179991602898e-03
-1.411168556660413742e-02,-3.031112253665924072e-01,-1.098615452647209167e-01,-5.315513163805007935e-02,6.153229624032974243e-02,-4.770363867282867432e-02,1.488538384437561035e-01,1.390737891197204590e-01,1.622087657451629639e-01
-7.646571099758148193e-02,8.451195061206817627e-02,-1.258690357208251953e-01,1.286930888891220093e-01,-3.565547615289688110e-02,1.087343767285346985e-01,-4.934418201446533203e-02,-3.788466379046440125e-02,-8.470310270786285400e-02
2.726511284708976746e-02,-2.273554950952529907e-01,-1.752982437610626221e-01,1.340257674455642700e-01,-5.157706514000892639e-02,-1.551010459661483765e-01,1.212243586778640747e-01,1.622688770294189453e-01,1.203238368034362793e-01
1.078422516584396362e-01,3.686006367206573486e-02,-1.363356858491897583e-01,1.487291902303695679e-01,-6.556927412748336792e-02,-1.898671090602874756e-01,1.076356768608093262e-01,9.058021754026412964e-02,-9.665689617395401001e-02
1.124608591198921204e-01,2.274378091096878052e-01,1.088696867227554321e-01,-3.217247426509857178e-01,-4.196490049362182617e-01,-2.698200047016143799e-01,9.256114065647125244e-02,3.878214210271835327e-02,5.801459774374961853e-02
-2.919219732284545898e-01,-3.374235332012176514e-01,1.202204450964927673e-01,-3.137624561786651611e-01,8.863896364346146584e-04,2.304611653089523315e-01,1.645439118146896362e-01,2.337746173143386841e-01,1.466457098722457886e-01
1.547975689172744751e-01,1.105130091309547424e-01,1.146634519100189209e-01,-1.521582007408142090e-01,-1.319538354873657227e-01,-1.219215914607048035e-01,-5.539356917142868042e-02,-7.815794646739959717e-02,7.831298559904098511e-02
1.862857341766357422e-01,-3.970286995172500610e-02,-1.817685663700103760e-01,1.619272977113723755e-01,4.332978278398513794e-02,-2.548880577087402344e-01,1.212655156850814819e-01,5.694573000073432922e-02,-7.956719398498535156e-02
2.410138696432113647e-01,8.159168809652328491e-02,-2.694620937108993530e-02,-1.067004650831222534e-01,1.061090826988220215e-01,4.978157579898834229e-02,-3.024443686008453369e-01,-1.577690690755844116e-01,1.859244406223297119e-01
-3.910735994577407837e-02,-2.465201318264007568e-01,-2.054649144411087036e-01,1.427475810050964355e-01,6.483311299234628677e-03,-3.002371266484260559e-02,1.462666839361190796e-01,1.551019144244492054e-03,8.467031270265579224e-02
-3.139294981956481934e-01,1.249672397971153259e-01,1.306608170270919800e-01,7.019384950399398804e-02,1.795198619365692139e-01,-5.887631326913833618e-02,-2.395344665274024010e-03,-1.841418445110321045e-02,-1.073819100856781006e-01
-2.735944390296936035e-01,-3.001993000507354736e-01,5.733295902609825134e-02,-3.845271468162536621e-01,8.932952582836151123e-02,2.599438726902008057e-01,-9.132517874240875244e-02,1.840722560882568359e-01,1.649968773126602173e-01
-5.576194450259208679e-02,2.627255618572235107e-01,8.012267947196960449e-02,1.777802221477031708e-02,-3.637827560305595398e-02,-6.684221327304840088e-02,2.060591131448745728e-01,-1.856816560029983521e-01,-2.383386492729187012e-01
-2.139792293310165405e-01,-3.604906499385833740e-01,-1.066977903246879578e-01,-4.523147642612457275e-02,1.462564915418624878e-01,8.245326578617095947e-02,1.683747321367263794e-01,6.726773083209991455e-02,1.346236318349838257e-01
-2.446617782115936279e-01,1.901119202375411987e-01,3.291917592287063599e-02,-2.416503280401229858e-01,9.683913737535476685e-02,1.032663434743881226e-01,-6.590917706489562988e-02,2.072038948535919189e-01,-6.197994574904441833e-02
8.873096108436584473e-02,-2.487458586692810059e-01,-1.029845401644706726e-01,2.696945331990718842e-02,-2.043722271919250488e-01,-6.301867216825485229e-02,1.997713297605514526e-01,1.585468351840972900e-01,1.102317720651626587e-01
2.811938524246215820e-02,6.123171653598546982e-03,-1.832344233989715576e-01,1.259092837572097778e-01,6.668069213628768921e-02,-5.568981170654296875e-02,6.154175847768783569e-02,8.043263107538223267e-02,-1.062272712588310242e-01
1.385035216808319092e-01,1.807218939065933228e-01,9.114474803209304810e-02,1.099535599350929260e-01,2.565813064575195312e-01,-2.414203733205795288e-01,2.332402579486370087e-02,-1.031092256307601929e-01,-5.271087884902954102e-01
-7.238889485597610474e-02,7.036461681127548218e-02,2.007708847522735596e-01,-4.401521384716033936e-01,-2.191246300935745239e-01,2.248336523771286011e-01,1.695945411920547485e-01,-3.681932985782623291e-01,5.509358644485473633e-02
2.007265016436576843e-02,6.360652297735214233e-02,-1.165438964962959290e-01,-3.812581673264503479e-02,7.048626989126205444e-02,-6.528766360133886337e-03,-9.774697571992874146e-02,1.868080347776412964e-01,1.712629757821559906e-02
1.573287099599838257e-01,4.822784289717674255e-02,-1.093834340572357178e-01,2.325468957424163818e-01,-2.662825956940650940e-02,-3.407639861106872559e-01,1.529517918825149536e-01,6.603135168552398682e-02,-2.143237143754959106e-01
-1.349265128374099731e-02,3.790923580527305603e-02,-1.502840518951416016e-01,6.047168746590614319e-02,-1.519634295254945755e-02,2.498811110854148865e-02,-5.294876545667648315e-02,6.195278838276863098e-02,-2.829395048320293427e-02
6.862870603799819946e-02,-1.366925862384960055e-04,-6.671426445245742798e-02,8.186365664005279541e-02,-7.223787158727645874e-02,-9.904801845550537109e-03,8.254943042993545532e-02,1.443509906530380249e-01,4.646394401788711548e-02
7.065422832965850830e-02,1.649356931447982788e-01,-2.568873576819896698e-02,-1.350873857736587524e-01,1.192974224686622620e-01,-1.480021327733993530e-01,-1.460715979337692261e-01,1.873610466718673706e-01,2.201042883098125458e-02
8.534204214811325073e-02,2.897936291992664337e-02,7.126779854297637939e-02,-9.617261588573455811e-02,3.738108649849891663e-02,-1.162378937005996704e-01,3.439963981509208679e-02,7.146017253398895264e-02,3.422926366329193115e-02
-1.698097586631774902e-01,-3.557575345039367676e-01,-1.368964314460754395e-01,-6.161409243941307068e-02,8.011543750762939453e-02,5.919637158513069153e-02,2.520314157009124756e-01,1.347652822732925415e-01,1.038674935698509216e-01
-1.813506036996841431e-01,-3.073063194751739502e-01,9.338279254734516144e-03,9.330482780933380127e-02,6.219699606299400330e-02,-7.260364294052124023e-02,1.371313780546188354e-01,1.507624685764312744e-01,7.459451258182525635e-02
-2.716502547264099121e-01,-5.417874455451965332e-02,-1.390675548464059830e-03,1.018585935235023499e-01,1.739447712898254395e-01,1.032673716545104980e-01,-2.386119589209556580e-02,-2.143316203728318214e-03,-1.789991706609725952e-01
1.656403988599777222e-01,1.517645269632339478e-01,1.649088263511657715e-01,4.607035964727401733e-02,1.247160974889993668e-02,2.182470262050628662e-01,-1.901954263448715210e-01,-4.032071828842163086e-01,-2.094780653715133667e-01
1.807105690240859985e-01,-2.086213976144790649e-01,-3.977443575859069824e-01,2.581798732280731201e-01,3.135386854410171509e-02,-3.307010531425476074e-01,1.352188438177108765e-01,3.509331047534942627e-01,2.493041392881423235e-04
-6.387516856193542480e-02,1.545111089944839478e-01,2.468690425157546997e-01,-2.346594184637069702e-01,-5.301470309495925903e-02,1.413339227437973022e-01,-2.499357014894485474e-01,2.607262926176190376e-03,9.314007312059402466e-02
-3.341397643089294434e-01,4.357631877064704895e-02,-4.607386887073516846e-03,1.445214748382568359e-01,1.970057785511016846e-01,-1.397196948528289795e-01,-6.367535889148712158e-02,1.099420711398124695e-01,-2.982479035854339600e-01
5.746384337544441223e-02,-1.413797140121459961e-01,-2.842321693897247314e-01,9.709408134222030640e-02,1.658430099487304688e-01,5.285787582397460938e-02,-2.949982881546020508e-02,7.630923390388488770e-02,5.740280821919441223e-02
9.560105204582214355e-02,-2.115104496479034424e-01,-2.698217332363128662e-02,4.996870458126068115e-02,2.651790715754032135e-02,1.585333049297332764e-01,-3.198513761162757874e-03,-7.608595490455627441e-02,-8.946777135133743286e-02
-2.280385233461856842e-04,1.943618245422840118e-02,3.091930747032165527e-01,-1.246017590165138245e-02,-1.451730877161026001e-01,9.074924886226654053e-02,1.133761182427406311e-01,-3.510607182979583740e-01,-3.120154142379760742e-02
-2.599352300167083740e-01,3.363481536507606506e-02,4.868999123573303223e-02,-2.758900523185729980e-01,3.742010518908500671e-02,1.677346378564834595e-01,-6.299639493227005005e-02,1.464315056800842285e-01,9.058670699596405029e-02
-3.516812026500701904e-01,-1.808896660804748535e-02,1.135377883911132812e-01,2.772213816642761230e-01,2.433892935514450073e-01,1.087938174605369568e-01,-4.564499948173761368e-03,-1.727608442306518555e-01,-2.359402477741241455e-01
7.003927230834960938e-02,2.519101202487945557e-01,2.305057793855667114e-01,1.264376491308212280e-01,-5.354338511824607849e-02,-5.554379522800445557e-02,-2.350971400737762451e-01,-3.417673110961914062e-01,-2.080321498215198517e-02
-3.823254406452178955e-01,-4.673948585987091064e-01,8.760463446378707886e-02,-5.020542740821838379e-01,-1.412210017442703247e-01,1.874076277017593384e-01,-3.714877963066101074e-01,-6.322938203811645508e-02,2.083662003278732300e-01
-4.257963895797729492e-01,-3.804391920566558838e-01,4.278158023953437805e-02,-2.292866855859756470e-01,1.297591775655746460e-01,7.466909289360046387e-02,2.355941683053970337e-01,3.343798518180847168e-01,1.703455150127410889e-01
-1.985081285238265991e-02,2.058458328247070312e-01,7.669401820749044418e-03,-1.421592235565185547e-01,1.929552108049392700e-01,1.858127117156982422e-01,-3.897818028926849365e-01,-1.541432589292526245e-01,1.451603621244430542e-01
-1.943293213844299316e-01,-3.425548076629638672e-01,-8.944532601162791252e-04,-3.657153546810150146e-01,-3.790852054953575134e-02,1.092468276619911194e-01,-1.423539519309997559e-01,1.397520601749420166e-01,2.845349013805389404e-01
-1.570564955472946167e-01,-1.775842010974884033e-01,-3.526309039443731308e-03,8.565042912960052490e-02,1.570015400648117065e-01,1.352923065423965454e-01,3.588495030999183655e-02,-1.290306448936462402e-03,-2.191457450389862061e-01
1.370709575712680817e-02,1.375578227452933788e-03,-1.491308212280273438e-02,-3.001554869115352631e-02,-1.926429755985736847e-02,-1.793843321502208710e-02,2.820359915494918823e-02,-2.156909741461277008e-02,2.422637306153774261e-02
3.988545015454292297e-02,-4.451471194624900818e-02,-1.911159455776214600e-01,2.691849134862422943e-02,1.981681138277053833e-01,1.758846193552017212e-01,3.737908601760864258e-02,-1.205373629927635193e-01,-8.986485004425048828e-02
-4.206257686018943787e-02,1.375866383314132690e-01,-1.814444363117218018e-01,-8.183065801858901978e-02,1.178983878344297409e-02,6.014956161379814148e-02,5.757531896233558655e-02,-1.819882541894912720e-02,1.145720295608043671e-02
-8.621490746736526489e-02,8.401138335466384888e-02,1.625425764359533787e-03,-6.060165911912918091e-02,7.364244014024734497e-02,2.898689731955528259e-02,-5.670322105288505554e-03,-7.111957296729087830e-03,-1.940004900097846985e-02
5.358807742595672607e-02,8.511093258857727051e-02,-7.089673727750778198e-02,1.797367632389068604e-02,-2.613860554993152618e-02,1.718954369425773621e-02,-1.075859926640987396e-02,9.293513745069503784e-02,2.798073366284370422e-02
1.493818163871765137e-01,4.526308551430702209e-02,-8.782940357923507690e-02,-1.925572566688060760e-02,2.784903347492218018e-01,2.745120553299784660e-03,-3.791699111461639404e-01,7.537312339991331100e-03,1.099977344274520874e-01
-1.577015407383441925e-02,-1.953896433115005493e-01,-2.306274473667144775e-01,1.942217200994491577e-01,2.252202183008193970e-01,-6.542701274156570435e-02,-9.737504273653030396e-02,4.710753262042999268e-02,1.549148112535476685e-01
2.359302639961242676e-01,1.576200276613235474e-01,2.441905140876770020e-01,8.129492402076721191e-02,1.181739568710327148e-01,-4.750028252601623535e-02,-2.954259216785430908e-01,-3.904592096805572510e-01,-1.972191929817199707e-01
-3.390224277973175049e-02,1.067564785480499268e-01,1.609684973955154419e-01,-2.748901546001434326e-01,-8.152684569358825684e-02,1.032021418213844299e-01,-6.295510381460189819e-02,-8.897463791072368622e-03,1.267621517181396484e-01
7.377481460571289062e-02,3.749351575970649719e-02,2.150529064238071442e-02,-1.467211451381444931e-02,9.834798425436019897e-02,-8.199580013751983643e-03,5.966996401548385620e-02,9.853996336460113525e-02,-1.280678361654281616e-01
-2.477337121963500977e-01,-1.855341792106628418e-01,1.399673819541931152e-01,1.243940442800521851e-01,1.728986501693725586e-01,1.781294941902160645e-01,2.628803998231887817e-02,-2.687583677470684052e-02,-3.326674997806549072e-01
8.563371747732162476e-02,9.377853572368621826e-02,3.352927044034004211e-02,2.213594689965248108e-02,8.964389562606811523e-02,1.587921977043151855e-01,-3.076839745044708252e-01,2.243991941213607788e-02,-3.381381183862686157e-02
-1.416113972663879395e-01,1.050559282302856445e-01,1.116739492863416672e-02,1.112174242734909058e-01,6.117630749940872192e-02,-1.072630938142538071e-02,1.184642612934112549e-01,-9.164918214082717896e-02,-2.052908092737197876e-01
7.165439426898956299e-02,6.343100219964981079e-02,-2.842222750186920166e-01,-6.865344196557998657e-02,3.004778921604156494e-01,-6.664520502090454102e-02,-2.493754625320434570e-01,1.331718564033508301e-01,4.022542387247085571e-02
7.307127863168716431e-02,1.265785098075866699e-01,1.107313409447669983e-01,8.936600387096405029e-02,3.092198818922042847e-02,-9.202018380165100098e-02,-3.552590683102607727e-02,-2.557081282138824463e-01,-2.090208530426025391e-01
1.095358878374099731e-01,7.646311819553375244e-02,-3.064792454242706299e-01,3.787330910563468933e-02,1.090202182531356812e-01,-5.078200250864028931e-03,-1.077588498592376709e-01,1.331557035446166992e-01,6.388668715953826904e-02
1.649123877286911011e-01,9.094921499490737915e-02,-2.217480987310409546e-01,2.137752622365951538e-01,3.044935874640941620e-02,-3.433485925197601318e-01,1.486745625734329224e-01,-3.399372473359107971e-02,-1.532639861106872559e-01
1.362588703632354736e-01,-3.187917172908782959e-01,-2.898162417113780975e-02,2.275280207395553589e-01,-2.012387663125991821e-01,-5.415185168385505676e-02,1.138816028833389282e-01,6.426855176687240601e-02,3.013365902006626129e-02
5.833126232028007507e-02,1.774017959833145142e-01,5.038824677467346191e-02,-1.354105621576309204e-01,1.380322575569152832e-01,8.158051408827304840e-03,-2.404386699199676514e-01,-1.451802346855401993e-02,1.821041405200958252e-01
2.594596147537231445e-02,-1.543180197477340698e-01,-1.397184729576110840e-01,1.398537158966064453e-01,-1.263067275285720825e-01,-1.042616292834281921e-01,1.872111111879348755e-01,-1.152407974004745483e-01,1.988652199506759644e-01
-4.830750450491905212e-02,-3.016754984855651855e-01,-2.005490958690643311e-01,2.008204907178878784e-01,-9.472595900297164917e-02,8.153095841407775879e-02,1.202017515897750854e-01,1.463771909475326538e-01,4.509031772613525391e-02
-1.167610986158251762e-03,4.743045940995216370e-02,-8.642970025539398193e-02,-4.719605669379234314e-03,4.458725452423095703e-02,6.807510554790496826e-02,2.810424007475376129e-02,-1.331606472376734018e-04,1.240373775362968445e-02
-8.272950351238250732e-02,-4.644937813282012939e-01,-2.360430732369422913e-02,-4.830402135848999023e-01,1.514343079179525375e-02,2.059894949197769165e-01,-2.345324754714965820e-01,1.291775703430175781e-01,2.151461690664291382e-01
-2.165860831737518311e-01,-1.145899593830108643e-01,1.341607570648193359e-01,-1.992645263671875000e-01,7.619998604059219360e-02,2.363989204168319702e-01,-1.490865945816040039e-01,1.749627292156219482e-01,-4.922786355018615723e-02
-2.958947792649269104e-03,1.302883476018905640e-01,1.901526302099227905e-01,1.328459829092025757e-01,2.246060520410537720e-01,-9.147437661886215210e-02,1.323094516992568970e-01,-2.829396426677703857e-01,-4.467813670635223389e-01
-2.132623791694641113e-01,7.954097539186477661e-02,2.250638902187347412e-01,-1.776378452777862549e-01,-8.207855373620986938e-02,1.768830418586730957e-01,-1.628995388746261597e-01,-3.901632130146026611e-02,1.162128597497940063e-01
-2.980453372001647949e-01,1.696144193410873413e-01,2.291620969772338867e-01,-1.856220662593841553e-01,-6.135061383247375488e-01,-2.772367596626281738e-01,3.618753850460052490e-01,1.891930401325225830e-01,-1.096109151840209961e-01
6.676354259252548218e-02,-3.208759299013763666e-04,6.495751440525054932e-02,8.670771121978759766e-02,9.523271769285202026e-02,1.295129507780075073e-01,-2.038049995899200439e-01,-1.111684292554855347e-01,-5.707901716232299805e-02
7.901944965124130249e-02,-1.491692662239074707e-01,-2.313407808542251587e-01,1.579476594924926758e-01,1.954335346817970276e-02,1.466946452856063843e-01,-6.603691261261701584e-03,-1.620464175939559937e-01,9.552622586488723755e-02
4.018919169902801514e-02,-2.052873373031616211e-02,2.760181762278079987e-02,-6.230993568897247314e-02,4.840990155935287476e-02,-4.697920009493827820e-02,-5.930065363645553589e-02,7.341445982456207275e-02,-3.963818773627281189e-02
1.100322082638740540e-01,-6.556441634893417358e-02,3.062169440090656281e-02,7.607867568731307983e-02,9.755367785692214966e-02,8.436043560504913330e-02,-6.232097372412681580e-02,1.043560542166233063e-02,1.427779812365770340e-02
9.295602142810821533e-02,-1.521661877632141113e-02,8.677770197391510010e-02,6.785871833562850952e-02,3.619866073131561279e-02,1.665696501731872559e-02,1.064463928341865540e-01,-3.122548107057809830e-03,-1.109875738620758057e-01
-2.207558751106262207e-01,-1.521442681550979614e-01,1.238717362284660339e-01,-1.644841730594635010e-01,1.381515711545944214e-01,1.406564861536026001e-01,1.195119097828865051e-01,2.165461331605911255e-01,-1.292568892240524292e-01
2.462221309542655945e-02,8.515781909227371216e-02,3.107056021690368652e-02,-7.746520917862653732e-03,7.666605990380048752e-03,1.722105219960212708e-02,8.237890899181365967e-02,3.986993804574012756e-02,3.607524558901786804e-02
-1.854196190834045410e-01,-1.502294093370437622e-01,-4.534508660435676575e-02,2.597216702997684479e-02,-7.154588401317596436e-02,1.074914485216140747e-01,6.467232108116149902e-02,8.288610726594924927e-03,2.253109402954578400e-02
1.131964381784200668e-02,-1.351059079170227051e-01,-1.539954692125320435e-01,1.694186404347419739e-02,6.929147243499755859e-02,1.554160267114639282e-01,5.904899910092353821e-02,-1.212447732686996460e-01,-1.207020357251167297e-01
1.440789997577667236e-01,2.265540957450866699e-01,1.497877538204193115e-01,-4.548181965947151184e-02,-1.052177771925926208e-01,-2.119234800338745117e-01,-1.089655309915542603e-01,-2.056115567684173584e-01,2.737192250788211823e-02
1.679226458072662354e-01,6.268857419490814209e-02,1.012121364474296570e-01,1.479887217283248901e-01,1.958403438329696655e-01,4.405495524406433105e-02,-4.272241890430450439e-02,-2.855630815029144287e-01,-4.029955863952636719e-01
5.942887812852859497e-02,3.209828957915306091e-02,5.875407531857490540e-02,-4.416301846504211426e-02,3.727722540497779846e-02,-3.439957648515701294e-02,3.489276021718978882e-02,5.907825380563735962e-02,3.044586256146430969e-02
-9.646350145339965820e-02,-3.229851126670837402e-01,-1.466330289840698242e-01,2.867469750344753265e-02,-5.851897969841957092e-02,-5.179627239704132080e-02,2.723387181758880615e-01,1.620986461639404297e-01,1.607512086629867554e-01
-7.558938115835189819e-02,4.362735152244567871e-02,5.119227245450019836e-02,-3.041203506290912628e-02,4.528025537729263306e-02,7.288161665201187134e-02,-1.383213549852371216e-01,-3.448726236820220947e-02,9.793549031019210815e-02
1.046562492847442627e-01,1.024804413318634033e-01,1.552255749702453613e-01,-8.773361146450042725e-02,-1.304308772087097168e-01,8.740097284317016602e-02,8.841236121952533722e-03,-1.281134784221649170e-01,9.928800910711288452e-02
-1.984699219465255737e-01,-1.808456927537918091e-01,-8.637100458145141602e-02,-4.817468672990798950e-02,7.807471603155136108e-02,-9.510280564427375793e-03,2.440742850303649902e-01,1.302897185087203979e-01,-3.825711831450462341e-02
2.606332488358020782e-02,-1.757009769789874554e-03,-1.083619240671396255e-02,3.778561949729919434e-02,-5.534772947430610657e-02,-2.728802151978015900e-02,-3.100064350292086601e-03,4.194182157516479492e-02,-2.621992304921150208e-02
1.192584559321403503e-01,6.303937407210469246e-04,1.491172821260988712e-03,-1.509307418018579483e-02,7.290150225162506104e-02,1.721631549298763275e-02,-4.611454904079437256e-02,1.123070418834686279e-01,2.128286473453044891e-02
5.229772627353668213e-02,-3.761056438088417053e-02,3.292590379714965820e-02,1.328427577391266823e-03,2.203875221312046051e-02,1.988619565963745117e-01,-7.528614252805709839e-02,-1.405494511127471924e-01,3.243584558367729187e-02
1.120528131723403931e-01,-4.788895323872566223e-02,-1.059085875749588013e-01,4.544512555003166199e-02,-3.423982486128807068e-02,-1.257371753454208374e-01,6.341765075922012329e-02,-9.584521502256393433e-02,-1.136327907443046570e-01
1.845317184925079346e-01,-1.076140627264976501e-02,-2.993483841419219971e-01,-1.607712358236312866e-02,1.361108869314193726e-01,4.476079717278480530e-02,-1.379826366901397705e-01,1.539183706045150757e-01,1.251256018877029419e-01
1.430407911539077759e-01,2.492744326591491699e-01,-2.344087464734911919e-03,1.102003976702690125e-01,-3.401496112346649170e-01,-2.998220622539520264e-01,-1.245649382472038269e-01,-8.588801324367523193e-02,3.152969479560852051e-01
2.373742610216140747e-01,1.573671698570251465e-01,7.303000986576080322e-02,-3.337237611413002014e-02,-3.330157836899161339e-03,1.040645167231559753e-01,-2.848524451255798340e-01,-9.288787841796875000e-02,-1.584927141666412354e-01
9.525433927774429321e-02,1.746594160795211792e-01,1.321966052055358887e-01,1.033768206834793091e-01,-8.435185998678207397e-02,-2.880159206688404083e-02,-2.676964402198791504e-01,-1.439511775970458984e-01,-6.215413287281990051e-02
-3.976015448570251465e-01,8.130843192338943481e-02,2.064848244190216064e-01,1.692446172237396240e-01,3.078863024711608887e-01,-5.415463820099830627e-02,-9.069385007023811340e-03,-3.347732871770858765e-02,-2.969430685043334961e-01
1.171937510371208191e-01,-6.660654395818710327e-02,2.820509858429431915e-02,-1.295239925384521484e-01,4.373051598668098450e-02,-2.696321718394756317e-02,-2.290787920355796814e-02,1.077866852283477783e-01,3.417044878005981445e-02
-2.872478663921356201e-01,-1.374883353710174561e-01,5.735631287097930908e-02,1.390213370323181152e-01,2.385376840829849243e-01,1.736748069524765015e-01,7.838737964630126953e-02,-9.586244821548461914e-02,-2.417761087417602539e-01
9.611993283033370972e-02,6.420638412237167358e-02,-6.572856009006500244e-02,1.664361357688903809e-02,-9.649442136287689209e-02,3.274837881326675415e-02,1.173061877489089966e-01,8.145997300744056702e-03,-2.241143584251403809e-02
-1.290708333253860474e-01,2.144956290721893311e-01,-1.239906325936317444e-01,-1.287148445844650269e-01,1.077398881316184998e-01,-5.261110514402389526e-02,6.929519772529602051e-02,-3.502158075571060181e-02,5.002559721469879150e-02
-1.251936256885528564e-01,-2.140478044748306274e-01,7.998187094926834106e-02,9.511490911245346069e-02,-1.242459751665592194e-02,1.341233700513839722e-01,-4.776833951473236084e-02,-5.767791718244552612e-02,-3.410563990473747253e-02
-3.899827972054481506e-02,-4.256000742316246033e-02,-3.547644317150115967e-01,2.022836059331893921e-01,1.664424836635589600e-01,1.944690011441707611e-02,-5.327548459172248840e-02,3.473471477627754211e-02,1.857771910727024078e-02
-5.464772507548332214e-02,-2.543628811836242676e-01,-1.944070011377334595e-01,1.370651274919509888e-01,9.064766764640808105e-02,1.412022262811660767e-01,6.117260083556175232e-03,1.283517573028802872e-03,7.520586252212524414e-02
1.494980007410049438e-01,2.856031991541385651e-02,-2.679357826709747314e-01,4.012995585799217224e-02,2.123941481113433838e-01,-1.399337798357009888e-01,-8.714468777179718018e-02,1.871760636568069458e-01,1.006398797035217285e-01
-5.657784175127744675e-03,-9.348612278699874878e-02,2.721587419509887695e-01,-2.784328460693359375e-01,-2.556450963020324707e-01,1.590285748243331909e-01,-1.072656959295272827e-01,-1.195804253220558167e-01,3.232759982347488403e-02
-1.771397888660430908e-01,-3.703682422637939453e-01,-1.584885865449905396e-01,-4.753027483820915222e-02,-1.167268306016921997e-02,1.241609901189804077e-01,2.348228245973587036e-01,2.181014120578765869e-01,1.077894046902656555e-01
-2.189713716506958008e-01,1.632086038589477539e-01,4.100238904356956482e-02,-5.322124063968658447e-02,2.258825004100799561e-01,-1.193864569067955017e-01,5.329732224345207214e-02,1.097599789500236511e-01,-2.013845890760421753e-01
-6.005908828228712082e-03,4.931945353746414185e-02,1.223027631640434265e-01,-1.623030155897140503e-01,-2.863045781850814819e-02,1.191909611225128174e-02,9.091214835643768311e-02,8.230619132518768311e-02,7.790015637874603271e-02
1.117553636431694031e-01,2.724484540522098541e-02,2.069538272917270660e-02,-6.102347373962402344e-02,6.824765820056200027e-03,1.220316588878631592e-01,-7.071845978498458862e-02,-1.125812307000160217e-01,8.842837810516357422e-02
-1.227492317557334900e-01,-2.631856203079223633e-01,-1.933631002902984619e-01,1.790345646440982819e-02,6.343491375446319580e-02,-5.200669169425964355e-02,2.544849216938018799e-01,1.485320478677749634e-01,3.415985032916069031e-02
7.082768715918064117e-03,5.843247473239898682e-02,-1.641249470412731171e-02,1.091798394918441772e-01,6.090806424617767334e-02,-8.235274255275726318e-02,6.880684196949005127e-02,-2.189318463206291199e-02,-2.015538662672042847e-01
2.308326959609985352e-02,2.092921882867813110e-01,1.743956208229064941e-01,-2.282001823186874390e-01,-3.910335898399353027e-01,-1.345562785863876343e-01,2.036474049091339111e-01,9.985175728797912598e-02,-3.200189024209976196e-02
3.379803150892257690e-02,6.346750259399414062e-02,7.039297372102737427e-02,-3.666355907917022705e-01,-1.645856350660324097e-01,1.544889211654663086e-01,-2.247425168752670288e-01,1.065189912915229797e-01,2.700650393962860107e-01
-2.632565796375274658e-01,-8.833571337163448334e-03,7.086598128080368042e-02,1.051771789789199829e-01,2.263476699590682983e-01,1.758298277854919434e-02,4.294294491410255432e-02,-7.181524485349655151e-02,-1.591764390468597412e-01
-1.874546892940998077e-02,6.540959328413009644e-02,-8.869216591119766235e-02,-1.425968389958143234e-02,8.507281541824340820e-02,-5.260932818055152893e-02,-9.027075767517089844e-02,-7.433742284774780273e-02,8.179526031017303467e-02
2.664641663432121277e-02,1.186081320047378540e-01,-6.363625079393386841e-02,-2.914821170270442963e-02,1.431131660938262939e-01,1.179252639412879944e-01,-2.515469491481781006e-01,-1.099857613444328308e-01,7.115282863378524780e-02
-3.355816304683685303e-01,-2.353220134973526001e-01,1.101980283856391907e-01,-1.972698718309402466e-01,2.117280066013336182e-01,7.592436671257019043e-02,1.772323697805404663e-01,1.926763653755187988e-01,-1.065207761712372303e-03
-2.818830907344818115e-01,3.059870190918445587e-02,2.176593989133834839e-01,-2.975389957427978516e-01,-1.746114576235413551e-03,2.118398994207382202e-01,-1.427945196628570557e-01,9.269673377275466919e-02,7.989145815372467041e-02
-6.097039952874183655e-02,-7.627556100487709045e-03,-4.902816191315650940e-02,3.552277386188507080e-02,-1.131252944469451904e-02,7.472331076860427856e-02,-5.503097549080848694e-02,4.921313747763633728e-02,-7.114854454994201660e-02
-1.554339379072189331e-02,1.580665260553359985e-01,8.749619126319885254e-02,8.277778327465057373e-02,1.655584424734115601e-01,-7.287679240107536316e-03,-6.285157799720764160e-02,-2.380682677030563354e-01,-1.661958247423171997e-01
-1.752137759467586875e-04,9.548459947109222412e-02,-9.856791049242019653e-02,-1.442447751760482788e-01,1.443777531385421753e-01,-7.218524068593978882e-02,-1.498006284236907959e-01,-1.027906406670808792e-02,2.782042324542999268e-02
2.447664551436901093e-02,-2.793877124786376953e-01,-7.996381074190139771e-02,1.385208368301391602e-01,1.915210783481597900e-01,1.697055399417877197e-01,-4.730143770575523376e-02,-1.398867368698120117e-01,-1.047264933586120605e-01
2.058460563421249390e-01,-5.018976330757141113e-02,-3.308741152286529541e-01,2.258780449628829956e-01,-5.398816615343093872e-02,-3.279015421867370605e-01,1.985916346311569214e-01,2.087301015853881836e-01,-1.955227367579936981e-02
5.894949287176132202e-02,-1.375963538885116577e-01,-3.337398767471313477e-01,1.482649296522140503e-01,1.409654766321182251e-01,-9.319490194320678711e-02,4.457538947463035583e-02,9.836078435182571411e-02,1.479739099740982056e-01
-2.911803424358367920e-01,-8.691955357789993286e-02,1.592468470335006714e-01,-1.232405453920364380e-01,2.121212780475616455e-01,1.739334911108016968e-01,1.085672620683908463e-02,4.858600348234176636e-02,-3.183614090085029602e-02
-3.354202210903167725e-01,-4.607205092906951904e-01,-2.783846259117126465e-01,-1.485283821821212769e-01,-1.077814921736717224e-01,-2.349681779742240906e-02,4.088534787297248840e-02,2.469637244939804077e-01,2.637848854064941406e-01
-3.542690873146057129e-01,-3.239220678806304932e-01,5.213802680373191833e-02,-3.359551727771759033e-01,6.660047918558120728e-02,2.505995631217956543e-01,4.551791772246360779e-02,3.020135164260864258e-01,2.473991513252258301e-01
2.236337363719940186e-01,1.417199969291687012e-01,1.670947372913360596e-01,-6.069001182913780212e-02,-2.888717316091060638e-02,-8.051205426454544067e-02,-2.692929506301879883e-01,-2.120877206325531006e-01,-4.281127080321311951e-02
-2.625528275966644287e-01,6.310626119375228882e-02,7.712762057781219482e-02,-8.452709019184112549e-02,2.925412654876708984e-01,-4.635478183627128601e-02,1.593675166368484497e-01,7.528541237115859985e-02,-2.857112586498260498e-01
-1.245194897055625916e-01,1.788352429866790771e-01,-6.117485836148262024e-02,3.333975374698638916e-02,1.446831375360488892e-01,-1.661127209663391113e-01,-9.841778315603733063e-03,1.373028606176376343e-01,-2.050093412399291992e-01
8.218944072723388672e-02,-9.837981313467025757e-02,-1.258052289485931396e-01,7.835394889116287231e-02,-1.717083528637886047e-02,1.877202391624450684e-01,-7.904440909624099731e-02,-2.381315641105175018e-02,-1.402510255575180054e-01
5.876128096133470535e-03,2.936491556465625763e-02,1.018611341714859009e-01,1.050056144595146179e-01,6.503967940807342529e-02,-2.243902534246444702e-02,-1.383402943611145020e-01,-1.689251214265823364e-01,-1.156417280435562134e-01
8.170662075281143188e-02,-3.043884336948394775e-01,-1.922255307435989380e-01,9.409579634666442871e-02,-1.726334095001220703e-01,-6.989513337612152100e-02,2.802612483501434326e-01,8.645888417959213257e-02,1.525132209062576294e-01
2.027534693479537964e-02,1.005932912230491638e-01,-2.294314652681350708e-02,-4.996931925415992737e-02,1.472770571708679199e-01,-6.169147044420242310e-02,-1.094150766730308533e-01,1.318703293800354004e-01,1.006396673619747162e-02
-3.599371388554573059e-02,8.022394031286239624e-02,1.736353635787963867e-01,5.648216977715492249e-02,7.439600676298141479e-02,1.925463825464248657e-01,-1.633627898991107941e-02,-2.843401432037353516e-01,-1.579612940549850464e-01
-1.015531718730926514e-01,-1.564762294292449951e-01,8.256538957357406616e-02,-6.716275960206985474e-02,7.345059514045715332e-02,8.793506026268005371e-02,1.346916705369949341e-01,-3.020318038761615753e-02,-3.293896839022636414e-02
4.934847727417945862e-02,-3.849585950374603271e-01,4.791985824704170227e-02,2.307460159063339233e-01,-2.492662668228149414e-01,-6.052185595035552979e-02,2.885360121726989746e-01,9.504519402980804443e-02,9.741108864545822144e-03
1.115952134132385254e-01,1.561435759067535400e-01,1.281878501176834106e-01,1.079440638422966003e-01,2.709562331438064575e-02,-1.030569821596145630e-01,-2.710080444812774658e-01,-2.108804434537887573e-01,-2.701451769098639488e-03
3.887220099568367004e-02,1.590523123741149902e-01,-8.002381026744842529e-02,1.758867315948009491e-02,1.305826008319854736e-01,5.769149214029312134e-02,-3.543369472026824951e-01,-6.333404779434204102e-02,2.597472071647644043e-02
-3.774790093302726746e-02,7.135884463787078857e-02,9.295507334172725677e-03,-4.391001909971237183e-02,2.561219781637191772e-02,4.962360020726919174e-03,-1.849350705742835999e-02,1.356076598167419434e-01,-1.476431824266910553e-02
-7.374918460845947266e-02,1.631212830543518066e-01,6.004683207720518112e-03,-1.120730116963386536e-01,1.138954162597656250e-01,4.224808514118194580e-02,-2.572919428348541260e-01,3.913550078868865967e-02,6.972310692071914673e-02
1.544433534145355225e-01,1.890706270933151245e-01,-2.693088538944721222e-02,-1.922220885753631592e-01,-2.315199747681617737e-02,-4.746307805180549622e-02,-1.230054348707199097e-01,1.339924186468124390e-01,1.022905558347702026e-01
1.639254949986934662e-02,2.221265286207199097e-01,1.672427207231521606e-01,-7.014425843954086304e-02,-4.500319808721542358e-02,1.630029082298278809e-01,-2.305709868669509888e-01,-2.770820260047912598e-01,-5.758486315608024597e-02
-1.644619368016719818e-02,1.612053364515304565e-01,-4.497971013188362122e-02,3.385359793901443481e-02,1.265557408332824707e-01,-1.058336794376373291e-01,1.213391497731208801e-01,2.484128065407276154e-02,-2.407498657703399658e-01
9.063509106636047363e-02,1.289423108100891113e-01,1.007482185959815979e-01,2.967202365398406982e-01,4.614451527595520020e-02,-4.269680939614772797e-03,-7.983421534299850464e-02,-2.449593096971511841e-01,-2.510665953159332275e-01
-1.926016062498092651e-02,1.032686978578567505e-01,4.026737436652183533e-02,1.672877967357635498e-01,8.387964218854904175e-02,-1.558797806501388550e-01,7.786279171705245972e-02,-4.290846362709999084e-02,-1.933765858411788940e-01
4.653481021523475647e-02,1.115005239844322205e-01,-9.392704069614410400e-02,-1.524163484573364258e-01,1.333586871623992920e-01,-9.050124138593673706e-02,4.749045521020889282e-02,2.687560208141803741e-02,8.038213104009628296e-02
2.528127431869506836e-01,-2.062130905687808990e-02,-6.646813452243804932e-02,2.464114874601364136e-01,4.139081761240959167e-02,-3.205064833164215088e-01,1.570212841033935547e-01,-3.650801256299018860e-02,-2.830532193183898926e-01
-7.002754509449005127e-02,-2.192229032516479492e-01,-2.081627845764160156e-01,1.497144252061843872e-01,-9.148463606834411621e-02,-8.909517526626586914e-02,2.263055145740509033e-01,9.909127652645111084e-02,1.180555745959281921e-01
1.832303358241915703e-03,1.495662331581115723e-01,8.679834008216857910e-02,-1.282009575515985489e-02,1.056181415915489197e-01,-4.468198120594024658e-02,9.872481971979141235e-02,6.158304959535598755e-02,4.072076082229614258e-02
2.234597355127334595e-01,1.926546543836593628e-01,9.425826370716094971e-02,-1.029143631458282471e-01,4.022250324487686157e-02,1.478714048862457275e-01,-1.527958661317825317e-01,-3.096505701541900635e-01,-2.266873419284820557e-01
-4.393790848553180695e-03,3.716253116726875305e-02,4.189017415046691895e-02,9.366774559020996094e-02,3.974175080657005310e-03,-6.968931853771209717e-02,3.013733215630054474e-02,6.328627467155456543e-03,9.992785006761550903e-02
-5.550987645983695984e-02,-5.073117464780807495e-02,-1.470835953950881958e-01,1.835400313138961792e-01,-1.066332403570413589e-02,-1.448100209236145020e-01,5.561396852135658264e-02,1.185343414545059204e-01,1.273711621761322021e-01
-1.814157068729400635e-01,-4.048494398593902588e-01,-9.115241467952728271e-02,1.663595288991928101e-01,2.090332843363285065e-02,-4.826165735721588135e-01,2.431238144636154175e-01,1.777116805315017700e-01,-2.566888555884361267e-02
-1.202667830511927605e-03,-7.408753037452697754e-02,5.661413073539733887e-02,2.671493031084537506e-02,3.489876538515090942e-02,-1.707316003739833832e-02,-2.053216472268104553e-02,-6.770847737789154053e-02,8.494754880666732788e-02
-1.217546612024307251e-01,1.022411361336708069e-01,-4.606549069285392761e-02,9.277007728815078735e-02,-4.429488256573677063e-02,-4.155038390308618546e-03,-7.786687463521957397e-02,-3.131797909736633301e-02,-2.207277715206146240e-02
-2.110007852315902710e-01,1.186114102602005005e-01,4.721789062023162842e-02,1.960046440362930298e-01,1.561608463525772095e-01,-1.620933413505554199e-01,8.367160707712173462e-02,-1.492629200220108032e-01,-2.316226810216903687e-01
-8.403510600328445435e-02,1.337884366512298584e-01,3.716394677758216858e-02,1.029206886887550354e-01,1.095026507973670959e-01,2.250370755791664124e-02,-9.616689383983612061e-02,-3.637504205107688904e-02,9.990578144788742065e-02
1.160732731223106384e-01,-1.382845640182495117e-01,-3.061323165893554688e-01,2.471549063920974731e-01,3.718312829732894897e-02,-1.185645014047622681e-01,3.554780408740043640e-02,2.412031292915344238e-01,5.337362736463546753e-02
4.971142113208770752e-02,9.265628457069396973e-02,-1.556415110826492310e-01,-1.822135597467422485e-02,2.030432224273681641e-01,1.660557240247726440e-01,-2.524104714393615723e-01,-5.545473843812942505e-02,4.385299608111381531e-02
1.029478907585144043e-01,1.019174829125404358e-01,-1.035300493240356445e-01,1.034469902515411377e-02,5.148575454950332642e-02,-1.618137061595916748e-01,9.124558418989181519e-02,9.816062636673450470e-03,2.336786501109600067e-02
7.970635592937469482e-02,6.063841655850410461e-02,-7.122826576232910156e-02,6.303865462541580200e-02,-2.073271386325359344e-02,1.032666712999343872e-01,1.150866001844406128e-01,-3.810865432024002075e-02,-1.638978123664855957e-01
5.554136261343955994e-02,-1.009342893958091736e-01,-1.391983479261398315e-01,5.217588692903518677e-02,1.492537464946508408e-02,1.052068173885345459e-01,1.707632839679718018e-02,-4.449970647692680359e-02,1.281950995326042175e-02
1.264409422874450684e-01,-1.008759588003158569e-01,-2.965194880962371826e-01,1.698621511459350586e-01,1.188120767474174500e-01,-7.428596168756484985e-02,-1.122687458992004395e-01,1.765307188034057617e-01,7.275917381048202515e-02
1.059015467762947083e-01,2.012883722782135010e-01,1.621969193220138550e-01,-1.941115036606788635e-02,-5.100925266742706299e-02,1.442299336194992065e-01,-2.630575895309448242e-01,-3.023206293582916260e-01,-6.768094748258590698e-02
-2.855186760425567627e-01,2.290685661137104034e-02,1.953372806310653687e-01,-1.149225085973739624e-01,5.279215984046459198e-03,2.262173220515251160e-02,1.199777722358703613e-01,-4.484696313738822937e-02,3.260645549744367599e-03
7.745650410652160645e-02,-1.285247057676315308e-01,-2.731223702430725098e-01,2.271202653646469116e-01,2.256187945604324341e-01,1.103751659393310547e-01,-1.173691302537918091e-01,1.020891685038805008e-02,2.048186585307121277e-02
-9.078809618949890137e-02,-3.503459990024566650e-01,1.959363818168640137e-01,2.069616913795471191e-01,-1.691810637712478638e-01,1.609845906496047974e-01,1.578976660966873169e-01,-1.921999752521514893e-01,-8.543257415294647217e-02
-1.567596197128295898e-01,8.208851516246795654e-02,1.419814229011535645e-01,1.672859042882919312e-01,7.118363678455352783e-02,-5.653965473175048828e-02,-8.729190379381179810e-02,4.648951813578605652e-02,-2.375328987836837769e-01
-3.583807051181793213e-01,-2.979142963886260986e-01,6.288591027259826660e-02,-2.003384977579116821e-01,6.876533478498458862e-02,1.187051013112068176e-01,3.691052272915840149e-02,2.958798110485076904e-01,2.390145659446716309e-01
-2.387103810906410217e-02,1.771727800369262695e-01,-1.610086262226104736e-01,6.169053912162780762e-02,9.031698107719421387e-02,-1.050983890891075134e-01,-2.269211709499359131e-01,8.205217123031616211e-02,1.145943030714988708e-01
-2.162871062755584717e-01,-2.671305239200592041e-01,-1.792547553777694702e-01,-5.508111044764518738e-02,2.358012460172176361e-02,2.709269896149635315e-02,2.541241347789764404e-01,1.420263350009918213e-01,1.522433757781982422e-01
9.727722406387329102e-02,2.728012017905712128e-02,-3.394874557852745056e-02,-1.022014543414115906e-01,8.004022389650344849e-02,1.471218317747116089e-01,-2.000618577003479004e-01,6.295338273048400879e-02,8.004914969205856323e-03
2.148919850587844849e-01,4.709697142243385315e-02,-2.211809754371643066e-01,2.202630490064620972e-01,-1.263065636157989502e-02,-3.313785493373870850e-01,2.305465191602706909e-01,-3.240344673395156860e-02,-8.133505284786224365e-02
6.455613672733306885e-02,-6.499357987195253372e-03,8.639640361070632935e-02,2.414548024535179138e-02,-2.181050740182399750e-02,7.302448619157075882e-03,8.266451209783554077e-02,-4.709826409816741943e-02,-5.117288604378700256e-02
-2.111337035894393921e-01,-2.616685032844543457e-01,3.248576540499925613e-03,-2.271668612957000732e-01,8.900209516286849976e-02,1.718143373727798462e-01,1.016700640320777893e-01,1.886268258094787598e-01,1.786501556634902954e-01
1.328331232070922852e-01,9.490626305341720581e-02,1.774842441082000732e-01,2.088194340467453003e-01,2.950310299638658762e-04,2.631683833897113800e-03,1.575362123548984528e-02,-1.751704961061477661e-01,-4.262171387672424316e-01
4.394463077187538147e-02,-1.544234603643417358e-01,-6.597386300563812256e-02,-1.807002350687980652e-02,-4.587480332702398300e-03,2.171291559934616089e-01,8.399131894111633301e-02,1.378286280669271946e-03,-1.500539779663085938e-01
-1.082501858472824097e-01,7.205818593502044678e-02,2.290289476513862610e-02,-9.604088962078094482e-02,-1.528934538364410400e-01,9.886994957923889160e-02,-1.268167048692703247e-01,-1.260596606880426407e-02,-4.867828916758298874e-03
2.627870440483093262e-01,-9.053874760866165161e-02,-1.603242307901382446e-01,1.693459153175354004e-01,-3.722183108329772949e-01,4.531304165720939636e-02,9.091161191463470459e-02,-4.812935590744018555e-01,1.311684548854827881e-01
-3.276006877422332764e-01,-1.432060748338699341e-01,1.479967236518859863e-01,5.374971777200698853e-02,1.379953324794769287e-01,1.796777844429016113e-01,-6.824561860412359238e-03,-3.818701580166816711e-02,2.215129695832729340e-02
-1.195670440793037415e-01,7.631193846464157104e-02,2.394562065601348877e-01,1.125907823443412781e-01,2.056930959224700928e-01,-9.242007136344909668e-02,-1.070154234766960144e-01,-1.652009636163711548e-01,-2.261991053819656372e-01
1.805437058210372925e-01,1.554713547229766846e-01,-9.319769218564033508e-03,-9.481718391180038452e-02,4.493843391537666321e-02,8.730082958936691284e-02,-1.955574601888656616e-01,-2.252566367387771606e-01,-5.884267762303352356e-02
2.324836328625679016e-02,8.745062351226806641e-02,-1.633357405662536621e-01,8.819686621427536011e-02,1.202048361301422119e-01,1.632746160030364990e-01,-7.333480566740036011e-02,7.415144145488739014e-02,-5.433281511068344116e-02
-2.148884087800979614e-01,1.103826239705085754e-01,8.137494325637817383e-02,-2.269014567136764526e-01,-5.106646195054054260e-02,1.293030232191085815e-01,-1.307584196329116821e-01,1.486343741416931152e-01,1.147302687168121338e-01
-2.121357321739196777e-01,8.361637592315673828e-02,-6.271340698003768921e-02,2.001038491725921631e-01,1.386137753725051880e-01,2.371528185904026031e-02,-2.230803221464157104e-01,-1.870515793561935425e-01,-2.681653760373592377e-02
-2.450816929340362549e-01,-3.516833111643791199e-02,-1.704406924545764923e-03,-1.454274952411651611e-01,-3.529834374785423279e-02,1.787421405315399170e-01,8.056232333183288574e-02,1.522511541843414307e-01,-8.693619072437286377e-02
-3.088595159351825714e-02,1.287963334470987320e-02,3.121068701148033142e-02,-6.588193029165267944e-02,4.142139479517936707e-02,6.845775991678237915e-02,-3.172279149293899536e-02,-2.682119375094771385e-03,4.282135143876075745e-02
2.031653746962547302e-02,-3.424469530582427979e-01,-1.574596166610717773e-01,1.477863043546676636e-01,-4.788672924041748047e-02,1.572436243295669556e-01,2.052134275436401367e-01,2.302766777575016022e-02,-3.342382609844207764e-02
8.770211040973663330e-02,-6.495765596628189087e-02,-1.082895025610923767e-01,-3.626095876097679138e-02,9.884411096572875977e-02,9.112133085727691650e-02,5.633343383669853210e-02,7.004424929618835449e-02,-1.746615767478942871e-02
6.843097507953643799e-02,-1.272059679031372070e-01,-1.980044543743133545e-01,1.576155722141265869e-01,-8.458421379327774048e-02,-2.438599169254302979e-01,1.977663636207580566e-01,1.819135397672653198e-01,9.376946091651916504e-02
2.649077679961919785e-03,-8.786267600953578949e-03,-2.578007876873016357e-01,3.442183509469032288e-02,1.889999359846115112e-01,1.307085305452346802e-01,-2.702683806419372559e-01,-5.754049867391586304e-02,4.121470078825950623e-02
8.488997817039489746e-02,-6.153383851051330566e-02,-3.878557980060577393e-01,7.613985985517501831e-02,2.063166201114654541e-01,-8.380841463804244995e-02,1.462463941425085068e-02,1.718672811985015869e-01,1.306948065757751465e-01
6.335142254829406738e-02,-7.051236182451248169e-02,-2.073430269956588745e-02,6.236699596047401428e-02,-1.766410320997238159e-01,1.252336353063583374e-01,5.400597676634788513e-02,-4.494662582874298096e-02,6.353642046451568604e-02
-1.944425255060195923e-01,6.855200510472059250e-03,6.771957129240036011e-02,-4.013521596789360046e-02,2.070052921772003174e-02,1.006041243672370911e-01,1.435213815420866013e-02,-3.349478170275688171e-02,-1.719171181321144104e-03
-3.818496763706207275e-01,-2.400507032871246338e-01,1.792064756155014038e-01,-3.705667555332183838e-01,-1.641474217176437378e-01,1.391866952180862427e-01,-3.231064081192016602e-01,-1.146278232336044312e-01,1.380352973937988281e-01
-1.367085576057434082e-01,-8.488561213016510010e-02,3.105063736438751221e-02,5.879740417003631592e-02,5.479020625352859497e-02,1.651072949171066284e-01,-7.617454975843429565e-02,-1.155444234609603882e-02,-1.790801882743835449e-01
1.413782984018325806e-01,1.893954724073410034e-01,2.268796712160110474e-01,-5.882353335618972778e-02,-8.704514056444168091e-02,-4.973428696393966675e-02,-2.204530090093612671e-01,-2.368237972259521484e-01,-4.077706858515739441e-02
-3.535236045718193054e-02,1.364856809377670288e-01,5.117845535278320312e-02,-1.746831238269805908e-01,-2.518149912357330322e-01,-2.030860036611557007e-01,1.935758441686630249e-01,8.993377536535263062e-02,8.654765039682388306e-02
1.835836023092269897e-01,5.341337248682975769e-02,-2.864340841770172119e-01,1.174757331609725952e-01,-6.378327310085296631e-02,-2.763164639472961426e-01,2.086869180202484131e-01,7.518173009157180786e-02,-1.220021769404411316e-01
-1.570221930742263794e-01,-2.992061674594879150e-01,-2.275781780481338501e-01,1.737740337848663330e-01,1.497433055192232132e-02,4.999843239784240723e-02,8.215402811765670776e-02,1.262236684560775757e-01,1.685424447059631348e-01
