-2.437377423048019409e-01,-2.650189995765686035e-01,6.133009120821952820e-02,-6.787766516208648682e-02,3.416398167610168457e-02,2.614538669586181641e-01,1.413448154926300049e-01,1.031478494405746460e-01,-5.313446000218391418e-02
9.679201245307922363e-02,1.383683979511260986e-01,7.937439531087875366e-02,-1.474888622760772705e-01,-2.493005841970443726e-01,-1.525610536336898804e-01,3.892889246344566345e-02,7.503835111856460571e-02,4.496632516384124756e-02
-9.179478883743286133e-02,1.884656101465225220e-01,1.879603266716003418e-01,3.032082878053188324e-02,1.633539199829101562e-01,-1.054479926824569702e-01,3.958687931299209595e-02,-7.835323363542556763e-02,-3.191928267478942871e-01
2.145594060420989990e-01,1.190063804388046265e-01,1.060453280806541443e-01,-8.494290709495544434e-02,-5.343421176075935364e-02,7.083724718540906906e-03,-1.458819955587387085e-01,-1.014608144760131836e-01,-1.224396899342536926e-01
1.860158890485763550e-01,5.029029771685600281e-02,-7.118804752826690674e-02,1.525327116250991821e-01,-5.632568895816802979e-02,-1.159927472472190857e-01,4.163898527622222900e-02,-7.671070098876953125e-02,-1.126060560345649719e-01
1.215100213885307312e-01,3.982027247548103333e-02,-1.752606779336929321e-01,-2.517841570079326630e-02,1.175577044486999512e-01,6.744869053363800049e-02,-2.573074102401733398e-01,8.215932175517082214e-03,1.203339695930480957e-01
1.389710307121276855e-01,-5.316661670804023743e-02,-2.832191586494445801e-01,1.605226546525955200e-01,1.476248502731323242e-01,-6.618510931730270386e-02,-5.046627297997474670e-02,9.050229936838150024e-02,1.842990815639495850e-01
-3.364814519882202148e-01,-4.314923882484436035e-01,-4.542194604873657227e-01,1.330097317695617676e-01,2.258227616548538208e-01,-2.946671843528747559e-01,1.419789493083953857e-01,1.713202595710754395e-01,1.553063280880451202e-02
-1.865772753953933716e-01,-6.850510090589523315e-02,5.076704546809196472e-02,6.132131442427635193e-02,1.126289442181587219e-01,1.102400124073028564e-01,-5.156640708446502686e-02,9.475605934858322144e-02,-1.115432381629943848e-01
4.786168783903121948e-02,1.050485596060752869e-01,1.091525554656982422e-01,1.203770786523818970e-01,8.430689573287963867e-02,-7.616845425218343735e-03,1.784199848771095276e-02,4.348732903599739075e-02,8.410178869962692261e-02
5.900663137435913086e-02,-8.820690959692001343e-02,-2.529371678829193115e-01,2.172681838274002075e-01,4.395162221044301987e-03,-7.398879528045654297e-02,-1.868843846023082733e-02,1.459687352180480957e-01,7.623536884784698486e-02
-6.724382936954498291e-02,7.655975222587585449e-02,1.042178720235824585e-01,-7.225564867258071899e-02,-2.694194950163364410e-02,-1.132097020745277405e-01,5.479791387915611267e-02,1.054669022560119629e-01,2.820266224443912506e-02
4.897049511782824993e-04,-2.762000262737274170e-01,-2.621988952159881592e-01,1.940381973981857300e-01,9.475132077932357788e-02,-2.451952919363975525e-02,-2.253016084432601929e-02,1.104562506079673767e-01,1.538426280021667480e-01
9.223812073469161987e-02,1.128625422716140747e-01,-3.856714814901351929e-02,4.250477999448776245e-02,6.236132234334945679e-02,-1.305113583803176880e-01,1.304839998483657837e-01,2.329256199300289154e-02,-8.708204329013824463e-02
6.572224944829940796e-02,-3.023612797260284424e-01,-1.367862224578857422e-01,1.700951159000396729e-01,-9.335739165544509888e-02,-1.198729947209358215e-01,1.289705634117126465e-01,1.136164814233779907e-01,1.836572587490081787e-01
1.097411885857582092e-01,7.073669228702783585e-03,-1.415336132049560547e-01,1.260926276445388794e-01,3.620036691427230835e-02,-1.802128106355667114e-01,1.467032283544540405e-01,-2.125636301934719086e-02,-4.233060404658317566e-02
-2.518850266933441162e-01,1.054335758090019226e-01,9.477879852056503296e-02,-1.406159847974777222e-01,1.383598148822784424e-01,1.070398092269897461e-02,4.212686792016029358e-02,8.240354061126708984e-02,8.061689138412475586e-02
6.616348028182983398e-02,1.346323788166046143e-01,-7.448588497936725616e-03,9.804904460906982422e-03,1.026406958699226379e-01,-4.074382781982421875e-02,4.545471817255020142e-02,9.517402201890945435e-02,9.039976447820663452e-02
3.391552567481994629e-01,3.120690882205963135e-01,-2.016465514898300171e-01,2.308220714330673218e-01,-2.748766541481018066e-01,-4.419818520545959473e-01,-5.415602922439575195e-01,-4.275523722171783447e-01,1.092228069901466370e-01
-2.521177828311920166e-01,1.006856486201286316e-01,9.784530103206634521e-02,-1.521515995264053345e-01,4.847498238086700439e-02,1.427066773176193237e-01,-1.425403058528900146e-01,1.088398247957229614e-01,1.413109749555587769e-01
1.980552822351455688e-01,1.860322505235671997e-01,1.525790244340896606e-01,9.585645049810409546e-02,-4.103563353419303894e-02,-5.691057816147804260e-02,-7.983750849962234497e-02,-2.246363162994384766e-01,-1.991139501333236694e-01
4.155057296156883240e-02,7.246081531047821045e-02,-1.616969555616378784e-01,1.710997819900512695e-01,-2.001162618398666382e-02,-1.868438571691513062e-01,1.821860224008560181e-01,2.247495949268341064e-02,-1.205177083611488342e-01
-1.767304092645645142e-01,-7.284413278102874756e-02,-1.912060230970382690e-01,-2.156288735568523407e-02,1.728042215108871460e-01,5.261944979429244995e-02,1.560372207313776016e-02,7.403142005205154419e-02,1.552350372076034546e-01
9.860566258430480957e-02,-2.640576567500829697e-03,7.676673680543899536e-02,1.464478075504302979e-01,1.449216753244400024e-01,-1.162722706794738770e-01,-4.041111469268798828e-02,3.351490572094917297e-02,-1.131864562630653381e-01
1.541460584849119186e-02,9.897981584072113037e-02,1.248963698744773865e-01,-2.187878824770450592e-02,-2.422746270895004272e-02,1.616592854261398315e-01,-2.871345877647399902e-01,-1.592231094837188721e-01,-3.729169548023492098e-04
2.713722735643386841e-02,-1.209242418408393860e-01,-2.416464984416961670e-01,-4.603162780404090881e-02,7.461106777191162109e-02,3.001257590949535370e-02,7.312220335006713867e-02,1.673404313623905182e-02,1.583653390407562256e-01
1.851490885019302368e-01,-8.084709197282791138e-02,-8.337537199258804321e-02,-2.424932867288589478e-01,-2.046839594841003418e-01,4.891475662589073181e-02,5.972881615161895752e-02,1.766160130500793457e-01,1.120964959263801575e-01
9.099226444959640503e-02,1.503494679927825928e-01,-6.391661707311868668e-03,-3.139105811715126038e-02,7.642106711864471436e-02,-3.105703555047512054e-02,8.635475486516952515e-02,7.849783450365066528e-02,-4.192174598574638367e-02
9.908442199230194092e-02,-1.309283822774887085e-01,-2.006974369287490845e-01,1.907090991735458374e-01,-3.320538625121116638e-02,-3.378409445285797119e-01,9.974138438701629639e-02,9.902092814445495605e-02,-1.844087988138198853e-01
-3.145861625671386719e-02,-5.760197527706623077e-04,-2.079489678144454956e-01,1.944443583488464355e-02,1.471435874700546265e-01,1.128976866602897644e-01,1.190686412155628204e-02,-2.887033671140670776e-02,3.294703736901283264e-02
-1.131548285484313965e-01,9.409324079751968384e-02,-1.982539519667625427e-02,-3.885472193360328674e-02,1.464760303497314453e-01,4.177588969469070435e-02,3.558526560664176941e-02,-5.241576209664344788e-02,-7.439002394676208496e-02
3.036154434084892273e-02,-2.789079211652278900e-02,-1.356209814548492432e-01,7.773896306753158569e-02,1.543287038803100586e-01,1.411644518375396729e-01,-1.036050021648406982e-01,-7.874301075935363770e-02,1.713059470057487488e-02
2.654621191322803497e-02,1.239736750721931458e-01,5.618203431367874146e-02,8.170463889837265015e-02,-1.431853696703910828e-02,2.184337005019187927e-02,-8.942648023366928101e-02,1.146193817257881165e-01,4.916662350296974182e-02
-2.121551036834716797e-01,7.692235708236694336e-02,6.480091810226440430e-02,-3.743689134716987610e-02,3.265186399221420288e-02,2.140076272189617157e-02,7.446146756410598755e-02,9.694299101829528809e-02,1.242053881287574768e-02
-2.013954892754554749e-02,1.548926532268524170e-01,-1.698171794414520264e-01,1.355033516883850098e-01,1.703810989856719971e-01,-8.806227147579193115e-02,1.409486681222915649e-02,8.063059300184249878e-02,-9.894184023141860962e-02
1.607416421175003052e-01,1.023498270660638809e-02,-6.090987846255302429e-02,1.074682995676994324e-01,-1.159198675304651260e-02,-8.783126622438430786e-02,1.772144585847854614e-01,-8.501816540956497192e-02,-1.862450689077377319e-01
1.581303030252456665e-01,2.106749266386032104e-02,2.209554426372051239e-02,1.865316778421401978e-01,-5.983984097838401794e-02,-1.356042325496673584e-01,-9.665782004594802856e-02,-1.375280469655990601e-01,-1.231907214969396591e-02
1.041608396917581558e-02,-9.436668455600738525e-02,-3.711770847439765930e-02,-3.885516896843910217e-02,-1.612277142703533173e-02,-3.209629282355308533e-02,-2.055524662137031555e-02,-8.216395974159240723e-02,-1.720347814261913300e-02
1.084920167922973633e-01,2.045652568340301514e-01,1.459068804979324341e-01,-1.644120663404464722e-01,-1.216495689004659653e-02,1.635941267013549805e-01,-3.061994314193725586e-01,-2.330311536788940430e-01,5.661053955554962158e-02
9.711551666259765625e-02,7.907542586326599121e-02,-1.416074782609939575e-01,-6.240824609994888306e-02,8.131569623947143555e-02,1.206833794713020325e-01,6.871198862791061401e-02,1.842528348788619041e-03,7.753556221723556519e-02
1.927338987588882446e-01,8.098165690898895264e-02,1.281692981719970703e-01,-3.169686347246170044e-02,4.197445139288902283e-02,6.490028463304042816e-03,-2.260862290859222412e-01,-9.290457516908645630e-02,-1.398676633834838867e-01
-1.635067015886306763e-01,-1.849212944507598877e-01,6.477555725723505020e-03,1.066366359591484070e-01,1.821320801973342896e-01,1.485486328601837158e-01,1.301418840885162354e-01,-1.282477527856826782e-01,-8.485452830791473389e-02
1.211624220013618469e-01,-2.537027001380920410e-03,6.311319023370742798e-02,-5.619851872324943542e-02,1.775858253240585327e-01,2.813258767127990723e-02,-1.899675428867340088e-01,-7.034372538328170776e-02,-3.136532381176948547e-02
8.118804544210433960e-02,1.237369924783706665e-01,-1.285080760717391968e-01,1.105099618434906006e-01,-3.108585812151432037e-02,-1.066090241074562073e-01,4.762142896652221680e-02,5.793292820453643799e-02,-1.230284348130226135e-01
1.316373795270919800e-01,1.118416413664817810e-01,2.117536514997482300e-01,-1.319673955440521240e-01,-1.197856292128562927e-01,5.388024449348449707e-02,-7.679196447134017944e-02,-2.433724254369735718e-01,7.712731137871742249e-03
3.020171821117401123e-02,-1.451326757669448853e-01,-8.072939515113830566e-02,-6.081062182784080505e-02,3.518348187208175659e-02,1.573926508426666260e-01,4.367212206125259399e-02,7.441206276416778564e-02,9.971117228269577026e-02
2.029519900679588318e-02,1.863352358341217041e-01,-6.751166656613349915e-03,-3.046806156635284424e-02,1.646624952554702759e-01,1.139838844537734985e-01,-2.720163166522979736e-01,-1.786729991436004639e-01,-1.820141635835170746e-02
-8.138239383697509766e-02,1.340400129556655884e-01,-1.179352104663848877e-01,-4.155511036515235901e-02,6.133238226175308228e-02,4.874958097934722900e-02,-2.744581922888755798e-02,7.644136901944875717e-03,9.869944304227828979e-02
-2.792997956275939941e-01,-2.574994564056396484e-01,2.435314701870083809e-03,-3.311179280281066895e-01,1.417132765054702759e-01,1.757844239473342896e-01,-1.335655897855758667e-01,6.093323603272438049e-02,2.013798952102661133e-01
1.227304562926292419e-01,-6.093547865748405457e-02,1.238628998398780823e-01,1.876792907714843750e-01,1.773130497895181179e-03,2.009853869676589966e-01,-4.065620154142379761e-02,-1.812967211008071899e-01,-1.563012152910232544e-01
2.840903587639331818e-03,3.055981546640396118e-02,-2.694877386093139648e-01,4.927011206746101379e-02,8.822730928659439087e-02,5.527085065841674805e-02,7.712660729885101318e-02,3.048636578023433685e-02,1.338416039943695068e-01
1.683849543333053589e-01,-6.702715903520584106e-02,-8.516775816679000854e-02,1.517595797777175903e-01,-6.875818967819213867e-02,-1.085532233119010925e-01,7.486514747142791748e-02,6.185525283217430115e-02,-6.694686412811279297e-02
1.756591051816940308e-01,1.863393485546112061e-01,9.273609519004821777e-02,-1.462795957922935486e-02,9.168416261672973633e-03,-1.528092101216316223e-02,-1.728924214839935303e-01,-2.391497790813446045e-01,-8.290628343820571899e-02
1.858318746089935303e-01,4.161755368113517761e-02,1.146842315793037415e-01,1.195773556828498840e-01,7.755342870950698853e-02,4.713289439678192139e-02,-1.575779765844345093e-01,-2.781851291656494141e-01,-2.117826044559478760e-01
-1.345223933458328247e-01,-2.335850298404693604e-01,-4.905499890446662903e-02,-8.692423254251480103e-02,-5.282961949706077576e-02,6.511295586824417114e-02,2.055220454931259155e-01,1.570513248443603516e-01,9.176449477672576904e-02
1.566138677299022675e-02,7.986999303102493286e-02,8.894514292478561401e-02,1.056617647409439087e-01,1.173113361001014709e-01,3.543188050389289856e-02,6.612996011972427368e-02,-2.146129263564944267e-03,-2.192868143320083618e-01
4.403891973197460175e-03,-2.835343591868877411e-02,-1.824143230915069580e-01,1.596300601959228516e-01,6.067033857107162476e-02,1.253489404916763306e-01,2.160842157900333405e-02,7.671683281660079956e-02,-3.759053349494934082e-02
-2.070396393537521362e-01,-3.310885652899742126e-02,2.308657467365264893e-01,-2.638471126556396484e-01,-7.398145645856857300e-02,2.015722692012786865e-01,-1.487964242696762085e-01,3.578893467783927917e-02,1.512086540460586548e-01
1.892049014568328857e-01,3.260219842195510864e-02,-2.234983295202255249e-01,1.176914051175117493e-01,1.089474372565746307e-02,1.196759715676307678e-01,7.834953069686889648e-02,1.633231192827224731e-01,-1.365049090236425400e-02
1.160197108983993530e-01,6.076038628816604614e-02,-1.040797233581542969e-01,1.389153748750686646e-01,1.484707742929458618e-01,3.509663417935371399e-02,-1.560951322317123413e-01,2.682280167937278748e-02,7.322230190038681030e-02
-1.624517887830734253e-01,-9.592283517122268677e-02,1.774183809757232666e-01,-1.964268088340759277e-01,4.845212399959564209e-02,2.104409486055374146e-01,-9.949094615876674652e-03,-2.890986204147338867e-02,-1.403339393436908722e-02
6.337664555758237839e-03,-1.154157668352127075e-01,3.664147481322288513e-02,6.436499953269958496e-02,1.080725193023681641e-01,9.218266606330871582e-02,-7.246938347816467285e-02,1.763543672859668732e-02,-8.366241119801998138e-03
-5.025360360741615295e-02,-1.071098297834396362e-01,8.196133375167846680e-02,1.646559089422225952e-01,5.413437262177467346e-02,1.636627763509750366e-01,1.188978645950555801e-02,5.278733000159263611e-02,-1.172253340482711792e-01
-1.549904048442840576e-02,-2.138785868883132935e-01,-1.814959943294525146e-01,1.969222873449325562e-01,-1.233888864517211914e-01,-8.929453045129776001e-02,1.753265410661697388e-01,1.450587660074234009e-01,1.751621365547180176e-01
-2.214584797620773315e-01,-8.436255902051925659e-02,1.565115451812744141e-01,2.765430836006999016e-03,2.304815202951431274e-01,9.638886898756027222e-02,7.139807939529418945e-02,7.872445881366729736e-02,-2.372146695852279663e-01
-2.504812479019165039e-01,4.343402758240699768e-02,1.014150828123092651e-01,-1.170916631817817688e-01,1.510492265224456787e-01,1.374404430389404297e-01,5.546953901648521423e-02,5.222851783037185669e-02,-6.764714419841766357e-02
1.594359129667282104e-01,1.317401826381683350e-01,2.118523120880126953e-01,-2.418522164225578308e-02,-8.344667963683605194e-03,-3.855333477258682251e-02,-2.248835116624832153e-01,-2.372383773326873779e-01,-5.025012046098709106e-02
-1.622374653816223145e-01,1.073857694864273071e-01,8.037655800580978394e-02,-1.397369801998138428e-01,7.336764782667160034e-02,1.080572009086608887e-01,-1.144239082932472229e-01,1.045391783118247986e-01,-1.532314158976078033e-02
1.699618846178054810e-01,-1.245074421167373657e-01,-6.601698696613311768e-02,1.497808545827865601e-01,-7.022473216056823730e-02,-1.709590703248977661e-01,5.403192341327667236e-02,6.392470002174377441e-02,-8.926102519035339355e-02
1.356217563152313232e-01,1.538138240575790405e-01,1.293618083000183105e-01,-1.336280629038810730e-02,2.278156764805316925e-02,2.213936299085617065e-02,-2.296464890241622925e-01,-2.147752791643142700e-01,-2.894986234605312347e-02
2.483394183218479156e-02,4.782450944185256958e-02,9.821934252977371216e-02,3.452595323324203491e-03,7.126406580209732056e-02,-6.121159344911575317e-02,6.285615265369415283e-02,1.452824100852012634e-03,8.288966119289398193e-02
3.452860191464424133e-02,1.356624811887741089e-01,-1.403605192899703979e-01,-1.479555945843458176e-02,1.326055377721786499e-01,-1.292580068111419678e-01,3.394766524434089661e-02,6.704001687467098236e-03,7.120900601148605347e-02
-1.185362264513969421e-01,-2.353862076997756958e-01,-3.865526616573333740e-02,1.573269665241241455e-01,8.987142937257885933e-04,7.126692682504653931e-02,6.613387912511825562e-02,8.631730824708938599e-02,6.247093155980110168e-02
2.302705049514770508e-01,7.269104570150375366e-02,1.419400274753570557e-01,-1.976660639047622681e-02,1.141926795244216919e-01,-2.930670278146862984e-03,-2.255898118019104004e-01,-2.331858873367309570e-01,-1.310879141092300415e-01
4.856571555137634277e-03,7.412901520729064941e-02,4.297414422035217285e-02,1.661350727081298828e-01,1.841437965631484985e-01,-3.042297810316085815e-02,1.816807687282562256e-01,-2.266766130924224854e-02,-2.282492816448211670e-01
1.576893404126167297e-02,8.685130625963211060e-02,4.354863986372947693e-02,7.117104530334472656e-02,-1.794801838696002960e-02,-8.053039014339447021e-02,9.343984723091125488e-02,1.635057628154754639e-01,1.107008233666419983e-01
-1.009823232889175415e-01,-2.825605869293212891e-01,-1.109508574008941650e-01,1.617373824119567871e-01,-4.609000310301780701e-02,-8.394347876310348511e-02,1.481567919254302979e-01,1.972685456275939941e-01,1.127447113394737244e-01
5.638952553272247314e-02,1.410824954509735107e-01,2.367029786109924316e-01,-1.857776790857315063e-01,-3.131659328937530518e-01,9.760428220033645630e-03,1.509030461311340332e-01,-1.095112562179565430e-01,1.803770847618579865e-02
9.010881185531616211e-03,-9.800378233194351196e-02,-2.648140490055084229e-01,2.206564135849475861e-02,2.161474339663982391e-02,-3.966780751943588257e-02,2.918473631143569946e-02,1.340585350990295410e-01,1.921843886375427246e-01
-3.392162919044494629e-02,1.398602575063705444e-01,-1.939189136028289795e-01,6.152941659092903137e-02,3.486284986138343811e-02,-5.499200522899627686e-02,-9.097829461097717285e-03,4.937851801514625549e-02,9.676742553710937500e-02
-8.705282211303710938e-02,-2.839192450046539307e-01,-8.381357789039611816e-02,8.297683298587799072e-02,-3.228667378425598145e-02,-5.202895775437355042e-02,1.093097031116485596e-01,2.161493301391601562e-01,1.040807366371154785e-01
-6.548604462295770645e-03,4.302786290645599365e-02,-1.427562534809112549e-01,1.477714926004409790e-01,1.644092351198196411e-01,1.362134069204330444e-01,-7.474298030138015747e-02,-3.001974895596504211e-02,5.936565622687339783e-02
1.316298395395278931e-01,9.174014441668987274e-03,-3.298582136631011963e-01,2.031403332948684692e-01,-3.870484977960586548e-02,-2.810634076595306396e-01,1.573167145252227783e-01,2.579963505268096924e-01,6.527385115623474121e-02
7.473571598529815674e-02,3.623225912451744080e-02,-3.482366800308227539e-01,1.033315062522888184e-01,7.887717336416244507e-02,-1.618636548519134521e-01,1.073499843478202820e-01,2.314174473285675049e-01,7.556937634944915771e-02
-1.754327714443206787e-01,-9.347666800022125244e-02,1.180777922272682190e-01,3.786666691303253174e-02,3.773518139496445656e-03,1.489742100238800049e-01,8.935556560754776001e-02,-3.407548740506172180e-02,-8.684032410383224487e-02
9.499677270650863647e-02,1.692988276481628418e-01,5.068279430270195007e-02,-1.231873035430908203e-01,1.655796170234680176e-01,1.768143326044082642e-01,-3.590981960296630859e-01,-1.802400648593902588e-01,-1.224315818399190903e-02
-2.236953079700469971e-01,-3.555563837289810181e-02,2.011994421482086182e-01,-1.109478920698165894e-01,-7.400655001401901245e-02,1.838915348052978516e-01,-1.394043713808059692e-01,7.649988681077957153e-02,1.721481792628765106e-02
-2.594896852970123291e-01,-2.300753295421600342e-01,-2.692298963665962219e-02,-1.025225617922842503e-03,-6.376282777637243271e-03,-6.374533474445343018e-02,2.415587604045867920e-01,1.473531424999237061e-01,1.078812256455421448e-01
-8.814200013875961304e-02,1.882127672433853149e-02,-7.654461264610290527e-02,-6.803941726684570312e-02,-4.308595880866050720e-02,-2.949951449409127235e-03,-4.081335291266441345e-02,-9.107346832752227783e-02,-9.139276295900344849e-02
1.943908631801605225e-01,-3.130363225936889648e-01,3.736869990825653076e-02,-2.879242599010467529e-01,-1.069789975881576538e-01,1.102229505777359009e-01,-2.383836358785629272e-01,-1.359365123789757490e-04,1.996480822563171387e-01
-6.568537652492523193e-02,-4.047689493745565414e-03,1.235284209251403809e-01,1.173812672495841980e-01,6.420947611331939697e-02,-1.214523985981941223e-02,4.372827708721160889e-02,1.304032355546951294e-01,5.597435683012008667e-02
-8.156350255012512207e-02,1.049643158912658691e-01,1.681408844888210297e-02,7.126008719205856323e-02,4.445550963282585144e-02,-1.287460625171661377e-01,1.998652815818786621e-01,9.573604911565780640e-02,-2.705033123493194580e-01
5.636949464678764343e-02,-2.782804518938064575e-02,-1.188887134194374084e-01,6.609465926885604858e-02,7.502631098031997681e-02,-1.531743328087031841e-03,1.183392778038978577e-01,1.698339581489562988e-01,-1.648723892867565155e-02
-1.502019912004470825e-01,-1.504994779825210571e-01,1.128616333007812500e-01,-1.186644285917282104e-01,1.499229967594146729e-01,9.835842251777648926e-02,1.803557425737380981e-01,9.805259108543395996e-02,-1.325803548097610474e-01
4.639564827084541321e-02,1.113432794809341431e-01,3.495713695883750916e-02,-6.216168776154518127e-02,1.537495572119951248e-02,-9.082322008907794952e-03,-2.819757536053657532e-02,9.072785824537277222e-02,6.772772222757339478e-02
1.499414891004562378e-01,1.512326896190643311e-01,-1.597404181957244873e-01,1.323947012424468994e-01,4.380397126078605652e-02,-3.713978454470634460e-02,1.053515970706939697e-01,1.358767300844192505e-01,-1.418510675430297852e-01
6.225949153304100037e-03,7.266039028763771057e-04,5.356453731656074524e-02,4.866247251629829407e-02,1.420765519142150879e-01,1.452324688434600830e-01,-1.394836455583572388e-01,-5.816566199064254761e-02,-1.542760431766510010e-01
1.302713900804519653e-01,1.955607533454895020e-01,-5.307738855481147766e-02,2.581383660435676575e-02,1.551284492015838623e-01,-1.956030428409576416e-01,-3.995838388800621033e-02,1.433110386133193970e-01,-1.139556244015693665e-01
1.338178366422653198e-01,1.394203901290893555e-01,1.000369414687156677e-01,7.746742665767669678e-02,3.508977219462394714e-02,6.494812667369842529e-02,-2.187914699316024780e-01,-2.239476591348648071e-01,-1.358410418033599854e-01
1.331176012754440308e-01,1.267495304346084595e-01,-3.720533847808837891e-02,-1.457391083240509033e-01,1.200930960476398468e-02,9.330894052982330322e-02,-1.567562520503997803e-01,-1.033920124173164368e-01,1.093076020479202271e-01
-3.371550515294075012e-02,8.968542516231536865e-02,5.909314751625061035e-02,7.914027571678161621e-02,-2.235838770866394043e-02,-5.484729632735252380e-02,5.460203811526298523e-02,1.333338320255279541e-01,6.863731890916824341e-02
-2.335640639066696167e-01,9.824153780937194824e-02,7.172741461545228958e-03,-1.131698489189147949e-03,2.544158324599266052e-02,4.028609767556190491e-02,2.331090625375509262e-03,6.419394165277481079e-02,1.039526984095573425e-01
-6.781534850597381592e-02,8.722107857465744019e-02,1.289523988962173462e-01,-6.937566213309764862e-03,4.858697950839996338e-02,2.462284266948699951e-01,-2.044391036033630371e-01,-2.898919284343719482e-01,-1.101523041725158691e-01
-1.113986875861883163e-02,-1.141889914870262146e-01,1.000072956085205078e-01,1.303406655788421631e-01,4.653563722968101501e-02,1.284267753362655640e-01,1.049508154392242432e-01,2.641667984426021576e-02,-1.751525253057479858e-01
-2.821705341339111328e-01,-7.781949639320373535e-02,1.775757223367691040e-01,-2.172383069992065430e-01,2.448703348636627197e-02,1.897168904542922974e-01,-1.010680496692657471e-01,-1.502920407801866531e-03,1.397013366222381592e-01
1.065697073936462402e-01,3.459065407514572144e-02,-2.399490401148796082e-02,3.834005072712898254e-02,-8.750878274440765381e-02,1.092261299490928650e-01,6.177781149744987488e-02,2.098167128860950470e-02,1.100277453660964966e-01
3.893226012587547302e-02,-9.573480114340782166e-03,-4.943650960922241211e-02,5.446139723062515259e-02,1.103029306977987289e-02,1.536299586296081543e-01,-1.071977149695158005e-02,1.660971902310848236e-02,-8.738603442907333374e-02
7.486365735530853271e-02,6.054364889860153198e-02,1.048758104443550110e-01,-2.145496606826782227e-01,-1.751885190606117249e-02,1.513796597719192505e-01,-2.508628070354461670e-01,-1.093877926468849182e-01,1.447123438119888306e-01
-3.292602002620697021e-01,-9.648226201534271240e-02,4.517603293061256409e-02,-2.214552611112594604e-01,2.470669895410537720e-02,7.132822275161743164e-02,-1.244031265377998352e-01,-2.442668750882148743e-02,1.688103973865509033e-01
-3.165279924869537354e-01,-1.593399196863174438e-01,3.016963228583335876e-02,-1.041958183050155640e-01,5.560541525483131409e-02,7.330609112977981567e-02,2.402013391256332397e-01,1.597965508699417114e-01,5.039023607969284058e-02
-1.804156154394149780e-01,1.203873902559280396e-01,-2.853279933333396912e-03,-2.143533527851104736e-01,-1.336370594799518585e-02,1.063025370240211487e-01,-1.399139016866683960e-01,1.613386720418930054e-01,1.477063596248626709e-01
-1.087764129042625427e-01,-4.033892154693603516e-01,-3.704187646508216858e-02,-5.450713261961936951e-02,2.764890156686306000e-02,2.083618491888046265e-01,1.334959417581558228e-01,1.451726555824279785e-01,6.845764070749282837e-02
3.162693604826927185e-02,7.608883082866668701e-02,5.598745122551918030e-02,1.812997274100780487e-02,7.802893966436386108e-02,1.071803122758865356e-01,-5.185366421937942505e-02,3.684531524777412415e-02,9.121117740869522095e-02
1.267964392900466919e-01,-1.302784532308578491e-01,-3.197152912616729736e-01,9.882791340351104736e-02,5.700782057829201221e-04,1.745210774242877960e-02,1.022725477814674377e-01,1.224283277988433838e-01,1.393826305866241455e-01
7.591179013252258301e-02,1.460470110177993774e-01,6.752378493547439575e-02,1.064039692282676697e-01,1.362185776233673096e-01,8.283945173025131226e-02,2.088905870914459229e-02,4.491367936134338379e-02,3.749109804630279541e-02
-4.342423081398010254e-01,-5.343793630599975586e-01,-2.708032727241516113e-01,-4.152705967426300049e-01,6.021981686353683472e-02,2.169089168310165405e-01,-1.433896366506814957e-02,3.421594202518463135e-01,2.381682395935058594e-01
1.961966156959533691e-01,1.118182763457298279e-01,1.558043211698532104e-01,1.889089047908782959e-01,-7.351632695645093918e-03,-2.603441476821899414e-01,1.430885344743728638e-01,-2.194184660911560059e-01,-3.294259309768676758e-01
-1.055347919464111328e-02,8.227536827325820923e-02,3.747221827507019043e-02,1.619020700454711914e-01,4.242264106869697571e-02,9.272978454828262329e-02,3.131819516420364380e-02,-2.741233631968498230e-02,9.245012886822223663e-03
-1.020908281207084656e-01,4.880103841423988342e-02,4.769647121429443359e-02,9.202893078327178955e-02,3.297769930213689804e-03,1.225893944501876831e-01,8.361771702766418457e-02,-2.908452786505222321e-02,1.018746122717857361e-01
-2.954387106001377106e-03,-1.869003027677536011e-01,-2.494773715734481812e-01,1.010197028517723083e-01,5.308903008699417114e-02,1.857452541589736938e-01,-2.453211694955825806e-02,1.336792260408401489e-01,-9.824763052165508270e-03
9.288425743579864502e-02,8.724939078092575073e-02,-2.139889448881149292e-02,-1.574780233204364777e-02,5.889293178915977478e-02,1.199539974331855774e-01,-6.142595317214727402e-03,5.049631744623184204e-02,1.043622270226478577e-01
1.872256747446954250e-03,-8.716478198766708374e-02,-2.818629741668701172e-01,3.463780134916305542e-02,-5.463414266705513000e-02,-3.847226500511169434e-02,1.011445075273513794e-01,1.918651312589645386e-01,1.267729699611663818e-01
1.557827442884445190e-01,1.375187635421752930e-01,2.704738173633813858e-03,-6.364587694406509399e-02,1.321997866034507751e-02,1.831681653857231140e-02,3.789117932319641113e-02,-1.596433296799659729e-02,-2.028983086347579956e-03
1.252732574939727783e-01,1.212842091917991638e-01,1.625325232744216919e-01,-8.346293866634368896e-02,3.354636579751968384e-02,2.010378688573837280e-01,-2.592689096927642822e-01,-2.703726887702941895e-01,-8.092203736305236816e-02
1.392847746610641479e-01,-1.431564986705780029e-01,-3.935429453849792480e-01,2.596065998077392578e-01,-1.020336002111434937e-01,-1.178392171859741211e-01,2.765508890151977539e-01,6.307438760995864868e-02,3.759479895234107971e-02
-1.854025572538375854e-01,-1.551279723644256592e-01,7.878310978412628174e-02,-3.187323808670043945e-01,5.192660167813301086e-02,2.077288031578063965e-01,-3.245281428098678589e-02,2.528947889804840088e-01,1.194480955600738525e-01
-1.199851632118225098e-01,-2.364091575145721436e-01,-3.264942765235900879e-02,1.371617019176483154e-01,4.526478797197341919e-02,4.603467509150505066e-02,7.096162438392639160e-02,1.046895235776901245e-01,-1.145518291741609573e-02
1.101518720388412476e-01,1.280345320701599121e-01,-1.043516620993614197e-01,5.285526067018508911e-02,9.322758764028549194e-02,1.770165860652923584e-01,-2.396192997694015503e-01,-6.657371670007705688e-02,9.545832872390747070e-03
3.160222200676798820e-03,8.432609587907791138e-02,1.067533120512962341e-01,1.811085045337677002e-01,1.130801215767860413e-01,-1.494766920804977417e-01,5.940806120634078979e-02,-4.798923432826995850e-02,-1.663759052753448486e-01
-6.886123865842819214e-02,1.048835366964340210e-01,9.462927281856536865e-02,9.084577858448028564e-02,6.779536604881286621e-02,5.295638367533683777e-02,-3.284272179007530212e-02,7.959593087434768677e-02,8.938914537429809570e-02
9.247627854347229004e-02,1.034419983625411987e-01,1.110305711627006531e-01,-7.026041299104690552e-02,5.533435568213462830e-02,-5.242717266082763672e-02,-9.916949272155761719e-02,4.575838893651962280e-02,-2.280307747423648834e-02
1.250407844781875610e-01,1.684092134237289429e-01,7.837532460689544678e-02,-1.645568609237670898e-01,1.081101745367050171e-01,1.143968999385833740e-01,-2.938668131828308105e-01,-2.234881371259689331e-01,1.378691196441650391e-01
9.325448423624038696e-02,8.472584933042526245e-02,-2.624189853668212891e-01,9.094493091106414795e-02,5.845821276307106018e-02,-1.745878607034683228e-01,7.603801786899566650e-02,2.194250673055648804e-01,-2.106488123536109924e-02
1.401292979717254639e-01,7.251611351966857910e-02,3.757283464074134827e-02,6.196405738592147827e-02,-3.232459723949432373e-02,-9.249086678028106689e-02,6.945005059242248535e-02,4.711552336812019348e-02,-7.002761214971542358e-02
-9.163153916597366333e-02,1.037517413496971130e-01,7.789258658885955811e-02,5.598800256848335266e-02,-6.664352118968963623e-02,1.101285591721534729e-02,2.348793484270572662e-02,-6.953128427267074585e-02,7.963624596595764160e-02
-2.381321042776107788e-01,5.468136817216873169e-02,5.996156111359596252e-02,4.111440852284431458e-02,1.970327347517013550e-01,7.422963529825210571e-02,-2.084981650114059448e-03,3.374386206269264221e-02,-2.008289396762847900e-01
8.154924213886260986e-02,1.254840642213821411e-01,-8.633410185575485229e-02,-6.501273065805435181e-02,1.174381673336029053e-01,1.817739307880401611e-01,-8.677045255899429321e-02,-9.970612078905105591e-02,-3.783935308456420898e-02
-2.530738711357116699e-01,-8.821696788072586060e-02,1.774107068777084351e-01,-2.276741713285446167e-01,1.088723391294479370e-01,4.926016554236412048e-02,-5.278936401009559631e-02,1.637344509363174438e-01,6.025881692767143250e-02
-2.692489027976989746e-01,-2.475895136594772339e-01,7.218101620674133301e-02,-2.617253223434090614e-03,1.421553194522857666e-01,5.741271376609802246e-02,1.509932279586791992e-01,-3.583011031150817871e-02,6.248779594898223877e-02
-1.440119147300720215e-01,1.115867644548416138e-01,-4.212787374854087830e-03,5.022109672427177429e-02,1.639467030763626099e-01,-1.290230900049209595e-01,2.162246853113174438e-01,-8.123078197240829468e-02,-2.353386729955673218e-01
-4.491165652871131897e-02,1.205071657896041870e-01,2.121590673923492432e-01,-2.191015928983688354e-01,-3.837590217590332031e-01,-1.784449517726898193e-01,7.029742747545242310e-02,1.071373373270034790e-01,-1.250933706760406494e-01
1.952800084836781025e-03,2.926241233944892883e-02,-6.633036583662033081e-02,2.991065382957458496e-02,4.296489804983139038e-02,1.279546618461608887e-01,3.032341226935386658e-02,-1.356247067451477051e-01,8.296479284763336182e-02
1.422345191240310669e-01,-4.246706888079643250e-02,-1.335193589329719543e-02,-3.001774102449417114e-02,-8.214425295591354370e-02,6.862825900316238403e-02,5.278281867504119873e-02,1.499495953321456909e-01,-2.916725724935531616e-02
1.583583503961563110e-01,1.380077600479125977e-01,-5.019464343786239624e-02,4.866788908839225769e-02,-5.645157396793365479e-02,-3.031499870121479034e-02,5.241139978170394897e-02,2.413617214187979698e-03,1.690850853919982910e-01
-1.308137476444244385e-01,-2.957578599452972412e-01,-1.072005853056907654e-01,1.725043356418609619e-01,-3.377773240208625793e-02,1.008875947445631027e-02,1.471608728170394897e-01,1.603647470474243164e-01,1.045518517494201660e-01
1.559072434902191162e-01,4.555912315845489502e-02,-2.340158261358737946e-02,1.516825854778289795e-01,1.511296778917312622e-01,6.172266229987144470e-02,-6.575748324394226074e-02,2.985022217035293579e-02,8.094029128551483154e-02
-1.322333118878304958e-04,-1.234853863716125488e-01,1.719123274087905884e-01,-2.321642488241195679e-01,-1.175556927919387817e-01,9.761678427457809448e-02,-1.035845056176185608e-01,9.589363634586334229e-02,1.452370733022689819e-01
-2.386438287794589996e-02,-5.138202384114265442e-02,-1.116129383444786072e-01,9.467305988073348999e-02,1.687350422143936157e-01,7.799733430147171021e-02,-1.547686904668807983e-01,-4.737950861454010010e-02,8.293034881353378296e-02
1.167462691664695740e-01,8.669386804103851318e-02,6.795378774404525757e-02,9.849838912487030029e-03,8.897650986909866333e-02,1.250035911798477173e-01,7.916639000177383423e-02,6.305203586816787720e-02,-2.791248820722103119e-02
1.108550056815147400e-01,1.460633575916290283e-01,2.415907979011535645e-01,-1.176301972009241581e-03,-4.369232431054115295e-02,9.501031041145324707e-02,-2.353971153497695923e-01,-2.692383229732513428e-01,-5.964750424027442932e-02
2.581081539392471313e-02,-2.185578271746635437e-02,-1.314392089843750000e-01,7.418411970138549805e-02,1.594325751066207886e-01,7.958806306123733521e-02,-1.717153340578079224e-01,-4.908287897706031799e-02,1.110841035842895508e-01
2.192364633083343506e-02,-5.298384651541709900e-02,-4.615309834480285645e-02,-1.320263277739286423e-02,1.383417397737503052e-01,-7.422529160976409912e-02,-5.753806326538324356e-03,1.474417448043823242e-01,1.083049699664115906e-01
-1.490415930747985840e-01,1.190667077898979187e-01,1.839762181043624878e-01,-2.383905202150344849e-01,-3.828214108943939209e-01,-1.495998650789260864e-01,1.792082786560058594e-01,1.125510558485984802e-01,-1.556305587291717529e-01
2.341761812567710876e-02,1.664387434720993042e-01,2.124195396900177002e-01,-1.700295358896255493e-01,-1.339417397975921631e-01,-2.195025607943534851e-02,-3.372383415699005127e-01,-3.861542046070098877e-01,-2.417954653501510620e-01
1.487424969673156738e-01,2.003833651542663574e-01,1.678498089313507080e-01,-8.387199044227600098e-02,1.008526422083377838e-02,1.433793548494577408e-02,-1.229104474186897278e-01,-2.948654890060424805e-01,-4.990042373538017273e-02
1.742934435606002808e-02,1.831742934882640839e-03,-1.985795050859451294e-01,1.199701055884361267e-01,1.120825260877609253e-01,-1.253737956285476685e-01,1.054967790842056274e-01,6.970960646867752075e-02,-1.912716962397098541e-02
-1.939049921929836273e-02,1.815215870738029480e-02,5.839752405881881714e-02,5.063116177916526794e-02,-1.935027656145393848e-03,2.594344019889831543e-01,-2.259951680898666382e-01,-3.011942803859710693e-01,1.274686902761459351e-01
-4.027232527732849121e-03,-4.255503416061401367e-02,-8.230068534612655640e-02,-9.005561470985412598e-02,-1.014658994972705841e-02,1.536670257337391376e-03,-4.758709296584129333e-02,-5.232324823737144470e-02,-2.297471836209297180e-02
-1.962170749902725220e-01,-1.136098131537437439e-01,2.214858680963516235e-01,-2.524017989635467529e-01,-1.013990491628646851e-02,1.962635666131973267e-01,-1.398109495639801025e-01,8.519679307937622070e-02,1.109743267297744751e-01
2.231286317110061646e-01,-2.391791641712188721e-01,-3.025637269020080566e-01,-5.298053622245788574e-01,-3.121203780174255371e-01,1.306444965302944183e-02,-1.571610718965530396e-01,3.001015186309814453e-01,3.305410444736480713e-01
-6.958501040935516357e-02,2.343218028545379639e-02,5.681884009391069412e-03,1.079280599951744080e-01,1.766298413276672363e-01,-1.736985635943710804e-03,1.227889060974121094e-01,-1.431534588336944580e-01,-2.386300265789031982e-01
8.411832153797149658e-02,4.318217933177947998e-02,1.671560853719711304e-01,1.444366723299026489e-01,1.067063286900520325e-01,7.241206616163253784e-02,-2.086861282587051392e-01,-2.097574472427368164e-01,-2.089101523160934448e-01
-2.980330288410186768e-01,-3.665820360183715820e-01,-2.434606701135635376e-01,-1.565785855054855347e-01,2.351799048483371735e-02,7.998779416084289551e-02,1.754806190729141235e-02,1.687723100185394287e-01,2.378270030021667480e-01
9.364692866802215576e-02,7.058697938919067383e-02,3.800466284155845642e-02,2.236386016011238098e-02,1.120250448584556580e-01,3.886130824685096741e-02,1.020567119121551514e-01,-2.014341577887535095e-02,-9.395626932382583618e-02
-1.523288488388061523e-01,3.281696140766143799e-02,-4.931923747062683105e-02,5.220726132392883301e-02,1.090857610106468201e-01,4.594385623931884766e-02,-1.104736551642417908e-01,1.140660885721445084e-02,6.755001097917556763e-02
1.654394268989562988e-01,-7.364846020936965942e-02,-2.061029970645904541e-01,1.748617589473724365e-01,-4.138178005814552307e-02,-2.058901935815811157e-01,1.416908856481313705e-02,1.833050101995468140e-01,-5.107593536376953125e-02
-2.020633518695831299e-01,-3.900389373302459717e-02,2.399756014347076416e-01,-2.273150831460952759e-01,-6.083035841584205627e-02,1.685190498828887939e-01,-2.116701900959014893e-01,-4.936258494853973389e-02,1.545879840850830078e-01
3.763200715184211731e-03,1.070652827620506287e-01,2.531204223632812500e-01,-3.792773187160491943e-02,-1.109762042760848999e-01,7.234246283769607544e-02,1.527771204710006714e-01,-3.244444727897644043e-01,-1.393212378025054932e-01
1.358966380357742310e-01,1.173585876822471619e-01,-2.009968459606170654e-01,1.887446641921997070e-02,1.107844486832618713e-01,6.840107589960098267e-02,1.805380359292030334e-02,1.515770107507705688e-01,-5.088363587856292725e-02
-7.443480938673019409e-02,1.844650357961654663e-01,-6.712689250707626343e-02,-2.509957253932952881e-01,1.128204911947250366e-01,8.037573099136352539e-02,-2.180247306823730469e-01,8.664863556623458862e-02,1.310243010520935059e-01
-1.703256368637084961e-01,-2.118906229734420776e-01,2.596368454396724701e-02,1.551528871059417725e-01,-1.099440008401870728e-01,-1.950074881315231323e-01,2.168674468994140625e-01,1.864727437496185303e-01,6.276180595159530640e-02
1.561899334192276001e-01,1.794253289699554443e-01,9.030816704034805298e-02,-1.147513762116432190e-01,4.534244164824485779e-02,7.765462249517440796e-02,-1.283840835094451904e-01,-2.480825781822204590e-01,-8.665385842323303223e-02
2.250859737396240234e-01,2.440668493509292603e-01,1.046892479062080383e-01,4.692546650767326355e-02,-7.287026941776275635e-02,6.338838487863540649e-02,-2.460268437862396240e-01,-2.107145637273788452e-01,-1.188312470912933350e-01
9.962138533592224121e-02,1.644279658794403076e-01,-7.699400186538696289e-02,6.131588667631149292e-02,7.577954977750778198e-02,2.894825302064418793e-02,5.853404756635427475e-03,1.089693233370780945e-01,1.407261639833450317e-01
-1.089581623673439026e-01,1.425700336694717407e-01,-8.856610395014286041e-03,7.890829443931579590e-02,6.325940042734146118e-02,-8.146500587463378906e-02,7.814291119575500488e-02,4.641339927911758423e-02,-1.092252433300018311e-01
1.043361239135265350e-02,1.119383350014686584e-01,1.933071203529834747e-02,5.626131594181060791e-02,1.002289578318595886e-01,-8.786177635192871094e-02,-6.931484490633010864e-02,1.116348356008529663e-01,9.123701602220535278e-02
9.601289033889770508e-02,-1.319166868925094604e-01,1.194315925240516663e-01,6.684836000204086304e-02,-1.334053575992584229e-01,1.431977152824401855e-01,1.231630146503448486e-01,-1.052685156464576721e-01,-6.558429449796676636e-02
1.889080852270126343e-01,1.245662122964859009e-01,-4.398902878165245056e-03,1.806445121765136719e-01,-5.184551328420639038e-02,-1.943877339363098145e-01,2.785145677626132965e-02,-1.134956106543540955e-01,-1.412720419466495514e-02
1.381567120552062988e-01,5.060572177171707153e-03,-2.200781702995300293e-01,9.498755633831024170e-02,1.091645509004592896e-01,-1.940055005252361298e-02,-6.439244747161865234e-02,1.537674758583307266e-02,1.330902576446533203e-01
3.104868903756141663e-02,3.803848847746849060e-02,1.946783810853958130e-01,1.386985033750534058e-01,8.536057174205780029e-02,1.010135747492313385e-03,-6.192937865853309631e-02,-1.059108525514602661e-01,-2.787075936794281006e-01
-6.823971867561340332e-02,4.734476655721664429e-02,2.710275538265705109e-02,-1.776063814759254456e-02,-2.743296511471271515e-02,8.318046480417251587e-02,1.473777890205383301e-01,-7.391456514596939087e-02,6.512995064258575439e-02
-1.571706682443618774e-01,-3.494817912578582764e-01,-2.717756628990173340e-01,1.795229613780975342e-01,5.817155912518501282e-02,-1.545336544513702393e-01,2.671809494495391846e-01,1.285334080457687378e-01,9.074418246746063232e-02
-1.781289875507354736e-01,-1.869226098060607910e-01,-1.358735263347625732e-01,-4.623845592141151428e-02,2.437651623040437698e-03,1.091013550758361816e-01,2.146933376789093018e-01,1.411919146776199341e-01,6.251981854438781738e-02
-2.123446315526962280e-01,-2.456799522042274475e-02,1.307742446660995483e-01,1.139331161975860596e-01,1.259595155715942383e-01,1.485969498753547668e-02,-5.494502931833267212e-02,9.741236269474029541e-02,2.698221802711486816e-02
-1.961268782615661621e-01,-3.174479603767395020e-01,-1.062532067298889160e-01,8.299554139375686646e-02,-8.043991401791572571e-03,-1.787198521196842194e-02,1.649631410837173462e-01,2.608378529548645020e-01,1.158498674631118774e-01
-3.421494364738464355e-01,-1.312017440795898438e-01,-2.534115873277187347e-02,-1.047727763652801514e-01,1.210415642708539963e-02,1.842017024755477905e-01,3.022232055664062500e-01,7.008818536996841431e-02,-3.844158351421356201e-02
1.667000055313110352e-01,1.534086912870407104e-01,-1.642876267433166504e-01,1.686295419931411743e-01,4.513688851147890091e-03,-2.971276342868804932e-01,2.142354287207126617e-02,1.290621310472488403e-01,-1.351169347763061523e-01
3.104539811611175537e-01,-1.327052563428878784e-01,-8.672230690717697144e-02,-1.065192520618438721e-01,-3.645482063293457031e-01,1.497482508420944214e-02,-4.130205512046813965e-01,3.509097918868064880e-02,2.609230577945709229e-01
-3.453167974948883057e-01,-3.396055102348327637e-01,-2.740642055869102478e-02,-1.145068630576133728e-01,1.780300289392471313e-01,2.688853442668914795e-01,1.012095138430595398e-01,2.097112238407135010e-01,4.262994602322578430e-02
-2.544533275067806244e-02,-7.150092720985412598e-02,6.983918696641921997e-02,3.971011564135551453e-02,1.418012082576751709e-01,-1.262613385915756226e-02,2.850788272917270660e-02,1.083239316940307617e-01,-1.499693095684051514e-01
9.166809171438217163e-02,-1.144940108060836792e-01,-2.643752992153167725e-01,2.406955361366271973e-01,1.108596399426460266e-01,4.110979661345481873e-02,5.527713149785995483e-02,2.301404811441898346e-02,9.169766679406166077e-03
2.381999343633651733e-01,3.290558457374572754e-01,7.273524254560470581e-02,2.142190635204315186e-01,-2.057079598307609558e-02,-3.118267655372619629e-01,1.333438605070114136e-02,-3.686834275722503662e-01,-2.248559594154357910e-01
2.696179039776325226e-02,1.307269632816314697e-01,4.754424467682838440e-02,1.565556228160858154e-02,-3.056511282920837402e-02,7.638844102621078491e-02,5.918648838996887207e-02,8.865933865308761597e-02,1.179446056485176086e-01
-1.763167828321456909e-01,-2.618480324745178223e-01,-1.246302649378776550e-01,6.970360875129699707e-03,7.193136960268020630e-02,6.325425207614898682e-02,1.290267258882522583e-01,1.134174466133117676e-01,1.001092195510864258e-01
7.585398852825164795e-02,-1.333495974540710449e-01,2.673268504440784454e-02,-1.092295045964419842e-03,-4.478166252374649048e-02,-3.646483644843101501e-02,3.723556641489267349e-03,7.125107198953628540e-02,2.953641675412654877e-02
-2.271843329071998596e-02,1.192209199070930481e-01,2.167409360408782959e-01,-2.421187981963157654e-02,-7.332275807857513428e-02,7.917664945125579834e-02,-1.100675612688064575e-01,-2.612099349498748779e-01,5.572171509265899658e-02
-1.081634759902954102e-01,-2.975670695304870605e-01,-1.341948807239532471e-01,3.549077082425355911e-03,-6.169459968805313110e-02,1.330281198024749756e-01,6.532292813062667847e-02,2.299138605594635010e-01,1.012952849268913269e-01
-3.410498201847076416e-01,-1.285821795463562012e-01,1.776246130466461182e-01,-1.411612629890441895e-01,1.633918285369873047e-01,1.408865898847579956e-01,1.738022267818450928e-01,1.361098587512969971e-01,5.955161154270172119e-02
-3.441321551799774170e-01,-2.376572340726852417e-01,-2.980142459273338318e-02,-1.816790550947189331e-01,2.309262985363602638e-03,1.048521846532821655e-01,1.183930039405822754e-01,9.110815078020095825e-02,1.703403294086456299e-01
-7.029609289020299911e-03,1.111412718892097473e-01,1.012798920273780823e-01,-8.638848364353179932e-02,1.163573041558265686e-01,9.358464181423187256e-02,-8.673860132694244385e-02,8.299303054809570312e-02,7.347752153873443604e-02
2.109106928110122681e-01,9.115791320800781250e-02,1.939727216958999634e-01,-8.800221607089042664e-03,6.814922392368316650e-02,-6.972710788249969482e-02,-1.419100612401962280e-01,-2.395225167274475098e-01,-1.226637810468673706e-01
1.120667532086372375e-01,1.690739989280700684e-01,-1.542997658252716064e-01,1.881650835275650024e-01,-1.398212835192680359e-02,-2.780299782752990723e-01,-2.081300318241119385e-02,1.029885411262512207e-01,-1.521158125251531601e-02
2.412180230021476746e-02,2.094622999429702759e-01,1.234475970268249512e-01,-1.292237639427185059e-01,3.126172348856925964e-03,1.140397638082504272e-01,-2.422709167003631592e-01,-1.715749651193618774e-01,4.581419751048088074e-02
5.373838823288679123e-03,1.417006850242614746e-01,-1.070229057222604752e-02,-6.577157974243164062e-02,1.412544697523117065e-01,1.992527581751346588e-02,9.482090175151824951e-02,2.624800801277160645e-02,2.878014184534549713e-02
1.222125887870788574e-01,-5.615705624222755432e-02,-2.394964247941970825e-01,1.491437256336212158e-01,1.646640598773956299e-01,-8.354791253805160522e-02,-4.822624474763870239e-02,3.720130771398544312e-02,8.944065123796463013e-02
3.154452890157699585e-02,8.102694153785705566e-02,-2.076068371534347534e-01,-9.078640490770339966e-02,1.219119653105735779e-01,-5.638750270009040833e-02,-1.172013580799102783e-03,1.695449501276016235e-01,5.635847896337509155e-02
-1.142048910260200500e-01,-2.776130437850952148e-01,-1.194674596190452576e-01,6.915060430765151978e-02,9.695478528738021851e-02,1.886496320366859436e-02,1.569317430257797241e-01,7.983949035406112671e-02,5.342470109462738037e-02
1.153101250529289246e-01,-1.718574017286300659e-02,8.688423782587051392e-02,5.031918361783027649e-02,1.125534251332283020e-01,1.023717150092124939e-01,-1.920739263296127319e-01,-1.498547196388244629e-01,-9.918490424752235413e-03
-1.145482063293457031e-01,-2.403174899518489838e-02,1.736646443605422974e-01,-3.411433994770050049e-01,-9.992132335901260376e-02,2.028276771306991577e-01,-2.253737300634384155e-01,-5.595469847321510315e-02,5.514467135071754456e-02
-7.598731666803359985e-02,8.666247874498367310e-02,-6.917608529329299927e-02,2.395863877609372139e-03,1.459508687257766724e-01,5.800950527191162109e-02,-5.165993422269821167e-02,9.255270659923553467e-02,4.499421268701553345e-02
5.788955837488174438e-02,-3.924724832177162170e-02,-1.912384107708930969e-02,-2.975952439010143280e-02,-9.562989696860313416e-03,1.564699560403823853e-01,5.444713309407234192e-02,4.101796820759773254e-02,-8.360830135643482208e-03
5.168292671442031860e-02,3.041123598814010620e-02,2.710055792704224586e-03,2.140458971261978149e-01,1.284993588924407959e-01,8.450664579868316650e-02,-4.604413360357284546e-02,-1.200226321816444397e-01,-1.999436169862747192e-01
4.202271997928619385e-02,3.177351132035255432e-02,-1.922329068183898926e-01,1.067993566393852234e-01,2.106239646673202515e-02,9.141337126493453979e-02,-5.027076229453086853e-02,8.832024037837982178e-02,1.186384782195091248e-01
5.487071722745895386e-02,-5.467324331402778625e-02,1.247415766119956970e-01,1.542590409517288208e-01,9.914012253284454346e-02,6.078198924660682678e-02,9.722303599119186401e-02,-1.049370691180229187e-01,4.778881743550300598e-02
-1.308294087648391724e-01,5.874543637037277222e-02,1.356848776340484619e-01,-1.855690181255340576e-01,4.285581409931182861e-02,6.539688259363174438e-02,-1.386695802211761475e-01,1.356378048658370972e-01,1.935969339683651924e-03
8.412717282772064209e-02,-7.026698440313339233e-02,9.045730531215667725e-02,5.359706282615661621e-02,1.449360102415084839e-01,5.683180317282676697e-02,1.921541988849639893e-02,-6.392936408519744873e-02,-2.186551457270979881e-03
9.453552216291427612e-02,1.281665563583374023e-01,8.704744279384613037e-02,1.639608480036258698e-02,1.119160950183868408e-01,3.572799265384674072e-02,5.871018022298812866e-02,-1.514630857855081558e-03,4.951450228691101074e-02
1.697243452072143555e-01,4.465922713279724121e-02,-1.611585766077041626e-01,1.995925009250640869e-01,-2.431017579510807991e-03,-2.403487861156463623e-01,7.251848280429840088e-02,-4.790652310475707054e-04,-1.054891273379325867e-01
-1.607608944177627563e-01,2.419648505747318268e-02,-4.197228234261274338e-03,1.364258229732513428e-01,1.114206835627555847e-01,1.875274777412414551e-01,-8.144598454236984253e-02,-1.309388433583080769e-03,-1.547577977180480957e-01
1.001839339733123779e-01,4.688407853245735168e-02,1.478358060121536255e-01,-1.041309349238872528e-02,-4.862231202423572540e-03,6.725391000509262085e-02,-1.741494387388229370e-01,-2.271202057600021362e-01,4.253509268164634705e-02
-5.676538683474063873e-03,1.227754056453704834e-01,1.352479774504899979e-02,3.071852400898933411e-02,7.410635054111480713e-02,4.348992183804512024e-02,6.112525984644889832e-02,1.199316233396530151e-01,6.821822375059127808e-03
-9.930622763931751251e-04,1.825364977121353149e-01,2.938644886016845703e-01,-2.477483451366424561e-01,-1.160137429833412170e-01,2.506113052368164062e-01,-2.172525376081466675e-01,-1.995798200368881226e-01,2.033477090299129486e-02
6.038567423820495605e-02,-1.965394318103790283e-01,-3.547382652759552002e-01,2.816054522991180420e-01,5.867477506399154663e-02,-3.435284793376922607e-01,1.635690331459045410e-01,3.340737819671630859e-01,4.451376199722290039e-02
6.708537787199020386e-02,-9.917916357517242432e-02,-1.567666977643966675e-01,-3.219849243760108948e-02,-1.490932255983352661e-01,-9.010310471057891846e-02,5.677368864417076111e-02,1.848344206809997559e-01,1.918406784534454346e-01
1.331971734762191772e-01,4.740898683667182922e-02,-2.508636377751827240e-02,1.263343393802642822e-01,5.734564736485481262e-02,-1.408001184463500977e-01,1.296533271670341492e-02,1.699581593275070190e-01,-2.349700964987277985e-02
8.841734379529953003e-02,-5.281914770603179932e-02,7.011397927999496460e-02,1.953806541860103607e-02,-1.163710653781890869e-02,8.942877501249313354e-02,1.290345638990402222e-01,-3.599005937576293945e-02,6.917411088943481445e-02
-4.090668261051177979e-02,-2.738685011863708496e-01,-1.020972505211830139e-01,1.372562646865844727e-01,-3.595073148608207703e-02,-2.108804322779178619e-02,2.910532988607883453e-02,1.922862082719802856e-01,1.084606498479843140e-01
1.093746200203895569e-01,9.144889563322067261e-02,1.037006154656410217e-01,2.819303423166275024e-02,3.867035731673240662e-02,9.186860918998718262e-02,-1.980297267436981201e-01,-1.412922888994216919e-01,-1.940065324306488037e-01
7.158514857292175293e-02,1.213934365659952164e-02,6.841620430350303650e-03,9.515299648046493530e-02,4.664043709635734558e-02,1.835784465074539185e-01,-1.001728773117065430e-01,3.509672358632087708e-03,1.162792220711708069e-01
-5.457082763314247131e-02,-1.732696741819381714e-01,1.294623315334320068e-02,-6.201497837901115417e-02,-8.601413667201995850e-02,-6.915047764778137207e-02,2.398704886436462402e-01,1.309518814086914062e-01,3.349871933460235596e-02
1.972340345382690430e-01,7.865716516971588135e-02,1.311153024435043335e-01,-3.244701027870178223e-02,1.948328129947185516e-02,1.218797862529754639e-01,-1.582227498292922974e-01,-2.413595169782638550e-01,-1.161752790212631226e-01
3.195486962795257568e-02,1.423268020153045654e-01,1.090054214000701904e-01,4.980853945016860962e-02,6.817896664142608643e-02,6.926423311233520508e-02,-2.236314266920089722e-01,-2.170652300119400024e-01,-5.924621224403381348e-02
-1.632253825664520264e-02,-1.145521923899650574e-01,-1.182652339339256287e-01,1.719696223735809326e-01,2.081667929887771606e-01,2.197571471333503723e-02,-1.068334057927131653e-01,1.973928324878215790e-02,2.575725782662630081e-03
1.847672909498214722e-01,1.485549211502075195e-01,9.507867693901062012e-02,-1.639810577034950256e-02,2.366816438734531403e-02,1.492066867649555206e-02,-1.906307041645050049e-01,-2.077155560255050659e-01,-1.464471518993377686e-01
1.021459028124809265e-01,1.659109741449356079e-01,2.357137203216552734e-02,5.063398927450180054e-02,1.247602030634880066e-01,-7.553980499505996704e-02,3.731486573815345764e-02,4.896100237965583801e-02,3.221854940056800842e-02
8.629506826400756836e-02,8.055809140205383301e-02,7.219144701957702637e-02,-1.962399482727050781e-01,-2.670829929411411285e-02,5.689857527613639832e-02,-1.349792033433914185e-01,1.294555515050888062e-01,3.984220698475837708e-02
-2.819594368338584900e-02,-2.419680058956146240e-01,-1.433015763759613037e-01,-3.935698792338371277e-02,5.827375128865242004e-02,-5.438751354813575745e-02,1.471204757690429688e-01,1.248252913355827332e-01,1.760508716106414795e-01
-3.206863999366760254e-02,1.064093112945556641e-01,-5.059405043721199036e-02,1.252935677766799927e-01,-3.236100450158119202e-02,1.175426915287971497e-01,-3.514719754457473755e-02,2.267108531668782234e-03,-2.288526855409145355e-02
2.303077466785907745e-02,-1.919717788696289062e-01,-1.722728312015533447e-01,1.074642017483711243e-01,-4.192369058728218079e-02,-1.420479267835617065e-01,1.093105673789978027e-01,1.483159065246582031e-01,1.323559582233428955e-01
1.144117116928100586e-01,3.757479786872863770e-02,-1.207393035292625427e-01,1.451516002416610718e-01,-6.665890663862228394e-02,-1.872466653585433960e-01,1.162433400750160217e-01,8.015375584363937378e-02,-1.016253829002380371e-01
7.033278048038482666e-02,1.846107691526412964e-01,8.792517334222793579e-02,-2.516138553619384766e-01,-2.924899756908416748e-01,-2.162903547286987305e-01,8.643279969692230225e-02,2.842520549893379211e-02,6.961002200841903687e-02
-3.125976026058197021e-01,-2.748770415782928467e-01,1.025490239262580872e-01,-2.767674326896667480e-01,1.068536564707756042e-02,1.996458321809768677e-01,1.445755362510681152e-01,1.709915846586227417e-01,1.377149969339370728e-01
1.337489932775497437e-01,1.236870735883712769e-01,1.054757833480834961e-01,-1.264329701662063599e-01,-5.592232942581176758e-02,-1.049312129616737366e-01,-5.816369876265525818e-02,-8.159004151821136475e-02,4.927914962172508240e-02
1.766207367181777954e-01,-2.529256977140903473e-02,-1.572034358978271484e-01,1.315645873546600342e-01,1.723809167742729187e-02,-2.292887121438980103e-01,1.070216447114944458e-01,3.946185484528541565e-02,-7.240798324346542358e-02
1.957322061061859131e-01,6.891033798456192017e-02,5.386506393551826477e-02,-1.171739771962165833e-01,9.145355969667434692e-02,4.654264450073242188e-02,-2.682542502880096436e-01,-1.504446417093276978e-01,1.649019271135330200e-01
-7.406213879585266113e-02,-1.881495714187622070e-01,-2.008774727582931519e-01,1.200218945741653442e-01,3.475653380155563354e-02,-4.790960624814033508e-02,1.642118096351623535e-01,3.771811723709106445e-02,8.764191716909408569e-02
-2.354823648929595947e-01,1.291017681360244751e-01,1.415941566228866577e-01,3.827325254678726196e-02,1.189976260066032410e-01,-2.174012130126357079e-03,-2.245488762855529785e-02,-2.687331475317478180e-02,-3.431630507111549377e-02
-3.054431676864624023e-01,-2.160899639129638672e-01,3.319641947746276855e-02,-3.131642937660217285e-01,1.020423769950866699e-01,2.146524637937545776e-01,-6.438849866390228271e-02,1.445442289113998413e-01,1.282199621200561523e-01
-2.674951218068599701e-02,2.318262010812759399e-01,8.435647934675216675e-02,-8.201375603675842285e-03,-4.190475493669509888e-02,-3.367127105593681335e-02,1.681306660175323486e-01,-1.969669610261917114e-01,-1.953745484352111816e-01
-1.736014932394027710e-01,-3.130806386470794678e-01,-1.319806426763534546e-01,-2.552885189652442932e-02,1.453556418418884277e-01,6.194803491234779358e-02,1.785378605127334595e-01,4.863116145133972168e-02,1.473710238933563232e-01
-1.712591499090194702e-01,1.648452281951904297e-01,3.814017027616500854e-02,-1.838132441043853760e-01,7.690645754337310791e-02,1.033276468515396118e-01,-4.381982237100601196e-02,1.785201281309127808e-01,-3.826490044593811035e-02
6.577690690755844116e-02,-2.007232457399368286e-01,-1.177152097225189209e-01,2.109503559768199921e-02,-1.416629850864410400e-01,-6.846296042203903198e-02,1.717253029346466064e-01,1.728212535381317139e-01,1.199751645326614380e-01
4.059233516454696655e-02,2.620088309049606323e-02,-1.516300737857818604e-01,1.533017903566360474e-01,9.926459193229675293e-02,-7.785490155220031738e-02,1.100616380572319031e-01,9.870585799217224121e-02,-9.011605381965637207e-02
1.740860342979431152e-01,1.649890393018722534e-01,6.552063673734664917e-02,1.008068397641181946e-01,2.160069197416305542e-01,-1.650439202785491943e-01,8.657632395625114441e-03,-1.139047369360923767e-01,-4.212914705276489258e-01
-2.760266885161399841e-02,3.156503662467002869e-02,1.416661143302917480e-01,-2.792403399944305420e-01,-1.585800200700759888e-01,1.581197679042816162e-01,9.517044574022293091e-02,-2.586887180805206299e-01,4.826785996556282043e-02
2.873226068913936615e-02,6.783800572156906128e-02,-1.092764511704444885e-01,-4.031426459550857544e-02,6.443570554256439209e-02,4.038087651133537292e-02,-3.637421131134033203e-02,1.901484876871109009e-01,6.355528533458709717e-02
1.259515583515167236e-01,5.616270005702972412e-02,-1.040785834193229675e-01,1.958880871534347534e-01,-2.662019105628132820e-04,-3.078850507736206055e-01,1.483757346868515015e-01,8.964284509420394897e-02,-1.813769340515136719e-01
3.926993906497955322e-02,4.645781219005584717e-02,-1.342678070068359375e-01,1.117273122072219849e-01,2.032807096838951111e-02,6.427960097789764404e-02,-1.814543083310127258e-02,8.660425245761871338e-02,3.521146718412637711e-03
1.179840713739395142e-01,2.529100142419338226e-02,-8.700494468212127686e-02,1.291651725769042969e-01,-6.287132948637008667e-02,-4.938749596476554871e-02,1.051040738821029663e-01,1.365112811326980591e-01,5.673507973551750183e-02
7.095624506473541260e-02,1.339492946863174438e-01,-9.290694259107112885e-03,-9.052649885416030884e-02,8.706777542829513550e-02,-1.089001670479774475e-01,-8.315493166446685791e-02,1.719230115413665771e-01,4.017886146903038025e-02
9.886208176612854004e-02,7.985901832580566406e-02,6.909519433975219727e-02,-7.661252468824386597e-02,7.977907359600067139e-02,-9.622573107481002808e-02,7.216536253690719604e-02,9.192613512277603149e-02,5.110397189855575562e-02
-1.694474220275878906e-01,-3.097915053367614746e-01,-1.501453518867492676e-01,-3.417032957077026367e-02,9.361383318901062012e-02,6.484770774841308594e-02,2.366404831409454346e-01,1.320684254169464111e-01,1.091698408126831055e-01
-1.601765155792236328e-01,-2.780130505561828613e-01,-1.508965995162725449e-02,1.030773892998695374e-01,6.342407315969467163e-02,-6.302569806575775146e-02,1.271343678236007690e-01,1.367966681718826294e-01,8.280527591705322266e-02
-2.345849275588989258e-01,4.733765963464975357e-03,2.794409357011318207e-02,5.714065954089164734e-02,1.918260008096694946e-01,1.411815434694290161e-01,7.497424725443124771e-03,7.704003155231475830e-02,-9.646445512771606445e-02
1.729951649904251099e-01,1.422256529331207275e-01,1.736021339893341064e-01,6.120520830154418945e-02,4.376815631985664368e-03,1.915438473224639893e-01,-1.696876585483551025e-01,-3.272722065448760986e-01,-1.806043535470962524e-01
1.564454138278961182e-01,-1.649451404809951782e-01,-3.331031501293182373e-01,2.448076307773590088e-01,3.666282445192337036e-02,-3.300013542175292969e-01,1.167649105191230774e-01,3.158992528915405273e-01,-1.795637421309947968e-02
-8.752606809139251709e-02,1.361658275127410889e-01,2.238152921199798584e-01,-1.799575388431549072e-01,-5.329785495996475220e-02,1.087745204567909241e-01,-2.334490865468978882e-01,5.240781232714653015e-03,8.974090218544006348e-02
-2.394059002399444580e-01,5.204245075583457947e-02,1.061145868152379990e-02,1.505542546510696411e-01,1.674378663301467896e-01,-1.113567128777503967e-01,-4.763489961624145508e-02,1.067231595516204834e-01,-1.922058314085006714e-01
7.174716889858245850e-02,-1.421544700860977173e-01,-2.789179980754852295e-01,8.310530334711074829e-02,1.407983005046844482e-01,5.146758630871772766e-02,-1.450290717184543610e-02,8.797773718833923340e-02,6.499027460813522339e-02
9.993296116590499878e-02,-1.491256207227706909e-01,-2.575907111167907715e-02,6.166983768343925476e-02,7.639224082231521606e-02,1.938548237085342407e-01,1.813630200922489166e-02,2.664350904524326324e-02,-3.671448677778244019e-03
1.458857860416173935e-02,3.454022482037544250e-02,2.862135171890258789e-01,-3.709914535284042358e-02,-1.335301399230957031e-01,5.939766019582748413e-02,5.492415651679039001e-02,-2.902795374393463135e-01,-3.046731650829315186e-02
-2.544835805892944336e-01,3.334968909621238708e-02,5.524800717830657959e-02,-2.165282666683197021e-01,2.591969072818756104e-02,1.808256357908248901e-01,-7.717794924974441528e-02,1.229194700717926025e-01,1.001563966274261475e-01
-2.741801440715789795e-01,-9.921554476022720337e-03,8.844288438558578491e-02,2.447635978460311890e-01,2.134693711996078491e-01,8.378711342811584473e-02,-1.541065238416194916e-02,-1.662574261426925659e-01,-2.007867097854614258e-01
5.396008118987083435e-02,2.277301847934722900e-01,2.359298020601272583e-01,1.290561109781265259e-01,-6.137393414974212646e-02,-5.993712693452835083e-02,-2.135585695505142212e-01,-2.784188091754913330e-01,-7.231639232486486435e-03
-2.994688451290130615e-01,-3.664515614509582520e-01,3.876589238643646240e-02,-3.756776452064514160e-01,-7.717399299144744873e-02,1.544796526432037354e-01,-2.837437689304351807e-01,-5.968321487307548523e-02,1.849679350852966309e-01
-4.271570742130279541e-01,-3.874873220920562744e-01,3.057884983718395233e-02,-1.817815750837326050e-01,1.435422748327255249e-01,9.328870475292205811e-02,2.161758095026016235e-01,3.118578493595123291e-01,1.957261413335800171e-01
1.780043914914131165e-02,1.875721663236618042e-01,-1.668184180743992329e-03,-1.041519939899444580e-01,1.454058289527893066e-01,1.735984236001968384e-01,-3.679254651069641113e-01,-1.640492975711822510e-01,1.429068744182586670e-01
-2.655159235000610352e-01,-1.956152021884918213e-01,2.293253690004348755e-02,-2.949262261390686035e-01,1.377476844936609268e-02,1.131441816687583923e-01,-1.144996136426925659e-01,1.102190688252449036e-01,2.502848207950592041e-01
-1.759256273508071899e-01,-1.475334763526916504e-01,-1.188604533672332764e-02,3.836524114012718201e-02,1.593203991651535034e-01,1.206186711788177490e-01,7.242145389318466187e-02,7.477664202451705933e-02,-1.335288435220718384e-01
4.022641479969024658e-02,5.692796781659126282e-02,2.261783927679061890e-02,-2.606995403766632080e-02,1.897491142153739929e-02,-3.269356675446033478e-04,5.798479169607162476e-02,-2.562337089329957962e-03,6.286988407373428345e-02
9.000167250633239746e-02,-8.311703801155090332e-03,-1.871526092290878296e-01,5.585432052612304688e-02,1.711867451667785645e-01,1.486844271421432495e-01,5.886768922209739685e-02,-9.546058624982833862e-02,-4.307838156819343567e-02
4.029281809926033020e-02,1.442093700170516968e-01,-1.534032076597213745e-01,-6.051785871386528015e-02,2.556944638490676880e-02,9.519277513027191162e-02,5.060889571905136108e-02,-5.461133085191249847e-03,3.037314163520932198e-03
-6.470070779323577881e-02,9.376773238182067871e-02,3.928988426923751831e-02,-5.755671858787536621e-02,9.744307398796081543e-02,1.004439815878868103e-01,-3.298475965857505798e-02,1.081891823559999466e-02,-4.194178152829408646e-03
1.022163778543472290e-01,1.156008839607238770e-01,-6.727050244808197021e-02,5.994338542222976685e-02,4.644157830625772476e-03,5.423218756914138794e-02,2.303323009982705116e-03,1.057783067226409912e-01,9.438669681549072266e-02
1.554496288299560547e-01,4.246663302183151245e-02,-3.029850870370864868e-02,-3.931612893939018250e-02,2.360899299383163452e-01,2.156110666692256927e-02,-3.106156289577484131e-01,-4.107972979545593262e-02,1.083295345306396484e-01
-4.216170782456174493e-05,-1.802692860364913940e-01,-2.140664011240005493e-01,1.646852642297744751e-01,1.797973066568374634e-01,-5.964165180921554565e-02,-7.971979677677154541e-02,3.605912253260612488e-02,1.475207805633544922e-01
2.200878262519836426e-01,1.336247622966766357e-01,2.489995211362838745e-01,9.055871516466140747e-02,1.073694229125976562e-01,-5.909882485866546631e-02,-2.449107915163040161e-01,-3.254168927669525146e-01,-1.802400648593902588e-01
-5.980513989925384521e-02,7.736691832542419434e-02,1.339843273162841797e-01,-1.963133364915847778e-01,-5.743214860558509827e-02,1.194948107004165649e-01,-7.508512586355209351e-02,-5.582679295912384987e-04,1.283010691404342651e-01
1.021487042307853699e-01,7.424516230821609497e-02,1.301301643252372742e-02,3.025002032518386841e-02,1.398074477910995483e-01,1.146851293742656708e-02,9.146647900342941284e-02,1.067249253392219543e-01,-9.267815202474594116e-02
-1.804830282926559448e-01,-1.441880762577056885e-01,1.266976296901702881e-01,1.135084778070449829e-01,1.546987593173980713e-01,1.580940186977386475e-01,1.961014978587627411e-02,-1.592340320348739624e-02,-2.582455873489379883e-01
8.716228604316711426e-02,8.606944233179092407e-02,4.133947938680648804e-02,-3.067603148519992828e-02,2.117794938385486603e-02,1.479606330394744873e-01,-3.018142879009246826e-01,-2.950969710946083069e-02,-3.075974620878696442e-02
-1.032988801598548889e-01,1.195178255438804626e-01,1.598230749368667603e-02,1.275299638509750366e-01,4.642151296138763428e-02,3.241434320807456970e-02,1.248178929090499878e-01,-6.073132157325744629e-02,-1.687688976526260376e-01
8.336869627237319946e-02,3.663402050733566284e-02,-2.285563945770263672e-01,-9.519447386264801025e-02,2.394662052392959595e-01,-2.537564560770988464e-02,-2.156340479850769043e-01,9.879703819751739502e-02,2.126472443342208862e-02
1.036906689405441284e-01,1.383475363254547119e-01,1.219333410263061523e-01,8.128155022859573364e-02,2.922514639794826508e-02,-1.010783687233924866e-01,-2.516266703605651855e-02,-2.112731486558914185e-01,-2.177938073873519897e-01
1.248513385653495789e-01,4.107925668358802795e-02,-3.001487255096435547e-01,2.073171176016330719e-02,8.522830158472061157e-02,3.140581771731376648e-02,-7.998274266719818115e-02,1.289146393537521362e-01,6.654751300811767578e-02
1.532292366027832031e-01,1.001417338848114014e-01,-1.992888748645782471e-01,1.680083721876144409e-01,5.051872879266738892e-02,-2.729908227920532227e-01,1.255023777484893799e-01,-1.336296554654836655e-03,-1.328050494194030762e-01
1.125926673412322998e-01,-1.935541033744812012e-01,-8.194982260465621948e-02,1.757937967777252197e-01,-1.437058895826339722e-01,-9.406566619873046875e-02,8.177974820137023926e-02,7.028381526470184326e-02,4.764158278703689575e-02
6.033577397465705872e-02,1.303314417600631714e-01,6.667878478765487671e-02,-1.476661115884780884e-01,1.161856427788734436e-01,2.451148256659507751e-02,-2.238824665546417236e-01,-5.664102733135223389e-02,1.595555990934371948e-01
1.330746617168188095e-02,-8.876749128103256226e-02,-1.401251107454299927e-01,1.064723953604698181e-01,-9.331984072923660278e-02,-1.186473816633224487e-01,1.610238403081893921e-01,-4.820678383111953735e-02,1.942522525787353516e-01
-9.385444968938827515e-02,-2.393846064805984497e-01,-1.901726126670837402e-01,1.655512601137161255e-01,-7.877080142498016357e-02,9.533402323722839355e-02,1.030306816101074219e-01,1.700069904327392578e-01,6.396792083978652954e-02
7.725166529417037964e-02,8.091384172439575195e-02,-9.546711295843124390e-02,5.292996764183044434e-02,9.227643162012100220e-02,8.924028277397155762e-02,5.671351775527000427e-02,1.267665531486272812e-02,4.096724838018417358e-02
-1.221461966633796692e-01,-3.398208618164062500e-01,-4.033143166452646255e-03,-3.877266049385070801e-01,3.677572309970855713e-02,1.849997043609619141e-01,-1.911496520042419434e-01,7.614888995885848999e-02,2.008615881204605103e-01
-2.154920995235443115e-01,-7.343997806310653687e-02,1.293507963418960571e-01,-1.852632761001586914e-01,5.893065035343170166e-02,2.343670427799224854e-01,-1.337461322546005249e-01,1.543995141983032227e-01,-1.288537052460014820e-03
3.952718898653984070e-02,1.675960421562194824e-01,1.697285771369934082e-01,1.030725613236427307e-01,2.177316844463348389e-01,-9.691604971885681152e-02,9.002939611673355103e-02,-2.247305959463119507e-01,-4.320852756500244141e-01
-2.051514536142349243e-01,5.017389357089996338e-02,1.774289011955261230e-01,-1.601817458868026733e-01,-9.568759799003601074e-02,1.670338511466979980e-01,-1.889686435461044312e-01,-2.083704434335231781e-02,1.252036094665527344e-01
-3.328396677970886230e-01,7.777719944715499878e-02,1.740076094865798950e-01,-1.645134389400482178e-01,-5.124576091766357422e-01,-2.165432423353195190e-01,3.030575513839721680e-01,1.319299936294555664e-01,-9.753734618425369263e-02
1.114413365721702576e-01,4.449948295950889587e-02,7.028065621852874756e-02,1.105846390128135681e-01,8.380422741174697876e-02,1.547443866729736328e-01,-1.714395582675933838e-01,-1.377488523721694946e-01,-2.941564098000526428e-02
8.005901426076889038e-02,-1.228198707103729248e-01,-2.526414096355438232e-01,1.294619441032409668e-01,3.156387433409690857e-02,1.222475394606590271e-01,9.215162135660648346e-03,-1.026960536837577820e-01,8.615062385797500610e-02
5.730866268277168274e-02,-1.677080616354942322e-02,6.977995485067367554e-02,-2.755258046090602875e-02,1.023702695965766907e-01,1.820994168519973755e-02,-2.919235266745090485e-02,1.045879349112510681e-01,4.174290224909782410e-03
1.415586769580841064e-01,-1.588332094252109528e-02,6.157683208584785461e-02,9.460859745740890503e-02,1.597697734832763672e-01,1.375440359115600586e-01,-6.734181195497512817e-02,5.145085602998733521e-02,9.378853440284729004e-02
9.953587502241134644e-02,2.707775123417377472e-02,1.186463087797164917e-01,1.192107796669006348e-01,9.551725536584854126e-02,4.380444437265396118e-02,1.330985575914382935e-01,1.315799169242382050e-02,-4.010721668601036072e-02
-2.587669789791107178e-01,-1.524028033018112183e-01,8.767841011285781860e-02,-1.472460776567459106e-01,1.355449557304382324e-01,1.653770804405212402e-01,1.018795669078826904e-01,1.960887163877487183e-01,-5.508260801434516907e-02
7.088637351989746094e-02,1.426400095224380493e-01,4.533811286091804504e-02,5.236903950572013855e-02,7.666519284248352051e-02,7.368896156549453735e-02,1.062647625803947449e-01,4.005075618624687195e-02,8.289511501789093018e-02
-1.712513267993927002e-01,-1.386976391077041626e-01,-6.056158244609832764e-02,5.106298997998237610e-02,-2.450757101178169250e-02,1.369919627904891968e-01,1.044959649443626404e-01,7.865450531244277954e-02,5.415058881044387817e-02
2.456429041922092438e-02,-5.566220358014106750e-02,-1.213914081454277039e-01,5.337558686733245850e-04,6.374710798263549805e-02,1.169673725962638855e-01,8.933684974908828735e-02,-6.302759796380996704e-02,-8.747123926877975464e-02
1.428758203983306885e-01,2.003023028373718262e-01,1.524240076541900635e-01,-3.943141922354698181e-02,-6.483922898769378662e-02,-1.579441875219345093e-01,-1.106406003236770630e-01,-1.696615070104598999e-01,3.743685409426689148e-02
1.564769595861434937e-01,9.459017217159271240e-02,9.357510507106781006e-02,1.448125243186950684e-01,1.847079992294311523e-01,8.645757101476192474e-03,-1.580194383859634399e-02,-2.418316751718521118e-01,-3.842205107212066650e-01
6.864321976900100708e-02,6.150492280721664429e-02,7.740152627229690552e-02,-2.329341694712638855e-02,7.035119831562042236e-02,-5.763759464025497437e-02,7.080142199993133545e-02,8.557392656803131104e-02,7.505241036415100098e-02
-1.052585467696189880e-01,-2.767928540706634521e-01,-1.485735327005386353e-01,2.674168348312377930e-02,-4.671530798077583313e-02,-2.957731112837791443e-02,2.359776645898818970e-01,1.420186012983322144e-01,1.776467561721801758e-01
-2.916274406015872955e-02,1.057869195938110352e-01,9.042784571647644043e-02,-2.865661866962909698e-02,7.426486164331436157e-02,1.337624043226242065e-01,-1.122699826955795288e-01,-2.674277871847152710e-02,1.270655542612075806e-01
8.821733295917510986e-02,1.225309595465660095e-01,1.775918751955032349e-01,-1.067876815795898438e-01,-1.060063913464546204e-01,8.806458115577697754e-02,-3.267369046807289124e-02,-1.128747090697288513e-01,1.126854494214057922e-01
-2.045232355594635010e-01,-1.417749077081680298e-01,-6.851522624492645264e-02,-6.247189640998840332e-02,7.680427283048629761e-02,4.160237498581409454e-03,2.054783254861831665e-01,1.221116706728935242e-01,4.863967187702655792e-03
5.842710658907890320e-02,5.527687445282936096e-02,4.499097168445587158e-02,7.019647955894470215e-02,-2.085290383547544479e-03,-3.313733637332916260e-02,1.969909295439720154e-02,6.071278080344200134e-02,1.873964816331863403e-02
1.294385194778442383e-01,1.491753291338682175e-02,3.029419109225273132e-02,5.577151477336883545e-02,1.278587132692337036e-01,6.196612864732742310e-02,-2.201156318187713623e-02,1.404228061437606812e-01,5.303349718451499939e-02
8.471672236919403076e-02,1.344375126063823700e-02,9.828711301088333130e-02,2.925111725926399231e-02,1.283683069050312042e-02,1.753078848123550415e-01,-8.559644222259521484e-02,-1.531948298215866089e-01,2.510801702737808228e-02
1.360946297645568848e-01,2.310987189412117004e-02,-6.844767183065414429e-02,5.097522214055061340e-02,1.826589554548263550e-02,-9.125025570392608643e-02,6.994975358247756958e-02,-2.872255817055702209e-02,-5.255566909909248352e-02
1.616785079240798950e-01,-3.543642535805702209e-02,-2.764631807804107666e-01,2.305274829268455505e-02,1.179443672299385071e-01,4.159719869494438171e-02,-1.189012303948402405e-01,1.330813616514205933e-01,1.086657568812370300e-01
1.166208684444427490e-01,2.117766439914703369e-01,1.632831059396266937e-02,1.124075278639793396e-01,-2.341296672821044922e-01,-2.541491687297821045e-01,-1.022772341966629028e-01,-1.188108623027801514e-01,2.132123112678527832e-01
2.211639583110809326e-01,1.398010849952697754e-01,8.240303397178649902e-02,-2.018164098262786865e-02,-9.990877471864223480e-03,1.002977713942527771e-01,-2.474148869514465332e-01,-6.240538880228996277e-02,-1.532175391912460327e-01
9.492056071758270264e-02,1.607535630464553833e-01,1.338514089584350586e-01,1.085344180464744568e-01,-8.201858401298522949e-02,-1.801391690969467163e-02,-2.263040691614151001e-01,-1.172618046402931213e-01,-7.259176671504974365e-02
-3.366047441959381104e-01,7.849594205617904663e-02,2.007540315389633179e-01,1.630773246288299561e-01,2.325015068054199219e-01,-3.647703304886817932e-02,6.647741422057151794e-03,-4.394606500864028931e-02,-2.526369392871856689e-01
8.819209784269332886e-02,-5.822042003273963928e-02,7.826884090900421143e-02,-1.059858426451683044e-01,7.650358229875564575e-02,3.519134968519210815e-02,-1.976130530238151550e-02,1.287733316421508789e-01,6.153926625847816467e-02
-2.271548807621002197e-01,-9.320467710494995117e-02,6.803902983665466309e-02,1.374523192644119263e-01,2.049096077680587769e-01,1.368458718061447144e-01,4.715836420655250549e-02,-8.206304162740707397e-02,-1.859174370765686035e-01
1.223129257559776306e-01,9.887814521789550781e-02,-6.656336784362792969e-02,4.690115526318550110e-02,-7.292436808347702026e-02,3.480716049671173096e-02,1.435017138719558716e-01,1.474545057862997055e-02,-2.632515691220760345e-02
-8.296118676662445068e-02,1.401093602180480957e-01,-1.136860400438308716e-01,-1.117734313011169434e-01,6.132694333791732788e-02,-1.603915728628635406e-02,9.392350167036056519e-02,-2.796014957129955292e-02,8.811663836240768433e-02
-1.428936421871185303e-01,-1.945254802703857422e-01,9.765976667404174805e-02,9.535772353410720825e-02,1.928815990686416626e-02,1.554072350263595581e-01,-1.337632443755865097e-02,4.425887763500213623e-02,3.131331130862236023e-02
5.571590270847082138e-03,-3.058625012636184692e-02,-3.267651796340942383e-01,2.186177074909210205e-01,1.212638020515441895e-01,-1.311646122485399246e-02,-9.099044837057590485e-03,5.056096613407135010e-02,5.914949625730514526e-02
-5.111616104841232300e-02,-2.077492475509643555e-01,-1.843095570802688599e-01,1.176740899682044983e-01,5.977223441004753113e-02,1.107427105307579041e-01,2.951243892312049866e-02,4.250302910804748535e-02,1.184384971857070923e-01
1.755820214748382568e-01,2.596829086542129517e-03,-2.600480020046234131e-01,8.134106546640396118e-02,1.906203031539916992e-01,-9.602473676204681396e-02,-8.075881004333496094e-02,1.490538269281387329e-01,1.178358197212219238e-01
-1.723211258649826050e-02,-3.169709444046020508e-02,2.214848399162292480e-01,-1.710524111986160278e-01,-1.650223433971405029e-01,1.193205565214157104e-01,-9.405767917633056641e-02,-5.464578792452812195e-02,1.271263137459754944e-02
-1.677044481039047241e-01,-3.123504221439361572e-01,-1.540527045726776123e-01,-5.010242760181427002e-02,-2.007628232240676880e-02,1.467663496732711792e-01,2.001836448907852173e-01,1.938464194536209106e-01,1.211364045739173889e-01
-1.568117886781692505e-01,1.648691147565841675e-01,6.504478305578231812e-02,-8.893281221389770508e-03,1.777009963989257812e-01,-7.832957804203033447e-02,9.956022351980209351e-02,1.104118078947067261e-01,-1.380657553672790527e-01
-4.322849959135055542e-02,4.264522343873977661e-02,1.511018425226211548e-01,-1.451079547405242920e-01,3.006014041602611542e-02,7.654134184122085571e-02,6.494176387786865234e-02,7.877708226442337036e-02,8.283988386392593384e-02
1.211418956518173218e-01,6.628683954477310181e-02,7.539780437946319580e-02,-4.049707949161529541e-02,1.981624960899353027e-02,1.188231930136680603e-01,-1.082019582390785217e-01,-1.165712997317314148e-01,9.256890416145324707e-02
-1.547004580497741699e-01,-2.231546044349670410e-01,-1.508891284465789795e-01,1.997637795284390450e-03,4.548938944935798645e-02,-3.471210226416587830e-02,2.264031767845153809e-01,1.118370145559310913e-01,4.609416425228118896e-02
5.155275017023086548e-02,7.331826537847518921e-02,-2.805344760417938232e-02,1.508380770683288574e-01,1.206614673137664795e-01,-7.400517165660858154e-02,1.069109141826629639e-01,3.500342741608619690e-02,-1.594489961862564087e-01
1.757160574197769165e-02,1.704500913619995117e-01,1.465521454811096191e-01,-2.081726789474487305e-01,-2.974255681037902832e-01,-1.168567016720771790e-01,1.582849174737930298e-01,5.224059149622917175e-02,-4.509854316711425781e-02
1.164574921131134033e-02,1.125543341040611267e-01,6.082220003008842468e-02,-3.118325471878051758e-01,-1.178452670574188232e-01,1.684850305318832397e-01,-2.402907162904739380e-01,8.226355910301208496e-02,2.554447650909423828e-01
-1.927476525306701660e-01,1.443476881831884384e-02,7.851444929838180542e-02,1.346946209669113159e-01,1.687591224908828735e-01,1.017902046442031860e-02,6.535832583904266357e-02,-4.338832199573516846e-02,-1.364877820014953613e-01
3.944260627031326294e-02,1.019976064562797546e-01,-7.554630748927593231e-03,2.613703254610300064e-03,7.741042971611022949e-02,5.709189455956220627e-03,-9.299184381961822510e-02,-9.046640247106552124e-02,8.911574631929397583e-02
6.363309919834136963e-02,1.401961594820022583e-01,1.188648212701082230e-02,-4.961955128237605095e-04,1.130540296435356140e-01,1.263462454080581665e-01,-2.319773435592651367e-01,-1.521823406219482422e-01,6.447523832321166992e-02
-3.228082060813903809e-01,-2.316107451915740967e-01,1.038371548056602478e-01,-1.825123727321624756e-01,1.877982616424560547e-01,1.046224236488342285e-01,1.837301850318908691e-01,1.613318920135498047e-01,3.869441524147987366e-02
-2.372228354215621948e-01,-4.105812869966030121e-03,1.734700202941894531e-01,-2.613302767276763916e-01,-2.089151181280612946e-02,2.067272365093231201e-01,-1.056005880236625671e-01,8.180452138185501099e-02,7.506560534238815308e-02
-1.165978889912366867e-02,4.975836724042892456e-02,-8.768266066908836365e-03,1.136502809822559357e-02,-4.349202383309602737e-03,1.089922636747360229e-01,-4.042386636137962341e-02,7.118142396211624146e-02,-1.621138304471969604e-02
-1.155737228691577911e-02,1.476981341838836670e-01,8.530919998884201050e-02,6.939491629600524902e-02,1.276498585939407349e-01,1.309057231992483139e-03,-4.823694750666618347e-02,-2.270100414752960205e-01,-1.831564307212829590e-01
3.612064942717552185e-02,1.074382141232490540e-01,-2.340673655271530151e-02,-1.048326566815376282e-01,1.442201435565948486e-01,-2.603351324796676636e-02,-7.462914288043975830e-02,-9.091466665267944336e-03,4.934093356132507324e-02
4.764191433787345886e-02,-1.751380413770675659e-01,-7.530397921800613403e-02,1.012790128588676453e-01,1.550840735435485840e-01,1.215731501579284668e-01,-5.047529190778732300e-02,-8.294519782066345215e-02,-4.832562059164047241e-02
2.194277644157409668e-01,-4.187064990401268005e-02,-3.259054422378540039e-01,2.097344547510147095e-01,-3.177005797624588013e-02,-2.942094206809997559e-01,1.926540136337280273e-01,2.100178450345993042e-01,-5.705496296286582947e-03
9.703055769205093384e-02,-1.500497013330459595e-01,-3.117631375789642334e-01,1.565459221601486206e-01,1.295817941427230835e-01,-9.980085492134094238e-02,5.704623833298683167e-02,8.171080797910690308e-02,1.513555198907852173e-01
-2.478036433458328247e-01,-8.990363031625747681e-02,1.520773172378540039e-01,-1.612556427717208862e-01,1.676798909902572632e-01,1.774220764636993408e-01,3.258769959211349487e-02,5.489289760589599609e-02,3.613708913326263428e-02
-3.310358226299285889e-01,-3.750208318233489990e-01,-2.321976870298385620e-01,-7.763791829347610474e-02,-6.184742972254753113e-02,-3.457751881796866655e-04,6.569086015224456787e-02,2.166172116994857788e-01,2.341264933347702026e-01
-3.539154231548309326e-01,-2.817080318927764893e-01,5.047119036316871643e-02,-3.044773340225219727e-01,7.720711827278137207e-02,2.802827656269073486e-01,3.629919886589050293e-02,2.589474916458129883e-01,2.272025048732757568e-01
2.215693742036819458e-01,1.293544322252273560e-01,1.796296685934066772e-01,-2.086210623383522034e-02,-7.112640887498855591e-03,-6.488686054944992065e-02,-2.144907116889953613e-01,-1.647040098905563354e-01,-5.725853517651557922e-02
-2.372660040855407715e-01,5.502349510788917542e-02,7.136952877044677734e-02,-9.273539483547210693e-02,2.256508618593215942e-01,-1.481492444872856140e-02,1.548896282911300659e-01,6.097978726029396057e-02,-1.856298297643661499e-01
-5.435043200850486755e-02,1.659919470548629761e-01,-2.397495694458484650e-02,6.143457442522048950e-02,9.416920691728591919e-02,-1.190637871623039246e-01,-1.375398691743612289e-02,1.114821732044219971e-01,-1.319524347782135010e-01
1.372658312320709229e-01,-3.327186405658721924e-02,-1.133627742528915405e-01,1.057004183530807495e-01,3.925046324729919434e-02,1.871312856674194336e-01,-5.589250102639198303e-02,3.401765972375869751e-02,-9.341908246278762817e-02
2.454547584056854248e-02,6.765338033437728882e-02,1.275322288274765015e-01,1.062180697917938232e-01,5.822362750768661499e-02,3.847562242299318314e-03,-1.182557046413421631e-01,-1.328620016574859619e-01,-1.069866120815277100e-01
6.922887265682220459e-02,-2.570498883724212646e-01,-2.159993201494216919e-01,9.839671105146408081e-02,-9.678468853235244751e-02,-8.704043924808502197e-02,2.314999550580978394e-01,6.896030902862548828e-02,1.688531637191772461e-01
2.568711154162883759e-02,1.033180579543113708e-01,2.684254571795463562e-02,-1.985150016844272614e-02,1.494505703449249268e-01,-2.266814559698104858e-02,-9.977112710475921631e-02,1.106042042374610901e-01,2.434331364929676056e-02
-1.851522596552968025e-03,9.419725090265274048e-02,1.470310091972351074e-01,6.218947097659111023e-02,5.443687736988067627e-02,1.600259095430374146e-01,-4.065051302313804626e-02,-2.898549437522888184e-01,-1.441495418548583984e-01
-1.228908151388168335e-01,-1.196256205439567566e-01,9.255655109882354736e-02,-8.527971059083938599e-02,8.118332177400588989e-02,1.224246099591255188e-01,1.333856433629989624e-01,-1.841179281473159790e-02,1.211327128112316132e-02
-1.889064151328057051e-06,-3.437712490558624268e-01,-1.138009689748287201e-02,1.981928050518035889e-01,-1.899910271167755127e-01,-5.638394877314567566e-02,2.367453873157501221e-01,9.789739549160003662e-02,1.500323321670293808e-02
1.033301874995231628e-01,1.405679732561111450e-01,1.271235793828964233e-01,1.151789948344230652e-01,1.960801705718040466e-02,-7.957809418439865112e-02,-2.359373122453689575e-01,-1.824059635400772095e-01,-2.367305569350719452e-02
5.548299476504325867e-02,1.470753550529479980e-01,-3.987691178917884827e-02,4.157258942723274231e-02,9.662566334009170532e-02,7.269956171512603760e-02,-2.859012186527252197e-01,-8.650333434343338013e-02,2.149985730648040771e-02
-6.154557690024375916e-02,7.291717827320098877e-02,4.510953277349472046e-02,-5.003951489925384521e-02,4.021941497921943665e-02,5.583078786730766296e-02,-1.287451945245265961e-02,1.284259110689163208e-01,-7.212163880467414856e-03
-1.811559870839118958e-02,1.779919266700744629e-01,3.829399123787879944e-02,-7.498636841773986816e-02,9.301131218671798706e-02,7.267041504383087158e-02,-2.483945339918136597e-01,4.641524981707334518e-03,9.000995755195617676e-02
1.477934271097183228e-01,1.760577112436294556e-01,8.834360167384147644e-03,-1.726704239845275879e-01,-3.004742041230201721e-02,-3.157818317413330078e-02,-1.324433386325836182e-01,1.184381693601608276e-01,7.352497428655624390e-02
2.128696255385875702e-02,1.902293264865875244e-01,1.484722793102264404e-01,-1.592390611767768860e-02,-3.069169074296951294e-02,1.749250143766403198e-01,-2.343543767929077148e-01,-2.615175545215606689e-01,-5.549858883023262024e-02
3.065421245992183685e-02,1.543997973203659058e-01,-4.071422666311264038e-02,5.166679993271827698e-02,1.198623031377792358e-01,-9.971836209297180176e-02,1.272972822189331055e-01,3.894499689340591431e-02,-1.900697350502014160e-01
7.668279111385345459e-02,1.309415996074676514e-01,9.563067555427551270e-02,2.391038984060287476e-01,3.104200400412082672e-02,1.064042001962661743e-02,-7.343585044145584106e-02,-2.672108113765716553e-01,-2.509420812129974365e-01
1.196298655122518539e-02,8.946444839239120483e-02,5.472940579056739807e-02,1.478929668664932251e-01,5.826706066727638245e-02,-1.400430500507354736e-01,7.083436846733093262e-02,-5.360720679163932800e-02,-1.971153169870376587e-01
4.607782885432243347e-02,9.670349210500717163e-02,-3.284619376063346863e-02,-1.605958193540573120e-01,1.202864423394203186e-01,-5.801562219858169556e-02,3.987265005707740784e-02,1.013849116861820221e-02,9.132580459117889404e-02
2.152086347341537476e-01,-3.417815268039703369e-02,-5.839627608656883240e-02,2.029196172952651978e-01,2.741777524352073669e-02,-2.580008506774902344e-01,1.348873525857925415e-01,-4.087885469198226929e-02,-2.685353159904479980e-01
-7.704029232263565063e-02,-1.563702523708343506e-01,-2.154062241315841675e-01,1.548541337251663208e-01,-6.512189656496047974e-02,-9.353929013013839722e-02,2.086459547281265259e-01,8.893605321645736694e-02,1.099567413330078125e-01
1.470755878835916519e-02,1.632776409387588501e-01,1.227011978626251221e-01,2.958552679046988487e-03,1.322693079710006714e-01,-2.380202151834964752e-02,1.381461024284362793e-01,9.447728842496871948e-02,3.375298529863357544e-02
2.100724577903747559e-01,2.063542455434799194e-01,8.180148154497146606e-02,-6.987957656383514404e-02,2.635249122977256775e-02,1.230849996209144592e-01,-1.162507385015487671e-01,-2.723805308341979980e-01,-2.079323679208755493e-01
-9.334404952824115753e-03,4.082210361957550049e-02,4.074554517865180969e-02,1.508508771657943726e-01,6.587108224630355835e-02,-7.758525758981704712e-02,9.770557284355163574e-02,4.125282913446426392e-02,1.088030636310577393e-01
-9.250646829605102539e-02,-8.471318334341049194e-02,-1.671848297119140625e-01,1.818377226591110229e-01,-1.481665670871734619e-02,-1.773087829351425171e-01,1.028860360383987427e-01,1.440053284168243408e-01,1.442759037017822266e-01
-1.579499691724777222e-01,-3.259513676166534424e-01,-1.488927602767944336e-01,1.573797315359115601e-01,1.253596413880586624e-02,-3.699357807636260986e-01,2.479909062385559082e-01,1.593851447105407715e-01,-1.648590713739395142e-02
6.799152493476867676e-02,-4.658480733633041382e-02,7.238619029521942139e-02,7.514596730470657349e-02,6.651104986667633057e-02,-1.629959605634212494e-02,-3.683695103973150253e-04,-8.669830858707427979e-02,1.278221011161804199e-01
-5.205970630049705505e-02,1.449511498212814331e-01,1.068567857146263123e-02,1.023213937878608704e-01,-2.223164588212966919e-02,3.013205528259277344e-02,-7.038582861423492432e-02,2.380062267184257507e-02,9.580072946846485138e-03
-1.498457938432693481e-01,1.177193596959114075e-01,5.533969402313232422e-02,1.620801389217376709e-01,1.161655783653259277e-01,-1.221620813012123108e-01,7.100853323936462402e-02,-8.585117757320404053e-02,-1.607517749071121216e-01
-5.928746983408927917e-02,1.497456580400466919e-01,1.072902381420135498e-01,1.087605133652687073e-01,1.402089148759841919e-01,5.615553259849548340e-02,-5.441374704241752625e-02,-3.957848250865936279e-02,9.827755391597747803e-02
1.243691816926002502e-01,-1.432034671306610107e-01,-2.793420255184173584e-01,2.419017404317855835e-01,1.822292618453502655e-02,-1.318181604146957397e-01,6.226309761404991150e-02,2.257328629493713379e-01,3.013293445110321045e-02
5.744402483105659485e-02,9.974129498004913330e-02,-1.236421987414360046e-01,-2.075508236885070801e-02,1.549777835607528687e-01,1.525443345308303833e-01,-1.837459206581115723e-01,-4.238283634185791016e-02,5.503640323877334595e-02
1.417144238948822021e-01,1.014882773160934448e-01,-9.906590729951858521e-02,2.862582169473171234e-02,9.494562447071075439e-02,-1.745319962501525879e-01,1.072744205594062805e-01,1.791976392269134521e-02,2.575154043734073639e-02
1.115529835224151611e-01,8.252586424350738525e-02,-5.419630929827690125e-02,5.869024619460105896e-02,8.009306620806455612e-04,8.461008220911026001e-02,1.291951537132263184e-01,-3.992484137415885925e-02,-1.475179195404052734e-01
8.816847950220108032e-02,-8.665225654840469360e-02,-9.297727048397064209e-02,1.136111542582511902e-01,5.500024557113647461e-02,7.327654957771301270e-02,9.442745149135589600e-02,3.635139437392354012e-03,4.592904075980186462e-02
1.407569199800491333e-01,-1.111256256699562073e-01,-2.711682915687561035e-01,1.818690299987792969e-01,1.165287792682647705e-01,-9.565997868776321411e-02,-8.803088963031768799e-02,1.659501045942306519e-01,6.829813122749328613e-02
8.940248936414718628e-02,1.983496844768524170e-01,1.380902230739593506e-01,-9.152748622000217438e-03,-5.033985152840614319e-02,1.299991607666015625e-01,-2.467164844274520874e-01,-2.280012667179107666e-01,-6.269294023513793945e-02
-2.454440444707870483e-01,-1.217174343764781952e-03,1.879166960716247559e-01,-1.301783472299575806e-01,1.481920480728149414e-02,3.586598113179206848e-02,1.099825650453567505e-01,-3.558452799916267395e-02,4.768434539437294006e-02
8.942929655313491821e-02,-1.268356591463088989e-01,-2.390451878309249878e-01,1.949896961450576782e-01,1.845514178276062012e-01,6.894980370998382568e-02,-9.254293143749237061e-02,1.949564367532730103e-02,1.412419881671667099e-02
-7.361223548650741577e-02,-2.695901095867156982e-01,1.473320722579956055e-01,1.845689862966537476e-01,-1.534112095832824707e-01,1.434389501810073853e-01,1.563349813222885132e-01,-1.343502551317214966e-01,-7.977540045976638794e-02
-9.798981249332427979e-02,1.880741566419601440e-01,1.722301393747329712e-01,1.386704146862030029e-01,7.107305526733398438e-02,-7.304492872208356857e-03,-6.485948711633682251e-02,6.021412089467048645e-02,-2.048461437225341797e-01
-3.643708229064941406e-01,-2.873745858669281006e-01,5.946658551692962646e-02,-1.803009361028671265e-01,3.383356332778930664e-02,1.092627719044685364e-01,3.958548977971076965e-02,2.493731528520584106e-01,2.298668771982192993e-01
5.392097402364015579e-03,1.500651836395263672e-01,-1.448201537132263184e-01,5.074830353260040283e-02,8.018752932548522949e-02,-7.687322795391082764e-02,-1.613066941499710083e-01,5.091933533549308777e-02,1.386442482471466064e-01
-2.636079490184783936e-01,-2.344756126403808594e-01,-1.674196422100067139e-01,-3.256052359938621521e-02,3.499088063836097717e-02,2.635296061635017395e-02,2.528760433197021484e-01,1.319889873266220093e-01,1.682034432888031006e-01
1.063746958971023560e-01,6.040798500180244446e-02,2.532778121531009674e-02,-7.171330600976943970e-02,4.729851335287094116e-02,1.751952469348907471e-01,-1.764801591634750366e-01,3.088537976145744324e-02,4.066221043467521667e-02
1.895702183246612549e-01,9.452846832573413849e-03,-2.094291597604751587e-01,1.975475102663040161e-01,-9.945066645741462708e-03,-2.741196751594543457e-01,2.097303569316864014e-01,-2.234453521668910980e-02,-8.051348477602005005e-02
1.119812652468681335e-01,1.788729988038539886e-02,1.030771955847740173e-01,3.942903876304626465e-02,-5.425287038087844849e-02,-2.673226641491055489e-03,1.422041952610015869e-01,-6.717588286846876144e-03,1.755421236157417297e-02
-2.669024169445037842e-01,-2.378106564283370972e-01,-1.199628971517086029e-02,-2.165783047676086426e-01,7.059175521135330200e-02,1.710773557424545288e-01,9.035888314247131348e-02,1.456520855426788330e-01,1.946073919534683228e-01
1.663687974214553833e-01,1.380496919155120850e-01,1.793889105319976807e-01,1.866077482700347900e-01,-6.316783837974071503e-03,5.341089889407157898e-02,2.941826730966567993e-02,-1.530688554048538208e-01,-3.338910043239593506e-01
-3.179506398737430573e-03,-1.370722502470016479e-01,-6.149051710963249207e-02,1.076082605868577957e-02,-4.536591842770576477e-02,1.433364450931549072e-01,1.393539756536483765e-01,6.499232351779937744e-02,-7.113290578126907349e-02
-5.799111723899841309e-02,9.806246310472488403e-02,4.048893973231315613e-02,-9.047299623489379883e-02,-1.100730076432228088e-01,1.114250570535659790e-01,-7.872746884822845459e-02,4.542974382638931274e-02,2.619480155408382416e-02
2.154677659273147583e-01,-1.137528046965599060e-01,-9.499935060739517212e-02,1.189219802618026733e-01,-2.666992247104644775e-01,8.075090497732162476e-02,5.030820146203041077e-02,-3.703233897686004639e-01,1.256651580333709717e-01
-2.916433811187744141e-01,-1.293507218360900879e-01,1.437984555959701538e-01,8.485531434416770935e-03,1.091888919472694397e-01,1.607581675052642822e-01,5.335432011634111404e-03,-7.658488582819700241e-03,7.488696277141571045e-02
-7.334624230861663818e-02,1.492537111043930054e-01,2.265321314334869385e-01,1.039620041847229004e-01,1.996482014656066895e-01,-5.447447672486305237e-02,-7.211487740278244019e-02,-1.128007024526596069e-01,-2.021164447069168091e-01
1.629415154457092285e-01,1.668539047241210938e-01,2.280996739864349365e-02,-9.053708612918853760e-02,3.262147307395935059e-02,9.521756321191787720e-02,-2.011371552944183350e-01,-1.948489248752593994e-01,-4.852876439690589905e-02
4.764290153980255127e-02,1.084045916795730591e-01,-1.653608828783035278e-01,1.314767003059387207e-01,1.454515606164932251e-01,1.300714313983917236e-01,-3.899759799242019653e-02,7.106307148933410645e-02,-5.096089094877243042e-02
-1.841087341308593750e-01,6.638187915086746216e-02,8.889671415090560913e-02,-1.735817641019821167e-01,-5.305191874504089355e-02,1.441153734922409058e-01,-1.156772598624229431e-01,1.263466477394104004e-01,1.161361783742904663e-01
-1.322404444217681885e-01,1.123853623867034912e-01,-1.315636746585369110e-02,1.665624529123306274e-01,1.031325086951255798e-01,5.298131704330444336e-02,-1.553335338830947876e-01,-1.422812938690185547e-01,-3.491919487714767456e-02
-2.760976850986480713e-01,2.651303447782993317e-02,5.860694218426942825e-03,-7.418695092201232910e-02,-1.110079325735569000e-02,1.753141880035400391e-01,1.111947894096374512e-01,1.554280519485473633e-01,-2.683742158114910126e-02
2.608407754451036453e-03,4.282676056027412415e-02,1.184616461396217346e-01,-8.075203001499176025e-02,8.692988753318786621e-02,8.198711276054382324e-02,-3.256944194436073303e-02,-1.326657366007566452e-02,6.300976127386093140e-02
-9.444586001336574554e-03,-2.692039012908935547e-01,-1.766114532947540283e-01,1.315279752016067505e-01,-4.788188636302947998e-02,1.181404143571853638e-01,2.020547389984130859e-01,4.117763042449951172e-02,-2.003803616389632225e-03
1.281082481145858765e-01,-7.507721334695816040e-02,-7.855211943387985229e-02,-2.346361055970191956e-02,1.183895766735076904e-01,7.303260266780853271e-02,1.043673828244209290e-01,1.098976582288742065e-01,3.072780556976795197e-02
5.484650656580924988e-02,-1.135471016168594360e-01,-1.979015469551086426e-01,1.453164368867874146e-01,-6.772757321596145630e-02,-2.439687252044677734e-01,1.772142052650451660e-01,1.780548095703125000e-01,9.083393961191177368e-02
5.367988720536231995e-03,-1.204278506338596344e-02,-1.760424673557281494e-01,4.374235868453979492e-02,1.488850563764572144e-01,1.202617213129997253e-01,-1.669953465461730957e-01,-2.637374401092529297e-02,7.862984389066696167e-02
8.145004510879516602e-02,-7.654486596584320068e-02,-3.595913052558898926e-01,4.145682975649833679e-02,1.774363070726394653e-01,-1.059113591909408569e-01,2.732672542333602905e-02,1.569207310676574707e-01,1.260734647512435913e-01
5.587940663099288940e-02,-7.347017526626586914e-02,-2.599882334470748901e-02,5.013868212699890137e-02,-1.395816504955291748e-01,8.732067048549652100e-02,3.830888867378234863e-02,-6.019124388694763184e-02,8.114340901374816895e-02
-1.235109195113182068e-01,2.427700720727443695e-02,1.456092894077301025e-01,-1.166847441345453262e-02,1.754299178719520569e-02,1.197067573666572571e-01,1.058234944939613342e-01,-6.317927502095699310e-03,3.211278095841407776e-02
-2.705378532409667969e-01,-1.955772340297698975e-01,1.465925276279449463e-01,-3.412572443485260010e-01,-1.227945387363433838e-01,1.289013326168060303e-01,-2.799217402935028076e-01,-8.793666958808898926e-02,1.424353867769241333e-01
-1.441150158643722534e-01,-2.095601521432399750e-02,9.008146822452545166e-02,6.538341194391250610e-02,2.203352935612201691e-02,1.244258806109428406e-01,-7.006491068750619888e-03,4.172342643141746521e-02,-1.046836376190185547e-01
1.308193355798721313e-01,1.905735433101654053e-01,2.078966349363327026e-01,-3.933947160840034485e-02,-9.651722759008407593e-02,-5.718341469764709473e-02,-2.029945254325866699e-01,-1.947650760412216187e-01,-4.419920966029167175e-02
-2.519820071756839752e-02,9.427746385335922241e-02,1.682166196405887604e-02,-1.337338387966156006e-01,-2.138754725456237793e-01,-1.608452200889587402e-01,1.759369969367980957e-01,7.828338444232940674e-02,7.867614179849624634e-02
1.865951418876647949e-01,4.181922227144241333e-02,-2.364046275615692139e-01,1.145612373948097229e-01,-3.819637745618820190e-02,-1.963809430599212646e-01,1.909336745738983154e-01,7.194603234529495239e-02,-1.121060624718666077e-01
-1.638047844171524048e-01,-2.642910182476043701e-01,-1.904896497726440430e-01,1.755775660276412964e-01,3.453844692558050156e-03,2.242711372673511505e-02,1.088900938630104065e-01,1.387698203325271606e-01,1.745340526103973389e-01
1.419721841812133789e-01,2.527703940868377686e-01,9.337262809276580811e-02,1.779527813196182251e-01,8.131253719329833984e-02,-5.874572694301605225e-02,-1.230387762188911438e-01,-3.686645925045013428e-01,-3.092149794101715088e-01
