-1.649405807256698608e-01,-1.400969326496124268e-01,8.411161601543426514e-02,-4.096587002277374268e-02,-1.137518510222434998e-02,2.128882855176925659e-01,1.182504072785377502e-01,8.899492770433425903e-02,1.653354614973068237e-02
7.063750177621841431e-02,1.348514407873153687e-01,6.262844055891036987e-02,-1.113789305090904236e-01,-1.538365781307220459e-01,-1.113956794142723083e-01,2.711289562284946442e-03,5.598770827054977417e-02,2.435022592544555664e-02
-1.605849154293537140e-02,1.709859222173690796e-01,1.562383025884628296e-01,-2.205628342926502228e-02,1.036352813243865967e-01,-7.242105901241302490e-02,3.064796514809131622e-02,-5.044688656926155090e-02,-2.123416662216186523e-01
1.769692301750183105e-01,9.583854675292968750e-02,9.848135709762573242e-02,-8.695405721664428711e-02,-4.618903994560241699e-02,5.837128963321447372e-03,-1.365606784820556641e-01,-4.292980954051017761e-02,-1.114077046513557434e-01
1.569403856992721558e-01,8.021377027034759521e-03,-9.370592981576919556e-02,1.136390417814254761e-01,-4.942196235060691833e-02,-7.260682433843612671e-02,3.168212249875068665e-02,-3.967903926968574524e-02,-1.269709169864654541e-01
1.061336547136306763e-01,-1.862330734729766846e-02,-8.742545545101165771e-02,-3.660344704985618591e-02,6.454268097877502441e-02,8.146806806325912476e-02,-1.648875772953033447e-01,3.574432805180549622e-02,1.196956634521484375e-01
1.174897849559783936e-01,-8.826825767755508423e-03,-1.817005276679992676e-01,1.695393174886703491e-01,1.636399030685424805e-01,-2.864358201622962952e-02,5.219882726669311523e-02,1.224655434489250183e-01,1.723544746637344360e-01
-1.469426006078720093e-01,-1.562398821115493774e-01,-1.908817589282989502e-01,-4.214537516236305237e-02,1.452570706605911255e-01,-1.064472123980522156e-01,2.005014196038246155e-02,8.671387284994125366e-02,-1.046140398830175400e-02
-6.610240787267684937e-02,1.300172694027423859e-02,1.101617291569709778e-01,8.466462790966033936e-02,1.302641183137893677e-01,1.469357311725616455e-01,-1.986211165785789490e-02,1.218183562159538269e-01,-3.699098154902458191e-02
6.066874414682388306e-02,1.205364391207695007e-01,1.486921012401580811e-01,1.731051057577133179e-01,1.320728212594985962e-01,5.122883990406990051e-02,5.785891413688659668e-02,6.717006117105484009e-02,1.112623438239097595e-01
6.311112642288208008e-02,-4.142880439758300781e-02,-1.781241595745086670e-01,1.818473339080810547e-01,-2.539385668933391571e-02,-3.614013269543647766e-02,-2.902332507073879242e-02,1.180084720253944397e-01,5.330323055386543274e-02
-9.331950545310974121e-02,8.330521732568740845e-02,1.065147444605827332e-01,-1.087139244191348553e-03,-4.624285269528627396e-03,-6.101557984948158264e-02,1.038365736603736877e-01,1.489248722791671753e-01,9.167721867561340332e-02
2.994224196299910545e-03,-2.060641795396804810e-01,-1.910236775875091553e-01,1.410485804080963135e-01,8.825311809778213501e-02,-1.496704854071140289e-02,-4.936939105391502380e-02,1.017309576272964478e-01,1.327196359634399414e-01
1.129030808806419373e-01,1.249310225248336792e-01,-5.412535741925239563e-02,4.860766977071762085e-02,6.246144324541091919e-02,-1.112078130245208740e-01,1.446003764867782593e-01,2.607305906713008881e-02,-6.027641147375106812e-02
8.146743476390838623e-02,-2.143257707357406616e-01,-1.203749403357505798e-01,1.297545433044433594e-01,-4.628501087427139282e-02,-9.659501910209655762e-02,7.734515517950057983e-02,9.971226751804351807e-02,1.697681695222854614e-01
9.771618992090225220e-02,1.731017231941223145e-02,-9.849164634943008423e-02,8.915923535823822021e-02,1.921818777918815613e-02,-1.426274776458740234e-01,1.333691030740737915e-01,-4.638479650020599365e-02,-5.714210867881774902e-02
-1.537128090858459473e-01,1.192915365099906921e-01,1.074192076921463013e-01,-9.413491189479827881e-02,1.521493941545486450e-01,2.882130444049835205e-02,9.416501224040985107e-02,1.038498356938362122e-01,1.018796414136886597e-01
9.923928231000900269e-02,1.420539915561676025e-01,2.185309119522571564e-02,8.187559247016906738e-02,1.515879929065704346e-01,1.566993445158004761e-02,8.964400738477706909e-02,1.298636198043823242e-01,9.024938195943832397e-02
2.654885053634643555e-01,1.915003061294555664e-01,-1.408487558364868164e-01,1.311863660812377930e-01,-1.641879230737686157e-01,-2.361967861652374268e-01,-3.191425502300262451e-01,-2.307889163494110107e-01,-2.277781628072261810e-02
-2.046802937984466553e-01,7.835081964731216431e-02,9.502194076776504517e-02,-7.336325943470001221e-02,5.883035808801651001e-02,1.440785527229309082e-01,-8.550404012203216553e-02,1.212335973978042603e-01,1.492810994386672974e-01
1.730413585901260376e-01,1.435387134552001953e-01,1.203473433852195740e-01,4.890860617160797119e-02,-6.260493397712707520e-02,-3.614963591098785400e-02,-5.255482718348503113e-02,-1.327283680438995361e-01,-1.401883959770202637e-01
3.385562449693679810e-02,7.078989595174789429e-02,-1.261940002441406250e-01,1.338459104299545288e-01,-5.617852322757244110e-03,-1.272525936365127563e-01,1.625117957592010498e-01,6.220193114131689072e-03,-1.061580926179885864e-01
-1.379002928733825684e-01,-3.074742108583450317e-02,-1.389258801937103271e-01,-1.283738203346729279e-02,1.649748384952545166e-01,3.292771056294441223e-02,2.428682893514633179e-02,8.924245089292526245e-02,1.516151875257492065e-01
1.699660122394561768e-01,9.171340614557266235e-02,1.049535796046257019e-01,1.780937910079956055e-01,1.849161833524703979e-01,-5.192859843373298645e-02,-3.610054962337017059e-03,1.472182292491197586e-02,-3.956161811947822571e-02
2.089295536279678345e-02,6.894668936729431152e-02,9.115727245807647705e-02,2.360511198639869690e-02,-3.038538619875907898e-02,1.027694195508956909e-01,-1.883906424045562744e-01,-6.942556798458099365e-02,-2.366591244935989380e-02
1.675319857895374298e-02,-7.577774673700332642e-02,-1.824125498533248901e-01,-4.614124819636344910e-02,7.924628257751464844e-02,2.234020456671714783e-02,5.462293699383735657e-02,2.125409804284572601e-02,1.349415332078933716e-01
1.142300218343734741e-01,-5.311126634478569031e-02,-6.322941929101943970e-02,-1.620730757713317871e-01,-1.374477297067642212e-01,3.803814202547073364e-02,4.374607652425765991e-02,1.245229616761207581e-01,8.682284504175186157e-02
1.176999732851982117e-01,1.667031645774841309e-01,2.185185998678207397e-02,1.408689189702272415e-03,1.182335913181304932e-01,-1.365223550237715244e-03,1.165047660470008850e-01,1.018728613853454590e-01,-3.628718107938766479e-02
6.995759904384613037e-02,-4.327354207634925842e-02,-6.083406507968902588e-02,1.193850561976432800e-01,2.286620438098907471e-03,-1.508550196886062622e-01,4.028339311480522156e-02,2.594712562859058380e-02,-1.564543694257736206e-01
-2.209230326116085052e-03,2.027665264904499054e-02,-1.077983528375625610e-01,8.425606787204742432e-02,1.792523711919784546e-01,1.048377156257629395e-01,8.008291572332382202e-02,7.056661695241928101e-02,8.514235168695449829e-02
-2.412285469472408295e-02,1.362620443105697632e-01,6.340783834457397461e-02,-1.614355482161045074e-02,1.452280431985855103e-01,1.066614463925361633e-01,5.275391042232513428e-02,-2.904051542282104492e-02,-4.412281140685081482e-02
6.750863045454025269e-02,2.051138505339622498e-02,-8.263870328664779663e-02,9.910335391759872437e-02,1.180117353796958923e-01,9.817144274711608887e-02,-3.648848831653594971e-02,-3.197159618139266968e-02,3.588067367672920227e-02
5.146731063723564148e-02,1.485496759414672852e-01,1.077895760536193848e-01,1.171386986970901489e-01,2.771269902586936951e-02,1.034630984067916870e-01,-6.799199432134628296e-02,1.360811591148376465e-01,7.889437675476074219e-02
-1.532499492168426514e-01,8.971778303384780884e-02,7.844196259975433350e-02,9.293949231505393982e-03,5.385058000683784485e-02,4.434316977858543396e-02,1.236085668206214905e-01,1.373294442892074585e-01,1.052743867039680481e-01
2.574306912720203400e-02,1.474492251873016357e-01,-1.222595199942588806e-01,1.702494025230407715e-01,1.844950616359710693e-01,-1.928821206092834473e-02,6.514088809490203857e-02,8.643567562103271484e-02,-5.830385535955429077e-02
1.452518403530120850e-01,-8.338246494531631470e-03,-7.558136433362960815e-02,8.425790816545486450e-02,-1.469434890896081924e-02,-1.012245044112205505e-01,1.562406569719314575e-01,-6.751099973917007446e-02,-1.732006371021270752e-01
1.407295465469360352e-01,-1.337306201457977295e-02,4.611792415380477905e-02,1.372288465499877930e-01,-3.345214203000068665e-02,-1.085946112871170044e-01,-7.181261479854583740e-02,-3.265733271837234497e-02,-4.451787471771240234e-02
1.041608396917581558e-02,-9.436668455600738525e-02,-3.711770847439765930e-02,-3.885516896843910217e-02,-1.612277142703533173e-02,-3.209629282355308533e-02,-2.055524662137031555e-02,-8.216395974159240723e-02,-1.720347814261913300e-02
1.109589561820030212e-01,1.606833636760711670e-01,1.030140891671180725e-01,-1.085407957434654236e-01,-4.255022108554840088e-02,9.949555993080139160e-02,-1.982499510049819946e-01,-1.701731532812118530e-01,6.833758950233459473e-02
9.130913019180297852e-02,7.900464534759521484e-02,-6.345287710428237915e-02,-2.715144306421279907e-02,1.058745756745338440e-01,1.592653095722198486e-01,1.004806831479072571e-01,5.717578902840614319e-02,1.478352099657058716e-01
1.579637527465820312e-01,6.817074865102767944e-02,1.164413839578628540e-01,-4.557162523269653320e-02,4.376218840479850769e-02,-1.059026364237070084e-02,-1.900891065597534180e-01,-2.900096029043197632e-02,-1.203711181879043579e-01
-1.166146993637084961e-01,-7.025278359651565552e-02,8.267839252948760986e-02,7.433907687664031982e-02,1.649852991104125977e-01,1.720773428678512573e-01,9.701084345579147339e-02,-4.874531552195549011e-02,2.802549675107002258e-02
1.400193572044372559e-01,1.981722563505172729e-02,1.277916133403778076e-01,-1.569580659270286560e-02,1.876253634691238403e-01,1.540607959032058716e-02,-7.504186034202575684e-02,-4.284853488206863403e-02,-2.469724602997303009e-02
8.412332832813262939e-02,1.309781670570373535e-01,-1.074344143271446228e-01,1.043718755245208740e-01,-9.301854297518730164e-03,-6.291793286800384521e-02,4.888823255896568298e-02,5.268423259258270264e-02,-1.081902086734771729e-01
1.230426952242851257e-01,7.974950224161148071e-02,1.755041629076004028e-01,-9.290774911642074585e-02,-1.035131365060806274e-01,2.249398082494735718e-02,-5.187091231346130371e-02,-1.678760200738906860e-01,1.039253175258636475e-02
1.286507397890090942e-02,-6.674496829509735107e-02,-3.776729851961135864e-02,-1.547768991440534592e-02,6.968577206134796143e-02,1.357095241546630859e-01,5.760622397065162659e-02,1.510628759860992432e-01,1.790142208337783813e-01
-1.088444609194993973e-03,1.740864366292953491e-01,-1.818013726733624935e-03,-1.386075001209974289e-02,1.413661092519760132e-01,7.345277816057205200e-02,-1.923239231109619141e-01,-1.522693634033203125e-01,-4.308216273784637451e-02
-6.386677920818328857e-02,1.185895651578903198e-01,-5.552216991782188416e-02,6.818282417953014374e-03,1.006163656711578369e-01,9.196796268224716187e-02,7.209184765815734863e-02,7.855944335460662842e-02,1.291303187608718872e-01
-2.201382815837860107e-01,-1.361001133918762207e-01,-1.279729790985584259e-02,-2.333746552467346191e-01,1.122891083359718323e-01,1.161761209368705750e-01,-8.557674288749694824e-02,7.176267914474010468e-03,1.442764401435852051e-01
1.353533715009689331e-01,-3.599947318434715271e-02,1.155319064855575562e-01,1.586330980062484741e-01,-2.708365395665168762e-02,1.545661240816116333e-01,1.100295130163431168e-02,-1.318881660699844360e-01,-1.193043738603591919e-01
9.111286140978336334e-03,6.089992448687553406e-02,-1.723649948835372925e-01,9.119135141372680664e-02,1.034252569079399109e-01,9.558378905057907104e-02,1.276155561208724976e-01,1.033886745572090149e-01,1.607099622488021851e-01
1.418889015913009644e-01,-2.825978398323059082e-02,-6.947661191225051880e-02,1.107190102338790894e-01,-4.771548137068748474e-02,-1.063599586486816406e-01,6.991580873727798462e-02,3.338185697793960571e-02,-9.652024507522583008e-02
1.519674211740493774e-01,1.515130698680877686e-01,6.974405050277709961e-02,-1.887541636824607849e-02,-2.272022515535354614e-02,-1.961613260209560394e-02,-1.126893535256385803e-01,-1.707187443971633911e-01,-6.237472221255302429e-02
1.512210369110107422e-01,1.035276986658573151e-02,1.133962124586105347e-01,1.073887124657630920e-01,3.095895424485206604e-02,5.022274702787399292e-02,-1.208263933658599854e-01,-2.189290821552276611e-01,-1.689231991767883301e-01
-1.354699730873107910e-01,-1.270834356546401978e-01,-1.168148126453161240e-02,-5.867243185639381409e-02,-4.677178338170051575e-02,4.718544334173202515e-02,1.660830825567245483e-01,1.221190690994262695e-01,1.048933565616607666e-01
4.563574120402336121e-02,1.358164846897125244e-01,1.194944456219673157e-01,1.442082375288009644e-01,1.647722721099853516e-01,7.973764836788177490e-02,8.785858750343322754e-02,6.336107105016708374e-02,-9.202469140291213989e-02
1.447539124637842178e-02,2.762632630765438080e-02,-1.163697540760040283e-01,1.718682199716567993e-01,8.501141518354415894e-02,1.038898229598999023e-01,9.666419029235839844e-02,1.350069791078567505e-01,-2.382852695882320404e-02
-1.741368919610977173e-01,-2.277575992047786713e-02,1.696210205554962158e-01,-1.701344996690750122e-01,-7.410398870706558228e-02,1.460556387901306152e-01,-4.982958361506462097e-02,3.913544118404388428e-02,1.305336207151412964e-01
1.770102381706237793e-01,2.751555666327476501e-02,-2.091538906097412109e-01,1.453473567962646484e-01,4.678091779351234436e-02,1.047884672880172729e-01,1.236881464719772339e-01,1.941189914941787720e-01,5.577333271503448486e-03
1.718726158142089844e-01,1.026365607976913452e-01,-2.589586749672889709e-02,1.715489774942398071e-01,1.268843412399291992e-01,1.664409413933753967e-02,-8.886171132326126099e-02,4.188463091850280762e-02,8.180772513151168823e-02
-1.008563563227653503e-01,-7.672519981861114502e-02,1.429416686296463013e-01,-1.249079555273056030e-01,7.529675960540771484e-02,1.992819160223007202e-01,1.154398545622825623e-02,-1.884145848453044891e-02,1.668053679168224335e-02
3.351648524403572083e-02,-1.362516265362501144e-02,1.147729381918907166e-01,7.120615243911743164e-02,1.762777566909790039e-01,1.322977244853973389e-01,-4.610547423362731934e-02,6.752181798219680786e-02,2.297480404376983643e-02
-5.769082927145063877e-04,-2.823181077837944031e-02,1.212278902530670166e-01,1.662000417709350586e-01,1.010467484593391418e-01,1.673699915409088135e-01,7.419356703758239746e-02,1.432403922080993652e-01,-4.216759651899337769e-02
-4.105696082115173340e-02,-8.435353636741638184e-02,-1.228751316666603088e-01,1.823008060455322266e-01,-4.104701057076454163e-02,-6.284129619598388672e-02,1.659745872020721436e-01,1.626026332378387451e-01,1.703296005725860596e-01
-8.699199557304382324e-02,2.892574481666088104e-02,1.576626300811767578e-01,-1.475675031542778015e-03,1.693073511123657227e-01,1.074349433183670044e-01,2.740167453885078430e-02,8.030292391777038574e-02,-1.131591200828552246e-01
-1.371985375881195068e-01,8.053433150053024292e-02,9.636254608631134033e-02,-3.616695851087570190e-02,1.671492606401443481e-01,1.322125941514968872e-01,7.970947772264480591e-02,7.906138896942138672e-02,-1.170316152274608612e-02
1.125250756740570068e-01,1.019493713974952698e-01,1.949305683374404907e-01,-2.326256223022937775e-02,7.828016765415668488e-03,-4.896708950400352478e-02,-1.637034118175506592e-01,-1.476213485002517700e-01,-5.842654034495353699e-02
-7.222539186477661133e-02,1.548527330160140991e-01,1.433704644441604614e-01,-8.047264814376831055e-02,1.399282068014144897e-01,1.477061957120895386e-01,-8.774656057357788086e-02,1.133490279316902161e-01,-5.045322235673666000e-03
1.571718305349349976e-01,-5.913186445832252502e-02,5.123147740960121155e-02,1.526169031858444214e-01,2.193477470427751541e-03,-8.264584094285964966e-02,3.584827110171318054e-02,5.756281688809394836e-02,-6.860852986574172974e-02
9.237042069435119629e-02,1.225541755557060242e-01,1.182428300380706787e-01,-4.929466638714075089e-03,2.572410553693771362e-02,9.073648601770401001e-03,-1.721249669790267944e-01,-1.525974273681640625e-01,-6.164140626788139343e-02
5.973191931843757629e-02,9.228565543889999390e-02,1.327511668205261230e-01,5.658788233995437622e-02,1.114369332790374756e-01,-1.845060847699642181e-02,5.849542841315269470e-02,4.911323077976703644e-03,1.191563382744789124e-01
6.437657773494720459e-02,1.367756426334381104e-01,-6.795118004083633423e-02,2.018721587955951691e-02,1.489043682813644409e-01,-7.531168311834335327e-02,5.233081057667732239e-02,-3.869447391480207443e-03,1.040439531207084656e-01
-1.465514749288558960e-01,-1.286712139844894409e-01,-2.407433092594146729e-02,1.417064517736434937e-01,-1.546593289822340012e-02,5.093938857316970825e-02,4.364544898271560669e-02,9.609593451023101807e-02,1.033969745039939880e-01
1.848513484001159668e-01,4.996931180357933044e-02,1.314362138509750366e-01,-2.862510457634925842e-02,1.109051033854484558e-01,-1.641205599298700690e-04,-1.805632859468460083e-01,-1.646605134010314941e-01,-1.258020251989364624e-01
5.464311689138412476e-02,8.674598485231399536e-02,2.938531897962093353e-02,1.776295900344848633e-01,1.800383925437927246e-01,4.803261905908584595e-02,1.658054441213607788e-01,2.805889584124088287e-03,-7.756028324365615845e-02
6.909531541168689728e-03,8.815642446279525757e-02,6.205568462610244751e-02,1.443221718072891235e-01,4.057811945676803589e-02,-3.780701011419296265e-02,1.288532018661499023e-01,1.812231987714767456e-01,1.463517248630523682e-01
-1.351725608110427856e-01,-1.856445670127868652e-01,-9.439653903245925903e-02,1.361145675182342529e-01,-3.488160297274589539e-02,-8.176809549331665039e-02,1.162231564521789551e-01,1.711142510175704956e-01,1.062468811869621277e-01
2.716377936303615570e-02,9.731107950210571289e-02,1.569444686174392700e-01,-1.331436038017272949e-01,-1.833650767803192139e-01,-2.333747543161734939e-04,9.499418735504150391e-02,-8.223355561494827271e-02,1.460865885019302368e-02
-2.257266547530889511e-03,-6.045004725456237793e-02,-1.679385304450988770e-01,-2.619451144710183144e-03,2.105443179607391357e-02,-4.413191229104995728e-02,4.847265407443046570e-02,1.092554628849029541e-01,1.512266993522644043e-01
-5.828653462231159210e-03,1.322880685329437256e-01,-8.901663869619369507e-02,1.369829922914505005e-01,8.080542832612991333e-02,1.615848019719123840e-02,8.670435100793838501e-02,1.000493317842483521e-01,1.489829421043395996e-01
-1.153853461146354675e-01,-1.688891053199768066e-01,-7.327558845281600952e-02,6.978679448366165161e-02,-3.612172231078147888e-02,-4.295018687844276428e-02,6.023618951439857483e-02,1.787920743227005005e-01,9.877538681030273438e-02
3.524107858538627625e-02,7.212583720684051514e-02,-5.735169723629951477e-02,1.488217115402221680e-01,1.570444852113723755e-01,1.753301024436950684e-01,-8.722043037414550781e-02,2.419435977935791016e-02,1.275689899921417236e-01
9.202229231595993042e-02,-8.366248570382595062e-03,-2.118782699108123779e-01,1.958430558443069458e-01,-2.862039394676685333e-02,-1.919484883546829224e-01,1.591852158308029175e-01,1.871907263994216919e-01,7.416501641273498535e-02
5.174750462174415588e-02,2.219597809016704559e-02,-1.997856348752975464e-01,1.206943318247795105e-01,9.562168270349502563e-02,-7.047135382890701294e-02,1.667453348636627197e-01,1.926873177289962769e-01,6.163669377565383911e-02
-7.355604320764541626e-02,-2.305868268013000488e-02,1.384542286396026611e-01,7.090235501527786255e-02,-6.458494346588850021e-03,1.817425787448883057e-01,1.012991368770599365e-01,2.092626318335533142e-02,-4.663584753870964050e-02
7.478800415992736816e-02,1.068157106637954712e-01,4.383343458175659180e-02,-5.933083966374397278e-02,1.155815571546554565e-01,1.268806904554367065e-01,-2.313072830438613892e-01,-1.461992710828781128e-01,-5.714825913310050964e-02
-1.662973910570144653e-01,-5.771037563681602478e-02,1.706218421459197998e-01,-6.647263467311859131e-02,-6.183438375592231750e-02,1.575444638729095459e-01,-1.304637640714645386e-01,6.362234801054000854e-02,7.981469854712486267e-03
-2.195201367139816284e-01,-1.410074979066848755e-01,6.520851515233516693e-03,-3.026078338734805584e-04,-3.324320539832115173e-02,-4.340931400656700134e-02,1.681329160928726196e-01,8.276186883449554443e-02,1.431325972080230713e-01
-8.814200013875961304e-02,1.882127672433853149e-02,-7.654461264610290527e-02,-6.803941726684570312e-02,-4.308595880866050720e-02,-2.949951449409127235e-03,-4.081335291266441345e-02,-9.107346832752227783e-02,-9.139276295900344849e-02
5.943949148058891296e-02,-1.775104999542236328e-01,3.220061957836151123e-02,-1.478726118803024292e-01,-1.984341070055961609e-02,6.829820573329925537e-02,-1.138763874769210815e-01,-3.874710202217102051e-02,1.446335911750793457e-01
-5.868630111217498779e-02,-7.266291417181491852e-03,1.285155117511749268e-01,1.355613768100738525e-01,1.101332902908325195e-01,6.026642024517059326e-02,3.396489471197128296e-02,1.585109680891036987e-01,1.228054687380790710e-01
-3.959545493125915527e-02,5.435065925121307373e-02,9.315277449786663055e-03,9.393694251775741577e-02,2.111749723553657532e-03,-4.557913914322853088e-02,1.955618411302566528e-01,1.295820623636245728e-01,-1.382908523082733154e-01
3.326198458671569824e-02,-7.803269661962985992e-03,-6.462007015943527222e-02,1.148777455091476440e-01,1.313842386007308960e-01,1.842908374965190887e-02,1.947238892316818237e-01,1.813794374465942383e-01,3.543957322835922241e-02
-1.110588833689689636e-01,-1.104207113385200500e-01,6.806739419698715210e-02,-6.376624107360839844e-02,1.116582229733467102e-01,5.165327340364456177e-02,1.401210874319076538e-01,1.113315224647521973e-01,6.214306224137544632e-03
7.261605560779571533e-02,1.376312822103500366e-01,7.605289667844772339e-02,-1.051203720271587372e-02,6.135873869061470032e-02,2.809100784361362457e-02,-2.144621498882770538e-02,1.017218902707099915e-01,9.812983870506286621e-02
1.416544765233993530e-01,1.562418788671493530e-01,-7.711061090230941772e-02,1.366085410118103027e-01,8.147335797548294067e-02,2.691220678389072418e-02,1.169269084930419922e-01,1.466164588928222656e-01,-7.663352042436599731e-02
2.873539365828037262e-02,6.272733211517333984e-02,9.001311659812927246e-02,3.108602762222290039e-02,1.561236828565597534e-01,1.470906138420104980e-01,-9.048616141080856323e-02,3.112936392426490784e-02,-1.144356429576873779e-01
1.653628945350646973e-01,1.877479553222656250e-01,-4.388188477605581284e-03,4.250111430883407593e-02,1.664644628763198853e-01,-1.016299650073051453e-01,-6.442180275917053223e-02,9.298485517501831055e-02,-5.544899404048919678e-02
9.985620528459548950e-02,1.115355193614959717e-01,8.839777112007141113e-02,7.275334745645523071e-02,2.254544012248516083e-02,7.530075311660766602e-02,-1.703838407993316650e-01,-1.679047048091888428e-01,-1.245984807610511780e-01
1.216553896665573120e-01,9.232690930366516113e-02,-2.103549800813198090e-02,-8.987639844417572021e-02,-1.838604570366442204e-03,6.547011435031890869e-02,-5.046781152486801147e-02,-6.182916089892387390e-02,9.901059418916702271e-02
-5.170602351427078247e-02,7.798264920711517334e-02,4.163845255970954895e-02,1.459680646657943726e-01,3.516682609915733337e-02,-9.386066347360610962e-03,1.046602874994277954e-01,1.695531457662582397e-01,1.510771214962005615e-01
-1.746066808700561523e-01,9.914103895425796509e-02,2.965433988720178604e-03,3.431178256869316101e-02,7.222729921340942383e-02,7.830113172531127930e-02,4.181283339858055115e-02,1.195098981261253357e-01,1.852574199438095093e-01
-7.185354083776473999e-02,6.058074906468391418e-02,8.521069586277008057e-02,2.460965700447559357e-02,4.476607218384742737e-02,1.782591789960861206e-01,-1.442740112543106079e-01,-1.838718056678771973e-01,-1.140272766351699829e-01
2.304197661578655243e-02,-4.938915744423866272e-02,9.140633791685104370e-02,1.555801779031753540e-01,6.556538492441177368e-02,1.397046148777008057e-01,1.528928279876708984e-01,1.083419620990753174e-01,-8.801372349262237549e-02
-2.094205319881439209e-01,-7.891676574945449829e-02,1.432455182075500488e-01,-1.580515056848526001e-01,2.793684136122465134e-03,1.515250653028488159e-01,-7.904135435819625854e-02,-2.848339825868606567e-02,1.157799139618873596e-01
1.395576894283294678e-01,7.491847127676010132e-02,4.360880702733993530e-03,8.836907893419265747e-02,-4.265940561890602112e-02,1.338126361370086670e-01,7.549483329057693481e-02,4.806259274482727051e-02,1.727074086666107178e-01
7.912116497755050659e-02,7.406529039144515991e-02,1.488847099244594574e-02,6.965139508247375488e-02,5.973177403211593628e-02,1.392624676227569580e-01,1.014792826026678085e-03,7.492427527904510498e-02,-3.460000082850456238e-02
7.152197510004043579e-02,1.203240267932415009e-02,1.112859621644020081e-01,-1.381395608186721802e-01,-6.779954303056001663e-03,1.450549811124801636e-01,-1.322904676198959351e-01,-6.058550253510475159e-02,1.379048973321914673e-01
-1.876658797264099121e-01,-4.269581288099288940e-02,5.005643516778945923e-02,-1.096901074051856995e-01,1.732743903994560242e-02,5.510959401726722717e-02,-4.095698893070220947e-02,-2.703961357474327087e-02,1.389984339475631714e-01
-2.562327086925506592e-01,-9.343588352203369141e-02,2.893925411626696587e-03,-6.099200621247291565e-02,3.608914837241172791e-02,3.813030570745468140e-02,1.871069371700286865e-01,1.214366331696510315e-01,1.401565968990325928e-01
-1.477186232805252075e-01,1.041520014405250549e-01,-1.490787044167518616e-02,-9.805036336183547974e-02,-5.468613468110561371e-03,9.910754859447479248e-02,-1.351433992385864258e-01,1.298053413629531860e-01,1.217318475246429443e-01
-1.369033753871917725e-01,-2.462902367115020752e-01,-6.995659321546554565e-02,-3.552570939064025879e-02,3.741988912224769592e-02,1.451597660779953003e-01,8.607352524995803833e-02,1.248693391680717468e-01,1.002995148301124573e-01
3.703655302524566650e-02,7.047684490680694580e-02,5.886439979076385498e-02,1.356791611760854721e-02,1.295696496963500977e-01,1.364803165197372437e-01,-4.622575640678405762e-02,8.202296495437622070e-02,1.570719927549362183e-01
1.352706104516983032e-01,-8.699788153171539307e-02,-1.791110336780548096e-01,1.324594467878341675e-01,4.573693871498107910e-02,7.521983981132507324e-02,1.746428608894348145e-01,1.307121664285659790e-01,1.606705486774444580e-01
9.728351235389709473e-02,1.701577305793762207e-01,1.424311995506286621e-01,1.128652766346931458e-01,1.528722643852233887e-01,1.322035044431686401e-01,2.410013973712921143e-02,6.814817339181900024e-02,7.339916378259658813e-02
-3.367308080196380615e-01,-2.782475948333740234e-01,-2.065073698759078979e-01,-1.865461170673370361e-01,2.502077259123325348e-02,8.204899728298187256e-02,-9.786822833120822906e-03,2.303549051284790039e-01,1.558461785316467285e-01
1.693577617406845093e-01,4.386155679821968079e-02,1.577506363391876221e-01,1.267992109060287476e-01,-3.340845555067062378e-02,-1.227738931775093079e-01,1.308890283107757568e-01,-8.215259015560150146e-02,-1.859122961759567261e-01
1.514442544430494308e-02,1.147203370928764343e-01,9.358830004930496216e-02,1.617087274789810181e-01,7.243112474679946899e-02,1.464707404375076294e-01,9.589969180524349213e-03,1.016166526824235916e-02,6.061105057597160339e-02
-7.279562205076217651e-02,7.295040786266326904e-02,6.691724807024002075e-02,1.056464612483978271e-01,8.494513481855392456e-02,1.849079430103302002e-01,7.012641429901123047e-02,2.391353948041796684e-03,1.851830929517745972e-01
-1.679299771785736084e-02,-9.986934810876846313e-02,-1.642678380012512207e-01,6.763737648725509644e-02,3.561443835496902466e-02,1.481294333934783936e-01,-3.126200288534164429e-02,1.373778134584426880e-01,-5.805307999253273010e-03
1.140206456184387207e-01,1.112570613622665405e-01,5.268673226237297058e-02,2.695300616323947906e-02,1.427176296710968018e-01,1.814295649528503418e-01,1.697071641683578491e-02,1.080035567283630371e-01,1.649539619684219360e-01
-2.719887124840170145e-04,-2.669190987944602966e-02,-2.149602770805358887e-01,1.785726472735404968e-02,-4.570465162396430969e-02,-4.073971509933471680e-02,8.835475146770477295e-02,1.428393870592117310e-01,9.282772243022918701e-02
1.663260012865066528e-01,1.943863332271575928e-01,1.093948408961296082e-01,-5.067716166377067566e-02,6.128664687275886536e-02,2.860322222113609314e-02,6.071789190173149109e-02,-5.194630939513444901e-03,-2.390469610691070557e-02
9.948895871639251709e-02,8.584401756525039673e-02,1.321648806333541870e-01,-5.178232118487358093e-02,2.657129801809787750e-02,1.690539568662643433e-01,-1.897481977939605713e-01,-1.908509433269500732e-01,-1.107717081904411316e-01
7.811013609170913696e-02,-7.876962423324584961e-02,-2.800857424736022949e-01,1.758243739604949951e-01,-4.927705228328704834e-02,-4.440404847264289856e-02,2.203689515590667725e-01,1.558507140725851059e-02,3.050642274320125580e-02
-1.485292464494705200e-01,-8.490737527608871460e-02,4.470374435186386108e-02,-1.586976498365402222e-01,-3.576238173991441727e-03,1.122143045067787170e-01,-7.503213733434677124e-02,1.386478394269943237e-01,5.233727768063545227e-02
-1.184730306267738342e-01,-1.278669387102127075e-01,-3.515310958027839661e-02,1.076053157448768616e-01,1.334961317479610443e-02,2.300002984702587128e-02,3.209985047578811646e-02,8.861932158470153809e-02,1.730896532535552979e-02
1.749769896268844604e-01,1.668186336755752563e-01,-6.055765226483345032e-02,1.026920303702354431e-01,9.139522165060043335e-02,1.492292433977127075e-01,-1.395959854125976562e-01,-4.262454435229301453e-02,1.598455198109149933e-02
5.716003477573394775e-02,1.217239499092102051e-01,5.947102233767509460e-02,1.804817616939544678e-01,1.649241596460342407e-01,-9.160234779119491577e-02,7.099027186632156372e-02,1.339092291891574860e-02,-8.291764557361602783e-02
-8.478075265884399414e-02,9.280667454004287720e-02,1.121964454650878906e-01,1.097208559513092041e-01,1.130731925368309021e-01,1.177930757403373718e-01,-1.404881104826927185e-02,1.120921820402145386e-01,1.164630129933357239e-01
1.229694858193397522e-01,1.708670854568481445e-01,1.554836779832839966e-01,-2.456202916800975800e-02,1.079950481653213501e-01,-1.649599522352218628e-02,-4.777947068214416504e-02,7.596575468778610229e-02,-2.285256795585155487e-02
1.599211692810058594e-01,1.775988936424255371e-01,1.116869673132896423e-01,-8.276411890983581543e-02,1.277252137660980225e-01,8.043166249990463257e-02,-1.580508053302764893e-01,-1.520405709743499756e-01,1.253217011690139771e-01
9.149653464555740356e-02,9.053169190883636475e-02,-1.573774069547653198e-01,7.928872108459472656e-02,4.133706912398338318e-02,-8.183911442756652832e-02,5.702736601233482361e-02,1.702904403209686279e-01,3.263847157359123230e-02
1.567010432481765747e-01,1.061073541641235352e-01,5.522970110177993774e-02,8.630865067243576050e-02,7.209997624158859253e-02,-2.745009586215019226e-02,8.441662788391113281e-02,6.605842709541320801e-02,-1.440283190459012985e-02
-3.642344102263450623e-02,1.342326253652572632e-01,9.236459434032440186e-02,7.864639163017272949e-02,-3.532771021127700806e-02,2.219918929040431976e-02,6.150890514254570007e-02,-3.832730650901794434e-02,9.792120009660720825e-02
-1.114777326583862305e-01,1.044100224971771240e-01,4.894583299756050110e-02,5.760259926319122314e-03,1.333452761173248291e-01,6.627081334590911865e-02,-5.560743156820535660e-03,1.061551272869110107e-01,-9.432470798492431641e-02
1.177159473299980164e-01,1.485507935285568237e-01,-3.716103360056877136e-02,-5.317810550332069397e-02,1.273303925991058350e-01,1.615422368049621582e-01,1.854781247675418854e-02,-5.802520737051963806e-02,-8.431909978389739990e-02
-1.938077807426452637e-01,-4.238149523735046387e-02,1.433624029159545898e-01,-1.569912284612655640e-01,1.114765480160713196e-01,2.285514026880264282e-02,-5.334163457155227661e-02,1.435744911432266235e-01,7.854433357715606689e-02
-1.984525322914123535e-01,-1.582876294851303101e-01,6.069793552160263062e-02,-1.056754030287265778e-03,9.309276193380355835e-02,1.312364917248487473e-02,1.209368109703063965e-01,-2.249775640666484833e-02,1.373648345470428467e-01
-6.567703187465667725e-02,8.348291367292404175e-02,-9.302291087806224823e-03,5.612907186150550842e-02,1.069526895880699158e-01,-7.913014292716979980e-02,2.044261544942855835e-01,-2.740883827209472656e-02,-1.237299144268035889e-01
-4.767067730426788330e-02,8.037593215703964233e-02,1.654505431652069092e-01,-6.901508569717407227e-02,-2.452295422554016113e-01,-1.133133769035339355e-01,-2.362402388826012611e-03,8.220805227756500244e-02,-5.798037350177764893e-02
4.070134088397026062e-02,7.290259003639221191e-02,-2.021627314388751984e-02,5.780908092856407166e-02,7.196094095706939697e-02,1.457007974386215210e-01,5.328363552689552307e-02,-5.039990320801734924e-02,1.307476460933685303e-01
1.077110990881919861e-01,-2.644127793610095978e-02,7.416999433189630508e-04,1.450265664607286453e-02,-6.970766186714172363e-02,1.143117100000381470e-01,1.036423519253730774e-01,1.513310074806213379e-01,4.223093017935752869e-02
1.654399484395980835e-01,1.631171405315399170e-01,-3.319858806207776070e-03,1.136062443256378174e-01,-1.256114803254604340e-02,-1.820970326662063599e-02,6.756217032670974731e-02,-3.468268550932407379e-03,1.804861426353454590e-01
-1.549115926027297974e-01,-1.954735964536666870e-01,-8.755593746900558472e-02,1.434811353683471680e-01,-3.910149261355400085e-02,-1.178474258631467819e-02,1.131831854581832886e-01,1.394885927438735962e-01,1.027784645557403564e-01
1.780966818332672119e-01,8.910699188709259033e-02,1.579582318663597107e-02,1.884793192148208618e-01,1.907136440277099609e-01,7.879021018743515015e-02,-3.018682450056076050e-02,4.824363440275192261e-02,9.622666984796524048e-02
-2.788674831390380859e-02,-8.665342628955841064e-02,1.559434384107589722e-01,-1.560845375061035156e-01,-7.166256010532379150e-02,6.494237482547760010e-02,-8.028808981180191040e-02,7.901931554079055786e-02,1.274991184473037720e-01
-8.781766518950462341e-04,-2.918680198490619659e-02,2.097339183092117310e-02,1.186498254537582397e-01,1.584402173757553101e-01,1.386334896087646484e-01,-7.267100363969802856e-02,1.649100892245769501e-02,1.719197332859039307e-01
1.415605992078781128e-01,1.359418183565139771e-01,9.577655792236328125e-02,2.205889299511909485e-02,1.313920766115188599e-01,1.463678479194641113e-01,9.410414844751358032e-02,9.201723337173461914e-02,-2.780086360871791840e-02
7.463731616735458374e-02,1.217459961771965027e-01,2.061536312103271484e-01,1.577999256551265717e-02,-4.098791256546974182e-02,6.663729995489120483e-02,-1.758331954479217529e-01,-1.945049166679382324e-01,-1.019984036684036255e-01
6.387949734926223755e-02,-2.077808603644371033e-03,-5.325694754719734192e-02,1.525520235300064087e-01,1.467288434505462646e-01,8.002574741840362549e-02,-9.722413122653961182e-02,2.108357846736907959e-03,1.437749117612838745e-01
1.459478586912155151e-02,-3.894387558102607727e-02,6.019738968461751938e-03,9.090072475373744965e-03,1.639705747365951538e-01,-2.812118828296661377e-02,7.636074721813201904e-02,1.942189633846282959e-01,1.713225990533828735e-01
-9.904647618532180786e-02,1.054759994149208069e-01,1.629378050565719604e-01,-1.224558874964714050e-01,-2.590314447879791260e-01,-9.869751334190368652e-02,1.140174046158790588e-01,1.091817244887351990e-01,-1.065796241164207458e-01
-1.539127808064222336e-02,1.415175199508666992e-01,1.917161345481872559e-01,-7.432536780834197998e-02,-6.349058449268341064e-02,-7.752577308565378189e-03,-1.591674238443374634e-01,-1.821976900100708008e-01,-1.692895889282226562e-01
1.123923212289810181e-01,1.895980238914489746e-01,1.402893066406250000e-01,-9.993333369493484497e-02,1.291071437299251556e-02,-1.339649409055709839e-02,-9.156952053308486938e-02,-2.108762115240097046e-01,-6.332319974899291992e-02
-3.678538603708148003e-03,2.622211724519729614e-02,-1.046997308731079102e-01,1.366879791021347046e-01,1.551209092140197754e-01,-8.731780201196670532e-02,1.511112451553344727e-01,7.051648199558258057e-02,4.815166443586349487e-02
-2.120659872889518738e-02,1.344404090195894241e-02,3.435877338051795959e-02,6.992048025131225586e-02,5.947828758507966995e-04,1.895838826894760132e-01,-1.184601858258247375e-01,-2.017871141433715820e-01,9.599193930625915527e-02
-4.027232527732849121e-03,-4.255503416061401367e-02,-8.230068534612655640e-02,-9.005561470985412598e-02,-1.014658994972705841e-02,1.536670257337391376e-03,-4.758709296584129333e-02,-5.232324823737144470e-02,-2.297471836209297180e-02
-1.539648026227951050e-01,-9.846005588769912720e-02,1.727471202611923218e-01,-1.575972586870193481e-01,-1.418800838291645050e-02,1.627930551767349243e-01,-1.157385259866714478e-01,6.925176084041595459e-02,9.798343479633331299e-02
6.333144009113311768e-02,-1.558173000812530518e-01,-1.767606437206268311e-01,-3.198421299457550049e-01,-1.834852993488311768e-01,-5.567939486354589462e-03,-8.897469937801361084e-02,1.683810353279113770e-01,2.204891294240951538e-01
6.333036348223686218e-03,7.190020382404327393e-02,1.381890289485454559e-02,1.173025742173194885e-01,1.577194929122924805e-01,1.078601460903882980e-02,1.570151746273040771e-01,-4.942017421126365662e-02,-1.606689393520355225e-01
7.124938815832138062e-02,2.460369467735290527e-02,1.551178544759750366e-01,1.115051880478858948e-01,8.473750203847885132e-02,6.495191901922225952e-02,-1.707363724708557129e-01,-1.503617465496063232e-01,-1.863107681274414062e-01
-2.132310718297958374e-01,-1.921621859073638916e-01,-1.982100903987884521e-01,-4.483471438288688660e-02,-1.286930404603481293e-02,2.020180039107799530e-02,1.285283360630273819e-02,7.464489340782165527e-02,1.885980963706970215e-01
1.487894207239151001e-01,1.251247972249984741e-01,6.236986070871353149e-02,6.336817145347595215e-02,1.511533856391906738e-01,8.091751486063003540e-02,1.129126250743865967e-01,-8.870897814631462097e-03,-8.947406709194183350e-02
-9.267493337392807007e-02,4.000188410282135010e-02,-2.175410278141498566e-02,4.019942134618759155e-02,1.366991847753524780e-01,6.293857097625732422e-02,-5.344572290778160095e-02,8.609443902969360352e-02,1.116700023412704468e-01
1.452853083610534668e-01,-3.195952996611595154e-02,-8.328825980424880981e-02,1.431973278522491455e-01,-1.027598697692155838e-02,-1.332251727581024170e-01,-6.647421512752771378e-03,1.342547684907913208e-01,-8.297027647495269775e-02
-1.375615149736404419e-01,-6.202870234847068787e-02,1.763962805271148682e-01,-1.580856293439865112e-01,-5.255440995097160339e-02,1.194731295108795166e-01,-1.163488179445266724e-01,-3.298252820968627930e-02,1.291622221469879150e-01
5.646330863237380981e-02,9.984958916902542114e-02,1.778271347284317017e-01,-3.740797191858291626e-02,-7.094655185937881470e-02,5.390064418315887451e-02,1.143062487244606018e-01,-2.454756796360015869e-01,-1.388646215200424194e-01
1.453820466995239258e-01,1.245521903038024902e-01,-1.413853913545608521e-01,6.861232221126556396e-02,1.653443425893783569e-01,1.242377758026123047e-01,7.909620553255081177e-02,1.748432517051696777e-01,1.283649355173110962e-02
-9.378492832183837891e-02,1.281625032424926758e-01,-4.842603951692581177e-02,-1.357917934656143188e-01,1.165792569518089294e-01,1.062537729740142822e-01,-1.130168512463569641e-01,9.774278104305267334e-02,1.187902092933654785e-01
-1.819791346788406372e-01,-1.479809731245040894e-01,3.745178133249282837e-02,1.083537414669990540e-01,-6.415555626153945923e-02,-1.462515741586685181e-01,1.685308367013931274e-01,1.579484641551971436e-01,5.454244464635848999e-02
1.197966411709785461e-01,1.707749515771865845e-01,7.109103351831436157e-02,-1.106971353292465210e-01,4.572417587041854858e-02,5.685951933264732361e-02,-8.037667721509933472e-02,-1.909718662500381470e-01,-9.650982916355133057e-02
1.761663705110549927e-01,1.993771195411682129e-01,6.792891770601272583e-02,3.583279997110366821e-02,-7.223223894834518433e-02,6.883496791124343872e-02,-1.819333881139755249e-01,-1.615093350410461426e-01,-1.424219310283660889e-01
1.253747344017028809e-01,1.677685976028442383e-01,-4.416677728295326233e-02,1.208320409059524536e-01,8.476603776216506958e-02,4.850066825747489929e-02,2.348071709275245667e-02,1.066967993974685669e-01,1.535196155309677124e-01
-5.827517434954643250e-02,1.290689259767532349e-01,4.026039037853479385e-03,1.501328796148300171e-01,8.521867543458938599e-02,-3.719021379947662354e-02,1.481449753046035767e-01,1.023887693881988525e-01,-5.302778258919715881e-02
4.738619923591613770e-02,1.400842219591140747e-01,8.725128322839736938e-02,9.840514510869979858e-02,1.431584060192108154e-01,-2.964422106742858887e-02,-5.322864651679992676e-02,1.183646172285079956e-01,1.000336632132530212e-01
1.484365314245223999e-01,-5.250680819153785706e-02,1.015834361314773560e-01,1.154328063130378723e-01,-5.994648486375808716e-02,1.365532875061035156e-01,1.427064090967178345e-01,-6.301835924386978149e-02,-1.314356364309787750e-02
1.759816855192184448e-01,8.130462467670440674e-02,-3.076101653277873993e-02,1.703144311904907227e-01,-1.411934942007064819e-02,-1.529094576835632324e-01,3.221710771322250366e-02,-8.601873368024826050e-02,-1.256355643272399902e-02
1.699014902114868164e-01,6.556691974401473999e-02,-1.497469991445541382e-01,1.626157015562057495e-01,1.242088004946708679e-01,-2.951200492680072784e-02,-2.875524759292602539e-02,1.452507358044385910e-02,1.490875333547592163e-01
6.955693662166595459e-02,1.220486983656883240e-01,1.912657320499420166e-01,8.965011686086654663e-02,1.021429747343063354e-01,5.746276304125785828e-02,-4.502644017338752747e-02,-1.085300464183092117e-02,-1.856260150671005249e-01
-5.845122411847114563e-02,6.997135281562805176e-02,3.276695311069488525e-02,2.745957672595977783e-02,4.745352268218994141e-02,1.421022117137908936e-01,1.475217789411544800e-01,-1.069026347249746323e-02,1.209271401166915894e-01
-1.794924437999725342e-01,-2.303959578275680542e-01,-2.121974676847457886e-01,9.729041904211044312e-02,5.710348486900329590e-02,-1.123234257102012634e-01,2.152595818042755127e-01,1.059421300888061523e-01,5.914628878235816956e-02
-1.666510105133056641e-01,-1.123184785246849060e-01,-1.328963339328765869e-01,-2.168053388595581055e-02,1.060619368217885494e-03,7.645670324563980103e-02,1.764316707849502563e-01,1.101713702082633972e-01,6.513578444719314575e-02
-1.346628367900848389e-01,7.533974945545196533e-03,1.478361636400222778e-01,1.186674684286117554e-01,1.324132382869720459e-01,6.000586599111557007e-02,1.171571481972932816e-02,1.446484774351119995e-01,1.016729921102523804e-01
-1.911635845899581909e-01,-1.811931580305099487e-01,-1.287150979042053223e-01,5.968515202403068542e-02,-1.108746416866779327e-02,-5.533966422080993652e-02,1.131421253085136414e-01,2.379842698574066162e-01,7.508164644241333008e-02
-2.215696126222610474e-01,-8.545039221644401550e-03,-1.380791049450635910e-02,-7.546675950288772583e-02,-4.852510616183280945e-02,1.642663925886154175e-01,1.938555836677551270e-01,-2.217069827020168304e-02,2.742237225174903870e-02
1.561410725116729736e-01,1.480115801095962524e-01,-1.177419573068618774e-01,1.387692689895629883e-01,-4.272945225238800049e-03,-1.970351934432983398e-01,-8.554344065487384796e-03,9.033329784870147705e-02,-1.093918234109878540e-01
1.109474077820777893e-01,-1.420864611864089966e-01,9.549206122756004333e-03,-1.098398417234420776e-01,-1.203524917364120483e-01,1.237223111093044281e-02,-1.601336896419525146e-01,2.043724060058593750e-02,1.722886860370635986e-01
-2.509898543357849121e-01,-1.847974359989166260e-01,-2.859842963516712189e-02,-3.524203598499298096e-02,1.147804260253906250e-01,1.751849502325057983e-01,7.795811444520950317e-02,1.594494283199310303e-01,8.595905452966690063e-02
1.362240593880414963e-02,-2.621121518313884735e-02,4.114922881126403809e-02,1.062354370951652527e-01,1.637674421072006226e-01,-3.065680526196956635e-02,7.683449238538742065e-02,1.211275160312652588e-01,-7.966783642768859863e-02
6.507863849401473999e-02,-4.615273326635360718e-02,-1.481487900018692017e-01,2.028137743473052979e-01,1.453331410884857178e-01,6.785959750413894653e-02,9.433704614639282227e-02,6.022721529006958008e-02,4.625677317380905151e-02
1.908828616142272949e-01,2.051056027412414551e-01,3.386632725596427917e-02,1.367959380149841309e-01,-3.473703563213348389e-02,-1.479647308588027954e-01,1.911241374909877777e-02,-2.279536575078964233e-01,-1.831371039152145386e-01
9.545822441577911377e-02,1.491537541151046753e-01,9.083159267902374268e-02,5.632760003209114075e-02,-2.266712859272956848e-02,1.263524293899536133e-01,6.654637306928634644e-02,9.399193525314331055e-02,1.516347080469131470e-01
-1.659495383501052856e-01,-1.644525974988937378e-01,-1.119629368185997009e-01,1.870516128838062286e-02,8.240826427936553955e-02,3.245370462536811829e-02,9.305957704782485962e-02,8.981917053461074829e-02,1.072870641946792603e-01
6.964161247014999390e-02,-8.634755015373229980e-02,5.242082104086875916e-02,2.472235076129436493e-02,1.203155796974897385e-02,2.841485897079110146e-03,4.812291264533996582e-02,1.231320947408676147e-01,9.270396083593368530e-02
-2.975783497095108032e-02,1.135313138365745544e-01,1.753048151731491089e-01,-1.441324222832918167e-02,-4.382342472672462463e-02,1.616862416267395020e-02,-1.084825769066810608e-01,-1.780706048011779785e-01,3.510657697916030884e-02
-1.166677027940750122e-01,-1.713814288377761841e-01,-1.142998188734054565e-01,5.221017450094223022e-02,-5.046478286385536194e-02,9.352364391088485718e-02,3.394664451479911804e-02,1.771414577960968018e-01,7.790700346231460571e-02
-2.242853790521621704e-01,-6.599327176809310913e-02,1.376574188470840454e-01,-1.061828210949897766e-01,9.946665167808532715e-02,9.384219348430633545e-02,1.522657573223114014e-01,8.700129389762878418e-02,9.609350562095642090e-02
-1.910886615514755249e-01,-6.830916553735733032e-02,5.527425091713666916e-03,-5.826654657721519470e-02,1.684157922863960266e-02,8.997488021850585938e-02,1.411190479993820190e-01,3.225729241967201233e-02,1.715623885393142700e-01
2.440230175852775574e-02,1.278388351202011108e-01,1.514574736356735229e-01,-1.632968708872795105e-02,1.466321796178817749e-01,1.420368105173110962e-01,-3.946676477789878845e-02,8.813903480768203735e-02,9.759467095136642456e-02
1.686850488185882568e-01,4.953647404909133911e-02,1.760044395923614502e-01,-3.571185097098350525e-02,4.400461912155151367e-02,-4.525868594646453857e-02,-8.516556769609451294e-02,-1.636257916688919067e-01,-9.130413830280303955e-02
1.093943640589714050e-01,1.507550030946731567e-01,-1.043064445257186890e-01,1.834748387336730957e-01,-1.483201887458562851e-02,-1.952416598796844482e-01,-7.236522156745195389e-03,7.750560343265533447e-02,-5.929769948124885559e-03
-9.060196578502655029e-03,1.710574179887771606e-01,1.098351106047630310e-01,-8.308450877666473389e-02,9.606092236936092377e-03,5.453290045261383057e-02,-1.652741283178329468e-01,-1.218073070049285889e-01,1.295951474457979202e-02
5.962704867124557495e-02,1.695470362901687622e-01,2.082274667918682098e-02,-1.587758585810661316e-02,1.574587225914001465e-01,6.469735503196716309e-02,9.858515858650207520e-02,2.979857102036476135e-02,6.779960542917251587e-02
1.378175616264343262e-01,-1.192069984972476959e-02,-1.425096690654754639e-01,1.446025967597961426e-01,1.368934214115142822e-01,-8.849902451038360596e-02,-2.678402140736579895e-02,-1.648748875595629215e-03,8.933352679014205933e-02
3.963774442672729492e-02,8.009225875139236450e-02,-1.224121749401092529e-01,-3.931069374084472656e-02,1.368076056241989136e-01,1.675835065543651581e-02,1.020668447017669678e-01,1.709486991167068481e-01,8.901366591453552246e-02
-1.144900545477867126e-01,-1.612497270107269287e-01,-1.155482828617095947e-01,3.776523098349571228e-02,1.073669940233230591e-01,-3.369440790265798569e-03,1.315402984619140625e-01,6.768848747014999390e-02,4.582468047738075256e-02
1.106178313493728638e-01,-1.003690809011459351e-02,1.358400136232376099e-01,4.919165372848510742e-02,1.103620231151580811e-01,1.035767272114753723e-01,-1.292887181043624878e-01,-1.003092005848884583e-01,-2.396591752767562866e-02
-7.642157375812530518e-02,-5.050515756011009216e-02,9.166651964187622070e-02,-2.435313761234283447e-01,-9.058021754026412964e-02,1.592514067888259888e-01,-1.213622167706489563e-01,-3.476388007402420044e-02,1.734242588281631470e-02
-4.172343015670776367e-02,9.303218126296997070e-02,-1.147482893429696560e-03,2.834872342646121979e-02,1.611450612545013428e-01,1.131191998720169067e-01,-2.297777682542800903e-02,1.193893030285835266e-01,8.295855671167373657e-02
8.147796243429183960e-02,-6.389755755662918091e-03,1.583518087863922119e-02,-2.119375392794609070e-02,-6.713393377140164375e-04,1.724322438240051270e-01,5.543578416109085083e-02,5.984529480338096619e-02,7.424055039882659912e-02
1.028756573796272278e-01,6.379625946283340454e-02,5.562168080359697342e-03,1.726018637418746948e-01,1.199840381741523743e-01,1.007608175277709961e-01,-3.098163753747940063e-02,-8.241822570562362671e-02,-1.139579713344573975e-01
2.265540882945060730e-02,4.641012847423553467e-02,-9.609619528055191040e-02,1.046192646026611328e-01,3.282347321510314941e-02,1.516558825969696045e-01,-1.167081855237483978e-02,1.525978296995162964e-01,1.963777095079421997e-01
1.446919292211532593e-01,3.715860843658447266e-02,1.512326896190643311e-01,1.804880946874618530e-01,1.336350739002227783e-01,1.004221141338348389e-01,1.353396624326705933e-01,-5.011624842882156372e-02,1.392619907855987549e-01
-1.424408704042434692e-01,3.363623470067977905e-02,1.085263341665267944e-01,-1.205216571688652039e-01,1.980466954410076141e-02,3.764275461435317993e-02,-1.203640773892402649e-01,1.171967163681983948e-01,-5.279515869915485382e-03
1.371528208255767822e-01,5.481475032866001129e-03,1.369719952344894409e-01,9.132681041955947876e-02,1.620715707540512085e-01,9.060327708721160889e-02,2.303650602698326111e-02,-3.916735947132110596e-02,4.727820307016372681e-02
1.384053081274032593e-01,1.547644436359405518e-01,1.311124116182327271e-01,8.682105690240859985e-02,1.290977299213409424e-01,9.389591962099075317e-02,1.000965237617492676e-01,1.456932537257671356e-02,6.339477747678756714e-02
1.206948012113571167e-01,1.544530317187309265e-02,-1.300885975360870361e-01,1.474279761314392090e-01,-1.842396333813667297e-02,-1.440640836954116821e-01,3.794231265783309937e-02,3.740327898412942886e-03,-7.140503078699111938e-02
-7.521102577447891235e-02,6.097276508808135986e-02,1.364269386976957321e-02,9.583000838756561279e-02,5.502730235457420349e-02,1.476841568946838379e-01,-9.876676648855209351e-02,1.252137310802936554e-02,-7.651430368423461914e-02
8.304661512374877930e-02,4.371101781725883484e-02,1.510807126760482788e-01,8.523310534656047821e-03,2.543371403589844704e-03,6.043417006731033325e-02,-1.220369637012481689e-01,-1.663116812705993652e-01,4.510606825351715088e-02
3.446079557761549950e-03,1.314827203750610352e-01,4.817901179194450378e-02,7.832666486501693726e-02,9.771570563316345215e-02,8.970349282026290894e-02,9.336516261100769043e-02,1.363126486539840698e-01,3.769991174340248108e-02
-4.217642173171043396e-02,1.208592504262924194e-01,2.274606376886367798e-01,-1.328380554914474487e-01,-7.741831243038177490e-02,1.630528271198272705e-01,-1.782292574644088745e-01,-1.329838335514068604e-01,1.169472001492977142e-03
4.328574612736701965e-02,-1.385927945375442505e-01,-2.405420690774917603e-01,1.936899721622467041e-01,2.627421543002128601e-02,-2.667091190814971924e-01,1.116663143038749695e-01,2.281464636325836182e-01,7.812348660081624985e-03
6.825339794158935547e-02,-7.776479423046112061e-02,-1.223146989941596985e-01,-4.095392674207687378e-02,-9.379623830318450928e-02,-1.021546870470046997e-01,3.917184099555015564e-02,1.580379754304885864e-01,1.443324089050292969e-01
1.364742368459701538e-01,7.396771758794784546e-02,3.217084333300590515e-02,1.613456755876541138e-01,9.329093247652053833e-02,-7.787627726793289185e-02,3.268277272582054138e-02,1.612289100885391235e-01,6.519745290279388428e-02
1.328106671571731567e-01,2.142813429236412048e-02,1.363137811422348022e-01,6.037985160946846008e-02,5.373068153858184814e-02,1.496034562587738037e-01,1.007293388247489929e-01,-5.466912407428026199e-03,1.449443697929382324e-01
-7.367564737796783447e-02,-1.681810170412063599e-01,-7.396325469017028809e-02,1.174167320132255554e-01,-2.709847502410411835e-02,-1.798402145504951477e-02,1.084254588931798935e-02,1.529159545898437500e-01,1.014342159032821655e-01
7.429377734661102295e-02,7.877311855554580688e-02,1.006899252533912659e-01,3.333536908030509949e-02,2.830215916037559509e-02,7.910536229610443115e-02,-1.564046293497085571e-01,-8.778200298547744751e-02,-1.491160690784454346e-01
9.078735858201980591e-02,5.873633921146392822e-02,1.134553104639053345e-01,1.236762478947639465e-01,7.642417401075363159e-02,2.100528478622436523e-01,-5.945358052849769592e-02,4.249021783471107483e-02,1.945986151695251465e-01
-6.050078943371772766e-02,-8.580873161554336548e-02,-2.948724105954170227e-02,-6.067708507180213928e-02,-4.242235422134399414e-02,-7.443550974130630493e-02,2.046988308429718018e-01,1.136074587702751160e-01,2.421448938548564911e-02
1.611794531345367432e-01,4.286728799343109131e-02,1.146410629153251648e-01,-1.773135736584663391e-02,-1.012830156832933426e-02,1.019606441259384155e-01,-1.119505017995834351e-01,-1.912711113691329956e-01,-1.029074713587760925e-01
-1.077860500663518906e-02,1.314935833215713501e-01,1.073774024844169617e-01,4.970383644104003906e-02,7.269383221864700317e-02,4.015993326902389526e-02,-1.893310397863388062e-01,-1.482531130313873291e-01,-8.441228419542312622e-02
5.941027309745550156e-03,-3.731096535921096802e-02,-4.759977012872695923e-02,1.670899689197540283e-01,1.834221631288528442e-01,9.814418852329254150e-03,-1.957275345921516418e-02,5.046543851494789124e-02,3.654943406581878662e-02
1.245340928435325623e-01,1.207245737314224243e-01,8.096827566623687744e-02,-1.672400906682014465e-02,1.713564805686473846e-02,3.265798464417457581e-02,-1.516686677932739258e-01,-1.367730796337127686e-01,-1.137322112917900085e-01
1.452744305133819580e-01,1.612509340047836304e-01,8.282864093780517578e-02,7.414352893829345703e-02,1.180627271533012390e-01,-2.447167038917541504e-02,6.570941209793090820e-02,1.379747409373521805e-02,7.009233534336090088e-02
1.108541041612625122e-01,1.012847125530242920e-01,1.170806512236595154e-01,-1.117137297987937927e-01,1.404160074889659882e-02,1.218668445944786072e-01,-1.029299572110176086e-01,1.235855743288993835e-01,7.056152075529098511e-02
-3.826025873422622681e-02,-1.510220617055892944e-01,-1.181525811553001404e-01,-4.504970088601112366e-02,6.988205760717391968e-02,-6.791882961988449097e-02,1.284552812576293945e-01,1.031127125024795532e-01,1.531742364168167114e-01
2.614351734519004822e-02,1.316193789243698120e-01,2.735172957181930542e-02,1.544032543897628784e-01,-6.057813763618469238e-03,1.557961255311965942e-01,-1.115684676915407181e-02,3.785443678498268127e-02,3.410929068922996521e-02
2.356494404375553131e-02,-1.299803107976913452e-01,-1.209362745285034180e-01,5.947681888937950134e-02,-1.715251989662647247e-02,-1.015638858079910278e-01,8.573428541421890259e-02,1.294874399900436401e-01,1.266444921493530273e-01
9.229376167058944702e-02,4.364806786179542542e-02,-6.775502860546112061e-02,1.215290054678916931e-01,-5.184938758611679077e-02,-1.203838288784027100e-01,1.039581894874572754e-01,6.902053207159042358e-02,-9.005799889564514160e-02
3.526093438267707825e-02,1.571242362260818481e-01,6.614381819963455200e-02,-1.692616343498229980e-01,-1.650452166795730591e-01,-1.610977053642272949e-01,4.826590791344642639e-02,8.525299839675426483e-03,5.865839496254920959e-02
-1.870462000370025635e-01,-1.258151680231094360e-01,9.654100239276885986e-02,-1.652563661336898804e-01,-2.598022855818271637e-02,1.326949298381805420e-01,1.430354714393615723e-01,7.758161425590515137e-02,1.225109994411468506e-01
9.841033816337585449e-02,9.611251950263977051e-02,9.390751272439956665e-02,-1.276659369468688965e-01,-2.859720773994922638e-02,-9.488023072481155396e-02,-4.812456294894218445e-02,-5.260195583105087280e-02,5.222494900226593018e-02
1.398708373308181763e-01,-3.234869241714477539e-02,-1.073606461286544800e-01,8.479697257280349731e-02,-2.762850839644670486e-03,-1.362109184265136719e-01,8.690538257360458374e-02,2.395882643759250641e-02,-6.569389253854751587e-02
1.734378784894943237e-01,3.427190706133842468e-02,8.940367400646209717e-02,-9.775309264659881592e-02,5.532961711287498474e-02,1.772974990308284760e-02,-1.795405149459838867e-01,-1.332435160875320435e-01,1.379514783620834351e-01
-1.013507768511772156e-01,-7.187211513519287109e-02,-1.360195130109786987e-01,7.315871119499206543e-02,6.979084014892578125e-02,-4.987823963165283203e-02,1.366023868322372437e-01,3.545895218849182129e-02,7.430937141180038452e-02
-6.160337105393409729e-02,1.758414357900619507e-01,1.755673587322235107e-01,4.578247666358947754e-02,1.324248164892196655e-01,6.454329937696456909e-02,-3.258155286312103271e-02,-8.443579077720642090e-03,5.337147507816553116e-03
-1.928448081016540527e-01,-1.000348702073097229e-01,1.171069312840700150e-02,-1.667300313711166382e-01,7.203955948352813721e-02,1.545915752649307251e-01,-6.048398092389106750e-02,7.418505102396011353e-02,8.496892452239990234e-02
1.997934095561504364e-02,1.516866832971572876e-01,2.982222102582454681e-02,-1.684334501624107361e-02,-7.229517400264739990e-02,-2.096900949254631996e-03,1.301235407590866089e-01,-1.508479714393615723e-01,-1.313331276178359985e-01
-1.305450350046157837e-01,-1.926005184650421143e-01,-9.949690103530883789e-02,-1.664493419229984283e-02,1.337589919567108154e-01,3.302623331546783447e-02,1.373130381107330322e-01,4.683347418904304504e-03,1.473198831081390381e-01
-1.344076544046401978e-01,1.278323680162429810e-01,3.325400874018669128e-02,-1.283340156078338623e-01,4.707895591855049133e-02,9.664279967546463013e-02,-5.841411650180816650e-02,1.420122236013412476e-01,-3.246109932661056519e-02
5.327199026942253113e-02,-1.352516859769821167e-01,-9.649832546710968018e-02,-2.549340203404426575e-02,-8.856399357318878174e-02,-6.977283209562301636e-02,1.187433302402496338e-01,1.409943550825119019e-01,1.043465659022331238e-01
3.521460667252540588e-02,3.727292269468307495e-02,-1.066806614398956299e-01,1.590273976325988770e-01,1.160550564527511597e-01,-4.494161158800125122e-02,1.328962594270706177e-01,8.447388559579849243e-02,-7.285320013761520386e-02
1.490398347377777100e-01,1.073220297694206238e-01,3.872488811612129211e-02,2.813446521759033203e-02,1.658068895339965820e-01,-3.238598629832267761e-02,-3.689852729439735413e-02,-4.521861672401428223e-02,-2.113642394542694092e-01
-2.711496688425540924e-02,1.055812463164329529e-02,9.304662793874740601e-02,-1.154725402593612671e-01,-6.329667568206787109e-02,1.105353161692619324e-01,3.557158634066581726e-02,-1.345819830894470215e-01,5.307496339082717896e-02
5.369199067354202271e-02,9.041057527065277100e-02,-5.834873393177986145e-02,7.938596419990062714e-03,9.335903823375701904e-02,1.098254844546318054e-01,4.596754163503646851e-02,1.937884092330932617e-01,1.464525312185287476e-01
7.512727379798889160e-02,2.205287851393222809e-02,-7.305468618869781494e-02,1.598655283451080322e-01,1.147572509944438934e-02,-2.202776670455932617e-01,1.286157816648483276e-01,6.890550255775451660e-02,-1.450445801019668579e-01
4.695808887481689453e-02,4.367705434560775757e-02,-1.057810708880424500e-01,1.406489461660385132e-01,5.112716183066368103e-02,9.409265220165252686e-02,8.191729336977005005e-02,1.264764070510864258e-01,4.545085877180099487e-02
1.426928937435150146e-01,1.249923836439847946e-02,-8.029264956712722778e-02,1.466803550720214844e-01,-5.172855034470558167e-02,-3.286699950695037842e-02,1.480893939733505249e-01,1.449819058179855347e-01,9.493870288133621216e-02
8.702746033668518066e-02,9.800834953784942627e-02,3.133374825119972229e-02,-3.642404451966285706e-02,4.491057991981506348e-02,-7.720801234245300293e-02,-8.045804500579833984e-02,1.194701939821243286e-01,4.421634972095489502e-02
1.123205423355102539e-01,1.017163693904876709e-01,6.391398608684539795e-02,-5.695204064249992371e-02,1.334306001663208008e-01,-4.635944217443466187e-02,6.970326602458953857e-02,1.073440462350845337e-01,6.120350584387779236e-02
-1.459778845310211182e-01,-2.228614836931228638e-01,-1.196025237441062927e-01,-4.808405041694641113e-02,8.519242703914642334e-02,5.577305331826210022e-02,1.805876493453979492e-01,1.002339199185371399e-01,1.157464161515235901e-01
-1.404254585504531860e-01,-1.933091580867767334e-01,3.078794805333018303e-03,8.274321258068084717e-02,5.683096498250961304e-02,-7.152991741895675659e-02,8.207294344902038574e-02,1.033446714282035828e-01,8.067729324102401733e-02
-1.263750791549682617e-01,3.771463036537170410e-02,1.189962960779666901e-02,5.402698367834091187e-02,1.762683093547821045e-01,1.413107961416244507e-01,6.063073500990867615e-02,1.527599692344665527e-01,2.712824568152427673e-02
1.495660692453384399e-01,1.236038357019424438e-01,1.517116427421569824e-01,7.806576788425445557e-02,1.649870537221431732e-02,1.540161669254302979e-01,-1.377352178096771240e-01,-2.425276786088943481e-01,-1.493583619594573975e-01
1.342817395925521851e-01,-1.167297586798667908e-01,-1.990094333887100220e-01,1.987413018941879272e-01,3.735651448369026184e-02,-2.411132007837295532e-01,7.577819377183914185e-02,2.205291241407394409e-01,-4.152198880910873413e-02
-7.210054248571395874e-02,8.217989653348922729e-02,1.669353395700454712e-01,-8.817014843225479126e-02,-4.772352054715156555e-02,6.652740389108657837e-02,-1.348100006580352783e-01,1.979934796690940857e-02,7.308809459209442139e-02
-1.414680480957031250e-01,1.668071188032627106e-02,-3.444271162152290344e-02,1.219025179743766785e-01,1.060602441430091858e-01,-6.629745662212371826e-02,-2.599741145968437195e-02,9.260684251785278320e-02,-8.572024852037429810e-02
6.179958954453468323e-02,-9.619521349668502808e-02,-2.044293284416198730e-01,3.827292844653129578e-02,1.326150149106979370e-01,6.259644031524658203e-02,3.519405052065849304e-02,1.135557591915130615e-01,7.407119125127792358e-02
1.247813627123832703e-01,-8.453577011823654175e-02,-1.416366081684827805e-02,5.635835230350494385e-02,8.509918302297592163e-02,1.963895708322525024e-01,7.292616367340087891e-02,1.257786899805068970e-01,1.426402032375335693e-01
5.732087302021682262e-04,1.172619219869375229e-02,2.133449465036392212e-01,-3.361719846725463867e-02,-6.507050991058349609e-02,1.014876324916258454e-04,4.612988606095314026e-02,-1.577514410018920898e-01,-3.790483623743057251e-02
-2.220790088176727295e-01,3.115109726786613464e-02,3.527124226093292236e-02,-1.364657431840896606e-01,5.000069737434387207e-03,1.469106078147888184e-01,-7.221683859825134277e-02,8.457602560520172119e-02,7.242010533809661865e-02
-1.717334240674972534e-01,-1.687450893223285675e-02,1.938174478709697723e-02,1.680472046136856079e-01,1.094062551856040955e-01,1.281930319964885712e-02,-1.701661199331283569e-02,-8.927626162767410278e-02,-8.368170261383056641e-02
1.667338050901889801e-02,2.019666433334350586e-01,2.068477720022201538e-01,1.157376691699028015e-01,-5.950750038027763367e-02,-8.147770166397094727e-02,-1.900109648704528809e-01,-2.002622783184051514e-01,-3.292237967252731323e-02
-1.670156717300415039e-01,-1.780357509851455688e-01,2.199203521013259888e-02,-1.809322535991668701e-01,-7.536124903708696365e-03,1.042352840304374695e-01,-1.562808752059936523e-01,-6.095819920301437378e-02,1.462283432483673096e-01
-3.322058022022247314e-01,-2.890037000179290771e-01,6.526864320039749146e-02,-1.088960021734237671e-01,1.021096557378768921e-01,5.292489007115364075e-02,1.536601185798645020e-01,2.400903105735778809e-01,2.172333449125289917e-01
4.885534755885601044e-03,1.481808722019195557e-01,4.711528867483139038e-02,-3.718391433358192444e-02,1.071042343974113464e-01,1.413483321666717529e-01,-1.903846263885498047e-01,-1.142614632844924927e-01,1.260377019643783569e-01
-2.639467716217041016e-01,-7.937214523553848267e-02,2.517306804656982422e-02,-1.415159553289413452e-01,-5.331751890480518341e-03,6.014738604426383972e-02,-5.938446149230003357e-02,6.598999351263046265e-02,2.087100148200988770e-01
-9.061919897794723511e-02,-8.957619965076446533e-02,-3.393166139721870422e-02,6.714381277561187744e-02,1.596612483263015747e-01,6.341437995433807373e-02,1.219440549612045288e-01,1.448689252138137817e-01,-7.737902458757162094e-03
5.197884514927864075e-02,1.011427864432334900e-01,1.106261909008026123e-01,7.712460588663816452e-03,8.009129762649536133e-02,7.394631952047348022e-02,6.194907426834106445e-02,-3.928076848387718201e-02,8.797722309827804565e-02
1.060719564557075500e-01,2.156841941177845001e-02,-9.090601652860641479e-02,7.982829213142395020e-02,1.896446496248245239e-01,1.168555468320846558e-01,1.382449567317962646e-01,-1.459160726517438889e-02,1.770126447081565857e-02
6.188189610838890076e-02,1.470072865486145020e-01,-8.683954179286956787e-02,-4.963088035583496094e-02,5.267499759793281555e-02,1.278176307678222656e-01,9.046760201454162598e-02,5.497642233967781067e-02,1.504946220666170120e-02
1.286302600055932999e-02,1.427879184484481812e-01,1.215417459607124329e-01,-7.853421382606029510e-03,1.616964042186737061e-01,1.476903855800628662e-01,-1.255075819790363312e-02,3.456093370914459229e-02,-9.757927618920803070e-04
1.339308470487594604e-01,1.235841661691665649e-01,-2.646317332983016968e-02,1.124486327171325684e-01,2.903063222765922546e-02,8.304938673973083496e-02,1.531492080539464951e-02,1.071274802088737488e-01,1.350835859775543213e-01
1.568575650453567505e-01,4.085246846079826355e-02,6.782189011573791504e-02,-2.448116615414619446e-02,1.780639588832855225e-01,1.210532337427139282e-02,-1.780865490436553955e-01,-4.026005044579505920e-02,1.238870993256568909e-01
3.008571220561861992e-03,-1.272606402635574341e-01,-1.353649199008941650e-01,1.172218099236488342e-01,1.399728655815124512e-01,-5.394356697797775269e-02,-6.189263984560966492e-02,2.104671485722064972e-02,1.248932704329490662e-01
1.712650507688522339e-01,8.852344006299972534e-02,2.155955135822296143e-01,7.978120446205139160e-02,8.517052233219146729e-02,-5.768013373017311096e-02,-1.916095614433288574e-01,-2.574414014816284180e-01,-1.513794213533401489e-01
-3.286724537611007690e-02,4.644473269581794739e-02,1.051733419299125671e-01,-9.274543821811676025e-02,-3.703868761658668518e-02,1.057338938117027283e-01,-3.304139897227287292e-02,-3.204742213711142540e-03,1.090078875422477722e-01
1.330738216638565063e-01,7.871323078870773315e-02,2.466117963194847107e-03,7.158470898866653442e-02,1.500420570373535156e-01,4.528862237930297852e-02,9.825458377599716187e-02,1.189361512660980225e-01,-1.960214041173458099e-02
-1.181371435523033142e-01,-1.148537173867225647e-01,1.038260832428932190e-01,8.675629645586013794e-02,8.721047639846801758e-02,1.113903895020484924e-01,2.224718034267425537e-02,2.091979235410690308e-02,-1.401572823524475098e-01
9.045219421386718750e-02,1.001990139484405518e-01,9.706274420022964478e-02,3.157840669155120850e-02,2.806910313665866852e-02,1.428612023591995239e-01,-1.582046747207641602e-01,4.732696712017059326e-02,1.943371817469596863e-02
-3.748550638556480408e-02,1.172505021095275879e-01,7.189819123595952988e-03,1.461597979068756104e-01,4.143577441573143005e-02,7.774426043033599854e-02,1.547582447528839111e-01,1.077094301581382751e-02,-5.409608408808708191e-02
1.094361394643783569e-01,3.175987675786018372e-02,-1.531425565481185913e-01,-5.955762416124343872e-02,1.776247024536132812e-01,1.900356449186801910e-02,-7.165617495775222778e-02,1.166244372725486755e-01,2.768010459840297699e-02
1.072042882442474365e-01,1.702286303043365479e-01,1.015084087848663330e-01,6.401465088129043579e-02,8.220396935939788818e-02,-4.562929645180702209e-02,8.999682031571865082e-03,-1.581492424011230469e-01,-7.066923379898071289e-02
1.554211676120758057e-01,4.734099656343460083e-02,-2.091682851314544678e-01,3.048549033701419830e-02,2.362155914306640625e-02,6.521243602037429810e-02,-2.705754712224006653e-02,1.032109707593917847e-01,6.454598158597946167e-02
1.143741682171821594e-01,6.578671932220458984e-02,-1.572768241167068481e-01,1.160684898495674133e-01,4.215679317712783813e-02,-1.787665337324142456e-01,9.528148919343948364e-02,3.376153181307017803e-04,-9.382417052984237671e-02
1.397148221731185913e-01,-1.008192375302314758e-01,-4.126898571848869324e-02,1.534660607576370239e-01,-6.900000572204589844e-02,-5.144348368048667908e-02,4.903115704655647278e-02,6.550519913434982300e-02,7.496822625398635864e-02
1.162642836570739746e-01,1.259558200836181641e-01,1.082910373806953430e-01,-7.806099206209182739e-02,1.154736354947090149e-01,5.902570206671953201e-03,-1.201700344681739807e-01,-6.009219214320182800e-02,1.423089206218719482e-01
1.076587848365306854e-02,-5.240026116371154785e-02,-5.920511111617088318e-02,1.031932160258293152e-01,-4.227437078952789307e-02,-7.832124084234237671e-02,1.260329782962799072e-01,-2.336860075592994690e-02,1.621769070625305176e-01
-1.018402501940727234e-01,-1.197606548666954041e-01,-1.508530676364898682e-01,1.505643129348754883e-01,-5.222234502434730530e-02,6.671837717294692993e-02,9.886868298053741455e-02,1.638661623001098633e-01,5.371991917490959167e-02
9.313423186540603638e-02,9.084699302911758423e-02,-4.804437980055809021e-02,9.462865442037582397e-02,1.225359663367271423e-01,1.038543954491615295e-01,9.130667895078659058e-02,5.340488255023956299e-02,1.020574793219566345e-01
-1.753533035516738892e-01,-1.886956393718719482e-01,-5.566954612731933594e-03,-1.753045171499252319e-01,1.939070969820022583e-02,1.055030748248100281e-01,-1.213482916355133057e-01,2.545479452237486839e-03,1.449207067489624023e-01
-1.996117383241653442e-01,-5.082380026578903198e-02,6.199242174625396729e-02,-6.675393134355545044e-02,4.867585841566324234e-03,1.627365797758102417e-01,-9.734405577182769775e-02,1.192235648632049561e-01,6.143391132354736328e-03
8.791562914848327637e-02,1.903804540634155273e-01,1.378080844879150391e-01,3.987460210919380188e-02,1.637364178895950317e-01,-2.779958397150039673e-02,7.832153141498565674e-02,-1.531579494476318359e-01,-2.004459053277969360e-01
-1.164929941296577454e-01,2.648139372467994690e-02,1.278760433197021484e-01,-4.802515730261802673e-02,-6.016658246517181396e-02,1.536229103803634644e-01,-1.203025057911872864e-01,4.381841979920864105e-03,1.177443340420722961e-01
-1.905262470245361328e-01,5.513649806380271912e-02,1.537367850542068481e-01,-1.292493045330047607e-01,-2.531145513057708740e-01,-1.178766116499900818e-01,1.783496439456939697e-01,2.661703899502754211e-02,-9.152943640947341919e-02
1.237403079867362976e-01,1.356235593557357788e-01,1.582462042570114136e-01,1.228071674704551697e-01,1.239212676882743835e-01,1.668881028890609741e-01,-8.659472316503524780e-02,-7.632122933864593506e-02,4.717405140399932861e-02
9.998656809329986572e-02,-6.344454735517501831e-02,-1.925383210182189941e-01,1.167848482728004456e-01,1.162875443696975708e-02,8.628991246223449707e-02,2.554052695631980896e-02,-3.611265867948532104e-02,8.817333728075027466e-02
8.830691874027252197e-02,3.417901170905679464e-04,1.056086793541908264e-01,5.681821145117282867e-03,1.561025083065032959e-01,7.016324996948242188e-02,2.637654775753617287e-03,1.247617155313491821e-01,2.017912268638610840e-02
1.399112194776535034e-01,-4.721715580672025681e-03,1.234458088874816895e-01,8.734211325645446777e-02,1.874224543571472168e-01,1.705587804317474365e-01,-6.602235883474349976e-02,6.661994755268096924e-02,1.205096319317817688e-01
1.337522417306900024e-01,3.134384378790855408e-02,1.350722163915634155e-01,1.513243019580841064e-01,1.092411279678344727e-01,7.100508362054824829e-02,1.557051986455917358e-01,3.336552157998085022e-02,2.302595041692256927e-02
-1.994247138500213623e-01,-7.105343788862228394e-02,6.795703619718551636e-02,-8.833583444356918335e-02,9.469409286975860596e-02,1.207279339432716370e-01,9.254521131515502930e-02,1.736952364444732666e-01,5.436908826231956482e-02
1.416565030813217163e-01,1.578732281923294067e-01,4.825710132718086243e-02,1.374908536672592163e-01,1.127134189009666443e-01,8.087929338216781616e-02,1.275336444377899170e-01,4.126766696572303772e-02,9.654652327299118042e-02
-1.339139640331268311e-01,-9.971379488706588745e-02,-2.601521275937557220e-02,9.181677550077438354e-02,-1.237840671092271805e-02,1.293435245752334595e-01,1.116883158683776855e-01,1.006413325667381287e-01,9.844887256622314453e-02
6.683204323053359985e-02,-2.197983302175998688e-02,-1.389311403036117554e-01,1.300603244453668594e-02,8.579628914594650269e-02,7.827322185039520264e-02,1.392268091440200806e-01,1.689321734011173248e-02,-2.792185358703136444e-02
9.362655133008956909e-02,1.595092266798019409e-01,1.170760244131088257e-01,-5.641378834843635559e-02,-4.732676595449447632e-02,-1.342795789241790771e-01,-1.223254650831222534e-01,-1.387930661439895630e-01,1.780899357981979847e-03
1.545835584402084351e-01,1.343148350715637207e-01,6.991466879844665527e-02,8.987216651439666748e-02,1.804133504629135132e-01,4.299878701567649841e-02,-3.499385714530944824e-02,-1.693531125783920288e-01,-2.010072022676467896e-01
1.024412512779235840e-01,7.774830609560012817e-02,1.199154630303382874e-01,4.164451267570257187e-03,1.069666296243667603e-01,-1.022175792604684830e-02,8.067180961370468140e-02,1.052451729774475098e-01,1.154198646545410156e-01
-1.091884896159172058e-01,-1.777817159891128540e-01,-9.941007196903228760e-02,6.268396973609924316e-03,-4.075640812516212463e-02,-3.000624664127826691e-02,1.702931672334671021e-01,9.816236793994903564e-02,1.761802136898040771e-01
3.123988630250096321e-03,1.156435459852218628e-01,1.398752480745315552e-01,2.829379029572010040e-02,8.557645231485366821e-02,1.365137994289398193e-01,-6.416646391153335571e-02,-3.831849992275238037e-02,1.245772391557693481e-01
1.075301617383956909e-01,1.647787839174270630e-01,1.781004667282104492e-01,-8.987862616777420044e-02,-5.451132729649543762e-02,3.815297037363052368e-02,-2.768591418862342834e-02,-9.065448492765426636e-02,1.083006486296653748e-01
-1.632410436868667603e-01,-6.644091755151748657e-02,-1.278366595506668091e-01,-6.214832514524459839e-02,8.638399094343185425e-02,-2.218542620539665222e-02,1.512498408555984497e-01,1.088596358895301819e-01,9.710000827908515930e-03
9.364273399114608765e-02,7.109601050615310669e-02,8.447448909282684326e-02,1.204858496785163879e-01,5.330315232276916504e-02,4.484670236706733704e-03,5.642190948128700256e-02,8.261522650718688965e-02,4.810783639550209045e-02
1.435754746198654175e-01,4.010278731584548950e-02,8.171486854553222656e-02,9.086225181818008423e-02,1.674798280000686646e-01,1.486303359270095825e-01,-2.208155579864978790e-02,1.658103764057159424e-01,1.258894801139831543e-01
7.939501851797103882e-02,3.091234341263771057e-02,1.495934724807739258e-01,2.390746213495731354e-02,2.470639348030090332e-02,1.513041853904724121e-01,-2.651112340390682220e-02,-9.640070796012878418e-02,5.251120030879974365e-02
1.709187477827072144e-01,5.287220329046249390e-02,-5.771952494978904724e-02,4.829767346382141113e-02,8.102650940418243408e-02,-5.282717943191528320e-02,8.463855832815170288e-02,1.271957624703645706e-02,2.008767426013946533e-02
1.630806922912597656e-01,-2.064300328493118286e-02,-1.789445430040359497e-01,3.909506276249885559e-02,8.596388995647430420e-02,8.043441176414489746e-02,-9.629808366298675537e-02,1.179478019475936890e-01,1.044245436787605286e-01
7.241894304752349854e-02,1.519464850425720215e-01,3.085078857839107513e-02,8.222197741270065308e-02,-1.115187332034111023e-01,-1.457410752773284912e-01,-1.036720201373100281e-01,-8.495285362005233765e-02,8.987374603748321533e-02
1.744152009487152100e-01,1.126581057906150818e-01,6.576681137084960938e-02,-2.165876142680644989e-02,-4.107355326414108276e-02,6.736216694116592407e-02,-2.209283858537673950e-01,-1.730397343635559082e-02,-1.307634860277175903e-01
4.845923557877540588e-02,1.446163058280944824e-01,1.188445389270782471e-01,9.670539945363998413e-02,-7.932796329259872437e-02,-1.939570344984531403e-02,-1.914660781621932983e-01,-6.474319845438003540e-02,-7.826524227857589722e-02
-1.278980225324630737e-01,1.409784853458404541e-01,1.901797354221343994e-01,1.682772487401962280e-01,1.841774731874465942e-01,-9.166576899588108063e-03,3.402679786086082458e-02,-3.218932077288627625e-02,-1.681554913520812988e-01
9.748798608779907227e-02,-4.050717130303382874e-02,1.019150763750076294e-01,-4.783884808421134949e-02,1.162866055965423584e-01,9.189154952764511108e-02,-3.193787112832069397e-02,1.382327526807785034e-01,1.111675500869750977e-01
-1.164649352431297302e-01,-5.136418715119361877e-02,5.937837436795234680e-02,1.229356527328491211e-01,1.321774870157241821e-01,1.035910472273826599e-01,2.390694990754127502e-02,-7.725571095943450928e-02,-1.172325313091278076e-01
1.481947153806686401e-01,1.131881251931190491e-01,-3.575335070490837097e-02,8.663510531187057495e-02,6.212324835360050201e-03,7.542221248149871826e-02,1.491758823394775391e-01,8.294620551168918610e-03,-1.029811985790729523e-02
-2.496581710875034332e-02,1.097041070461273193e-01,-7.296933978796005249e-02,-9.312158077955245972e-02,7.126357406377792358e-02,3.770842403173446655e-02,1.095314249396324158e-01,3.464569896459579468e-02,1.353615373373031616e-01
-9.538291394710540771e-02,-8.083039522171020508e-02,1.106307506561279297e-01,1.218831539154052734e-01,6.285738199949264526e-02,1.678601503372192383e-01,9.763550944626331329e-03,1.318722963333129883e-01,1.483360230922698975e-01
-3.606637474149465561e-03,1.949283108115196228e-02,-2.326437532901763916e-01,1.956145614385604858e-01,9.919599443674087524e-02,-2.541716210544109344e-02,3.879393264651298523e-02,1.732738129794597626e-02,3.721648827195167542e-02
-4.571439325809478760e-02,-1.347559243440628052e-01,-1.308075338602066040e-01,9.267167747020721436e-02,4.957488179206848145e-02,1.004828438162803650e-01,3.885306417942047119e-02,6.098254770040512085e-02,1.370697915554046631e-01
1.857939511537551880e-01,2.931146882474422455e-02,-1.515030562877655029e-01,1.024852544069290161e-01,1.812512874603271484e-01,-4.757050797343254089e-02,-3.717600926756858826e-02,1.194504201412200928e-01,1.273586601018905640e-01
3.147127106785774231e-02,-1.505753141827881336e-03,1.648992002010345459e-01,-5.905325710773468018e-02,-5.650843307375907898e-02,9.293904155492782593e-02,-6.497877091169357300e-02,5.555468611419200897e-03,3.107682056725025177e-02
-1.707534790039062500e-01,-1.995210647583007812e-01,-1.511988192796707153e-01,-4.270028322935104370e-02,-2.503109537065029144e-02,1.291238367557525635e-01,1.542909592390060425e-01,1.538069397211074829e-01,1.263485997915267944e-01
-6.510312855243682861e-02,1.486445516347885132e-01,5.941473692655563354e-02,5.915294215083122253e-02,1.746804565191268921e-01,-8.117676712572574615e-03,1.377332061529159546e-01,1.465903818607330322e-01,-7.625412195920944214e-02
1.445023715496063232e-02,5.024955421686172485e-02,1.446127295494079590e-01,-8.904770761728286743e-02,7.250361144542694092e-02,1.093205362558364868e-01,4.330950602889060974e-02,6.409016251564025879e-02,1.268278658390045166e-01
9.902964532375335693e-02,1.027033776044845581e-01,1.135060861706733704e-01,-3.004176542162895203e-02,5.640951916575431824e-02,8.219039440155029297e-02,-7.928629219532012939e-02,-6.765592843294143677e-02,8.985418826341629028e-02
-1.490423381328582764e-01,-1.321463435888290405e-01,-1.598939299583435059e-01,-2.269514277577400208e-02,3.874439001083374023e-02,-2.407661452889442444e-02,1.870382726192474365e-01,6.861972063779830933e-02,2.982883341610431671e-02
6.796810030937194824e-02,6.300243735313415527e-02,-4.180870577692985535e-02,1.694703698158264160e-01,1.667890250682830811e-01,-5.971799790859222412e-02,1.321592330932617188e-01,7.571606338024139404e-02,-9.259977191686630249e-02
6.829275749623775482e-03,1.223869025707244873e-01,1.104476749897003174e-01,-1.484928131103515625e-01,-2.004064023494720459e-01,-5.454189330339431763e-02,1.020109206438064575e-01,1.833641901612281799e-02,-5.124389752745628357e-02
3.578590601682662964e-02,1.043876037001609802e-01,2.218998037278652191e-02,-1.414415091276168823e-01,-6.864275038242340088e-02,1.196126192808151245e-01,-1.755170524120330811e-01,4.118164256215095520e-02,1.875727176666259766e-01
-5.557394772768020630e-02,4.447928816080093384e-02,7.402120530605316162e-02,1.372412145137786865e-01,1.247827857732772827e-01,2.219844982028007507e-02,7.466503977775573730e-02,-1.006329525262117386e-02,-9.661942720413208008e-02
1.343368440866470337e-01,1.197440400719642639e-01,3.891026973724365234e-02,4.476073384284973145e-02,8.571732789278030396e-02,-1.028555631637573242e-02,-3.980336710810661316e-02,-1.039849445223808289e-01,5.103106424212455750e-02
7.003878057003021240e-02,1.536733657121658325e-01,5.474413558840751648e-02,3.725467622280120850e-02,1.093883663415908813e-01,9.628721326589584351e-02,-1.470247656106948853e-01,-1.155711635947227478e-01,4.383882135152816772e-02
-2.154567986726760864e-01,-1.750463694334030151e-01,9.129404276609420776e-02,-9.721396118402481079e-02,1.209419891238212585e-01,5.988643690943717957e-02,1.737768650054931641e-01,1.186426877975463867e-01,1.104913428425788879e-01
-1.332219392061233521e-01,-1.480928622186183929e-02,1.108292639255523682e-01,-1.476721316576004028e-01,-2.233712188899517059e-02,1.542566120624542236e-01,-6.067631393671035767e-02,4.821157455444335938e-02,3.695798665285110474e-02
4.924278333783149719e-02,1.035914123058319092e-01,4.364212974905967712e-02,5.914160981774330139e-02,5.394853278994560242e-02,1.495839059352874756e-01,-7.413689978420734406e-03,1.038397699594497681e-01,-8.348909206688404083e-03
4.634253680706024170e-03,1.588704884052276611e-01,1.023846417665481567e-01,4.143260046839714050e-02,1.240408495068550110e-01,2.567041479051113129e-02,-3.757454454898834229e-02,-1.646585166454315186e-01,-1.089244112372398376e-01
8.146261423826217651e-02,1.443953514099121094e-01,5.190294608473777771e-02,-5.127627030014991760e-02,1.569287180900573730e-01,-3.263830440118908882e-03,-9.151244536042213440e-03,-1.999891921877861023e-02,2.872988209128379822e-02
7.915526628494262695e-02,-5.352833867073059082e-02,-3.455203771591186523e-02,8.801130205392837524e-02,1.560316234827041626e-01,8.041832596063613892e-02,-2.054147422313690186e-02,-6.707144528627395630e-02,-1.389768160879611969e-02
1.801785826683044434e-01,-3.844012320041656494e-02,-2.385002523660659790e-01,1.489088386297225952e-01,-1.555739063769578934e-02,-2.259651571512222290e-01,1.504847109317779541e-01,1.593966335058212280e-01,1.458311453461647034e-02
8.712653070688247681e-02,-1.013913974165916443e-01,-2.133751064538955688e-01,1.258424967527389526e-01,1.172964796423912048e-01,-9.492352604866027832e-02,9.078878164291381836e-02,5.283880233764648438e-02,1.297474801540374756e-01
-1.318266540765762329e-01,-5.144618451595306396e-02,1.048371046781539917e-01,-1.047047302126884460e-01,1.352862715721130371e-01,1.370612233877182007e-01,1.542636379599571228e-02,2.639754861593246460e-02,6.000705808401107788e-02
-2.271013557910919189e-01,-2.020683437585830688e-01,-1.786003708839416504e-01,-1.186651177704334259e-02,-2.961028181016445160e-02,-4.136919043958187103e-03,5.718078464269638062e-02,1.794602274894714355e-01,1.875333338975906372e-01
-2.466724216938018799e-01,-1.976417005062103271e-01,3.569864854216575623e-02,-1.546759307384490967e-01,5.376503989100456238e-02,1.936850696802139282e-01,7.212653011083602905e-02,1.699273288249969482e-01,1.907158792018890381e-01
1.759993433952331543e-01,1.029242798686027527e-01,1.642467677593231201e-01,-2.769558504223823547e-02,-1.820148900151252747e-02,-6.921904534101486206e-02,-1.815856844186782837e-01,-1.127918735146522522e-01,-4.858467355370521545e-02
-9.844452142715454102e-02,6.820710748434066772e-02,5.694650486111640930e-02,-1.412778161466121674e-02,1.892727166414260864e-01,1.818183809518814087e-02,1.836719810962677002e-01,1.040105670690536499e-01,-6.261754035949707031e-02
-6.577833089977502823e-03,1.482591480016708374e-01,2.246090024709701538e-02,7.897979766130447388e-02,9.499162435531616211e-02,-4.631350561976432800e-02,-3.914035391062498093e-03,1.119141951203346252e-01,-9.819562733173370361e-02
1.673697233200073242e-01,5.926944431848824024e-04,-9.126371890306472778e-02,1.203611493110656738e-01,4.932174831628799438e-02,1.377529054880142212e-01,-2.554703876376152039e-02,9.055283851921558380e-03,-9.064106643199920654e-02
2.650537155568599701e-02,9.667707979679107666e-02,1.350882053375244141e-01,7.321265339851379395e-02,7.314022630453109741e-02,-1.537519041448831558e-02,-1.069647520780563354e-01,-8.100236207246780396e-02,-1.045190915465354919e-01
7.597219198942184448e-02,-1.485360711812973022e-01,-1.922687292098999023e-01,5.443680286407470703e-02,-3.505268320441246033e-02,-7.810936868190765381e-02,1.756622493267059326e-01,5.547305941581726074e-02,1.362586170434951782e-01
2.366897277534008026e-02,8.312210440635681152e-02,4.630045965313911438e-02,6.107841152697801590e-03,1.603189855813980103e-01,9.564253501594066620e-03,-6.095445901155471802e-02,1.194895356893539429e-01,4.128960520029067993e-02
-4.912543110549449921e-03,1.145945489406585693e-01,1.351965814828872681e-01,2.767744660377502441e-02,8.209186047315597534e-02,1.215045750141143799e-01,-4.258669167757034302e-02,-2.123113721609115601e-01,-1.394955813884735107e-01
-4.742277041077613831e-02,-8.284856379032135010e-02,8.721183985471725464e-02,-1.806110329926013947e-02,1.054928749799728394e-01,1.253942996263504028e-01,1.394568681716918945e-01,3.620763123035430908e-02,1.331259012222290039e-01
-5.349380150437355042e-02,-2.083759456872940063e-01,-1.610851846635341644e-02,1.456505358219146729e-01,-1.029729768633842468e-01,-3.948156908154487610e-02,1.891866773366928101e-01,8.048696070909500122e-02,6.262305658310651779e-03
7.144879549741744995e-02,1.200037226080894470e-01,1.078975945711135864e-01,9.996148198843002319e-02,7.319222204387187958e-03,-7.476835697889328003e-02,-1.948474943637847900e-01,-1.357123106718063354e-01,-1.228048652410507202e-02
3.942241519689559937e-02,1.241821795701980591e-01,-1.981305517256259918e-02,5.788145214319229126e-02,5.211943387985229492e-02,3.395649418234825134e-02,-1.919632852077484131e-01,-6.346651166677474976e-02,4.574326332658529282e-03
-1.507312757894396782e-03,9.453511238098144531e-02,6.861928105354309082e-02,-4.511751700192689896e-03,9.192110598087310791e-02,1.035970300436019897e-01,-5.499597173184156418e-03,1.525333523750305176e-01,1.521269511431455612e-02
-9.731455706059932709e-03,1.748740673065185547e-01,9.045749902725219727e-02,-4.378662910312414169e-03,1.358447223901748657e-01,7.032566517591476440e-02,-1.425814628601074219e-01,4.267181083559989929e-02,1.014835610985755920e-01
1.272618025541305542e-01,1.630542725324630737e-01,1.010999679565429688e-01,-1.120006069540977478e-01,-5.704262852668762207e-02,9.426974691450595856e-03,-9.631210565567016602e-02,1.025251969695091248e-01,8.071642369031906128e-02
3.475953126326203346e-04,1.598795950412750244e-01,1.151456758379936218e-01,4.284841939806938171e-02,-2.250178530812263489e-02,1.310575008392333984e-01,-1.829065680503845215e-01,-1.715139597654342651e-01,-8.899612724781036377e-02
4.706697538495063782e-02,1.323336511850357056e-01,-2.034336328506469727e-02,5.061437562108039856e-02,1.240158379077911377e-01,-4.617485776543617249e-02,1.164676398038864136e-01,5.940070748329162598e-02,-1.184747070074081421e-01
3.832649812102317810e-02,1.227042451500892639e-01,1.011936664581298828e-01,1.730126887559890747e-01,1.496415119618177414e-02,5.602241307497024536e-02,-5.205507948994636536e-02,-1.748873889446258545e-01,-1.577187031507492065e-01
9.542237035930156708e-03,5.295618623495101929e-02,1.042884886264801025e-01,1.263188421726226807e-01,3.763864934444427490e-02,-1.128343939781188965e-01,8.046879619359970093e-02,-1.284612063318490982e-02,-1.092532947659492493e-01
5.986401811242103577e-02,8.413240313529968262e-02,2.315923944115638733e-02,-8.576299995183944702e-02,1.775537878274917603e-01,5.071699246764183044e-02,7.370427995920181274e-02,3.680348023772239685e-02,1.417535841464996338e-01
1.708956062793731689e-01,-4.690340906381607056e-02,-1.947340555489063263e-02,1.643990725278854370e-01,5.782737955451011658e-02,-1.179376393556594849e-01,9.689565747976303101e-02,-2.262583747506141663e-02,-1.636445075273513794e-01
-1.009477749466896057e-01,-5.541920289397239685e-02,-1.709905117750167847e-01,1.061745956540107727e-01,-3.982294350862503052e-02,-6.466126441955566406e-02,1.761996001005172729e-01,7.190252095460891724e-02,7.327686250209808350e-02
2.294166199862957001e-02,1.568729877471923828e-01,1.404566168785095215e-01,3.725500032305717468e-02,1.645089685916900635e-01,2.806117199361324310e-02,1.516282409429550171e-01,1.333935558795928955e-01,5.504954606294631958e-02
1.848808526992797852e-01,1.682867109775543213e-01,4.628319665789604187e-02,-6.564959138631820679e-02,-2.174684032797813416e-02,9.742426127195358276e-02,-6.493989378213882446e-02,-1.877734512090682983e-01,-1.224065050482749939e-01
9.414863772690296173e-03,6.839828193187713623e-02,4.871914535760879517e-02,1.919519156217575073e-01,1.268764734268188477e-01,-4.407596588134765625e-02,1.528697013854980469e-01,1.028407663106918335e-01,1.286822408437728882e-01
-5.625918507575988770e-02,-4.624500125646591187e-02,-8.022376149892807007e-02,1.745861321687698364e-01,5.305965244770050049e-02,-1.189885810017585754e-01,1.573778539896011353e-01,1.659765690565109253e-01,1.394974142313003540e-01
-1.250998377799987793e-01,-2.158726006746292114e-01,-1.186028346419334412e-01,8.466856181621551514e-02,-1.869535446166992188e-02,-2.136785089969635010e-01,1.951530575752258301e-01,1.019991710782051086e-01,2.235952951014041901e-02
1.458464413881301880e-01,1.934169419109821320e-02,1.062374636530876160e-01,1.106276959180831909e-01,1.105379536747932434e-01,-1.468860264867544174e-02,4.838884249329566956e-02,-4.896434396505355835e-02,1.352258771657943726e-01
-4.306897148489952087e-02,1.552079319953918457e-01,2.039873413741588593e-02,1.091065183281898499e-01,-1.050830446183681488e-02,4.514043778181076050e-02,-2.556820586323738098e-02,5.763709917664527893e-02,4.159614071249961853e-02
-8.931244909763336182e-02,9.440872818231582642e-02,2.838801778852939606e-02,1.423724144697189331e-01,8.187559247016906738e-02,-7.685436308383941650e-02,9.644448012113571167e-02,3.670303523540496826e-02,-5.282817408442497253e-02
-3.046849742531776428e-02,1.586698740720748901e-01,1.483825594186782837e-01,1.094584017992019653e-01,1.563209742307662964e-01,9.206293523311614990e-02,-2.680874895304441452e-03,-1.734202168881893158e-02,1.159447729587554932e-01
1.153375953435897827e-01,-1.185568869113922119e-01,-2.096234261989593506e-01,1.691065728664398193e-01,-1.606169901788234711e-02,-1.096815839409828186e-01,3.057554550468921661e-02,1.793944984674453735e-01,4.493907326832413673e-04
9.031150490045547485e-02,1.067496165633201599e-01,-4.927328974008560181e-02,3.353525698184967041e-02,8.529222011566162109e-02,1.502399295568466187e-01,-1.008308082818984985e-01,-1.825091801583766937e-02,8.241936564445495605e-02
1.624526232481002808e-01,1.020072847604751587e-01,-7.814247906208038330e-02,4.580555856227874756e-02,1.496747732162475586e-01,-1.020480021834373474e-01,1.286799162626266479e-01,6.609791517257690430e-02,8.453536033630371094e-02
1.694112420082092285e-01,1.445054858922958374e-01,-3.038187325000762939e-02,6.256093829870223999e-02,4.679935052990913391e-02,1.010884344577789307e-01,1.081717759370803833e-01,-3.243916854262351990e-02,-6.721098721027374268e-02
9.961566329002380371e-02,-3.796169906854629517e-02,-5.321648344397544861e-02,1.563372462987899780e-01,1.022206693887710571e-01,4.196788370609283447e-02,1.562382727861404419e-01,3.926512971520423889e-02,8.964750170707702637e-02
1.769062727689743042e-01,-5.356777831912040710e-02,-1.849003881216049194e-01,1.705314666032791138e-01,1.035986468195915222e-01,-6.500531733036041260e-02,-7.256333529949188232e-02,1.425666213035583496e-01,6.651588529348373413e-02
5.226614326238632202e-02,1.660496443510055542e-01,1.071274131536483765e-01,1.764135435223579407e-02,-6.710531562566757202e-02,9.202919900417327881e-02,-1.708007603883743286e-01,-1.513309925794601440e-01,-6.391098350286483765e-02
-1.378135830163955688e-01,-1.466146856546401978e-02,1.496831625699996948e-01,-9.000605344772338867e-02,8.006459102034568787e-03,1.759202592074871063e-02,1.080760955810546875e-01,-3.205471485853195190e-02,8.768048882484436035e-02
1.022176966071128845e-01,-8.646982908248901367e-02,-1.666156202554702759e-01,1.645702719688415527e-01,1.498642414808273315e-01,5.406588688492774963e-02,-4.840327426791191101e-02,2.687856927514076233e-02,1.665126159787178040e-02
-7.419231534004211426e-02,-1.766429692506790161e-01,1.092462316155433655e-01,1.532125920057296753e-01,-1.062497943639755249e-01,1.043320670723915100e-01,1.327880769968032837e-01,-1.003953889012336731e-01,-6.866129487752914429e-02
-2.310570143163204193e-02,2.082208991050720215e-01,1.172529011964797974e-01,1.174865439534187317e-01,1.784607768058776855e-02,-4.000553395599126816e-03,-5.391495674848556519e-02,8.127284795045852661e-02,-9.337256848812103271e-02
-2.688964605331420898e-01,-1.882159411907196045e-01,6.767623871564865112e-02,-6.455442309379577637e-02,-2.894358709454536438e-03,7.479725778102874756e-02,6.174964364618062973e-04,1.422149837017059326e-01,1.832122504711151123e-01
8.405138552188873291e-02,1.540971994400024414e-01,-9.102280437946319580e-02,8.459623903036117554e-02,6.060249730944633484e-02,-5.901268124580383301e-02,-7.834462076425552368e-02,2.692255191504955292e-02,1.287760138511657715e-01
-2.254412025213241577e-01,-1.374436616897583008e-01,-1.619077771902084351e-01,-3.653674572706222534e-02,2.977217733860015869e-02,2.154426276683807373e-02,2.161280661821365356e-01,8.320589363574981689e-02,1.591155529022216797e-01
1.497491449117660522e-01,1.186823993921279907e-01,7.329119741916656494e-02,-3.749750182032585144e-02,5.155985429883003235e-02,1.568991690874099731e-01,-9.977664053440093994e-02,6.930225342512130737e-02,8.705395460128784180e-02
1.546862870454788208e-01,9.088827297091484070e-03,-1.367991417646408081e-01,1.427750289440155029e-01,-1.829420216381549835e-02,-2.002759426832199097e-01,1.659391522407531738e-01,-2.035152725875377655e-02,-7.478911429643630981e-02
1.478461921215057373e-01,5.399673804640769958e-02,1.290923506021499634e-01,6.366638839244842529e-02,-3.867505490779876709e-02,2.561631053686141968e-02,1.521719992160797119e-01,1.795310899615287781e-02,7.579006999731063843e-02
-2.022932618856430054e-01,-1.581813246011734009e-01,-3.286318853497505188e-02,-1.043318957090377808e-01,4.161024466156959534e-02,1.311436891555786133e-01,6.489070504903793335e-02,5.519084259867668152e-02,1.665541380643844604e-01
1.636185646057128906e-01,1.654880046844482422e-01,1.630752384662628174e-01,1.607038229703903198e-01,-9.303453378379344940e-03,6.239881739020347595e-02,5.486402660608291626e-02,-5.274407193064689636e-02,-1.847698092460632324e-01
2.432588487863540649e-03,-6.448693573474884033e-02,-4.218588024377822876e-02,5.242680013179779053e-02,-2.287820354104042053e-02,7.467531412839889526e-02,1.748573184013366699e-01,1.388364583253860474e-01,9.137842804193496704e-03
-5.585749819874763489e-02,1.027345284819602966e-01,4.151334986090660095e-02,-5.357915535569190979e-02,-7.711620628833770752e-02,1.052434071898460388e-01,-3.312010318040847778e-02,8.228357881307601929e-02,2.991459518671035767e-02
1.280174106359481812e-01,-1.053431853652000427e-01,-5.280681699514389038e-02,4.161316528916358948e-02,-1.504382342100143433e-01,7.253110408782958984e-02,6.920581310987472534e-02,-2.016609907150268555e-01,3.884840384125709534e-02
-2.129086256027221680e-01,-9.821010380983352661e-02,1.271845102310180664e-01,1.338640134781599045e-02,9.242446720600128174e-02,1.427649408578872681e-01,-1.798140071332454681e-02,-1.040820404887199402e-02,1.127249449491500854e-01
5.416356027126312256e-03,1.755968779325485229e-01,1.851269155740737915e-01,1.753128133714199066e-02,1.471983939409255981e-01,-4.957435652613639832e-02,-5.079155415296554565e-02,-2.035863138735294342e-02,-1.087367013096809387e-01
1.737277358770370483e-01,1.348494142293930054e-01,1.291621103882789612e-02,-3.772012516856193542e-02,2.386237494647502899e-02,7.678456604480743408e-02,-7.796157151460647583e-02,-9.931595623493194580e-02,-7.328074425458908081e-03
1.031558886170387268e-01,1.388925164937973022e-01,-1.259658187627792358e-01,1.633824557065963745e-01,1.770948618650436401e-01,1.008100435137748718e-01,2.843619557097554207e-03,1.388693600893020630e-01,-3.662335872650146484e-02
-1.216977462172508240e-01,5.260198563337326050e-02,8.158081024885177612e-02,-9.680915623903274536e-02,-4.836881905794143677e-02,1.346591562032699585e-01,-6.914851069450378418e-02,1.187247633934020996e-01,9.307003766298294067e-02
-3.827540576457977295e-02,1.627117395401000977e-01,2.523825317621231079e-02,1.084544435143470764e-01,7.666133344173431396e-02,4.972929507493972778e-02,-6.244553998112678528e-02,-4.976880550384521484e-02,-4.170881584286689758e-03
-1.821381747722625732e-01,8.616530895233154297e-02,3.012714907526969910e-03,8.426642045378684998e-03,-3.070227056741714478e-02,1.366767585277557373e-01,1.087657287716865540e-01,1.199172064661979675e-01,1.142981275916099548e-02
5.239646881818771362e-02,8.169636130332946777e-02,1.471437662839889526e-01,-2.409482374787330627e-02,1.247255206108093262e-01,1.195461302995681763e-01,2.382019720971584320e-02,3.004509955644607544e-02,1.214947924017906189e-01
-3.731855750083923340e-02,-1.596825867891311646e-01,-1.551465988159179688e-01,7.519795745611190796e-02,-5.006131157279014587e-02,9.746496379375457764e-02,1.756938695907592773e-01,3.306106105446815491e-02,-6.958950776606798172e-03
1.159200519323348999e-01,-5.361648648977279663e-02,-1.950785890221595764e-02,1.115516177378594875e-03,1.646445244550704956e-01,1.238587424159049988e-01,1.403130739927291870e-01,1.573901325464248657e-01,1.253862231969833374e-01
6.467767804861068726e-02,-6.737653911113739014e-02,-1.356004923582077026e-01,8.277577161788940430e-02,-6.826404482126235962e-02,-1.905346512794494629e-01,1.046807020902633667e-01,1.306024938821792603e-01,7.748066633939743042e-02
2.573910914361476898e-02,-1.310873124748468399e-02,-9.920819103717803955e-02,3.559338673949241638e-02,1.149012967944145203e-01,1.035362407565116882e-01,-6.254101544618606567e-02,3.406124934554100037e-02,1.233421564102172852e-01
1.087272763252258301e-01,-5.700705572962760925e-02,-2.667640149593353271e-01,-2.052938193082809448e-02,1.400091052055358887e-01,-7.666592299938201904e-02,4.508163779973983765e-02,1.349023580551147461e-01,1.288556754589080811e-01
6.103166937828063965e-02,-3.740539029240608215e-02,-8.693570271134376526e-03,8.390824496746063232e-02,-1.008232012391090393e-01,9.635617583990097046e-02,6.039304286241531372e-02,5.492505617439746857e-03,1.187320351600646973e-01
-6.803239881992340088e-02,8.886034786701202393e-02,1.717493087053298950e-01,3.594734519720077515e-02,4.827315360307693481e-02,1.460317224264144897e-01,1.379617303609848022e-01,3.666666150093078613e-02,5.711042881011962891e-02
-1.232518106698989868e-01,-1.173676252365112305e-01,8.919540047645568848e-02,-1.183267757296562195e-01,-9.127235412597656250e-02,8.734584599733352661e-02,-1.245884820818901062e-01,-8.200033009052276611e-02,9.966246783733367920e-02
-6.756280362606048584e-02,5.349095165729522705e-02,1.196903735399246216e-01,1.037700846791267395e-01,2.282918058335781097e-02,1.239816695451736450e-01,4.192031174898147583e-02,8.667858690023422241e-02,-8.420446887612342834e-03
8.515378087759017944e-02,1.744280457496643066e-01,1.948339343070983887e-01,-2.625765651464462280e-02,-7.204096019268035889e-02,-5.814174190163612366e-02,-1.501304507255554199e-01,-1.228943616151809692e-01,-5.081759393215179443e-02
-4.259380698204040527e-02,8.049468696117401123e-02,-9.382240474224090576e-03,-1.136937066912651062e-01,-1.620265096426010132e-01,-1.093371510505676270e-01,1.486719697713851929e-01,6.274896860122680664e-02,8.922725170850753784e-02
1.569802910089492798e-01,4.840716347098350525e-02,-1.773627400398254395e-01,5.475199595093727112e-02,-4.509984701871871948e-02,-1.476178020238876343e-01,1.596557796001434326e-01,5.975427478551864624e-02,-9.772045910358428955e-02
-1.604119837284088135e-01,-1.831201910972595215e-01,-1.543304920196533203e-01,1.465379893779754639e-01,-6.844589486718177795e-03,-2.829652745276689529e-03,1.065433770418167114e-01,1.261499971151351929e-01,1.591474115848541260e-01
8.956561237573623657e-02,1.968689262866973877e-01,5.825805291533470154e-02,8.343859016895294189e-02,3.633581846952438354e-02,1.722283475100994110e-02,-1.237242743372917175e-01,-2.268251776695251465e-01,-1.863076984882354736e-01
