-1.403928101062774658e-01,-1.149970963597297668e-01,9.254457056522369385e-02,-3.869258612394332886e-02,-1.955986395478248596e-02,2.036558538675308228e-01,1.077597886323928833e-01,8.050043135881423950e-02,2.474304661154747009e-02
5.860034376382827759e-02,1.295923441648483276e-01,5.541352555155754089e-02,-1.070105060935020447e-01,-1.327218115329742432e-01,-1.052145510911941528e-01,-1.563331484794616699e-02,5.980435013771057129e-02,2.556991204619407654e-02
5.877019371837377548e-03,1.642283648252487183e-01,1.432805061340332031e-01,-3.062588907778263092e-02,9.623940289020538330e-02,-6.816495954990386963e-02,3.870615735650062561e-02,-2.764425985515117645e-02,-1.693204641342163086e-01
1.626647114753723145e-01,8.363243937492370605e-02,9.086778014898300171e-02,-8.873727917671203613e-02,-4.377066344022750854e-02,1.610099105164408684e-03,-1.292826980352401733e-01,-1.998743973672389984e-02,-9.799903631210327148e-02
1.440410763025283813e-01,-6.456100847572088242e-03,-9.881356358528137207e-02,1.000499278306961060e-01,-4.410151764750480652e-02,-3.456592932343482971e-02,2.262922748923301697e-02,-3.488691523671150208e-02,-1.055161729454994202e-01
9.366621822118759155e-02,-3.239061683416366577e-02,-6.285099685192108154e-02,-3.806399926543235779e-02,5.375913530588150024e-02,8.060840517282485962e-02,-1.416541635990142822e-01,3.969646990299224854e-02,1.181624755263328552e-01
1.020366922020912170e-01,6.396293640136718750e-03,-1.303537040948867798e-01,1.704639643430709839e-01,1.693910956382751465e-01,-1.723985001444816589e-02,8.853131532669067383e-02,1.274940669536590576e-01,1.636990904808044434e-01
-8.176470547914505005e-02,-7.903168350458145142e-02,-9.153800457715988159e-02,-6.490351259708404541e-02,1.292270421981811523e-01,-8.683678507804870605e-02,-1.514321099966764450e-02,4.970239475369453430e-02,-4.046883061528205872e-02
-5.160664021968841553e-02,1.828750781714916229e-02,1.155910715460777283e-01,8.561348915100097656e-02,1.199570521712303162e-01,1.447804421186447144e-01,-5.787470843642950058e-03,1.256897896528244019e-01,-3.363161906599998474e-02
4.725769907236099243e-02,1.119235530495643616e-01,1.596156209707260132e-01,1.719684302806854248e-01,1.278430372476577759e-01,6.777361035346984863e-02,7.519312947988510132e-02,7.287123054265975952e-02,1.147654280066490173e-01
5.067988112568855286e-02,-2.292259410023689270e-02,-1.446618288755416870e-01,1.685281544923782349e-01,-2.267276868224143982e-02,-2.344830892980098724e-02,-3.441656380891799927e-02,1.102498769760131836e-01,4.681719094514846802e-02
-9.012301266193389893e-02,9.203526377677917480e-02,1.199208199977874756e-01,-3.945928532630205154e-03,-7.642918732017278671e-03,-5.288115143775939941e-02,9.959501028060913086e-02,1.427606791257858276e-01,9.842714667320251465e-02
2.503342693671584129e-03,-1.810545027256011963e-01,-1.698916852474212646e-01,1.222554892301559448e-01,8.053571730852127075e-02,-1.737440004944801331e-02,-5.940285697579383850e-02,9.137415140867233276e-02,1.205795779824256897e-01
1.131191179156303406e-01,1.252104640007019043e-01,-4.664717242121696472e-02,4.390202835202217102e-02,5.949583649635314941e-02,-9.549133479595184326e-02,1.441023796796798706e-01,2.388625219464302063e-02,-4.460283368825912476e-02
7.470370084047317505e-02,-1.859819591045379639e-01,-8.897870779037475586e-02,1.144021525979042053e-01,-4.405697062611579895e-02,-9.289208799600601196e-02,6.542528420686721802e-02,8.888038992881774902e-02,1.601941734552383423e-01
9.009496867656707764e-02,1.079036854207515717e-02,-9.249205887317657471e-02,7.774528861045837402e-02,1.648438908159732819e-02,-1.209828630089759827e-01,1.226464435458183289e-01,-5.229893699288368225e-02,-4.872746020555496216e-02
-1.351236850023269653e-01,1.242568641901016235e-01,1.099679619073867798e-01,-9.477077424526214600e-02,1.502772271633148193e-01,2.812231704592704773e-02,9.865227341651916504e-02,1.045307889580726624e-01,1.016443967819213867e-01
9.496985375881195068e-02,1.342917382717132568e-01,3.125464171171188354e-02,8.172116428613662720e-02,1.503768116235733032e-01,3.388170897960662842e-02,1.001903116703033447e-01,1.374219655990600586e-01,1.013176664710044861e-01
1.970322430133819580e-01,1.288824230432510376e-01,-1.296117156744003296e-01,6.434523314237594604e-02,-1.464476883411407471e-01,-1.440115720033645630e-01,-2.588818669319152832e-01,-1.138128340244293213e-01,-1.676546595990657806e-02
-1.871097832918167114e-01,8.371397107839584351e-02,9.588360041379928589e-02,-6.386826932430267334e-02,5.831578001379966736e-02,1.380637437105178833e-01,-7.861710339784622192e-02,1.249439641833305359e-01,1.466339528560638428e-01
1.738394647836685181e-01,1.366729587316513062e-01,1.109987348318099976e-01,4.999130964279174805e-02,-5.149734765291213989e-02,-3.553406894207000732e-02,-1.461889501661062241e-02,-7.749415189027786255e-02,-1.085651367902755737e-01
2.354232035577297211e-02,6.052936613559722900e-02,-1.171874254941940308e-01,1.204921379685401917e-01,-3.216739976778626442e-03,-8.991641551256179810e-02,1.525334268808364868e-01,2.580152591690421104e-03,-9.087143838405609131e-02
-1.327248960733413696e-01,-1.836047321557998657e-02,-1.129162684082984924e-01,-2.181348949670791626e-02,1.590018868446350098e-01,3.607297316193580627e-02,2.196067571640014648e-02,8.586191385984420776e-02,1.534138619899749756e-01
1.729275286197662354e-01,8.835940808057785034e-02,1.128407567739486694e-01,1.695364415645599365e-01,1.722406297922134399e-01,-4.176618903875350952e-02,5.971334874629974365e-03,1.898893713951110840e-02,-2.421914786100387573e-02
1.871162652969360352e-02,6.122140958905220032e-02,8.334707468748092651e-02,2.767502889037132263e-02,-3.149612993001937866e-02,9.446386247873306274e-02,-1.624398827552795410e-01,-4.138103500008583069e-02,-1.941587217152118683e-02
1.745545119047164917e-02,-5.841819941997528076e-02,-1.565795391798019409e-01,-5.263283476233482361e-02,7.864660024642944336e-02,2.425649948418140411e-02,4.916894435882568359e-02,1.532948203384876251e-02,1.279038786888122559e-01
1.029397621750831604e-01,-4.676797240972518921e-02,-5.011245235800743103e-02,-1.455991268157958984e-01,-1.301140189170837402e-01,3.384717181324958801e-02,2.931205742061138153e-02,1.069015860557556152e-01,7.356243580579757690e-02
1.186564862728118896e-01,1.655778586864471436e-01,3.029329329729080200e-02,4.726877436041831970e-03,1.196955889463424683e-01,1.064061652868986130e-02,1.243622601032257080e-01,1.077941507101058960e-01,-2.914433181285858154e-02
5.054086446762084961e-02,-5.330388247966766357e-02,-3.871502354741096497e-02,9.919237345457077026e-02,-4.214790184050798416e-03,-1.204524338245391846e-01,2.338837459683418274e-02,2.277681417763233185e-02,-1.176032721996307373e-01
-1.928196102380752563e-02,1.914622820913791656e-02,-7.439567148685455322e-02,8.536513894796371460e-02,1.704515367746353149e-01,1.074566170573234558e-01,1.042170003056526184e-01,8.239709585905075073e-02,9.672120958566665649e-02
-6.757061928510665894e-03,1.390994638204574585e-01,7.614382356405258179e-02,-5.547197069972753525e-03,1.446414291858673096e-01,1.160297393798828125e-01,6.323454529047012329e-02,-1.850906200706958771e-02,-3.436522558331489563e-02
6.033600866794586182e-02,2.471636421978473663e-02,-7.248628139495849609e-02,1.002104431390762329e-01,1.111015602946281433e-01,8.633713424205780029e-02,-7.580464240163564682e-03,-2.628248929977416992e-02,2.822651341557502747e-02
4.301818087697029114e-02,1.434247493743896484e-01,1.228101551532745361e-01,1.201277896761894226e-01,1.890200562775135040e-02,1.133889183402061462e-01,-3.630696237087249756e-02,1.405273079872131348e-01,7.525542378425598145e-02
-1.275566965341567993e-01,9.736818820238113403e-02,8.571481704711914062e-02,8.227384649217128754e-03,4.848579317331314087e-02,5.107580125331878662e-02,1.224673464894294739e-01,1.358510404825210571e-01,1.208189204335212708e-01
2.941088378429412842e-02,1.429256051778793335e-01,-1.070862188935279846e-01,1.707799434661865234e-01,1.806686073541641235e-01,1.961357658728957176e-03,7.899639755487442017e-02,8.808658272027969360e-02,-5.055927112698554993e-02
1.397943645715713501e-01,-1.384633406996726990e-02,-7.094389200210571289e-02,7.418925315141677856e-02,-1.564453355967998505e-02,-7.653945684432983398e-02,1.506300270557403564e-01,-6.162911280989646912e-02,-1.486107259988784790e-01
1.238096877932548523e-01,-2.130297943949699402e-02,4.721423238515853882e-02,1.149060279130935669e-01,-2.666007913649082184e-02,-9.491095691919326782e-02,-7.980395108461380005e-02,-1.504462864249944687e-02,-3.003407642245292664e-02
1.041608396917581558e-02,-9.436668455600738525e-02,-3.711770847439765930e-02,-3.885516896843910217e-02,-1.612277142703533173e-02,-3.209629282355308533e-02,-2.055524662137031555e-02,-8.216395974159240723e-02,-1.720347814261913300e-02
9.872997552156448364e-02,1.406479179859161377e-01,8.369950950145721436e-02,-1.065077036619186401e-01,-5.502579361200332642e-02,8.485466986894607544e-02,-1.691902428865432739e-01,-1.410146951675415039e-01,8.228964358568191528e-02
7.881736755371093750e-02,7.543895393610000610e-02,-4.163025692105293274e-02,-2.763883955776691437e-02,1.056351736187934875e-01,1.652449369430541992e-01,1.224927306175231934e-01,6.666925549507141113e-02,1.566100418567657471e-01
1.471618860960006714e-01,5.803468823432922363e-02,1.076093092560768127e-01,-4.942664876580238342e-02,4.362799227237701416e-02,-1.954188756644725800e-02,-1.721054017543792725e-01,-6.076105870306491852e-03,-1.134901195764541626e-01
-9.333419799804687500e-02,-4.410501942038536072e-02,8.398630470037460327e-02,7.153757661581039429e-02,1.606246978044509888e-01,1.630761772394180298e-01,1.080649718642234802e-01,-2.424403280019760132e-02,5.315604805946350098e-02
1.477469056844711304e-01,2.244502119719982147e-02,1.392973214387893677e-01,-1.257561892271041870e-02,1.778290718793869019e-01,1.301122549921274185e-02,-4.425386339426040649e-02,-2.918283455073833466e-02,-1.543329376727342606e-02
8.160714805126190186e-02,1.297556906938552856e-01,-9.532298147678375244e-02,9.976921230554580688e-02,-4.948111250996589661e-03,-3.664139285683631897e-02,4.698395729064941406e-02,5.213482677936553955e-02,-9.755928069353103638e-02
1.111682951450347900e-01,5.877441167831420898e-02,1.570877134799957275e-01,-8.834539353847503662e-02,-1.013840064406394958e-01,1.504149753600358963e-02,-3.942992910742759705e-02,-1.404388248920440674e-01,2.005795575678348541e-02
4.283252172172069550e-03,-5.014964565634727478e-02,-8.167878724634647369e-03,-1.219055801630020142e-02,7.114700227975845337e-02,1.321986466646194458e-01,6.475031375885009766e-02,1.520362347364425659e-01,1.863812655210494995e-01
-9.678993374109268188e-03,1.675759106874465942e-01,-4.165477119386196136e-03,-1.343376934528350830e-02,1.372359842061996460e-01,6.204495206475257874e-02,-1.740824580192565918e-01,-1.356047689914703369e-01,-4.451734945178031921e-02
-7.878023386001586914e-02,1.172827854752540588e-01,-4.069751501083374023e-02,-4.615820653270930052e-04,1.046982854604721069e-01,1.014142259955406189e-01,8.816245198249816895e-02,8.663251996040344238e-02,1.306138038635253906e-01
-1.572331190109252930e-01,-9.977173060178756714e-02,-2.275563031435012817e-02,-2.034101188182830811e-01,1.052141264081001282e-01,9.478289633989334106e-02,-9.387155622243881226e-02,-1.422342006117105484e-02,1.222486719489097595e-01
1.328599005937576294e-01,-3.654019534587860107e-02,1.121912077069282532e-01,1.412436962127685547e-01,-3.221817314624786377e-02,1.447356343269348145e-01,2.349116839468479156e-02,-1.200288161635398865e-01,-1.090050414204597473e-01
-1.019341405481100082e-02,6.395778805017471313e-02,-1.289595812559127808e-01,8.092013001441955566e-02,1.025827080011367798e-01,1.245946884155273438e-01,1.386450380086898804e-01,1.075269877910614014e-01,1.689408421516418457e-01
1.348972469568252563e-01,-2.671592496335506439e-02,-5.153102055191993713e-02,9.988623112440109253e-02,-4.658013954758644104e-02,-8.536109328269958496e-02,6.497102230787277222e-02,3.273563832044601440e-02,-8.743631094694137573e-02
1.398098170757293701e-01,1.350127458572387695e-01,5.375801399350166321e-02,-2.114910446107387543e-02,-2.927530370652675629e-02,-2.553289383649826050e-02,-9.763205796480178833e-02,-1.423787325620651245e-01,-4.421126842498779297e-02
1.382711380720138550e-01,-8.103015832602977753e-03,1.028362140059471130e-01,1.026873067021369934e-01,1.898725144565105438e-02,4.495022073388099670e-02,-1.045604050159454346e-01,-1.938601881265640259e-01,-1.522769480943679810e-01
-1.177518740296363831e-01,-1.001540943980216980e-01,1.152382139116525650e-02,-5.667374655604362488e-02,-4.518298804759979248e-02,5.015990138053894043e-02,1.512878388166427612e-01,1.093144938349723816e-01,1.045601516962051392e-01
4.452850669622421265e-02,1.326360702514648438e-01,1.280582100152969360e-01,1.400641351938247681e-01,1.563097685575485229e-01,8.103854954242706299e-02,9.630820155143737793e-02,7.362560927867889404e-02,-7.105921208858489990e-02
-3.231323789805173874e-03,3.407354652881622314e-02,-7.737778872251510620e-02,1.636743098497390747e-01,8.525878936052322388e-02,1.103134900331497192e-01,1.133752837777137756e-01,1.463510394096374512e-01,-2.538767457008361816e-02
-1.565438508987426758e-01,-1.662974804639816284e-02,1.525796502828598022e-01,-1.400156021118164062e-01,-7.446341961622238159e-02,1.247898638248443604e-01,-4.052025079727172852e-02,2.941301092505455017e-02,1.161011382937431335e-01
1.607454419136047363e-01,3.353852033615112305e-02,-1.665789783000946045e-01,1.464243978261947632e-01,5.516279488801956177e-02,1.090719178318977356e-01,1.401188820600509644e-01,1.924065798521041870e-01,-3.800756763666868210e-03
1.650577038526535034e-01,1.026835590600967407e-01,-9.164166636765003204e-03,1.774660497903823853e-01,1.193123012781143188e-01,2.113226102665066719e-03,-4.666822403669357300e-02,4.277694597840309143e-02,6.716270744800567627e-02
-8.065884560346603394e-02,-6.414998322725296021e-02,1.344216167926788330e-01,-1.140156388282775879e-01,7.502059638500213623e-02,1.819831579923629761e-01,-8.871121099218726158e-04,-2.170963771641254425e-02,1.811807788908481598e-02
1.630366221070289612e-02,-1.996831409633159637e-02,1.301533728837966919e-01,6.430809944868087769e-02,1.671331226825714111e-01,1.339057385921478271e-01,-1.312323473393917084e-02,8.963198959827423096e-02,4.312555119395256042e-02
2.657666103914380074e-03,-2.537843957543373108e-02,1.226481273770332336e-01,1.668344885110855103e-01,9.151002764701843262e-02,1.668945252895355225e-01,1.003067344427108765e-01,1.593614965677261353e-01,-2.353463694453239441e-02
-5.485251918435096741e-02,-4.174507781863212585e-02,-7.279598712921142578e-02,1.706986725330352783e-01,-2.924936078488826752e-02,-4.628852754831314087e-02,1.631716936826705933e-01,1.575946211814880371e-01,1.647936254739761353e-01
-5.176210403442382812e-02,5.544001981616020203e-02,1.615612208843231201e-01,-2.426096005365252495e-03,1.618583947420120239e-01,1.082568764686584473e-01,5.502754356712102890e-03,7.363376766443252563e-02,-8.237314224243164062e-02
-1.081623733043670654e-01,7.659243047237396240e-02,8.693035691976547241e-02,-3.152469173073768616e-02,1.486369073390960693e-01,1.255566179752349854e-01,6.504473090171813965e-02,7.237707078456878662e-02,-8.340626023709774017e-03
9.091104567050933838e-02,8.057244867086410522e-02,1.782113015651702881e-01,-3.221520781517028809e-02,-1.171338255517184734e-03,-6.153823435306549072e-02,-1.487196981906890869e-01,-1.264940500259399414e-01,-6.922553479671478271e-02
-5.026609823107719421e-02,1.578206866979598999e-01,1.478963196277618408e-01,-5.668251216411590576e-02,1.433663964271545410e-01,1.440991163253784180e-01,-7.607405632734298706e-02,1.160889640450477600e-01,-8.362258784472942352e-03
1.560220569372177124e-01,-5.305502191185951233e-02,8.784016221761703491e-02,1.501584798097610474e-01,9.514424018561840057e-03,-4.323380440473556519e-02,2.940632402896881104e-02,5.059879273176193237e-02,-5.211670696735382080e-02
7.561617344617843628e-02,1.083830296993255615e-01,1.089033111929893494e-01,-7.871721871197223663e-03,2.141826413571834564e-02,-1.374441199004650116e-03,-1.547965705394744873e-01,-1.284905374050140381e-01,-6.822149455547332764e-02
8.115264028310775757e-02,9.849930554628372192e-02,1.469703018665313721e-01,6.034007295966148376e-02,1.063633710145950317e-01,-7.072718581184744835e-04,4.629707708954811096e-02,1.050402643159031868e-03,1.275489628314971924e-01
6.530860066413879395e-02,1.333813667297363281e-01,-4.537456482648849487e-02,2.672326564788818359e-02,1.475111097097396851e-01,-5.923663824796676636e-02,5.657052248716354370e-02,-9.361684322357177734e-03,1.019259840250015259e-01
-1.278526037931442261e-01,-1.029720529913902283e-01,-6.556154228746891022e-03,1.368493586778640747e-01,-1.920649595558643341e-02,4.450239613652229309e-02,3.602828830480575562e-02,9.133298695087432861e-02,1.028065830469131470e-01
1.651046723127365112e-01,3.677250817418098450e-02,1.245200634002685547e-01,-3.620155528187751770e-02,1.067603603005409241e-01,-2.462610835209488869e-03,-1.704562455415725708e-01,-1.453755050897598267e-01,-1.179799363017082214e-01
6.830562651157379150e-02,9.036676585674285889e-02,3.840197622776031494e-02,1.739841848611831665e-01,1.750275045633316040e-01,6.792996078729629517e-02,1.527759879827499390e-01,-2.362539991736412048e-03,-4.509820044040679932e-02
2.170665189623832703e-03,8.239515870809555054e-02,7.373937219381332397e-02,1.490761339664459229e-01,3.351509943604469299e-02,-2.152613177895545959e-02,1.307611614465713501e-01,1.768425107002258301e-01,1.526734232902526855e-01
-1.346370577812194824e-01,-1.599735170602798462e-01,-8.595155924558639526e-02,1.277426928281784058e-01,-3.062083385884761810e-02,-8.279670029878616333e-02,1.075547635555267334e-01,1.624202132225036621e-01,9.715347737073898315e-02
1.888961344957351685e-02,7.582562416791915894e-02,1.300045549869537354e-01,-1.123945564031600952e-01,-1.506414413452148438e-01,-1.388360932469367981e-02,8.843192458152770996e-02,-8.969144523143768311e-02,1.053544692695140839e-02
-1.198689173907041550e-02,-4.056948050856590271e-02,-1.396188884973526001e-01,-1.453586388379335403e-02,2.250199578702449799e-02,-4.220801591873168945e-02,4.072978347539901733e-02,1.012162417173385620e-01,1.409956216812133789e-01
-8.776305243372917175e-03,1.279751211404800415e-01,-6.409425288438796997e-02,1.417751759290695190e-01,6.587005406618118286e-02,3.183983266353607178e-02,9.398270398378372192e-02,9.310892969369888306e-02,1.515193730592727661e-01
-1.216438636183738708e-01,-1.291794329881668091e-01,-7.279735058546066284e-02,4.663982987403869629e-02,-4.203024506568908691e-02,-5.301777273416519165e-02,3.451549261808395386e-02,1.621583849191665649e-01,8.187587559223175049e-02
3.551935777068138123e-02,6.712081283330917358e-02,-4.418024420738220215e-02,1.523910611867904663e-01,1.473364681005477905e-01,1.770389378070831299e-01,-6.341955065727233887e-02,3.797216713428497314e-02,1.363366395235061646e-01
7.889858633279800415e-02,-1.501734834164381027e-03,-1.525575518608093262e-01,1.807293295860290527e-01,-1.250052638351917267e-02,-1.277014464139938354e-01,1.534083634614944458e-01,1.817860007286071777e-01,8.345795422792434692e-02
3.505676984786987305e-02,2.117747068405151367e-02,-1.492808610200881958e-01,1.024307161569595337e-01,8.716839551925659180e-02,-3.566908836364746094e-02,1.632036119699478149e-01,1.797218620777130127e-01,6.312710046768188477e-02
-4.529280215501785278e-02,-1.112621743232011795e-02,1.247139349579811096e-01,8.230333030223846436e-02,-2.277384774060919881e-04,1.727027446031570435e-01,1.127554848790168762e-01,3.809022530913352966e-02,-4.348286241292953491e-02
4.817735776305198669e-02,7.379587739706039429e-02,2.683643065392971039e-02,-3.523160517215728760e-02,9.583570063114166260e-02,9.431979805231094360e-02,-1.633575111627578735e-01,-1.131631731986999512e-01,-6.669378280639648438e-02
-1.271871179342269897e-01,-5.513251572847366333e-02,1.607143878936767578e-01,-3.182992339134216309e-02,-5.526594072580337524e-02,1.490638405084609985e-01,-1.258610486984252930e-01,5.937150120735168457e-02,-1.723698340356349945e-03
-1.910275667905807495e-01,-1.283930838108062744e-01,2.945357002317905426e-02,-1.189720630645751953e-02,-4.908372461795806885e-02,-4.827155545353889465e-02,1.356233656406402588e-01,5.545724183320999146e-02,1.268242597579956055e-01
-8.814200013875961304e-02,1.882127672433853149e-02,-7.654461264610290527e-02,-6.803941726684570312e-02,-4.308595880866050720e-02,-2.949951449409127235e-03,-4.081335291266441345e-02,-9.107346832752227783e-02,-9.139276295900344849e-02
5.852046236395835876e-02,-1.422744393348693848e-01,3.349873423576354980e-02,-1.015176326036453247e-01,-3.557115560397505760e-03,5.444844812154769897e-02,-9.881296753883361816e-02,-5.295753479003906250e-02,1.248475015163421631e-01
-5.735304951667785645e-02,-1.301161944866180420e-02,1.271917521953582764e-01,1.334827840328216553e-01,1.041486710309982300e-01,6.656295806169509888e-02,3.366488218307495117e-02,1.580730676651000977e-01,1.297881901264190674e-01
-4.037221521139144897e-02,4.565349593758583069e-02,1.183557789772748947e-02,8.824889361858367920e-02,-9.582477621734142303e-03,-2.715005725622177124e-02,1.864883154630661011e-01,1.247136369347572327e-01,-1.005978435277938843e-01
2.345968410372734070e-02,-9.475480765104293823e-03,-4.583743587136268616e-02,1.101452484726905823e-01,1.196418553590774536e-01,3.231864422559738159e-02,1.884859502315521240e-01,1.665626019239425659e-01,4.383775964379310608e-02
-8.492977172136306763e-02,-8.574554324150085449e-02,6.476189941167831421e-02,-5.633478984236717224e-02,1.051840037107467651e-01,3.868556767702102661e-02,1.329324990510940552e-01,1.098378598690032959e-01,2.957294508814811707e-02
7.919809222221374512e-02,1.358769983053207397e-01,7.989244163036346436e-02,-1.020201598294079304e-03,6.172145903110504150e-02,3.111870773136615753e-02,-1.940262131392955780e-02,1.021400243043899536e-01,9.670818597078323364e-02
1.313139498233795166e-01,1.453051269054412842e-01,-6.151616200804710388e-02,1.282977163791656494e-01,7.540599256753921509e-02,5.154469609260559082e-02,1.138088330626487732e-01,1.467099040746688843e-01,-5.814983695745468140e-02
3.715052828192710876e-02,6.799706071615219116e-02,9.489195048809051514e-02,3.249351307749748230e-02,1.534263044595718384e-01,1.481330841779708862e-01,-8.451220393180847168e-02,4.623103514313697815e-02,-9.672307223081588745e-02
1.550409346818923950e-01,1.750256121158599854e-01,2.549656294286251068e-02,3.993008285760879517e-02,1.601082980632781982e-01,-6.731344014406204224e-02,-6.232514232397079468e-02,9.020457416772842407e-02,-3.012491017580032349e-02
8.707923442125320435e-02,9.724663197994232178e-02,7.930646091699600220e-02,6.696296483278274536e-02,1.325886510312557220e-02,7.121690362691879272e-02,-1.564843952655792236e-01,-1.517890542745590210e-01,-1.160764694213867188e-01
1.252984702587127686e-01,8.730208128690719604e-02,-1.090444065630435944e-02,-6.782570481300354004e-02,4.808658559340983629e-04,6.836023181676864624e-02,-2.239511907100677490e-02,-4.928622394800186157e-02,9.372205287218093872e-02
-5.493334680795669556e-02,6.735341250896453857e-02,4.346648976206779480e-02,1.527042835950851440e-01,2.943304553627967834e-02,6.892090197652578354e-03,1.059325858950614929e-01,1.684414446353912354e-01,1.689672023057937622e-01
-1.602329164743423462e-01,9.480759501457214355e-02,-6.833035731688141823e-04,3.703867644071578979e-02,6.581216305494308472e-02,7.423335313796997070e-02,5.230082198977470398e-02,1.193674579262733459e-01,1.851644665002822876e-01
-6.824868172407150269e-02,3.934488445520401001e-02,6.028522178530693054e-02,4.174470901489257812e-02,4.487821459770202637e-02,1.442864686250686646e-01,-1.023135930299758911e-01,-1.308550834655761719e-01,-1.161236017942428589e-01
3.580906242132186890e-02,-3.691072762012481689e-02,9.553230553865432739e-02,1.550779193639755249e-01,5.698228999972343445e-02,1.393584311008453369e-01,1.519043743610382080e-01,1.141927838325500488e-01,-6.906223297119140625e-02
-1.590171307325363159e-01,-7.036206871271133423e-02,1.335284858942031860e-01,-1.260582059621810913e-01,2.482193056493997574e-03,1.395398527383804321e-01,-7.718074321746826172e-02,-3.876232728362083435e-02,1.018786504864692688e-01
1.440153717994689941e-01,8.780161291360855103e-02,2.620842866599559784e-02,1.021033525466918945e-01,-2.517623826861381531e-02,1.472326219081878662e-01,9.569817036390304565e-02,5.907559022307395935e-02,1.689900010824203491e-01
8.820474147796630859e-02,8.115230500698089600e-02,3.566649183630943298e-02,7.426930218935012817e-02,5.409444496035575867e-02,1.448082178831100464e-01,8.927346207201480865e-03,8.086926490068435669e-02,-2.142814174294471741e-02
7.814050465822219849e-02,2.498060232028365135e-03,1.029035598039627075e-01,-9.797532111406326294e-02,2.677011536434292793e-03,1.363491564989089966e-01,-1.013339087367057800e-01,-5.540826171636581421e-02,1.297571063041687012e-01
-1.409536451101303101e-01,-3.451576456427574158e-02,4.200513660907745361e-02,-8.046597242355346680e-02,8.520044386386871338e-03,4.176352918148040771e-02,-2.994697168469429016e-02,-3.871664032340049744e-02,1.241782680153846741e-01
-2.097757607698440552e-01,-5.935920774936676025e-02,7.214897312223911285e-03,-5.116255581378936768e-02,4.067090153694152832e-02,2.429513074457645416e-02,1.685381680727005005e-01,1.118496954441070557e-01,1.356528997421264648e-01
-1.317441463470458984e-01,1.055846139788627625e-01,-1.742435991764068604e-02,-7.188416272401809692e-02,-2.247341908514499664e-03,9.565966576337814331e-02,-1.244827136397361755e-01,1.269771009683609009e-01,1.129649057984352112e-01
-1.117862015962600708e-01,-2.064116001129150391e-01,-5.050015449523925781e-02,-3.300930932164192200e-02,4.036511480808258057e-02,1.372538059949874878e-01,6.852342188358306885e-02,1.159022524952888489e-01,1.003825441002845764e-01
2.922721207141876221e-02,5.319135636091232300e-02,5.015729367733001709e-02,1.912732422351837158e-02,1.230452880263328552e-01,1.277444064617156982e-01,-3.976407274603843689e-02,8.630564063787460327e-02,1.593963205814361572e-01
1.231167465448379517e-01,-7.218194752931594849e-02,-1.293228566646575928e-01,1.296797543764114380e-01,5.027619749307632446e-02,8.664146810770034790e-02,1.843959391117095947e-01,1.265030652284622192e-01,1.614968925714492798e-01
1.009574085474014282e-01,1.676280498504638672e-01,1.541595160961151123e-01,1.099217310547828674e-01,1.451801210641860962e-01,1.459991335868835449e-01,2.413645759224891663e-02,7.212521135807037354e-02,8.055765181779861450e-02
-2.209133505821228027e-01,-1.642851680517196655e-01,-1.594675630331039429e-01,-1.259848028421401978e-01,2.023435570299625397e-02,4.641984403133392334e-02,-3.689470142126083374e-02,1.755104064941406250e-01,1.081788837909698486e-01
1.576939076185226440e-01,2.494003809988498688e-02,1.455971002578735352e-01,1.064451858401298523e-01,-4.536417871713638306e-02,-9.486605226993560791e-02,1.125314757227897644e-01,-7.324146479368209839e-02,-1.416482925415039062e-01
2.740364894270896912e-02,1.153398081660270691e-01,9.998676925897598267e-02,1.602538973093032837e-01,6.816037744283676147e-02,1.486256718635559082e-01,9.432664141058921814e-03,1.542110089212656021e-02,5.978803709149360657e-02
-5.575231090188026428e-02,6.991105526685714722e-02,6.015296652913093567e-02,1.087490469217300415e-01,7.695430517196655273e-02,1.746837049722671509e-01,7.345445454120635986e-02,1.481085084378719330e-03,1.783487796783447266e-01
-1.803896576166152954e-02,-7.406746596097946167e-02,-1.444735676050186157e-01,6.207655370235443115e-02,3.412911668419837952e-02,1.369711011648178101e-01,-2.956715784966945648e-02,1.357961148023605347e-01,-8.014275692403316498e-03
1.263154000043869019e-01,1.148478984832763672e-01,6.973496824502944946e-02,4.764105752110481262e-02,1.413757354021072388e-01,1.856730431318283081e-01,3.474372625350952148e-02,1.146939694881439209e-01,1.653960496187210083e-01
-1.538760773837566376e-02,-7.444254122674465179e-03,-1.900079846382141113e-01,1.435244572348892689e-03,-4.231701791286468506e-02,-3.848114237189292908e-02,7.638151943683624268e-02,1.304904371500015259e-01,7.986851036548614502e-02
1.648748219013214111e-01,1.902953684329986572e-01,1.320013254880905151e-01,-3.968986496329307556e-02,7.027138024568557739e-02,4.517662897706031799e-02,6.832268834114074707e-02,8.466659113764762878e-03,-2.178522385656833649e-02
8.865936845541000366e-02,6.804829090833663940e-02,1.169088259339332581e-01,-4.176027327775955200e-02,1.954427920281887054e-02,1.511343419551849365e-01,-1.510909497737884521e-01,-1.622270047664642334e-01,-1.196471676230430603e-01
6.246802583336830139e-02,-5.823636800050735474e-02,-2.201576679944992065e-01,1.437076032161712646e-01,-3.724176809191703796e-02,-1.227306667715311050e-02,1.845750510692596436e-01,-8.246442303061485291e-03,2.426222339272499084e-02
-1.029494553804397583e-01,-5.331683158874511719e-02,3.563193976879119873e-02,-1.125864014029502869e-01,-1.961265876889228821e-02,8.850887417793273926e-02,-7.610608637332916260e-02,1.093901619315147400e-01,2.533872611820697784e-02
-1.075457409024238586e-01,-1.072848588228225708e-01,-2.825335226953029633e-02,9.799673408269882202e-02,6.084274966269731522e-03,1.647165417671203613e-02,1.774211972951889038e-02,7.566061615943908691e-02,1.093946769833564758e-02
1.705252379179000854e-01,1.591490954160690308e-01,-4.648245498538017273e-02,1.107678115367889404e-01,8.833242207765579224e-02,1.443487107753753662e-01,-9.539467841386795044e-02,-2.857520990073680878e-02,3.903449745848774910e-03
6.501100957393646240e-02,1.264493614435195923e-01,6.526996195316314697e-02,1.741612851619720459e-01,1.723861247301101685e-01,-5.662086978554725647e-02,7.369870692491531372e-02,3.005588240921497345e-02,-5.087730661034584045e-02
-7.959363609552383423e-02,9.144389629364013672e-02,1.124656051397323608e-01,1.216670572757720947e-01,1.159599050879478455e-01,1.243149712681770325e-01,2.873158315196633339e-03,1.219738498330116272e-01,1.241693496704101562e-01
1.260972172021865845e-01,1.699759811162948608e-01,1.617917418479919434e-01,-1.260544918477535248e-02,1.196802631020545959e-01,3.844419188681058586e-05,-2.380048111081123352e-02,9.630131721496582031e-02,-1.643035002052783966e-02
1.596889495849609375e-01,1.743435412645339966e-01,1.165461018681526184e-01,-6.301452219486236572e-02,1.378608494997024536e-01,7.468579709529876709e-02,-1.160999834537506104e-01,-1.177819147706031799e-01,1.214034780859947205e-01
7.801584154367446899e-02,9.141273796558380127e-02,-1.229174584150314331e-01,7.580914348363876343e-02,5.129246786236763000e-02,-2.729043737053871155e-02,6.512237340211868286e-02,1.679746061563491821e-01,4.716167226433753967e-02
1.550210267305374146e-01,1.120671182870864868e-01,6.564448773860931396e-02,8.665581792593002319e-02,9.295170754194259644e-02,-3.270315472036600113e-03,9.033710509538650513e-02,8.222648501396179199e-02,6.051672156900167465e-03
-2.314412593841552734e-02,1.412576436996459961e-01,9.711045026779174805e-02,9.170811623334884644e-02,-1.931725442409515381e-02,3.827309980988502502e-02,7.576668262481689453e-02,-2.382569760084152222e-02,1.029855459928512573e-01
-8.550208806991577148e-02,1.170646473765373230e-01,6.282323598861694336e-02,4.351032432168722153e-03,1.279320865869522095e-01,8.546964079141616821e-02,3.929106518626213074e-03,1.224178522825241089e-01,-5.998916551470756531e-02
1.198611259460449219e-01,1.532624363899230957e-01,-1.410967111587524414e-02,-2.868900820612907410e-02,1.400820165872573853e-01,1.627722382545471191e-01,5.756930261850357056e-02,-2.530704811215400696e-02,-7.116034626960754395e-02
-1.559388786554336548e-01,-3.845429420471191406e-02,1.331037729978561401e-01,-1.287672817707061768e-01,1.119067892432212830e-01,1.538500003516674042e-02,-4.290808737277984619e-02,1.466613709926605225e-01,8.219406008720397949e-02
-1.532798409461975098e-01,-1.327499151229858398e-01,6.367771327495574951e-02,1.331406738609075546e-02,9.611078351736068726e-02,3.523802384734153748e-03,1.135550290346145630e-01,-1.960410922765731812e-02,1.537403315305709839e-01
-6.294105947017669678e-02,7.801435142755508423e-02,-1.509175263345241547e-02,4.902912676334381104e-02,1.080640330910682678e-01,-4.815229028463363647e-02,1.928291320800781250e-01,-5.255721043795347214e-03,-5.833023041486740112e-02
-4.043359681963920593e-02,6.756259500980377197e-02,1.372997164726257324e-01,-3.029387630522251129e-02,-2.084886580705642700e-01,-9.706880897283554077e-02,-1.582206599414348602e-02,7.259520888328552246e-02,-4.609402641654014587e-02
3.677994757890701294e-02,8.107072114944458008e-02,5.615611094981431961e-03,6.290861964225769043e-02,8.342184126377105713e-02,1.575536131858825684e-01,7.032004743814468384e-02,-2.640012092888355255e-02,1.449698656797409058e-01
8.928012102842330933e-02,-1.336115505546331406e-02,2.159091271460056305e-02,2.046923153102397919e-02,-4.119496420025825500e-02,1.415146887302398682e-01,1.236045286059379578e-01,1.635827720165252686e-01,6.275563687086105347e-02
1.680853217840194702e-01,1.683507710695266724e-01,2.203427813947200775e-02,1.287109255790710449e-01,4.320693202316761017e-03,4.197855014353990555e-03,7.642216235399246216e-02,-7.321837823837995529e-03,1.686196178197860718e-01
-1.481761038303375244e-01,-1.610110253095626831e-01,-7.466005533933639526e-02,1.324377954006195068e-01,-4.397129639983177185e-02,-1.832322776317596436e-02,9.888430684804916382e-02,1.263644695281982422e-01,9.459038823843002319e-02
1.699381321668624878e-01,9.401449561119079590e-02,5.460793897509574890e-02,1.931592971086502075e-01,1.942862123250961304e-01,9.214309602975845337e-02,-7.210808340460062027e-03,5.358254164457321167e-02,8.248602598905563354e-02
-5.978117231279611588e-03,-8.178378641605377197e-02,1.489678770303726196e-01,-1.097703725099563599e-01,-5.842280015349388123e-02,5.159521475434303284e-02,-5.581676587462425232e-02,8.395534008741378784e-02,1.219851151108741760e-01
-1.032019220292568207e-02,-2.780157700181007385e-02,4.502308368682861328e-02,1.151935979723930359e-01,1.544048190116882324e-01,1.491959393024444580e-01,-5.890036001801490784e-02,2.573294378817081451e-02,1.837460994720458984e-01
1.508352905511856079e-01,1.512967199087142944e-01,1.122408360242843628e-01,2.944228425621986389e-02,1.422386020421981812e-01,1.598502844572067261e-01,9.730312228202819824e-02,1.018790826201438904e-01,-1.920839399099349976e-02
6.354436278343200684e-02,1.110773682594299316e-01,1.924049705266952515e-01,2.155351266264915466e-02,-4.011298343539237976e-02,5.141510069370269775e-02,-1.482068598270416260e-01,-1.702699810266494751e-01,-1.103923171758651733e-01
5.428426340222358704e-02,1.704430207610130310e-02,-3.363062278367578983e-04,1.582909673452377319e-01,1.489208638668060303e-01,1.008383184671401978e-01,-6.405956298112869263e-02,2.141719497740268707e-02,1.553235948085784912e-01
6.065067835152149200e-03,-3.353097662329673767e-02,2.232444286346435547e-02,1.330189593136310577e-02,1.725968420505523682e-01,-2.063810266554355621e-02,9.325116872787475586e-02,1.967715024948120117e-01,1.799049973487854004e-01
-8.924080431461334229e-02,7.397559285163879395e-02,1.298694312572479248e-01,-8.805436640977859497e-02,-2.204232513904571533e-01,-8.305489271879196167e-02,8.961366862058639526e-02,9.629131108522415161e-02,-9.417459368705749512e-02
-1.731961593031883240e-02,1.320626288652420044e-01,1.717657744884490967e-01,-4.463659971952438354e-02,-5.540771409869194031e-02,-2.430342510342597961e-02,-1.237793788313865662e-01,-1.414083093404769897e-01,-1.326470524072647095e-01
9.039601683616638184e-02,1.734037697315216064e-01,1.241625845432281494e-01,-1.057603582739830017e-01,7.866723462939262390e-03,-2.704091183841228485e-02,-8.406628668308258057e-02,-1.909176707267761230e-01,-6.097042933106422424e-02
-8.689655922353267670e-03,3.846412152051925659e-02,-5.760137364268302917e-02,1.341193467378616333e-01,1.701676547527313232e-01,-4.906620830297470093e-02,1.620674580335617065e-01,7.907226681709289551e-02,6.614686548709869385e-02
-1.907674223184585571e-02,1.494608446955680847e-02,3.250030428171157837e-02,8.703199774026870728e-02,9.079076349735260010e-03,1.731771379709243774e-01,-8.632146567106246948e-02,-1.558632105588912964e-01,9.399163722991943359e-02
-4.027232527732849121e-03,-4.255503416061401367e-02,-8.230068534612655640e-02,-9.005561470985412598e-02,-1.014658994972705841e-02,1.536670257337391376e-03,-4.758709296584129333e-02,-5.232324823737144470e-02,-2.297471836209297180e-02
-1.290797293186187744e-01,-1.055573374032974243e-01,1.526788920164108276e-01,-1.212574318051338196e-01,-1.509933732450008392e-02,1.451667845249176025e-01,-9.845779091119766235e-02,6.242360174655914307e-02,8.467105776071548462e-02
4.460515081882476807e-02,-9.141680598258972168e-02,-1.289655268192291260e-01,-2.283313274383544922e-01,-1.303600221872329712e-01,-3.348185122013092041e-02,-6.607854366302490234e-02,1.223509833216667175e-01,1.707627922296524048e-01
2.443199045956134796e-02,9.280709177255630493e-02,3.037093952298164368e-02,1.106737032532691956e-01,1.667387336492538452e-01,3.488411754369735718e-02,1.540553271770477295e-01,-2.751163020730018616e-02,-1.167916879057884216e-01
5.898271501064300537e-02,1.317435223609209061e-02,1.471523642539978027e-01,1.000228673219680786e-01,7.607616484165191650e-02,5.925931409001350403e-02,-1.575998663902282715e-01,-1.344943642616271973e-01,-1.754069775342941284e-01
-1.720252037048339844e-01,-1.191398948431015015e-01,-1.577628403902053833e-01,-1.700535416603088379e-02,-2.081771008670330048e-02,1.484733802499249578e-04,-3.931008977815508842e-04,3.634859248995780945e-02,1.551639586687088013e-01
1.550310105085372925e-01,1.330496817827224731e-01,7.296385616064071655e-02,7.431389391422271729e-02,1.628780514001846313e-01,9.941093623638153076e-02,1.227998808026313782e-01,8.362147957086563110e-03,-6.233807280659675598e-02
-1.019613370299339294e-01,3.793008625507354736e-02,-7.757913321256637573e-03,4.061551764607429504e-02,1.393001228570938110e-01,7.055002450942993164e-02,-2.333190478384494781e-02,1.085264235734939575e-01,1.299131214618682861e-01
1.379467844963073730e-01,-1.983756385743618011e-02,-4.252548888325691223e-02,1.414082795381546021e-01,1.138795539736747742e-02,-8.330559730529785156e-02,-8.210194297134876251e-03,1.303016990423202515e-01,-7.441331446170806885e-02
-1.118908971548080444e-01,-7.143390923738479614e-02,1.576237231492996216e-01,-1.305674165487289429e-01,-4.730286821722984314e-02,1.036475598812103271e-01,-9.652446955442428589e-02,-2.868656627833843231e-02,1.192870214581489563e-01
6.845516711473464966e-02,7.991963624954223633e-02,1.459817588329315186e-01,-3.415308520197868347e-02,-6.551391631364822388e-02,4.246651008725166321e-02,1.084768176078796387e-01,-2.073312401771545410e-01,-1.175607740879058838e-01
1.316379457712173462e-01,1.268543899059295654e-01,-1.028406098484992981e-01,8.272756636142730713e-02,1.723462641239166260e-01,1.379205137491226196e-01,1.082449331879615784e-01,1.847289651632308960e-01,9.221043437719345093e-03
-9.801982343196868896e-02,1.158982813358306885e-01,-4.302694648504257202e-02,-1.160090938210487366e-01,1.157724186778068542e-01,1.076970472931861877e-01,-8.737048506736755371e-02,1.022985950112342834e-01,1.173522919416427612e-01
-1.687581986188888550e-01,-1.215104013681411743e-01,4.106794670224189758e-02,8.331549167633056641e-02,-6.497196108102798462e-02,-1.408135592937469482e-01,1.445977091789245605e-01,1.399532258510589600e-01,3.873673453927040100e-02
1.001568511128425598e-01,1.600988358259201050e-01,5.910360440611839294e-02,-1.152773573994636536e-01,4.295938462018966675e-02,4.524725675582885742e-02,-7.011700421571731567e-02,-1.668664366006851196e-01,-8.960572630167007446e-02
1.571644693613052368e-01,1.800142228603363037e-01,4.987056925892829895e-02,2.832924574613571167e-02,-7.359167933464050293e-02,6.787050515413284302e-02,-1.546564251184463501e-01,-1.322418898344039917e-01,-1.434895992279052734e-01
1.154204234480857849e-01,1.646752655506134033e-01,-1.843874156475067139e-02,1.297975778579711914e-01,8.621391654014587402e-02,6.003829091787338257e-02,4.508885741233825684e-02,1.079732701182365417e-01,1.352405846118927002e-01
-4.368915781378746033e-02,1.371447145938873291e-01,2.218712307512760162e-02,1.578419208526611328e-01,1.036905050277709961e-01,4.791580606251955032e-03,1.652047783136367798e-01,1.223569139838218689e-01,-1.999297738075256348e-02
4.640583693981170654e-02,1.429256200790405273e-01,1.168428137898445129e-01,1.008205115795135498e-01,1.482594460248947144e-01,-2.232017926871776581e-03,-3.788748756051063538e-02,1.223906949162483215e-01,9.997170418500900269e-02
1.527805477380752563e-01,-4.090293124318122864e-02,1.043262705206871033e-01,1.245455518364906311e-01,-4.262362048029899597e-02,1.437931656837463379e-01,1.480057090520858765e-01,-5.182695388793945312e-02,4.985192324966192245e-03
1.662639230489730835e-01,8.549167960882186890e-02,-4.284891765564680099e-03,1.667905449867248535e-01,1.800861954689025879e-02,-9.731765836477279663e-02,3.114127553999423981e-02,-6.788145750761032104e-02,1.927456259727478027e-02
1.694664359092712402e-01,8.890894800424575806e-02,-9.796388447284698486e-02,1.679583638906478882e-01,1.382069289684295654e-01,-7.140527479350566864e-03,-1.004691701382398605e-02,1.308061555027961731e-02,1.434273868799209595e-01
7.434473931789398193e-02,1.239655688405036926e-01,1.847106218338012695e-01,8.829142153263092041e-02,1.114687025547027588e-01,7.267149537801742554e-02,-3.449393436312675476e-02,2.045649290084838867e-02,-1.465802490711212158e-01
-6.728748977184295654e-02,6.259775906801223755e-02,3.515047207474708557e-02,2.789942733943462372e-02,5.825030058622360229e-02,1.551757156848907471e-01,1.527316421270370483e-01,1.899702358059585094e-03,1.332378387451171875e-01
-1.766244769096374512e-01,-2.063741683959960938e-01,-1.876351535320281982e-01,5.250286310911178589e-02,3.996526449918746948e-02,-1.041554585099220276e-01,1.850440055131912231e-01,8.099535852670669556e-02,3.730229288339614868e-02
-1.442515999078750610e-01,-8.564227074384689331e-02,-1.331101059913635254e-01,-2.344090491533279419e-02,-3.496059449389576912e-03,6.473118811845779419e-02,1.617867797613143921e-01,9.917137771844863892e-02,6.115799769759178162e-02
-1.046252846717834473e-01,1.487129461020231247e-02,1.507261544466018677e-01,1.284968554973602295e-01,1.353128552436828613e-01,7.277540862560272217e-02,3.025399148464202881e-02,1.571396589279174805e-01,1.209307760000228882e-01
-1.602166742086410522e-01,-1.189329847693443298e-01,-1.454600989818572998e-01,2.384760230779647827e-02,-3.178820386528968811e-02,-8.676721155643463135e-02,7.542120665311813354e-02,2.090850621461868286e-01,3.733154758810997009e-02
-1.708025187253952026e-01,1.867010723799467087e-04,-2.724414877593517303e-02,-6.769887357950210571e-02,-5.764650925993919373e-02,1.483769714832305908e-01,1.567397713661193848e-01,-4.730288684368133545e-02,3.697953373193740845e-02
1.503717750310897827e-01,1.521390080451965332e-01,-9.128922224044799805e-02,1.339446753263473511e-01,7.027391344308853149e-03,-1.540802121162414551e-01,-1.226966734975576401e-02,9.128513932228088379e-02,-8.845466375350952148e-02
7.115825265645980835e-02,-1.148300394415855408e-01,2.949957735836505890e-02,-8.869903534650802612e-02,-7.295005768537521362e-02,-8.522032760083675385e-03,-1.081294491887092590e-01,3.521945793181657791e-03,1.410594284534454346e-01
-2.025953680276870728e-01,-1.322580277919769287e-01,-1.978712901473045349e-02,-2.676557190716266632e-02,1.094568818807601929e-01,1.578221917152404785e-01,4.947924986481666565e-02,1.387082785367965698e-01,9.227447956800460815e-02
2.497363835573196411e-02,-1.945542730391025543e-02,4.050089418888092041e-02,1.131939738988876343e-01,1.689063310623168945e-01,-1.312731858342885971e-02,8.616926521062850952e-02,1.294249892234802246e-01,-4.376567900180816650e-02
4.999839514493942261e-02,-1.997490786015987396e-02,-1.025616973638534546e-01,2.035423815250396729e-01,1.640041470527648926e-01,7.763101905584335327e-02,1.163717955350875854e-01,6.916196644306182861e-02,4.255872964859008789e-02
1.508778184652328491e-01,1.535366773605346680e-01,1.609746366739273071e-02,9.078396111726760864e-02,-5.247842520475387573e-02,-9.363307058811187744e-02,1.341011188924312592e-02,-1.492698043584823608e-01,-1.272990107536315918e-01
9.436339139938354492e-02,1.411943584680557251e-01,8.878590911626815796e-02,5.976067483425140381e-02,-2.527589723467826843e-02,1.274021267890930176e-01,7.509671151638031006e-02,9.791627526283264160e-02,1.565223485231399536e-01
-1.483306139707565308e-01,-1.344063580036163330e-01,-1.058166101574897766e-01,1.228530798107385635e-02,8.289593458175659180e-02,2.469043247401714325e-02,8.274540305137634277e-02,8.700231462717056274e-02,1.055943593382835388e-01
7.638628780841827393e-02,-7.032093405723571777e-02,6.599353253841400146e-02,4.414615780115127563e-02,2.881043404340744019e-02,1.604580879211425781e-02,6.881928443908691406e-02,1.316644102334976196e-01,1.050191521644592285e-01
-2.781401015818119049e-02,1.105673611164093018e-01,1.650310754776000977e-01,-2.888229675590991974e-03,-3.097811341285705566e-02,9.298338554799556732e-03,-8.382063359022140503e-02,-1.497719734907150269e-01,4.351172223687171936e-02
-9.205216169357299805e-02,-1.294350922107696533e-01,-9.908664226531982422e-02,4.749435186386108398e-02,-6.115416809916496277e-02,7.795979827642440796e-02,1.569194160401821136e-02,1.570660620927810669e-01,6.496563553810119629e-02
-1.672626584768295288e-01,-5.629294738173484802e-02,1.337163299322128296e-01,-9.048718959093093872e-02,9.148833900690078735e-02,8.006728440523147583e-02,1.498451083898544312e-01,8.270862698554992676e-02,9.297239780426025391e-02
-1.415629833936691284e-01,-4.129873961210250854e-02,1.007784716784954071e-02,-4.456184804439544678e-02,1.053542736917734146e-02,8.108805865049362183e-02,1.347812563180923462e-01,1.630369387567043304e-02,1.621257662773132324e-01
3.132304921746253967e-02,1.328863799571990967e-01,1.604100167751312256e-01,3.556705079972743988e-03,1.461747735738754272e-01,1.455650329589843750e-01,-2.029013447463512421e-02,9.063804894685745239e-02,9.847446531057357788e-02
1.571850776672363281e-01,3.589954227209091187e-02,1.690659970045089722e-01,-4.091441631317138672e-02,3.814938664436340332e-02,-4.346567392349243164e-02,-6.643565744161605835e-02,-1.381409466266632080e-01,-8.014635741710662842e-02
1.033358424901962280e-01,1.479163020849227905e-01,-7.114712148904800415e-02,1.777163743972778320e-01,-1.369362417608499527e-02,-1.566340625286102295e-01,-7.195553742349147797e-03,7.001322507858276367e-02,2.600134583190083504e-03
-7.876031100749969482e-03,1.666307151317596436e-01,1.047717183828353882e-01,-6.390810012817382812e-02,1.766865327954292297e-02,4.504965245723724365e-02,-1.343586742877960205e-01,-1.022412478923797607e-01,1.303368806838989258e-02
6.673388183116912842e-02,1.688610762357711792e-01,2.825454063713550568e-02,-1.271748170256614685e-02,1.538745164871215820e-01,6.991557031869888306e-02,1.047566533088684082e-01,3.187821060419082642e-02,7.131569832563400269e-02
1.355734467506408691e-01,-3.670711768791079521e-03,-9.688825160264968872e-02,1.463059931993484497e-01,1.414360851049423218e-01,-6.724137812852859497e-02,-1.214141398668289185e-02,-2.766805468127131462e-03,8.566379547119140625e-02
4.119488969445228577e-02,8.433217555284500122e-02,-9.853881597518920898e-02,-2.761003933846950531e-02,1.316800862550735474e-01,3.151983767747879028e-02,1.185634285211563110e-01,1.649421304464340210e-01,1.006695181131362915e-01
-1.097442507743835449e-01,-1.311275511980056763e-01,-1.145802363753318787e-01,2.401581965386867523e-02,1.054458543658256531e-01,-1.593412831425666809e-02,1.215027049183845520e-01,5.903609469532966614e-02,2.949765883386135101e-02
1.120611131191253662e-01,-5.398203618824481964e-03,1.424571275711059570e-01,5.168472975492477417e-02,1.161814182996749878e-01,1.086174473166465759e-01,-1.045946031808853149e-01,-7.535593211650848389e-02,-1.410217210650444031e-02
-5.262498557567596436e-02,-6.209783256053924561e-02,6.776275485754013062e-02,-2.022604793310165405e-01,-8.509815484285354614e-02,1.438117623329162598e-01,-8.290836215019226074e-02,-3.315972909331321716e-02,-2.871689386665821075e-03
-3.113831207156181335e-02,9.806070476770401001e-02,1.080526877194643021e-02,3.625749051570892334e-02,1.635381430387496948e-01,1.189797744154930115e-01,-1.620234735310077667e-02,1.190377473831176758e-01,7.821473479270935059e-02
8.467961102724075317e-02,-8.456116542220115662e-03,1.657471805810928345e-02,-1.360433176159858704e-02,-3.516332479193806648e-03,1.617738604545593262e-01,6.358301639556884766e-02,6.262566149234771729e-02,7.702569663524627686e-02
1.018383279442787170e-01,6.334582716226577759e-02,6.685363594442605972e-03,1.598265320062637329e-01,1.154636591672897339e-01,1.022976413369178772e-01,-2.820381894707679749e-02,-7.304482161998748779e-02,-1.004246175289154053e-01
2.032356895506381989e-02,5.119770392775535583e-02,-7.727488130331039429e-02,1.192220300436019897e-01,3.369435295462608337e-02,1.492480933666229248e-01,9.905480779707431793e-03,1.513186544179916382e-01,1.913153678178787231e-01
1.504053771495819092e-01,3.931675851345062256e-02,1.552369147539138794e-01,1.783029586076736450e-01,1.304346472024917603e-01,1.083689630031585693e-01,1.513954997062683105e-01,-2.434701286256313324e-02,1.479512006044387817e-01
-1.301464438438415527e-01,2.898098528385162354e-02,1.025200113654136658e-01,-1.091540604829788208e-01,1.899616420269012451e-02,3.037510812282562256e-02,-1.089749485254287720e-01,1.177738457918167114e-01,-9.545202367007732391e-03
1.478068083524703979e-01,9.219409897923469543e-03,1.440284103155136108e-01,9.941384941339492798e-02,1.622160226106643677e-01,1.036189422011375427e-01,3.202817216515541077e-02,-2.555118501186370850e-02,6.169928610324859619e-02
1.426993757486343384e-01,1.527453809976577759e-01,1.411597728729248047e-01,9.143891185522079468e-02,1.260792613029479980e-01,1.039681583642959595e-01,1.064299792051315308e-01,2.006570994853973389e-02,6.846737861633300781e-02
1.095192953944206238e-01,1.064717955887317657e-02,-1.217336878180503845e-01,1.341652274131774902e-01,-2.405378408730030060e-02,-1.286619603633880615e-01,2.234143763780593872e-02,-7.315613795071840286e-03,-6.878624856472015381e-02
-5.605357140302658081e-02,6.313209980726242065e-02,1.501619536429643631e-02,1.035371646285057068e-01,4.813459888100624084e-02,1.428641378879547119e-01,-9.040682762861251831e-02,1.940620318055152893e-02,-6.014215201139450073e-02
7.949727773666381836e-02,3.795416653156280518e-02,1.473308056592941284e-01,1.067470852285623550e-02,7.194314152002334595e-03,5.757246538996696472e-02,-1.003371328115463257e-01,-1.389410644769668579e-01,4.979798197746276855e-02
1.568896463140845299e-03,1.263560056686401367e-01,4.912326857447624207e-02,8.237534761428833008e-02,9.306536614894866943e-02,9.382025152444839478e-02,1.017978712916374207e-01,1.390406936407089233e-01,4.846021905541419983e-02
-5.627678707242012024e-02,9.079333394765853882e-02,1.922603249549865723e-01,-9.855978935956954956e-02,-5.549034848809242249e-02,1.387606561183929443e-01,-1.412857621908187866e-01,-9.770154207944869995e-02,-3.225915133953094482e-03
3.648215159773826599e-02,-1.038441136479377747e-01,-1.761151254177093506e-01,1.612023264169692993e-01,2.447213232517242432e-02,-2.097181230783462524e-01,8.058800548315048218e-02,1.928073465824127197e-01,7.942281663417816162e-03
6.820698082447052002e-02,-5.596939846873283386e-02,-1.015853285789489746e-01,-4.839181154966354370e-02,-8.018571883440017700e-02,-9.854128956794738770e-02,2.726842463016510010e-02,1.479246467351913452e-01,1.310530304908752441e-01
1.319274306297302246e-01,6.882397830486297607e-02,5.338713154196739197e-02,1.644792109727859497e-01,9.241832792758941650e-02,-5.848871171474456787e-02,4.584776982665061951e-02,1.684816181659698486e-01,8.081547170877456665e-02
1.382569670677185059e-01,3.086186386644840240e-02,1.478219032287597656e-01,6.893809139728546143e-02,6.382313370704650879e-02,1.596691459417343140e-01,1.057668253779411316e-01,9.300841018557548523e-03,1.579952090978622437e-01
-7.873592525720596313e-02,-1.364358663558959961e-01,-6.722421944141387939e-02,1.046383604407310486e-01,-3.260356932878494263e-02,-2.445620298385620117e-02,-2.457608003169298172e-03,1.389001011848449707e-01,9.245919436216354370e-02
6.715157628059387207e-02,7.208207994699478149e-02,9.321465343236923218e-02,3.216348215937614441e-02,2.461707033216953278e-02,6.974882632493972778e-02,-1.419499963521957397e-01,-6.946743279695510864e-02,-1.423375159502029419e-01
9.336609393358230591e-02,6.583007425069808960e-02,1.245466768741607666e-01,1.317587196826934814e-01,7.055046409368515015e-02,2.022954523563385010e-01,-4.464683309197425842e-02,4.285554960370063782e-02,1.896683275699615479e-01
-6.836008280515670776e-02,-6.909254938364028931e-02,-3.792356699705123901e-02,-7.055836170911788940e-02,-3.692599385976791382e-02,-7.746227830648422241e-02,1.885271817445755005e-01,1.001757457852363586e-01,7.503186352550983429e-03
1.562023907899856567e-01,3.319336101412773132e-02,1.116365566849708557e-01,-1.069766283035278320e-02,-9.142851456999778748e-03,9.921237826347351074e-02,-8.603708446025848389e-02,-1.616120636463165283e-01,-9.259030222892761230e-02
-1.156188081949949265e-02,1.286411881446838379e-01,1.047951355576515198e-01,5.224123969674110413e-02,7.397316396236419678e-02,3.367843478918075562e-02,-1.740907877683639526e-01,-1.261748224496841431e-01,-8.320404589176177979e-02
1.037567667663097382e-02,-2.383207529783248901e-02,-2.453220635652542114e-02,1.696580201387405396e-01,1.771541088819503784e-01,1.849160157144069672e-02,2.266413765028119087e-03,6.591178476810455322e-02,4.645203426480293274e-02
1.060645878314971924e-01,1.073781475424766541e-01,6.859608739614486694e-02,-2.226462960243225098e-02,1.267277356237173080e-02,2.466358989477157593e-02,-1.388732194900512695e-01,-1.058869585394859314e-01,-1.049433052539825439e-01
1.452024281024932861e-01,1.436801105737686157e-01,9.130764752626419067e-02,6.858590245246887207e-02,9.904626756906509399e-02,-1.602857187390327454e-02,7.087752223014831543e-02,9.969254955649375916e-03,7.904911786317825317e-02
1.174740344285964966e-01,1.187309920787811279e-01,1.315214931964874268e-01,-8.435671031475067139e-02,2.758319117128849030e-02,1.191408187150955200e-01,-7.093141227960586548e-02,1.249959245324134827e-01,6.564786285161972046e-02
-4.086991772055625916e-02,-1.281557679176330566e-01,-1.147064566612243652e-01,-5.300326645374298096e-02,6.873733550310134888e-02,-7.288325577974319458e-02,1.190542429685592651e-01,9.453146904706954956e-02,1.424043178558349609e-01
2.668663114309310913e-02,1.227167397737503052e-01,3.460740670561790466e-02,1.524544656276702881e-01,-6.516458932310342789e-03,1.652156859636306763e-01,-4.446640145033597946e-03,5.153187736868858337e-02,5.115797370672225952e-02
1.811326108872890472e-02,-1.131281852722167969e-01,-9.979557991027832031e-02,4.721538722515106201e-02,-1.344035845249891281e-02,-9.193562716245651245e-02,7.667821645736694336e-02,1.206758543848991394e-01,1.217457726597785950e-01
8.676354587078094482e-02,4.575855657458305359e-02,-5.269828066229820251e-02,1.136972829699516296e-01,-5.087640881538391113e-02,-9.904799610376358032e-02,9.948743134737014771e-02,6.441595405340194702e-02,-8.258956670761108398e-02
1.643017306923866272e-02,1.472731530666351318e-01,4.930564388632774353e-02,-1.448432058095932007e-01,-1.202001944184303284e-01,-1.415528804063796997e-01,3.490187600255012512e-02,6.945023778825998306e-03,5.263243615627288818e-02
-1.304208338260650635e-01,-1.083799079060554504e-01,9.830961376428604126e-02,-1.475615948438644409e-01,-3.465366363525390625e-02,1.196351498365402222e-01,1.320459544658660889e-01,5.510556325316429138e-02,1.083198711276054382e-01
9.386602789163589478e-02,9.274419397115707397e-02,9.468336403369903564e-02,-1.137370616197586060e-01,-1.538662984967231750e-02,-8.605604618787765503e-02,-3.309456259012222290e-02,-3.895595297217369080e-02,5.658076331019401550e-02
1.320719718933105469e-01,-3.157570958137512207e-02,-8.918353170156478882e-02,7.227147370576858521e-02,-6.244916468858718872e-03,-1.179028749465942383e-01,7.538466155529022217e-02,1.323889009654521942e-02,-6.282426416873931885e-02
1.654287576675415039e-01,2.513947524130344391e-02,9.365265816450119019e-02,-8.163113892078399658e-02,5.994867905974388123e-02,1.752842403948307037e-02,-1.433033347129821777e-01,-1.146209836006164551e-01,1.337122470140457153e-01
-1.069835200905799866e-01,-4.752346873283386230e-02,-1.126159280538558960e-01,4.625612497329711914e-02,6.521230936050415039e-02,-5.761753767728805542e-02,1.170018836855888367e-01,1.967285946011543274e-02,6.200724840164184570e-02
-3.953514248132705688e-02,1.796103417873382568e-01,1.783076226711273193e-01,5.026893317699432373e-02,1.312789171934127808e-01,7.178306579589843750e-02,-2.820053137838840485e-02,4.206867888569831848e-03,2.297379449009895325e-02
-1.441188156604766846e-01,-8.294340223073959351e-02,6.950073875486850739e-03,-1.543146818876266479e-01,6.432192772626876831e-02,1.419115811586380005e-01,-6.750757992267608643e-02,5.721028894186019897e-02,6.826899200677871704e-02
2.075807377696037292e-02,1.227407157421112061e-01,3.186390269547700882e-03,-1.968645490705966949e-02,-6.008525937795639038e-02,6.538304500281810760e-03,1.214710026979446411e-01,-1.101138666272163391e-01,-1.049426794052124023e-01
-1.107906699180603027e-01,-1.643300801515579224e-01,-8.877737075090408325e-02,-2.369955740869045258e-02,1.232606992125511169e-01,2.424182370305061340e-02,1.227670758962631226e-01,-1.152070425450801849e-02,1.406374871730804443e-01
-1.196601390838623047e-01,1.250141113996505737e-01,3.097938559949398041e-02,-1.182880550622940063e-01,4.143033549189567566e-02,9.206055104732513428e-02,-5.423050373792648315e-02,1.380110830068588257e-01,-3.611488267779350281e-02
4.895840585231781006e-02,-1.086148470640182495e-01,-7.955200970172882080e-02,-4.295679926872253418e-02,-7.942230999469757080e-02,-6.519123911857604980e-02,1.022865548729896545e-01,1.275668144226074219e-01,9.668138623237609863e-02
3.010260127484798431e-02,3.662649914622306824e-02,-9.831315279006958008e-02,1.550538241863250732e-01,1.128008812665939331e-01,-3.131105005741119385e-02,1.277236640453338623e-01,7.390911877155303955e-02,-6.837347894906997681e-02
1.263266056776046753e-01,8.021352440118789673e-02,2.008984237909317017e-02,1.284487638622522354e-02,1.517857760190963745e-01,-2.394529618322849274e-02,-3.561761602759361267e-02,-2.887919172644615173e-02,-1.632038205862045288e-01
-4.620235040783882141e-02,-1.096234936267137527e-02,7.415029406547546387e-02,-1.015812233090400696e-01,-5.014578998088836670e-02,1.012656614184379578e-01,4.894754290580749512e-02,-1.162091046571731567e-01,5.008877441287040710e-02
5.045668408274650574e-02,8.741524815559387207e-02,-5.415116995573043823e-02,1.093908306211233139e-02,8.838845044374465942e-02,1.104379668831825256e-01,5.847427994012832642e-02,1.905371397733688354e-01,1.537358462810516357e-01
5.688766017556190491e-02,1.277893874794244766e-02,-5.337874963879585266e-02,1.417526453733444214e-01,9.414341300725936890e-03,-1.815613061189651489e-01,1.091259121894836426e-01,5.565804243087768555e-02,-1.048571169376373291e-01
4.638279974460601807e-02,5.135222151875495911e-02,-7.979809492826461792e-02,1.470364928245544434e-01,6.026322767138481140e-02,1.110320985317230225e-01,1.058074310421943665e-01,1.449773460626602173e-01,6.049277633428573608e-02
1.425827294588088989e-01,1.264792680740356445e-02,-6.150826811790466309e-02,1.426845043897628784e-01,-5.247420817613601685e-02,-7.945735007524490356e-03,1.534174829721450806e-01,1.453792303800582886e-01,1.129075959324836731e-01
8.950737863779067993e-02,9.192688018083572388e-02,5.575142428278923035e-02,-2.533611468970775604e-02,4.600787535309791565e-02,-5.513881146907806396e-02,-7.062121480703353882e-02,1.153759658336639404e-01,3.900581225752830505e-02
1.185994371771812439e-01,1.024823263287544250e-01,7.320237904787063599e-02,-5.155168101191520691e-02,1.326677501201629639e-01,-3.445493057370185852e-02,7.724346220493316650e-02,1.091784313321113586e-01,6.274331361055374146e-02
-1.201665550470352173e-01,-1.904125809669494629e-01,-1.044767275452613831e-01,-4.571211710572242737e-02,8.109554648399353027e-02,4.859611019492149353e-02,1.603728234767913818e-01,8.340150117874145508e-02,1.088851764798164368e-01
-1.230828911066055298e-01,-1.659583896398544312e-01,7.734290324151515961e-03,7.600937783718109131e-02,5.128869786858558655e-02,-7.909138500690460205e-02,6.560115516185760498e-02,8.893589675426483154e-02,7.152819633483886719e-02
-1.021414473652839661e-01,4.602673649787902832e-02,9.597595781087875366e-03,4.112152755260467529e-02,1.600392758846282959e-01,1.352189928293228149e-01,6.113213300704956055e-02,1.547165513038635254e-01,5.125580355525016785e-02
1.527376174926757812e-01,1.226757019758224487e-01,1.483086347579956055e-01,8.213950693607330322e-02,2.002057246863842010e-02,1.487017571926116943e-01,-1.057386249303817749e-01,-2.096294015645980835e-01,-1.407786458730697632e-01
1.152808666229248047e-01,-1.045781224966049194e-01,-1.456461101770401001e-01,1.716722249984741211e-01,3.598394617438316345e-02,-1.723287850618362427e-01,6.300165504217147827e-02,1.964053958654403687e-01,-2.130625583231449127e-02
-5.942070111632347107e-02,7.514993846416473389e-02,1.598384678363800049e-01,-6.027792766690254211e-02,-4.195325076580047607e-02,5.620684847235679626e-02,-1.127949729561805725e-01,2.524295076727867126e-02,6.845631450414657593e-02
-1.083096638321876526e-01,5.210720933973789215e-03,-3.187513351440429688e-02,1.007165014743804932e-01,7.827488332986831665e-02,-3.562780097126960754e-02,-3.746724873781204224e-02,7.014817744493484497e-02,-5.655934289097785950e-02
6.115751713514328003e-02,-7.217413932085037231e-02,-1.670470833778381348e-01,4.163702577352523804e-02,1.306225955486297607e-01,6.633110344409942627e-02,4.561024531722068787e-02,1.147439405322074890e-01,7.655386626720428467e-02
1.331852078437805176e-01,-6.953538954257965088e-02,-1.107081677764654160e-02,5.114283785223960876e-02,7.372114062309265137e-02,1.852239221334457397e-01,9.014177322387695312e-02,1.268995255231857300e-01,1.590029448270797729e-01
-1.166325528174638748e-03,-1.420406741090118885e-03,1.811833828687667847e-01,-2.455962076783180237e-02,-4.727235808968544006e-02,-2.102050743997097015e-02,4.426665604114532471e-02,-1.337079554796218872e-01,-5.557632073760032654e-02
-1.967166364192962646e-01,3.580413386225700378e-02,2.850299514830112457e-02,-1.243260353803634644e-01,3.954384010285139084e-03,1.385085731744766235e-01,-7.035078108310699463e-02,8.035334199666976929e-02,6.551905721426010132e-02
-1.080640256404876709e-01,-2.037410624325275421e-02,-7.251008879393339157e-03,1.239564269781112671e-01,5.734618008136749268e-02,-1.371119543910026550e-02,-4.849284514784812927e-02,-7.196433097124099731e-02,-2.385538071393966675e-02
3.556406125426292419e-03,1.866945326328277588e-01,1.908497214317321777e-01,1.059432476758956909e-01,-6.408933550119400024e-02,-8.158064633607864380e-02,-1.779653578996658325e-01,-1.721722930669784546e-01,-3.071142919361591339e-02
-1.404827386140823364e-01,-1.494722664356231689e-01,2.200640365481376648e-02,-1.428101360797882080e-01,-1.024999655783176422e-03,9.110040962696075439e-02,-1.097780317068099976e-01,-6.694336980581283569e-02,1.320465803146362305e-01
-2.722300589084625244e-01,-2.332977205514907837e-01,9.289695322513580322e-02,-9.371454268693923950e-02,8.156094700098037720e-02,2.472305297851562500e-02,1.192406564950942993e-01,2.000160664319992065e-01,2.027079761028289795e-01
1.240023970603942871e-02,1.495162844657897949e-01,6.296624988317489624e-02,-2.352817915380001068e-02,9.966126829385757446e-02,1.211680024862289429e-01,-1.520990580320358276e-01,-9.739839285612106323e-02,1.112316921353340149e-01
-2.337567657232284546e-01,-5.354060605168342590e-02,2.306757122278213501e-02,-1.115227490663528442e-01,-1.697866804897785187e-02,4.376948252320289612e-02,-4.556590691208839417e-02,4.780106246471405029e-02,1.937294900417327881e-01
-6.952246278524398804e-02,-6.593625247478485107e-02,-2.251243777573108673e-02,6.289753317832946777e-02,1.550970971584320068e-01,6.697265058755874634e-02,1.211322247982025146e-01,1.484289169311523438e-01,1.726158522069454193e-02
7.357217371463775635e-02,1.174961850047111511e-01,1.328254789113998413e-01,1.209956407546997070e-02,8.283600956201553345e-02,7.908613979816436768e-02,6.994704902172088623e-02,-3.619090840220451355e-02,8.502288907766342163e-02
1.021009609103202820e-01,2.751787379384040833e-02,-6.421367079019546509e-02,7.819093018770217896e-02,1.867645233869552612e-01,1.180518642067909241e-01,1.591989994049072266e-01,3.465556073933839798e-03,3.153610974550247192e-02
6.571982055902481079e-02,1.473201215267181396e-01,-6.136726960539817810e-02,-4.017610102891921997e-02,5.133838951587677002e-02,1.367250084877014160e-01,1.112424731254577637e-01,7.236892729997634888e-02,3.288295865058898926e-02
2.585280127823352814e-02,1.525822430849075317e-01,1.441472917795181274e-01,-4.978162702172994614e-03,1.558855921030044556e-01,1.428493857383728027e-01,-2.497014962136745453e-02,3.063613735139369965e-02,1.121668494306504726e-03
1.344573944807052612e-01,1.237606704235076904e-01,-1.054739486426115036e-02,1.179930418729782104e-01,2.800962515175342560e-02,9.131027758121490479e-02,3.001769632101058960e-02,1.122367829084396362e-01,1.365050375461578369e-01
1.630831360816955566e-01,3.787948936223983765e-02,9.680841863155364990e-02,-2.202649414539337158e-02,1.682020574808120728e-01,5.705210845917463303e-03,-1.527293920516967773e-01,-2.710689045488834381e-02,1.127554252743721008e-01
-9.494784753769636154e-04,-1.065589264035224915e-01,-1.005853489041328430e-01,1.077851355075836182e-01,1.312805712223052979e-01,-5.006745830178260803e-02,-5.663442611694335938e-02,1.552971173077821732e-02,1.185574680566787720e-01
1.534698009490966797e-01,6.743435561656951904e-02,1.948131322860717773e-01,6.893447786569595337e-02,7.457080483436584473e-02,-6.071993708610534668e-02,-1.692979037761688232e-01,-2.293295413255691528e-01,-1.429166793823242188e-01
-1.901299692690372467e-02,4.200215637683868408e-02,1.000666022300720215e-01,-7.451034337282180786e-02,-3.375612944364547729e-02,9.907942265272140503e-02,-2.923608571290969849e-02,-1.719629508443176746e-03,1.028192192316055298e-01
1.413207501173019409e-01,8.033996820449829102e-02,1.517885550856590271e-02,6.999125331640243530e-02,1.436093896627426147e-01,5.715585500001907349e-02,1.008073240518569946e-01,1.180077046155929565e-01,-3.854948154184967279e-04
-8.526326715946197510e-02,-1.010682061314582825e-01,1.017684936523437500e-01,7.652600854635238647e-02,6.961290538311004639e-02,9.777487814426422119e-02,6.827991455793380737e-03,2.389661036431789398e-02,-1.147235855460166931e-01
8.386046439409255981e-02,1.026977002620697021e-01,1.207710132002830505e-01,3.548257052898406982e-02,1.529411692172288895e-02,1.310503035783767700e-01,-1.398982107639312744e-01,5.227765813469886780e-02,1.500301342457532883e-02
-2.626105584204196930e-02,1.202172711491584778e-01,1.202890090644359589e-02,1.450144499540328979e-01,4.436449334025382996e-02,8.990224450826644897e-02,1.609540134668350220e-01,2.348648756742477417e-02,-1.904646679759025574e-02
8.982894569635391235e-02,3.057486005127429962e-02,-1.045514643192291260e-01,-6.126675009727478027e-02,1.653124988079071045e-01,4.037437960505485535e-02,-4.192604497075080872e-02,1.156802922487258911e-01,3.614851459860801697e-02
1.219229549169540405e-01,1.732409000396728516e-01,1.017488390207290649e-01,6.255161762237548828e-02,8.910973370075225830e-02,-3.540052101016044617e-02,2.341892383992671967e-02,-1.316112875938415527e-01,-4.233269393444061279e-02
1.547511667013168335e-01,5.556319653987884521e-02,-1.484119892120361328e-01,3.967656940221786499e-02,5.807023495435714722e-03,7.743436098098754883e-02,-9.161561727523803711e-03,8.961778134107589722e-02,6.112229079008102417e-02
1.008862555027008057e-01,5.368634685873985291e-02,-1.419117748737335205e-01,9.633816033601760864e-02,3.378344699740409851e-02,-1.493690311908721924e-01,7.618153095245361328e-02,-1.036043092608451843e-02,-7.101774960756301880e-02
1.353346258401870728e-01,-8.815173804759979248e-02,-9.874538518488407135e-03,1.473914384841918945e-01,-5.689142644405364990e-02,-2.503653801977634430e-02,5.452522262930870056e-02,6.686086952686309814e-02,8.372285962104797363e-02
1.286044567823410034e-01,1.295834630727767944e-01,1.249476075172424316e-01,-5.765869468450546265e-02,1.213222146034240723e-01,1.786237000487744808e-03,-9.096485376358032227e-02,-4.868043214082717896e-02,1.358033865690231323e-01
1.282041613012552261e-02,-3.954858705401420593e-02,-2.866240404546260834e-02,1.047182232141494751e-01,-3.257755935192108154e-02,-5.793411284685134888e-02,1.269103437662124634e-01,-2.219372987747192383e-02,1.691689938306808472e-01
-7.519812136888504028e-02,-6.886699795722961426e-02,-1.089408099651336670e-01,1.526742428541183472e-01,-4.086718708276748657e-02,7.053843140602111816e-02,9.926685690879821777e-02,1.609507203102111816e-01,5.426204204559326172e-02
9.745443612337112427e-02,9.753595292568206787e-02,-2.169867977499961853e-02,8.943966031074523926e-02,1.149263605475425720e-01,1.082073301076889038e-01,9.680369496345520020e-02,6.665617972612380981e-02,1.175501272082328796e-01
-1.723027825355529785e-01,-1.483858227729797363e-01,-5.867372732609510422e-03,-1.228967010974884033e-01,1.497881207615137100e-02,8.488477021455764771e-02,-8.999475091695785522e-02,-1.957583986222743988e-02,1.217648610472679138e-01
-1.733255386352539062e-01,-4.597463458776473999e-02,5.062698572874069214e-02,-4.365725070238113403e-02,-7.419405039399862289e-03,1.439098119735717773e-01,-1.022075489163398743e-01,1.057780236005783081e-01,-9.152782149612903595e-03
1.007733866572380066e-01,1.882349252700805664e-01,1.374457478523254395e-01,1.845881156623363495e-02,1.558741629123687744e-01,-2.995798597112298012e-03,8.271361142396926880e-02,-1.123367175459861755e-01,-1.276459842920303345e-01
-1.020831316709518433e-01,1.838888414204120636e-02,1.199892237782478333e-01,-2.008567564189434052e-02,-5.397621914744377136e-02,1.463641822338104248e-01,-1.137109398841857910e-01,7.255125790834426880e-03,1.127839013934135437e-01
-1.424273997545242310e-01,3.859602659940719604e-02,1.207153424620628357e-01,-1.154034137725830078e-01,-1.973379105329513550e-01,-1.123055964708328247e-01,1.483787596225738525e-01,8.651647716760635376e-03,-8.228949457406997681e-02
1.294422298669815063e-01,1.407146602869033813e-01,1.724603921175003052e-01,1.201247274875640869e-01,1.162626892328262329e-01,1.547593176364898682e-01,-7.124818116426467896e-02,-6.804182380437850952e-02,4.125200957059860229e-02
9.808719158172607422e-02,-3.860378265380859375e-02,-1.299448907375335693e-01,1.154167801141738892e-01,1.336133200675249100e-02,1.060966104269027710e-01,4.828691110014915466e-02,-1.995570212602615356e-02,1.031698286533355713e-01
9.366853535175323486e-02,-3.835422219708561897e-03,1.094576939940452576e-01,4.714145325124263763e-03,1.512120664119720459e-01,7.409325242042541504e-02,1.270197425037622452e-02,1.240158081054687500e-01,2.280912548303604126e-02
1.462922692298889160e-01,1.297707553021609783e-03,1.417545676231384277e-01,8.040095120668411255e-02,1.757004708051681519e-01,1.618885844945907593e-01,-7.726267725229263306e-02,6.074491515755653381e-02,1.203691512346267700e-01
1.410559713840484619e-01,3.404637798666954041e-02,1.374915391206741333e-01,1.467164009809494019e-01,1.054066345095634460e-01,7.158614695072174072e-02,1.566321402788162231e-01,3.248661011457443237e-02,3.373770043253898621e-02
-1.501986384391784668e-01,-4.344759136438369751e-02,7.277833670377731323e-02,-6.307604908943176270e-02,8.821915835142135620e-02,1.113505214452743530e-01,9.434200823307037354e-02,1.722843945026397705e-01,7.016022503376007080e-02
1.534766554832458496e-01,1.598694771528244019e-01,5.491857975721359253e-02,1.346340477466583252e-01,1.066532433032989502e-01,8.183853328227996826e-02,1.265917271375656128e-01,4.410834982991218567e-02,1.028885394334793091e-01
-9.614548087120056152e-02,-7.342702150344848633e-02,4.655483178794384003e-03,8.567315340042114258e-02,-2.079756371676921844e-02,1.381746828556060791e-01,1.042215153574943542e-01,1.018862575292587280e-01,1.145113036036491394e-01
7.252988964319229126e-02,-5.861496552824974060e-03,-1.156083047389984131e-01,1.146147958934307098e-02,8.742033690214157104e-02,8.345957845449447632e-02,1.400508731603622437e-01,2.430031634867191315e-02,-8.676296100020408630e-03
7.322406023740768433e-02,1.429896801710128784e-01,9.614960849285125732e-02,-6.165853887796401978e-02,-4.833364859223365784e-02,-1.324427723884582520e-01,-1.085318922996520996e-01,-1.189930438995361328e-01,-6.850094534456729889e-03
1.626893132925033569e-01,1.395782083272933960e-01,6.516449898481369019e-02,7.110792398452758789e-02,1.737218946218490601e-01,4.090209305286407471e-02,-2.911091595888137817e-02,-1.400257050991058350e-01,-1.488127410411834717e-01
1.126116663217544556e-01,8.528488874435424805e-02,1.328031420707702637e-01,-3.030976280570030212e-03,1.033285483717918396e-01,-5.626541096717119217e-03,8.454407751560211182e-02,1.014263331890106201e-01,1.115285605192184448e-01
-1.040964648127555847e-01,-1.470042914152145386e-01,-7.986673712730407715e-02,-9.703921386972069740e-04,-4.754700884222984314e-02,-3.677807748317718506e-02,1.498903781175613403e-01,7.469128817319869995e-02,1.640850007534027100e-01
1.231953967362642288e-02,1.183123365044593811e-01,1.474079042673110962e-01,2.883386425673961639e-02,7.889848202466964722e-02,1.271290779113769531e-01,-6.507198512554168701e-02,-4.150411859154701233e-02,1.176998615264892578e-01
1.073798015713691711e-01,1.678868979215621948e-01,1.837731450796127319e-01,-8.014284074306488037e-02,-2.597966976463794708e-02,5.601455643773078918e-02,1.253023277968168259e-03,-6.412601470947265625e-02,1.147934421896934509e-01
-1.476822048425674438e-01,-4.062574356794357300e-02,-1.281818151473999023e-01,-7.075778394937515259e-02,8.650819957256317139e-02,-3.661819919943809509e-02,1.320522278547286987e-01,9.682884067296981812e-02,-8.882566355168819427e-03
9.410989284515380859e-02,6.641373783349990845e-02,8.836892992258071899e-02,1.281242072582244873e-01,5.401664227247238159e-02,1.814763247966766357e-02,5.992125719785690308e-02,7.790664583444595337e-02,5.028657987713813782e-02
1.452767997980117798e-01,4.602947831153869629e-02,9.574250876903533936e-02,1.077141240239143372e-01,1.606682986021041870e-01,1.582951694726943970e-01,-9.616668336093425751e-03,1.639782041311264038e-01,1.384344696998596191e-01
8.788625150918960571e-02,3.897725790739059448e-02,1.543802022933959961e-01,3.986484929919242859e-02,4.334037005901336670e-02,1.617739796638488770e-01,-4.948024172335863113e-03,-7.263659685850143433e-02,5.537598952651023865e-02
1.721086949110031128e-01,5.385961011052131653e-02,-2.441180124878883362e-02,5.429414659738540649e-02,9.352018684148788452e-02,-2.650802955031394958e-02,9.462930262088775635e-02,-9.425603202544152737e-04,2.200170978903770447e-02
1.483883708715438843e-01,-1.830390281975269318e-02,-1.395582258701324463e-01,4.444706439971923828e-02,8.291951566934585571e-02,9.773544967174530029e-02,-8.127331733703613281e-02,1.203372702002525330e-01,1.060005575418472290e-01
4.504107683897018433e-02,1.271970421075820923e-01,1.091320533305406570e-02,6.878427416086196899e-02,-9.596431255340576172e-02,-1.211402565240859985e-01,-8.939055353403091431e-02,-5.632552877068519592e-02,9.817376732826232910e-02
1.527536511421203613e-01,9.434757381677627563e-02,5.074366927146911621e-02,-2.659543044865131378e-02,-4.727076366543769836e-02,6.070643663406372070e-02,-2.000108361244201660e-01,9.977265261113643646e-03,-1.178152263164520264e-01
2.319766581058502197e-02,1.248504072427749634e-01,1.022525057196617126e-01,8.613472431898117065e-02,-8.808148652315139771e-02,-2.278440445661544800e-02,-1.693977713584899902e-01,-3.385149314999580383e-02,-7.070551067590713501e-02
-8.717770129442214966e-02,1.421882659196853638e-01,1.849175542593002319e-01,1.676850616931915283e-01,1.713360846042633057e-01,1.534670591354370117e-02,2.944787591695785522e-02,-1.744595356285572052e-02,-1.136197373270988464e-01
9.242596477270126343e-02,-4.398129880428314209e-02,1.031662821769714355e-01,-2.557709254324436188e-02,1.140815094113349915e-01,9.087991714477539062e-02,-1.830977387726306915e-02,1.338353008031845093e-01,1.203295364975929260e-01
-9.584422409534454346e-02,-4.571894928812980652e-02,5.920583754777908325e-02,1.151216104626655579e-01,1.195024251937866211e-01,1.011177301406860352e-01,2.526917494833469391e-02,-6.909298896789550781e-02,-9.949865937232971191e-02
1.500517129898071289e-01,1.133543848991394043e-01,-2.529366314411163330e-02,9.579157829284667969e-02,1.955684088170528412e-02,9.228550642728805542e-02,1.537956446409225464e-01,1.696456782519817352e-02,5.920217372477054596e-03
-1.021344214677810669e-02,1.028061807155609131e-01,-6.697931140661239624e-02,-7.175775617361068726e-02,7.194539159536361694e-02,5.332384258508682251e-02,1.300151199102401733e-01,3.650852665305137634e-02,1.416198313236236572e-01
-7.791566103696823120e-02,-6.620114296674728394e-02,9.361923485994338989e-02,1.361816972494125366e-01,6.007795408368110657e-02,1.583602279424667358e-01,2.408766001462936401e-02,1.325650662183761597e-01,1.636589467525482178e-01
-5.960528738796710968e-03,4.099505022168159485e-02,-1.759894043207168579e-01,1.931270062923431396e-01,1.068444252014160156e-01,-3.100827103480696678e-03,5.974256247282028198e-02,6.757651921361684799e-03,2.976733818650245667e-02
-3.883789479732513428e-02,-1.102021485567092896e-01,-1.017739772796630859e-01,9.005243331193923950e-02,5.064997449517250061e-02,1.022389382123947144e-01,3.644574433565139771e-02,5.740673467516899109e-02,1.386883407831192017e-01
1.725542694330215454e-01,2.958079427480697632e-02,-1.010196954011917114e-01,1.110217273235321045e-01,1.835482567548751831e-01,-3.151272982358932495e-02,-1.648903451859951019e-02,1.064617633819580078e-01,1.085366606712341309e-01
3.699901700019836426e-02,6.432855967432260513e-03,1.626477241516113281e-01,-2.631908282637596130e-02,-2.610653825104236603e-02,9.519136697053909302e-02,-4.467364773154258728e-02,1.567606441676616669e-02,3.064013272523880005e-02
-1.524802446365356445e-01,-1.741194128990173340e-01,-1.353849172592163086e-01,-4.338577017188072205e-02,-3.305733948945999146e-02,1.198087856173515320e-01,1.305718868970870972e-01,1.266601681709289551e-01,1.118817627429962158e-01
-4.730179160833358765e-02,1.441484987735748291e-01,5.677720159292221069e-02,7.613151520490646362e-02,1.725155562162399292e-01,1.589251868426799774e-02,1.447392255067825317e-01,1.458826065063476562e-01,-5.429583415389060974e-02
2.393110655248165131e-02,5.333308503031730652e-02,1.341699063777923584e-01,-5.606071650981903076e-02,7.472955435514450073e-02,1.079075708985328674e-01,6.854845583438873291e-02,6.316368281841278076e-02,1.337478607892990112e-01
1.063928753137588501e-01,1.141029298305511475e-01,1.261900216341018677e-01,-7.771836128085851669e-03,7.828953117132186890e-02,9.000885486602783203e-02,-5.703252553939819336e-02,-5.136993154883384705e-02,9.103560447692871094e-02
-1.385295689105987549e-01,-1.022127196192741394e-01,-1.403565853834152222e-01,-3.943738713860511780e-02,3.689877688884735107e-02,-2.504453435540199280e-02,1.657940149307250977e-01,4.690217599272727966e-02,1.109825633466243744e-02
7.207468152046203613e-02,5.594831705093383789e-02,-4.167083278298377991e-02,1.720032244920730591e-01,1.667810380458831787e-01,-3.551988303661346436e-02,1.376354247331619263e-01,8.202558755874633789e-02,-6.527519971132278442e-02
1.187600544653832912e-03,1.049031168222427368e-01,9.218765795230865479e-02,-1.159029975533485413e-01,-1.692384183406829834e-01,-4.431248083710670471e-02,9.258340299129486084e-02,1.253011822700500488e-02,-4.694705083966255188e-02
3.685583919286727905e-02,1.022573783993721008e-01,1.351523306220769882e-02,-1.013643741607666016e-01,-4.190230369567871094e-02,1.118209511041641235e-01,-1.350011974573135376e-01,5.456954985857009888e-02,1.764629334211349487e-01
-4.174019396305084229e-02,3.736018016934394836e-02,6.558817625045776367e-02,1.310630440711975098e-01,1.125863716006278992e-01,2.455099485814571381e-02,6.159972772002220154e-02,2.131803426891565323e-03,-7.018885016441345215e-02
1.427021324634552002e-01,1.089490354061126709e-01,4.965336248278617859e-02,5.589643865823745728e-02,9.155803173780441284e-02,-1.774383010342717171e-03,-1.036718674004077911e-02,-8.151049911975860596e-02,5.899028480052947998e-02
5.886904522776603699e-02,1.511087119579315186e-01,6.650470197200775146e-02,3.978700935840606689e-02,1.158386915922164917e-01,1.011158600449562073e-01,-1.233318522572517395e-01,-9.047378599643707275e-02,4.810006543993949890e-02
-1.696496605873107910e-01,-1.398255228996276855e-01,8.861626684665679932e-02,-8.110959827899932861e-02,1.089740693569183350e-01,3.849442675709724426e-02,1.533295661211013794e-01,9.571868181228637695e-02,1.123634055256843567e-01
-9.505756199359893799e-02,-5.796866957098245621e-03,9.970203042030334473e-02,-1.122376471757888794e-01,-1.792389899492263794e-02,1.443136483430862427e-01,-4.744608700275421143e-02,4.164327681064605713e-02,2.618859149515628815e-02
5.917411670088768005e-02,1.178659200668334961e-01,5.175028368830680847e-02,8.179157227277755737e-02,5.826787650585174561e-02,1.517354100942611694e-01,1.201236899942159653e-02,1.070365011692047119e-01,-4.901326727122068405e-03
5.996973719447851181e-03,1.545305550098419189e-01,1.033442765474319458e-01,3.124771267175674438e-02,1.260556280612945557e-01,3.333498165011405945e-02,-3.343783318996429443e-02,-1.296831816434860229e-01,-8.301210403442382812e-02
9.583055973052978516e-02,1.396683007478713989e-01,6.011855229735374451e-02,-3.101799078285694122e-02,1.547223031520843506e-01,9.140024892985820770e-03,1.131414249539375305e-02,-8.271107450127601624e-03,4.285702854394912720e-02
8.555320650339126587e-02,-4.356830939650535583e-02,-2.577087283134460449e-02,9.511414170265197754e-02,1.479916274547576904e-01,7.228345423936843872e-02,1.277336385101079941e-02,-5.440241470932960510e-02,-8.872304111719131470e-03
1.653293669223785400e-01,-2.894603088498115540e-02,-1.942665129899978638e-01,1.246526166796684265e-01,-4.843743517994880676e-03,-1.788106858730316162e-01,1.337245255708694458e-01,1.416794955730438232e-01,3.056340850889682770e-02
6.729937344789505005e-02,-7.177246361970901489e-02,-1.668515801429748535e-01,1.104505881667137146e-01,1.248449310660362244e-01,-8.270268887281417847e-02,1.003385260701179504e-01,4.195785149931907654e-02,1.191605776548385620e-01
-9.195482730865478516e-02,-3.664242848753929138e-02,9.423600137233734131e-02,-7.636047154664993286e-02,1.380084306001663208e-01,1.315007358789443970e-01,1.585013046860694885e-02,1.963664032518863678e-02,6.011281162500381470e-02
-1.856573522090911865e-01,-1.434759795665740967e-01,-1.500665396451950073e-01,-9.110173210501670837e-03,-3.406275808811187744e-02,-1.793896593153476715e-02,2.803993783891201019e-02,1.456517577171325684e-01,1.597489565610885620e-01
-1.899342983961105347e-01,-1.690133363008499146e-01,1.950160413980484009e-02,-1.053214520215988159e-01,4.424017295241355896e-02,1.621220409870147705e-01,6.267422437667846680e-02,1.347842067480087280e-01,1.690091937780380249e-01
1.530229002237319946e-01,8.260458707809448242e-02,1.525777876377105713e-01,-3.357050940394401550e-02,-1.949021592736244202e-02,-6.512229144573211670e-02,-1.611192226409912109e-01,-8.262640982866287231e-02,-3.281840309500694275e-02
-8.233250677585601807e-02,5.966464802622795105e-02,3.888652101159095764e-02,1.207901281304657459e-03,1.759414076805114746e-01,2.635261788964271545e-02,1.823081225156784058e-01,9.399933367967605591e-02,-3.849823027849197388e-02
3.212173469364643097e-03,1.458153128623962402e-01,3.629508614540100098e-02,8.147106319665908813e-02,9.154153615236282349e-02,-2.386770024895668030e-02,-6.691088434308767319e-03,1.091377362608909607e-01,-7.978839427232742310e-02
1.691122055053710938e-01,1.289123110473155975e-02,-7.192410528659820557e-02,1.334380358457565308e-01,5.543692409992218018e-02,1.320854425430297852e-01,-3.878182498738169670e-03,1.478398125618696213e-02,-7.929266244173049927e-02
2.486507035791873932e-02,9.741815179586410522e-02,1.342483162879943848e-01,6.798035651445388794e-02,7.932361960411071777e-02,-1.049369946122169495e-02,-9.593704342842102051e-02,-5.215670168399810791e-02,-8.550554513931274414e-02
6.516601890325546265e-02,-1.162189394235610962e-01,-1.637788116931915283e-01,3.480930998921394348e-02,-2.739521674811840057e-02,-6.903425604104995728e-02,1.549056768417358398e-01,4.044850543141365051e-02,1.249075159430503845e-01
1.416066102683544159e-02,7.670348882675170898e-02,4.305954277515411377e-02,2.377859130501747131e-02,1.574195921421051025e-01,1.511279027909040451e-02,-5.808060988783836365e-02,1.130297258496284485e-01,4.313518479466438293e-02
-5.514480173587799072e-03,1.128179207444190979e-01,1.342825293540954590e-01,2.278386987745761871e-02,8.824167400598526001e-02,1.229224056005477905e-01,-2.828224934637546539e-02,-1.714341938495635986e-01,-1.219088882207870483e-01
-4.058009013533592224e-02,-8.026824146509170532e-02,8.068297803401947021e-02,-9.656610898673534393e-03,1.095449030399322510e-01,1.239491701126098633e-01,1.467473059892654419e-01,3.644136711955070496e-02,1.337549686431884766e-01
-6.636031717061996460e-02,-1.769309043884277344e-01,-1.809611218050122261e-03,1.298098117113113403e-01,-9.183754026889801025e-02,-3.570494800806045532e-02,1.717651039361953735e-01,6.493072211742401123e-02,-8.181354030966758728e-03
4.926124215126037598e-02,1.049967780709266663e-01,9.104872494935989380e-02,9.126067161560058594e-02,4.017428960651159286e-03,-7.541427016258239746e-02,-1.742605417966842651e-01,-1.058142557740211487e-01,5.275231786072254181e-03
3.531355038285255432e-02,1.187926083803176880e-01,-2.458753809332847595e-02,6.190922483801841736e-02,4.676596075296401978e-02,2.720552310347557068e-02,-1.613592356443405151e-01,-4.708087071776390076e-02,1.180891972035169601e-02
7.711376529186964035e-03,1.042783409357070923e-01,7.532837986946105957e-02,1.560103241354227066e-02,9.665948152542114258e-02,1.200487986207008362e-01,6.931827403604984283e-03,1.553744077682495117e-01,3.011086769402027130e-02
-1.954673230648040771e-02,1.714590042829513550e-01,1.030213758349418640e-01,1.718214899301528931e-02,1.476190537214279175e-01,7.978309690952301025e-02,-1.151387989521026611e-01,5.033279210329055786e-02,1.002469062805175781e-01
1.102987751364707947e-01,1.549286395311355591e-01,1.193572431802749634e-01,-1.014381274580955505e-01,-4.866841062903404236e-02,2.462795004248619080e-02,-6.355694681406021118e-02,1.211075559258460999e-01,8.609126508235931396e-02
-1.452180091291666031e-02,1.427711993455886841e-01,1.022719442844390869e-01,4.551034048199653625e-02,-2.809578739106655121e-02,1.215312331914901733e-01,-1.635928303003311157e-01,-1.473557800054550171e-01,-8.615958690643310547e-02
5.248770862817764282e-02,1.281589120626449585e-01,-1.601992733776569366e-02,5.300299823284149170e-02,1.241997852921485901e-01,-1.860165968537330627e-02,1.099916398525238037e-01,5.740081146359443665e-02,-8.967213332653045654e-02
3.239699453115463257e-02,1.059599816799163818e-01,8.358170837163925171e-02,1.583540141582489014e-01,6.174043752253055573e-03,5.367128178477287292e-02,-3.406893461942672729e-02,-1.280101984739303589e-01,-1.267304271459579468e-01
1.717907562851905823e-02,4.777906462550163269e-02,1.094745248556137085e-01,1.267122328281402588e-01,3.782721608877182007e-02,-8.055287599563598633e-02,8.236198872327804565e-02,-1.190540613606572151e-03,-6.113992258906364441e-02
6.391251087188720703e-02,8.436087518930435181e-02,2.512944489717483521e-02,-5.701686814427375793e-02,1.778186708688735962e-01,5.897045508027076721e-02,8.586344122886657715e-02,3.517097607254981995e-02,1.491895467042922974e-01
1.617287546396255493e-01,-4.909519478678703308e-02,-5.637055262923240662e-03,1.577045321464538574e-01,6.926767528057098389e-02,-8.042436838150024414e-02,8.539059013128280640e-02,-2.118233777582645416e-02,-1.278154551982879639e-01
-1.133244186639785767e-01,-2.437357977032661438e-02,-1.477565765380859375e-01,8.639813214540481567e-02,-3.626956045627593994e-02,-6.326203048229217529e-02,1.550633758306503296e-01,5.174729600548744202e-02,5.402266234159469604e-02
1.451668795198202133e-02,1.476729065179824829e-01,1.462698578834533691e-01,3.737415745854377747e-02,1.596997678279876709e-01,5.040225759148597717e-02,1.522858738899230957e-01,1.363860368728637695e-01,7.500115036964416504e-02
1.780629307031631470e-01,1.533870995044708252e-01,2.327096462249755859e-02,-4.886879399418830872e-02,-2.577973157167434692e-02,7.797110825777053833e-02,-2.395207248628139496e-02,-1.566608399152755737e-01,-1.038751602172851562e-01
1.952693914063274860e-03,7.056690007448196411e-02,7.025352120399475098e-02,1.875607520341873169e-01,1.259242743253707886e-01,-1.416902989149093628e-02,1.618943661451339722e-01,1.089301109313964844e-01,1.444965153932571411e-01
-3.772437945008277893e-02,-2.794717811048030853e-02,-3.570153936743736267e-02,1.707275807857513428e-01,5.003631860017776489e-02,-9.366851300001144409e-02,1.624815613031387329e-01,1.521374434232711792e-01,1.411363780498504639e-01
-1.252965331077575684e-01,-1.744607388973236084e-01,-9.183855354785919189e-02,4.627259075641632080e-02,-1.123898290097713470e-02,-1.546782106161117554e-01,1.616662293672561646e-01,7.572536170482635498e-02,1.653266325592994690e-02
1.543598771095275879e-01,2.994261123239994049e-02,1.213245987892150879e-01,1.119223386049270630e-01,1.136183142662048340e-01,-4.568998701870441437e-03,6.219588592648506165e-02,-3.430502116680145264e-02,1.412137597799301147e-01
-3.840514272451400757e-02,1.497536003589630127e-01,2.673074416816234589e-02,1.138855218887329102e-01,-1.508028712123632431e-02,5.521531403064727783e-02,-1.709017716348171234e-02,6.418525427579879761e-02,5.293803289532661438e-02
-7.728223502635955811e-02,7.968529313802719116e-02,2.039020881056785583e-02,1.375005990266799927e-01,7.357096672058105469e-02,-5.401522293686866760e-02,1.028186008334159851e-01,5.425835773348808289e-02,-1.693567447364330292e-02
-1.882303506135940552e-02,1.521964967250823975e-01,1.560288518667221069e-01,1.140213012695312500e-01,1.544029414653778076e-01,1.105215623974800110e-01,5.006810184568166733e-03,-5.682800430804491043e-03,1.307647377252578735e-01
8.554427325725555420e-02,-1.044625192880630493e-01,-1.659867614507675171e-01,1.324315071105957031e-01,-1.635814644396305084e-02,-6.695792824029922485e-02,1.379681006073951721e-02,1.669915914535522461e-01,1.433206163346767426e-02
7.255592942237854004e-02,9.482818096876144409e-02,-2.345815114676952362e-02,3.841853141784667969e-02,7.659789174795150757e-02,1.574393957853317261e-01,-6.976294517517089844e-02,3.486184868961572647e-04,8.847301453351974487e-02
1.631421148777008057e-01,9.981980919837951660e-02,-6.599427759647369385e-02,5.511286109685897827e-02,1.551493257284164429e-01,-6.643579900264739990e-02,1.407160460948944092e-01,7.534290105104446411e-02,9.815928339958190918e-02
1.729254573583602905e-01,1.449329257011413574e-01,-3.123838640749454498e-02,6.411380320787429810e-02,5.361502245068550110e-02,1.092170849442481995e-01,1.117538884282112122e-01,-1.844222657382488251e-02,-5.132043361663818359e-02
1.002286747097969055e-01,-2.575475163757801056e-02,-3.422320634126663208e-02,1.572784483432769775e-01,1.021038517355918884e-01,5.955069884657859802e-02,1.656496077775955200e-01,4.759429022669792175e-02,1.172693818807601929e-01
1.676379591226577759e-01,-2.331583574414253235e-02,-1.288194954395294189e-01,1.624603271484375000e-01,1.131416186690330505e-01,-3.249478712677955627e-02,-4.593947902321815491e-02,1.471313685178756714e-01,6.700740754604339600e-02
4.103255644440650940e-02,1.511852890253067017e-01,9.242960065603256226e-02,2.329246141016483307e-02,-7.122103869915008545e-02,7.898180931806564331e-02,-1.395535022020339966e-01,-1.238088309764862061e-01,-5.699046328663825989e-02
-1.145191937685012817e-01,-1.060943491756916046e-02,1.446380764245986938e-01,-8.437470346689224243e-02,1.088361255824565887e-02,1.461029425263404846e-02,1.092245802283287048e-01,-2.740262821316719055e-02,9.009755402803421021e-02
1.016906425356864929e-01,-5.826909840106964111e-02,-1.259784996509552002e-01,1.621982753276824951e-01,1.461437493562698364e-01,5.872670561075210571e-02,-2.573126740753650665e-02,3.222961723804473877e-02,2.193928137421607971e-02
-8.657191693782806396e-02,-1.462368816137313843e-01,9.451938420534133911e-02,1.324534118175506592e-01,-9.899451583623886108e-02,9.634762257337570190e-02,1.195127516984939575e-01,-8.560635894536972046e-02,-5.738385021686553955e-02
-1.052388269454240799e-02,1.972354352474212646e-01,1.155079007148742676e-01,1.253392100334167480e-01,1.347429398447275162e-02,9.512089192867279053e-03,-5.053232610225677490e-02,9.039531648159027100e-02,-6.285891681909561157e-02
-2.156102508306503296e-01,-1.397493481636047363e-01,7.128074765205383301e-02,-4.076128825545310974e-02,-1.585954427719116211e-02,5.521391332149505615e-02,-1.605946943163871765e-02,1.045439392328262329e-01,1.610856354236602783e-01
8.599731326103210449e-02,1.382134258747100830e-01,-6.328140199184417725e-02,9.652944654226303101e-02,4.794212058186531067e-02,-3.885122761130332947e-02,-3.979959338903427124e-02,2.148156240582466125e-02,1.152438968420028687e-01
-1.975837051868438721e-01,-1.057052686810493469e-01,-1.485874354839324951e-01,-3.938762098550796509e-02,2.456442452967166901e-02,1.723428815603256226e-02,1.958520710468292236e-01,6.464453041553497314e-02,1.462977081537246704e-01
1.439557373523712158e-01,1.162878349423408508e-01,9.595690667629241943e-02,-2.657033875584602356e-02,4.447285830974578857e-02,1.621494442224502563e-01,-8.464397490024566650e-02,6.888935714960098267e-02,9.423233568668365479e-02
1.383687853813171387e-01,5.504097789525985718e-03,-1.199623569846153259e-01,1.208262369036674500e-01,-1.570281200110912323e-02,-1.732116192579269409e-01,1.541031897068023682e-01,-2.131373248994350433e-02,-6.154397130012512207e-02
1.540227830410003662e-01,6.228111684322357178e-02,1.374429762363433838e-01,6.679541617631912231e-02,-3.010361455380916595e-02,4.455564543604850769e-02,1.537682265043258667e-01,2.511413581669330597e-02,8.938065916299819946e-02
-1.711876541376113892e-01,-1.207227334380149841e-01,-2.745467238128185272e-02,-8.974803239107131958e-02,3.493215143680572510e-02,1.213131025433540344e-01,4.254653304815292358e-02,1.891101524233818054e-02,1.472387611865997314e-01
1.603038460016250610e-01,1.697661727666854858e-01,1.542705744504928589e-01,1.594290435314178467e-01,-8.747552521526813507e-03,5.161556974053382874e-02,6.289790570735931396e-02,-2.505166269838809967e-02,-1.729051321744918823e-01
1.898212172091007233e-02,-4.461588710546493530e-02,-1.931868866086006165e-02,6.559903174638748169e-02,-1.042511500418186188e-02,8.728866279125213623e-02,1.804629117250442505e-01,1.446176469326019287e-01,4.331080242991447449e-02
-5.126028507947921753e-02,1.068411320447921753e-01,4.904874041676521301e-02,-3.076056577265262604e-02,-6.009912490844726562e-02,1.114497408270835876e-01,-1.780147477984428406e-02,9.159921854734420776e-02,3.139920532703399658e-02
1.147703602910041809e-01,-9.551936388015747070e-02,-4.725526273250579834e-02,3.142574056982994080e-02,-1.196677386760711670e-01,7.317088544368743896e-02,7.678980380296707153e-02,-1.668764054775238037e-01,2.720834687352180481e-02
-1.669867038726806641e-01,-7.592168450355529785e-02,1.287249326705932617e-01,1.370135787874460220e-02,9.620628505945205688e-02,1.408798396587371826e-01,-4.162691906094551086e-02,-6.218488328158855438e-03,1.218233034014701843e-01
7.427724543958902359e-03,1.654618382453918457e-01,1.788871586322784424e-01,1.182460691779851913e-02,1.362471133470535278e-01,-3.917351365089416504e-02,-4.986807331442832947e-02,-5.190763156861066818e-03,-7.751005887985229492e-02
1.642779558897018433e-01,1.255981475114822388e-01,7.357953116297721863e-03,-2.133616246283054352e-02,2.497569844126701355e-02,5.878308042883872986e-02,-3.785845264792442322e-02,-7.918176800012588501e-02,-1.322473585605621338e-02
1.127532944083213806e-01,1.395915895700454712e-01,-9.772650152444839478e-02,1.611030399799346924e-01,1.621304750442504883e-01,1.127782762050628662e-01,1.549416407942771912e-02,1.413403153419494629e-01,-3.106112033128738403e-02
-1.061111316084861755e-01,5.507963895797729492e-02,8.105382323265075684e-02,-7.603595405817031860e-02,-4.051330685615539551e-02,1.300173550844192505e-01,-6.356542557477951050e-02,1.187870949506759644e-01,8.664650470018386841e-02
-2.987877093255519867e-02,1.589639484882354736e-01,4.364417120814323425e-02,9.846775233745574951e-02,6.881285458803176880e-02,6.142063066363334656e-02,-6.183418631553649902e-02,-2.566510997712612152e-02,2.060385793447494507e-02
-1.532927453517913818e-01,1.031800061464309692e-01,1.158008445054292679e-02,1.539487857371568680e-02,-3.249593451619148254e-02,1.410610377788543701e-01,9.923742711544036865e-02,1.108218580484390259e-01,2.336960285902023315e-02
4.999086260795593262e-02,7.937303930521011353e-02,1.529521644115447998e-01,-1.259750593453645706e-02,1.289876550436019897e-01,1.370639652013778687e-01,1.986867934465408325e-02,3.867360204458236694e-02,1.385755091905593872e-01
-4.659902676939964294e-02,-1.321308016777038574e-01,-1.439318358898162842e-01,5.988163501024246216e-02,-4.779768362641334534e-02,9.102907031774520874e-02,1.619801372289657593e-01,2.642858959734439850e-02,-1.895020157098770142e-02
1.211564540863037109e-01,-4.308347404003143311e-02,5.617173854261636734e-03,1.544868014752864838e-02,1.619689613580703735e-01,1.410901248455047607e-01,1.510143727064132690e-01,1.589721590280532837e-01,1.475608199834823608e-01
5.442487075924873352e-02,-3.315197676420211792e-02,-9.359823167324066162e-02,5.809076875448226929e-02,-6.536310166120529175e-02,-1.557539254426956177e-01,8.247894793748855591e-02,1.108663007616996765e-01,7.778376340866088867e-02
5.368271842598915100e-03,-8.077166043221950531e-03,-6.681141257286071777e-02,1.258212141692638397e-02,1.045606657862663269e-01,1.041519120335578918e-01,-5.172327905893325806e-02,4.177293926477432251e-02,1.316193342208862305e-01
9.910880774259567261e-02,-4.611533507704734802e-02,-2.173272669315338135e-01,-3.313400968909263611e-02,1.350222527980804443e-01,-5.221737548708915710e-02,5.986040085554122925e-02,1.293767243623733521e-01,1.289580017328262329e-01
6.324253231287002563e-02,-2.005393430590629578e-02,1.024980191141366959e-02,9.622655808925628662e-02,-8.516103774309158325e-02,1.092198118567466736e-01,7.438349723815917969e-02,2.308132313191890717e-02,1.269336789846420288e-01
-4.583782330155372620e-02,9.191136062145233154e-02,1.701995432376861572e-01,3.422879055142402649e-02,3.712356835603713989e-02,1.499658972024917603e-01,1.275581866502761841e-01,3.568809852004051208e-02,6.109498441219329834e-02
-8.198083937168121338e-02,-1.035788729786872864e-01,7.145830988883972168e-02,-7.207608222961425781e-02,-7.290929555892944336e-02,6.959699094295501709e-02,-6.439837068319320679e-02,-7.426226884126663208e-02,8.229673653841018677e-02
-4.642468690872192383e-02,6.183082982897758484e-02,1.260781288146972656e-01,1.103870049118995667e-01,2.285873144865036011e-02,1.343272030353546143e-01,4.224222525954246521e-02,9.201239794492721558e-02,1.046456675976514816e-02
6.571655720472335815e-02,1.591107249259948730e-01,1.821266412734985352e-01,-2.584731206297874451e-02,-6.974660605192184448e-02,-5.990409851074218750e-02,-1.338387876749038696e-01,-1.007923707365989685e-01,-4.341868683695793152e-02
-4.263003915548324585e-02,8.312667906284332275e-02,-1.201044861227273941e-02,-1.047014519572257996e-01,-1.445864439010620117e-01,-9.864513576030731201e-02,1.336005777120590210e-01,5.419910326600074768e-02,8.730223774909973145e-02
1.398909091949462891e-01,5.397991091012954712e-02,-1.453134566545486450e-01,2.647330425679683685e-02,-3.750950843095779419e-02,-1.065579056739807129e-01,1.435586661100387573e-01,5.342148989439010620e-02,-8.175750076770782471e-02
-1.487260907888412476e-01,-1.488395780324935913e-01,-1.348488032817840576e-01,1.427867561578750610e-01,-3.065034048631787300e-03,-6.313109304755926132e-03,1.011843755841255188e-01,1.197958961129188538e-01,1.507470011711120605e-01
5.535410717129707336e-02,1.713317036628723145e-01,1.989737153053283691e-02,6.669675558805465698e-02,1.446132361888885498e-02,-3.227203385904431343e-03,-9.732195734977722168e-02,-1.837473213672637939e-01,-1.649342030286788940e-01
-1.170324236154556274e-01,-1.052446067333221436e-01,-3.671848773956298828e-02,1.710297167301177979e-02,-7.227729260921478271e-02,-3.739304095506668091e-02,1.882206052541732788e-01,5.814724788069725037e-02,5.723517760634422302e-02
